FANN_FLO_2.1
num_layers=3
learning_rate=0.700000
connection_rate=1.000000
network_type=0
learning_momentum=0.000000
training_algorithm=1
train_error_function=1
train_stop_function=0
cascade_output_change_fraction=0.010000
quickprop_decay=-0.000100
quickprop_mu=1.750000
rprop_increase_factor=1.200000
rprop_decrease_factor=0.500000
rprop_delta_min=0.000000
rprop_delta_max=50.000000
rprop_delta_zero=0.100000
cascade_output_stagnation_epochs=12
cascade_candidate_change_fraction=0.010000
cascade_candidate_stagnation_epochs=12
cascade_max_out_epochs=150
cascade_min_out_epochs=50
cascade_max_cand_epochs=150
cascade_min_cand_epochs=50
cascade_num_candidate_groups=2
bit_fail_limit=3.49999999999999977796e-01
cascade_candidate_limit=1.00000000000000000000e+03
cascade_weight_multiplier=4.00000000000000022204e-01
cascade_activation_functions_count=10
cascade_activation_functions=3 5 7 8 10 11 14 15 16 17 
cascade_activation_steepnesses_count=4
cascade_activation_steepnesses=2.50000000000000000000e-01 5.00000000000000000000e-01 7.50000000000000000000e-01 1.00000000000000000000e+00 
layer_sizes=785 16 11 
scale_included=0
neurons (num_inputs, activation_function, activation_steepness)=(0, 0, 0.00000000000000000000e+00) (0, 0, 0.00000000000000000000e+00) (0, 0, 0.00000000000000000000e+00) (0, 0, 0.00000000000000000000e+00) (0, 0, 0.00000000000000000000e+00) (0, 0, 0.00000000000000000000e+00) (0, 0, 0.00000000000000000000e+00) (0, 0, 0.00000000000000000000e+00) (0, 0, 0.00000000000000000000e+00) (0, 0, 0.00000000000000000000e+00) (0, 0, 0.00000000000000000000e+00) (0, 0, 0.00000000000000000000e+00) (0, 0, 0.00000000000000000000e+00) (0, 0, 0.00000000000000000000e+00) (0, 0, 0.00000000000000000000e+00) (0, 0, 0.00000000000000000000e+00) (0, 0, 0.00000000000000000000e+00) (0, 0, 0.00000000000000000000e+00) (0, 0, 0.00000000000000000000e+00) (0, 0, 0.00000000000000000000e+00) (0, 0, 0.00000000000000000000e+00) (0, 0, 0.00000000000000000000e+00) (0, 0, 0.00000000000000000000e+00) (0, 0, 0.00000000000000000000e+00) (0, 0, 0.00000000000000000000e+00) (0, 0, 0.00000000000000000000e+00) (0, 0, 0.00000000000000000000e+00) (0, 0, 0.00000000000000000000e+00) (0, 0, 0.00000000000000000000e+00) (0, 0, 0.00000000000000000000e+00) (0, 0, 0.00000000000000000000e+00) (0, 0, 0.00000000000000000000e+00) (0, 0, 0.00000000000000000000e+00) (0, 0, 0.00000000000000000000e+00) (0, 0, 0.00000000000000000000e+00) (0, 0, 0.00000000000000000000e+00) (0, 0, 0.00000000000000000000e+00) (0, 0, 0.00000000000000000000e+00) (0, 0, 0.00000000000000000000e+00) (0, 0, 0.00000000000000000000e+00) (0, 0, 0.00000000000000000000e+00) (0, 0, 0.00000000000000000000e+00) (0, 0, 0.00000000000000000000e+00) (0, 0, 0.00000000000000000000e+00) (0, 0, 0.00000000000000000000e+00) (0, 0, 0.00000000000000000000e+00) (0, 0, 0.00000000000000000000e+00) (0, 0, 0.00000000000000000000e+00) (0, 0, 0.00000000000000000000e+00) (0, 0, 0.00000000000000000000e+00) (0, 0, 0.00000000000000000000e+00) (0, 0, 0.00000000000000000000e+00) (0, 0, 0.00000000000000000000e+00) (0, 0, 0.00000000000000000000e+00) (0, 0, 0.00000000000000000000e+00) (0, 0, 0.00000000000000000000e+00) (0, 0, 0.00000000000000000000e+00) (0, 0, 0.00000000000000000000e+00) (0, 0, 0.00000000000000000000e+00) (0, 0, 0.00000000000000000000e+00) (0, 0, 0.00000000000000000000e+00) (0, 0, 0.00000000000000000000e+00) (0, 0, 0.00000000000000000000e+00) (0, 0, 0.00000000000000000000e+00) (0, 0, 0.00000000000000000000e+00) (0, 0, 0.00000000000000000000e+00) (0, 0, 0.00000000000000000000e+00) (0, 0, 0.00000000000000000000e+00) (0, 0, 0.00000000000000000000e+00) (0, 0, 0.00000000000000000000e+00) (0, 0, 0.00000000000000000000e+00) (0, 0, 0.00000000000000000000e+00) (0, 0, 0.00000000000000000000e+00) (0, 0, 0.00000000000000000000e+00) (0, 0, 0.00000000000000000000e+00) (0, 0, 0.00000000000000000000e+00) (0, 0, 0.00000000000000000000e+00) (0, 0, 0.00000000000000000000e+00) (0, 0, 0.00000000000000000000e+00) (0, 0, 0.00000000000000000000e+00) (0, 0, 0.00000000000000000000e+00) (0, 0, 0.00000000000000000000e+00) (0, 0, 0.00000000000000000000e+00) (0, 0, 0.00000000000000000000e+00) (0, 0, 0.00000000000000000000e+00) (0, 0, 0.00000000000000000000e+00) (0, 0, 0.00000000000000000000e+00) (0, 0, 0.00000000000000000000e+00) (0, 0, 0.00000000000000000000e+00) (0, 0, 0.00000000000000000000e+00) (0, 0, 0.00000000000000000000e+00) (0, 0, 0.00000000000000000000e+00) (0, 0, 0.00000000000000000000e+00) (0, 0, 0.00000000000000000000e+00) (0, 0, 0.00000000000000000000e+00) (0, 0, 0.00000000000000000000e+00) (0, 0, 0.00000000000000000000e+00) (0, 0, 0.00000000000000000000e+00) (0, 0, 0.00000000000000000000e+00) (0, 0, 0.00000000000000000000e+00) (0, 0, 0.00000000000000000000e+00) (0, 0, 0.00000000000000000000e+00) (0, 0, 0.00000000000000000000e+00) (0, 0, 0.00000000000000000000e+00) (0, 0, 0.00000000000000000000e+00) (0, 0, 0.00000000000000000000e+00) (0, 0, 0.00000000000000000000e+00) (0, 0, 0.00000000000000000000e+00) (0, 0, 0.00000000000000000000e+00) (0, 0, 0.00000000000000000000e+00) (0, 0, 0.00000000000000000000e+00) (0, 0, 0.00000000000000000000e+00) (0, 0, 0.00000000000000000000e+00) (0, 0, 0.00000000000000000000e+00) (0, 0, 0.00000000000000000000e+00) (0, 0, 0.00000000000000000000e+00) (0, 0, 0.00000000000000000000e+00) (0, 0, 0.00000000000000000000e+00) (0, 0, 0.00000000000000000000e+00) (0, 0, 0.00000000000000000000e+00) (0, 0, 0.00000000000000000000e+00) (0, 0, 0.00000000000000000000e+00) (0, 0, 0.00000000000000000000e+00) (0, 0, 0.00000000000000000000e+00) (0, 0, 0.00000000000000000000e+00) (0, 0, 0.00000000000000000000e+00) (0, 0, 0.00000000000000000000e+00) (0, 0, 0.00000000000000000000e+00) (0, 0, 0.00000000000000000000e+00) (0, 0, 0.00000000000000000000e+00) (0, 0, 0.00000000000000000000e+00) (0, 0, 0.00000000000000000000e+00) (0, 0, 0.00000000000000000000e+00) (0, 0, 0.00000000000000000000e+00) (0, 0, 0.00000000000000000000e+00) (0, 0, 0.00000000000000000000e+00) (0, 0, 0.00000000000000000000e+00) (0, 0, 0.00000000000000000000e+00) (0, 0, 0.00000000000000000000e+00) (0, 0, 0.00000000000000000000e+00) (0, 0, 0.00000000000000000000e+00) (0, 0, 0.00000000000000000000e+00) (0, 0, 0.00000000000000000000e+00) (0, 0, 0.00000000000000000000e+00) (0, 0, 0.00000000000000000000e+00) (0, 0, 0.00000000000000000000e+00) (0, 0, 0.00000000000000000000e+00) (0, 0, 0.00000000000000000000e+00) (0, 0, 0.00000000000000000000e+00) (0, 0, 0.00000000000000000000e+00) (0, 0, 0.00000000000000000000e+00) (0, 0, 0.00000000000000000000e+00) (0, 0, 0.00000000000000000000e+00) (0, 0, 0.00000000000000000000e+00) (0, 0, 0.00000000000000000000e+00) (0, 0, 0.00000000000000000000e+00) (0, 0, 0.00000000000000000000e+00) (0, 0, 0.00000000000000000000e+00) (0, 0, 0.00000000000000000000e+00) (0, 0, 0.00000000000000000000e+00) (0, 0, 0.00000000000000000000e+00) (0, 0, 0.00000000000000000000e+00) (0, 0, 0.00000000000000000000e+00) (0, 0, 0.00000000000000000000e+00) (0, 0, 0.00000000000000000000e+00) (0, 0, 0.00000000000000000000e+00) (0, 0, 0.00000000000000000000e+00) (0, 0, 0.00000000000000000000e+00) (0, 0, 0.00000000000000000000e+00) (0, 0, 0.00000000000000000000e+00) (0, 0, 0.00000000000000000000e+00) (0, 0, 0.00000000000000000000e+00) (0, 0, 0.00000000000000000000e+00) (0, 0, 0.00000000000000000000e+00) (0, 0, 0.00000000000000000000e+00) (0, 0, 0.00000000000000000000e+00) (0, 0, 0.00000000000000000000e+00) (0, 0, 0.00000000000000000000e+00) (0, 0, 0.00000000000000000000e+00) (0, 0, 0.00000000000000000000e+00) (0, 0, 0.00000000000000000000e+00) (0, 0, 0.00000000000000000000e+00) (0, 0, 0.00000000000000000000e+00) (0, 0, 0.00000000000000000000e+00) (0, 0, 0.00000000000000000000e+00) (0, 0, 0.00000000000000000000e+00) (0, 0, 0.00000000000000000000e+00) (0, 0, 0.00000000000000000000e+00) (0, 0, 0.00000000000000000000e+00) (0, 0, 0.00000000000000000000e+00) (0, 0, 0.00000000000000000000e+00) (0, 0, 0.00000000000000000000e+00) (0, 0, 0.00000000000000000000e+00) (0, 0, 0.00000000000000000000e+00) (0, 0, 0.00000000000000000000e+00) (0, 0, 0.00000000000000000000e+00) (0, 0, 0.00000000000000000000e+00) (0, 0, 0.00000000000000000000e+00) (0, 0, 0.00000000000000000000e+00) (0, 0, 0.00000000000000000000e+00) (0, 0, 0.00000000000000000000e+00) (0, 0, 0.00000000000000000000e+00) (0, 0, 0.00000000000000000000e+00) (0, 0, 0.00000000000000000000e+00) (0, 0, 0.00000000000000000000e+00) (0, 0, 0.00000000000000000000e+00) (0, 0, 0.00000000000000000000e+00) (0, 0, 0.00000000000000000000e+00) (0, 0, 0.00000000000000000000e+00) (0, 0, 0.00000000000000000000e+00) (0, 0, 0.00000000000000000000e+00) (0, 0, 0.00000000000000000000e+00) (0, 0, 0.00000000000000000000e+00) (0, 0, 0.00000000000000000000e+00) (0, 0, 0.00000000000000000000e+00) (0, 0, 0.00000000000000000000e+00) (0, 0, 0.00000000000000000000e+00) (0, 0, 0.00000000000000000000e+00) (0, 0, 0.00000000000000000000e+00) (0, 0, 0.00000000000000000000e+00) (0, 0, 0.00000000000000000000e+00) (0, 0, 0.00000000000000000000e+00) (0, 0, 0.00000000000000000000e+00) (0, 0, 0.00000000000000000000e+00) (0, 0, 0.00000000000000000000e+00) (0, 0, 0.00000000000000000000e+00) (0, 0, 0.00000000000000000000e+00) (0, 0, 0.00000000000000000000e+00) (0, 0, 0.00000000000000000000e+00) (0, 0, 0.00000000000000000000e+00) (0, 0, 0.00000000000000000000e+00) (0, 0, 0.00000000000000000000e+00) (0, 0, 0.00000000000000000000e+00) (0, 0, 0.00000000000000000000e+00) (0, 0, 0.00000000000000000000e+00) (0, 0, 0.00000000000000000000e+00) (0, 0, 0.00000000000000000000e+00) (0, 0, 0.00000000000000000000e+00) (0, 0, 0.00000000000000000000e+00) (0, 0, 0.00000000000000000000e+00) (0, 0, 0.00000000000000000000e+00) (0, 0, 0.00000000000000000000e+00) (0, 0, 0.00000000000000000000e+00) (0, 0, 0.00000000000000000000e+00) (0, 0, 0.00000000000000000000e+00) (0, 0, 0.00000000000000000000e+00) (0, 0, 0.00000000000000000000e+00) (0, 0, 0.00000000000000000000e+00) (0, 0, 0.00000000000000000000e+00) (0, 0, 0.00000000000000000000e+00) (0, 0, 0.00000000000000000000e+00) (0, 0, 0.00000000000000000000e+00) (0, 0, 0.00000000000000000000e+00) (0, 0, 0.00000000000000000000e+00) (0, 0, 0.00000000000000000000e+00) (0, 0, 0.00000000000000000000e+00) (0, 0, 0.00000000000000000000e+00) (0, 0, 0.00000000000000000000e+00) (0, 0, 0.00000000000000000000e+00) (0, 0, 0.00000000000000000000e+00) (0, 0, 0.00000000000000000000e+00) (0, 0, 0.00000000000000000000e+00) (0, 0, 0.00000000000000000000e+00) (0, 0, 0.00000000000000000000e+00) (0, 0, 0.00000000000000000000e+00) (0, 0, 0.00000000000000000000e+00) (0, 0, 0.00000000000000000000e+00) (0, 0, 0.00000000000000000000e+00) (0, 0, 0.00000000000000000000e+00) (0, 0, 0.00000000000000000000e+00) (0, 0, 0.00000000000000000000e+00) (0, 0, 0.00000000000000000000e+00) (0, 0, 0.00000000000000000000e+00) (0, 0, 0.00000000000000000000e+00) (0, 0, 0.00000000000000000000e+00) (0, 0, 0.00000000000000000000e+00) (0, 0, 0.00000000000000000000e+00) (0, 0, 0.00000000000000000000e+00) (0, 0, 0.00000000000000000000e+00) (0, 0, 0.00000000000000000000e+00) (0, 0, 0.00000000000000000000e+00) (0, 0, 0.00000000000000000000e+00) (0, 0, 0.00000000000000000000e+00) (0, 0, 0.00000000000000000000e+00) (0, 0, 0.00000000000000000000e+00) (0, 0, 0.00000000000000000000e+00) (0, 0, 0.00000000000000000000e+00) (0, 0, 0.00000000000000000000e+00) (0, 0, 0.00000000000000000000e+00) (0, 0, 0.00000000000000000000e+00) (0, 0, 0.00000000000000000000e+00) (0, 0, 0.00000000000000000000e+00) (0, 0, 0.00000000000000000000e+00) (0, 0, 0.00000000000000000000e+00) (0, 0, 0.00000000000000000000e+00) (0, 0, 0.00000000000000000000e+00) (0, 0, 0.00000000000000000000e+00) (0, 0, 0.00000000000000000000e+00) (0, 0, 0.00000000000000000000e+00) (0, 0, 0.00000000000000000000e+00) (0, 0, 0.00000000000000000000e+00) (0, 0, 0.00000000000000000000e+00) (0, 0, 0.00000000000000000000e+00) (0, 0, 0.00000000000000000000e+00) (0, 0, 0.00000000000000000000e+00) (0, 0, 0.00000000000000000000e+00) (0, 0, 0.00000000000000000000e+00) (0, 0, 0.00000000000000000000e+00) (0, 0, 0.00000000000000000000e+00) (0, 0, 0.00000000000000000000e+00) (0, 0, 0.00000000000000000000e+00) (0, 0, 0.00000000000000000000e+00) (0, 0, 0.00000000000000000000e+00) (0, 0, 0.00000000000000000000e+00) (0, 0, 0.00000000000000000000e+00) (0, 0, 0.00000000000000000000e+00) (0, 0, 0.00000000000000000000e+00) (0, 0, 0.00000000000000000000e+00) (0, 0, 0.00000000000000000000e+00) (0, 0, 0.00000000000000000000e+00) (0, 0, 0.00000000000000000000e+00) (0, 0, 0.00000000000000000000e+00) (0, 0, 0.00000000000000000000e+00) (0, 0, 0.00000000000000000000e+00) (0, 0, 0.00000000000000000000e+00) (0, 0, 0.00000000000000000000e+00) (0, 0, 0.00000000000000000000e+00) (0, 0, 0.00000000000000000000e+00) (0, 0, 0.00000000000000000000e+00) (0, 0, 0.00000000000000000000e+00) (0, 0, 0.00000000000000000000e+00) (0, 0, 0.00000000000000000000e+00) (0, 0, 0.00000000000000000000e+00) (0, 0, 0.00000000000000000000e+00) (0, 0, 0.00000000000000000000e+00) (0, 0, 0.00000000000000000000e+00) (0, 0, 0.00000000000000000000e+00) (0, 0, 0.00000000000000000000e+00) (0, 0, 0.00000000000000000000e+00) (0, 0, 0.00000000000000000000e+00) (0, 0, 0.00000000000000000000e+00) (0, 0, 0.00000000000000000000e+00) (0, 0, 0.00000000000000000000e+00) (0, 0, 0.00000000000000000000e+00) (0, 0, 0.00000000000000000000e+00) (0, 0, 0.00000000000000000000e+00) (0, 0, 0.00000000000000000000e+00) (0, 0, 0.00000000000000000000e+00) (0, 0, 0.00000000000000000000e+00) (0, 0, 0.00000000000000000000e+00) (0, 0, 0.00000000000000000000e+00) (0, 0, 0.00000000000000000000e+00) (0, 0, 0.00000000000000000000e+00) (0, 0, 0.00000000000000000000e+00) (0, 0, 0.00000000000000000000e+00) (0, 0, 0.00000000000000000000e+00) (0, 0, 0.00000000000000000000e+00) (0, 0, 0.00000000000000000000e+00) (0, 0, 0.00000000000000000000e+00) (0, 0, 0.00000000000000000000e+00) (0, 0, 0.00000000000000000000e+00) (0, 0, 0.00000000000000000000e+00) (0, 0, 0.00000000000000000000e+00) (0, 0, 0.00000000000000000000e+00) (0, 0, 0.00000000000000000000e+00) (0, 0, 0.00000000000000000000e+00) (0, 0, 0.00000000000000000000e+00) (0, 0, 0.00000000000000000000e+00) (0, 0, 0.00000000000000000000e+00) (0, 0, 0.00000000000000000000e+00) (0, 0, 0.00000000000000000000e+00) (0, 0, 0.00000000000000000000e+00) (0, 0, 0.00000000000000000000e+00) (0, 0, 0.00000000000000000000e+00) (0, 0, 0.00000000000000000000e+00) (0, 0, 0.00000000000000000000e+00) (0, 0, 0.00000000000000000000e+00) (0, 0, 0.00000000000000000000e+00) (0, 0, 0.00000000000000000000e+00) (0, 0, 0.00000000000000000000e+00) (0, 0, 0.00000000000000000000e+00) (0, 0, 0.00000000000000000000e+00) (0, 0, 0.00000000000000000000e+00) (0, 0, 0.00000000000000000000e+00) (0, 0, 0.00000000000000000000e+00) (0, 0, 0.00000000000000000000e+00) (0, 0, 0.00000000000000000000e+00) (0, 0, 0.00000000000000000000e+00) (0, 0, 0.00000000000000000000e+00) (0, 0, 0.00000000000000000000e+00) (0, 0, 0.00000000000000000000e+00) (0, 0, 0.00000000000000000000e+00) (0, 0, 0.00000000000000000000e+00) (0, 0, 0.00000000000000000000e+00) (0, 0, 0.00000000000000000000e+00) (0, 0, 0.00000000000000000000e+00) (0, 0, 0.00000000000000000000e+00) (0, 0, 0.00000000000000000000e+00) (0, 0, 0.00000000000000000000e+00) (0, 0, 0.00000000000000000000e+00) (0, 0, 0.00000000000000000000e+00) (0, 0, 0.00000000000000000000e+00) (0, 0, 0.00000000000000000000e+00) (0, 0, 0.00000000000000000000e+00) (0, 0, 0.00000000000000000000e+00) (0, 0, 0.00000000000000000000e+00) (0, 0, 0.00000000000000000000e+00) (0, 0, 0.00000000000000000000e+00) (0, 0, 0.00000000000000000000e+00) (0, 0, 0.00000000000000000000e+00) (0, 0, 0.00000000000000000000e+00) (0, 0, 0.00000000000000000000e+00) (0, 0, 0.00000000000000000000e+00) (0, 0, 0.00000000000000000000e+00) (0, 0, 0.00000000000000000000e+00) (0, 0, 0.00000000000000000000e+00) (0, 0, 0.00000000000000000000e+00) (0, 0, 0.00000000000000000000e+00) (0, 0, 0.00000000000000000000e+00) (0, 0, 0.00000000000000000000e+00) (0, 0, 0.00000000000000000000e+00) (0, 0, 0.00000000000000000000e+00) (0, 0, 0.00000000000000000000e+00) (0, 0, 0.00000000000000000000e+00) (0, 0, 0.00000000000000000000e+00) (0, 0, 0.00000000000000000000e+00) (0, 0, 0.00000000000000000000e+00) (0, 0, 0.00000000000000000000e+00) (0, 0, 0.00000000000000000000e+00) (0, 0, 0.00000000000000000000e+00) (0, 0, 0.00000000000000000000e+00) (0, 0, 0.00000000000000000000e+00) (0, 0, 0.00000000000000000000e+00) (0, 0, 0.00000000000000000000e+00) (0, 0, 0.00000000000000000000e+00) (0, 0, 0.00000000000000000000e+00) (0, 0, 0.00000000000000000000e+00) (0, 0, 0.00000000000000000000e+00) (0, 0, 0.00000000000000000000e+00) (0, 0, 0.00000000000000000000e+00) (0, 0, 0.00000000000000000000e+00) (0, 0, 0.00000000000000000000e+00) (0, 0, 0.00000000000000000000e+00) (0, 0, 0.00000000000000000000e+00) (0, 0, 0.00000000000000000000e+00) (0, 0, 0.00000000000000000000e+00) (0, 0, 0.00000000000000000000e+00) (0, 0, 0.00000000000000000000e+00) (0, 0, 0.00000000000000000000e+00) (0, 0, 0.00000000000000000000e+00) (0, 0, 0.00000000000000000000e+00) (0, 0, 0.00000000000000000000e+00) (0, 0, 0.00000000000000000000e+00) (0, 0, 0.00000000000000000000e+00) (0, 0, 0.00000000000000000000e+00) (0, 0, 0.00000000000000000000e+00) (0, 0, 0.00000000000000000000e+00) (0, 0, 0.00000000000000000000e+00) (0, 0, 0.00000000000000000000e+00) (0, 0, 0.00000000000000000000e+00) (0, 0, 0.00000000000000000000e+00) (0, 0, 0.00000000000000000000e+00) (0, 0, 0.00000000000000000000e+00) (0, 0, 0.00000000000000000000e+00) (0, 0, 0.00000000000000000000e+00) (0, 0, 0.00000000000000000000e+00) (0, 0, 0.00000000000000000000e+00) (0, 0, 0.00000000000000000000e+00) (0, 0, 0.00000000000000000000e+00) (0, 0, 0.00000000000000000000e+00) (0, 0, 0.00000000000000000000e+00) (0, 0, 0.00000000000000000000e+00) (0, 0, 0.00000000000000000000e+00) (0, 0, 0.00000000000000000000e+00) (0, 0, 0.00000000000000000000e+00) (0, 0, 0.00000000000000000000e+00) (0, 0, 0.00000000000000000000e+00) (0, 0, 0.00000000000000000000e+00) (0, 0, 0.00000000000000000000e+00) (0, 0, 0.00000000000000000000e+00) (0, 0, 0.00000000000000000000e+00) (0, 0, 0.00000000000000000000e+00) (0, 0, 0.00000000000000000000e+00) (0, 0, 0.00000000000000000000e+00) (0, 0, 0.00000000000000000000e+00) (0, 0, 0.00000000000000000000e+00) (0, 0, 0.00000000000000000000e+00) (0, 0, 0.00000000000000000000e+00) (0, 0, 0.00000000000000000000e+00) (0, 0, 0.00000000000000000000e+00) (0, 0, 0.00000000000000000000e+00) (0, 0, 0.00000000000000000000e+00) (0, 0, 0.00000000000000000000e+00) (0, 0, 0.00000000000000000000e+00) (0, 0, 0.00000000000000000000e+00) (0, 0, 0.00000000000000000000e+00) (0, 0, 0.00000000000000000000e+00) (0, 0, 0.00000000000000000000e+00) (0, 0, 0.00000000000000000000e+00) (0, 0, 0.00000000000000000000e+00) (0, 0, 0.00000000000000000000e+00) (0, 0, 0.00000000000000000000e+00) (0, 0, 0.00000000000000000000e+00) (0, 0, 0.00000000000000000000e+00) (0, 0, 0.00000000000000000000e+00) (0, 0, 0.00000000000000000000e+00) (0, 0, 0.00000000000000000000e+00) (0, 0, 0.00000000000000000000e+00) (0, 0, 0.00000000000000000000e+00) (0, 0, 0.00000000000000000000e+00) (0, 0, 0.00000000000000000000e+00) (0, 0, 0.00000000000000000000e+00) (0, 0, 0.00000000000000000000e+00) (0, 0, 0.00000000000000000000e+00) (0, 0, 0.00000000000000000000e+00) (0, 0, 0.00000000000000000000e+00) (0, 0, 0.00000000000000000000e+00) (0, 0, 0.00000000000000000000e+00) (0, 0, 0.00000000000000000000e+00) (0, 0, 0.00000000000000000000e+00) (0, 0, 0.00000000000000000000e+00) (0, 0, 0.00000000000000000000e+00) (0, 0, 0.00000000000000000000e+00) (0, 0, 0.00000000000000000000e+00) (0, 0, 0.00000000000000000000e+00) (0, 0, 0.00000000000000000000e+00) (0, 0, 0.00000000000000000000e+00) (0, 0, 0.00000000000000000000e+00) (0, 0, 0.00000000000000000000e+00) (0, 0, 0.00000000000000000000e+00) (0, 0, 0.00000000000000000000e+00) (0, 0, 0.00000000000000000000e+00) (0, 0, 0.00000000000000000000e+00) (0, 0, 0.00000000000000000000e+00) (0, 0, 0.00000000000000000000e+00) (0, 0, 0.00000000000000000000e+00) (0, 0, 0.00000000000000000000e+00) (0, 0, 0.00000000000000000000e+00) (0, 0, 0.00000000000000000000e+00) (0, 0, 0.00000000000000000000e+00) (0, 0, 0.00000000000000000000e+00) (0, 0, 0.00000000000000000000e+00) (0, 0, 0.00000000000000000000e+00) (0, 0, 0.00000000000000000000e+00) (0, 0, 0.00000000000000000000e+00) (0, 0, 0.00000000000000000000e+00) (0, 0, 0.00000000000000000000e+00) (0, 0, 0.00000000000000000000e+00) (0, 0, 0.00000000000000000000e+00) (0, 0, 0.00000000000000000000e+00) (0, 0, 0.00000000000000000000e+00) (0, 0, 0.00000000000000000000e+00) (0, 0, 0.00000000000000000000e+00) (0, 0, 0.00000000000000000000e+00) (0, 0, 0.00000000000000000000e+00) (0, 0, 0.00000000000000000000e+00) (0, 0, 0.00000000000000000000e+00) (0, 0, 0.00000000000000000000e+00) (0, 0, 0.00000000000000000000e+00) (0, 0, 0.00000000000000000000e+00) (0, 0, 0.00000000000000000000e+00) (0, 0, 0.00000000000000000000e+00) (0, 0, 0.00000000000000000000e+00) (0, 0, 0.00000000000000000000e+00) (0, 0, 0.00000000000000000000e+00) (0, 0, 0.00000000000000000000e+00) (0, 0, 0.00000000000000000000e+00) (0, 0, 0.00000000000000000000e+00) (0, 0, 0.00000000000000000000e+00) (0, 0, 0.00000000000000000000e+00) (0, 0, 0.00000000000000000000e+00) (0, 0, 0.00000000000000000000e+00) (0, 0, 0.00000000000000000000e+00) (0, 0, 0.00000000000000000000e+00) (0, 0, 0.00000000000000000000e+00) (0, 0, 0.00000000000000000000e+00) (0, 0, 0.00000000000000000000e+00) (0, 0, 0.00000000000000000000e+00) (0, 0, 0.00000000000000000000e+00) (0, 0, 0.00000000000000000000e+00) (0, 0, 0.00000000000000000000e+00) (0, 0, 0.00000000000000000000e+00) (0, 0, 0.00000000000000000000e+00) (0, 0, 0.00000000000000000000e+00) (0, 0, 0.00000000000000000000e+00) (0, 0, 0.00000000000000000000e+00) (0, 0, 0.00000000000000000000e+00) (0, 0, 0.00000000000000000000e+00) (0, 0, 0.00000000000000000000e+00) (0, 0, 0.00000000000000000000e+00) (0, 0, 0.00000000000000000000e+00) (0, 0, 0.00000000000000000000e+00) (0, 0, 0.00000000000000000000e+00) (0, 0, 0.00000000000000000000e+00) (0, 0, 0.00000000000000000000e+00) (0, 0, 0.00000000000000000000e+00) (0, 0, 0.00000000000000000000e+00) (0, 0, 0.00000000000000000000e+00) (0, 0, 0.00000000000000000000e+00) (0, 0, 0.00000000000000000000e+00) (0, 0, 0.00000000000000000000e+00) (0, 0, 0.00000000000000000000e+00) (0, 0, 0.00000000000000000000e+00) (0, 0, 0.00000000000000000000e+00) (0, 0, 0.00000000000000000000e+00) (0, 0, 0.00000000000000000000e+00) (0, 0, 0.00000000000000000000e+00) (0, 0, 0.00000000000000000000e+00) (0, 0, 0.00000000000000000000e+00) (0, 0, 0.00000000000000000000e+00) (0, 0, 0.00000000000000000000e+00) (0, 0, 0.00000000000000000000e+00) (0, 0, 0.00000000000000000000e+00) (0, 0, 0.00000000000000000000e+00) (0, 0, 0.00000000000000000000e+00) (0, 0, 0.00000000000000000000e+00) (0, 0, 0.00000000000000000000e+00) (0, 0, 0.00000000000000000000e+00) (0, 0, 0.00000000000000000000e+00) (0, 0, 0.00000000000000000000e+00) (0, 0, 0.00000000000000000000e+00) (0, 0, 0.00000000000000000000e+00) (0, 0, 0.00000000000000000000e+00) (0, 0, 0.00000000000000000000e+00) (0, 0, 0.00000000000000000000e+00) (0, 0, 0.00000000000000000000e+00) (0, 0, 0.00000000000000000000e+00) (0, 0, 0.00000000000000000000e+00) (0, 0, 0.00000000000000000000e+00) (0, 0, 0.00000000000000000000e+00) (0, 0, 0.00000000000000000000e+00) (0, 0, 0.00000000000000000000e+00) (0, 0, 0.00000000000000000000e+00) (0, 0, 0.00000000000000000000e+00) (0, 0, 0.00000000000000000000e+00) (0, 0, 0.00000000000000000000e+00) (0, 0, 0.00000000000000000000e+00) (0, 0, 0.00000000000000000000e+00) (0, 0, 0.00000000000000000000e+00) (0, 0, 0.00000000000000000000e+00) (0, 0, 0.00000000000000000000e+00) (0, 0, 0.00000000000000000000e+00) (0, 0, 0.00000000000000000000e+00) (0, 0, 0.00000000000000000000e+00) (0, 0, 0.00000000000000000000e+00) (0, 0, 0.00000000000000000000e+00) (0, 0, 0.00000000000000000000e+00) (0, 0, 0.00000000000000000000e+00) (0, 0, 0.00000000000000000000e+00) (0, 0, 0.00000000000000000000e+00) (0, 0, 0.00000000000000000000e+00) (0, 0, 0.00000000000000000000e+00) (0, 0, 0.00000000000000000000e+00) (0, 0, 0.00000000000000000000e+00) (0, 0, 0.00000000000000000000e+00) (0, 0, 0.00000000000000000000e+00) (0, 0, 0.00000000000000000000e+00) (0, 0, 0.00000000000000000000e+00) (0, 0, 0.00000000000000000000e+00) (0, 0, 0.00000000000000000000e+00) (0, 0, 0.00000000000000000000e+00) (0, 0, 0.00000000000000000000e+00) (0, 0, 0.00000000000000000000e+00) (0, 0, 0.00000000000000000000e+00) (0, 0, 0.00000000000000000000e+00) (0, 0, 0.00000000000000000000e+00) (0, 0, 0.00000000000000000000e+00) (0, 0, 0.00000000000000000000e+00) (0, 0, 0.00000000000000000000e+00) (0, 0, 0.00000000000000000000e+00) (0, 0, 0.00000000000000000000e+00) (0, 0, 0.00000000000000000000e+00) (0, 0, 0.00000000000000000000e+00) (0, 0, 0.00000000000000000000e+00) (0, 0, 0.00000000000000000000e+00) (0, 0, 0.00000000000000000000e+00) (0, 0, 0.00000000000000000000e+00) (0, 0, 0.00000000000000000000e+00) (0, 0, 0.00000000000000000000e+00) (0, 0, 0.00000000000000000000e+00) (0, 0, 0.00000000000000000000e+00) (0, 0, 0.00000000000000000000e+00) (0, 0, 0.00000000000000000000e+00) (0, 0, 0.00000000000000000000e+00) (0, 0, 0.00000000000000000000e+00) (0, 0, 0.00000000000000000000e+00) (0, 0, 0.00000000000000000000e+00) (0, 0, 0.00000000000000000000e+00) (0, 0, 0.00000000000000000000e+00) (0, 0, 0.00000000000000000000e+00) (0, 0, 0.00000000000000000000e+00) (0, 0, 0.00000000000000000000e+00) (0, 0, 0.00000000000000000000e+00) (0, 0, 0.00000000000000000000e+00) (0, 0, 0.00000000000000000000e+00) (0, 0, 0.00000000000000000000e+00) (0, 0, 0.00000000000000000000e+00) (0, 0, 0.00000000000000000000e+00) (0, 0, 0.00000000000000000000e+00) (0, 0, 0.00000000000000000000e+00) (0, 0, 0.00000000000000000000e+00) (0, 0, 0.00000000000000000000e+00) (0, 0, 0.00000000000000000000e+00) (0, 0, 0.00000000000000000000e+00) (0, 0, 0.00000000000000000000e+00) (0, 0, 0.00000000000000000000e+00) (0, 0, 0.00000000000000000000e+00) (0, 0, 0.00000000000000000000e+00) (0, 0, 0.00000000000000000000e+00) (0, 0, 0.00000000000000000000e+00) (0, 0, 0.00000000000000000000e+00) (0, 0, 0.00000000000000000000e+00) (0, 0, 0.00000000000000000000e+00) (0, 0, 0.00000000000000000000e+00) (0, 0, 0.00000000000000000000e+00) (0, 0, 0.00000000000000000000e+00) (0, 0, 0.00000000000000000000e+00) (0, 0, 0.00000000000000000000e+00) (0, 0, 0.00000000000000000000e+00) (0, 0, 0.00000000000000000000e+00) (0, 0, 0.00000000000000000000e+00) (0, 0, 0.00000000000000000000e+00) (0, 0, 0.00000000000000000000e+00) (0, 0, 0.00000000000000000000e+00) (0, 0, 0.00000000000000000000e+00) (0, 0, 0.00000000000000000000e+00) (0, 0, 0.00000000000000000000e+00) (0, 0, 0.00000000000000000000e+00) (0, 0, 0.00000000000000000000e+00) (0, 0, 0.00000000000000000000e+00) (0, 0, 0.00000000000000000000e+00) (0, 0, 0.00000000000000000000e+00) (0, 0, 0.00000000000000000000e+00) (0, 0, 0.00000000000000000000e+00) (0, 0, 0.00000000000000000000e+00) (0, 0, 0.00000000000000000000e+00) (0, 0, 0.00000000000000000000e+00) (0, 0, 0.00000000000000000000e+00) (0, 0, 0.00000000000000000000e+00) (0, 0, 0.00000000000000000000e+00) (0, 0, 0.00000000000000000000e+00) (0, 0, 0.00000000000000000000e+00) (0, 0, 0.00000000000000000000e+00) (0, 0, 0.00000000000000000000e+00) (0, 0, 0.00000000000000000000e+00) (0, 0, 0.00000000000000000000e+00) (0, 0, 0.00000000000000000000e+00) (0, 0, 0.00000000000000000000e+00) (0, 0, 0.00000000000000000000e+00) (0, 0, 0.00000000000000000000e+00) (0, 0, 0.00000000000000000000e+00) (0, 0, 0.00000000000000000000e+00) (0, 0, 0.00000000000000000000e+00) (0, 0, 0.00000000000000000000e+00) (0, 0, 0.00000000000000000000e+00) (0, 0, 0.00000000000000000000e+00) (0, 0, 0.00000000000000000000e+00) (0, 0, 0.00000000000000000000e+00) (0, 0, 0.00000000000000000000e+00) (0, 0, 0.00000000000000000000e+00) (0, 0, 0.00000000000000000000e+00) (0, 0, 0.00000000000000000000e+00) (0, 0, 0.00000000000000000000e+00) (0, 0, 0.00000000000000000000e+00) (0, 0, 0.00000000000000000000e+00) (0, 0, 0.00000000000000000000e+00) (0, 0, 0.00000000000000000000e+00) (0, 0, 0.00000000000000000000e+00) (0, 0, 0.00000000000000000000e+00) (0, 0, 0.00000000000000000000e+00) (0, 0, 0.00000000000000000000e+00) (0, 0, 0.00000000000000000000e+00) (0, 0, 0.00000000000000000000e+00) (0, 0, 0.00000000000000000000e+00) (0, 0, 0.00000000000000000000e+00) (0, 0, 0.00000000000000000000e+00) (0, 0, 0.00000000000000000000e+00) (0, 0, 0.00000000000000000000e+00) (0, 0, 0.00000000000000000000e+00) (0, 0, 0.00000000000000000000e+00) (0, 0, 0.00000000000000000000e+00) (0, 0, 0.00000000000000000000e+00) (0, 0, 0.00000000000000000000e+00) (0, 0, 0.00000000000000000000e+00) (0, 0, 0.00000000000000000000e+00) (785, 5, 5.00000000000000000000e-01) (785, 5, 5.00000000000000000000e-01) (785, 5, 5.00000000000000000000e-01) (785, 5, 5.00000000000000000000e-01) (785, 5, 5.00000000000000000000e-01) (785, 5, 5.00000000000000000000e-01) (785, 5, 5.00000000000000000000e-01) (785, 5, 5.00000000000000000000e-01) (785, 5, 5.00000000000000000000e-01) (785, 5, 5.00000000000000000000e-01) (785, 5, 5.00000000000000000000e-01) (785, 5, 5.00000000000000000000e-01) (785, 5, 5.00000000000000000000e-01) (785, 5, 5.00000000000000000000e-01) (785, 5, 5.00000000000000000000e-01) (0, 5, 0.00000000000000000000e+00) (16, 5, 5.00000000000000000000e-01) (16, 5, 5.00000000000000000000e-01) (16, 5, 5.00000000000000000000e-01) (16, 5, 5.00000000000000000000e-01) (16, 5, 5.00000000000000000000e-01) (16, 5, 5.00000000000000000000e-01) (16, 5, 5.00000000000000000000e-01) (16, 5, 5.00000000000000000000e-01) (16, 5, 5.00000000000000000000e-01) (16, 5, 5.00000000000000000000e-01) (0, 5, 0.00000000000000000000e+00) 
connections (connected_to_neuron, weight)=(0, -7.54272490739822387695e-02) (1, 5.08605912327766418457e-02) (2, -4.04174812138080596924e-02) (3, 8.69384780526161193848e-02) (4, 9.53918471932411193848e-02) (5, -5.47546409070491790771e-02) (6, -7.03002959489822387695e-02) (7, -4.69360500574111938477e-03) (8, -2.13806182146072387695e-02) (9, 7.72277787327766418457e-02) (10, -3.11523452401161193848e-02) (11, 3.23608443140983581543e-02) (12, 2.67084900164868792316e-02) (13, 9.60159170967312194933e-03) (14, -2.93307500689232447666e-02) (15, -9.57078470025179428582e-02) (16, 4.85046431422233581543e-02) (17, -1.61437988281250000000e-02) (18, -2.09716781973838806152e-02) (19, -2.51403823494911193848e-02) (20, -1.18347182869911193848e-02) (21, 1.13891586661338806152e-02) (22, 5.56823685765266418457e-02) (23, -2.93395966291427612305e-02) (24, 1.29089355468750000000e-02) (25, 3.23242172598838806152e-02) (26, -8.75366255640983581543e-02) (27, 2.63366773724555969238e-02) (28, 1.35437026619911193848e-02) (29, -9.65575873851776123047e-03) (30, -3.00170928239822387695e-02) (31, 2.50671431422233581543e-02) (32, 5.52102696364978329235e-03) (33, -5.53419648744079076264e-02) (34, 3.58891948548430567145e-02) (35, 9.74782841950909834106e-02) (36, 1.09166223419247823689e-01) (37, 4.35417232943861171046e-03) (38, 1.39165398274984669635e-01) (39, 4.57185478576101825277e-02) (40, 5.67439980598099108500e-02) (41, -2.43883386695862604265e-03) (42, 1.38880311822373120334e-01) (43, 1.34490601451335567429e-01) (44, 2.89838454636315301371e-02) (45, 2.59066455121122925231e-02) (46, 8.61619781511584886813e-02) (47, 1.12584477909467420287e-01) (48, 8.69121936993386967618e-02) (49, 3.82484343905780746486e-02) (50, -1.85975682230233750267e-03) (51, -4.19237909866464614206e-02) (52, -3.21654975414276123047e-03) (53, 3.41369584202766418457e-02) (54, 5.72753921151161193848e-02) (55, -9.04785171151161193848e-02) (56, -9.39758345484733581543e-02) (57, 2.02636420726776123047e-03) (58, -7.82021617697000598346e-02) (59, 4.56498641308677871598e-02) (60, 6.16816904203083826719e-03) (61, -9.30618252956753461147e-02) (62, 8.95821622513121168518e-02) (63, -2.83110992415775628017e-02) (64, 1.36878628114534633964e-01) (65, 2.53006898233782313856e-02) (66, 1.41879385847573979973e-01) (67, 1.36196935370275523658e-01) (68, 1.60927044116382755856e-01) (69, 1.71130114081047030039e-01) (70, 1.61248034969307701969e-01) (71, 2.28462915943751287973e-01) (72, 1.23651059377811539663e-01) (73, 2.41964800766870352655e-01) (74, 2.60349971523688716868e-01) (75, 2.56826039501234060225e-01) (76, 9.28586705976567616805e-02) (77, 1.43731672405088356514e-01) (78, 8.45401399442384654526e-02) (79, -3.90299293627661345041e-02) (80, 4.08939783655654295891e-02) (81, -8.27911672782851021379e-02) (82, 7.28759914636611938477e-03) (83, -1.29699707031250000000e-02) (84, 4.20288071036338806152e-02) (85, 3.48876938223838806152e-02) (86, 6.01571505026273767314e-02) (87, 3.08234052025899221694e-02) (88, 7.41251873349393353152e-02) (89, 6.59178367747480786765e-02) (90, 8.81697120507673459677e-02) (91, 5.82433557862874831668e-02) (92, 1.04915492460886713294e-02) (93, -5.15815474532469613912e-04) (94, -1.66418749905139773393e-02) (95, -3.98503915166719942329e-04) (96, -3.04027187625272449223e-02) (97, -1.68796167198984825575e-01) (98, -5.79746756504667115628e-02) (99, -1.75066845896439484721e-03) (100, -4.25329996587155007015e-02) (101, 2.83950291829552850520e-02) (102, 1.30123258277887510204e-01) (103, 1.52215039424391296308e-01) (104, 2.04799967483099004673e-01) (105, 1.66063536290805946471e-01) (106, 1.32498635714134366248e-01) (107, 4.14182495940036352056e-02) (108, 6.69538583832440803434e-02) (109, 3.59548995425716796590e-03) (110, -6.18191720941039177251e-02) (111, -4.58923354744911193848e-02) (112, -2.13623046875000000000e-04) (113, 6.24362948860118088801e-02) (114, 4.01102571569664986817e-02) (115, -4.79858360273879586827e-03) (116, 4.79369916834650709736e-03) (117, -6.07603648773849605580e-02) (118, 8.44088735640637355395e-02) (119, 7.22017916657463759700e-02) (120, 6.18194518160877712343e-02) (121, -1.30682915456440451596e-01) (122, -2.45686386229812481208e-01) (123, -7.18144095765654300045e-02) (124, -7.84670980229781184212e-02) (125, -4.04766159137920078503e-02) (126, -6.07616626567654902202e-02) (127, -4.27941501465367649115e-02) (128, -5.44584679057121268109e-02) (129, -7.39194969598972184688e-02) (130, -1.14637116091868534323e-02) (131, -3.30518788156368148456e-02) (132, -5.19977628793151583353e-02) (133, 1.23453457842621322493e-01) (134, 1.61031536484828569078e-01) (135, 2.57002046902206016110e-01) (136, 2.06318392279018353319e-01) (137, 1.25281979136692145360e-01) (138, -6.01613955316019632935e-02) (139, 3.63501793483313948019e-02) (140, 6.94213882088661193848e-02) (141, 3.62670943140983581543e-02) (142, 4.32602063622896590434e-02) (143, -5.34658892348556166740e-03) (144, 3.50668998160269668185e-02) (145, 1.43989060126069073897e-01) (146, 1.09367800728252306808e-01) (147, -3.51301432965495236127e-02) (148, -6.95547045917981471286e-02) (149, -6.69246775856209286104e-02) (150, -1.33086828981607313560e-01) (151, -9.98347459145454974028e-02) (152, -5.03899984718459495459e-02) (153, 3.13512109094851373903e-02) (154, -2.98954358358230788684e-02) (155, -1.21634417286098459043e-01) (156, -5.05829654620627011674e-02) (157, -1.48853392479692901024e-02) (158, -8.68968959078816882702e-02) (159, -4.08185540246354741645e-03) (160, -4.43317774455084245844e-02) (161, 7.08657768094948271875e-03) (162, 2.43247737656690672658e-03) (163, 1.75728617156118871456e-01) (164, 1.48913301298365580161e-01) (165, 1.06897159488346261275e-02) (166, 1.49203888738200923791e-03) (167, -8.53417925099726921989e-03) (168, -4.20532375574111938477e-03) (169, -6.67406909276605370129e-02) (170, 2.53171319844448065861e-02) (171, -3.65062713251813261706e-02) (172, 7.87298938431378082792e-03) (173, 7.31186095190151652545e-02) (174, 8.51816058492107647249e-02) (175, 2.07983831987608655534e-02) (176, -2.45919010788227289377e-02) (177, 5.88574632926701299396e-02) (178, 2.77433074746851263126e-02) (179, 7.50632789071992850838e-02) (180, 7.57827069258298902099e-02) (181, 3.26354364311046488134e-02) (182, 1.88997197085511367542e-02) (183, -9.11114775025000100950e-02) (184, -4.78920200319870453809e-02) (185, -3.21653404720875848999e-02) (186, -2.51631494883773100535e-02) (187, 9.17990858400890841207e-02) (188, 5.11642952303697842731e-02) (189, 9.90974891725290851774e-02) (190, 2.65839633635812144785e-01) (191, 3.71917494208697962943e-01) (192, 2.01417539784389643120e-01) (193, 1.39671850839316352699e-01) (194, 2.65096995849741987050e-02) (195, -3.59078585009370813844e-05) (196, -9.07295585692232259278e-02) (197, 4.01225922518451127985e-02) (198, -5.56290539733498914932e-02) (199, 4.85129285178777236442e-02) (200, 2.25131696020621045740e-02) (201, 1.07337003725960639100e-01) (202, 1.28390250675742279007e-02) (203, 3.05011097039319042934e-02) (204, 6.22733996030424286072e-02) (205, 7.81951284087972209313e-02) (206, 8.18512725424585113609e-02) (207, 4.33030395003833612488e-02) (208, 1.35034927538046911621e-01) (209, -2.25002356262493270755e-02) (210, -7.30164868315383019937e-02) (211, 8.25453711283490737527e-02) (212, 7.16754615233791830819e-02) (213, 9.77480705444720432418e-02) (214, 1.48589385949883162619e-01) (215, 1.47972276371565625297e-01) (216, 1.29696559406159817041e-01) (217, 2.08307585175625586960e-01) (218, -1.03071518139110848700e-02) (219, 2.47809740127558852940e-01) (220, 2.11549123776565428656e-01) (221, 1.37956286481295070656e-01) (222, 2.12817526644493819343e-02) (223, -8.79056117551101356966e-02) (224, -3.65273329973483107391e-02) (225, -9.94804509877330184198e-02) (226, 5.14134456987984170273e-02) (227, 1.01692329621126571759e-02) (228, 1.53757390715105107803e-01) (229, 1.58218585148226814630e-01) (230, 8.88778478636319951844e-02) (231, 9.31060916959630807677e-02) (232, 3.40971407116407443372e-02) (233, 1.10994569037664664313e-01) (234, -1.32514159515203684692e-02) (235, -8.39926201176818404415e-02) (236, -6.53921810239211503957e-02) (237, -4.85018239114511431898e-02) (238, 9.69157033528917320753e-03) (239, 4.64415405205818726531e-02) (240, 1.16650083986072378162e-01) (241, -2.65054821130442999633e-02) (242, 3.97896690451547616063e-02) (243, 3.24787257007049592894e-02) (244, -1.66379361971659874009e-02) (245, 1.26826366548951768864e-01) (246, 8.00683186877214625454e-02) (247, 2.44825516462954251296e-01) (248, 2.37007484616708591352e-01) (249, 8.45908546340079087189e-02) (250, -2.46170474566195923716e-02) (251, 4.30784310746915380386e-02) (252, 9.57455279807750275767e-02) (253, -5.61068402069945584842e-02) (254, -6.86365953940791528876e-02) (255, -3.35292045698400015263e-02) (256, 2.02892640378829446079e-02) (257, 8.05423200196866695411e-02) (258, 1.59371761784670967765e-01) (259, 3.92132464656575197015e-02) (260, 9.48375511376332303026e-02) (261, -4.63539244597540728288e-02) (262, -1.56220551481586981263e-02) (263, -3.96072587276710824655e-02) (264, 2.60451424987719649951e-02) (265, 1.02485225427596284009e-02) (266, -7.88510640429956888298e-02) (267, 5.64858626466555810430e-02) (268, 3.60591909364154430961e-02) (269, 1.09562552108005833995e-01) (270, 4.97247079311990206052e-02) (271, 1.22285245249604893059e-02) (272, -5.78059372994278817398e-04) (273, 2.58369578827880690131e-02) (274, 1.51158174285775409595e-01) (275, 2.09313331484144576899e-01) (276, 2.24140481207133590580e-01) (277, -4.70466416287416630548e-02) (278, 4.94734964501529136949e-02) (279, 4.34057914589035323538e-02) (280, 3.93397068329992896651e-02) (281, 8.12902285376306127374e-02) (282, -7.89323148955280579075e-02) (283, 1.29104254303591431396e-01) (284, 2.11583810483509882072e-01) (285, 1.07582877564481899091e-01) (286, 4.50169416416110954038e-02) (287, 1.55113234554402429355e-01) (288, 1.89274610220407313310e-01) (289, 1.12967531871528109599e-01) (290, 8.67031003788675952437e-02) (291, 4.29396807716637754493e-02) (292, 9.96758403911933571484e-02) (293, 1.02478119792503430396e-01) (294, -1.48697933611421750921e-01) (295, -1.38542625351665338318e-01) (296, 1.12206919417851672116e-01) (297, 3.89599588046257855334e-02) (298, 3.82475956394590348858e-03) (299, -9.52073832909549298831e-03) (300, -1.46928443877870629208e-01) (301, -1.59451156359196391521e-02) (302, 9.22827867969947396309e-02) (303, 2.09208169393168663674e-01) (304, 1.69479096494344505519e-01) (305, -6.15855375789221351490e-02) (306, 6.65552413583985445766e-03) (307, -3.21045053017410333962e-02) (308, -1.24096838839779493452e-02) (309, 1.56212342489970030385e-02) (310, 8.35043391285182103057e-03) (311, 6.71874842102431618640e-02) (312, 1.29113938624501684016e-01) (313, 7.51781729989866170927e-02) (314, 3.97072234825988579221e-01) (315, 4.10494010435305645146e-01) (316, 3.73258467547408712139e-01) (317, 4.74362255902544938113e-01) (318, 5.41409291852277263501e-01) (319, 4.51670413681932947370e-01) (320, 4.67661083005531996726e-01) (321, 3.36802577817472692523e-01) (322, -5.13083084023154625819e-02) (323, 1.54932257153768630081e-02) (324, -5.32847339989357265955e-02) (325, 1.61819302034822781744e-01) (326, -1.68572053789935241697e-02) (327, -1.82068047364554105871e-02) (328, 4.87070402710136213242e-02) (329, -4.58230076702138694467e-02) (330, 1.07926656502712034480e-01) (331, 1.92481261803552572420e-01) (332, -3.76998022586703604442e-02) (333, -1.03896623477937988245e-01) (334, -9.64394425350697526156e-02) (335, -2.89804753028201703136e-02) (336, 4.74732385085726432683e-02) (337, -5.21803624900782636598e-02) (338, 9.90805851917846008847e-02) (339, 4.06073562706126475752e-02) (340, 1.10802740615010622549e-01) (341, 3.43892436997003003718e-01) (342, 6.19898608774800297105e-01) (343, 5.93226777276948058493e-01) (344, 5.08778545564230189058e-01) (345, 4.33162754398588256688e-01) (346, 4.50384572965829510505e-01) (347, 3.16694485321391605570e-01) (348, 3.25912710453586329518e-01) (349, 1.88621354025734128124e-01) (350, -2.95336921201011098903e-02) (351, -2.23421765043334830114e-02) (352, 7.48017218054743276978e-02) (353, 1.46339831189868374572e-01) (354, 1.25211236793683566848e-01) (355, -4.06670242278915211598e-02) (356, -9.30660182297065319279e-02) (357, 6.30065004014775942309e-02) (358, 1.58902791812470967070e-01) (359, 1.66245050331070426397e-01) (360, -4.28217843832194647313e-02) (361, -9.40387070170999733731e-02) (362, -1.76091872264394239123e-01) (363, 2.80904996277561054552e-02) (364, 9.22278827231000353226e-02) (365, 9.16754291483939803831e-02) (366, -3.10683082472233210169e-02) (367, 1.15175238522426892640e-01) (368, 1.58490700710808479768e-01) (369, 3.65048491665070751200e-01) (370, 3.83354236461588115947e-01) (371, 2.99207766852233603139e-01) (372, 1.11074723266627994195e-02) (373, 5.05146819805008182036e-02) (374, -2.85667121520301672821e-02) (375, -1.75623061037445925281e-02) (376, 8.36358573830423002171e-02) (377, -3.52883855061517717755e-02) (378, -1.84087829977892136757e-01) (379, -3.16388179029227986638e-03) (380, -5.37726391812769419221e-02) (381, 5.51781110336603541899e-02) (382, -3.55315835623037784563e-02) (383, -2.69028348876149507596e-02) (384, 6.67887619644677577035e-02) (385, 1.72447253224060098598e-01) (386, 3.04682543673858385880e-01) (387, 1.62084179664019001343e-01) (388, -5.58244649330697506606e-02) (389, -2.30992870416754453311e-01) (390, -1.97934945643798820836e-01) (391, -6.27688446033614760866e-02) (392, -6.81478807045217127580e-02) (393, 4.00059517966282821022e-02) (394, 7.50495910914393965507e-02) (395, -2.10943383464616621148e-02) (396, 1.17775822801131427320e-01) (397, 1.54619977918524942329e-01) (398, 4.74298735796600881565e-02) (399, -1.28204841104104683147e-01) (400, -6.26004640130835426914e-02) (401, -2.73670809534568883203e-03) (402, 1.59637486270730877269e-02) (403, -3.42642672075017199612e-03) (404, -4.94975486648893681085e-02) (405, -2.35307525213889062732e-01) (406, -8.32784706137794095149e-02) (407, -8.91325617602092140634e-02) (408, 4.79450080817474602601e-02) (409, 7.27652023610621118133e-02) (410, -7.53632971010917696031e-02) (411, 5.94532652266098540772e-02) (412, 9.09004954430324002557e-02) (413, 2.30320884324841157476e-01) (414, 5.33353517741357516235e-02) (415, 4.32721339997440765379e-02) (416, 4.60070843171122775828e-02) (417, -1.76637619613867591362e-01) (418, -2.21040135470043641597e-01) (419, -9.98112592781307955692e-02) (420, 2.13343613942662338467e-02) (421, -8.25764789505732677011e-02) (422, 6.60677752019840497377e-02) (423, -4.36299132900378264233e-02) (424, -1.10830709088086010183e-01) (425, -1.89967519072532703417e-01) (426, -6.43590239804995717376e-02) (427, 5.49156151881292006744e-02) (428, 1.57220884104145752769e-01) (429, 3.37851961611872128599e-02) (430, -4.73552945849326570316e-02) (431, -4.02632572603806512812e-02) (432, 2.04388614688214391435e-02) (433, -7.09141851095768938062e-02) (434, -6.26949534215620468691e-02) (435, -1.70143860790682555084e-01) (436, 4.46805458909258108868e-03) (437, 3.00447478637633526299e-02) (438, -1.73415369382803850884e-02) (439, 1.88161437744805946914e-02) (440, 1.15857626418096507082e-01) (441, 2.80581860538220879964e-02) (442, 6.82522682466120689249e-02) (443, 3.80782865202344764088e-02) (444, -3.26028950786935306505e-02) (445, -2.55201612610674921644e-01) (446, -1.97621858680487150206e-01) (447, -1.15634792921551057820e-01) (448, 2.68637087836218167725e-02) (449, -6.01518680764203741984e-02) (450, 8.82919853808955823471e-02) (451, -1.16074881349521614321e-03) (452, -1.51880015344516727804e-01) (453, -1.31119394882665080138e-01) (454, -2.03957136742680483765e-01) (455, 2.95907902981562250314e-03) (456, 4.70632352982899779259e-02) (457, -1.16267577736845983960e-01) (458, -1.90607597166599362914e-02) (459, 4.73220878597434072010e-02) (460, 2.01253235166727849348e-02) (461, -3.50489007096703233946e-02) (462, -2.11133480178129578908e-01) (463, -1.20813052845742702202e-01) (464, -1.89349569423253510925e-01) (465, -2.40426382494931312195e-01) (466, -1.07006603295721341995e-02) (467, -3.81417181096764257298e-02) (468, 1.22485289232394503611e-01) (469, -1.25392180018218168946e-01) (470, -6.88215895895499946144e-02) (471, -1.42093174719472414846e-01) (472, -5.28588320384997395474e-02) (473, -2.74561231827315732623e-01) (474, -2.66263466880151622451e-01) (475, -9.97676171759465657551e-02) (476, 6.64367750287055969238e-02) (477, 4.28355577565202663703e-03) (478, 4.71935505007346975392e-02) (479, -4.73198029998768490700e-02) (480, -1.25888755935390311835e-01) (481, -1.34021615963790974302e-01) (482, -1.44265514440014036568e-01) (483, -8.01714008632135044508e-02) (484, -1.15147259993084782881e-01) (485, -5.09640646515020154239e-02) (486, -3.15367261769707585284e-02) (487, 1.05643918669646300068e-01) (488, -2.26046660587303251122e-02) (489, -6.99040014738831344543e-02) (490, -1.62779547935570284567e-01) (491, -2.49490418499876770442e-01) (492, -7.80381864547236014928e-02) (493, -1.10491298246656974302e-01) (494, -2.12837163477711838189e-01) (495, -1.02557324912351064544e-02) (496, -3.91746991494985666304e-02) (497, -9.22946491060049889477e-02) (498, -2.05025374451551417598e-01) (499, -7.55762739328555838147e-02) (500, -2.54135918780150960039e-01) (501, -2.87007046061611759136e-01) (502, -1.21559644134838149010e-02) (503, -6.96291846277872095855e-03) (504, -5.52711653800315519391e-02) (505, 3.17748422575378705601e-02) (506, -5.16106553794872871532e-02) (507, 4.55343477094462198429e-02) (508, -2.20666678868646798373e-01) (509, -1.69816087349924760286e-01) (510, -1.70314717738264037594e-01) (511, -1.88633511119907809617e-01) (512, -6.61617870576318711784e-02) (513, -9.10313879048154361850e-02) (514, 3.12522255726741735038e-02) (515, 1.76473840136713328031e-01) (516, 6.24157494338302767933e-02) (517, -6.22134215137697399456e-02) (518, -2.12415209251426956305e-01) (519, -1.73557300393091973323e-01) (520, -1.31428963415429866934e-01) (521, -2.22086077678062071561e-01) (522, -1.02506308191024714249e-01) (523, -1.84757691819690789137e-01) (524, -1.56188017300380732610e-01) (525, -1.17103249289129310307e-01) (526, -1.78072235806585765783e-01) (527, -3.46896008596316363093e-01) (528, -4.02941082716462395386e-01) (529, -1.92212300306829841912e-01) (530, 3.26611438680290133707e-02) (531, -1.03111776718586817259e-01) (532, 1.88310591411466822682e-03) (533, 9.65285169128375225567e-02) (534, 1.36376821324776242861e-01) (535, -5.02429487514222897909e-03) (536, -1.40808054420732242651e-01) (537, -9.03229396339670920213e-02) (538, -9.17919030484818376792e-02) (539, -1.74767117289713114214e-01) (540, -1.21888569856708442463e-01) (541, -1.16239729033674923930e-01) (542, 2.90898205646711559280e-02) (543, 1.36681167132150588328e-01) (544, 2.47777875727689833596e-01) (545, -6.49631729588571182887e-02) (546, -3.61170492017157673814e-02) (547, -1.21952290385510697668e-01) (548, -3.88497781301012784505e-02) (549, -5.47838299490840466288e-02) (550, -1.15043957268352869949e-01) (551, -1.85844279913181223592e-03) (552, -7.45751759749496423435e-02) (553, -9.71719233968782042377e-02) (554, -2.61157791252029258811e-01) (555, -2.97741074077629119810e-01) (556, -3.06916712232525257242e-01) (557, -1.61318140868038972791e-01) (558, -1.22665813631683967566e-02) (559, -9.20328582379478093989e-02) (560, 9.13574174046516418457e-02) (561, -3.39729094899919245587e-02) (562, -2.79717722488067969955e-02) (563, 8.90376644911602399546e-02) (564, -2.00648361610242770281e-01) (565, -1.24488073130527135413e-01) (566, -5.35978963099591060315e-02) (567, -1.86006693551247576091e-01) (568, -6.22712617109051416731e-02) (569, -5.50201146527059814506e-02) (570, 1.02961080406898775053e-01) (571, 1.96446565520898910884e-02) (572, 1.95530760355479060753e-01) (573, 1.22666468982640511354e-01) (574, 1.96031194223770188767e-01) (575, 1.83509288081560445471e-01) (576, 1.65721351947548584116e-01) (577, 2.82907512751103762394e-01) (578, 2.58688984101460919818e-02) (579, -8.75387838926618283564e-02) (580, -2.92379574638881173376e-02) (581, -5.36733099904491001153e-02) (582, -2.80999989652061354928e-01) (583, -2.14490911099734476997e-01) (584, -1.94798590850999764346e-01) (585, -1.37088263965597256799e-01) (586, -7.66303921004476366191e-03) (587, -7.85260467934354167152e-02) (588, -8.83146467064620105392e-02) (589, -1.42505715513391983257e-02) (590, -5.80880798661418708273e-03) (591, 2.99529557870746553083e-02) (592, -6.64198192351617699991e-02) (593, -8.34493691446106661269e-02) (594, -2.60416324010596077210e-02) (595, -1.77397818008596802608e-02) (596, -6.08704160785236148001e-02) (597, -3.77395817458143559286e-02) (598, -1.37477121637908455964e-01) (599, 1.15033842677009875977e-01) (600, 1.38416794694852490766e-01) (601, 1.59015218849891976083e-01) (602, 1.20307707396531349264e-01) (603, 1.85252036048655782663e-01) (604, 2.75213001013955627094e-01) (605, 2.26352658129240297269e-01) (606, 2.25449018157419467379e-01) (607, 1.09560438523591985316e-01) (608, 5.36183834502329675908e-02) (609, -1.51926364243515771291e-01) (610, -2.07040194160626966902e-01) (611, -1.38918098325788691438e-01) (612, -1.01597800072514038439e-01) (613, -1.30395947744262608037e-02) (614, -1.28475461733465017022e-02) (615, -5.72915855474437352157e-02) (616, 4.79782392923139115737e-03) (617, -2.23771298711840094242e-02) (618, -3.89451494031768348861e-03) (619, -5.27967360061624493839e-02) (620, -4.38373502291777017437e-02) (621, -6.38856447642503766371e-02) (622, 6.17483399308880048784e-02) (623, -1.09490312990502235146e-02) (624, -4.27298517945890951597e-02) (625, -1.82867124677746940853e-02) (626, -5.01438746384348565314e-05) (627, 1.66304330861671845199e-02) (628, 1.48563473230121922963e-01) (629, 2.25129668396164245303e-01) (630, 2.69404212679303312061e-01) (631, 3.93705674967681495957e-01) (632, 3.14210813927030208070e-01) (633, 3.14732134270825247846e-01) (634, 2.29403189554008041240e-01) (635, 1.69503004501082465971e-01) (636, 8.00027242806974070444e-02) (637, -5.92371370463453186805e-02) (638, -3.28322861740966004396e-02) (639, -1.38521409660223471239e-01) (640, 2.92122922862381798059e-02) (641, -1.07108818899567422023e-02) (642, 3.76514909930633356883e-02) (643, 2.06351969696624941430e-02) (644, 4.28772047162055969238e-02) (645, 2.00927704572677612305e-02) (646, 6.95185085983228839845e-02) (647, -9.57916610020676656534e-03) (648, 1.96379291920168244645e-02) (649, 8.51221099858222723933e-02) (650, 1.50918463736399888209e-01) (651, 2.34552260503065518327e-01) (652, 1.66010858813330136607e-01) (653, 1.66458826324901415505e-01) (654, 1.45366075597057581303e-01) (655, 3.02569201085369388071e-01) (656, 4.25996411472604252779e-01) (657, 4.88797633066113845768e-01) (658, 4.23054106651841510534e-01) (659, 3.50874981978814060035e-01) (660, 3.01017645612941919797e-01) (661, 2.95650958269739694284e-01) (662, 3.15875121150863247266e-01) (663, 1.83398161027915201915e-01) (664, 1.25937411213096844831e-01) (665, 6.20535479923812124947e-02) (666, 1.33734445283434866258e-01) (667, 1.69966703553808239080e-02) (668, -2.33947475442913095309e-03) (669, -9.41095322967490655053e-02) (670, -6.57517077904659630327e-02) (671, 6.32446333765983581543e-02) (672, -7.80700668692588806152e-02) (673, 6.44714310765266418457e-02) (674, -1.94227804726439037819e-02) (675, 5.34550309956073263495e-02) (676, 1.66261164337590972018e-01) (677, 1.03449337390525059055e-01) (678, 2.13240467364078284396e-01) (679, 1.82797416574596055527e-01) (680, 1.72981662866111662868e-01) (681, 1.42415360592417911123e-01) (682, 2.73896113531145790621e-01) (683, 2.23432707008800635062e-01) (684, 3.28107986555330410905e-01) (685, 2.82944077117610659489e-01) (686, 2.47800720983758882010e-01) (687, 2.50747636921462457860e-01) (688, 2.29891035124367038023e-01) (689, 2.74733376902893067228e-01) (690, 1.44873223836247344565e-01) (691, 1.84280897194645992831e-01) (692, 1.03243968394998122950e-01) (693, 1.03361205691748767044e-01) (694, 1.22886697879471679107e-01) (695, -1.81651210428400190777e-02) (696, 3.82012555279314450218e-02) (697, -1.09446891356389533478e-01) (698, 3.69648428557456179555e-02) (699, -7.05627426505088806152e-02) (700, 8.13415572047233581543e-02) (701, 4.62951734662055969238e-02) (702, 5.22139100441968984079e-02) (703, -4.07243069623188860828e-02) (704, 4.04280532370598980063e-02) (705, -1.42302634481471599465e-02) (706, 2.14412556553447097851e-01) (707, 1.76827063503772058395e-01) (708, 1.69399608907294330074e-01) (709, 3.22026227081850635603e-01) (710, 2.38953587893174390633e-01) (711, 2.61588640750269274537e-01) (712, 1.51866292429606170034e-01) (713, 2.74404144807464611677e-01) (714, 2.80015408012893485257e-01) (715, 2.27514748279546069609e-01) (716, 1.19509040509023098386e-01) (717, 1.78103655298768370763e-01) (718, 2.06557584832524648855e-01) (719, 2.64107774451250110204e-01) (720, 1.09080534652320787492e-01) (721, 5.80053257306526529047e-02) (722, 1.35606267026473908954e-01) (723, 1.15860454063453383045e-01) (724, 6.54617951041978722582e-03) (725, -4.43361455987386007815e-02) (726, 5.27043324514531244529e-02) (727, 6.59240707755088806152e-02) (728, -3.33984345197677612305e-02) (729, -2.84118652343750000000e-02) (730, -6.25854507088661193848e-02) (731, 9.21072193833051416911e-02) (732, -7.01057483355270461001e-03) (733, -9.45373325021164195858e-03) (734, 1.13915449784953118351e-01) (735, -1.89907742521144926734e-03) (736, -5.03301736127730811599e-02) (737, -8.70496692524417095549e-03) (738, 4.23876360494556750358e-02) (739, -3.23543947236535549099e-04) (740, 8.41773386623891617386e-02) (741, -7.25004918661373114197e-03) (742, 8.90437969841474663557e-02) (743, -3.22941551005670665631e-02) (744, 9.24045142102429134523e-02) (745, 9.29632768021738803421e-02) (746, 1.68606180406263329863e-02) (747, -4.65890926749825545761e-02) (748, 2.29445755426317850312e-03) (749, 8.43190436828068351494e-02) (750, -2.23349506395148049431e-02) (751, -8.47470925879555136984e-03) (752, -8.33663685803561205212e-02) (753, -1.16028966323391651005e-02) (754, -5.17272949218750000000e-02) (755, 9.05090346932411193848e-02) (756, 5.54565414786338806152e-02) (757, -8.63769575953483581543e-02) (758, -3.97338718175888061523e-03) (759, -6.96227997541427612305e-02) (760, 2.59340346896050656655e-02) (761, 1.39119299290375482425e-02) (762, 1.65345336356230096508e-02) (763, 4.36130020516099017880e-02) (764, -3.86579855695408647343e-02) (765, -1.00451001383281435936e-02) (766, 9.34548128466651389923e-02) (767, -8.85376484391661583429e-02) (768, -6.55568638775242545913e-02) (769, 3.34501027714728810247e-02) (770, -8.22605249840126055705e-03) (771, -2.23465931265282684304e-02) (772, 8.61534330922441027312e-02) (773, 9.85636664817932800498e-02) (774, 8.63694456678531646832e-02) (775, -4.99420763038722625993e-02) (776, 1.69833616321822984674e-02) (777, -4.37058172619872453701e-02) (778, -2.13584869065950033740e-02) (779, -7.49173571915891711379e-04) (780, -1.26892104744911193848e-02) (781, 1.85547024011611938477e-03) (782, -9.57763716578483581543e-02) (783, 1.44531279802322387695e-02) (784, 1.24635265205356660090e+00) (0, -3.51257324218750000000e-02) (1, 1.37817412614822387695e-02) (2, 1.21765136718750000000e-02) (3, 2.64831557869911193848e-02) (4, -7.93640166521072387695e-02) (5, 3.03588882088661193848e-02) (6, 1.43798813223838806152e-02) (7, -4.64843772351741790771e-02) (8, 7.02575668692588806152e-02) (9, -5.56030124425888061523e-03) (10, 6.80725052952766418457e-02) (11, 3.23489308357238769531e-04) (12, -3.02679172180003036585e-02) (13, -6.86432383369275402052e-03) (14, -3.91269785363704408754e-02) (15, -3.14825826519028115213e-02) (16, 1.73217803239822387695e-02) (17, -9.41650420427322387695e-02) (18, 8.94042924046516418457e-02) (19, 2.99438461661338806152e-02) (20, -8.11218246817588806152e-02) (21, 6.75720199942588806152e-02) (22, 3.35021987557411193848e-02) (23, 2.41821259260177612305e-02) (24, -8.68042036890983581543e-02) (25, -1.63696259260177612305e-02) (26, 9.80895981192588806152e-02) (27, 6.28539994359016418457e-02) (28, 8.77807661890983581543e-02) (29, 2.43835449218750000000e-02) (30, -2.66906768083572387695e-02) (31, -2.82958969473838806152e-02) (32, -2.31537573308736970013e-02) (33, 5.29913803976516037397e-02) (34, -2.62212494344863690510e-02) (35, 5.35557177454942367339e-03) (36, -3.95936865719693636967e-02) (37, 9.50705557890600960746e-02) (38, 3.50820169365987227783e-02) (39, -3.10668466152452041329e-02) (40, 6.45236573081455627721e-02) (41, -4.04176346517333834329e-02) (42, 3.21752830671041822885e-02) (43, 1.65042081034929427608e-01) (44, 6.30028203436199529808e-02) (45, 1.09185693911766371067e-01) (46, 1.04690673584075147340e-01) (47, 5.07027682628027887013e-02) (48, 5.07245020981019409390e-02) (49, 8.14016942508058172212e-02) (50, -6.63644166137140750772e-02) (51, -6.57408404013856279002e-02) (52, 2.64892652630805969238e-02) (53, 9.83459427952766418457e-02) (54, 3.34472730755805969238e-02) (55, 8.81408676505088806152e-02) (56, -9.19494628906250000000e-02) (57, -9.55200195312500000000e-02) (58, 2.23562037554111518733e-02) (59, 2.00241957660555955356e-02) (60, 5.56663204344694101389e-02) (61, -7.30793042832406508635e-02) (62, -8.17510902672661105006e-02) (63, 6.02233935157133401517e-02) (64, -3.42769963919868289604e-02) (65, -3.62920320639693178011e-02) (66, 7.95112331649844572556e-02) (67, 1.18916796096886240308e-01) (68, 1.05764477572759009461e-02) (69, 2.43187031432971517697e-01) (70, 2.82048441684761952430e-01) (71, 3.17160972554769993170e-01) (72, 1.48675138881912194400e-01) (73, 3.14074684385040214796e-01) (74, 3.63476156439213160532e-01) (75, 2.65800684173978396529e-01) (76, 2.05579207693458582140e-01) (77, 1.60520772565233699192e-01) (78, 9.68513378007085645738e-02) (79, 1.20721778962315673400e-01) (80, -2.20893432557081846601e-02) (81, -7.36225284961033038522e-02) (82, 4.75463941693305969238e-02) (83, 2.28576660156250000000e-02) (84, -5.63964992761611938477e-03) (85, -9.03259292244911193848e-02) (86, 7.62579452780539051443e-03) (87, 8.10855284262965436692e-02) (88, -3.81470385092271130345e-02) (89, -8.11390389753095103709e-02) (90, 5.74306257521514651465e-02) (91, 3.43654416383278775785e-03) (92, -9.37961546245203864336e-02) (93, -1.49042543618429029761e-01) (94, -7.50445182571732177790e-02) (95, -1.90159308180503500152e-01) (96, -1.54558130041599378623e-01) (97, -1.07789900559879761599e-01) (98, 1.32546483502868739368e-01) (99, 1.48086662239649835549e-01) (100, 1.62865168918389230379e-01) (101, 1.38410499201402525937e-01) (102, 2.38491425194733319692e-01) (103, 1.78066241768306127158e-01) (104, 2.31916022050475484351e-01) (105, 1.40138070528714769880e-01) (106, 1.51629520667525830024e-01) (107, 1.33849885850063188286e-01) (108, -4.71068393199452831177e-02) (109, -1.00125223324636757755e-02) (110, 2.03658228119115644605e-02) (111, -8.94897505640983581543e-02) (112, 6.80786147713661193848e-02) (113, 2.03761105323040370152e-02) (114, 5.54564417806212503481e-02) (115, 8.60213107991928266349e-02) (116, -3.75288985834267910247e-02) (117, 5.29490500098670074935e-02) (118, 8.82986813766144414128e-03) (119, -3.28216605705352118538e-02) (120, -4.95849893645632644468e-02) (121, -1.69865072511623055318e-01) (122, 1.93346573031692794964e-02) (123, 2.18767817770365406715e-02) (124, -2.66416182670427574217e-03) (125, -1.53650475636935596180e-01) (126, -1.46596636126077230905e-02) (127, 4.96845943902864198294e-02) (128, -5.15225217873074778363e-02) (129, 2.01540778028822809009e-01) (130, 1.10499712382296499946e-01) (131, 2.01733089584704011754e-01) (132, 1.31124279171248830922e-01) (133, 3.36484414975018464311e-01) (134, 2.89563866273089554060e-01) (135, 2.85516467657733363783e-01) (136, 1.49359376469057891779e-01) (137, 1.00232079445581323540e-01) (138, 1.85656791173484936319e-02) (139, 6.28096157224017487275e-02) (140, 8.68286117911338806152e-02) (141, 6.57653883099555969238e-02) (142, 6.91896978909709164940e-02) (143, 4.92661578002974876594e-03) (144, 6.07366856504271065975e-02) (145, 9.67696581618268797387e-02) (146, 1.47830138334409583178e-01) (147, -6.83742586754186327386e-03) (148, -1.48187954631951834816e-01) (149, 1.16175068315131094221e-01) (150, -1.28273897697682381924e-01) (151, -2.81342274553073534715e-01) (152, -1.54538217719823456342e-01) (153, -2.82775677469358999172e-01) (154, -6.01166506542017628489e-02) (155, -2.88288809862813598384e-02) (156, -2.76752749898955929808e-01) (157, -1.20523251647422877109e-01) (158, -1.17542493380881851728e-01) (159, -1.52899212256431826784e-02) (160, 4.77659616746128716513e-03) (161, -5.01155583349929059644e-02) (162, 4.45944668370767474674e-02) (163, 3.73490615153341976029e-01) (164, 2.79472372451878614541e-01) (165, 6.45232057608196019061e-02) (166, 1.12028313515634192488e-01) (167, -8.06818048801313247864e-02) (168, 4.56481948494911193848e-02) (169, 9.59616779281997761553e-02) (170, 1.00546402799469525302e-01) (171, 8.99790288429016260618e-02) (172, 2.32442403425988756982e-02) (173, -4.49024795641782686895e-02) (174, -6.19926987673472748575e-02) (175, 6.23895465359714830600e-03) (176, 8.34942155316805850740e-02) (177, -3.83026050163139744620e-02) (178, -8.03269994946601896026e-04) (179, 1.06912855425742470139e-01) (180, 5.86044203082533750326e-03) (181, -1.26568141439196368836e-01) (182, -1.78575894124781586747e-01) (183, -5.41687894690697432920e-02) (184, -1.23279395212785594649e-01) (185, 1.08077860660388103131e-01) (186, 3.73279651312512297801e-02) (187, 1.78125596546856335145e-01) (188, 1.67442059833251361001e-01) (189, 9.04174997123608215066e-02) (190, 1.73812665206854150002e-01) (191, 4.00448351108089739547e-01) (192, 2.17270001079082564210e-01) (193, 1.42622657394285590193e-01) (194, 3.41710431804324865634e-02) (195, 7.53683859234635655788e-02) (196, 3.94653051460599410549e-02) (197, -3.09166217663885273259e-02) (198, -1.82780762093533444279e-02) (199, 4.54157453474236944002e-02) (200, 5.60214862736197402593e-02) (201, -1.06355784503307834732e-01) (202, -4.41306441037113677400e-03) (203, 1.55669726818832947213e-02) (204, -1.92280300407814408459e-01) (205, 2.76489136046908848265e-02) (206, 3.89299836006118740728e-02) (207, -1.58012512691838358236e-01) (208, 1.01061728297036745872e-01) (209, -1.29687794363506858630e-01) (210, -3.72310591842580432265e-02) (211, 1.20182892014154107940e-01) (212, -3.66824609234235529676e-02) (213, 1.02723550828106593991e-01) (214, -1.93558493366778466838e-02) (215, 8.34720438542767145806e-02) (216, 2.83028829095134770721e-01) (217, -4.26108182424755066453e-02) (218, -1.23176794324685034976e-01) (219, 4.81687725420164414292e-01) (220, 3.23531046267340027800e-01) (221, 1.52337348975349784475e-01) (222, 1.00551755493408931375e-01) (223, -3.94968124433387746119e-02) (224, 3.08767192633954933034e-02) (225, 1.50555539274042325670e-02) (226, 9.76527636462774101256e-02) (227, 9.35773982210279589578e-03) (228, 1.80289128777685915550e-02) (229, -1.29025048567187244908e-01) (230, 1.94326758720166248295e-01) (231, 1.27338019341550867658e-01) (232, 2.12085939617589723516e-02) (233, 6.85332171054014588352e-02) (234, -1.92897980592052320503e-01) (235, -5.65922605722509325377e-02) (236, 8.61512208689005631879e-02) (237, 2.26845798947641593205e-03) (238, -5.39853338327480822278e-02) (239, -6.90686378253730498544e-02) (240, 9.94866366640283772416e-02) (241, 7.06023581648698717039e-02) (242, 1.79846029727318640346e-01) (243, 8.24067952883008464360e-03) (244, -2.54543147703555246164e-02) (245, -2.31740144917279844439e-02) (246, -1.07143873387330001989e-01) (247, 1.87795816733473425186e-01) (248, 3.62904249065721107304e-01) (249, 1.44302199592057062150e-01) (250, 5.63782515388894026054e-02) (251, 3.66614667370946736846e-02) (252, 6.53121753925426373755e-02) (253, 9.35140154722874893112e-03) (254, 1.17284938398692570316e-01) (255, 1.60730393079728334227e-01) (256, 4.42171911212312692546e-03) (257, -2.50873620042511791262e-01) (258, 1.31316637698264210288e-01) (259, -7.20649250617095005200e-02) (260, 7.28669824638095708913e-02) (261, -6.62812832910420757226e-02) (262, 7.73056900549774217435e-02) (263, 7.57422602756871732321e-02) (264, 6.15814057714145421385e-02) (265, 6.77458697314499980191e-02) (266, 3.09908416921191622040e-02) (267, -5.60226615956267437468e-02) (268, 5.69991107247805120495e-02) (269, 3.26315520301125455704e-02) (270, 3.64303862892973312482e-02) (271, 9.27618701415371810226e-02) (272, 2.02971871176049339924e-01) (273, 4.39351488407985699136e-02) (274, -1.35287215827741003071e-01) (275, 9.12080153070196977816e-03) (276, 3.09833842333812836678e-01) (277, 1.17298644544735611306e-01) (278, 1.95251769349294376776e-02) (279, -9.06988944184424078498e-02) (280, -1.75173040240478201934e-02) (281, -8.23278613936367226200e-02) (282, -2.21377059086978363045e-02) (283, 1.17243487153589787120e-01) (284, 1.13089034001334978741e-01) (285, -2.00555527126146465600e-01) (286, -3.24513107871940653659e-01) (287, -9.69671854829506074669e-02) (288, -2.20827840853546980560e-01) (289, -2.67278839965495118580e-01) (290, -1.86862186223667819940e-01) (291, 6.05011782448265852952e-02) (292, 1.27120521515747514352e-01) (293, 3.59235682488561802739e-01) (294, 3.02462834064595786909e-01) (295, 1.59225371532522058660e-01) (296, 1.57678625905193388335e-02) (297, -1.85768182472536014238e-01) (298, -1.46136882654600258613e-01) (299, 1.63922949734412598533e-01) (300, 1.42347195682159477492e-01) (301, 9.49190539711504965847e-02) (302, 1.04549840999897586391e-01) (303, 9.32941985800350287450e-02) (304, 6.99003070160263556554e-02) (305, 3.93041654290196117855e-03) (306, -1.32541570698913417636e-02) (307, -3.37847040270634613179e-02) (308, -4.07127357468098985405e-02) (309, -6.35749731541519758071e-02) (310, 4.56496643099169666091e-02) (311, 1.90211674649767570333e-01) (312, 2.34555411174107636407e-01) (313, -1.32147105553472553330e-02) (314, 1.37811156696793335463e-01) (315, 4.20031344353164803884e-01) (316, 1.66090180493325412225e-01) (317, 3.08162001624137371625e-01) (318, 5.31839046614157817672e-01) (319, 6.12057561866255817051e-01) (320, 7.03572967985247266220e-01) (321, 6.21823855865151653433e-01) (322, 4.47223514493882035037e-01) (323, 3.74353050454027003191e-01) (324, 8.37529350624634238986e-02) (325, 1.75784994318940707148e-01) (326, -5.08229404956170999208e-02) (327, -9.39273414809336515408e-02) (328, 2.51474359883926967818e-01) (329, 9.06413029667984260218e-02) (330, 1.84544330359831643129e-01) (331, 2.21598624760067974826e-01) (332, 2.60918404552731748869e-02) (333, -1.28976117668145422168e-02) (334, -1.54011013224991007695e-05) (335, -8.53393431011505443351e-02) (336, -6.39043636448513724391e-02) (337, -3.36209614765576106366e-02) (338, 8.80955923410833147136e-02) (339, 1.75295628689818905332e-01) (340, 3.62866663407596157231e-01) (341, 6.64543979507211224345e-01) (342, 1.10444971834434824132e+00) (343, 1.31646084588676637317e+00) (344, 1.21759443927658206341e+00) (345, 1.30949767516110515686e+00) (346, 1.17606909784157442900e+00) (347, 1.02179980502146650068e+00) (348, 9.95585126670293418805e-01) (349, 6.23492100106943558657e-01) (350, 8.40017880110802250826e-01) (351, 5.20363960527797986266e-01) (352, 2.12173548016979685027e-01) (353, 4.04582226260062405299e-01) (354, 1.35686660326273911270e-01) (355, -1.55213161691473335718e-02) (356, 1.15198216548163659412e-01) (357, -8.29687717817205599991e-02) (358, 1.87711836831113976221e-01) (359, 3.38969775001262185743e-01) (360, -1.68346278508652635875e-01) (361, -1.21048322170983130297e-01) (362, -8.30474059722641350101e-02) (363, 5.31546895771253455343e-02) (364, 6.58476354412096676061e-02) (365, 7.35536125277900729169e-03) (366, -1.48235688290777531395e-02) (367, 1.27645183740483308954e-01) (368, 5.67618483514770066911e-01) (369, 1.06532447090595461248e+00) (370, 1.40690562594487067472e+00) (371, 1.59054608806739850024e+00) (372, 1.36848252342379805846e+00) (373, 8.01533309106003399869e-01) (374, 4.51151049685340699291e-01) (375, 3.26155198157218162436e-01) (376, 1.13967923488597286386e-01) (377, 9.85807350715850114198e-03) (378, 2.77577515833791588218e-01) (379, 3.38136788565689683228e-01) (380, 1.91436980496005659802e-01) (381, 2.06108646833724512559e-01) (382, 1.91416028949579847263e-01) (383, 2.80945109330679843040e-01) (384, 7.42794040121195070503e-02) (385, -3.88339083986412175742e-02) (386, 1.51219071440477914603e-01) (387, 1.01236442968905757112e-01) (388, -2.18508861194207371081e-01) (389, -3.65868850564575187612e-01) (390, -7.47769474450665494469e-02) (391, -7.85731471404915206291e-03) (392, 3.13073185601403167211e-02) (393, 2.05510403070545549786e-02) (394, -4.30498791810788369178e-03) (395, 2.60257963734346453588e-01) (396, 4.36696121636136413979e-01) (397, 9.28134775397336908576e-01) (398, 8.22150619160479823044e-01) (399, 5.47507912642489991129e-01) (400, 2.78399977080548588493e-01) (401, -6.42204228087527584368e-02) (402, -1.45159754997920553699e-01) (403, 1.37848724864273897844e-02) (404, 5.70994640767052072383e-02) (405, 3.99675286132249035775e-02) (406, 2.28291179220309614628e-01) (407, 2.99431223339549912321e-01) (408, -4.15401355134952451897e-02) (409, 2.92361950206922738271e-01) (410, 3.68978078864450748098e-02) (411, 2.54255521103387144288e-02) (412, 2.04107664114826253821e-01) (413, 1.99228199174921349890e-01) (414, 1.67484782977625534794e-01) (415, 2.44301978498473432166e-01) (416, 2.09663760635622198336e-01) (417, -2.30195071530929967762e-01) (418, -2.65229598306878366909e-01) (419, -6.35961606636187698482e-02) (420, -2.76873921175228021596e-02) (421, 7.98306831518828252658e-02) (422, 3.25969757086409031577e-02) (423, 6.33945132805899674855e-02) (424, 2.35116871542425859287e-01) (425, 1.76786047714742905468e-01) (426, -9.04957934976167305274e-03) (427, -5.58586258897533285972e-02) (428, -1.64795980417052345679e-01) (429, -1.22456304145588917853e-01) (430, -1.38931435342816239631e-01) (431, -9.81244895033586694844e-02) (432, -6.76721839048070959027e-03) (433, -1.63421260732352857659e-01) (434, 5.80358788713821391325e-02) (435, 1.30637134448047337321e-01) (436, -6.08905763085046680683e-02) (437, 1.64901356082583411267e-01) (438, 1.85636829803090736002e-01) (439, 8.01410300593492636034e-02) (440, 2.58951930228944027235e-01) (441, 8.79842744592889830502e-02) (442, 2.31849337989448955888e-01) (443, 2.79100546005423666429e-01) (444, -5.73320048946851720806e-02) (445, -2.59054218224108678825e-01) (446, -3.13686942553152048330e-01) (447, -1.58046507514427100882e-02) (448, 6.96037315003267820224e-02) (449, 1.32321988724680905322e-03) (450, 1.00520944781689311465e-01) (451, -5.21399872050530635570e-02) (452, 1.00289674906180820146e-01) (453, -2.38163935349976728373e-02) (454, -2.47584783609652830938e-01) (455, -8.57499257525978775263e-02) (456, -1.24536694689266036473e-01) (457, -9.85965939125080098604e-02) (458, -1.51157875077560566179e-01) (459, -1.62713488956349044967e-01) (460, -2.17338125886983229984e-01) (461, -1.62311303469003992417e-01) (462, 1.85495446504822303346e-01) (463, 5.02519327820488276304e-02) (464, 4.62118898999649418968e-02) (465, 5.86923466062805494758e-03) (466, 8.48020838184450204134e-02) (467, -3.99372700025914413591e-03) (468, 1.79394416672482154285e-01) (469, -4.44708334264559621007e-02) (470, -9.84292706224305091744e-02) (471, 1.61435447622062695772e-02) (472, -3.20673988674051654857e-02) (473, -3.53487014279176392506e-01) (474, -3.24372832596303173336e-01) (475, 3.96561462050619151221e-02) (476, -7.33825713396072387695e-02) (477, 5.56062356284224637570e-02) (478, 4.95714199162799393217e-02) (479, -5.14472415310384192932e-03) (480, -1.56797130799379985655e-01) (481, -3.21164180203906302058e-01) (482, -2.17879367225599085423e-01) (483, -1.62138505733624954663e-01) (484, -2.66800433669168723938e-01) (485, -2.61907734225399646544e-01) (486, -1.67158796165609330187e-01) (487, -2.04457386730689028020e-01) (488, -1.72084859342895052370e-01) (489, -1.41069199922452009899e-01) (490, -6.34738562538947753700e-02) (491, -9.41101773370189020884e-02) (492, 6.53069675584571768256e-02) (493, 3.65924132626935863510e-02) (494, 1.26194701719022001063e-01) (495, 2.54176886465413809368e-01) (496, 1.50094045590408592394e-01) (497, 2.10349499817072932428e-01) (498, 3.59928513857545318011e-02) (499, -1.37263871505106993531e-01) (500, -1.91109363049649427779e-01) (501, -5.42460758716142965596e-01) (502, -2.58665572097665219520e-01) (503, 2.62893570581611349390e-02) (504, -6.02004321380251485041e-03) (505, -3.08027968359471139570e-02) (506, 2.88830326247799321071e-02) (507, 6.69080096059551931997e-02) (508, -9.72929697336170767885e-02) (509, -3.47325209368203713378e-01) (510, -1.26235475114734457813e-01) (511, -3.03851512377682875243e-01) (512, -3.17134560035424728497e-01) (513, -2.60105022550740638820e-01) (514, -3.51748667293664329936e-01) (515, -1.66583765150986273795e-01) (516, -4.71950681412512007551e-01) (517, -1.71352914319665289300e-01) (518, -2.24406067314015078562e-01) (519, -6.18239774048258000638e-02) (520, -8.67261000383180435946e-02) (521, -6.81164433923161782847e-02) (522, 8.74106196636959681401e-02) (523, 1.37397513785698893729e-01) (524, 4.41550739171449324605e-02) (525, -4.24841380561478687561e-02) (526, -1.66598821011819907267e-03) (527, -2.40881168398115685925e-01) (528, -5.95691960704637812896e-01) (529, -5.15132696957616320610e-01) (530, -3.10624911187910822397e-02) (531, 9.39727712727135393311e-03) (532, -1.94866489055845887313e-02) (533, -9.77389999822165372878e-02) (534, 3.49546649050609045672e-02) (535, 8.74588558641713753605e-02) (536, -9.01475349411103715758e-02) (537, -4.30255527678494315014e-02) (538, 6.78137880533259424648e-03) (539, -1.07648264724405334780e-01) (540, -3.01896149219554356391e-02) (541, -3.00862251213201703504e-01) (542, -2.31609006639870579347e-01) (543, -3.13279211520544664804e-01) (544, -3.38808964287314218211e-01) (545, -2.94817759213118313344e-01) (546, -1.33807547465861903513e-01) (547, 7.84123086546988437573e-03) (548, -2.17700776605463469648e-01) (549, -1.56078439635228161109e-01) (550, -5.79782506361883470669e-02) (551, 1.22201756992782101241e-01) (552, -1.02344838554880426806e-01) (553, -7.04850014581682587922e-02) (554, -3.04943048753132626982e-02) (555, -5.83979743027177519710e-02) (556, -4.45343703392112655326e-01) (557, -3.83508228253720218071e-01) (558, -1.50381770628152555691e-01) (559, 9.86635580187730232282e-02) (560, 9.39331129193305969238e-02) (561, 9.28452547223210661320e-02) (562, 5.02521207858711016492e-02) (563, -2.29659375657871971110e-02) (564, -1.71794978943762138845e-01) (565, -1.90987147768308995754e-01) (566, -3.03645085004291104269e-01) (567, -3.20982974287419786652e-01) (568, -2.63894455427271412695e-01) (569, -2.55425331105717245972e-01) (570, -2.15718102309338050082e-01) (571, -3.71696247601907336922e-01) (572, -1.84014030535780359621e-01) (573, -5.95742916905746128231e-02) (574, -8.50908240370147339604e-02) (575, -1.32546069613357186956e-01) (576, -1.33760909737325656144e-01) (577, 9.61237816195495836658e-02) (578, -1.13713631193064990121e-01) (579, -2.52605191740653434174e-01) (580, -2.76493296230151987258e-02) (581, -1.47618571376941343232e-01) (582, -9.15685707369143751799e-03) (583, -4.19759009440391961387e-01) (584, -5.55832477044135853106e-01) (585, -2.62892825769699467475e-01) (586, -5.46202664078859409513e-02) (587, -9.43696095749482627424e-02) (588, 5.66229329723524632545e-02) (589, 3.72541819878368860031e-03) (590, 3.64740985243026602514e-02) (591, -6.91557616595795537906e-02) (592, -1.01167518219227162146e-01) (593, -3.61554270424091217517e-02) (594, 4.83059172100650802140e-02) (595, 1.14035768253104380365e-01) (596, 2.16610243577988692554e-01) (597, -2.87157737693642889365e-01) (598, -3.24247278627329271750e-02) (599, -1.10175964058472200535e-01) (600, -3.98815912880875894642e-02) (601, -3.46612643128647313073e-02) (602, 4.01468890442305409438e-02) (603, 3.32400193862277607004e-02) (604, -1.87893266575299394683e-01) (605, -1.47066792538582957750e-01) (606, -2.38488550599162241195e-01) (607, -1.54632600982622991914e-01) (608, -1.23933650338333561924e-02) (609, -1.96232207264424640680e-01) (610, -2.22099922008428929399e-01) (611, -4.16311307471952773973e-01) (612, -3.24264382257957839428e-01) (613, -1.29477585332029410115e-01) (614, 5.23132501882563258344e-02) (615, 2.55788554259579192784e-02) (616, -6.30777131524848377886e-02) (617, -7.65803485643234277402e-03) (618, -6.34379174675775564518e-02) (619, -1.22660216009572206608e-01) (620, -2.64158498152803344894e-01) (621, -5.32657554558104984199e-02) (622, 9.64327735364105959048e-03) (623, -1.43974679535849831025e-01) (624, -2.28778483842902252698e-01) (625, -2.24022344302124337689e-01) (626, -6.68129664549311219623e-02) (627, -2.35256262922078768218e-01) (628, -1.60332852156258365284e-01) (629, 6.35376181600576326464e-03) (630, -1.19778361297000323499e-02) (631, 1.97936171002678074071e-01) (632, 1.16192070679709352765e-01) (633, 2.01540688910361934227e-02) (634, -3.46570928870485073237e-01) (635, -1.98383652758878675781e-01) (636, -2.53908316260361033301e-01) (637, -1.14326609255035099855e-01) (638, -3.55742747457479080442e-01) (639, -2.05701315398996414929e-01) (640, -1.57942059192352574071e-01) (641, -1.01024484102859551937e-01) (642, -1.88501929858929870298e-02) (643, -9.48565386564108187217e-02) (644, -5.66528327763080596924e-02) (645, 9.86083969473838806152e-02) (646, 6.16544357463465059199e-02) (647, 2.58727520682602921132e-02) (648, -5.53540497248850016376e-02) (649, 3.02315256940183831047e-02) (650, -1.22264399832980763527e-01) (651, -5.06748966831166991476e-02) (652, 6.92786598787933777244e-02) (653, -3.00722649220033499962e-02) (654, 8.04856141983947281915e-02) (655, -4.12502011438460880477e-02) (656, 3.63944785692681405109e-02) (657, 1.14515144526470324937e-01) (658, -2.50161179167520918154e-02) (659, 1.68002600418091424528e-01) (660, 5.62339700622268914842e-02) (661, 1.31361973380341862105e-01) (662, -3.62470112217388451548e-01) (663, -3.68580171247159471548e-01) (664, -1.35644412802355757153e-01) (665, -3.84855188334028708308e-01) (666, -5.13377778974243637045e-01) (667, -2.59726101704021716809e-01) (668, -1.39616602700065733922e-02) (669, -1.23713722301557055294e-01) (670, -2.41105029730045196390e-02) (671, -4.43176291882991790771e-02) (672, 2.32482925057411193848e-02) (673, 3.11523452401161193848e-02) (674, -4.91983975398872508400e-02) (675, 5.34550569701084041241e-02) (676, 1.62563115705373545383e-01) (677, 3.69927290474422076905e-01) (678, 3.98347317372468590069e-01) (679, 3.31251024505568036904e-01) (680, 3.83227713887880488963e-02) (681, 2.83235537222589817130e-01) (682, 2.86022793842168665535e-01) (683, 1.10394249461310739457e-01) (684, 7.09267640051313985605e-02) (685, 6.31423944683490168117e-02) (686, -6.07596482604995588583e-02) (687, -2.16497935729911376856e-02) (688, 1.72565816468081417723e-01) (689, 2.01176696772624619136e-01) (690, 7.77415038303755495663e-02) (691, -2.22859368753784946315e-02) (692, -1.14682159180326245784e-01) (693, -1.80331530979801701875e-01) (694, -1.74349862257164256452e-01) (695, -1.77844924324516623360e-01) (696, -5.35555763917403421237e-02) (697, -8.88721394780763174204e-02) (698, 2.50630905625646473178e-02) (699, -1.75170600414276123047e-03) (700, 1.06750503182411193848e-02) (701, 9.65759232640266418457e-02) (702, -5.02312443348118392583e-02) (703, -5.75900982628427121623e-02) (704, 1.61487654907721024655e-02) (705, 9.45668812921151569206e-02) (706, 2.77219548695279094375e-01) (707, 4.25230801363152666195e-01) (708, 4.42721313899924917568e-01) (709, 6.86930749747393543103e-01) (710, 6.44463586409632971375e-01) (711, 7.70182767758603947783e-01) (712, 5.80382519533322316363e-01) (713, 6.54676751387801680870e-01) (714, 4.58470282963725606074e-01) (715, 3.87989638814565440672e-01) (716, 2.91184935945575151806e-01) (717, 3.58092822368871521732e-01) (718, 4.61739038183938188542e-01) (719, 3.20152819788612097440e-01) (720, 1.87802563209099659947e-01) (721, 1.12720983908407790253e-01) (722, 1.66193281161621908559e-01) (723, 1.54978525311664323480e-03) (724, 3.41825895303535546785e-03) (725, 8.26414369706861273723e-02) (726, -2.83089068052608736070e-02) (727, -2.53417938947677612305e-02) (728, -3.36059555411338806152e-02) (729, -4.61120605468750000000e-02) (730, 6.65100142359733581543e-02) (731, -8.62797864717325391215e-02) (732, 8.81449012236033002665e-02) (733, -5.85666516914660970072e-02) (734, -3.72857490347150519888e-03) (735, 8.95723752128494560276e-02) (736, 1.03675048784998696805e-01) (737, 3.67560421773072271145e-02) (738, 3.28264278490270275390e-02) (739, 1.83414891039882232970e-01) (740, 4.37998782242909542872e-02) (741, 8.26404054401213700176e-02) (742, 7.00471399954677581556e-02) (743, 1.32776000520813869388e-01) (744, 8.70581715585675014468e-02) (745, 7.70472746015157111676e-02) (746, 3.50482097618988810983e-02) (747, 6.09453324081974459614e-02) (748, -1.06771727839286463546e-02) (749, -1.81764074760623721427e-02) (750, -4.27890203369287874802e-02) (751, -2.96932959875683289558e-03) (752, 6.51489741956803869449e-02) (753, -2.43762457206657782993e-02) (754, 1.26281753182411193848e-02) (755, -5.30090332031250000000e-02) (756, 5.44677749276161193848e-02) (757, -4.00024428963661193848e-02) (758, -1.94824188947677612305e-02) (759, -5.53894042968750000000e-02) (760, -3.57081363384914515779e-02) (761, -9.81422220335496642285e-02) (762, -1.34577171742976137853e-03) (763, -2.11896348429200173658e-02) (764, -6.03380810662464475702e-02) (765, -5.87363273668861582411e-02) (766, 5.99402751300816410973e-02) (767, 5.62096773363119361910e-02) (768, 8.11205821033414292698e-02) (769, -1.99277978683100320811e-02) (770, 8.80948642359493938603e-02) (771, 6.74107448685412335987e-02) (772, 3.13101229132023914370e-02) (773, -8.54221558015560156196e-02) (774, -5.45557011280107112539e-02) (775, -5.06915892845587953697e-02) (776, -3.17175063083240532658e-02) (777, 2.93562105439015876007e-02) (778, 1.01610521658404673317e-01) (779, -2.18112043915851287409e-03) (780, -5.95581047236919403076e-02) (781, -3.95324714481830596924e-02) (782, 8.12988355755805969238e-02) (783, -9.63012725114822387695e-02) (784, 2.17548341524087307519e+00) (0, -2.51159667968750000000e-02) (1, -8.39721709489822387695e-02) (2, 2.37853974103927612305e-02) (3, -8.75244289636611938477e-03) (4, 6.38244673609733581543e-02) (5, 7.96814039349555969238e-02) (6, -4.41711433231830596924e-02) (7, -1.73217803239822387695e-02) (8, -4.31152358651161193848e-02) (9, -9.18151885271072387695e-02) (10, 1.79992690682411193848e-02) (11, -5.89294433593750000000e-02) (12, 8.32357675678798564212e-02) (13, 1.48075633221340444146e-02) (14, -3.39901171549267661076e-02) (15, -8.93190882786452644559e-02) (16, 7.60986283421516418457e-02) (17, -9.58496108651161193848e-02) (18, -2.05810517072677612305e-02) (19, -2.16247588396072387695e-02) (20, 9.81323197484016418457e-02) (21, -8.37890654802322387695e-02) (22, 4.82055619359016418457e-02) (23, 3.87023910880088806152e-02) (24, -2.78564468026161193848e-02) (25, -3.60107421875000000000e-02) (26, -8.85619968175888061523e-03) (27, 6.40136674046516418457e-02) (28, -4.77294623851776123047e-03) (29, 1.37329101562500000000e-02) (30, 3.68896499276161193848e-02) (31, 8.59497115015983581543e-02) (32, 1.94414218659637941244e-02) (33, -3.15213467559679466623e-02) (34, 1.72049401453449484801e-03) (35, -1.90269096494439057159e-04) (36, 8.59561306394057561553e-02) (37, -8.33029794241733900773e-02) (38, -8.91767117384292123949e-03) (39, -2.40181300108272231808e-02) (40, -4.06594515220929375587e-02) (41, -4.04687215827730165096e-02) (42, 2.39129632315849723068e-02) (43, -1.29057928525315142657e-03) (44, -7.79712029328132605333e-02) (45, 7.86978053117801251704e-02) (46, 5.30162776491732365414e-02) (47, 1.61930899160970392936e-02) (48, -9.50364691605803668661e-02) (49, -4.40215847977332083718e-02) (50, -4.45097371653936993430e-02) (51, 9.95932300322691956007e-03) (52, -4.40002456307411193848e-02) (53, 4.60082963109016418457e-02) (54, 8.92272964119911193848e-02) (55, 2.57568061351776123047e-03) (56, 8.53637680411338806152e-02) (57, 1.29455551505088806152e-02) (58, 6.90753656168186930264e-02) (59, -1.59918938454642958757e-02) (60, 9.02504717705166353836e-02) (61, 2.19065192173204421888e-02) (62, -1.30795769290122151224e-02) (63, 2.34142839679158804023e-02) (64, 1.00700715918793828885e-01) (65, 5.30073638037102737308e-02) (66, 5.65771394007697978057e-02) (67, 1.94403776234656155107e-03) (68, 7.08214916787288650823e-02) (69, 2.29422288085268794022e-02) (70, -3.49496347996560569049e-02) (71, -1.05306398081216369411e-02) (72, -1.32798415909665483946e-03) (73, -3.00207892252984387405e-02) (74, -5.30097987998079944738e-02) (75, -5.04179522097458546193e-02) (76, -1.76539950764143527273e-02) (77, -1.24516935168945547252e-02) (78, 9.34488186176398241689e-03) (79, 8.21167746713943880188e-02) (80, -1.79276982856705173475e-02) (81, 6.74133069948401469906e-02) (82, -5.00183105468750000000e-02) (83, -8.49426314234733581543e-02) (84, -2.57629379630088806152e-02) (85, -6.42700195312500000000e-02) (86, -7.25686818535588445966e-02) (87, -5.66095038127818542262e-02) (88, -4.29514956395767935615e-02) (89, -1.10555682451939502053e-01) (90, 4.09996904111823989858e-02) (91, 7.21825050015663521874e-02) (92, -1.34362035214256131388e-01) (93, -9.34989350339135438794e-02) (94, -6.43310271931264998635e-02) (95, -2.51091113543107313788e-01) (96, -2.21236905176742243428e-02) (97, -7.35178070817227302669e-02) (98, -1.25474182632518638236e-01) (99, -4.79417660126127756492e-02) (100, -9.52094072200529162320e-02) (101, -1.21256258755873522204e-01) (102, -3.96286148325306203377e-02) (103, -6.62340090650744700573e-02) (104, 7.12409753295054348765e-02) (105, 1.94897901265369127843e-01) (106, 1.27992205634826300420e-01) (107, 1.18490086364662600138e-01) (108, 5.11197885684437566822e-02) (109, -8.00873792925993061020e-02) (110, 1.69326610355792564477e-02) (111, 6.40991255640983581543e-02) (112, -1.28967314958572387695e-02) (113, -3.31774391621851572065e-02) (114, 7.48892793841866299953e-02) (115, 1.21073921681525663308e-02) (116, 3.20647309788133841324e-02) (117, -8.81618052338939833801e-02) (118, -8.38443185213865425920e-03) (119, -1.30539949938930366358e-01) (120, -8.61767769972668906675e-02) (121, -1.77644268513782288554e-01) (122, -1.51214927154931649822e-01) (123, -5.82646697517316611292e-02) (124, -1.17460907950164505920e-01) (125, -1.94544860496252552950e-01) (126, -1.66283884392646436057e-01) (127, -3.94677288136795756390e-02) (128, 9.55012927771860392623e-02) (129, 3.98572476780628844311e-04) (130, 1.29946556494044962449e-01) (131, 1.81996351046677301566e-01) (132, 1.60765424311167304250e-01) (133, 1.26063176255964359829e-01) (134, 9.58093150783044522623e-02) (135, 2.65005883220322431548e-02) (136, 1.48931537165738203665e-01) (137, 3.73779544245892783594e-02) (138, -6.77391690834014126299e-02) (139, -1.64133444918200116502e-02) (140, 8.07617232203483581543e-02) (141, 2.26684585213661193848e-02) (142, -9.54303272744335129296e-02) (143, -1.04177617972947583747e-01) (144, -2.89340486485463975475e-03) (145, -5.05055711544472527019e-02) (146, -1.15367688400779239144e-01) (147, -1.81239760836461122340e-01) (148, -8.48392573513177677968e-02) (149, 5.63422152911664253505e-02) (150, 1.76293738450573167498e-01) (151, 1.77881789506274090584e-01) (152, 1.94544890032685748038e-02) (153, -6.75025125369190237556e-02) (154, 2.34380517061629324929e-03) (155, 4.24424194066340201847e-02) (156, 1.40673985241178467476e-01) (157, 3.28286376764520437810e-01) (158, 6.38492468080001096542e-02) (159, -2.89256732721067007230e-02) (160, -1.28104181512184167602e-01) (161, -3.13784317243982535661e-01) (162, -2.44370399874071608792e-01) (163, -2.05493854897419642169e-01) (164, -5.65254314531927551379e-02) (165, -3.47234764952743454880e-02) (166, -4.50048782081262782606e-02) (167, -4.71275925027057340788e-02) (168, 5.10559156537055969238e-02) (169, 4.45716805436616354819e-03) (170, -5.73687116729790086422e-02) (171, -4.40609972146331629883e-03) (172, -3.14240704769297440890e-02) (173, -1.03269774896226684824e-01) (174, -1.68835959648165306879e-01) (175, -1.29560831523283015443e-01) (176, -6.09806154612872741705e-02) (177, -1.01364846581230207828e-02) (178, -3.44190608135218761854e-02) (179, -1.44655803177252770958e-02) (180, -1.50548413465861175009e-01) (181, -5.15808391186668713235e-02) (182, 1.51783811839065890803e-02) (183, -1.20143098031496906031e-01) (184, -2.64914219648432272547e-02) (185, -1.46608394178086992587e-01) (186, -3.89863543780894106217e-01) (187, -4.77569747876005090692e-01) (188, -5.28011408317234365306e-01) (189, -5.12356651564594756110e-01) (190, -2.34583751160021836135e-01) (191, 2.24080552028873628001e-02) (192, 1.95184056398556918244e-02) (193, -5.37883620206810533770e-02) (194, 9.06594256557176521316e-03) (195, -6.51590220896237082293e-02) (196, 8.13831070176199711241e-02) (197, 2.56555647868891741059e-02) (198, -4.99134749498510721377e-02) (199, -1.39796152490945985170e-01) (200, -2.09037332562801159153e-01) (201, -2.00582545951333915402e-02) (202, -1.13005865676113870233e-01) (203, -1.24520801314900467216e-01) (204, -4.89364476873985695948e-02) (205, 6.56228537129969202724e-02) (206, 7.48072706439222717689e-02) (207, 8.70303931325970142607e-02) (208, -9.49061167080112316752e-02) (209, -1.27895170854812417760e-01) (210, -1.75859846230759953034e-01) (211, -3.99278483365787861814e-01) (212, -5.18717332021244370566e-01) (213, -5.62056827934005354130e-01) (214, -5.71037674056507404963e-01) (215, -4.59720285706691988992e-01) (216, -2.80144389195674303750e-01) (217, -1.39873642678879611667e-01) (218, 5.15466533725302197833e-02) (219, 3.10361888013587494672e-01) (220, 2.25248782854333529091e-01) (221, -4.34779885687858538845e-02) (222, -3.14077962037046173882e-02) (223, -4.75935622867617452725e-02) (224, -9.91657195140752123486e-02) (225, 1.89471989944936421157e-02) (226, -1.04967816548112435893e-01) (227, 2.45042230852771589222e-02) (228, -9.91910142915048420598e-02) (229, -1.50528477985765296587e-01) (230, -3.87062749037995548762e-02) (231, -1.47149936424343347197e-01) (232, -2.29149338400750565703e-02) (233, 1.13964344444464266148e-01) (234, 9.67735064878355727425e-02) (235, 2.17130050097698840128e-01) (236, -5.62182520685954104089e-02) (237, -2.52566322158692402322e-01) (238, -3.43837657515141781328e-01) (239, -2.49817791210949768921e-01) (240, -3.33937084057560396033e-01) (241, -1.51341135434888890421e-01) (242, 1.19077957721198408186e-02) (243, -1.38799157308069974308e-03) (244, 8.43609002132125057605e-02) (245, 2.02456977477087990414e-01) (246, 8.31230869990205456510e-02) (247, 3.58332835965023355218e-01) (248, 3.03898578132762942072e-01) (249, 4.76121600616467924305e-02) (250, 9.53221490300790695593e-03) (251, 1.42022822725337560801e-02) (252, -7.97878909278654929738e-02) (253, -1.30438223754724361841e-02) (254, -8.52850128557516851124e-02) (255, -1.75016756134238338216e-01) (256, -1.35230601713387466045e-01) (257, -9.56414580269905473253e-02) (258, -8.68016460751624800707e-03) (259, -8.45535012455774642737e-02) (260, 8.96668587693355972901e-02) (261, 1.79938803395612467728e-01) (262, 6.25972440234716653862e-02) (263, 1.75292085255077445538e-01) (264, -1.01929532881828072144e-01) (265, -7.71847180078927830316e-02) (266, -5.22908896077005774794e-02) (267, -1.20895754822961429276e-01) (268, -1.34279434939600372800e-01) (269, -3.84836800758113078968e-02) (270, -5.80047912799028439479e-02) (271, 4.38305348378719705771e-02) (272, 7.17141345271368191305e-02) (273, 4.25046248888296604451e-02) (274, 1.80533679495319593356e-01) (275, 3.27892233028127921823e-01) (276, 3.17476398179223240348e-01) (277, 1.26270174555022873797e-01) (278, 1.57589540442390874109e-01) (279, 1.19130669800671232239e-01) (280, 2.01581328171108221936e-02) (281, -5.49279726922773520181e-02) (282, -4.83697236658585036362e-02) (283, -9.72214466819379258267e-02) (284, -6.94271927729771948234e-02) (285, -2.11898698770944166059e-01) (286, -2.30628861190442430162e-01) (287, -2.31359247321979849543e-02) (288, 9.56641378467118913553e-02) (289, 1.02986339601170678870e-01) (290, 2.46710600286763823141e-02) (291, 6.41431952646165631088e-03) (292, 1.65533114766339889412e-01) (293, 6.75058923500512914062e-02) (294, 2.98900865552279059248e-03) (295, 9.44990245570250381180e-02) (296, -1.92998235272807197593e-02) (297, -1.31612828898738376537e-01) (298, -2.43858711334429739681e-01) (299, 1.22669450388701740257e-02) (300, 6.14603512877724689201e-02) (301, 2.64129750209115450599e-02) (302, 2.45497442293259260371e-01) (303, 5.39082664424840984907e-01) (304, 5.90349094890353365273e-01) (305, 3.83419807337983531426e-01) (306, 1.70499817679727327935e-01) (307, -1.30195145042041448419e-02) (308, -5.36828535118792707359e-02) (309, -3.29270908600334255567e-02) (310, -1.15211471208665247601e-01) (311, -1.50891249957485040767e-01) (312, -6.89475306698427298224e-02) (313, -2.77435251421139283945e-01) (314, -8.12776786488803026920e-02) (315, -8.64734448615885609168e-02) (316, -3.95318227186901988146e-02) (317, 4.40672973111877891439e-02) (318, 1.09230600268631211636e-01) (319, 8.09299857656954613194e-02) (320, 1.26095685682370811653e-01) (321, 1.16215950249583810372e-01) (322, 1.75139282249110878054e-01) (323, -3.06813757279860467586e-02) (324, 1.32483480256255475860e-01) (325, -2.91938189610693177301e-02) (326, -5.29664500927251799545e-02) (327, -1.48901856701551982276e-01) (328, -2.10565728201338009384e-01) (329, -9.29559342524086396065e-02) (330, -1.01148532451237269103e-02) (331, 2.02165262889625135800e-01) (332, 5.11475210517090328466e-01) (333, 3.51763863136090315642e-01) (334, 1.75256191199676079895e-02) (335, -4.50155511961414407651e-03) (336, -6.54921320177228108439e-03) (337, 5.36391236023785536458e-02) (338, 5.66322351840735996320e-02) (339, -1.69204558062572285593e-02) (340, -8.71212288218845415377e-02) (341, -1.32276625952783055684e-01) (342, -1.57571446993841096651e-01) (343, -1.79038987265987187270e-01) (344, -9.81133397830547954177e-02) (345, -2.87488307527294963128e-02) (346, 1.10654060608471008220e-01) (347, 6.03027184535023935696e-02) (348, 9.06698627300546039498e-02) (349, 6.39042903639527176685e-02) (350, 4.45132147525903604235e-02) (351, 2.65500475493449031306e-02) (352, -3.85344603977107250103e-02) (353, -1.41718045915969259596e-01) (354, -1.14833888365007963372e-01) (355, -3.69734631810183178580e-01) (356, -3.56416704930287597808e-01) (357, -4.38455167305547288681e-01) (358, -3.35032813139363894184e-01) (359, -3.58911630628016897759e-01) (360, -1.74654994120651108069e-01) (361, 2.88942103930078658669e-02) (362, 1.16443246660278873494e-01) (363, 5.47949045833528436411e-02) (364, -5.11244158203658580208e-02) (365, -6.01507009359389249736e-02) (366, 4.51641856331531019175e-02) (367, 1.07335201848693211069e-02) (368, -5.38721285156966434027e-04) (369, -7.82772341895611734053e-02) (370, -2.82301051768650390628e-01) (371, -2.71489226078678591580e-01) (372, -4.50567598363308952081e-02) (373, -5.06188725814790477231e-02) (374, -4.68644101658430775603e-02) (375, 7.70770037844149269457e-02) (376, 2.18401219905173471503e-01) (377, 2.13935215456973366888e-02) (378, -1.86897503898199396355e-01) (379, -1.22551815292401361512e-01) (380, -8.76515274513878922535e-02) (381, -1.07803466077113357935e-01) (382, -1.09434722271371742686e-01) (383, -2.92242238284738525822e-02) (384, -2.50445050111647249391e-01) (385, -3.23884070916874433621e-01) (386, -4.31344351323778241181e-01) (387, -4.06303358130303826634e-01) (388, -2.62762162616449912456e-01) (389, -2.61752771537418806036e-02) (390, -7.90112544823778351066e-02) (391, 2.39846737621499835058e-02) (392, -4.91619009636834608523e-02) (393, 1.95289828090253344238e-03) (394, -7.62350385211554067849e-03) (395, -7.17741831447317457648e-02) (396, -2.13755707379171752680e-02) (397, -1.65443824089958252399e-01) (398, -3.42391252776330534680e-01) (399, -3.06216362373951611620e-01) (400, -1.71472362290295943232e-01) (401, 8.03928666229136168475e-02) (402, 4.41482894569806549878e-02) (403, 2.44684380062451911630e-01) (404, 1.83566207177544904461e-01) (405, 1.72481120169016288735e-02) (406, -1.28912762485687032443e-01) (407, 8.39351989175557283707e-02) (408, 1.14793380392171802395e-02) (409, -1.26245402215655194711e-01) (410, 1.34347716604817229991e-02) (411, -9.82894670818074273067e-02) (412, 1.14718535989493108929e-01) (413, -1.50995230313463874028e-01) (414, -3.52511920575888926255e-01) (415, -4.50158917066853347944e-01) (416, -1.99783875406129379781e-01) (417, -7.34116168673743241246e-02) (418, -8.32096986154625128940e-02) (419, 3.64532139561302408887e-03) (420, 3.67477999391951151709e-02) (421, -9.43704120960505848936e-02) (422, 5.99020176193612099991e-02) (423, -3.00918268140773041697e-02) (424, -9.84108678047392188004e-02) (425, -1.44048992410547888054e-01) (426, -7.60814225467166815875e-02) (427, -2.97467241112720381935e-01) (428, -1.98601866834528045791e-01) (429, -1.88368423952427782586e-01) (430, 7.84123981898352112596e-02) (431, -4.70141918546909814980e-02) (432, 1.56533636541102916251e-01) (433, -1.14889919476711899193e-01) (434, -1.99209875529089058821e-01) (435, -5.47883901790805205589e-02) (436, -6.61760562953258163477e-02) (437, -9.66350666302480121317e-02) (438, 1.53901968987790543908e-01) (439, 3.93689577249937278092e-02) (440, 8.65018374991472493996e-02) (441, 6.64541113265949556776e-02) (442, -8.95068648343638612053e-02) (443, -2.58454513371946970057e-01) (444, -1.02641258142450550461e-01) (445, -4.17500296450287258776e-02) (446, -7.28081328293410517949e-02) (447, 2.79735275806177220714e-02) (448, 6.12820381549160145274e-02) (449, -7.79456098126443536200e-02) (450, 5.73145577248246260171e-02) (451, 5.64128849315745448806e-03) (452, -6.04594611694047393002e-02) (453, 1.02282381382168031936e-02) (454, -9.67698063527238222514e-02) (455, -1.33915603279068734510e-01) (456, -3.89850329288954466911e-01) (457, -5.02278613262091000458e-01) (458, -4.63481093342510808153e-01) (459, -3.27747730187086194764e-01) (460, -4.88027175468045137929e-02) (461, -5.01812848673878972305e-02) (462, -2.32344902824891008652e-01) (463, -7.78222921347310470086e-02) (464, -1.59024007474189738032e-01) (465, -6.93503476399620760739e-02) (466, 8.35191068138495772144e-03) (467, -6.93500337241836906088e-02) (468, 5.73703835207801868257e-02) (469, 3.04203622909747159464e-02) (470, 3.08853989119506136540e-02) (471, -1.54843053473782521490e-01) (472, -1.90502152953702735827e-01) (473, -2.29776024643500512146e-02) (474, -8.06295252284200542059e-02) (475, -4.81204256682933335237e-03) (476, -6.80725127458572387695e-02) (477, 8.62458287208549972958e-02) (478, 