FANN_FLO_2.1
num_layers=3
learning_rate=0.700000
connection_rate=1.000000
network_type=0
learning_momentum=0.000000
training_algorithm=2
train_error_function=1
train_stop_function=0
cascade_output_change_fraction=0.010000
quickprop_decay=-0.000100
quickprop_mu=1.750000
rprop_increase_factor=1.200000
rprop_decrease_factor=0.500000
rprop_delta_min=0.000000
rprop_delta_max=50.000000
rprop_delta_zero=0.100000
cascade_output_stagnation_epochs=12
cascade_candidate_change_fraction=0.010000
cascade_candidate_stagnation_epochs=12
cascade_max_out_epochs=150
cascade_min_out_epochs=50
cascade_max_cand_epochs=150
cascade_min_cand_epochs=50
cascade_num_candidate_groups=2
bit_fail_limit=3.49999999999999977796e-01
cascade_candidate_limit=1.00000000000000000000e+03
cascade_weight_multiplier=4.00000000000000022204e-01
cascade_activation_functions_count=10
cascade_activation_functions=3 5 7 8 10 11 14 15 16 17 
cascade_activation_steepnesses_count=4
cascade_activation_steepnesses=2.50000000000000000000e-01 5.00000000000000000000e-01 7.50000000000000000000e-01 1.00000000000000000000e+00 
layer_sizes=785 16 11 
scale_included=0
neurons (num_inputs, activation_function, activation_steepness)=(0, 0, 0.00000000000000000000e+00) (0, 0, 0.00000000000000000000e+00) (0, 0, 0.00000000000000000000e+00) (0, 0, 0.00000000000000000000e+00) (0, 0, 0.00000000000000000000e+00) (0, 0, 0.00000000000000000000e+00) (0, 0, 0.00000000000000000000e+00) (0, 0, 0.00000000000000000000e+00) (0, 0, 0.00000000000000000000e+00) (0, 0, 0.00000000000000000000e+00) (0, 0, 0.00000000000000000000e+00) (0, 0, 0.00000000000000000000e+00) (0, 0, 0.00000000000000000000e+00) (0, 0, 0.00000000000000000000e+00) (0, 0, 0.00000000000000000000e+00) (0, 0, 0.00000000000000000000e+00) (0, 0, 0.00000000000000000000e+00) (0, 0, 0.00000000000000000000e+00) (0, 0, 0.00000000000000000000e+00) (0, 0, 0.00000000000000000000e+00) (0, 0, 0.00000000000000000000e+00) (0, 0, 0.00000000000000000000e+00) (0, 0, 0.00000000000000000000e+00) (0, 0, 0.00000000000000000000e+00) (0, 0, 0.00000000000000000000e+00) (0, 0, 0.00000000000000000000e+00) (0, 0, 0.00000000000000000000e+00) (0, 0, 0.00000000000000000000e+00) (0, 0, 0.00000000000000000000e+00) (0, 0, 0.00000000000000000000e+00) (0, 0, 0.00000000000000000000e+00) (0, 0, 0.00000000000000000000e+00) (0, 0, 0.00000000000000000000e+00) (0, 0, 0.00000000000000000000e+00) (0, 0, 0.00000000000000000000e+00) (0, 0, 0.00000000000000000000e+00) (0, 0, 0.00000000000000000000e+00) (0, 0, 0.00000000000000000000e+00) (0, 0, 0.00000000000000000000e+00) (0, 0, 0.00000000000000000000e+00) (0, 0, 0.00000000000000000000e+00) (0, 0, 0.00000000000000000000e+00) (0, 0, 0.00000000000000000000e+00) (0, 0, 0.00000000000000000000e+00) (0, 0, 0.00000000000000000000e+00) (0, 0, 0.00000000000000000000e+00) (0, 0, 0.00000000000000000000e+00) (0, 0, 0.00000000000000000000e+00) (0, 0, 0.00000000000000000000e+00) (0, 0, 0.00000000000000000000e+00) (0, 0, 0.00000000000000000000e+00) (0, 0, 0.00000000000000000000e+00) (0, 0, 0.00000000000000000000e+00) (0, 0, 0.00000000000000000000e+00) (0, 0, 0.00000000000000000000e+00) (0, 0, 0.00000000000000000000e+00) (0, 0, 0.00000000000000000000e+00) (0, 0, 0.00000000000000000000e+00) (0, 0, 0.00000000000000000000e+00) (0, 0, 0.00000000000000000000e+00) (0, 0, 0.00000000000000000000e+00) (0, 0, 0.00000000000000000000e+00) (0, 0, 0.00000000000000000000e+00) (0, 0, 0.00000000000000000000e+00) (0, 0, 0.00000000000000000000e+00) (0, 0, 0.00000000000000000000e+00) (0, 0, 0.00000000000000000000e+00) (0, 0, 0.00000000000000000000e+00) (0, 0, 0.00000000000000000000e+00) (0, 0, 0.00000000000000000000e+00) (0, 0, 0.00000000000000000000e+00) (0, 0, 0.00000000000000000000e+00) (0, 0, 0.00000000000000000000e+00) (0, 0, 0.00000000000000000000e+00) (0, 0, 0.00000000000000000000e+00) (0, 0, 0.00000000000000000000e+00) (0, 0, 0.00000000000000000000e+00) (0, 0, 0.00000000000000000000e+00) (0, 0, 0.00000000000000000000e+00) (0, 0, 0.00000000000000000000e+00) (0, 0, 0.00000000000000000000e+00) (0, 0, 0.00000000000000000000e+00) (0, 0, 0.00000000000000000000e+00) (0, 0, 0.00000000000000000000e+00) (0, 0, 0.00000000000000000000e+00) (0, 0, 0.00000000000000000000e+00) (0, 0, 0.00000000000000000000e+00) (0, 0, 0.00000000000000000000e+00) (0, 0, 0.00000000000000000000e+00) (0, 0, 0.00000000000000000000e+00) (0, 0, 0.00000000000000000000e+00) (0, 0, 0.00000000000000000000e+00) (0, 0, 0.00000000000000000000e+00) (0, 0, 0.00000000000000000000e+00) (0, 0, 0.00000000000000000000e+00) (0, 0, 0.00000000000000000000e+00) (0, 0, 0.00000000000000000000e+00) (0, 0, 0.00000000000000000000e+00) (0, 0, 0.00000000000000000000e+00) (0, 0, 0.00000000000000000000e+00) (0, 0, 0.00000000000000000000e+00) (0, 0, 0.00000000000000000000e+00) (0, 0, 0.00000000000000000000e+00) (0, 0, 0.00000000000000000000e+00) (0, 0, 0.00000000000000000000e+00) (0, 0, 0.00000000000000000000e+00) (0, 0, 0.00000000000000000000e+00) (0, 0, 0.00000000000000000000e+00) (0, 0, 0.00000000000000000000e+00) (0, 0, 0.00000000000000000000e+00) (0, 0, 0.00000000000000000000e+00) (0, 0, 0.00000000000000000000e+00) (0, 0, 0.00000000000000000000e+00) (0, 0, 0.00000000000000000000e+00) (0, 0, 0.00000000000000000000e+00) (0, 0, 0.00000000000000000000e+00) (0, 0, 0.00000000000000000000e+00) (0, 0, 0.00000000000000000000e+00) (0, 0, 0.00000000000000000000e+00) (0, 0, 0.00000000000000000000e+00) (0, 0, 0.00000000000000000000e+00) (0, 0, 0.00000000000000000000e+00) (0, 0, 0.00000000000000000000e+00) (0, 0, 0.00000000000000000000e+00) (0, 0, 0.00000000000000000000e+00) (0, 0, 0.00000000000000000000e+00) (0, 0, 0.00000000000000000000e+00) (0, 0, 0.00000000000000000000e+00) (0, 0, 0.00000000000000000000e+00) (0, 0, 0.00000000000000000000e+00) (0, 0, 0.00000000000000000000e+00) (0, 0, 0.00000000000000000000e+00) (0, 0, 0.00000000000000000000e+00) (0, 0, 0.00000000000000000000e+00) (0, 0, 0.00000000000000000000e+00) (0, 0, 0.00000000000000000000e+00) (0, 0, 0.00000000000000000000e+00) (0, 0, 0.00000000000000000000e+00) (0, 0, 0.00000000000000000000e+00) (0, 0, 0.00000000000000000000e+00) (0, 0, 0.00000000000000000000e+00) (0, 0, 0.00000000000000000000e+00) (0, 0, 0.00000000000000000000e+00) (0, 0, 0.00000000000000000000e+00) (0, 0, 0.00000000000000000000e+00) (0, 0, 0.00000000000000000000e+00) (0, 0, 0.00000000000000000000e+00) (0, 0, 0.00000000000000000000e+00) (0, 0, 0.00000000000000000000e+00) (0, 0, 0.00000000000000000000e+00) (0, 0, 0.00000000000000000000e+00) (0, 0, 0.00000000000000000000e+00) (0, 0, 0.00000000000000000000e+00) (0, 0, 0.00000000000000000000e+00) (0, 0, 0.00000000000000000000e+00) (0, 0, 0.00000000000000000000e+00) (0, 0, 0.00000000000000000000e+00) (0, 0, 0.00000000000000000000e+00) (0, 0, 0.00000000000000000000e+00) (0, 0, 0.00000000000000000000e+00) (0, 0, 0.00000000000000000000e+00) (0, 0, 0.00000000000000000000e+00) (0, 0, 0.00000000000000000000e+00) (0, 0, 0.00000000000000000000e+00) (0, 0, 0.00000000000000000000e+00) (0, 0, 0.00000000000000000000e+00) (0, 0, 0.00000000000000000000e+00) (0, 0, 0.00000000000000000000e+00) (0, 0, 0.00000000000000000000e+00) (0, 0, 0.00000000000000000000e+00) (0, 0, 0.00000000000000000000e+00) (0, 0, 0.00000000000000000000e+00) (0, 0, 0.00000000000000000000e+00) (0, 0, 0.00000000000000000000e+00) (0, 0, 0.00000000000000000000e+00) (0, 0, 0.00000000000000000000e+00) (0, 0, 0.00000000000000000000e+00) (0, 0, 0.00000000000000000000e+00) (0, 0, 0.00000000000000000000e+00) (0, 0, 0.00000000000000000000e+00) (0, 0, 0.00000000000000000000e+00) (0, 0, 0.00000000000000000000e+00) (0, 0, 0.00000000000000000000e+00) (0, 0, 0.00000000000000000000e+00) (0, 0, 0.00000000000000000000e+00) (0, 0, 0.00000000000000000000e+00) (0, 0, 0.00000000000000000000e+00) (0, 0, 0.00000000000000000000e+00) (0, 0, 0.00000000000000000000e+00) (0, 0, 0.00000000000000000000e+00) (0, 0, 0.00000000000000000000e+00) (0, 0, 0.00000000000000000000e+00) (0, 0, 0.00000000000000000000e+00) (0, 0, 0.00000000000000000000e+00) (0, 0, 0.00000000000000000000e+00) (0, 0, 0.00000000000000000000e+00) (0, 0, 0.00000000000000000000e+00) (0, 0, 0.00000000000000000000e+00) (0, 0, 0.00000000000000000000e+00) (0, 0, 0.00000000000000000000e+00) (0, 0, 0.00000000000000000000e+00) (0, 0, 0.00000000000000000000e+00) (0, 0, 0.00000000000000000000e+00) (0, 0, 0.00000000000000000000e+00) (0, 0, 0.00000000000000000000e+00) (0, 0, 0.00000000000000000000e+00) (0, 0, 0.00000000000000000000e+00) (0, 0, 0.00000000000000000000e+00) (0, 0, 0.00000000000000000000e+00) (0, 0, 0.00000000000000000000e+00) (0, 0, 0.00000000000000000000e+00) (0, 0, 0.00000000000000000000e+00) (0, 0, 0.00000000000000000000e+00) (0, 0, 0.00000000000000000000e+00) (0, 0, 0.00000000000000000000e+00) (0, 0, 0.00000000000000000000e+00) (0, 0, 0.00000000000000000000e+00) (0, 0, 0.00000000000000000000e+00) (0, 0, 0.00000000000000000000e+00) (0, 0, 0.00000000000000000000e+00) (0, 0, 0.00000000000000000000e+00) (0, 0, 0.00000000000000000000e+00) (0, 0, 0.00000000000000000000e+00) (0, 0, 0.00000000000000000000e+00) (0, 0, 0.00000000000000000000e+00) (0, 0, 0.00000000000000000000e+00) (0, 0, 0.00000000000000000000e+00) (0, 0, 0.00000000000000000000e+00) (0, 0, 0.00000000000000000000e+00) (0, 0, 0.00000000000000000000e+00) (0, 0, 0.00000000000000000000e+00) (0, 0, 0.00000000000000000000e+00) (0, 0, 0.00000000000000000000e+00) (0, 0, 0.00000000000000000000e+00) (0, 0, 0.00000000000000000000e+00) (0, 0, 0.00000000000000000000e+00) (0, 0, 0.00000000000000000000e+00) (0, 0, 0.00000000000000000000e+00) (0, 0, 0.00000000000000000000e+00) (0, 0, 0.00000000000000000000e+00) (0, 0, 0.00000000000000000000e+00) (0, 0, 0.00000000000000000000e+00) (0, 0, 0.00000000000000000000e+00) (0, 0, 0.00000000000000000000e+00) (0, 0, 0.00000000000000000000e+00) (0, 0, 0.00000000000000000000e+00) (0, 0, 0.00000000000000000000e+00) (0, 0, 0.00000000000000000000e+00) (0, 0, 0.00000000000000000000e+00) (0, 0, 0.00000000000000000000e+00) (0, 0, 0.00000000000000000000e+00) (0, 0, 0.00000000000000000000e+00) (0, 0, 0.00000000000000000000e+00) (0, 0, 0.00000000000000000000e+00) (0, 0, 0.00000000000000000000e+00) (0, 0, 0.00000000000000000000e+00) (0, 0, 0.00000000000000000000e+00) (0, 0, 0.00000000000000000000e+00) (0, 0, 0.00000000000000000000e+00) (0, 0, 0.00000000000000000000e+00) (0, 0, 0.00000000000000000000e+00) (0, 0, 0.00000000000000000000e+00) (0, 0, 0.00000000000000000000e+00) (0, 0, 0.00000000000000000000e+00) (0, 0, 0.00000000000000000000e+00) (0, 0, 0.00000000000000000000e+00) (0, 0, 0.00000000000000000000e+00) (0, 0, 0.00000000000000000000e+00) (0, 0, 0.00000000000000000000e+00) (0, 0, 0.00000000000000000000e+00) (0, 0, 0.00000000000000000000e+00) (0, 0, 0.00000000000000000000e+00) (0, 0, 0.00000000000000000000e+00) (0, 0, 0.00000000000000000000e+00) (0, 0, 0.00000000000000000000e+00) (0, 0, 0.00000000000000000000e+00) (0, 0, 0.00000000000000000000e+00) (0, 0, 0.00000000000000000000e+00) (0, 0, 0.00000000000000000000e+00) (0, 0, 0.00000000000000000000e+00) (0, 0, 0.00000000000000000000e+00) (0, 0, 0.00000000000000000000e+00) (0, 0, 0.00000000000000000000e+00) (0, 0, 0.00000000000000000000e+00) (0, 0, 0.00000000000000000000e+00) (0, 0, 0.00000000000000000000e+00) (0, 0, 0.00000000000000000000e+00) (0, 0, 0.00000000000000000000e+00) (0, 0, 0.00000000000000000000e+00) (0, 0, 0.00000000000000000000e+00) (0, 0, 0.00000000000000000000e+00) (0, 0, 0.00000000000000000000e+00) (0, 0, 0.00000000000000000000e+00) (0, 0, 0.00000000000000000000e+00) (0, 0, 0.00000000000000000000e+00) (0, 0, 0.00000000000000000000e+00) (0, 0, 0.00000000000000000000e+00) (0, 0, 0.00000000000000000000e+00) (0, 0, 0.00000000000000000000e+00) (0, 0, 0.00000000000000000000e+00) (0, 0, 0.00000000000000000000e+00) (0, 0, 0.00000000000000000000e+00) (0, 0, 0.00000000000000000000e+00) (0, 0, 0.00000000000000000000e+00) (0, 0, 0.00000000000000000000e+00) (0, 0, 0.00000000000000000000e+00) (0, 0, 0.00000000000000000000e+00) (0, 0, 0.00000000000000000000e+00) (0, 0, 0.00000000000000000000e+00) (0, 0, 0.00000000000000000000e+00) (0, 0, 0.00000000000000000000e+00) (0, 0, 0.00000000000000000000e+00) (0, 0, 0.00000000000000000000e+00) (0, 0, 0.00000000000000000000e+00) (0, 0, 0.00000000000000000000e+00) (0, 0, 0.00000000000000000000e+00) (0, 0, 0.00000000000000000000e+00) (0, 0, 0.00000000000000000000e+00) (0, 0, 0.00000000000000000000e+00) (0, 0, 0.00000000000000000000e+00) (0, 0, 0.00000000000000000000e+00) (0, 0, 0.00000000000000000000e+00) (0, 0, 0.00000000000000000000e+00) (0, 0, 0.00000000000000000000e+00) (0, 0, 0.00000000000000000000e+00) (0, 0, 0.00000000000000000000e+00) (0, 0, 0.00000000000000000000e+00) (0, 0, 0.00000000000000000000e+00) (0, 0, 0.00000000000000000000e+00) (0, 0, 0.00000000000000000000e+00) (0, 0, 0.00000000000000000000e+00) (0, 0, 0.00000000000000000000e+00) (0, 0, 0.00000000000000000000e+00) (0, 0, 0.00000000000000000000e+00) (0, 0, 0.00000000000000000000e+00) (0, 0, 0.00000000000000000000e+00) (0, 0, 0.00000000000000000000e+00) (0, 0, 0.00000000000000000000e+00) (0, 0, 0.00000000000000000000e+00) (0, 0, 0.00000000000000000000e+00) (0, 0, 0.00000000000000000000e+00) (0, 0, 0.00000000000000000000e+00) (0, 0, 0.00000000000000000000e+00) (0, 0, 0.00000000000000000000e+00) (0, 0, 0.00000000000000000000e+00) (0, 0, 0.00000000000000000000e+00) (0, 0, 0.00000000000000000000e+00) (0, 0, 0.00000000000000000000e+00) (0, 0, 0.00000000000000000000e+00) (0, 0, 0.00000000000000000000e+00) (0, 0, 0.00000000000000000000e+00) (0, 0, 0.00000000000000000000e+00) (0, 0, 0.00000000000000000000e+00) (0, 0, 0.00000000000000000000e+00) (0, 0, 0.00000000000000000000e+00) (0, 0, 0.00000000000000000000e+00) (0, 0, 0.00000000000000000000e+00) (0, 0, 0.00000000000000000000e+00) (0, 0, 0.00000000000000000000e+00) (0, 0, 0.00000000000000000000e+00) (0, 0, 0.00000000000000000000e+00) (0, 0, 0.00000000000000000000e+00) (0, 0, 0.00000000000000000000e+00) (0, 0, 0.00000000000000000000e+00) (0, 0, 0.00000000000000000000e+00) (0, 0, 0.00000000000000000000e+00) (0, 0, 0.00000000000000000000e+00) (0, 0, 0.00000000000000000000e+00) (0, 0, 0.00000000000000000000e+00) (0, 0, 0.00000000000000000000e+00) (0, 0, 0.00000000000000000000e+00) (0, 0, 0.00000000000000000000e+00) (0, 0, 0.00000000000000000000e+00) (0, 0, 0.00000000000000000000e+00) (0, 0, 0.00000000000000000000e+00) (0, 0, 0.00000000000000000000e+00) (0, 0, 0.00000000000000000000e+00) (0, 0, 0.00000000000000000000e+00) (0, 0, 0.00000000000000000000e+00) (0, 0, 0.00000000000000000000e+00) (0, 0, 0.00000000000000000000e+00) (0, 0, 0.00000000000000000000e+00) (0, 0, 0.00000000000000000000e+00) (0, 0, 0.00000000000000000000e+00) (0, 0, 0.00000000000000000000e+00) (0, 0, 0.00000000000000000000e+00) (0, 0, 0.00000000000000000000e+00) (0, 0, 0.00000000000000000000e+00) (0, 0, 0.00000000000000000000e+00) (0, 0, 0.00000000000000000000e+00) (0, 0, 0.00000000000000000000e+00) (0, 0, 0.00000000000000000000e+00) (0, 0, 0.00000000000000000000e+00) (0, 0, 0.00000000000000000000e+00) (0, 0, 0.00000000000000000000e+00) (0, 0, 0.00000000000000000000e+00) (0, 0, 0.00000000000000000000e+00) (0, 0, 0.00000000000000000000e+00) (0, 0, 0.00000000000000000000e+00) (0, 0, 0.00000000000000000000e+00) (0, 0, 0.00000000000000000000e+00) (0, 0, 0.00000000000000000000e+00) (0, 0, 0.00000000000000000000e+00) (0, 0, 0.00000000000000000000e+00) (0, 0, 0.00000000000000000000e+00) (0, 0, 0.00000000000000000000e+00) (0, 0, 0.00000000000000000000e+00) (0, 0, 0.00000000000000000000e+00) (0, 0, 0.00000000000000000000e+00) (0, 0, 0.00000000000000000000e+00) (0, 0, 0.00000000000000000000e+00) (0, 0, 0.00000000000000000000e+00) (0, 0, 0.00000000000000000000e+00) (0, 0, 0.00000000000000000000e+00) (0, 0, 0.00000000000000000000e+00) (0, 0, 0.00000000000000000000e+00) (0, 0, 0.00000000000000000000e+00) (0, 0, 0.00000000000000000000e+00) (0, 0, 0.00000000000000000000e+00) (0, 0, 0.00000000000000000000e+00) (0, 0, 0.00000000000000000000e+00) (0, 0, 0.00000000000000000000e+00) (0, 0, 0.00000000000000000000e+00) (0, 0, 0.00000000000000000000e+00) (0, 0, 0.00000000000000000000e+00) (0, 0, 0.00000000000000000000e+00) (0, 0, 0.00000000000000000000e+00) (0, 0, 0.00000000000000000000e+00) (0, 0, 0.00000000000000000000e+00) (0, 0, 0.00000000000000000000e+00) (0, 0, 0.00000000000000000000e+00) (0, 0, 0.00000000000000000000e+00) (0, 0, 0.00000000000000000000e+00) (0, 0, 0.00000000000000000000e+00) (0, 0, 0.00000000000000000000e+00) (0, 0, 0.00000000000000000000e+00) (0, 0, 0.00000000000000000000e+00) (0, 0, 0.00000000000000000000e+00) (0, 0, 0.00000000000000000000e+00) (0, 0, 0.00000000000000000000e+00) (0, 0, 0.00000000000000000000e+00) (0, 0, 0.00000000000000000000e+00) (0, 0, 0.00000000000000000000e+00) (0, 0, 0.00000000000000000000e+00) (0, 0, 0.00000000000000000000e+00) (0, 0, 0.00000000000000000000e+00) (0, 0, 0.00000000000000000000e+00) (0, 0, 0.00000000000000000000e+00) (0, 0, 0.00000000000000000000e+00) (0, 0, 0.00000000000000000000e+00) (0, 0, 0.00000000000000000000e+00) (0, 0, 0.00000000000000000000e+00) (0, 0, 0.00000000000000000000e+00) (0, 0, 0.00000000000000000000e+00) (0, 0, 0.00000000000000000000e+00) (0, 0, 0.00000000000000000000e+00) (0, 0, 0.00000000000000000000e+00) (0, 0, 0.00000000000000000000e+00) (0, 0, 0.00000000000000000000e+00) (0, 0, 0.00000000000000000000e+00) (0, 0, 0.00000000000000000000e+00) (0, 0, 0.00000000000000000000e+00) (0, 0, 0.00000000000000000000e+00) (0, 0, 0.00000000000000000000e+00) (0, 0, 0.00000000000000000000e+00) (0, 0, 0.00000000000000000000e+00) (0, 0, 0.00000000000000000000e+00) (0, 0, 0.00000000000000000000e+00) (0, 0, 0.00000000000000000000e+00) (0, 0, 0.00000000000000000000e+00) (0, 0, 0.00000000000000000000e+00) (0, 0, 0.00000000000000000000e+00) (0, 0, 0.00000000000000000000e+00) (0, 0, 0.00000000000000000000e+00) (0, 0, 0.00000000000000000000e+00) (0, 0, 0.00000000000000000000e+00) (0, 0, 0.00000000000000000000e+00) (0, 0, 0.00000000000000000000e+00) (0, 0, 0.00000000000000000000e+00) (0, 0, 0.00000000000000000000e+00) (0, 0, 0.00000000000000000000e+00) (0, 0, 0.00000000000000000000e+00) (0, 0, 0.00000000000000000000e+00) (0, 0, 0.00000000000000000000e+00) (0, 0, 0.00000000000000000000e+00) (0, 0, 0.00000000000000000000e+00) (0, 0, 0.00000000000000000000e+00) (0, 0, 0.00000000000000000000e+00) (0, 0, 0.00000000000000000000e+00) (0, 0, 0.00000000000000000000e+00) (0, 0, 0.00000000000000000000e+00) (0, 0, 0.00000000000000000000e+00) (0, 0, 0.00000000000000000000e+00) (0, 0, 0.00000000000000000000e+00) (0, 0, 0.00000000000000000000e+00) (0, 0, 0.00000000000000000000e+00) (0, 0, 0.00000000000000000000e+00) (0, 0, 0.00000000000000000000e+00) (0, 0, 0.00000000000000000000e+00) (0, 0, 0.00000000000000000000e+00) (0, 0, 0.00000000000000000000e+00) (0, 0, 0.00000000000000000000e+00) (0, 0, 0.00000000000000000000e+00) (0, 0, 0.00000000000000000000e+00) (0, 0, 0.00000000000000000000e+00) (0, 0, 0.00000000000000000000e+00) (0, 0, 0.00000000000000000000e+00) (0, 0, 0.00000000000000000000e+00) (0, 0, 0.00000000000000000000e+00) (0, 0, 0.00000000000000000000e+00) (0, 0, 0.00000000000000000000e+00) (0, 0, 0.00000000000000000000e+00) (0, 0, 0.00000000000000000000e+00) (0, 0, 0.00000000000000000000e+00) (0, 0, 0.00000000000000000000e+00) (0, 0, 0.00000000000000000000e+00) (0, 0, 0.00000000000000000000e+00) (0, 0, 0.00000000000000000000e+00) (0, 0, 0.00000000000000000000e+00) (0, 0, 0.00000000000000000000e+00) (0, 0, 0.00000000000000000000e+00) (0, 0, 0.00000000000000000000e+00) (0, 0, 0.00000000000000000000e+00) (0, 0, 0.00000000000000000000e+00) (0, 0, 0.00000000000000000000e+00) (0, 0, 0.00000000000000000000e+00) (0, 0, 0.00000000000000000000e+00) (0, 0, 0.00000000000000000000e+00) (0, 0, 0.00000000000000000000e+00) (0, 0, 0.00000000000000000000e+00) (0, 0, 0.00000000000000000000e+00) (0, 0, 0.00000000000000000000e+00) (0, 0, 0.00000000000000000000e+00) (0, 0, 0.00000000000000000000e+00) (0, 0, 0.00000000000000000000e+00) (0, 0, 0.00000000000000000000e+00) (0, 0, 0.00000000000000000000e+00) (0, 0, 0.00000000000000000000e+00) (0, 0, 0.00000000000000000000e+00) (0, 0, 0.00000000000000000000e+00) (0, 0, 0.00000000000000000000e+00) (0, 0, 0.00000000000000000000e+00) (0, 0, 0.00000000000000000000e+00) (0, 0, 0.00000000000000000000e+00) (0, 0, 0.00000000000000000000e+00) (0, 0, 0.00000000000000000000e+00) (0, 0, 0.00000000000000000000e+00) (0, 0, 0.00000000000000000000e+00) (0, 0, 0.00000000000000000000e+00) (0, 0, 0.00000000000000000000e+00) (0, 0, 0.00000000000000000000e+00) (0, 0, 0.00000000000000000000e+00) (0, 0, 0.00000000000000000000e+00) (0, 0, 0.00000000000000000000e+00) (0, 0, 0.00000000000000000000e+00) (0, 0, 0.00000000000000000000e+00) (0, 0, 0.00000000000000000000e+00) (0, 0, 0.00000000000000000000e+00) (0, 0, 0.00000000000000000000e+00) (0, 0, 0.00000000000000000000e+00) (0, 0, 0.00000000000000000000e+00) (0, 0, 0.00000000000000000000e+00) (0, 0, 0.00000000000000000000e+00) (0, 0, 0.00000000000000000000e+00) (0, 0, 0.00000000000000000000e+00) (0, 0, 0.00000000000000000000e+00) (0, 0, 0.00000000000000000000e+00) (0, 0, 0.00000000000000000000e+00) (0, 0, 0.00000000000000000000e+00) (0, 0, 0.00000000000000000000e+00) (0, 0, 0.00000000000000000000e+00) (0, 0, 0.00000000000000000000e+00) (0, 0, 0.00000000000000000000e+00) (0, 0, 0.00000000000000000000e+00) (0, 0, 0.00000000000000000000e+00) (0, 0, 0.00000000000000000000e+00) (0, 0, 0.00000000000000000000e+00) (0, 0, 0.00000000000000000000e+00) (0, 0, 0.00000000000000000000e+00) (0, 0, 0.00000000000000000000e+00) (0, 0, 0.00000000000000000000e+00) (0, 0, 0.00000000000000000000e+00) (0, 0, 0.00000000000000000000e+00) (0, 0, 0.00000000000000000000e+00) (0, 0, 0.00000000000000000000e+00) (0, 0, 0.00000000000000000000e+00) (0, 0, 0.00000000000000000000e+00) (0, 0, 0.00000000000000000000e+00) (0, 0, 0.00000000000000000000e+00) (0, 0, 0.00000000000000000000e+00) (0, 0, 0.00000000000000000000e+00) (0, 0, 0.00000000000000000000e+00) (0, 0, 0.00000000000000000000e+00) (0, 0, 0.00000000000000000000e+00) (0, 0, 0.00000000000000000000e+00) (0, 0, 0.00000000000000000000e+00) (0, 0, 0.00000000000000000000e+00) (0, 0, 0.00000000000000000000e+00) (0, 0, 0.00000000000000000000e+00) (0, 0, 0.00000000000000000000e+00) (0, 0, 0.00000000000000000000e+00) (0, 0, 0.00000000000000000000e+00) (0, 0, 0.00000000000000000000e+00) (0, 0, 0.00000000000000000000e+00) (0, 0, 0.00000000000000000000e+00) (0, 0, 0.00000000000000000000e+00) (0, 0, 0.00000000000000000000e+00) (0, 0, 0.00000000000000000000e+00) (0, 0, 0.00000000000000000000e+00) (0, 0, 0.00000000000000000000e+00) (0, 0, 0.00000000000000000000e+00) (0, 0, 0.00000000000000000000e+00) (0, 0, 0.00000000000000000000e+00) (0, 0, 0.00000000000000000000e+00) (0, 0, 0.00000000000000000000e+00) (0, 0, 0.00000000000000000000e+00) (0, 0, 0.00000000000000000000e+00) (0, 0, 0.00000000000000000000e+00) (0, 0, 0.00000000000000000000e+00) (0, 0, 0.00000000000000000000e+00) (0, 0, 0.00000000000000000000e+00) (0, 0, 0.00000000000000000000e+00) (0, 0, 0.00000000000000000000e+00) (0, 0, 0.00000000000000000000e+00) (0, 0, 0.00000000000000000000e+00) (0, 0, 0.00000000000000000000e+00) (0, 0, 0.00000000000000000000e+00) (0, 0, 0.00000000000000000000e+00) (0, 0, 0.00000000000000000000e+00) (0, 0, 0.00000000000000000000e+00) (0, 0, 0.00000000000000000000e+00) (0, 0, 0.00000000000000000000e+00) (0, 0, 0.00000000000000000000e+00) (0, 0, 0.00000000000000000000e+00) (0, 0, 0.00000000000000000000e+00) (0, 0, 0.00000000000000000000e+00) (0, 0, 0.00000000000000000000e+00) (0, 0, 0.00000000000000000000e+00) (0, 0, 0.00000000000000000000e+00) (0, 0, 0.00000000000000000000e+00) (0, 0, 0.00000000000000000000e+00) (0, 0, 0.00000000000000000000e+00) (0, 0, 0.00000000000000000000e+00) (0, 0, 0.00000000000000000000e+00) (0, 0, 0.00000000000000000000e+00) (0, 0, 0.00000000000000000000e+00) (0, 0, 0.00000000000000000000e+00) (0, 0, 0.00000000000000000000e+00) (0, 0, 0.00000000000000000000e+00) (0, 0, 0.00000000000000000000e+00) (0, 0, 0.00000000000000000000e+00) (0, 0, 0.00000000000000000000e+00) (0, 0, 0.00000000000000000000e+00) (0, 0, 0.00000000000000000000e+00) (0, 0, 0.00000000000000000000e+00) (0, 0, 0.00000000000000000000e+00) (0, 0, 0.00000000000000000000e+00) (0, 0, 0.00000000000000000000e+00) (0, 0, 0.00000000000000000000e+00) (0, 0, 0.00000000000000000000e+00) (0, 0, 0.00000000000000000000e+00) (0, 0, 0.00000000000000000000e+00) (0, 0, 0.00000000000000000000e+00) (0, 0, 0.00000000000000000000e+00) (0, 0, 0.00000000000000000000e+00) (0, 0, 0.00000000000000000000e+00) (0, 0, 0.00000000000000000000e+00) (0, 0, 0.00000000000000000000e+00) (0, 0, 0.00000000000000000000e+00) (0, 0, 0.00000000000000000000e+00) (0, 0, 0.00000000000000000000e+00) (0, 0, 0.00000000000000000000e+00) (0, 0, 0.00000000000000000000e+00) (0, 0, 0.00000000000000000000e+00) (0, 0, 0.00000000000000000000e+00) (0, 0, 0.00000000000000000000e+00) (0, 0, 0.00000000000000000000e+00) (0, 0, 0.00000000000000000000e+00) (0, 0, 0.00000000000000000000e+00) (0, 0, 0.00000000000000000000e+00) (0, 0, 0.00000000000000000000e+00) (0, 0, 0.00000000000000000000e+00) (0, 0, 0.00000000000000000000e+00) (0, 0, 0.00000000000000000000e+00) (0, 0, 0.00000000000000000000e+00) (0, 0, 0.00000000000000000000e+00) (0, 0, 0.00000000000000000000e+00) (0, 0, 0.00000000000000000000e+00) (0, 0, 0.00000000000000000000e+00) (0, 0, 0.00000000000000000000e+00) (0, 0, 0.00000000000000000000e+00) (0, 0, 0.00000000000000000000e+00) (0, 0, 0.00000000000000000000e+00) (0, 0, 0.00000000000000000000e+00) (0, 0, 0.00000000000000000000e+00) (0, 0, 0.00000000000000000000e+00) (0, 0, 0.00000000000000000000e+00) (0, 0, 0.00000000000000000000e+00) (0, 0, 0.00000000000000000000e+00) (0, 0, 0.00000000000000000000e+00) (0, 0, 0.00000000000000000000e+00) (0, 0, 0.00000000000000000000e+00) (0, 0, 0.00000000000000000000e+00) (0, 0, 0.00000000000000000000e+00) (0, 0, 0.00000000000000000000e+00) (0, 0, 0.00000000000000000000e+00) (0, 0, 0.00000000000000000000e+00) (0, 0, 0.00000000000000000000e+00) (0, 0, 0.00000000000000000000e+00) (0, 0, 0.00000000000000000000e+00) (0, 0, 0.00000000000000000000e+00) (0, 0, 0.00000000000000000000e+00) (0, 0, 0.00000000000000000000e+00) (0, 0, 0.00000000000000000000e+00) (0, 0, 0.00000000000000000000e+00) (0, 0, 0.00000000000000000000e+00) (0, 0, 0.00000000000000000000e+00) (0, 0, 0.00000000000000000000e+00) (0, 0, 0.00000000000000000000e+00) (0, 0, 0.00000000000000000000e+00) (0, 0, 0.00000000000000000000e+00) (0, 0, 0.00000000000000000000e+00) (0, 0, 0.00000000000000000000e+00) (0, 0, 0.00000000000000000000e+00) (0, 0, 0.00000000000000000000e+00) (0, 0, 0.00000000000000000000e+00) (0, 0, 0.00000000000000000000e+00) (0, 0, 0.00000000000000000000e+00) (0, 0, 0.00000000000000000000e+00) (0, 0, 0.00000000000000000000e+00) (0, 0, 0.00000000000000000000e+00) (0, 0, 0.00000000000000000000e+00) (0, 0, 0.00000000000000000000e+00) (0, 0, 0.00000000000000000000e+00) (0, 0, 0.00000000000000000000e+00) (0, 0, 0.00000000000000000000e+00) (0, 0, 0.00000000000000000000e+00) (0, 0, 0.00000000000000000000e+00) (0, 0, 0.00000000000000000000e+00) (0, 0, 0.00000000000000000000e+00) (0, 0, 0.00000000000000000000e+00) (0, 0, 0.00000000000000000000e+00) (0, 0, 0.00000000000000000000e+00) (0, 0, 0.00000000000000000000e+00) (0, 0, 0.00000000000000000000e+00) (0, 0, 0.00000000000000000000e+00) (0, 0, 0.00000000000000000000e+00) (0, 0, 0.00000000000000000000e+00) (0, 0, 0.00000000000000000000e+00) (0, 0, 0.00000000000000000000e+00) (0, 0, 0.00000000000000000000e+00) (0, 0, 0.00000000000000000000e+00) (0, 0, 0.00000000000000000000e+00) (0, 0, 0.00000000000000000000e+00) (0, 0, 0.00000000000000000000e+00) (0, 0, 0.00000000000000000000e+00) (0, 0, 0.00000000000000000000e+00) (0, 0, 0.00000000000000000000e+00) (0, 0, 0.00000000000000000000e+00) (0, 0, 0.00000000000000000000e+00) (0, 0, 0.00000000000000000000e+00) (0, 0, 0.00000000000000000000e+00) (0, 0, 0.00000000000000000000e+00) (0, 0, 0.00000000000000000000e+00) (0, 0, 0.00000000000000000000e+00) (0, 0, 0.00000000000000000000e+00) (0, 0, 0.00000000000000000000e+00) (0, 0, 0.00000000000000000000e+00) (0, 0, 0.00000000000000000000e+00) (0, 0, 0.00000000000000000000e+00) (0, 0, 0.00000000000000000000e+00) (0, 0, 0.00000000000000000000e+00) (0, 0, 0.00000000000000000000e+00) (0, 0, 0.00000000000000000000e+00) (0, 0, 0.00000000000000000000e+00) (0, 0, 0.00000000000000000000e+00) (0, 0, 0.00000000000000000000e+00) (0, 0, 0.00000000000000000000e+00) (0, 0, 0.00000000000000000000e+00) (0, 0, 0.00000000000000000000e+00) (0, 0, 0.00000000000000000000e+00) (0, 0, 0.00000000000000000000e+00) (0, 0, 0.00000000000000000000e+00) (0, 0, 0.00000000000000000000e+00) (0, 0, 0.00000000000000000000e+00) (785, 3, 5.00000000000000000000e-01) (785, 3, 5.00000000000000000000e-01) (785, 3, 5.00000000000000000000e-01) (785, 3, 5.00000000000000000000e-01) (785, 3, 5.00000000000000000000e-01) (785, 3, 5.00000000000000000000e-01) (785, 3, 5.00000000000000000000e-01) (785, 3, 5.00000000000000000000e-01) (785, 3, 5.00000000000000000000e-01) (785, 3, 5.00000000000000000000e-01) (785, 3, 5.00000000000000000000e-01) (785, 3, 5.00000000000000000000e-01) (785, 3, 5.00000000000000000000e-01) (785, 3, 5.00000000000000000000e-01) (785, 3, 5.00000000000000000000e-01) (0, 3, 0.00000000000000000000e+00) (16, 3, 5.00000000000000000000e-01) (16, 3, 5.00000000000000000000e-01) (16, 3, 5.00000000000000000000e-01) (16, 3, 5.00000000000000000000e-01) (16, 3, 5.00000000000000000000e-01) (16, 3, 5.00000000000000000000e-01) (16, 3, 5.00000000000000000000e-01) (16, 3, 5.00000000000000000000e-01) (16, 3, 5.00000000000000000000e-01) (16, 3, 5.00000000000000000000e-01) (0, 3, 0.00000000000000000000e+00) 
connections (connected_to_neuron, weight)=(0, 1.50000000000000000000e+03) (1, 1.50000000000000000000e+03) (2, 1.50000000000000000000e+03) (3, 1.50000000000000000000e+03) (4, 1.50000000000000000000e+03) (5, 1.50000000000000000000e+03) (6, 1.50000000000000000000e+03) (7, 1.50000000000000000000e+03) (8, 1.50000000000000000000e+03) (9, 1.50000000000000000000e+03) (10, 1.50000000000000000000e+03) (11, 1.50000000000000000000e+03) (12, 2.22643086012755645697e+02) (13, -7.38698049326215254951e+02) (14, -7.28343536815762831793e+02) (15, -7.28286255329072787390e+02) (16, 1.50000000000000000000e+03) (17, 1.50000000000000000000e+03) (18, 1.50000000000000000000e+03) (19, 1.50000000000000000000e+03) (20, 1.50000000000000000000e+03) (21, 1.50000000000000000000e+03) (22, 1.50000000000000000000e+03) (23, 1.50000000000000000000e+03) (24, 1.50000000000000000000e+03) (25, 1.50000000000000000000e+03) (26, 1.50000000000000000000e+03) (27, 1.50000000000000000000e+03) (28, 1.50000000000000000000e+03) (29, 1.50000000000000000000e+03) (30, 1.50000000000000000000e+03) (31, 1.50000000000000000000e+03) (32, 6.87201448339453008884e+02) (33, 1.50000000000000000000e+03) (34, -4.30596815165794907898e+02) (35, 5.29733468305658107056e+02) (36, 1.36733857582611381076e+03) (37, 1.50000000000000000000e+03) (38, 1.50000000000000000000e+03) (39, 1.50000000000000000000e+03) (40, 1.50000000000000000000e+03) (41, 1.50000000000000000000e+03) (42, 1.50000000000000000000e+03) (43, 1.50000000000000000000e+03) (44, 1.50000000000000000000e+03) (45, 1.50000000000000000000e+03) (46, 1.50000000000000000000e+03) (47, 1.42500000000000000000e+03) (48, 9.25000000000000113687e+02) (49, 1.50000000000000000000e+03) (50, 1.50000000000000000000e+03) (51, 1.50000000000000000000e+03) (52, 1.50000000000000000000e+03) (53, 1.50000000000000000000e+03) (54, 1.50000000000000000000e+03) (55, 1.50000000000000000000e+03) (56, 1.50000000000000000000e+03) (57, 1.50000000000000000000e+03) (58, 8.18227036379803962518e+02) (59, 1.50000000000000000000e+03) (60, 7.05715193500571103868e+02) (61, 1.50000000000000000000e+03) (62, 1.06181555321371774880e+03) (63, 1.50000000000000000000e+03) (64, 1.50000000000000000000e+03) (65, 1.50000000000000000000e+03) (66, 1.50000000000000000000e+03) (67, 1.50000000000000000000e+03) (68, 1.50000000000000000000e+03) (69, 1.50000000000000000000e+03) (70, 1.50000000000000000000e+03) (71, 1.50000000000000000000e+03) (72, 1.50000000000000000000e+03) (73, 1.50000000000000000000e+03) (74, 1.50000000000000000000e+03) (75, 1.50000000000000000000e+03) (76, 1.50000000000000000000e+03) (77, 1.50000000000000000000e+03) (78, 1.50000000000000000000e+03) (79, 1.50000000000000000000e+03) (80, -9.90126906759409052938e+02) (81, -8.13500685559245539480e+02) (82, 1.50000000000000000000e+03) (83, 1.50000000000000000000e+03) (84, 1.50000000000000000000e+03) (85, 1.50000000000000000000e+03) (86, 3.66596087105197170786e+02) (87, 1.50000000000000000000e+03) (88, 1.50000000000000000000e+03) (89, -1.15822779367718430876e+03) (90, -9.93217414918398844748e+02) (91, 8.95892521097410963193e+01) (92, -5.23908427863943870761e-01) (93, 6.40167345365632968424e+02) (94, 9.20938905835135983580e+02) (95, 6.09001743076510024366e+02) (96, 6.97577817165480382755e+02) (97, 1.50000000000000000000e+03) (98, 1.50000000000000000000e+03) (99, 1.21942702317141447566e+03) (100, 1.00362703237437176540e+03) (101, 1.21819933396818760230e+03) (102, 1.33407965663786535515e+03) (103, 1.50000000000000000000e+03) (104, 1.50000000000000000000e+03) (105, 1.50000000000000000000e+03) (106, 1.50000000000000000000e+03) (107, 1.50000000000000000000e+03) (108, 9.13670379719681250208e+02) (109, -1.16579999079704271026e+03) (110, -6.95700486167410758753e+02) (111, 1.50000000000000000000e+03) (112, 1.50000000000000000000e+03) (113, -1.50000000000000000000e+03) (114, -1.15000000000000000000e+03) (115, -1.50000000000000000000e+03) (116, -1.50000000000000000000e+03) (117, -1.50000000000000000000e+03) (118, -1.50000000000000000000e+03) (119, -1.50000000000000000000e+03) (120, -1.50000000000000000000e+03) (121, -1.31033599413967135661e+03) (122, -8.76599980401992525003e+02) (123, -8.76599980401992525003e+02) (124, -8.76599980401992525003e+02) (125, -3.49140341533550895292e+02) (126, -4.00784033514402494802e+02) (127, -9.31599981594085420511e+02) (128, 8.98060216364212919871e+01) (129, 7.54441803314856088036e+02) (130, 1.50000000000000000000e+03) (131, 1.50000000000000000000e+03) (132, 1.50000000000000000000e+03) (133, 1.50000000000000000000e+03) (134, 1.50000000000000000000e+03) (135, 1.50000000000000000000e+03) (136, 1.16661735204629303553e+03) (137, -1.16579999079704271026e+03) (138, -5.92000092029572897445e+01) (139, -5.74850613722454824028e+01) (140, 1.50000000000000000000e+03) (141, 1.50000000000000000000e+03) (142, 8.65114211275492550612e+01) (143, -1.50000000000000000000e+03) (144, -1.50000000000000000000e+03) (145, -1.50000000000000000000e+03) (146, -1.50000000000000000000e+03) (147, -1.26583998783111564990e+03) (148, -1.07496156954860521182e+03) (149, -1.14078398332500387369e+03) (150, -1.14078398332500387369e+03) (151, -1.16583998783111564990e+03) (152, -1.27033599831199649088e+03) (153, -1.16583998783111564990e+03) (154, -1.11583998783111564990e+03) (155, -1.42230175139418383878e+03) (156, -1.47500000000000000000e+03) (157, -8.76398371841702441998e+02) (158, 8.22726749268400681103e+00) (159, 5.60606211597939704916e+02) (160, 1.50000000000000000000e+03) (161, 1.50000000000000000000e+03) (162, 1.50000000000000000000e+03) (163, 1.31823290376997965723e+03) (164, 6.42046627514067154152e+02) (165, 6.15634668775258774076e+02) (166, 2.10191043944427633505e+02) (167, -6.09509313979226362790e+02) (168, 1.50000000000000000000e+03) (169, -1.50000000000000000000e+03) (170, -1.48749525835559552434e+02) (171, -1.50000000000000000000e+03) (172, -1.50000000000000000000e+03) (173, -1.50000000000000000000e+03) (174, -1.50000000000000000000e+03) (175, -1.50000000000000000000e+03) (176, -1.50000000000000000000e+03) (177, -1.50000000000000000000e+03) (178, -1.50000000000000000000e+03) (179, -1.50000000000000000000e+03) (180, -1.32064076342869270775e+03) (181, -2.29060745699542489540e-01) (182, -7.94306023955833162553e-01) (183, -3.22805615538140733278e+00) (184, 7.95737960161583712804e-01) (185, 1.06587320449045752646e+00) (186, 4.81373325627289094797e+00) (187, 8.77802987801488825426e+02) (188, 1.50000000000000000000e+03) (189, 1.50000000000000000000e+03) (190, 1.50000000000000000000e+03) (191, 1.50000000000000000000e+03) (192, 1.50000000000000000000e+03) (193, 1.50000000000000000000e+03) (194, 5.75371788124562272060e+02) (195, 1.19869656978245257051e+03) (196, 1.50000000000000000000e+03) (197, -2.59200009202957289745e+02) (198, 1.50000000000000000000e+03) (199, -1.36274837712479211405e+02) (200, -1.50000000000000000000e+03) (201, -1.50000000000000000000e+03) (202, -1.50000000000000000000e+03) (203, -1.50000000000000000000e+03) (204, -6.31709753744044064661e+02) (205, 6.25207909081518797834e-01) (206, 9.07509566719003402113e+00) (207, 9.80079763134297763827e+02) (208, 1.26809598651981355033e+03) (209, 1.41938753027015468433e+03) (210, 1.50000000000000000000e+03) (211, 1.50000000000000000000e+03) (212, 1.49675999948501566905e+03) (213, 1.16579999079704271026e+03) (214, 1.16579999079704271026e+03) (215, 1.49222399845504764926e+03) (216, 1.50000000000000000000e+03) (217, 1.50000000000000000000e+03) (218, 1.50000000000000000000e+03) (219, 1.50000000000000000000e+03) (220, 1.50000000000000000000e+03) (221, 1.50000000000000000000e+03) (222, 6.29118226751316569789e+02) (223, 1.28093124069814894028e+03) (224, 1.50000000000000000000e+03) (225, 1.50000000000000000000e+03) (226, 1.50000000000000000000e+03) (227, 1.50000000000000000000e+03) (228, 3.11583580435754811333e+02) (229, 5.97838216184605357739e+02) (230, 8.23299631513162125884e+02) (231, 1.46745228743308985031e+03) (232, 1.14079999079704271026e+03) (233, 1.31779998817443834014e+03) (234, 1.50000000000000000000e+03) (235, 1.50000000000000000000e+03) (236, 1.50000000000000000000e+03) (237, 1.50000000000000000000e+03) (238, 1.50000000000000000000e+03) (239, 1.50000000000000000000e+03) (240, 1.50000000000000000000e+03) (241, 1.50000000000000000000e+03) (242, 1.31779998817443834014e+03) (243, 1.49222399845504764926e+03) (244, 1.50000000000000000000e+03) (245, 1.50000000000000000000e+03) (246, 1.50000000000000000000e+03) (247, 1.50000000000000000000e+03) (248, 1.50000000000000000000e+03) (249, 1.50000000000000000000e+03) (250, 1.26137642010236868373e+03) (251, -1.49634478535265515120e+02) (252, 1.50000000000000000000e+03) (253, 1.50000000000000000000e+03) (254, 1.50000000000000000000e+03) (255, 1.50000000000000000000e+03) (256, 1.50000000000000000000e+03) (257, 1.50000000000000000000e+03) (258, 1.50000000000000000000e+03) (259, 1.50000000000000000000e+03) (260, 1.50000000000000000000e+03) (261, 1.50000000000000000000e+03) (262, 1.50000000000000000000e+03) (263, 1.50000000000000000000e+03) (264, 1.50000000000000000000e+03) (265, 1.50000000000000000000e+03) (266, 1.50000000000000000000e+03) (267, 1.50000000000000000000e+03) (268, 1.50000000000000000000e+03) (269, 1.49675999948501566905e+03) (270, 1.35466453263602147672e+03) (271, 1.49222399845504764926e+03) (272, 1.50000000000000000000e+03) (273, 1.50000000000000000000e+03) (274, 1.50000000000000000000e+03) (275, 1.50000000000000000000e+03) (276, 1.50000000000000000000e+03) (277, 1.50000000000000000000e+03) (278, 9.00432333404291512124e+02) (279, 1.50000000000000000000e+03) (280, 1.50000000000000000000e+03) (281, 1.50000000000000000000e+03) (282, 1.50000000000000000000e+03) (283, 1.50000000000000000000e+03) (284, 1.50000000000000000000e+03) (285, 1.50000000000000000000e+03) (286, 1.50000000000000000000e+03) (287, 1.50000000000000000000e+03) (288, 1.50000000000000000000e+03) (289, 1.50000000000000000000e+03) (290, 1.50000000000000000000e+03) (291, 1.50000000000000000000e+03) (292, 1.50000000000000000000e+03) (293, 1.50000000000000000000e+03) (294, 1.50000000000000000000e+03) (295, 1.50000000000000000000e+03) (296, 2.11601964706804395178e+01) (297, -2.36097145834860550062e-01) (298, 1.45861420079982107012e+00) (299, 1.20786412766256921714e+03) (300, 1.50000000000000000000e+03) (301, 1.50000000000000000000e+03) (302, 1.50000000000000000000e+03) (303, 1.50000000000000000000e+03) (304, 1.50000000000000000000e+03) (305, 1.50000000000000000000e+03) (306, 6.67386963673117065809e+02) (307, 8.90799990797042710255e+02) (308, 1.50000000000000000000e+03) (309, 1.50000000000000000000e+03) (310, 1.50000000000000000000e+03) (311, 1.50000000000000000000e+03) (312, 1.50000000000000000000e+03) (313, 1.50000000000000000000e+03) (314, 1.50000000000000000000e+03) (315, 1.50000000000000000000e+03) (316, 1.50000000000000000000e+03) (317, 1.50000000000000000000e+03) (318, 1.50000000000000000000e+03) (319, 1.48341600132083931385e+03) (320, 1.43009920079422022354e+03) (321, 3.91552186479075459147e+01) (322, 1.14663447559437486234e+03) (323, -7.65717719359404327406e+01) (324, -1.50000000000000000000e+03) (325, -1.50000000000000000000e+03) (326, 2.52153562705925593512e-01) (327, 1.36698172032907632456e+03) (328, 1.50000000000000000000e+03) (329, 1.50000000000000000000e+03) (330, 1.50000000000000000000e+03) (331, 1.50000000000000000000e+03) (332, 1.50000000000000000000e+03) (333, 1.50000000000000000000e+03) (334, 9.40799990797042710255e+02) (335, 1.23304912028160083537e+03) (336, 1.50000000000000000000e+03) (337, 1.50000000000000000000e+03) (338, 1.50000000000000000000e+03) (339, 1.50000000000000000000e+03) (340, 1.50000000000000000000e+03) (341, 1.50000000000000000000e+03) (342, 1.50000000000000000000e+03) (343, 1.50000000000000000000e+03) (344, 1.50000000000000000000e+03) (345, 1.50000000000000000000e+03) (346, 1.09079999079704271026e+03) (347, -4.98627468659032388132e+02) (348, -1.50000000000000000000e+03) (349, -1.41794513390870724834e+03) (350, -1.14888724410663166964e+03) (351, -1.42379065123695431794e+03) (352, -1.50000000000000000000e+03) (353, -1.44445127248808177001e+02) (354, -1.02500688670003523839e+03) (355, 1.49675999948501566905e+03) (356, 1.50000000000000000000e+03) (357, 1.50000000000000000000e+03) (358, 1.50000000000000000000e+03) (359, 1.50000000000000000000e+03) (360, 1.50000000000000000000e+03) (361, 1.50000000000000000000e+03) (362, 1.50000000000000000000e+03) (363, 8.58658659447844456736e+02) (364, 9.84200009202957289745e+02) (365, 1.50000000000000000000e+03) (366, 1.50000000000000000000e+03) (367, 1.50000000000000000000e+03) (368, 1.50000000000000000000e+03) (369, 1.50000000000000000000e+03) (370, 1.50000000000000000000e+03) (371, 1.50000000000000000000e+03) (372, 1.50000000000000000000e+03) (373, 1.50000000000000000000e+03) (374, 1.22951762438888636098e+03) (375, -3.30070381735658713751e+02) (376, -1.50000000000000000000e+03) (377, -1.47500000000000000000e+03) (378, -1.41794513390870724834e+03) (379, -1.50000000000000000000e+03) (380, -1.50000000000000000000e+03) (381, 3.77531063164138069865e+00) (382, 9.36583551768304005236e+02) (383, 1.50000000000000000000e+03) (384, 1.50000000000000000000e+03) (385, 1.50000000000000000000e+03) (386, 1.50000000000000000000e+03) (387, 1.50000000000000000000e+03) (388, 1.50000000000000000000e+03) (389, 1.50000000000000000000e+03) (390, 1.26600000405311584473e+03) (391, 4.89551213521938507256e+02) (392, 1.45314284093327000846e+03) (393, -5.13773113409583288558e+02) (394, 1.50000000000000000000e+03) (395, 1.50000000000000000000e+03) (396, 1.50000000000000000000e+03) (397, 1.50000000000000000000e+03) (398, 1.50000000000000000000e+03) (399, 1.50000000000000000000e+03) (400, 1.50000000000000000000e+03) (401, 1.25659998159408542051e+03) (402, -1.03427712179392619873e+03) (403, -1.50000000000000000000e+03) (404, -1.50000000000000000000e+03) (405, -1.50000000000000000000e+03) (406, -1.47500000000000000000e+03) (407, -1.50000000000000000000e+03) (408, -1.50000000000000000000e+03) (409, -1.27131802583349463021e+03) (410, 1.49401417693909820628e+03) (411, 1.50000000000000000000e+03) (412, 1.50000000000000000000e+03) (413, 1.50000000000000000000e+03) (414, 1.50000000000000000000e+03) (415, 1.50000000000000000000e+03) (416, 1.50000000000000000000e+03) (417, 1.50000000000000000000e+03) (418, 1.50000000000000000000e+03) (419, 1.30156392645590221946e+03) (420, 1.50000000000000000000e+03) (421, -1.50000000000000000000e+03) (422, -7.62141155913329839677e+01) (423, 1.50000000000000000000e+03) (424, 1.50000000000000000000e+03) (425, 1.50000000000000000000e+03) (426, 1.50000000000000000000e+03) (427, 1.50000000000000000000e+03) (428, 1.50000000000000000000e+03) (429, 1.20786412766256921714e+03) (430, -5.66133278604169618120e+02) (431, -1.50000000000000000000e+03) (432, -1.50000000000000000000e+03) (433, -1.50000000000000000000e+03) (434, -1.47500000000000000000e+03) (435, -1.50000000000000000000e+03) (436, -1.40861054767509926933e+02) (437, 3.44038213967312344721e+02) (438, 1.49132834045958543356e+03) (439, 1.50000000000000000000e+03) (440, 1.50000000000000000000e+03) (441, 1.50000000000000000000e+03) (442, 1.50000000000000000000e+03) (443, 1.50000000000000000000e+03) (444, 1.50000000000000000000e+03) (445, 1.50000000000000000000e+03) (446, 8.23011368288634798773e+02) (447, -1.18506833298001743060e+03) (448, 1.50000000000000000000e+03) (449, -5.04417302644355004304e+02) (450, -1.50000000000000000000e+03) (451, 4.61954990564203285430e+02) (452, 1.50000000000000000000e+03) (453, 1.50000000000000000000e+03) (454, 1.50000000000000000000e+03) (455, 1.50000000000000000000e+03) (456, 1.50000000000000000000e+03) (457, 1.46552165642911177201e+03) (458, 7.36558338074090435121e-01) (459, -1.50000000000000000000e+03) (460, -1.50000000000000000000e+03) (461, -1.47500000000000000000e+03) (462, -1.47500000000000000000e+03) (463, -1.50000000000000000000e+03) (464, 3.19276303765200131224e+00) (465, 1.10204107663762329139e+03) (466, 1.50000000000000000000e+03) (467, 1.50000000000000000000e+03) (468, 1.50000000000000000000e+03) (469, 1.50000000000000000000e+03) (470, 1.50000000000000000000e+03) (471, 1.50000000000000000000e+03) (472, 1.50000000000000000000e+03) (473, 1.50000000000000000000e+03) (474, 4.49166524553028011724e+02) (475, -5.22061394538456283954e+02) (476, 1.50000000000000000000e+03) (477, -3.85791948845533738677e+02) (478, -1.50000000000000000000e+03) (479, -1.50000000000000000000e+03) (480, 1.50000000000000000000e+03) (481, 1.50000000000000000000e+03) (482, 1.50000000000000000000e+03) (483, 1.50000000000000000000e+03) (484, 1.50000000000000000000e+03) (485, 1.50000000000000000000e+03) (486, -2.27535201437345619979e+01) (487, -1.50000000000000000000e+03) (488, -1.47500000000000000000e+03) (489, -6.96843719139701306631e+02) (490, -3.93102303049952528369e+00) (491, 7.84154721199142534793e-01) (492, 6.03547642456800303989e+02) (493, 1.49759653495864858996e+03) (494, 1.50000000000000000000e+03) (495, 1.50000000000000000000e+03) (496, 1.50000000000000000000e+03) (497, 1.50000000000000000000e+03) (498, 1.50000000000000000000e+03) (499, 1.50000000000000000000e+03) (500, 1.50000000000000000000e+03) (501, 1.50000000000000000000e+03) (502, 1.48887983796649950818e+03) (503, 3.23875656577709492012e+02) (504, 2.73815333968187360369e+02) (505, -1.50000000000000000000e+03) (506, -1.50000000000000000000e+03) (507, -1.50000000000000000000e+03) (508, 1.50000000000000000000e+03) (509, 1.50000000000000000000e+03) (510, 1.50000000000000000000e+03) (511, 1.50000000000000000000e+03) (512, 1.50000000000000000000e+03) (513, 1.50000000000000000000e+03) (514, 1.68041149979287638416e+01) (515, -9.62197665544324998166e+00) (516, 1.38362725454276329629e+02) (517, 6.69180186248345965083e-01) (518, 7.17521438307260552847e+01) (519, 1.50000000000000000000e+03) (520, 1.46354302309448235064e+03) (521, 1.50000000000000000000e+03) (522, 1.50000000000000000000e+03) (523, 1.50000000000000000000e+03) (524, 1.50000000000000000000e+03) (525, 1.50000000000000000000e+03) (526, 1.50000000000000000000e+03) (527, 1.50000000000000000000e+03) (528, 1.50000000000000000000e+03) (529, 1.50000000000000000000e+03) (530, 1.50000000000000000000e+03) (531, -1.41778398118147009654e+02) (532, 1.50000000000000000000e+03) (533, 1.38983587874415206898e+02) (534, -1.50000000000000000000e+03) (535, -1.50000000000000000000e+03) (536, 1.50000000000000000000e+03) (537, 1.50000000000000000000e+03) (538, 1.50000000000000000000e+03) (539, 1.50000000000000000000e+03) (540, 1.50000000000000000000e+03) (541, 1.50000000000000000000e+03) (542, 8.73424424346618252457e+02) (543, 3.17279255746379931225e+01) (544, 1.50000000000000000000e+03) (545, 1.50000000000000000000e+03) (546, 1.50000000000000000000e+03) (547, 1.50000000000000000000e+03) (548, 1.50000000000000000000e+03) (549, 1.48551656836579536503e+03) (550, 1.50000000000000000000e+03) (551, 1.50000000000000000000e+03) (552, 1.50000000000000000000e+03) (553, 1.50000000000000000000e+03) (554, 1.50000000000000000000e+03) (555, 1.50000000000000000000e+03) (556, 1.50000000000000000000e+03) (557, 1.50000000000000000000e+03) (558, 1.50000000000000000000e+03) (559, 4.11444532985243654366e+02) (560, 1.50000000000000000000e+03) (561, -1.27200832223680231436e+03) (562, -1.50000000000000000000e+03) (563, -1.50000000000000000000e+03) (564, -6.49667943378633822249e+02) (565, 1.50000000000000000000e+03) (566, 1.50000000000000000000e+03) (567, 1.50000000000000000000e+03) (568, 1.50000000000000000000e+03) (569, 1.50000000000000000000e+03) (570, 1.50000000000000000000e+03) (571, 1.50000000000000000000e+03) (572, 1.50000000000000000000e+03) (573, 1.50000000000000000000e+03) (574, 1.50000000000000000000e+03) (575, 1.50000000000000000000e+03) (576, 1.50000000000000000000e+03) (577, 1.50000000000000000000e+03) (578, 1.50000000000000000000e+03) (579, 1.50000000000000000000e+03) (580, 1.50000000000000000000e+03) (581, 1.50000000000000000000e+03) (582, 1.50000000000000000000e+03) (583, 1.50000000000000000000e+03) (584, 1.50000000000000000000e+03) (585, 1.50000000000000000000e+03) (586, 1.50000000000000000000e+03) (587, 1.50000000000000000000e+03) (588, 1.01124315439699751096e+03) (589, -1.50000000000000000000e+03) (590, -1.50000000000000000000e+03) (591, -1.50000000000000000000e+03) (592, -1.50000000000000000000e+03) (593, 1.68509669116190309524e+02) (594, 1.50000000000000000000e+03) (595, 1.50000000000000000000e+03) (596, 1.50000000000000000000e+03) (597, 1.50000000000000000000e+03) (598, 1.50000000000000000000e+03) (599, 1.50000000000000000000e+03) (600, 1.50000000000000000000e+03) (601, 1.50000000000000000000e+03) (602, 1.50000000000000000000e+03) (603, 1.50000000000000000000e+03) (604, 1.14529318595956425497e+02) (605, 4.34889548227392239710e+01) (606, 1.38086217202023391337e+01) (607, 7.67094088349854700937e+02) (608, 1.49740428619225963303e+03) (609, 1.50000000000000000000e+03) (610, 1.50000000000000000000e+03) (611, 1.50000000000000000000e+03) (612, 1.50000000000000000000e+03) (613, 1.50000000000000000000e+03) (614, 1.50000000000000000000e+03) (615, 1.50000000000000000000e+03) (616, 1.01134015147178035932e+03) (617, -1.50000000000000000000e+03) (618, -1.50000000000000000000e+03) (619, -1.50000000000000000000e+03) (620, -1.50000000000000000000e+03) (621, -1.43002879607868135281e+03) (622, 8.03890194193993501415e+00) (623, 3.51420679792451622347e+01) (624, 1.22476709802754815115e+01) (625, 2.05861451658633889394e+01) (626, 2.91375917707210962959e+00) (627, 2.70470653253627624224e+00) (628, 1.74982689313385471053e+01) (629, 4.44417758784170402464e+01) (630, 8.89705588808323710737e+00) (631, 2.62829399709894602211e+01) (632, 2.89724163543794732689e+00) (633, 1.09751855038292678302e+01) (634, 9.26535403534557766569e-01) (635, -8.89914990955082174651e+00) (636, 1.48014014318091335554e+03) (637, 1.50000000000000000000e+03) (638, 1.50000000000000000000e+03) (639, 1.50000000000000000000e+03) (640, 1.50000000000000000000e+03) (641, 1.50000000000000000000e+03) (642, 1.50000000000000000000e+03) (643, 1.50000000000000000000e+03) (644, 1.50000000000000000000e+03) (645, 1.50000000000000000000e+03) (646, -1.50000000000000000000e+03) (647, -1.50000000000000000000e+03) (648, -1.50000000000000000000e+03) (649, -1.36049694270099507776e+03) (650, -4.46188214307910698153e+02) (651, 6.91642983614683820592e-02) (652, 3.02122267995694526732e-01) (653, 4.20239136466606655329e-01) (654, 4.33921519047523129853e-01) (655, 8.95288383972566048641e-01) (656, 1.08554170694617058146e+00) (657, 1.84729053858857872328e+00) (658, 6.09944926341582949192e+00) (659, 2.40352399817831212658e+01) (660, 1.27558869712902156479e+00) (661, -3.81894135126692759741e+01) (662, -5.74578459503255842833e+01) (663, -6.48100645844897655934e+01) (664, 1.20786412766256921714e+03) (665, 1.50000000000000000000e+03) (666, 1.50000000000000000000e+03) (667, 1.50000000000000000000e+03) (668, 1.50000000000000000000e+03) (669, 1.50000000000000000000e+03) (670, 1.07914640859965379605e+03) (671, 1.50000000000000000000e+03) (672, 1.50000000000000000000e+03) (673, 1.50000000000000000000e+03) (674, -1.50000000000000000000e+03) (675, -1.50000000000000000000e+03) (676, -8.81976004653969425817e+02) (677, 5.99481536816600169004e+02) (678, 1.50000000000000000000e+03) (679, 1.43273173477178488611e+03) (680, 1.13360778413878938409e+03) (681, 5.80522811893570974462e+02) (682, 1.17730595893370514204e+03) (683, 5.97054951035150679672e+02) (684, 2.39199503519914351557e+01) (685, 6.68489781368764024450e-02) (686, -2.72624051563325586756e-01) (687, -3.74338408425226134568e+01) (688, 1.37431651922318593506e+02) (689, 7.64425821562983401236e+02) (690, -2.05243094448732961155e+02) (691, -1.22629253340881604117e+02) (692, 8.98608783991269547187e+02) (693, 1.50000000000000000000e+03) (694, 1.50000000000000000000e+03) (695, 1.50000000000000000000e+03) (696, 1.50000000000000000000e+03) (697, 1.41082322265800030436e+02) (698, -2.15799990797042710255e+02) (699, 1.50000000000000000000e+03) (700, 1.50000000000000000000e+03) (701, 1.50000000000000000000e+03) (702, -1.50000000000000000000e+03) (703, 1.50000000000000000000e+03) (704, 1.50000000000000000000e+03) (705, 1.50000000000000000000e+03) (706, 1.50000000000000000000e+03) (707, 1.50000000000000000000e+03) (708, 1.50000000000000000000e+03) (709, 1.50000000000000000000e+03) (710, 1.50000000000000000000e+03) (711, 1.50000000000000000000e+03) (712, 1.50000000000000000000e+03) (713, 1.50000000000000000000e+03) (714, 1.50000000000000000000e+03) (715, 1.50000000000000000000e+03) (716, 1.48442003534870559633e+03) (717, 1.49080526646369025912e+03) (718, 1.15777423068522352878e+03) (719, 1.38919986133524571414e+03) (720, 1.31824304880313729882e+03) (721, 1.50000000000000000000e+03) (722, 1.50000000000000000000e+03) (723, 5.32061396922642188656e+02) (724, 1.50000000000000000000e+03) (725, 1.50000000000000000000e+03) (726, -1.46846603437161661532e+03) (727, 1.50000000000000000000e+03) (728, 1.50000000000000000000e+03) (729, 1.50000000000000000000e+03) (730, 1.50000000000000000000e+03) (731, -6.95268205180257837128e+02) (732, 1.90799990797042710255e+02) (733, 1.31533310956341279052e+03) (734, 1.50000000000000000000e+03) (735, 1.50000000000000000000e+03) (736, 1.50000000000000000000e+03) (737, 1.50000000000000000000e+03) (738, 1.50000000000000000000e+03) (739, 1.50000000000000000000e+03) (740, 1.50000000000000000000e+03) (741, 1.50000000000000000000e+03) (742, 1.50000000000000000000e+03) (743, 1.50000000000000000000e+03) (744, 1.50000000000000000000e+03) (745, 1.50000000000000000000e+03) (746, 1.50000000000000000000e+03) (747, 1.50000000000000000000e+03) (748, 1.50000000000000000000e+03) (749, 1.50000000000000000000e+03) (750, 1.50000000000000000000e+03) (751, 1.50000000000000000000e+03) (752, 1.18773859244388881962e+03) (753, 1.50000000000000000000e+03) (754, 1.50000000000000000000e+03) (755, 1.50000000000000000000e+03) (756, 1.50000000000000000000e+03) (757, 1.50000000000000000000e+03) (758, 1.50000000000000000000e+03) (759, 1.50000000000000000000e+03) (760, 1.50000000000000000000e+03) (761, 1.50000000000000000000e+03) (762, 1.50000000000000000000e+03) (763, 1.50000000000000000000e+03) (764, 1.50000000000000000000e+03) (765, 1.50000000000000000000e+03) (766, 1.50000000000000000000e+03) (767, 1.50000000000000000000e+03) (768, 1.50000000000000000000e+03) (769, 1.50000000000000000000e+03) (770, 1.50000000000000000000e+03) (771, 1.50000000000000000000e+03) (772, 1.50000000000000000000e+03) (773, 1.50000000000000000000e+03) (774, 1.50000000000000000000e+03) (775, 1.50000000000000000000e+03) (776, 1.50000000000000000000e+03) (777, 1.46999999880790710449e+03) (778, 1.50000000000000000000e+03) (779, 1.50000000000000000000e+03) (780, 1.50000000000000000000e+03) (781, 1.50000000000000000000e+03) (782, 1.50000000000000000000e+03) (783, 1.50000000000000000000e+03) (784, 1.50000000000000000000e+03) (0, 1.50000000000000000000e+03) (1, 1.50000000000000000000e+03) (2, 1.50000000000000000000e+03) (3, 1.50000000000000000000e+03) (4, 1.50000000000000000000e+03) (5, 1.50000000000000000000e+03) (6, 1.50000000000000000000e+03) (7, 1.50000000000000000000e+03) (8, 1.50000000000000000000e+03) (9, 1.50000000000000000000e+03) (10, 1.50000000000000000000e+03) (11, 1.50000000000000000000e+03) (12, -1.40770857393868323015e+03) (13, 1.50000000000000000000e+03) (14, 1.50000000000000000000e+03) (15, 1.50000000000000000000e+03) (16, 1.50000000000000000000e+03) (17, 1.50000000000000000000e+03) (18, 1.50000000000000000000e+03) (19, 1.50000000000000000000e+03) (20, 1.50000000000000000000e+03) (21, 1.50000000000000000000e+03) (22, 1.50000000000000000000e+03) (23, 1.50000000000000000000e+03) (24, 1.50000000000000000000e+03) (25, 1.50000000000000000000e+03) (26, 1.50000000000000000000e+03) (27, 1.50000000000000000000e+03) (28, 1.50000000000000000000e+03) (29, 1.50000000000000000000e+03) (30, 1.50000000000000000000e+03) (31, 1.50000000000000000000e+03) (32, -1.50000000000000000000e+03) (33, -1.50000000000000000000e+03) (34, -1.50000000000000000000e+03) (35, -1.50000000000000000000e+03) (36, -1.50000000000000000000e+03) (37, -1.50000000000000000000e+03) (38, -1.50000000000000000000e+03) (39, -1.50000000000000000000e+03) (40, -1.50000000000000000000e+03) (41, -1.50000000000000000000e+03) (42, -3.28788934734477948041e+02) (43, 7.13873960377300988966e+01) (44, 5.34515471349682229629e+02) (45, -1.50000000000000000000e+03) (46, -1.50000000000000000000e+03) (47, -1.50000000000000000000e+03) (48, -1.50000000000000000000e+03) (49, -1.50000000000000000000e+03) (50, -1.50000000000000000000e+03) (51, -1.50000000000000000000e+03) (52, 1.50000000000000000000e+03) (53, 1.50000000000000000000e+03) (54, 1.50000000000000000000e+03) (55, 1.50000000000000000000e+03) (56, 1.50000000000000000000e+03) (57, 1.50000000000000000000e+03) (58, -1.50000000000000000000e+03) (59, 1.34463311633205830731e+03) (60, -1.50000000000000000000e+03) (61, -1.50000000000000000000e+03) (62, -1.50000000000000000000e+03) (63, -1.50000000000000000000e+03) (64, -1.50000000000000000000e+03) (65, -1.50000000000000000000e+03) (66, -1.50000000000000000000e+03) (67, -1.50000000000000000000e+03) (68, -1.50000000000000000000e+03) (69, -1.50000000000000000000e+03) (70, -1.50000000000000000000e+03) (71, -1.50000000000000000000e+03) (72, -1.50000000000000000000e+03) (73, -1.50000000000000000000e+03) (74, -1.50000000000000000000e+03) (75, -1.50000000000000000000e+03) (76, -1.50000000000000000000e+03) (77, -1.50000000000000000000e+03) (78, -1.50000000000000000000e+03) (79, -1.50000000000000000000e+03) (80, 1.18918730508393206691e+01) (81, 2.73989771673601637758e+02) (82, 1.50000000000000000000e+03) (83, 1.50000000000000000000e+03) (84, 1.50000000000000000000e+03) (85, 1.50000000000000000000e+03) (86, 2.83704565773144963714e+02) (87, -1.02210682812130812636e+03) (88, -1.50000000000000000000e+03) (89, -1.50000000000000000000e+03) (90, -1.50000000000000000000e+03) (91, -1.50000000000000000000e+03) (92, -1.50000000000000000000e+03) (93, -1.11548798328685711567e+03) (94, 9.08694955490063591697e+01) (95, -3.52210535107736802729e+02) (96, 1.02481588927279947399e+01) (97, -1.10459768691336766011e+01) (98, -1.27377468994890392651e+01) (99, -4.84091136420842627075e+00) (100, -4.20290668532474853691e+00) (101, -4.96935574752323550030e+00) (102, -7.23663060231113686172e+00) (103, -3.56598404638691945934e+00) (104, -4.13028221922113658593e+00) (105, -2.89827341975888863601e+00) (106, -5.51979827516638765772e-02) (107, -3.20157760547291725395e-01) (108, -8.33089752560707097473e+00) (109, -3.53959805015024064900e+00) (110, -1.36579999079704271026e+03) (111, 1.50000000000000000000e+03) (112, 1.50000000000000000000e+03) (113, -1.50000000000000000000e+03) (114, 9.78794813911264327544e+00) (115, 2.50801165653432995839e+01) (116, 1.18610729916514801019e+00) (117, -6.62429992764808250882e+00) (118, -2.53778165168275782193e+00) (119, 2.66976562308934961543e-01) (120, -9.38669433523215412940e-01) (121, -4.76435977920151632059e-01) (122, -5.45524888879380873141e-03) (123, 1.57278498375411301957e-01) (124, -5.33931772177629104803e-01) (125, 9.39512297330341722423e-02) (126, -4.32776493718247806664e-02) (127, -4.18791242528374421661e-02) (128, -1.69342171699142257646e-01) (129, 4.71608616290898133294e-02) (130, -7.55424992376501736047e-01) (131, -4.22314705313705351930e-01) (132, -1.45938737474512525427e-01) (133, -2.47653228583399442897e-01) (134, -1.15569243010808841987e+00) (135, -5.74904681821326257740e-01) (136, 1.28842627907808915388e+00) (137, -8.84740838758292191812e+00) (138, 9.18544620969394998156e+00) (139, -3.73625093504562357793e+01) (140, 1.50000000000000000000e+03) (141, 1.50000000000000000000e+03) (142, -2.59415751307739439468e+00) (143, -9.15616442553690212947e+00) (144, -1.89382245325002362968e+00) (145, 2.30192186973093582125e+00) (146, -2.16228145514469644040e-01) (147, -9.61986732286176371431e-01) (148, -1.12994621545306817012e+00) (149, -1.93348115450243523972e-01) (150, -1.99983776394494702777e-02) (151, -2.32115443549668482026e-01) (152, -2.76564252492104700742e-02) (153, -1.63367163023565381552e-01) (154, -3.94275664880140847002e-02) (155, 7.80963696625620613229e-03) (156, 4.50096855691982117992e-03) (157, 1.59384246699392530255e-02) (158, 2.67720056469315376146e-02) (159, -5.20008944403009681912e-02) (160, -3.05315121849745518823e-01) (161, 2.32673020670548708067e-01) (162, 1.30002850450971124685e-01) (163, -1.92430718494939791141e-02) (164, -5.60864753047966679844e-01) (165, -5.65801163994029465698e-01) (166, 1.80904992651044449481e+00) (167, -6.84603310482385207791e+00) (168, 1.50000000000000000000e+03) (169, -1.50000000000000000000e+03) (170, 2.89996882031705149885e-01) (171, 3.44062885652042371731e+00) (172, -2.01436351379667222261e+00) (173, -6.92300261171274744498e-02) (174, 8.22989689289617687429e-02) (175, -2.71057273095358271242e-02) (176, 5.52864883682594523973e-02) (177, 4.91057377603490302631e-02) (178, -1.98796644400234118200e-01) (179, -3.00558455735581986357e-01) (180, -2.13204667054562452266e-01) (181, -1.09467790241250209626e-01) (182, -1.01830318361770991165e-01) (183, -1.37104885459106123902e-01) (184, -1.00736804731052786988e-01) (185, -4.77346637832201450835e-02) (186, 3.48560979352005237408e-02) (187, 3.15103635209977167575e-02) (188, 2.01978541310986026147e-01) (189, 5.51304835647866281478e-02) (190, 1.18594106320998815551e-01) (191, 2.18669744779552921443e-01) (192, -6.70880788808189909567e-01) (193, -8.70499134699312282493e-01) (194, -2.04928159223033956593e+00) (195, 3.49686583860877808760e+00) (196, 9.75194618801610886294e+02) (197, -1.47800711974958498551e+00) (198, -1.35585819898476955814e+00) (199, 4.90744059035553348291e-01) (200, -3.37762079293271288982e-01) (201, 1.57859849335613788845e+00) (202, 2.76124114298751666130e-01) (203, -4.11362885403553091290e-01) (204, -1.67744643508136483112e-02) (205, -1.57020603610721787291e-01) (206, 2.04582716396711411511e-01) (207, -1.12142828143678138786e-01) (208, -1.93929980060079415471e-01) (209, -1.42467864452830217381e-01) (210, -3.81231237792130583930e-01) (211, -3.48648763850228138317e-01) (212, -1.86855075468397829885e-01) (213, -1.82118963455679017116e-01) (214, -1.72966447230940185975e-02) (215, 1.20726898916739891487e-02) (216, 2.63220268508879862157e-01) (217, 1.66742300489463229907e-01) (218, 9.25413755100343710103e-02) (219, -2.11824860227586647676e-01) (220, -7.62307948135018453861e-01) (221, -2.03035214548864262341e+00) (222, 1.82096588536137216074e+00) (223, -8.41392252589705691435e+00) (224, -2.72092440308721165820e+02) (225, -1.16678997933366908057e+01) (226, 1.27908662415122122979e+01) (227, -2.08529012776165023624e+00) (228, -1.33911654023352699738e+00) (229, -3.25405120970927684565e-04) (230, 1.53158820809534690355e-01) (231, 2.94416983470264514988e-01) (232, -6.14160242346606863317e-02) (233, 1.32938997262054187098e-01) (234, 6.95329532471248472694e-04) (235, 1.24051214388039413028e-01) (236, 5.90183438318567440972e-02) (237, -2.71462479087057062532e-02) (238, -2.21492176023856124356e-01) (239, -1.55548173034456282959e-01) (240, -1.74699083019031503605e-01) (241, -1.02561080584897143519e-01) (242, -4.92756858436526959388e-02) (243, -1.43568732701887996628e-01) (244, -2.41072709470112805930e-01) (245, 2.59093031378413829469e-01) (246, -5.04044840560858076195e-01) (247, -3.71657735622482221505e-01) (248, -6.14989860592584092203e-01) (249, -1.22925764630650213860e+00) (250, -2.98720780809213104501e-01) (251, 3.58633815157248525551e+00) (252, 1.64866179074707218888e+02) (253, -4.33531553809956982093e+00) (254, -5.25912716512452416140e+00) (255, 5.07648961656407049503e+00) (256, -1.75446475341523855374e-01) (257, -3.03818294900512952950e+00) (258, 8.90573739980516476678e-01) (259, 3.11254273595216901516e-01) (260, 4.94096186205242371425e-01) (261, 7.59781423581902704001e-01) (262, 8.70215395802476643361e-02) (263, 3.15052974424431642131e-01) (264, 2.58763899824025589425e-01) (265, 1.21178548279259376552e-01) (266, -1.50348101231411124257e-01) (267, -1.98213176680217151304e-01) (268, 1.07114842149084399381e-01) (269, 7.92569311098289229489e-03) (270, 5.58675589186764867677e-02) (271, -5.01429621757330745702e-01) (272, 1.89062345755656530111e-01) (273, 2.31540683759042409395e-01) (274, 1.99914539098749705071e-01) (275, -1.12879015414013558760e-01) (276, -3.55063107236600528083e+00) (277, -1.85491210690416463702e-01) (278, -7.55586987725246128633e-01) (279, -7.50804881668767798431e+00) (280, -2.02444083566310354172e+02) (281, 4.27703632368176922540e+00) (282, 1.22822009299694219209e+01) (283, -9.26545179831223641997e+00) (284, 6.51412801932585106002e-01) (285, 2.86789133213041980142e+00) (286, -6.92150244239139955660e-01) (287, 6.47248440141234504530e-01) (288, 8.82989535267145464470e-02) (289, 5.94731317047449969948e-01) (290, 3.26099366667843226786e-01) (291, 5.79182396577376357172e-01) (292, 1.94561793047202169493e-01) (293, 5.43951488316372355758e-02) (294, -1.07393730893089567324e+00) (295, 2.61422428415865881757e-01) (296, 7.13809712395409995400e-02) (297, -3.63560839194660284646e-02) (298, 4.24775310137340988970e-01) (299, 3.95528025140045647046e-01) (300, -7.50172699477384685718e-02) (301, 1.50327983082324923014e-01) (302, 3.21750157360762567560e-01) (303, -1.75288843434495189566e-01) (304, -1.08943476966902297320e+00) (305, -6.46304313292159005044e+00) (306, -2.09759998150562143593e+00) (307, 1.20732647403266106778e+01) (308, 6.25294826270957287306e+02) (309, 1.49122470916715688105e+00) (310, -1.43603776936827340904e+01) (311, 4.92936544690430267224e+00) (312, 2.45903491245226746287e+00) (313, 4.54550799963387597291e-01) (314, 9.17227437518349508760e-02) (315, 6.05461662087936836052e-01) (316, 4.06782046146127618247e-01) (317, 7.06517174648654489033e-01) (318, 5.41921514644128632376e-01) (319, 5.33610462772269200649e-01) (320, 1.81392707935404240427e-01) (321, 5.61025688271266503859e-02) (322, 8.39465265340712751829e-01) (323, 7.93524655600778783260e-01) (324, 2.10500815530374585371e-01) (325, 5.32084199337991003986e-01) (326, 3.86977557181644393758e-01) (327, 4.38661211891008817609e-01) (328, 8.39224618300928759673e-01) (329, 9.71965696298304537848e-01) (330, 1.88162467867842964075e+00) (331, 5.21295002618594405241e-01) (332, 4.58135913868240685076e+00) (333, -2.85086084912740478359e+00) (334, -5.80335021856005361940e+00) (335, -4.24342262497064979243e+01) (336, -2.89218125032746115721e+02) (337, 9.40376727685917188637e+01) (338, 4.33810597581638859310e+01) (339, -2.09264480244583950252e+00) (340, -2.39478974846400483045e+00) (341, -7.12389443796779375795e-01) (342, 9.81363553125685628142e-02) (343, 4.56197879900355623972e-02) (344, 5.47556907973869022577e-01) (345, 5.83518581954749690488e-02) (346, -1.24600906550957860053e-01) (347, -3.02238732090118478180e-01) (348, 9.69513817658355508966e-02) (349, -1.82239655859677329719e-01) (350, 3.58390691721460041830e-01) (351, 5.38841440347770816999e-01) (352, 3.24161757041141584956e-01) (353, 4.64178488954225476615e-01) (354, 4.72012899989620038355e-01) (355, 8.91252539835148738234e-01) (356, 4.48077311784346177248e-01) (357, 2.54155422256324203811e-01) (358, 1.04876295032861621692e+00) (359, 1.76697491705243980853e+00) (360, 8.06415146110444069905e-01) (361, 6.49764191494822718198e+00) (362, -9.66015923279025662262e-02) (363, 4.99742750463465412736e+01) (364, -1.34763951835184592198e+01) (365, -5.38418354315209342076e+01) (366, -2.97019548948822453838e+01) (367, 1.94792673809381011729e+00) (368, 1.00850868498994250544e+00) (369, -1.12422647473951017871e-01) (370, -3.49084617389900375706e-02) (371, -8.86604397823545220536e-02) (372, 2.53941798572224868014e-02) (373, 2.17016466618789566345e-01) (374, -3.81720404336413021706e-01) (375, -1.83419167952826811518e-01) (376, -1.44848390837883034266e-01) (377, 4.62224309952011663816e-02) (378, 3.68424972585189192120e-01) (379, 5.03264678897448303196e-01) (380, 3.70301130465016170579e-01) (381, 2.26070103924972370946e-01) (382, 4.79763916137517731908e-01) (383, 3.41980265652406911769e-01) (384, 1.31951457319701814797e+00) (385, -1.79235292947208077648e-04) (386, -7.06016988703882075740e-01) (387, -1.94161244673431809815e+00) (388, -1.11086316586344291402e+00) (389, -3.35612425721734597417e+00) (390, 2.54943785192260641281e+00) (391, -9.71790895920951491860e+00) (392, -1.21199999678134918213e+03) (393, 1.48817284980685400342e+01) (394, 6.84448762196024290461e+02) (395, 8.22193560116135979676e-01) (396, 8.51446847150083785394e-01) (397, -3.41908119752650896395e-01) (398, 8.48080150156475809364e-02) (399, -1.18465565384030774299e-01) (400, -4.66465719119391886149e-01) (401, -2.31006828204537661975e-01) (402, -7.65236742137458181290e-01) (403, 1.24351553277786269769e-01) (404, -3.44964174011786681162e-02) (405, 1.11958969260987917238e-01) (406, 8.42713132526370700681e-01) (407, 6.37197729130504542105e-01) (408, 6.38907448066134420195e-01) (409, 9.34424292297250991268e-01) (410, 4.89250677105940279255e-01) (411, 2.28674225200360875521e-01) (412, 3.15868032186189962723e-03) (413, -2.32671097215939287617e-01) (414, -3.96629366622439472057e-01) (415, -5.58538101778796591823e-01) (416, -3.36139866919521290711e+00) (417, -6.76481137788137676381e-01) (418, 1.29859840441479494899e+01) (419, 2.29124046939000471923e+01) (420, -1.00603683293368214891e+03) (421, -1.50000000000000000000e+03) (422, -7.18355046674751385183e+00) (423, -1.00730436416917229492e-01) (424, 1.77314055211643983867e+00) (425, 1.60690736458990596214e-01) (426, 2.60727604138865198813e-01) (427, 1.17940731511818178157e-01) (428, -8.29850091899609676460e-01) (429, -1.14906306391903759168e-01) (430, -1.90576311334089421035e-01) (431, -3.52028215135441746586e-02) (432, -9.28797325446797106263e-02) (433, 5.63779371009934471282e-01) (434, 2.65120208601182127950e-01) (435, 2.22529030719195553001e-01) (436, 8.13493673748180823324e-01) (437, 5.76785838144863394206e-01) (438, 1.21623490370146414286e-01) (439, 8.53841073517203341670e-02) (440, -2.17159602303574034154e-01) (441, -2.86759388847231178055e-01) (442, -3.49660540153103327476e-01) (443, -3.91890128154646855130e-01) (444, -2.67311467445463479820e+00) (445, 1.57118620966031491415e-01) (446, -6.45209866414764521281e-01) (447, -1.13572730367767320558e+01) (448, 1.50000000000000000000e+03) (449, -6.18063693362480321980e+01) (450, -1.30341036091413222664e+01) (451, -2.12433584770178063295e+00) (452, 1.52298931347676447245e+00) (453, -1.21434563807406567526e-01) (454, 1.21700538086313841957e-01) (455, 4.82269612863356553212e-02) (456, 4.28844838501602043657e-01) (457, -8.61233609733131899588e-02) (458, -9.94059149727622021198e-02) (459, 5.23366973023743131677e-01) (460, 6.31131371470295743364e-01) (461, 4.85362095888646261077e-01) (462, 5.79578871463617417703e-01) (463, 9.91570053081410107687e-01) (464, 3.57223672418967075348e-01) (465, -1.05334875041001238549e-02) (466, -4.99869978248843604973e-02) (467, -1.05070486387954641766e-02) (468, -5.47707024054109647970e-01) (469, -4.52512275864260959946e-01) (470, -2.91663318232931567664e-01) (471, 9.59467554140085776559e-01) (472, -4.09006543554678914099e-01) (473, -2.39656154048988545568e+00) (474, 8.67150109541019453729e+00) (475, 8.01235692782665154255e+00) (476, 1.50000000000000000000e+03) (477, 6.56351275884002092198e+01) (478, 2.14187626028855149229e+00) (479, -1.47030214516559598614e+00) (480, -7.11060513917880276935e-01) (481, 4.03677787603274051964e-01) (482, -4.35947328555696678176e-01) (483, 7.90975009136330453607e-02) (484, 1.29608503620829784708e+00) (485, 1.71061711389398074523e+00) (486, 7.52667937676555709459e-01) (487, 1.50751573493004276116e+00) (488, 1.44814486452139612460e+00) (489, 1.00928403104607844476e+00) (490, 6.83927917028830267832e-01) (491, 3.37752915019491728454e-01) (492, 7.52927831925739310392e-01) (493, -3.62845374808354770302e-01) (494, -1.43594254558217976347e-01) (495, -8.91034310219964265087e-01) (496, -8.78763208709827159382e-01) (497, -9.15626185795357705466e-01) (498, -9.29541820073249702716e-01) (499, -2.85527350372664807943e-02) (500, -2.61061673586126019586e+00) (501, 1.17487457854292554060e+00) (502, 5.33279040272885840324e+00) (503, -1.74859295712525835143e+01) (504, 1.16411543607187919491e+01) (505, -1.63035559040325892965e+02) (506, -1.23163134585514075781e+01) (507, 2.88836761059637758819e+00) (508, -3.92039325503677094087e-01) (509, 1.54922352351267278436e-01) (510, -1.20977458416948246978e+00) (511, -4.34858823093659183079e-02) (512, 1.56222701158755444828e-01) (513, 9.54418285335967730987e-01) (514, 4.99317274360044305315e-01) (515, 5.39717137271020441780e-01) (516, 6.35859283853861367852e-01) (517, 7.91126018003835085324e-01) (518, 7.36673237370016220638e-01) (519, 4.98606209158251933999e-01) (520, -1.13975325208054223403e+00) (521, -5.05032072899618711403e-01) (522, -1.03776905575030520268e+00) (523, -9.61809357312242707572e-01) (524, -5.85919887141976292178e-01) (525, -6.00845857389580517705e-01) (526, -1.50536233272994368626e+00) (527, -6.78446406641319693653e-02) (528, -6.08703501231272148253e-01) (529, 4.29881836689284119180e-02) (530, -3.45890647980286161101e+01) (531, 2.81760590568971345249e+01) (532, -5.33044583253282326041e+02) (533, 1.08176974665204255643e+02) (534, -1.04113895394059738919e+01) (535, -2.75047492813514793397e+00) (536, -2.37418189770148169160e+00) (537, -1.59133524387724190063e+00) (538, -1.22627137674015873614e+00) (539, -1.84957132433679026506e-02) (540, -1.28319245145039229072e-01) (541, -1.24002111586444446756e-01) (542, -1.35987682672803950057e-01) (543, -3.45634023595344397339e-01) (544, -5.65005487881217849377e-01) (545, -3.82662966321409947490e-01) (546, -1.41606536476163641369e-01) (547, -9.74404523445619341615e-01) (548, -6.90304352114457064893e-01) (549, -4.43218372028422014086e-01) (550, -9.88173248626744493706e-01) (551, -2.26023154169331413899e-01) (552, -3.93701856440767827827e-01) (553, -3.47487336723433126728e-01) (554, 1.15436639777366616133e-02) (555, -5.41635152300020905614e-01) (556, 1.69262004390137854593e+00) (557, 1.43597371582994903783e-01) (558, 1.02371785501957901943e+02) (559, -4.99163356728606721902e+00) (560, 1.50000000000000000000e+03) (561, -1.50000000000000000000e+03) (562, -2.20321869570338236599e+02) (563, -6.75955521990767405072e+00) (564, -1.31151598800550583945e+00) (565, -9.73695469022042070506e-01) (566, -1.56044629872266138459e-01) (567, -6.08829766648155690234e-02) (568, -2.09117125836120881788e-01) (569, -1.02837619247654776800e+00) (570, -4.65693014755293677176e-01) (571, -1.02599391907604076124e+00) (572, -7.54003341884058375655e-01) (573, -6.24081029790422792125e-01) (574, -6.70616751502787766803e-01) (575, -3.82204977868838391419e-01) (576, -3.21297100313202910193e-01) (577, -3.80330159446174820292e-01) (578, -2.06296189502986171416e-01) (579, -1.91663669523649993209e-01) (580, -1.49525331972013508786e-01) (581, 1.05969998601960962992e-01) (582, 8.97095674846487778353e-01) (583, -4.10711014193477275125e-01) (584, 3.95044781371749129106e-02) (585, -3.88266270009668046370e+00) (586, -4.67387883471602094687e+00) (587, -1.59080500325087115243e+01) (588, 9.24024475949491375104e+01) (589, 2.60542489789039599657e+01) (590, -4.36218771742810702108e+02) (591, -6.00389546608090718394e+00) (592, -1.70709830941942419802e-01) (593, -4.09021513091341992752e-01) (594, -2.68241955975044743532e-01) (595, -1.44812709766879210704e-01) (596, -1.43934366731690133179e-01) (597, -2.79913608774161160042e-01) (598, -2.33952522801372853056e-01) (599, -5.63963426500447950751e-01) (600, -2.36749176688805046398e-01) (601, -3.35608045182444192367e-01) (602, -4.35093985757860901575e-01) (603, -2.11539325221314494785e-01) (604, -2.79996977670289359796e-01) (605, -4.33573016956484841300e-02) (606, -1.97908952677292054867e-01) (607, -1.67344963200966506678e-01) (608, 2.30051837392850094810e-01) (609, 3.67784121580864487022e-01) (610, -4.01428625327238108866e-01) (611, 1.26314535437629138492e+00) (612, -4.11166115488116190591e+00) (613, 1.82860386760822919427e+01) (614, 3.93028902138019908818e+00) (615, -1.50000000000000000000e+03) (616, 9.22641419234360569135e+01) (617, -6.93514170827225029825e+02) (618, -1.12173439567984996756e+03) (619, -6.48118546409177120893e+00) (620, 2.38435752360119851412e-01) (621, -3.98395168097269214424e-01) (622, 4.59905042550757883757e-02) (623, -1.46881087454931502645e-01) (624, -1.89729113692477774356e-01) (625, -5.39619936988351311946e-01) (626, -2.69263401141597913391e-01) (627, -1.31273525318061162759e-01) (628, -7.37487393045347799925e-02) (629, -8.62305216195206752916e-02) (630, -2.65759486103794406731e-01) (631, -2.56066704554044510811e-01) (632, -1.17121989336237242174e-01) (633, -1.77793592942940115176e-01) (634, -1.80694260511714444029e-01) (635, 2.09607870100870452568e-01) (636, -5.68934647470186072304e-01) (637, 5.72636248089815613760e-01) (638, -2.22317528697023841788e-01) (639, -4.04644464832591044257e+00) (640, 4.88099043474857374747e+00) (641, -1.04591842120108307057e+01) (642, 2.22188519748934112386e+01) (643, -1.50000000000000000000e+03) (644, 1.50000000000000000000e+03) (645, 1.50000000000000000000e+03) (646, -1.50000000000000000000e+03) (647, -3.12421484696511768675e+01) (648, -2.64658509560084986845e+00) (649, -1.22387545957012555675e+00) (650, -5.44396498337538448098e-01) (651, -6.09115803903749641890e-01) (652, -3.14978510012888179848e-01) (653, -6.40854580323108380391e-01) (654, -3.93394144694228620196e-01) (655, -2.73246314637240916845e-01) (656, -2.51140171727643468635e-01) (657, -3.85605690478111745589e-02) (658, -2.97977577187195467878e-02) (659, -9.17931669669037053616e-02) (660, -3.29492455681629700659e-02) (661, -4.17986178995890855781e-01) (662, -2.16088348117657452763e-01) (663, -2.88365971727296624416e-02) (664, -1.10444872889042366992e+00) (665, 8.34788015524495108366e-01) (666, 1.20721839664179797502e+00) (667, -6.97396225893206156421e-01) (668, 1.22050496260753571498e+00) (669, -4.82084851209009901396e+00) (670, -7.60752997357696347791e+00) (671, 1.50000000000000000000e+03) (672, 1.50000000000000000000e+03) (673, 1.50000000000000000000e+03) (674, 6.94752985028520271271e+01) (675, -2.25263705913090497290e+01) (676, -1.02766894781005158066e+00) (677, -1.25326704175434944233e+00) (678, -1.06894435058429215779e+00) (679, -1.11903797362668755433e+00) (680, -7.97744018059791226705e-01) (681, -6.85990409498772546470e-01) (682, -4.42203428908222562210e-01) (683, -5.16780073281631668891e-01) (684, -3.23666195466963957372e-01) (685, -7.60787350264101713826e-01) (686, -4.62198606867104844209e-01) (687, -1.14495213857911837252e-01) (688, -5.35536518535897898552e-01) (689, 2.54475362386712804230e-02) (690, 5.31172835923639230504e-02) (691, 8.11692057553135337677e-01) (692, 5.19545321499454426650e-01) (693, 4.83451237769267017086e-01) (694, 6.96905185588085007709e-01) (695, 7.45441496214479748517e-01) (696, -2.20461850477669285553e+00) (697, 2.81027020572427677081e-01) (698, 2.74878948072222826227e+01) (699, 1.50000000000000000000e+03) (700, 1.50000000000000000000e+03) (701, 1.50000000000000000000e+03) (702, -7.85076898129034788099e+01) (703, 1.62938145204620568052e+01) (704, -2.15360540844562242668e+00) (705, -3.04856121398398682842e-01) (706, -4.68034184547672538201e-01) (707, 2.28624797251187727998e-01) (708, 7.65934071657917936449e-01) (709, -4.55460969131085302575e-01) (710, -7.08772635023339647731e-01) (711, 4.98065477103105044843e-02) (712, -1.57549373529577341202e+00) (713, 3.94207565573299945072e-01) (714, -9.81970899172755151696e-01) (715, -4.16922298813181546606e-01) (716, -2.98519337564963627152e-01) (717, -1.14288171361157653294e+00) (718, -2.42336938546784230741e-01) (719, -1.88530413584848621777e-01) (720, 5.74786202121250244801e+00) (721, 1.98333226676090412788e+00) (722, -8.63473155129535707708e-01) (723, -4.06324080556476641135e+00) (724, 1.30630422146198621469e+00) (725, -4.41050732950087990503e+02) (726, 5.81334699405242417924e+02) (727, 1.50000000000000000000e+03) (728, 1.50000000000000000000e+03) (729, 1.50000000000000000000e+03) (730, 1.50000000000000000000e+03) (731, -4.84229371431448143426e+01) (732, 1.51101944733894777428e+00) (733, 1.68752537001104840897e+00) (734, 3.54007174016075776279e+00) (735, 3.95506896842013899729e+00) (736, -1.08833517158985015882e+00) (737, 2.92993597584834519765e+00) (738, -3.21989691905766928226e-01) (739, 1.17204998976735486060e+00) (740, 1.53420176059055712869e+00) (741, 1.16524414269167886360e+00) (742, 8.25096290554478750678e-01) (743, 3.22249493601800951481e+00) (744, 3.50344978226262115939e+00) (745, 1.02032710734931986174e+00) (746, 1.71020277871306869422e+00) (747, 1.54037363909602476042e+00) (748, -5.54561010988084568396e+00) (749, -4.00596154843291785141e+00) (750, -7.46474426754037256870e+00) (751, 1.38931252556949084465e+03) (752, -1.49372160104084059640e+03) (753, -4.70215140715754600365e+01) (754, 1.50000000000000000000e+03) (755, 1.50000000000000000000e+03) (756, 1.50000000000000000000e+03) (757, 1.50000000000000000000e+03) (758, 1.50000000000000000000e+03) (759, 1.50000000000000000000e+03) (760, -3.49169082069249384404e+02) (761, 1.66876715188759447983e+02) (762, -5.77133039451742106962e+01) (763, 1.85780023355898258330e+01) (764, 8.43401631732073042258e+02) (765, 4.00997859124953436094e+02) (766, 1.47314085313737770377e+01) (767, 2.98813146711886012952e+00) (768, 2.59489609184257368213e+01) (769, 1.00129432123906303786e+03) (770, 5.14923262856495966844e+02) (771, 1.44456269674343253939e+01) (772, 3.82148941316347645625e+00) (773, 9.88795319235165948157e+01) (774, -1.78959894841968640833e+01) (775, 4.70448972652443941911e+01) (776, -1.01628602783263595200e+01) (777, -1.61261402171818413187e+00) (778, 6.28034303522575925172e+01) (779, 1.50000000000000000000e+03) (780, 1.50000000000000000000e+03) (781, 1.50000000000000000000e+03) (782, 1.50000000000000000000e+03) (783, 1.50000000000000000000e+03) (784, -2.64988044421707258369e-01) (0, 1.50000000000000000000e+03) (1, 1.50000000000000000000e+03) (2, 1.50000000000000000000e+03) (3, 1.50000000000000000000e+03) (4, 1.50000000000000000000e+03) (5, 1.50000000000000000000e+03) (6, 1.50000000000000000000e+03) (7, 1.50000000000000000000e+03) (8, 1.50000000000000000000e+03) (9, 1.50000000000000000000e+03) (10, 1.50000000000000000000e+03) (11, 1.50000000000000000000e+03) (12, -1.50000000000000000000e+03) (13, -1.50000000000000000000e+03) (14, -1.50000000000000000000e+03) (15, -1.50000000000000000000e+03) (16, 1.50000000000000000000e+03) (17, 1.50000000000000000000e+03) (18, 1.50000000000000000000e+03) (19, 1.50000000000000000000e+03) (20, 1.50000000000000000000e+03) (21, 1.50000000000000000000e+03) (22, 1.50000000000000000000e+03) (23, 1.50000000000000000000e+03) (24, 1.50000000000000000000e+03) (25, 1.50000000000000000000e+03) (26, 1.50000000000000000000e+03) (27, 1.50000000000000000000e+03) (28, 1.50000000000000000000e+03) (29, 1.50000000000000000000e+03) (30, 1.50000000000000000000e+03) (31, 1.50000000000000000000e+03) (32, 7.21721974807517767658e+02) (33, 4.11956538277523009128e+02) (34, -1.50000000000000000000e+03) (35, -1.50000000000000000000e+03) (36, -1.50000000000000000000e+03) (37, 2.79538588843768252445e+02) (38, -1.50000000000000000000e+03) (39, -1.29913857067627236574e+03) (40, 2.37738591609423906448e+02) (41, -1.37400332563156212018e+03) (42, 3.52407193529264361587e+02) (43, 1.27078122696666454772e+02) (44, -1.50000000000000000000e+03) (45, -1.50000000000000000000e+03) (46, -2.65799990797042710255e+02) (47, 1.17127906008745810595e+02) (48, -2.17440972739767488520e+02) (49, 1.10111305118494129829e+02) (50, -4.10152202307778111390e+02) (51, 1.35379404602433368154e+02) (52, 1.50000000000000000000e+03) (53, 1.50000000000000000000e+03) (54, 1.50000000000000000000e+03) (55, 1.50000000000000000000e+03) (56, 1.50000000000000000000e+03) (57, 1.50000000000000000000e+03) (58, 1.65301530475628823069e+02) (59, 4.45596663186323880268e+01) (60, -2.39038067323625327276e+01) (61, 1.03095809184243705658e+02) (62, 2.66033068162934114298e+01) (63, -2.83920607172428631770e+01) (64, 1.41136780093796403435e+01) (65, -4.09350608420155666067e+01) (66, 1.62985293201602754465e+00) (67, -4.76446167907608071346e+01) (68, -5.90281840281473932919e+01) (69, 3.87384324690531798296e+01) (70, -4.13858950050626788197e+02) (71, 6.90669158772024083248e+00) (72, -1.43843068579006150287e+01) (73, 6.76753704405660805321e+00) (74, -1.90426972357833079741e+01) (75, 8.91477407664707044432e+00) (76, -5.63659225758605320067e+00) (77, 6.24001896958899626711e-01) (78, -1.64733738102108908663e+01) (79, 2.23077301700248682437e+01) (80, -1.50000000000000000000e+03) (81, -1.50000000000000000000e+03) (82, 1.50000000000000000000e+03) (83, 1.50000000000000000000e+03) (84, 1.50000000000000000000e+03) (85, 1.50000000000000000000e+03) (86, -6.34062911223099092695e+01) (87, -2.33147576828692981721e+00) (88, -5.66904549513410138672e+00) (89, 8.88165323884345347949e+00) (90, -3.70171471070932867065e+00) (91, 9.41111182139768437382e-02) (92, 8.43449652677995875827e-01) (93, -1.91299823337752000763e-01) (94, -5.72238719008476448558e-01) (95, -2.64158956452749005273e-01) (96, 4.57754748263211386217e-01) (97, -2.51754500036131589891e-01) (98, -3.43816781377208724457e-01) (99, -8.61333289477656527389e-02) (100, -2.86705288882282915974e-01) (101, -7.39509563688407589588e-01) (102, 5.19248454293338435050e-01) (103, -9.70062995414384343640e-01) (104, 4.11324295889523988690e-02) (105, -8.81268651264773272835e-01) (106, 8.18054316282796900595e-01) (107, 8.95485348624252774918e-01) (108, -2.25845903213764209738e+00) (109, -4.59180852150161289416e+00) (110, 7.77214797530379453150e+00) (111, 1.50000000000000000000e+03) (112, 1.50000000000000000000e+03) (113, 1.46942400367164691488e+03) (114, 2.11909643086378345345e+01) (115, 3.92821407630683649970e+00) (116, -1.13926439774529497662e+00) (117, 2.62227919043139912070e-01) (118, -5.67459614957360469756e-02) (119, 1.45350987820764415703e-01) (120, -6.15893146040884381653e-02) (121, -2.91943273197419861376e-01) (122, -2.32060332684853654062e-01) (123, -7.71612728961483113066e-02) (124, -5.44656217137283113483e-02) (125, -6.36257302881946540385e-02) (126, -1.48506896994405057644e-01) (127, -2.85368627722852215289e-02) (128, -4.79089539410545717235e-02) (129, -6.41184369936494830133e-02) (130, 3.45562252136168368555e-01) (131, 1.45379082613956628345e-01) (132, -7.29658985285491223927e-02) (133, -1.40653017607667695649e-02) (134, 1.71281191610914790280e-01) (135, -3.65779857028624144633e-01) (136, 2.46840086162504457334e+00) (137, 9.16709376940006648304e-01) (138, 2.94503871327627031462e+00) (139, -1.07122283878337640317e+02) (140, 1.50000000000000000000e+03) (141, 1.50000000000000000000e+03) (142, -4.78302538706561097825e+00) (143, -7.71811140030565390191e-01) (144, 1.38406163998559361694e+00) (145, 2.21617770401541847036e-01) (146, -6.83393756245550126893e-02) (147, 5.97347935211502867325e-01) (148, -8.10204589399064062372e-02) (149, 3.76395027226672090892e-02) (150, -1.95767810362456967654e-01) (151, -4.79952138959870780455e-02) (152, 1.78021841088699117606e-02) (153, -1.91240309203733638288e-01) (154, -1.04672565013841228909e-01) (155, -2.06179111167118483960e-01) (156, -1.27927371995842281693e-01) (157, -1.54241564823259152961e-01) (158, -6.88696528591927759066e-02) (159, -4.49168095956581966272e-03) (160, 1.65004690519523711245e-01) (161, 8.59352837144601588992e-02) (162, 5.40758487078705440965e-01) (163, 3.11577118530958818710e-01) (164, -3.34014338964573609392e-01) (165, 2.54312214014535946660e+01) (166, 2.33529247205332808335e+01) (167, -4.78489096081301710228e+01) (168, 1.50000000000000000000e+03) (169, 1.46942400367164691488e+03) (170, 8.76959492338934865074e+00) (171, 1.99150109459740720652e+00) (172, 3.04576191115343508642e-01) (173, -1.11006593182920554330e-01) (174, 1.19398601988358860071e-01) (175, -5.45221046614731506136e-03) (176, 1.75794411711585579772e-01) (177, 1.13236263979876322638e-01) (178, 3.18396867234903638288e-03) (179, -1.09760690963564815775e-02) (180, -3.47458734692251622334e-02) (181, -2.83556243716563995128e-02) (182, -2.86520593319743652194e-02) (183, -1.72855142100445963865e-03) (184, 1.33538311475747944329e-02) (185, 3.55909472029807124813e-03) (186, 6.82655173057575420659e-02) (187, 1.85637221791448786545e-01) (188, 3.92554873872657805745e-02) (189, 1.06209853957820843373e-01) (190, 1.26185621454697360910e-01) (191, 3.04214097787410923945e-02) (192, 2.92534923421570347557e+00) (193, 3.26880476496727068181e+00) (194, 7.14561175237921819559e+00) (195, 5.43680338434235377321e+00) (196, 2.78892694010593411580e-01) (197, 8.00081883871825993992e+01) (198, -7.12532871495536923589e+00) (199, -1.03573534069727538065e-01) (200, 1.94103584760933117748e-01) (201, -2.18036138543902052733e-01) (202, -2.80862761063347510238e-01) (203, 6.23595175839056839462e-02) (204, 1.99270293785909630158e-01) (205, -2.15188089933927200262e-03) (206, -1.06301120814794050617e-01) (207, -4.20118867080913980377e-03) (208, 1.11459563439936168439e-01) (209, 3.24135684109173247136e-02) (210, -2.69506181194372806953e-01) (211, -2.88799297762058759798e-01) (212, 5.60176752296143304344e-02) (213, 1.69493573370220265706e-02) (214, 1.49251311756323751245e-01) (215, 4.10696120290453894897e-02) (216, 3.04354587584532765288e-01) (217, 1.05491884883631523162e-01) (218, -1.49586586229712402429e-02) (219, 2.54151920356841601323e-02) (220, 1.08892376635076537639e+00) (221, 5.67786301870086962396e+00) (222, 7.43033088683492159987e+00) (223, 1.53436562109755092465e+00) (224, -8.32764611556032150474e+01) (225, -1.03128103508862754012e+01) (226, 5.07527341619075644807e-01) (227, 8.69744654223962410100e-01) (228, 5.28307564880134972185e-01) (229, -6.92635421275219174964e-03) (230, 6.68464201136249741575e-02) (231, 2.05482135589701332690e-03) (232, -3.05068357747816133740e-02) (233, 5.87749537876797612662e-03) (234, -1.40567657432559660335e-02) (235, -5.64785877647917128330e-02) (236, -1.83051459485980005937e-02) (237, -8.21346149856020391056e-02) (238, -3.81632945750996765977e-02) (239, -7.54802212623107565692e-02) (240, -6.50531170233458883034e-02) (241, 5.39842236291458443809e-02) (242, 4.92672237688011813161e-02) (243, -2.91845011558998536361e-02) (244, 6.88657352984515941374e-02) (245, 8.37259527540428205583e-02) (246, 6.78962460710043208545e-02) (247, -2.17968164481109581698e-02) (248, 1.33474734861684862786e+00) (249, 2.83133246957918593978e+00) (250, 3.34522015346528576174e+02) (251, 1.41051823869963186553e+02) (252, -3.72235655994647363087e-01) (253, 3.09113675005245780447e-01) (254, 1.98586836043672643193e+00) (255, -1.01474366269373894589e-01) (256, 5.35680804425488044096e-01) (257, -7.61428815416197224408e-01) (258, 5.02730722433190169163e-01) (259, 9.37637515133315085913e-02) (260, 1.01729353436392916388e-01) (261, 5.77208507206045974558e-03) (262, 1.40128185082992306326e-02) (263, 7.93188794873645047767e-02) (264, -4.25972902532331249015e-02) (265, -7.22474769079355094714e-02) (266, -1.84097913904285842568e-01) (267, -1.28840847992524765164e-01) (268, -4.78323017592804447529e-02) (269, -1.59261385949594565410e-03) (270, -1.63100281769171989721e-01) (271, 5.10915312715524566611e-02) (272, 1.89389437865338274014e-02) (273, 1.15762570469676404072e-01) (274, 2.84107214113371864261e-01) (275, 8.02243614060169224489e-02) (276, 5.75973831454509865857e-01) (277, 5.06706342596673042777e+00) (278, 1.53094429915188072755e+02) (279, 7.13199100074317016151e+01) (280, -5.47766172661291772528e+00) (281, -2.01586253716990437823e+00) (282, 8.83750002329462824857e-02) (283, -1.73764667103920751601e-02) (284, 1.53313032924654613076e+00) (285, -1.95193458752208104379e+00) (286, 8.23785528598186406191e-02) (287, 1.06905483048081895170e-01) (288, 4.88216715265937448165e-02) (289, 5.78390550322900875990e-02) (290, 5.79313226219512825144e-02) (291, 1.94515596661129330780e-01) (292, 8.96366024459693128135e-02) (293, 1.62035602691443236800e-01) (294, 1.17027746036569693655e-01) (295, 5.90578465889949957845e-02) (296, -1.90627890349346490462e-02) (297, -3.76594905380710012754e-02) (298, -1.41017990844329171862e-01) (299, -7.68159524127407511429e-02) (300, -2.55526324306432406352e-01) (301, -8.89444099444475083649e-02) (302, 8.03469569738527178426e-02) (303, 3.97703392222538198997e-01) (304, 8.20756306516369438242e-01) (305, 3.58051064783712469364e+00) (306, -7.61330332840085066692e+00) (307, 3.97055520271157320167e+02) (308, 3.79589688362453214765e+00) (309, -3.77778064539996938365e+00) (310, 1.43219013490833724234e+00) (311, -1.47222181607299495987e+00) (312, 4.70395221168653010491e-01) (313, -2.78530615358497457903e-03) (314, 1.17042346809123043450e+00) (315, 2.99183205495510196048e-01) (316, 6.82791359257677643591e-01) (317, 1.97036960391112042634e-01) (318, 4.92095542673700175884e-02) (319, 9.64746426802034068304e-02) (320, 6.49771283471471283733e-01) (321, 4.14762354611443340158e-01) (322, 6.83383593112966147842e-01) (323, 4.25273736238536814724e-01) (324, 1.30707088100544766007e-01) (325, 2.58473421708089845517e-01) (326, 1.11219171431061969457e-01) (327, -4.54662820853676333255e-02) (328, -1.85700060963884500120e-01) (329, -3.39436664161312129373e-01) (330, -1.38042107858985435564e-01) (331, -4.11726438050453114048e-01) (332, 1.01690820992696928649e+00) (333, 5.49724735970095057525e+00) (334, 1.58116516999718385250e+02) (335, 1.48839750063790148715e+02) (336, -8.06485956899496159167e+00) (337, -9.66196201881220595453e+00) (338, -6.67261257872291846382e+00) (339, 3.83501000500587618802e+00) (340, 1.54552915423401260320e+00) (341, 1.81733319995510095302e-01) (342, 1.70177394401248682776e-01) (343, 9.00083249145205099850e-01) (344, 8.56255241005464129422e-01) (345, 6.08799953976853713833e-01) (346, 5.32425692683694218310e-01) (347, 7.61795963724094526981e-01) (348, 2.33445297565165715836e-01) (349, 4.63676463449779918680e-01) (350, 5.95702863124508374959e-01) (351, 6.66044077820684865543e-01) (352, 1.55690318146729400617e-01) (353, 5.59941055252766051176e-01) (354, 2.25374096034627602325e-01) (355, 3.60008079674427952654e-02) (356, -7.58963044874993580935e-02) (357, -8.12490782196756522460e-01) (358, -1.15524523274925616789e+00) (359, -2.34460871279486848806e+00) (360, -7.26636977872985201365e-01) (361, -9.62420433140499298474e+00) (362, 8.24713190694578315743e+02) (363, 6.36364144522964693351e+02) (364, -4.35032835129302331012e+00) (365, -1.15493575114422206696e+01) (366, -1.63272101120017936182e+01) (367, 1.70786477156406468758e+00) (368, 1.96127658299509455286e-01) (369, 1.16472540507562327683e+00) (370, -5.89427719543337141905e-02) (371, 5.64574907683074028730e-02) (372, 2.54514336434262133935e-01) (373, 1.08841719171298978441e-01) (374, -3.90086171829049366266e-02) (375, 2.37528528073607331228e-01) (376, 3.05705892257570388537e-01) (377, 5.58813651544626699419e-01) (378, 5.69550676540152345240e-01) (379, 1.05136509361881833047e-01) (380, 2.30252885984759403382e-01) (381, 2.68295341762796735186e-01) (382, 1.24623515591641226274e-01) (383, -1.70342555346392199311e-03) (384, -1.02451678154679870492e-01) (385, -1.78487553433654827506e-01) (386, -1.24641071232449074380e+00) (387, -1.48548849731360377291e+00) (388, -8.16923599965373803400e+00) (389, -1.17043883464559650420e+00) (390, -1.50000000000000000000e+03) (391, -1.50000000000000000000e+03) (392, 1.50000000000000000000e+03) (393, 1.66588685239052267661e+01) (394, -5.95773199324472013672e+00) (395, -3.42326597183053005224e+00) (396, -1.28403355609666425252e+00) (397, 6.19564161180382461103e-02) (398, -2.54736707033366982511e-01) (399, -1.84877650672779753060e-01) (400, -1.77736792817091392160e-02) (401, -4.29183028105467601065e-02) (402, 7.90566727940184704737e-02) (403, -6.70526686789977149905e-02) (404, 1.50411309589980057844e-01) (405, 4.16351868208605424559e-01) (406, 3.59460011606321072630e-01) (407, 2.27117382576110887760e-01) (408, 2.92893343317130627756e-01) (409, 2.05705819546215890048e-01) (410, 1.60571987126026272108e-01) (411, -5.98984241143379805145e-03) (412, -1.97273449747724788361e-01) (413, -2.50869216943446160517e-01) (414, -3.12252630974093545180e-02) (415, -2.33368964842857497255e-02) (416, 2.63266270118451162219e+00) (417, 1.03003999705723575664e-01) (418, -1.50000000000000000000e+03) (419, -1.50000000000000000000e+03) (420, 1.50000000000000000000e+03) (421, 1.46915999874591830121e+03) (422, 6.96541606572508631423e-01) (423, -9.16969602926589882896e-02) (424, -1.62264209715915130872e+00) (425, -8.18202086489117630386e-01) (426, -1.11533585776190613537e+00) (427, -8.45052995612326052211e-01) (428, -6.04708452019975029046e-01) (429, -3.19256144870367908339e-01) (430, -1.22357934450226440992e-01) (431, -6.12137608942219316188e-03) (432, 1.86909298024960562890e-01) (433, 3.13061450684886222184e-01) (434, 1.42365830487713340702e-01) (435, 2.33359285628589402384e-01) (436, -4.21507938490140732224e-02) (437, 1.12871943828140114396e-01) (438, 1.16013196501345366984e-01) (439, -2.24420405285246198079e-02) (440, 5.91366948384437068897e-02) (441, -3.45969572474308095789e-02) (442, 8.12837670115368560175e-01) (443, 5.41277597793080489375e-01) (444, -7.34469065968353707063e-01) (445, -1.20123304650067979082e+01) (446, -1.12303275486137366102e+01) (447, -1.50000000000000000000e+03) (448, -3.37251426409438408882e+02) (449, 1.33579998960494981475e+03) (450, 8.12954431792316789540e+00) (451, 1.56672204252597868646e+00) (452, -7.33682403215556583342e-02) (453, -2.19565031919400910354e-02) (454, -1.40038817256550984780e-01) (455, -4.78895279807963258900e-01) (456, -5.03201599014053702064e-01) (457, -2.60252217342261060740e-01) (458, -6.78531506223814195877e-01) (459, -1.85248759779842536721e-01) (460, 4.53245714822948959910e-03) (461, 1.71090821453232899696e-01) (462, 6.93281625737586226776e-02) (463, 1.53393764183984537830e-01) (464, -1.72151891992973170298e-02) (465, 6.65816680815901340562e-02) (466, -2.87786710263756503880e-02) (467, -6.71811806318474563637e-02) (468, 1.47657918132038674247e-02) (469, 1.34095123967433671464e-01) (470, -6.16089404612972235675e-02) (471, 4.13994968574619204293e-01) (472, 1.38194419293613673938e-01) (473, -1.50000000000000000000e+03) (474, -1.50000000000000000000e+03) (475, -1.50000000000000000000e+03) (476, 1.50000000000000000000e+03) (477, 1.22840131498440641167e+02) (478, -6.20187780706731484059e+00) (479, 4.59442011022435647938e-01) (480, -5.85399575611762548744e-02) (481, -8.25666801281184081773e-02) (482, -8.97734223363492733760e-02) (483, -1.52558322344293006978e-01) (484, 