FANN_FLO_2.1
num_layers=3
learning_rate=0.200000
connection_rate=1.000000
network_type=0
learning_momentum=0.700000
training_algorithm=2
train_error_function=1
train_stop_function=0
cascade_output_change_fraction=0.010000
quickprop_decay=-0.000100
quickprop_mu=1.750000
rprop_increase_factor=1.200000
rprop_decrease_factor=0.500000
rprop_delta_min=0.000000
rprop_delta_max=50.000000
rprop_delta_zero=0.100000
cascade_output_stagnation_epochs=12
cascade_candidate_change_fraction=0.010000
cascade_candidate_stagnation_epochs=12
cascade_max_out_epochs=150
cascade_min_out_epochs=50
cascade_max_cand_epochs=150
cascade_min_cand_epochs=50
cascade_num_candidate_groups=2
bit_fail_limit=3.49999999999999977796e-01
cascade_candidate_limit=1.00000000000000000000e+03
cascade_weight_multiplier=4.00000000000000022204e-01
cascade_activation_functions_count=10
cascade_activation_functions=3 5 7 8 10 11 14 15 16 17 
cascade_activation_steepnesses_count=4
cascade_activation_steepnesses=2.50000000000000000000e-01 5.00000000000000000000e-01 7.50000000000000000000e-01 1.00000000000000000000e+00 
layer_sizes=785 16 11 
scale_included=0
neurons (num_inputs, activation_function, activation_steepness)=(0, 0, 0.00000000000000000000e+00) (0, 0, 0.00000000000000000000e+00) (0, 0, 0.00000000000000000000e+00) (0, 0, 0.00000000000000000000e+00) (0, 0, 0.00000000000000000000e+00) (0, 0, 0.00000000000000000000e+00) (0, 0, 0.00000000000000000000e+00) (0, 0, 0.00000000000000000000e+00) (0, 0, 0.00000000000000000000e+00) (0, 0, 0.00000000000000000000e+00) (0, 0, 0.00000000000000000000e+00) (0, 0, 0.00000000000000000000e+00) (0, 0, 0.00000000000000000000e+00) (0, 0, 0.00000000000000000000e+00) (0, 0, 0.00000000000000000000e+00) (0, 0, 0.00000000000000000000e+00) (0, 0, 0.00000000000000000000e+00) (0, 0, 0.00000000000000000000e+00) (0, 0, 0.00000000000000000000e+00) (0, 0, 0.00000000000000000000e+00) (0, 0, 0.00000000000000000000e+00) (0, 0, 0.00000000000000000000e+00) (0, 0, 0.00000000000000000000e+00) (0, 0, 0.00000000000000000000e+00) (0, 0, 0.00000000000000000000e+00) (0, 0, 0.00000000000000000000e+00) (0, 0, 0.00000000000000000000e+00) (0, 0, 0.00000000000000000000e+00) (0, 0, 0.00000000000000000000e+00) (0, 0, 0.00000000000000000000e+00) (0, 0, 0.00000000000000000000e+00) (0, 0, 0.00000000000000000000e+00) (0, 0, 0.00000000000000000000e+00) (0, 0, 0.00000000000000000000e+00) (0, 0, 0.00000000000000000000e+00) (0, 0, 0.00000000000000000000e+00) (0, 0, 0.00000000000000000000e+00) (0, 0, 0.00000000000000000000e+00) (0, 0, 0.00000000000000000000e+00) (0, 0, 0.00000000000000000000e+00) (0, 0, 0.00000000000000000000e+00) (0, 0, 0.00000000000000000000e+00) (0, 0, 0.00000000000000000000e+00) (0, 0, 0.00000000000000000000e+00) (0, 0, 0.00000000000000000000e+00) (0, 0, 0.00000000000000000000e+00) (0, 0, 0.00000000000000000000e+00) (0, 0, 0.00000000000000000000e+00) (0, 0, 0.00000000000000000000e+00) (0, 0, 0.00000000000000000000e+00) (0, 0, 0.00000000000000000000e+00) (0, 0, 0.00000000000000000000e+00) (0, 0, 0.00000000000000000000e+00) (0, 0, 0.00000000000000000000e+00) (0, 0, 0.00000000000000000000e+00) (0, 0, 0.00000000000000000000e+00) (0, 0, 0.00000000000000000000e+00) (0, 0, 0.00000000000000000000e+00) (0, 0, 0.00000000000000000000e+00) (0, 0, 0.00000000000000000000e+00) (0, 0, 0.00000000000000000000e+00) (0, 0, 0.00000000000000000000e+00) (0, 0, 0.00000000000000000000e+00) (0, 0, 0.00000000000000000000e+00) (0, 0, 0.00000000000000000000e+00) (0, 0, 0.00000000000000000000e+00) (0, 0, 0.00000000000000000000e+00) (0, 0, 0.00000000000000000000e+00) (0, 0, 0.00000000000000000000e+00) (0, 0, 0.00000000000000000000e+00) (0, 0, 0.00000000000000000000e+00) (0, 0, 0.00000000000000000000e+00) (0, 0, 0.00000000000000000000e+00) (0, 0, 0.00000000000000000000e+00) (0, 0, 0.00000000000000000000e+00) (0, 0, 0.00000000000000000000e+00) (0, 0, 0.00000000000000000000e+00) (0, 0, 0.00000000000000000000e+00) (0, 0, 0.00000000000000000000e+00) (0, 0, 0.00000000000000000000e+00) (0, 0, 0.00000000000000000000e+00) (0, 0, 0.00000000000000000000e+00) (0, 0, 0.00000000000000000000e+00) (0, 0, 0.00000000000000000000e+00) (0, 0, 0.00000000000000000000e+00) (0, 0, 0.00000000000000000000e+00) (0, 0, 0.00000000000000000000e+00) (0, 0, 0.00000000000000000000e+00) (0, 0, 0.00000000000000000000e+00) (0, 0, 0.00000000000000000000e+00) (0, 0, 0.00000000000000000000e+00) (0, 0, 0.00000000000000000000e+00) (0, 0, 0.00000000000000000000e+00) (0, 0, 0.00000000000000000000e+00) (0, 0, 0.00000000000000000000e+00) (0, 0, 0.00000000000000000000e+00) (0, 0, 0.00000000000000000000e+00) (0, 0, 0.00000000000000000000e+00) (0, 0, 0.00000000000000000000e+00) (0, 0, 0.00000000000000000000e+00) (0, 0, 0.00000000000000000000e+00) (0, 0, 0.00000000000000000000e+00) (0, 0, 0.00000000000000000000e+00) (0, 0, 0.00000000000000000000e+00) (0, 0, 0.00000000000000000000e+00) (0, 0, 0.00000000000000000000e+00) (0, 0, 0.00000000000000000000e+00) (0, 0, 0.00000000000000000000e+00) (0, 0, 0.00000000000000000000e+00) (0, 0, 0.00000000000000000000e+00) (0, 0, 0.00000000000000000000e+00) (0, 0, 0.00000000000000000000e+00) (0, 0, 0.00000000000000000000e+00) (0, 0, 0.00000000000000000000e+00) (0, 0, 0.00000000000000000000e+00) (0, 0, 0.00000000000000000000e+00) (0, 0, 0.00000000000000000000e+00) (0, 0, 0.00000000000000000000e+00) (0, 0, 0.00000000000000000000e+00) (0, 0, 0.00000000000000000000e+00) (0, 0, 0.00000000000000000000e+00) (0, 0, 0.00000000000000000000e+00) (0, 0, 0.00000000000000000000e+00) (0, 0, 0.00000000000000000000e+00) (0, 0, 0.00000000000000000000e+00) (0, 0, 0.00000000000000000000e+00) (0, 0, 0.00000000000000000000e+00) (0, 0, 0.00000000000000000000e+00) (0, 0, 0.00000000000000000000e+00) (0, 0, 0.00000000000000000000e+00) (0, 0, 0.00000000000000000000e+00) (0, 0, 0.00000000000000000000e+00) (0, 0, 0.00000000000000000000e+00) (0, 0, 0.00000000000000000000e+00) (0, 0, 0.00000000000000000000e+00) (0, 0, 0.00000000000000000000e+00) (0, 0, 0.00000000000000000000e+00) (0, 0, 0.00000000000000000000e+00) (0, 0, 0.00000000000000000000e+00) (0, 0, 0.00000000000000000000e+00) (0, 0, 0.00000000000000000000e+00) (0, 0, 0.00000000000000000000e+00) (0, 0, 0.00000000000000000000e+00) (0, 0, 0.00000000000000000000e+00) (0, 0, 0.00000000000000000000e+00) (0, 0, 0.00000000000000000000e+00) (0, 0, 0.00000000000000000000e+00) (0, 0, 0.00000000000000000000e+00) (0, 0, 0.00000000000000000000e+00) (0, 0, 0.00000000000000000000e+00) (0, 0, 0.00000000000000000000e+00) (0, 0, 0.00000000000000000000e+00) (0, 0, 0.00000000000000000000e+00) (0, 0, 0.00000000000000000000e+00) (0, 0, 0.00000000000000000000e+00) (0, 0, 0.00000000000000000000e+00) (0, 0, 0.00000000000000000000e+00) (0, 0, 0.00000000000000000000e+00) (0, 0, 0.00000000000000000000e+00) (0, 0, 0.00000000000000000000e+00) (0, 0, 0.00000000000000000000e+00) (0, 0, 0.00000000000000000000e+00) (0, 0, 0.00000000000000000000e+00) (0, 0, 0.00000000000000000000e+00) (0, 0, 0.00000000000000000000e+00) (0, 0, 0.00000000000000000000e+00) (0, 0, 0.00000000000000000000e+00) (0, 0, 0.00000000000000000000e+00) (0, 0, 0.00000000000000000000e+00) (0, 0, 0.00000000000000000000e+00) (0, 0, 0.00000000000000000000e+00) (0, 0, 0.00000000000000000000e+00) (0, 0, 0.00000000000000000000e+00) (0, 0, 0.00000000000000000000e+00) (0, 0, 0.00000000000000000000e+00) (0, 0, 0.00000000000000000000e+00) (0, 0, 0.00000000000000000000e+00) (0, 0, 0.00000000000000000000e+00) (0, 0, 0.00000000000000000000e+00) (0, 0, 0.00000000000000000000e+00) (0, 0, 0.00000000000000000000e+00) (0, 0, 0.00000000000000000000e+00) (0, 0, 0.00000000000000000000e+00) (0, 0, 0.00000000000000000000e+00) (0, 0, 0.00000000000000000000e+00) (0, 0, 0.00000000000000000000e+00) (0, 0, 0.00000000000000000000e+00) (0, 0, 0.00000000000000000000e+00) (0, 0, 0.00000000000000000000e+00) (0, 0, 0.00000000000000000000e+00) (0, 0, 0.00000000000000000000e+00) (0, 0, 0.00000000000000000000e+00) (0, 0, 0.00000000000000000000e+00) (0, 0, 0.00000000000000000000e+00) (0, 0, 0.00000000000000000000e+00) (0, 0, 0.00000000000000000000e+00) (0, 0, 0.00000000000000000000e+00) (0, 0, 0.00000000000000000000e+00) (0, 0, 0.00000000000000000000e+00) (0, 0, 0.00000000000000000000e+00) (0, 0, 0.00000000000000000000e+00) (0, 0, 0.00000000000000000000e+00) (0, 0, 0.00000000000000000000e+00) (0, 0, 0.00000000000000000000e+00) (0, 0, 0.00000000000000000000e+00) (0, 0, 0.00000000000000000000e+00) (0, 0, 0.00000000000000000000e+00) (0, 0, 0.00000000000000000000e+00) (0, 0, 0.00000000000000000000e+00) (0, 0, 0.00000000000000000000e+00) (0, 0, 0.00000000000000000000e+00) (0, 0, 0.00000000000000000000e+00) (0, 0, 0.00000000000000000000e+00) (0, 0, 0.00000000000000000000e+00) (0, 0, 0.00000000000000000000e+00) (0, 0, 0.00000000000000000000e+00) (0, 0, 0.00000000000000000000e+00) (0, 0, 0.00000000000000000000e+00) (0, 0, 0.00000000000000000000e+00) (0, 0, 0.00000000000000000000e+00) (0, 0, 0.00000000000000000000e+00) (0, 0, 0.00000000000000000000e+00) (0, 0, 0.00000000000000000000e+00) (0, 0, 0.00000000000000000000e+00) (0, 0, 0.00000000000000000000e+00) (0, 0, 0.00000000000000000000e+00) (0, 0, 0.00000000000000000000e+00) (0, 0, 0.00000000000000000000e+00) (0, 0, 0.00000000000000000000e+00) (0, 0, 0.00000000000000000000e+00) (0, 0, 0.00000000000000000000e+00) (0, 0, 0.00000000000000000000e+00) (0, 0, 0.00000000000000000000e+00) (0, 0, 0.00000000000000000000e+00) (0, 0, 0.00000000000000000000e+00) (0, 0, 0.00000000000000000000e+00) (0, 0, 0.00000000000000000000e+00) (0, 0, 0.00000000000000000000e+00) (0, 0, 0.00000000000000000000e+00) (0, 0, 0.00000000000000000000e+00) (0, 0, 0.00000000000000000000e+00) (0, 0, 0.00000000000000000000e+00) (0, 0, 0.00000000000000000000e+00) (0, 0, 0.00000000000000000000e+00) (0, 0, 0.00000000000000000000e+00) (0, 0, 0.00000000000000000000e+00) (0, 0, 0.00000000000000000000e+00) (0, 0, 0.00000000000000000000e+00) (0, 0, 0.00000000000000000000e+00) (0, 0, 0.00000000000000000000e+00) (0, 0, 0.00000000000000000000e+00) (0, 0, 0.00000000000000000000e+00) (0, 0, 0.00000000000000000000e+00) (0, 0, 0.00000000000000000000e+00) (0, 0, 0.00000000000000000000e+00) (0, 0, 0.00000000000000000000e+00) (0, 0, 0.00000000000000000000e+00) (0, 0, 0.00000000000000000000e+00) (0, 0, 0.00000000000000000000e+00) (0, 0, 0.00000000000000000000e+00) (0, 0, 0.00000000000000000000e+00) (0, 0, 0.00000000000000000000e+00) (0, 0, 0.00000000000000000000e+00) (0, 0, 0.00000000000000000000e+00) (0, 0, 0.00000000000000000000e+00) (0, 0, 0.00000000000000000000e+00) (0, 0, 0.00000000000000000000e+00) (0, 0, 0.00000000000000000000e+00) (0, 0, 0.00000000000000000000e+00) (0, 0, 0.00000000000000000000e+00) (0, 0, 0.00000000000000000000e+00) (0, 0, 0.00000000000000000000e+00) (0, 0, 0.00000000000000000000e+00) (0, 0, 0.00000000000000000000e+00) (0, 0, 0.00000000000000000000e+00) (0, 0, 0.00000000000000000000e+00) (0, 0, 0.00000000000000000000e+00) (0, 0, 0.00000000000000000000e+00) (0, 0, 0.00000000000000000000e+00) (0, 0, 0.00000000000000000000e+00) (0, 0, 0.00000000000000000000e+00) (0, 0, 0.00000000000000000000e+00) (0, 0, 0.00000000000000000000e+00) (0, 0, 0.00000000000000000000e+00) (0, 0, 0.00000000000000000000e+00) (0, 0, 0.00000000000000000000e+00) (0, 0, 0.00000000000000000000e+00) (0, 0, 0.00000000000000000000e+00) (0, 0, 0.00000000000000000000e+00) (0, 0, 0.00000000000000000000e+00) (0, 0, 0.00000000000000000000e+00) (0, 0, 0.00000000000000000000e+00) (0, 0, 0.00000000000000000000e+00) (0, 0, 0.00000000000000000000e+00) (0, 0, 0.00000000000000000000e+00) (0, 0, 0.00000000000000000000e+00) (0, 0, 0.00000000000000000000e+00) (0, 0, 0.00000000000000000000e+00) (0, 0, 0.00000000000000000000e+00) (0, 0, 0.00000000000000000000e+00) (0, 0, 0.00000000000000000000e+00) (0, 0, 0.00000000000000000000e+00) (0, 0, 0.00000000000000000000e+00) (0, 0, 0.00000000000000000000e+00) (0, 0, 0.00000000000000000000e+00) (0, 0, 0.00000000000000000000e+00) (0, 0, 0.00000000000000000000e+00) (0, 0, 0.00000000000000000000e+00) (0, 0, 0.00000000000000000000e+00) (0, 0, 0.00000000000000000000e+00) (0, 0, 0.00000000000000000000e+00) (0, 0, 0.00000000000000000000e+00) (0, 0, 0.00000000000000000000e+00) (0, 0, 0.00000000000000000000e+00) (0, 0, 0.00000000000000000000e+00) (0, 0, 0.00000000000000000000e+00) (0, 0, 0.00000000000000000000e+00) (0, 0, 0.00000000000000000000e+00) (0, 0, 0.00000000000000000000e+00) (0, 0, 0.00000000000000000000e+00) (0, 0, 0.00000000000000000000e+00) (0, 0, 0.00000000000000000000e+00) (0, 0, 0.00000000000000000000e+00) (0, 0, 0.00000000000000000000e+00) (0, 0, 0.00000000000000000000e+00) (0, 0, 0.00000000000000000000e+00) (0, 0, 0.00000000000000000000e+00) (0, 0, 0.00000000000000000000e+00) (0, 0, 0.00000000000000000000e+00) (0, 0, 0.00000000000000000000e+00) (0, 0, 0.00000000000000000000e+00) (0, 0, 0.00000000000000000000e+00) (0, 0, 0.00000000000000000000e+00) (0, 0, 0.00000000000000000000e+00) (0, 0, 0.00000000000000000000e+00) (0, 0, 0.00000000000000000000e+00) (0, 0, 0.00000000000000000000e+00) (0, 0, 0.00000000000000000000e+00) (0, 0, 0.00000000000000000000e+00) (0, 0, 0.00000000000000000000e+00) (0, 0, 0.00000000000000000000e+00) (0, 0, 0.00000000000000000000e+00) (0, 0, 0.00000000000000000000e+00) (0, 0, 0.00000000000000000000e+00) (0, 0, 0.00000000000000000000e+00) (0, 0, 0.00000000000000000000e+00) (0, 0, 0.00000000000000000000e+00) (0, 0, 0.00000000000000000000e+00) (0, 0, 0.00000000000000000000e+00) (0, 0, 0.00000000000000000000e+00) (0, 0, 0.00000000000000000000e+00) (0, 0, 0.00000000000000000000e+00) (0, 0, 0.00000000000000000000e+00) (0, 0, 0.00000000000000000000e+00) (0, 0, 0.00000000000000000000e+00) (0, 0, 0.00000000000000000000e+00) (0, 0, 0.00000000000000000000e+00) (0, 0, 0.00000000000000000000e+00) (0, 0, 0.00000000000000000000e+00) (0, 0, 0.00000000000000000000e+00) (0, 0, 0.00000000000000000000e+00) (0, 0, 0.00000000000000000000e+00) (0, 0, 0.00000000000000000000e+00) (0, 0, 0.00000000000000000000e+00) (0, 0, 0.00000000000000000000e+00) (0, 0, 0.00000000000000000000e+00) (0, 0, 0.00000000000000000000e+00) (0, 0, 0.00000000000000000000e+00) (0, 0, 0.00000000000000000000e+00) (0, 0, 0.00000000000000000000e+00) (0, 0, 0.00000000000000000000e+00) (0, 0, 0.00000000000000000000e+00) (0, 0, 0.00000000000000000000e+00) (0, 0, 0.00000000000000000000e+00) (0, 0, 0.00000000000000000000e+00) (0, 0, 0.00000000000000000000e+00) (0, 0, 0.00000000000000000000e+00) (0, 0, 0.00000000000000000000e+00) (0, 0, 0.00000000000000000000e+00) (0, 0, 0.00000000000000000000e+00) (0, 0, 0.00000000000000000000e+00) (0, 0, 0.00000000000000000000e+00) (0, 0, 0.00000000000000000000e+00) (0, 0, 0.00000000000000000000e+00) (0, 0, 0.00000000000000000000e+00) (0, 0, 0.00000000000000000000e+00) (0, 0, 0.00000000000000000000e+00) (0, 0, 0.00000000000000000000e+00) (0, 0, 0.00000000000000000000e+00) (0, 0, 0.00000000000000000000e+00) (0, 0, 0.00000000000000000000e+00) (0, 0, 0.00000000000000000000e+00) (0, 0, 0.00000000000000000000e+00) (0, 0, 0.00000000000000000000e+00) (0, 0, 0.00000000000000000000e+00) (0, 0, 0.00000000000000000000e+00) (0, 0, 0.00000000000000000000e+00) (0, 0, 0.00000000000000000000e+00) (0, 0, 0.00000000000000000000e+00) (0, 0, 0.00000000000000000000e+00) (0, 0, 0.00000000000000000000e+00) (0, 0, 0.00000000000000000000e+00) (0, 0, 0.00000000000000000000e+00) (0, 0, 0.00000000000000000000e+00) (0, 0, 0.00000000000000000000e+00) (0, 0, 0.00000000000000000000e+00) (0, 0, 0.00000000000000000000e+00) (0, 0, 0.00000000000000000000e+00) (0, 0, 0.00000000000000000000e+00) (0, 0, 0.00000000000000000000e+00) (0, 0, 0.00000000000000000000e+00) (0, 0, 0.00000000000000000000e+00) (0, 0, 0.00000000000000000000e+00) (0, 0, 0.00000000000000000000e+00) (0, 0, 0.00000000000000000000e+00) (0, 0, 0.00000000000000000000e+00) (0, 0, 0.00000000000000000000e+00) (0, 0, 0.00000000000000000000e+00) (0, 0, 0.00000000000000000000e+00) (0, 0, 0.00000000000000000000e+00) (0, 0, 0.00000000000000000000e+00) (0, 0, 0.00000000000000000000e+00) (0, 0, 0.00000000000000000000e+00) (0, 0, 0.00000000000000000000e+00) (0, 0, 0.00000000000000000000e+00) (0, 0, 0.00000000000000000000e+00) (0, 0, 0.00000000000000000000e+00) (0, 0, 0.00000000000000000000e+00) (0, 0, 0.00000000000000000000e+00) (0, 0, 0.00000000000000000000e+00) (0, 0, 0.00000000000000000000e+00) (0, 0, 0.00000000000000000000e+00) (0, 0, 0.00000000000000000000e+00) (0, 0, 0.00000000000000000000e+00) (0, 0, 0.00000000000000000000e+00) (0, 0, 0.00000000000000000000e+00) (0, 0, 0.00000000000000000000e+00) (0, 0, 0.00000000000000000000e+00) (0, 0, 0.00000000000000000000e+00) (0, 0, 0.00000000000000000000e+00) (0, 0, 0.00000000000000000000e+00) (0, 0, 0.00000000000000000000e+00) (0, 0, 0.00000000000000000000e+00) (0, 0, 0.00000000000000000000e+00) (0, 0, 0.00000000000000000000e+00) (0, 0, 0.00000000000000000000e+00) (0, 0, 0.00000000000000000000e+00) (0, 0, 0.00000000000000000000e+00) (0, 0, 0.00000000000000000000e+00) (0, 0, 0.00000000000000000000e+00) (0, 0, 0.00000000000000000000e+00) (0, 0, 0.00000000000000000000e+00) (0, 0, 0.00000000000000000000e+00) (0, 0, 0.00000000000000000000e+00) (0, 0, 0.00000000000000000000e+00) (0, 0, 0.00000000000000000000e+00) (0, 0, 0.00000000000000000000e+00) (0, 0, 0.00000000000000000000e+00) (0, 0, 0.00000000000000000000e+00) (0, 0, 0.00000000000000000000e+00) (0, 0, 0.00000000000000000000e+00) (0, 0, 0.00000000000000000000e+00) (0, 0, 0.00000000000000000000e+00) (0, 0, 0.00000000000000000000e+00) (0, 0, 0.00000000000000000000e+00) (0, 0, 0.00000000000000000000e+00) (0, 0, 0.00000000000000000000e+00) (0, 0, 0.00000000000000000000e+00) (0, 0, 0.00000000000000000000e+00) (0, 0, 0.00000000000000000000e+00) (0, 0, 0.00000000000000000000e+00) (0, 0, 0.00000000000000000000e+00) (0, 0, 0.00000000000000000000e+00) (0, 0, 0.00000000000000000000e+00) (0, 0, 0.00000000000000000000e+00) (0, 0, 0.00000000000000000000e+00) (0, 0, 0.00000000000000000000e+00) (0, 0, 0.00000000000000000000e+00) (0, 0, 0.00000000000000000000e+00) (0, 0, 0.00000000000000000000e+00) (0, 0, 0.00000000000000000000e+00) (0, 0, 0.00000000000000000000e+00) (0, 0, 0.00000000000000000000e+00) (0, 0, 0.00000000000000000000e+00) (0, 0, 0.00000000000000000000e+00) (0, 0, 0.00000000000000000000e+00) (0, 0, 0.00000000000000000000e+00) (0, 0, 0.00000000000000000000e+00) (0, 0, 0.00000000000000000000e+00) (0, 0, 0.00000000000000000000e+00) (0, 0, 0.00000000000000000000e+00) (0, 0, 0.00000000000000000000e+00) (0, 0, 0.00000000000000000000e+00) (0, 0, 0.00000000000000000000e+00) (0, 0, 0.00000000000000000000e+00) (0, 0, 0.00000000000000000000e+00) (0, 0, 0.00000000000000000000e+00) (0, 0, 0.00000000000000000000e+00) (0, 0, 0.00000000000000000000e+00) (0, 0, 0.00000000000000000000e+00) (0, 0, 0.00000000000000000000e+00) (0, 0, 0.00000000000000000000e+00) (0, 0, 0.00000000000000000000e+00) (0, 0, 0.00000000000000000000e+00) (0, 0, 0.00000000000000000000e+00) (0, 0, 0.00000000000000000000e+00) (0, 0, 0.00000000000000000000e+00) (0, 0, 0.00000000000000000000e+00) (0, 0, 0.00000000000000000000e+00) (0, 0, 0.00000000000000000000e+00) (0, 0, 0.00000000000000000000e+00) (0, 0, 0.00000000000000000000e+00) (0, 0, 0.00000000000000000000e+00) (0, 0, 0.00000000000000000000e+00) (0, 0, 0.00000000000000000000e+00) (0, 0, 0.00000000000000000000e+00) (0, 0, 0.00000000000000000000e+00) (0, 0, 0.00000000000000000000e+00) (0, 0, 0.00000000000000000000e+00) (0, 0, 0.00000000000000000000e+00) (0, 0, 0.00000000000000000000e+00) (0, 0, 0.00000000000000000000e+00) (0, 0, 0.00000000000000000000e+00) (0, 0, 0.00000000000000000000e+00) (0, 0, 0.00000000000000000000e+00) (0, 0, 0.00000000000000000000e+00) (0, 0, 0.00000000000000000000e+00) (0, 0, 0.00000000000000000000e+00) (0, 0, 0.00000000000000000000e+00) (0, 0, 0.00000000000000000000e+00) (0, 0, 0.00000000000000000000e+00) (0, 0, 0.00000000000000000000e+00) (0, 0, 0.00000000000000000000e+00) (0, 0, 0.00000000000000000000e+00) (0, 0, 0.00000000000000000000e+00) (0, 0, 0.00000000000000000000e+00) (0, 0, 0.00000000000000000000e+00) (0, 0, 0.00000000000000000000e+00) (0, 0, 0.00000000000000000000e+00) (0, 0, 0.00000000000000000000e+00) (0, 0, 0.00000000000000000000e+00) (0, 0, 0.00000000000000000000e+00) (0, 0, 0.00000000000000000000e+00) (0, 0, 0.00000000000000000000e+00) (0, 0, 0.00000000000000000000e+00) (0, 0, 0.00000000000000000000e+00) (0, 0, 0.00000000000000000000e+00) (0, 0, 0.00000000000000000000e+00) (0, 0, 0.00000000000000000000e+00) (0, 0, 0.00000000000000000000e+00) (0, 0, 0.00000000000000000000e+00) (0, 0, 0.00000000000000000000e+00) (0, 0, 0.00000000000000000000e+00) (0, 0, 0.00000000000000000000e+00) (0, 0, 0.00000000000000000000e+00) (0, 0, 0.00000000000000000000e+00) (0, 0, 0.00000000000000000000e+00) (0, 0, 0.00000000000000000000e+00) (0, 0, 0.00000000000000000000e+00) (0, 0, 0.00000000000000000000e+00) (0, 0, 0.00000000000000000000e+00) (0, 0, 0.00000000000000000000e+00) (0, 0, 0.00000000000000000000e+00) (0, 0, 0.00000000000000000000e+00) (0, 0, 0.00000000000000000000e+00) (0, 0, 0.00000000000000000000e+00) (0, 0, 0.00000000000000000000e+00) (0, 0, 0.00000000000000000000e+00) (0, 0, 0.00000000000000000000e+00) (0, 0, 0.00000000000000000000e+00) (0, 0, 0.00000000000000000000e+00) (0, 0, 0.00000000000000000000e+00) (0, 0, 0.00000000000000000000e+00) (0, 0, 0.00000000000000000000e+00) (0, 0, 0.00000000000000000000e+00) (0, 0, 0.00000000000000000000e+00) (0, 0, 0.00000000000000000000e+00) (0, 0, 0.00000000000000000000e+00) (0, 0, 0.00000000000000000000e+00) (0, 0, 0.00000000000000000000e+00) (0, 0, 0.00000000000000000000e+00) (0, 0, 0.00000000000000000000e+00) (0, 0, 0.00000000000000000000e+00) (0, 0, 0.00000000000000000000e+00) (0, 0, 0.00000000000000000000e+00) (0, 0, 0.00000000000000000000e+00) (0, 0, 0.00000000000000000000e+00) (0, 0, 0.00000000000000000000e+00) (0, 0, 0.00000000000000000000e+00) (0, 0, 0.00000000000000000000e+00) (0, 0, 0.00000000000000000000e+00) (0, 0, 0.00000000000000000000e+00) (0, 0, 0.00000000000000000000e+00) (0, 0, 0.00000000000000000000e+00) (0, 0, 0.00000000000000000000e+00) (0, 0, 0.00000000000000000000e+00) (0, 0, 0.00000000000000000000e+00) (0, 0, 0.00000000000000000000e+00) (0, 0, 0.00000000000000000000e+00) (0, 0, 0.00000000000000000000e+00) (0, 0, 0.00000000000000000000e+00) (0, 0, 0.00000000000000000000e+00) (0, 0, 0.00000000000000000000e+00) (0, 0, 0.00000000000000000000e+00) (0, 0, 0.00000000000000000000e+00) (0, 0, 0.00000000000000000000e+00) (0, 0, 0.00000000000000000000e+00) (0, 0, 0.00000000000000000000e+00) (0, 0, 0.00000000000000000000e+00) (0, 0, 0.00000000000000000000e+00) (0, 0, 0.00000000000000000000e+00) (0, 0, 0.00000000000000000000e+00) (0, 0, 0.00000000000000000000e+00) (0, 0, 0.00000000000000000000e+00) (0, 0, 0.00000000000000000000e+00) (0, 0, 0.00000000000000000000e+00) (0, 0, 0.00000000000000000000e+00) (0, 0, 0.00000000000000000000e+00) (0, 0, 0.00000000000000000000e+00) (0, 0, 0.00000000000000000000e+00) (0, 0, 0.00000000000000000000e+00) (0, 0, 0.00000000000000000000e+00) (0, 0, 0.00000000000000000000e+00) (0, 0, 0.00000000000000000000e+00) (0, 0, 0.00000000000000000000e+00) (0, 0, 0.00000000000000000000e+00) (0, 0, 0.00000000000000000000e+00) (0, 0, 0.00000000000000000000e+00) (0, 0, 0.00000000000000000000e+00) (0, 0, 0.00000000000000000000e+00) (0, 0, 0.00000000000000000000e+00) (0, 0, 0.00000000000000000000e+00) (0, 0, 0.00000000000000000000e+00) (0, 0, 0.00000000000000000000e+00) (0, 0, 0.00000000000000000000e+00) (0, 0, 0.00000000000000000000e+00) (0, 0, 0.00000000000000000000e+00) (0, 0, 0.00000000000000000000e+00) (0, 0, 0.00000000000000000000e+00) (0, 0, 0.00000000000000000000e+00) (0, 0, 0.00000000000000000000e+00) (0, 0, 0.00000000000000000000e+00) (0, 0, 0.00000000000000000000e+00) (0, 0, 0.00000000000000000000e+00) (0, 0, 0.00000000000000000000e+00) (0, 0, 0.00000000000000000000e+00) (0, 0, 0.00000000000000000000e+00) (0, 0, 0.00000000000000000000e+00) (0, 0, 0.00000000000000000000e+00) (0, 0, 0.00000000000000000000e+00) (0, 0, 0.00000000000000000000e+00) (0, 0, 0.00000000000000000000e+00) (0, 0, 0.00000000000000000000e+00) (0, 0, 0.00000000000000000000e+00) (0, 0, 0.00000000000000000000e+00) (0, 0, 0.00000000000000000000e+00) (0, 0, 0.00000000000000000000e+00) (0, 0, 0.00000000000000000000e+00) (0, 0, 0.00000000000000000000e+00) (0, 0, 0.00000000000000000000e+00) (0, 0, 0.00000000000000000000e+00) (0, 0, 0.00000000000000000000e+00) (0, 0, 0.00000000000000000000e+00) (0, 0, 0.00000000000000000000e+00) (0, 0, 0.00000000000000000000e+00) (0, 0, 0.00000000000000000000e+00) (0, 0, 0.00000000000000000000e+00) (0, 0, 0.00000000000000000000e+00) (0, 0, 0.00000000000000000000e+00) (0, 0, 0.00000000000000000000e+00) (0, 0, 0.00000000000000000000e+00) (0, 0, 0.00000000000000000000e+00) (0, 0, 0.00000000000000000000e+00) (0, 0, 0.00000000000000000000e+00) (0, 0, 0.00000000000000000000e+00) (0, 0, 0.00000000000000000000e+00) (0, 0, 0.00000000000000000000e+00) (0, 0, 0.00000000000000000000e+00) (0, 0, 0.00000000000000000000e+00) (0, 0, 0.00000000000000000000e+00) (0, 0, 0.00000000000000000000e+00) (0, 0, 0.00000000000000000000e+00) (0, 0, 0.00000000000000000000e+00) (0, 0, 0.00000000000000000000e+00) (0, 0, 0.00000000000000000000e+00) (0, 0, 0.00000000000000000000e+00) (0, 0, 0.00000000000000000000e+00) (0, 0, 0.00000000000000000000e+00) (0, 0, 0.00000000000000000000e+00) (0, 0, 0.00000000000000000000e+00) (0, 0, 0.00000000000000000000e+00) (0, 0, 0.00000000000000000000e+00) (0, 0, 0.00000000000000000000e+00) (0, 0, 0.00000000000000000000e+00) (0, 0, 0.00000000000000000000e+00) (0, 0, 0.00000000000000000000e+00) (0, 0, 0.00000000000000000000e+00) (0, 0, 0.00000000000000000000e+00) (0, 0, 0.00000000000000000000e+00) (0, 0, 0.00000000000000000000e+00) (0, 0, 0.00000000000000000000e+00) (0, 0, 0.00000000000000000000e+00) (0, 0, 0.00000000000000000000e+00) (0, 0, 0.00000000000000000000e+00) (0, 0, 0.00000000000000000000e+00) (0, 0, 0.00000000000000000000e+00) (0, 0, 0.00000000000000000000e+00) (0, 0, 0.00000000000000000000e+00) (0, 0, 0.00000000000000000000e+00) (0, 0, 0.00000000000000000000e+00) (0, 0, 0.00000000000000000000e+00) (0, 0, 0.00000000000000000000e+00) (0, 0, 0.00000000000000000000e+00) (0, 0, 0.00000000000000000000e+00) (0, 0, 0.00000000000000000000e+00) (0, 0, 0.00000000000000000000e+00) (0, 0, 0.00000000000000000000e+00) (0, 0, 0.00000000000000000000e+00) (0, 0, 0.00000000000000000000e+00) (0, 0, 0.00000000000000000000e+00) (0, 0, 0.00000000000000000000e+00) (0, 0, 0.00000000000000000000e+00) (0, 0, 0.00000000000000000000e+00) (0, 0, 0.00000000000000000000e+00) (0, 0, 0.00000000000000000000e+00) (0, 0, 0.00000000000000000000e+00) (0, 0, 0.00000000000000000000e+00) (0, 0, 0.00000000000000000000e+00) (0, 0, 0.00000000000000000000e+00) (0, 0, 0.00000000000000000000e+00) (0, 0, 0.00000000000000000000e+00) (0, 0, 0.00000000000000000000e+00) (0, 0, 0.00000000000000000000e+00) (0, 0, 0.00000000000000000000e+00) (0, 0, 0.00000000000000000000e+00) (0, 0, 0.00000000000000000000e+00) (0, 0, 0.00000000000000000000e+00) (0, 0, 0.00000000000000000000e+00) (0, 0, 0.00000000000000000000e+00) (0, 0, 0.00000000000000000000e+00) (0, 0, 0.00000000000000000000e+00) (0, 0, 0.00000000000000000000e+00) (0, 0, 0.00000000000000000000e+00) (0, 0, 0.00000000000000000000e+00) (0, 0, 0.00000000000000000000e+00) (0, 0, 0.00000000000000000000e+00) (0, 0, 0.00000000000000000000e+00) (0, 0, 0.00000000000000000000e+00) (0, 0, 0.00000000000000000000e+00) (0, 0, 0.00000000000000000000e+00) (0, 0, 0.00000000000000000000e+00) (0, 0, 0.00000000000000000000e+00) (0, 0, 0.00000000000000000000e+00) (0, 0, 0.00000000000000000000e+00) (0, 0, 0.00000000000000000000e+00) (0, 0, 0.00000000000000000000e+00) (0, 0, 0.00000000000000000000e+00) (0, 0, 0.00000000000000000000e+00) (0, 0, 0.00000000000000000000e+00) (0, 0, 0.00000000000000000000e+00) (0, 0, 0.00000000000000000000e+00) (0, 0, 0.00000000000000000000e+00) (0, 0, 0.00000000000000000000e+00) (0, 0, 0.00000000000000000000e+00) (0, 0, 0.00000000000000000000e+00) (0, 0, 0.00000000000000000000e+00) (0, 0, 0.00000000000000000000e+00) (0, 0, 0.00000000000000000000e+00) (0, 0, 0.00000000000000000000e+00) (0, 0, 0.00000000000000000000e+00) (0, 0, 0.00000000000000000000e+00) (0, 0, 0.00000000000000000000e+00) (0, 0, 0.00000000000000000000e+00) (0, 0, 0.00000000000000000000e+00) (0, 0, 0.00000000000000000000e+00) (0, 0, 0.00000000000000000000e+00) (0, 0, 0.00000000000000000000e+00) (0, 0, 0.00000000000000000000e+00) (0, 0, 0.00000000000000000000e+00) (0, 0, 0.00000000000000000000e+00) (0, 0, 0.00000000000000000000e+00) (0, 0, 0.00000000000000000000e+00) (0, 0, 0.00000000000000000000e+00) (0, 0, 0.00000000000000000000e+00) (0, 0, 0.00000000000000000000e+00) (785, 3, 5.00000000000000000000e-01) (785, 3, 5.00000000000000000000e-01) (785, 3, 5.00000000000000000000e-01) (785, 3, 5.00000000000000000000e-01) (785, 3, 5.00000000000000000000e-01) (785, 3, 5.00000000000000000000e-01) (785, 3, 5.00000000000000000000e-01) (785, 3, 5.00000000000000000000e-01) (785, 3, 5.00000000000000000000e-01) (785, 3, 5.00000000000000000000e-01) (785, 3, 5.00000000000000000000e-01) (785, 3, 5.00000000000000000000e-01) (785, 3, 5.00000000000000000000e-01) (785, 3, 5.00000000000000000000e-01) (785, 3, 5.00000000000000000000e-01) (0, 3, 0.00000000000000000000e+00) (16, 3, 5.00000000000000000000e-01) (16, 3, 5.00000000000000000000e-01) (16, 3, 5.00000000000000000000e-01) (16, 3, 5.00000000000000000000e-01) (16, 3, 5.00000000000000000000e-01) (16, 3, 5.00000000000000000000e-01) (16, 3, 5.00000000000000000000e-01) (16, 3, 5.00000000000000000000e-01) (16, 3, 5.00000000000000000000e-01) (16, 3, 5.00000000000000000000e-01) (0, 3, 0.00000000000000000000e+00) 
connections (connected_to_neuron, weight)=(0, 1.41744163203973755571e+02) (1, 1.41773276969779715273e+02) (2, 1.41800968620915398333e+02) (3, 1.41739896845061764452e+02) (4, 1.41855827014882549975e+02) (5, 1.41813737172622666094e+02) (6, 1.41811460565764889452e+02) (7, 1.41738169547159657213e+02) (8, 1.41895567011077389452e+02) (9, 1.41819321889419541094e+02) (10, 1.41734721060831532213e+02) (11, 1.41804984737176880571e+02) (12, -5.85866645117626063666e+01) (13, -5.85933661748990886053e+01) (14, -9.19296678665407895892e+00) (15, -9.23047899219521283953e+00) (16, 1.41859977405507549975e+02) (17, 1.41899216916401371691e+02) (18, 1.41773295279581532213e+02) (19, 1.41861497189838871691e+02) (20, 1.41908085327584728930e+02) (21, 1.41807316277165398333e+02) (22, 1.41774949334551081392e+02) (23, 1.41829093623895630571e+02) (24, 1.41836472768325791094e+02) (25, 1.41882145386178478930e+02) (26, 1.41909940790374264452e+02) (27, 1.41727335806925282213e+02) (28, 1.41887150268990978930e+02) (29, 1.41728629749257549975e+02) (30, 1.41870609741647228930e+02) (31, 1.41857835080463871691e+02) (32, -2.45101585854910410944e+01) (33, -2.46533592772804297510e+01) (34, -1.02371686336207901036e+01) (35, -1.01617780041504417454e+01) (36, -2.48304373294833240493e+01) (37, -2.47088064671280918105e+01) (38, -2.47242605731609401687e+01) (39, -5.85978522588834636053e+01) (40, -5.84932013814673297247e+01) (41, -5.85038031851277224860e+01) (42, -2.86948642688493507080e+01) (43, -5.86131049384698741278e+01) (44, -5.85503608052954547247e+01) (45, -5.86638617803678386053e+01) (46, -5.85245917504057757697e+01) (47, -5.85075202201828830084e+01) (48, -5.86568488394245974860e+01) (49, -5.86341742788777224860e+01) (50, -5.85673835044131152472e+01) (51, -1.02494983514668298596e+01) (52, 1.41770847771306023333e+02) (53, 1.41908323358733639452e+02) (54, 1.41894657593209728930e+02) (55, 1.41729899283487782213e+02) (56, 1.41769901726384148333e+02) (57, 1.41727463979263291094e+02) (58, -4.24718261790970874614e+00) (59, 9.59770859216181193574e+00) (60, -1.03191144329119239842e+01) (61, -5.85981391211376063666e+01) (62, -2.46406912402036724075e+01) (63, -2.46342886433723506912e+01) (64, -2.47483999774578151687e+01) (65, -5.85156501000151507697e+01) (66, -5.85932013755068652472e+01) (67, -5.85715827261433474860e+01) (68, -5.86296393675134055457e+01) (69, -5.84970465963110797247e+01) (70, -5.86065009375438563666e+01) (71, -5.85338568901047580084e+01) (72, -5.85124396597370974860e+01) (73, -5.86112372641787402472e+01) (74, -5.85617011328563563666e+01) (75, -5.86182746206745974860e+01) (76, -5.84790290062651507697e+01) (77, -5.86421698843464724860e+01) (78, -4.10600180708262101348e+01) (79, -5.85855902945027224860e+01) (80, -5.86392340948209636053e+01) (81, -1.88173972307240120472e+01) (82, 1.41816312860686764452e+02) (83, 1.41890873413522228930e+02) (84, 1.41875925894815907213e+02) (85, 1.41742161247868523333e+02) (86, -9.66756776814050056146e+00) (87, -2.46567007497671184524e+01) (88, -5.35360800384703772181e+00) (89, -2.03050476334676499590e+00) (90, -9.99583266158772154597e+00) (91, -9.85069106002522154597e+00) (92, -8.06654873267822836169e+00) (93, -8.13083706573658560046e+00) (94, -8.02577724830322836169e+00) (95, -7.99012661502771948108e+00) (96, -9.99760268111897154597e+00) (97, -5.86545417075381152472e+01) (98, -5.85936957587823741278e+01) (99, -5.86404914175495974860e+01) (100, -5.86460883383974902472e+01) (101, -5.86750006963834636053e+01) (102, -5.85000983541235797247e+01) (103, -5.86425605108365886053e+01) (104, -2.49965607607312989558e+01) (105, -9.48760604189387457552e+00) (106, -9.58123397158137457552e+00) (107, -1.80042663161942995131e+00) (108, -1.92364579745527075616e+00) (109, -4.60525956121793456077e+00) (110, -4.21503815013590799055e+00) (111, 1.41856052856881603930e+02) (112, 1.41751347038884148333e+02) (113, 3.71476415985551755572e-01) (114, -5.54464230237047495109e+00) (115, 4.89100875167098825269e-01) (116, 1.45924812724731580715e+01) (117, 1.56661253562440583309e+00) (118, 8.53480749755470835538e-01) (119, 9.72466263402985559017e-02) (120, 1.76940234326271900178e-01) (121, -1.00166914567462184138e-03) (122, -1.92663850573186745674e-01) (123, -9.71768195870366446876e-01) (124, -9.56128871531102575432e+00) (125, -8.76174518274613767232e+00) (126, -3.34110905519777601214e+00) (127, -3.41241032919937437029e+00) (128, -3.33455388537699048968e+00) (129, -3.43584172717386548968e+00) (130, -2.69730085230277127906e+00) (131, -2.67658551878140515967e+00) (132, 3.02567598387855518638e-01) (133, 3.56599213290948569011e-01) (134, 4.57885017751080369841e-01) (135, -2.09069703388838457059e-01) (136, -3.60915060492149053495e-02) (137, -5.93658193874861517259e-01) (138, 8.27991171137497650179e-01) (139, 1.07132102104351858429e+01) (140, 1.41753001090128407213e+02) (141, 1.41733170766372666094e+02) (142, -9.88313675456709361811e+00) (143, 2.31003158959077437018e+00) (144, 4.46629240382554648647e+00) (145, 9.85324212376317198903e+00) (146, 9.85541497383555586964e+00) (147, 1.12898100233751863541e+00) (148, 1.15603178433257669511e+00) (149, 1.19741972229558557572e+00) (150, 9.11022891827540148846e-01) (151, 5.66182752771394071090e-01) (152, 8.15058628433960929982e-01) (153, 5.81549157442451392086e-01) (154, 8.88996529913278821233e-01) (155, 8.59496643704048213230e-01) (156, 9.79860224486862385618e-01) (157, 1.62833447454273061439e+00) (158, 2.24955598788453192682e+00) (159, 1.32262185473754545484e+00) (160, 1.43911420356519759167e+00) (161, 1.48274213623292983044e+00) (162, 1.12631785097372261184e+00) (163, 9.34305993422333336262e-01) (164, 4.95132580528291010857e-01) (165, 5.20300156061793250828e-01) (166, 4.55086926928530699499e-01) (167, -6.15734287713651795571e-01) (168, 1.41887589719135746691e+02) (169, 5.51545202610607132598e-01) (170, -6.59831898523295556913e+00) (171, 1.09288162926812741915e+01) (172, 4.57914030570628760586e+00) (173, 4.62530119735839484463e+00) (174, 4.54274503905418036709e+00) (175, 4.60377410072925208340e+00) (176, 4.53716642428281424770e+00) (177, 4.61788542587401984463e+00) (178, 3.24542175872074833975e+00) (179, 2.51512296578850547135e+00) (180, 1.33792271897621573018e+00) (181, 1.28625035345979155110e+00) (182, 1.38314366400666632906e+00) (183, 1.40736241698689856783e+00) (184, 4.62315276283862708340e+00) (185, 4.50329802204015372524e+00) (186, 4.69643832306678721267e+00) (187, 4.70817538659389445144e+00) (188, 4.71513339440639445144e+00) (189, 1.05549679178050528350e+01) (190, 1.06767086426964770141e+01) (191, 1.62373334483745646040e+00) (192, 4.82656993100674891473e-01) (193, 6.21183875703958721104e-01) (194, -1.30842037576443526170e-02) (195, -3.86468462839936743869e-02) (196, 1.41500970330360620331e+00) (197, 1.46429529016090320681e+00) (198, -6.53331654382670734549e+00) (199, 1.39474805871606672980e+01) (200, 1.91754485813781130332e+01) (201, 8.53544370941104446615e+00) (202, 8.41907407826962028707e+00) (203, 8.51759092620791946615e+00) (204, 5.63347942803306889203e+00) (205, 5.74889690850181889203e+00) (206, 5.75021526638670277265e+00) (207, 5.72219402764244389203e+00) (208, 5.72248089734716725019e+00) (209, 5.74078533474607777265e+00) (210, 5.82477581177158665326e+00) (211, 5.66695110921068501142e+00) (212, 8.16400622693198840807e+00) (213, 1.05628597627631197753e+01) (214, 1.06422298888913164916e+01) (215, 1.05421444329670439544e+01) (216, 1.05942623506537447753e+01) (217, 1.05845516587844858947e+01) (218, 1.06670040528527270141e+01) (219, 1.06799313019267092528e+01) (220, 6.27937898805174699035e-01) (221, 5.26727160995150489597e-01) (222, -3.26814551093811689331e-01) (223, 1.67626209996770270116e+00) (224, 1.32780846928430484866e+00) (225, 1.49558191721511768435e+00) (226, 1.48722619538379596804e+00) (227, 1.45697107141090320681e+00) (228, 6.56953452230347778595e+00) (229, 6.70032065064562942780e+00) (230, 2.77197944419869379828e+01) (231, 1.20900344704718083477e+01) (232, 1.35354994849932861456e+01) (233, 5.64681560967369389203e+00) (234, 5.78695232842369389203e+00) (235, 5.71074383382006001142e+00) (236, 5.78984540377064060834e+00) (237, 3.91181024245223607494e+00) (238, 2.29597633013432833593e+00) (239, 3.65205574204672567262e+00) (240, 8.65578130566568582083e+00) (241, 1.91931121570869791526e+01) (242, 7.97206896660226504991e+00) (243, 1.05769344683042536559e+01) (244, 1.05459713342836867156e+01) (245, 1.06107784624448786559e+01) (246, 1.05954220186224947753e+01) (247, 1.05198360796323786559e+01) (248, 1.37304577504045277614e+00) (249, 1.15068544796472937985e-01) (250, 4.11258828162600120759e-01) (251, 3.40536415417513271819e+00) (252, 3.88521978521114519367e+00) (253, 1.47562951569629596804e+00) (254, 1.48655480866504596804e+00) (255, 1.42457360749317096804e+00) (256, 1.37342614655567096804e+00) (257, 6.55681479425086166657e+00) (258, 2.00922019680652645945e+01) (259, 2.77637641737648444007e+01) (260, 2.77947761351653532813e+01) (261, 8.03676013020175616930e+00) (262, 8.03018663940328281114e+00) (263, 8.07986315456527393053e+00) (264, 5.69963543538256001142e+00) (265, 4.07800089809040677835e+00) (266, 2.27152564803069445531e+00) (267, 1.74432713286265284047e+00) (268, 3.65115282347501413085e+00) (269, 1.92776214403911936301e+01) (270, 1.92369048816963541526e+01) (271, 1.05783565904251108947e+01) (272, 1.06149593706480036559e+01) (273, 1.05149105455032358947e+01) (274, 1.05571590814045439544e+01) (275, 2.46057335921294466630e+01) (276, 1.30895426952590252512e+01) (277, 1.47751937682892631187e-01) (278, 2.00644725625520026213e+00) (279, 2.23265300928669407909e+00) (280, 6.63981650472535278595e+00) (281, 1.41622400258851932620e+00) (282, 1.39020471249891208743e+00) (283, 1.45254602258277820681e+00) (284, 1.32703332578016208743e+00) (285, 2.00507651989970234752e+01) (286, 2.04314846135589647247e+01) (287, 1.87052440275503180089e+01) (288, 8.07903307793039004991e+00) (289, 8.01435412210720699022e+00) (290, 8.14249742892879169176e+00) (291, 8.06034411606687228868e+00) (292, 7.98622912285226504991e+00) (293, 2.59079018902116242629e+00) (294, 1.25453729566703398035e+00) (295, 1.44187805216764153293e+00) (296, 8.29083618978510905606e+00) (297, 1.91980621067687380332e+01) (298, 1.91462066395088541526e+01) (299, 8.09684313205379169176e+00) (300, 1.05578121545961867156e+01) (301, 1.05157711397162447753e+01) (302, 1.03831306133810024050e+01) (303, 1.04072395038250427035e+01) (304, 2.46036461927659289017e+01) (305, 2.64772193070740513576e+00) (306, 1.16417490782291327411e-01) (307, 2.74031486474747936199e+01) (308, 1.51493036356094568085e+00) (309, 1.32965783749891208743e+00) (310, 1.45495691125465320681e+00) (311, 1.38961267446351932620e+00) (312, 2.01572410365257290721e+01) (313, 2.76878120238372282813e+01) (314, 1.87567821149779341283e+01) (315, 7.98812731472152393053e+00) (316, 1.06205929185501108947e+01) (317, 1.05690548311224947753e+01) (318, 1.06906063447943697753e+01) (319, 1.05750362764349947753e+01) (320, 1.06247921328297625365e+01) (321, 2.23415171345234764289e+00) (322, 1.27722025793524385229e+00) (323, 1.34839820199028470604e+00) (324, 8.37272095391999293668e+00) (325, 1.91775970158978807945e+01) (326, 1.92582427782818186301e+01) (327, 8.03029650566476504991e+00) (328, 8.15230579045909564684e+00) (329, 1.04023444872740249423e+01) (330, 1.04640815440956096438e+01) (331, 1.03606452677789668826e+01) (332, 1.03712531809154491214e+01) (333, 6.56513201047275352096e+00) (334, 2.48433301791126552871e+01) (335, 3.63194262619048346963e+00) (336, -1.92948561257737138952e+00) (337, 1.31679773305726932620e+00) (338, 1.39217615102601932620e+00) (339, 6.60434286744250442780e+00) (340, 4.46571095351752376246e+01) (341, 2.47911023839886013320e+01) (342, 9.94260250615510798866e+00) (343, 9.95792843239936686928e+00) (344, 1.00205993338170991080e+01) (345, 1.00588805808368668693e+01) (346, 9.90844113218221522743e+00) (347, 1.06516659151068697753e+01) (348, 1.06248897950402270141e+01) (349, 5.93185366824892312820e+00) (350, 1.49195289694086530297e+00) (351, 2.22209240394431528642e+00) (352, 1.91809844670697557945e+01) (353, 1.90944427175327646751e+01) (354, 8.15572375920909564684e+00) (355, 8.05447863159078281114e+00) (356, 7.88672458433526379906e+00) (357, 1.04714667980018596438e+01) (358, 1.03938361850026588229e+01) (359, 9.61107182765009504521e+00) (360, 9.54323125892880064214e+00) (361, 1.01762349368086777446e+01) (362, 2.43536841039831415401e+01) (363, 1.29488478116248728611e+01) (364, -6.25785574021220636354e+00) (365, 3.01854042589186661871e+01) (366, 1.32905358796192096804e+00) (367, 4.46173207153257465052e+01) (368, 2.48316114291126552871e+01) (369, 9.98117062287959910805e+00) (370, 9.89132687287959910805e+00) (371, 9.98493038701448298866e+00) (372, 1.00369018300119385856e+01) (373, 9.96770015942487574989e+00) (374, 9.95997921215925074989e+00) (375, 1.06095028336397181334e+01) (376, 1.06745174865475664916e+01) (377, 3.31637669387129863097e+00) (378, 1.55917067453547431022e+00) (379, 2.51804942247349750062e+00) (380, 1.91428558079406130332e+01) (381, 8.00502184522646587084e+00) (382, 8.08209703979390781114e+00) (383, 5.70846721951170277265e+00) (384, 1.03742866252008418826e+01) (385, 1.04611518565956096438e+01) (386, 9.56743169093134504521e+00) (387, 2.31112505195079052100e+01) (388, 2.32702226934371196876e+01) (389, 2.50658152607401563117e+00) (390, 2.42135192593295922592e+00) (391, 9.19577602675610528138e+00) (392, -1.56622413506463908917e+00) (393, 5.93109594830498565443e+01) (394, 1.33892907549811290835e+00) (395, 5.91602514782175887831e+01) (396, 2.40547135385639450078e+01) (397, 9.88672482060823298866e+00) (398, 1.00298278464618668693e+01) (399, 4.12012637150819571730e+00) (400, 4.00276186806495459791e+00) (401, 4.00207217154438765760e+00) (402, 1.55657533887935506378e+00) (403, 5.05084644563584550525e+00) (404, 2.28995580667025055988e+00) (405, 3.26306858691243251158e+00) (406, 1.67420363799019766837e+00) (407, 2.38178199843667437463e+00) (408, 4.02149070272887243505e+00) (409, 8.14568347600597064684e+00) (410, 3.53751714376679116114e+00) (411, 4.41127094126279661879e+00) (412, 1.04059028361383418826e+01) (413, 9.76671268150720095491e+00) (414, 9.47263188922407728398e+00) (415, 2.32656694648204052100e+01) (416, 2.31949358207521640907e+01) (417, 3.08415592458966214551e-01) (418, 5.45305241888507907788e+00) (419, -1.19555521205200943058e+01) (420, -5.14900529791553429604e-01) (421, 1.88498041756644219014e+00) (422, 6.95717874090514243335e+00) (423, 2.43401738920981713932e+01) (424, 1.00777526481691346305e+01) (425, 9.99433590310249186928e+00) (426, 9.98289791333112574989e+00) (427, 4.02344668400819571730e+00) (428, 4.03450625879104407545e+00) (429, 1.56657290045333730255e+00) (430, 1.58372988511038648163e+00) (431, 2.26061010429030861957e+00) (432, 2.29989233308798279865e+00) (433, 1.45063368095908984401e+00) (434, 5.29474940193239818065e-01) (435, 2.77265914844481642376e+00) (436, 4.04724753121579183812e+00) (437, 8.07682360825437228868e+00) (438, 4.72506381134803721267e+00) (439, 4.58223651594455549940e+00) (440, 4.60490498191650221571e+00) (441, 1.00874581040740274318e+01) (442, 9.46782232338192564214e+00) (443, 2.31992632148204052100e+01) (444, 1.00430279591533313521e+01) (445, 2.44402874930901692352e+00) (446, 5.62684392428144519727e+00) (447, -5.48025647801297655093e+00) (448, -1.74838455776432084576e+01) (449, 2.75582807552489716940e+00) (450, 3.05656982874948512929e+00) (451, 1.00267150534931168693e+01) (452, 3.97053468537202425281e+00) (453, 9.45999150985481840337e+00) (454, 9.38283445227345502815e+00) (455, 9.29181272077759778938e+00) (456, 4.55505898240234796681e-01) (457, 4.55304479244377557912e-01) (458, 7.81989259625312405078e-01) (459, 9.03912014013169451410e-01) (460, 1.23368941925714881158e+00) (461, 5.52004556029675907958e-01) (462, 5.67824873000024266112e-01) (463, 4.25392979942160120999e+00) (464, 3.95346701736295669249e+00) (465, 3.50395391358009034022e+00) (466, 4.71894198219592997390e+00) (467, 4.46033099911148855909e+00) (468, 4.43999954268100260890e+00) (469, 9.81217481982907457905e+00) (470, 2.32988550928782984784e+01) (471, 1.00474408039304385909e+01) (472, 9.94065369604555648664e+00) (473, -2.04651454819959344178e+00) (474, 5.53977117186531131665e+00) (475, -3.36233919592989494163e+00) (476, 1.41788395378727898333e+02) (477, 6.46614271781019933627e-01) (478, 4.04898206407668581619e+00) (479, 9.92516310554942293720e+00) (480, 2.28424151159476807038e+01) (481, 2.28126604772758057038e+01) (482, 2.28159319601606895844e+01) (483, 9.49317978133288775666e+00) (484, 1.72791700255214752957e+00) (485, 3.92311936282129514186e-01) (486, 5.18181832818031207211e-01) (487, 4.85147362112062885409e-01) (488, -4.81070194177959584159e-03) (489, -1.21788427963401435505e+00) (490, 5.79610760181783146727e-01) (491, 4.68341960048713357168e+00) (492, 3.98610861818039863280e+00) (493, 1.94065964945263402797e+00) (494, 2.15037558977490750323e+00) (495, 2.04377703828526469110e+00) (496, 2.15259661985350581048e+00) (497, 4.22413610611633671965e+00) (498, 9.93741272328821700910e+00) (499, 1.00563885637971530684e+01) (500, 6.31902378468706782400e+00) (501, 9.72867084359439249219e-01) (502, -2.42645759790774517839e-01) (503, 5.51387395581349437634e+00) (504, 5.93827966643766558263e+00) (505, 1.83206262107064210554e+00) (506, 4.48437711987736342678e+00) (507, 3.73001873977084796863e+00) (508, 2.27983355216335823457e+01) (509, 2.28015337653111984650e+01) (510, 2.28180803946804573457e+01) (511, 1.00324200609180103072e+01) (512, 1.18895867205903771335e+00) (513, 3.14427439111331641364e-01) (514, 3.51790942761341374201e-01) (515, -5.97076473662520790242e+00) (516, -1.61853631406661762071e+01) (517, -2.60378381345561171756e+00) (518, 7.69264171287074804972e-01) (519, 3.67087102866476966412e+00) (520, 4.05330223063672079320e+00) (521, 1.56832497916818391914e+00) (522, 1.41804530012727370014e+00) (523, 1.56137388208328875550e+00) (524, 2.99277961818755633416e+00) (525, 6.97208379447271475726e+00) (526, 3.93386577553933802776e+00) (527, 2.29761143554062430283e+00) (528, 2.95055799792598261178e+00) (529, -1.49621676362017286266e+00) (530, -3.67658290066598336665e+00) (531, -9.78919064467825617015e-01) (532, -6.64847472186152721463e+00) (533, 1.36440281427092902078e+00) (534, 4.44829313475730536709e+00) (535, 1.19604581359630879334e+00) (536, 5.41795985065894036836e+00) (537, 2.29046709753226807038e+01) (538, 2.32376551446866557171e+01) (539, 9.90997742800442260602e+00) (540, 2.02300224798679639804e+00) (541, 1.15307216761173406128e-01) (542, -5.48665602249418515868e-01) (543, -1.60867181129392875505e+01) (544, -1.61881463423010600877e+01) (545, -1.67578623624534100989e-01) (546, 8.92889451198847550195e-01) (547, 1.29969514233397176461e+00) (548, 1.46423562220931802180e+00) (549, 1.37063928979755034199e+00) (550, 1.17698629569359103364e+00) (551, 1.62731626638590487488e+00) (552, 6.97046026825716147357e+00) (553, 1.55372190987934777340e+00) (554, 2.98361432972883755532e-01) (555, 4.40917853218851085728e+00) (556, 2.88007459650825037301e+00) (557, -5.51467420038717737185e+00) (558, -1.16817811094614505407e+01) (559, -1.04343932664958405354e+00) (560, 1.41783756706852898333e+02) (561, 4.16364881659390917434e+00) (562, 5.80550596037845756392e-01) (563, 9.81129227469709319642e-01) (564, 3.20207155012048394482e+00) (565, 1.12098412874179960141e+01) (566, 2.33898646128725573590e+01) (567, 2.32597742830764815380e+01) (568, 1.55271783263893548011e+00) (569, 4.11701601347326695546e-01) (570, 2.77978925879850291558e-01) (571, -2.87371173911639710141e+00) (572, -7.28996695805944727731e-01) (573, 4.63255033544718641814e-01) (574, 8.13853669021714298815e-01) (575, 1.19453460913914155661e+00) (576, 1.44966653339267526057e+00) (577, 1.46189187444449220088e+00) (578, 1.47962949806272225928e+00) (579, 1.54697569468437823303e+00) (580, 4.50257089580864100498e+00) (581, 1.51188841602077195247e+00) (582, -1.45758893857907412261e-02) (583, 4.44957160157499309605e+00) (584, -1.87064113241876128768e+00) (585, -3.53996790000079553096e+00) (586, -6.85671514636831869183e+00) (587, 4.19466341462968017595e-01) (588, -6.24354299607158136354e+00) (589, 4.18904837796182372145e-01) (590, 8.86741381908427772629e-01) (591, 5.83131015691791931843e-01) (592, 1.52364494384140014560e+00) (593, 2.58315027971424848729e+00) (594, 2.27548937586435107150e+00) (595, 4.33607497766377925075e+00) (596, 2.21258088724804968805e+00) (597, 1.41075662036254589893e+00) (598, 9.04755478541930835412e-01) (599, 9.61718703541355801612e-01) (600, 9.16832181666482060045e-01) (601, 8.33635161672223179430e-01) (602, 7.59879639938044526559e-01) (603, 3.99763205866063087157e+00) (604, 3.52325933648219757899e+00) (605, 4.58224153827245661574e+00) (606, 4.62367220531518885451e+00) (607, 4.36150832429292201198e+00) (608, 4.40896926775338648952e+00) (609, 2.47480848813675047282e+00) (610, 8.96375962388268199277e+00) (611, -1.04252777900609627793e+00) (612, -5.16491672620758635048e+00) (613, -5.34915201524169958702e+00) (614, -7.66159277408065442216e-01) (615, 9.40810585478982019936e+00) (616, -6.34366506787419748292e+00) (617, 1.59756466087281401300e+00) (618, 6.55906828875578495897e-01) (619, 6.18052820498980137742e-01) (620, 1.05351889626119721299e+00) (621, 1.12134726093147363279e+00) (622, 2.51531984062560942661e+00) (623, 2.42684937419065382969e+00) (624, 2.68117742680849380221e+00) (625, 2.61600408398451156344e+00) (626, 4.63456087868030497390e+00) (627, 1.09612869958062741915e+01) (628, 2.52123384364273661618e+01) (629, 1.91117767093583452720e+01) (630, 1.91041290012999880332e+01) (631, 1.06465084444037447753e+01) (632, 1.06643185059777270141e+01) (633, 4.67279330204542109328e+00) (634, 4.73570833663757273513e+00) (635, 4.70464144210632273513e+00) (636, 4.43658157393100260890e+00) (637, 3.79151958711332071061e+00) (638, 8.94041367661705699277e+00) (639, -4.05033794375088795903e+00) (640, -5.34720499226720846764e+00) (641, -2.62368497056741256657e-01) (642, 1.07922132903354750511e+00) (643, 9.42399941096743631874e+00) (644, 1.41813291620452389452e+02) (645, 1.41810105580825791094e+02) (646, 5.78933588370727392203e-01) (647, 9.41477851930439091355e-01) (648, 1.00972126609402867992e+00) (649, 9.39768867555439091355e-01) (650, 7.78556995212779945348e+00) (651, 1.35380492473146532006e+01) (652, 6.15487305608946400071e+00) (653, 1.36144286433360193200e+01) (654, 2.52813875116732234005e+01) (655, 1.90959930119916307945e+01) (656, 1.92705230487390863914e+01) (657, 4.45769764770444965052e+01) (658, 1.92034698201223719138e+01) (659, 1.91709808109208452720e+01) (660, 8.05840319511789004991e+00) (661, 1.05888241197219858947e+01) (662, 1.05056393037787447753e+01) (663, 1.00537464459887502244e+01) (664, 4.15388994471843631118e+00) (665, 6.41321329417850916066e-01) (666, 1.74951053297990488655e-01) (667, -6.57971180236962771559e-01) (668, 1.48097526615408003892e+00) (669, 9.00031358045092311215e+00) (670, 5.33313783013538600386e-01) (671, 1.41771995231498465273e+02) (672, 1.41759086299676880571e+02) (673, 1.41773630972940907213e+02) (674, 1.10868363196631047884e+01) (675, 4.70609408180530497390e+00) (676, 1.82136736706536659369e+01) (677, 5.85062169652995667235e+00) (678, 8.60196684875400485737e+00) (679, 1.49420600691122853476e+01) (680, 1.48450507902784210046e+01) (681, 1.91749650034469674154e+01) (682, 3.02311317950009339484e+01) (683, 3.01123817964910500677e+01) (684, 3.02229408800124161871e+01) (685, 4.47206959564861392664e+01) (686, 4.46120900016900634455e+01) (687, 4.46151295554515456843e+01) (688, 1.87505382155133268895e+01) (689, 8.04101427761214893053e+00) (690, 1.02217152034393308213e+01) (691, 1.02195240323892591050e+01) (692, 1.00621631880751607468e+01) (693, 9.93920284720692492897e+00) (694, 9.93178707572254992897e+00) (695, 4.11729301739157893536e+00) (696, 6.36184589209262685294e-01) (697, 2.07776983532495673757e+00) (698, -2.39113462463218908738e+01) (699, 1.41918601673085674975e+02) (700, 1.41736033316690907213e+02) (701, 1.41779606316227898333e+02) (702, 1.25523285027144693160e+00) (703, 7.25800680328615133163e+00) (704, -6.53283437205279682303e+00) (705, -6.55102284861529682303e+00) (706, -6.67906239492619668852e+00) (707, -6.55503285540068958426e+00) (708, -6.62309925867045556913e+00) (709, 1.15314861111743098832e+01) (710, 1.15319194667441493607e+01) (711, 1.15000285976035243607e+01) (712, 1.15096172191602832413e+01) (713, 2.01263511379871395945e+01) (714, 2.00615379040751484752e+01) (715, 2.04003810956987905456e+01) (716, 2.04392971135589647247e+01) (717, 1.18378459900916990222e+01) (718, 7.09109846173645586020e+00) (719, 7.22889143644692033774e+00) (720, 4.90911265262508500484e+00) (721, 6.97845305482388944540e+00) (722, 8.88508173390035871364e+00) (723, 8.95060298158531431056e+00) (724, 8.89435297562484983303e+00) (725, 1.41558035221577838136e+00) (726, -1.10778545813803983577e+01) (727, 1.41847452994425282213e+02) (728, 1.41811735223968014452e+02) (729, 1.41834080193181023333e+02) (730, 1.41914707642037853930e+02) (731, 6.55925180398079787913e-02) (732, 1.14467998318774348832e+01) (733, 5.05128333058447731574e-01) (734, -8.49111104123980275915e-01) (735, -8.71437767260462514685e-01) (736, -6.51510975373710010672e+00) (737, -6.54795277727568958426e+00) (738, -6.61636097593033944975e+00) (739, -6.68071034414494668852e+00) (740, -6.66769764808738862882e+00) (741, 1.14333049603206760025e+01) (742, 1.16130656995279419874e+01) (743, 6.54844076634301330841e+00) (744, 6.56910727620972778595e+00) (745, 2.01396323939476040721e+01) (746, 2.00987876629147557139e+01) (747, 2.00200278957996395945e+01) (748, 5.04258432784223664669e+00) (749, 1.20075725481213506640e+01) (750, 2.95605776609323527282e+01) (751, 8.11254756650802022477e+00) (752, 3.59111846857463135052e+00) (753, -1.75229141796687173382e+01) (754, 1.41855827014882549975e+02) (755, 1.41789542842645630571e+02) (756, 1.41806382436294541094e+02) (757, 1.41836961049575791094e+02) (758, 1.41796751093108639452e+02) (759, 1.41778342887748465273e+02) (760, -1.74262039745905923382e+01) (761, -1.86515918709432138023e+00) (762, -1.82098195292150033531e+00) (763, -9.31502463035971395300e-01) (764, -8.16097194068820641633e-01) (765, -9.71696301272608664590e+00) (766, -8.44393091016203634069e-01) (767, -1.97237354852353585777e+00) (768, -4.18301071564858073515e+00) (769, -1.88716847039853585777e+00) (770, -9.66773205718495276528e+00) (771, -6.58773548764909122610e+00) (772, 1.49938439552856372927e+00) (773, 6.69603598565711166657e+00) (774, 6.60126059205187942780e+00) (775, 2.00658591961178807139e+01) (776, 2.38857926294671898404e+01) (777, 5.34492751472552285463e+01) (778, 2.00095298489246395945e+01) (779, 1.30401696984840320681e+00) (780, 1.41810374137003407213e+02) (781, 1.41791148062784657213e+02) (782, 1.41916209097940907213e+02) (783, 1.41832560416300282213e+02) (784, 1.83206464340493946352e+00) (0, 1.41851359244425282213e+02) (1, 1.41923795770843014452e+02) (2, 1.41864274289448246691e+02) (3, 1.41911924432952389452e+02) (4, 1.41834244985122666094e+02) (5, 1.41753812860686764452e+02) (6, 1.41788566280145630571e+02) (7, 1.41844840694208130571e+02) (8, 1.41871671747405514452e+02) (9, 1.41872489612538799975e+02) (10, 1.41921305533487782213e+02) (11, 1.41835386347014889452e+02) (12, 2.42364132700656265129e+00) (13, 2.46183359669944978876e+00) (14, 1.06253960530132390838e-01) (15, 1.88584284285873510223e-01) (16, 1.41746220085759148333e+02) (17, 1.41866404410440907213e+02) (18, 1.41743864130218014452e+02) (19, 1.41783683463920340273e+02) (20, 1.41788969110686764452e+02) (21, 1.41874973755319103930e+02) (22, 1.41783134147514090273e+02) (23, 1.41844834584732041094e+02) (24, 1.41747166130681023333e+02) (25, 1.41739860218007549975e+02) (26, 1.41876670520741924975e+02) (27, 1.41779673453409657213e+02) (28, 1.41856046747405514452e+02) (29, 1.41793748158950791094e+02) (30, 1.41811326283950791094e+02) (31, 1.41773081656534657213e+02) (32, 4.92599057859039479723e+00) (33, 1.07035034379846649699e+01) (34, 1.08546961400972765688e+01) (35, 1.09516199756728571657e+01) (36, 1.05535901060414651909e+01) (37, 2.52469097778511439856e+01) (38, 1.08983728964196604494e+01) (39, 1.07742884237634104494e+01) (40, 1.08644373569952410463e+01) (41, 1.08960352618562144045e+01) (42, 1.08278101537691515688e+01) (43, 1.08546778340207499269e+01) (44, 1.09019129354821604494e+01) (45, 1.08933558095561426882e+01) (46, 1.08694788594113749269e+01) (47, 1.07877563766128616862e+01) (48, 4.98931494907631911673e+00) (49, 1.08544397954212588076e+01) (50, 1.07359619370586472087e+01) (51, 2.69632966700418963413e+00) (52, 1.41889829706389889452e+02) (53, 1.41796104121942505571e+02) (54, 1.41876743774850353930e+02) (55, 1.41808640737075791094e+02) (56, 1.41874985959370121691e+02) (57, 1.41839353632171139452e+02) (58, 1.14572079086111013879e+01) (59, -2.66977489277497559428e+00) (60, 5.95226449924498890454e+00) (61, 1.07161560288555222087e+01) (62, 7.42144683678868144483e+00) (63, -5.69756779702059179549e-02) (64, 4.64820786611126735011e+00) (65, 1.06803357174706796684e+01) (66, 1.06774121245456079521e+01) (67, 1.05778088552964071312e+01) (68, 1.05492871275258401909e+01) (69, 1.09105799276696604494e+01) (70, 1.09459070790873926882e+01) (71, 1.09257227558957499269e+01) (72, 1.08811121587025088076e+01) (73, 1.07736780722009104494e+01) (74, 1.07900171879993838076e+01) (75, 1.08482874486910265688e+01) (76, 1.08835352514254015688e+01) (77, 1.08517908681498926882e+01) (78, 1.09124048877822321657e+01) (79, 1.06199279955513077311e+01) (80, 6.34224119122199425647e+00) (81, 1.60939933939889812109e-01) (82, 1.41814530629653916094e+02) (83, 1.41763981316227898333e+02) (84, 1.41877445679147228930e+02) (85, 1.41902659293253407213e+02) (86, 1.03030873744717599294e+01) (87, 5.74052396269008058383e-01) (88, 1.90295837389552424668e+00) (89, 5.62439438210218037306e-02) (90, -3.60225267828676032345e-01) (91, -2.74550221980783326625e-01) (92, 4.78404159662914008067e+00) (93, 1.26447344075276157938e+00) (94, 1.26446122925116322122e+00) (95, 9.06863922710699155161e-01) (96, 1.54660131150351043416e+00) (97, 1.28034898451084799831e+00) (98, 1.90644187736417958234e+00) (99, 1.77525901678111241999e+00) (100, 1.47308099661927638380e+00) (101, 2.90050124532287290080e+00) (102, 3.14726807120445917221e+00) (103, 1.53948714347280790626e+00) (104, 2.97845534390514066203e+00) (105, 3.14551108461724426846e+00) (106, 1.88634951128293826272e+00) (107, 1.77412416501571490457e+00) (108, 9.73880109485572353911e-01) (109, 1.98651054212736488669e-01) (110, 1.58600270448785822530e-02) (111, 1.41833701778192505571e+02) (112, 1.41742680046696648333e+02) (113, -1.83622305033871358049e+00) (114, 1.88115543817636149404e-01) (115, -8.51464480367709386499e-01) (116, -1.01549062154213531883e+00) (117, 5.51436113306831510172e-01) (118, 9.17378985260096535548e-01) (119, 1.81546207835501766104e-01) (120, 2.66216382211139079850e-01) (121, 9.66166720954263896770e-02) (122, -2.87495462926542558191e-02) (123, -2.37812793584978379724e-02) (124, 7.12631102928426990450e-02) (125, -1.25461947440917431784e-02) (126, 1.97183573080902396768e-02) (127, -9.81252266302056960767e-03) (128, -1.13567150963778118467e-02) (129, -1.36541636327450949251e-01) (130, 3.17896857205907795718e-02) (131, 1.73184190506335405901e-01) (132, 2.80273318366400292501e-01) (133, 1.53413994675211506902e+00) (134, 1.40670735764776289045e+00) (135, 1.02030430568673069480e+00) (136, 3.14425616216048808838e-01) (137, -2.48713566852808681817e-01) (138, -4.21805035527407723439e-01) (139, 1.01170925594034688544e+00) (140, 1.41882706906635746691e+02) (141, 1.41809348750848755571e+02) (142, 1.89948415432080497389e+00) (143, -2.53089114747115173643e+00) (144, 1.63040063352494057902e+00) (145, 5.15046144505359793087e-01) (146, -7.88079502433609024870e-02) (147, 7.37519729152024350327e-01) (148, 4.11640784842038809366e-01) (149, 2.17779461236807719837e-01) (150, 4.03060782977846393527e-02) (151, -2.09504549414850707589e-03) (152, -1.81743321589211442868e-01) (153, -2.00406842150326919283e-01) (154, -2.55439794141206433231e-01) (155, -1.48207126635465397113e-01) (156, -3.63948366465342010301e-01) (157, -2.05616418028315345312e-01) (158, -2.66883503401717014913e-01) (159, -3.05434297681197106100e-02) (160, -8.79560908689417525474e-03) (161, 1.39891113267618022453e-01) (162, 8.91649845926633932702e-02) (163, -7.98939172783240739162e-03) (164, -8.68663309350297535572e-04) (165, -1.21548022365635832731e-01) (166, 5.31278549442012332227e-02) (167, 1.20829858569015136105e+00) (168, 1.41817106317718014452e+02) (169, -2.57144539747892686421e+01) (170, 9.60130664616738127570e-01) (171, -7.74150865000112098357e-01) (172, -3.27018395922137328213e-01) (173, 4.49348292246754488222e-01) (174, 6.95796090379059872788e-01) (175, 4.73948841207475435322e-01) (176, 5.00145134740323848987e-01) (177, -2.47346048266626830636e-03) (178, -1.02558146368956798478e-01) (179, -2.02848721530191511420e-01) (180, -2.59989358701344819291e-01) (181, -7.06058869525138244061e-02) (182, -3.87882570191566064532e-02) (183, -1.35665077251828081195e-01) (184, -3.59820787993545776473e-01) (185, -3.17086683317243100966e-02) (186, -4.18715458274229873625e-02) (187, -8.24233051300391067473e-02) (188, -3.34657240874198652625e-02) (189, -1.78264841624460185221e-01) (190, 3.37522328375571140091e-02) (191, -9.46002590860652720073e-02) (192, -3.94307446153587148885e-01) (193, -5.31637198815104961014e-01) (194, -1.65056070916968788964e+00) (195, -7.72232520217460582934e-01) (196, 1.07790161303169327311e+01) (197, 1.71713329109380286042e+00) (198, 1.30164188512491296734e+00) (199, -2.13110108359777922216e-02) (200, -2.60417934400004463802e-02) (201, 2.22960317192068213643e-01) (202, 1.87722241738630724051e-01) (203, 1.66809305406697361285e-01) (204, 5.87272614722488123240e-02) (205, -2.25218666366318764904e-01) (206, -1.54373095959117162534e-01) (207, -1.73675959782237071538e-01) (208, -1.15179864542121035420e-01) (209, 7.96266917797894546727e-02) (210, 2.30898310157628197659e-02) (211, -2.60880108822434189642e-02) (212, 1.24365970990901464344e-02) (213, -1.47569678480915206231e-01) (214, -9.28926007098509892712e-02) (215, -6.17506932378157485930e-02) (216, -2.62269634968665815711e-02) (217, -3.78656687223529048181e-02) (218, -1.13827467372536489387e-01) (219, -3.63174854988218054341e-01) (220, -4.89102601284147064931e-01) (221, -6.00195126372289000649e-01) (222, -5.72788549902133459213e-01) (223, -7.43396120423224893159e-01) (224, 2.14126107840087831491e+00) (225, 2.61177412800223729406e+00) (226, 5.18591686478281310713e+00) (227, -1.45509095312812489209e-02) (228, 7.40728317442616718269e-02) (229, 1.22428178498771272897e-01) (230, -1.09008820476911259811e-02) (231, 5.39909004050034141420e-02) (232, 1.26988954730584052699e-01) (233, 8.91898720341462031280e-02) (234, -1.62227091228619719858e-03) (235, -4.69785283592371663564e-02) (236, 1.46120463225217003811e-02) (237, 7.21926216694684097508e-02) (238, 6.96963859888889147864e-02) (239, -4.81182541630148421369e-03) (240, 5.46547228477251290091e-02) (241, -1.04940114120459004887e-01) (242, -1.86251974219734800498e-01) (243, -3.11822090200121637693e-01) (244, -1.13220367229643209539e-01) (245, -6.75531702124690380806e-02) (246, -1.71428904124460185221e-01) (247, -1.65038243440166737530e-01) (248, -5.01243139000825399521e-01) (249, -1.65864496586058418615e+00) (250, -1.30362502451639628021e+00) (251, -1.88444153838623229547e+00) (252, 1.06814514405018883281e+01) (253, 2.78247115395696065221e+00) (254, 2.52868379466560000424e+01) (255, 1.44995722066425503094e+00) (256, -3.59201912928515720846e-01) (257, 5.94763941907232474016e-01) (258, 8.82572262024610698639e-02) (259, 4.97356272451891304187e-02) (260, 4.44063564200819771433e-02) (261, 7.37988686856065750908e-02) (262, 3.20996529158387861047e-02) (263, -6.56797017243532788022e-02) (264, -8.34327445298718717304e-03) (265, 1.95532572099862328452e-01) (266, 1.75743154210940777382e-01) (267, 1.43924740888859009624e-01) (268, 1.53702584841037964702e-01) (269, 4.40231849979318759503e-02) (270, -9.44571233988511504975e-02) (271, -8.48824972017823836667e-02) (272, -1.67767487115326269231e-01) (273, -8.96723123275851158320e-02) (274, -8.69274392329075773489e-02) (275, -2.88362003203333938650e-01) (276, -8.72305650392486087163e-01) (277, -1.67431879696581642492e+00) (278, -1.68587275502417366368e+00) (279, -6.87298325814368893383e-01) (280, 1.06421814194805222087e+01) (281, 2.76834504935368075351e+00) (282, 2.53100068979289645199e+01) (283, 1.45944818746113003094e+00) (284, -1.35994941608185593296e+00) (285, -6.86286386503868528486e-01) (286, -3.01290713493975459425e-02) (287, 1.61420539170324478517e-01) (288, 1.34256326961157301803e-01) (289, 3.34851517077718457971e-02) (290, 7.98169410523210526298e-02) (291, 2.76186366292805809963e-02) (292, -1.14954519431215415604e-01) (293, -4.44528119369565488661e-02) (294, -2.44842760032958975391e-02) (295, 6.17566105052914579576e-02) (296, 2.35038808507815805138e-01) (297, 5.83603446911729953350e-02) (298, 1.35482248019130075561e-02) (299, -6.00113499809353315162e-02) (300, -1.23777005162863662502e-02) (301, -4.57198791274191565503e-02) (302, -2.93455630607729833770e-01) (303, -1.25851574731224435943e+00) (304, -5.57272515919066568912e-01) (305, -3.93820724434013613724e-02) (306, -3.83260586006787429270e+00) (307, 9.74930039334997652900e-04) (308, 1.07752014330513077311e+01) (309, 2.77032258990629687290e+00) (310, 5.93128393688425887831e+01) (311, 2.78236627706369565871e+00) (312, 1.69264525338691118606e+00) (313, 3.07876444065125598470e-01) (314, 2.95540878174898082043e-02) (315, 6.22750373182890115675e-02) (316, 1.64693006219169935100e-01) (317, 2.66593975304084684907e-02) (318, -3.95237496879576391540e-03) (319, -1.81123381930742038959e-01) (320, -1.40870696383867038959e-01) (321, -1.76951812920530998641e-01) (322, 5.50528062776506899034e-02) (323, 1.29407736825873281861e-01) (324, 8.68393508325971397177e-02) (325, 1.73008791131869732460e-01) (326, -4.40506566215603592718e-02) (327, 3.72135382894855440417e-02) (328, 1.36745322984853895365e-01) (329, -2.35749058079702950019e-01) (330, 3.52181175035024829345e-01) (331, 1.18727823510803576212e+00) (332, -3.87733773905228396028e-01) (333, 1.24807022094413355706e-01) (334, -2.19105257080961984828e-01) (335, 1.22596982560655032302e+00) (336, 1.06377380571252899699e+01) (337, 1.10455399269838903109e+01) (338, 5.92334082150087226637e+01) (339, 5.91684607067332137831e+01) (340, 1.33070095538920507572e+00) (341, 5.64192841313497020495e-02) (342, 9.30109279386569787196e-02) (343, 1.52442276626646194826e-01) (344, 1.67573932367156730461e-01) (345, 9.50852140051897942730e-02) (346, -1.32520395388058959130e-01) (347, -2.90758320013439153229e-01) (348, -3.37972897913946579429e-01) (349, -1.12089751628597952826e-01) (350, 9.62002950899718857480e-03) (351, 1.14878899378672988396e-01) (352, 1.53617328997286195502e-01) (353, 1.36228515191706728293e-01) (354, 3.89553598016723956476e-01) (355, 2.60458025646432500544e-01) (356, 1.26331336306881980569e-01) (357, -1.53376266775247238616e-01) (358, 2.16838586141988226563e-01) (359, -1.28211054521881084867e-01) (360, -7.71669169162807921936e-01) (361, 1.39909687819158856659e-01) (362, 1.67705099465524976043e-01) (363, 6.06006734697833238101e+00) (364, 7.48787807629230872664e+00) (365, -3.20781099036096328803e+00) (366, 2.38239863151514974504e+00) (367, 1.66517090360220123557e+01) (368, 1.72891294529821271109e-01) (369, 1.26692848764079005197e-02) (370, 1.80224064194397987082e-01) (371, 1.14746958166181717287e-01) (372, 1.97845397429573827131e-01) (373, 6.51230468613681057199e-02) (374, -1.24329480399541184021e-01) (375, -2.34709740499412428116e-01) (376, -4.54684328165545048606e-01) (377, -9.79135030611573836667e-02) (378, 2.93380167435557705213e-02) (379, 2.28009144192658219641e-01) (380, 1.10508298857840747687e-01) (381, 5.25839003622755374323e-01) (382, 3.50625376105532016169e-01) (383, 2.35842551601155941965e-01) (384, 1.17052817911247442062e-01) (385, -1.68463100839434248845e-01) (386, -1.95202556521971631875e-01) (387, -6.30967953081948307315e-01) (388, -3.37546158106583477077e-02) (389, 2.52171935475727304610e-01) (390, 1.35466438300893754487e+00) (391, 1.32053387153629642192e+00) (392, 2.76446447154237606725e-01) (393, -5.86600012335333653724e-01) (394, 5.91852697902545799025e+01) (395, 2.98320960471678064962e+00) (396, 1.31560774473202246604e-02) (397, -2.39851081616995892576e-01) (398, -6.94127945201165885702e-02) (399, -6.58940175400797994998e-02) (400, 2.14166199700939891004e-01) (401, 4.99137920616584546130e-02) (402, -6.01541934724651936039e-02) (403, -1.55751070457849277728e-01) (404, -7.09671289505098557004e-02) (405, -3.31656150222528131599e-02) (406, 2.06836046999417100256e-01) (407, 1.36161378009947847678e-01) (408, 2.42446120709578355479e-01) (409, 3.44681316709357532524e-01) (410, 4.58877327740415785762e-01) (411, 2.50124963016825130335e-01) (412, 1.29598605592156967958e-01) (413, -1.02133648130307980173e-01) (414, 5.82964983359608113211e-01) (415, -2.33441966988162469265e-01) (416, 5.27153217705228493983e-03) (417, 8.30856673274982582278e-01) (418, 7.38781257829104420765e-01) (419, 1.02723325921755948009e+00) (420, 8.69711244563842966748e-01) (421, -4.34721568058859464401e+00) (422, -2.44434446740431754463e+00) (423, 1.76846765487653279081e+00) (424, -1.10290407284566044366e-01) (425, -6.66883073381658170176e-02) (426, -5.93665077684577477402e-02) (427, 5.11190564125280216823e-02) (428, -4.97964724213380977025e-02) (429, -1.00172308256109288127e-01) (430, -1.17529718057746035420e-01) (431, -1.78816932720578025684e-01) (432, 4.34090905188810674553e-02) (433, 2.40130732184372697180e-01) (434, 1.15275150521430225226e-01) (435, 1.21007613118245663242e-01) (436, 2.16458664929705862923e-01) (437, 2.62930826937991302117e-01) (438, 6.97148015108025320696e-02) (439, -1.79916607095122332849e-02) (440, -8.26099928821054652062e-02) (441, 5.64577194150168715225e-02) (442, 3.98876850084099399130e-01) (443, -2.33472484566287469265e-01) (444, 8.62510224455373619712e-01) (445, 1.91713125927462302300e+00) (446, 7.92381091223447353578e-01) (447, 8.19258209906350010066e-01) (448, 2.52361909784700984005e+01) (449, -1.84903972656972781508e+00) (450, -9.79078590784058122587e-01) (451, 3.40111573567135005991e-01) (452, 2.01976739476494859815e-01) (453, -1.75950246595870607447e-01) (454, -3.10790698714834001670e-02) (455, 1.21487609337967733536e-01) (456, 3.88027086447730734653e-02) (457, 3.19459180927480976275e-02) (458, 1.01112455837596121322e-01) (459, 1.87627974059647956162e-01) (460, 2.91123545153769702765e-01) (461, 2.41672849639090581153e-01) (462, 2.12170867447255190319e-01) (463, 2.54109937578837208338e-01) (464, 1.37092440592889025508e-01) (465, 2.28448834845719567221e-01) (466, -1.10968438760871035420e-01) (467, -1.84898839912394502560e-01) (468, -1.79876000152841913904e-01) (469, 1.27738417735775156014e-01) (470, -7.74516293447424786223e-03) (471, -1.14458149207087092614e-01) (472, -5.23675245401606037632e-01) (473, 3.95429192865645984245e-01) (474, 8.34217227472424771584e-01) (475, 5.59393416959178768622e-01) (476, 1.41753092642862782213e+02) (477, -5.33307436988453731352e-01) (478, 7.50341513747026400694e-01) (479, 7.21591444695985684277e-01) (480, -4.73037409763004901286e-01) (481, -4.23724881481134185712e-01) (482, -1.45745814938126189153e-01) (483, 5.12544505707443059928e-02) (484, 7.83290508866494317175e-02) (485, -1.18755365608285996110e-03) (486, 4.06539030157023084655e-01) (487, 1.53795920579949979556e-01) (488, 2.14758488721700030455e-01) (489, 3.52307315356583883315e-01) (490, 4.28866344392523135554e-01) (491, 2.11815721567227804867e-01) (492, 1.15619239041505006416e-01) (493, -3.19889465733710839923e-02) (494, -3.74271700545493676837e-02) (495, -1.99541171661595323483e-01) (496, -9.80705772507347306455e-02) (497, 4.88235521247605136486e-02) (498, -2.62202372442155606791e-01) (499, -6.78163874340003580699e-01) (500, -2.80745049961056869492e-01) (501, 2.16115278506086028187e+00) (502, 9.70804772652744230044e-01) (503, -1.39434542702658568203e+01) (504, 7.93126987473399380768e-01) (505, -1.35383562962341885694e+00) (506, -2.53666954366594421533e-01) (507, 2.54662988557693603653e+00) (508, -8.23428103735829086673e-01) (509, -4.50676507242389834396e-01) (510, -3.52075466085030042152e-01) (511, -3.65902141587730045380e-01) (512, 5.14247510314171790702e-02) (513, -5.41538652300651082716e-02) (514, 1.17108267138024732534e-01) (515, 3.89441113359780599623e-01) (516, 2.70672793872208772292e-01) (517, 4.31594176753463898422e-01) (518, 2.92293537289301685878e-01) (519, 2.78108070808295526621e-01) (520, 8.58395411685767273369e-02) (521, -2.96085754796210839923e-02) (522, -2.30698589452143915102e-01) (523, -8.18943437456901013327e-02) (524, -2.17198998199716886148e-01) (525, 3.84048390319565585704e-02) (526, -5.51707516560303812270e-01) (527, 2.63584116996623429863e-01) (528, 1.25977296263984517299e-01) (529, 7.39722441074012859730e-01) (530, 8.20284461713793877635e-01) (531, 8.57635038153559903229e-01) (532, 1.45519402894364002776e+01) (533, 3.49799409288834017850e-02) (534, -5.89170066215079724081e-01) (535, -6.82679847420060437191e-02) (536, -7.61886648742140293322e-01) (537, -1.02136842563064633715e+00) (538, -5.63020294893844530648e-01) (539, -4.92586986296401962981e-01) (540, -8.27259920751847177556e-02) (541, -1.23509680501202576131e-01) (542, -1.12337920886178083135e-01) (543, 3.00431406481894702765e-01) (544, 2.32611542765496309704e-01) (545, 2.80953194827238850184e-01) (546, 1.75463180269553625790e-01) (547, 1.71777684817013970298e-01) (548, -6.55155608817283019452e-02) (549, -1.70502131657237071538e-01) (550, -1.31301806896617162534e-01) (551, 3.21193281293099472395e-02) (552, 5.67897353053277015311e-02) (553, -2.46329248202769607312e-01) (554, -3.23996026313948748410e-01) (555, 2.60929060273719426455e-01) (556, 2.88656538873416412816e-01) (557, 2.11694019532143506979e+00) (558, 8.92864575595947673747e-01) (559, 8.05395053879649380768e-01) (560, 1.41887797232706532213e+02) (561, -2.26800711957410694453e+00) (562, -2.60468910834388778230e-01) (563, -4.31950207227943916433e-01) (564, -4.65495542014351837423e-01) (565, -5.89524427110471482827e-01) (566, -5.41385932603109520933e-01) (567, -6.54685496130216759703e-01) (568, -2.87858457725698069218e-01) (569, -3.40898700872814153229e-01) (570, 8.86930129131432709588e-02) (571, 2.67747115933826329570e-01) (572, 1.60825686885746999000e-01) (573, 2.82844389992598810313e-01) (574, 2.50196690874938176830e-01) (575, 4.51479379746289391506e-02) (576, -4.73087707921210701145e-02) (577, -2.56275951686702530008e-01) (578, -2.34022660528566101013e-01) (579, -2.05388678727809054214e-01) (580, -2.18622700829943644729e-01) (581, -1.78250178939747844220e-01) (582, 2.16379533113337935157e-01) (583, 7.95289915567381489048e-02) (584, 7.50003866752327663647e-01) (585, 2.04955128079592618917e+00) (586, 3.07422493296046484001e-01) (587, -1.65952620455885524464e+00) (588, 7.64575160995844260725e+00) (589, -1.53986476944093064745e+00) (590, -1.44706332787243563409e+00) (591, -2.41283343570266178846e-01) (592, -3.03941789398436190694e-01) (593, -5.89939461702623124673e-01) (594, -5.54062931576002282164e-01) (595, -7.41161520942467011430e-01) (596, -7.70501117571609772661e-01) (597, -6.80299360520270901542e-02) (598, -7.19924028873785842864e-02) (599, -8.15804967387735030515e-02) (600, 6.21139031003863709146e-02) (601, 4.63912408899218933755e-02) (602, 4.78804927419574158365e-02) (603, 2.37062846037717003811e-02) (604, -2.08317984987467119673e-01) (605, -2.59115032445164095165e-01) (606, -1.50037463855441338678e-01) (607, -2.05122468848514039053e-01) (608, -2.26369248842805320665e-01) (609, -2.33279439448022207770e-01) (610, 5.81544679170591938266e-02) (611, 5.92733638285311559279e-01) (612, 1.34857041407806299560e+00) (613, 2.22677723034966090765e+00) (614, -1.53261460726672349431e+00) (615, -1.55894926847517023560e+01) (616, 7.50551723644855872664e+00) (617, -3.04727409937064663836e+00) (618, -8.24912661879304232038e-01) (619, 4.97761976946880291273e-01) (620, -4.87951549214262828014e-02) (621, 5.79713937229628384351e-03) (622, -3.76914794623158910802e-01) (623, -7.40105609759109772661e-01) (624, -4.19124650120690223076e-01) (625, -2.74289336747568945896e-01) (626, -9.67132077959060532102e-01) (627, -6.35712511255525969389e-01) (628, -6.07587508275293730620e-01) (629, -5.13975521948408231587e-01) (630, -2.37964091089840262816e-01) (631, -1.81968903509339058333e-01) (632, -1.71421581935324335300e-01) (633, -7.23920409196993630552e-02) (634, -2.76234971499055403932e-01) (635, -2.24776232754796440050e-01) (636, -3.00216699777745676947e-01) (637, -1.58771522223848451927e-02) (638, 4.33468500076445661939e-01) (639, 7.40372791276546982076e-01) (640, 8.67630824347675910779e-01) (641, 1.07898320490220944734e+00) (642, -4.77853934149199272019e-02) (643, -1.54489775510131845948e+01) (644, 1.41917973022897228930e+02) (645, 1.41828379508097157213e+02) (646, -1.12392382009259765852e+01) (647, -2.43213093738000318833e-01) (648, 1.07011110877898441007e-01) (649, 2.06139823246307085647e-01) (650, -1.42208519314669795675e-01) (651, -2.39345084058682315564e-02) (652, -6.26138532871491626519e-02) (653, -2.64790699888978464660e-01) (654, -3.95247880245376936870e-01) (655, -2.73543778682876825847e-01) (656, -4.05094905223917112203e-01) (657, -4.85301206287216291280e-01) (658, -1.24567170892944467653e+00) (659, -1.19859529999455191596e-01) (660, -2.10270902482231791808e-01) (661, -3.59553184116324198172e-01) (662, 1.85772472477093095189e-02) (663, -1.00022238350188849565e-01) (664, -2.71645370094219351653e-01) (665, 6.50209616021926728457e-03) (666, 1.66180320181648355504e-01) (667, 1.58257957645456415197e-01) (668, 2.97278698673362762328e-02) (669, -6.30337721246951032672e-02) (670, -3.14603699259797045529e-02) (671, 1.41836661983270630571e+02) (672, 1.41797855827946648333e+02) (673, 1.41819443959732041094e+02) (674, -6.75092896908500827990e-01) (675, -8.41166595140838024847e-01) (676, 1.57474981045630624266e-01) (677, 3.47893973636931974625e-01) (678, 1.26180161265997986542e-01) (679, 2.39166240883378566906e-01) (680, -1.74822375566183012274e-02) (681, -3.68025756964094230561e-01) (682, -1.72286003419763772415e-01) (683, -2.40676347042251825847e-01) (684, -3.97963944698501936870e-01) (685, -2.39284291455156533646e-01) (686, -3.25453731754429043121e-01) (687, -1.80870270696839058333e-01) (688, -3.23701131844958134298e-01) (689, -1.68940383696993629004e-01) (690, -1.82942913128343251361e-03) (691, -1.76242140026900417915e-01) (692, -9.41613882109368915962e-01) (693, 2.80079878203751297949e-01) (694, 7.84560318310301818556e-01) (695, 1.01228508442216957874e+00) (696, 4.44367616938056930742e-01) (697, 7.86289305860389586833e-01) (698, 1.46475457289353583334e+00) (699, 1.41874033804972157213e+02) (700, 1.41769993279118523333e+02) (701, 1.41863950800139889452e+02) (702, -1.18457198458795964768e+00) (703, 2.20910144354690309854e+01) (704, 2.61266515167101953665e+00) (705, 2.07612774233060681794e+00) (706, 1.64494923324935693465e+00) (707, 3.13344094578123399941e-01) (708, 3.50661032476779044309e-01) (709, 6.21523441895766137755e-01) (710, 4.82871466098984014614e-01) (711, 4.70453706400293325540e-01) (712, 3.50663559519057699276e-01) (713, 2.28548761888899359951e-01) (714, 2.23698735652161612153e-01) (715, 2.28448834845719567221e-01) (716, 2.43554038441034570450e-01) (717, 2.54485723011943554273e-01) (718, -5.27383293872276531777e-02) (719, 2.71025654758776796127e-02) (720, 8.25497172740315421358e-02) (721, -5.94283656579778774010e-01) (722, -1.95010391324977838678e+00) (723, -3.08891219259505778183e+00) (724, 6.23853698180840776644e+00) (725, 3.95592336816812994993e-01) (726, -6.23825120026317181399e-01) (727, 1.41760386344034657213e+02) (728, 1.41773173209269032213e+02) (729, 1.41837650749821648333e+02) (730, 1.41774650260795340273e+02) (731, 2.33528045531239986099e-01) (732, 2.43771979238147551428e+01) (733, 5.92336401515827049025e+01) (734, 5.91549292155728210219e+01) (735, 5.92514746212587226637e+01) (736, 5.91859716945514549025e+01) (737, 5.91939734020457137831e+01) (738, 5.91838171505555976637e+01) (739, 2.53373262249257678036e+01) (740, 1.09379227387388322512e+01) (741, 2.53210054301049822811e+01) (742, 2.53446687572028750424e+01) (743, 5.92627966427430976637e+01) (744, 5.93228979655728210219e+01) (745, 2.52027620189216250424e+01) (746, 2.43552191618139559637e+01) (747, 1.12303482363248221532e+01) (748, -1.41834903721227578721e+00) (749, 8.85918484864968935888e-01) (750, 1.15184250120976772180e-01) (751, -1.79190037817660297037e+00) (752, -2.22506972580345685486e-01) (753, 5.93420568951592315443e+01) (754, 1.41857420038421139452e+02) (755, 1.41830735463638291094e+02) (756, 1.41856535028655514452e+02) (757, 1.41730485219497666094e+02) (758, 1.41788859244425282213e+02) (759, 1.41870200794179424975e+02) (760, 5.92875036844239104994e+01) (761, 5.92593786739930976637e+01) (762, 5.91486853161082137831e+01) (763, 5.93365576365218032606e+01) (764, 5.92937658825144637831e+01) (765, 5.92950842478499282606e+01) (766, 2.52756196894075984005e+01) (767, 1.10947891886015508334e+01) (768, 5.92615637355670799025e+01) (769, 5.93139013895020354994e+01) (770, 5.92620398127660621412e+01) (771, 5.93446386852488387831e+01) (772, 5.92883764752373565443e+01) (773, 5.92648657360300887831e+01) (774, 5.92652929821238387831e+01) (775, 5.93152746805176604994e+01) (776, 5.91887976215407718428e+01) (777, 4.04462685528525511813e+01) (778, 5.93360449322686065443e+01) (779, 5.93351477184519637831e+01) (780, 1.41845347281534657213e+02) (781, 1.41888181757171139452e+02) (782, 1.41851945187885746691e+02) (783, 1.41746665645380005571e+02) (784, 1.61623407813878197659e-02) (0, 1.41912101428945049975e+02) (1, 1.41915751334269032213e+02) (2, 1.41916154172260746691e+02) (3, 1.41922196652729496691e+02) (4, 1.41858384396870121691e+02) (5, 1.41758659053583130571e+02) (6, 1.41915983270843014452e+02) (7, 1.41815525505681023333e+02) (8, 1.41864353638131603930e+02) (9, 1.41789500113565907213e+02) (10, 1.41757273551065907213e+02) (11, 1.41849985953409657213e+02) (12, 5.68677832002867700290e-01) (13, -3.14089836655869369952e-01) (14, -5.89487868587598740078e+01) (15, -5.91245437006578384853e+01) (16, 1.41734354849894032213e+02) (17, 1.41906504508097157213e+02) (18, 1.41904111932952389452e+02) (19, 1.41879191275675282213e+02) (20, 1.41820103142399773333e+02) (21, 1.41789445180435166094e+02) (22, 1.41833598013956532213e+02) (23, 1.41759367052454933855e+02) (24, 1.41763114619989380571e+02) (25, 1.41841416615982041094e+02) (26, 1.41739750359196648333e+02) (27, 1.41739487905044541094e+02) (28, 1.41872727658588871691e+02) (29, 1.41925510864694103930e+02) (30, 1.41759946886439308855e+02) (31, 1.41727427359659657213e+02) (32, 1.83855275858148803358e+00) (33, 1.02990468501082421682e+01) (34, 2.44489569577629382024e+01) (35, 4.43389400424103108378e+00) (36, 2.44938483151848132024e+01) (37, 2.43737921591157729040e+01) (38, 1.01796010493269921682e+01) (39, 4.54863360008897199549e+00) (40, 2.11640153898537253241e+00) (41, 1.72848012363339043063e+00) (42, 1.71593739902401543063e+00) (43, 1.01217612477292706608e+00) (44, 3.18924910049090890030e-02) (45, 2.19704460696722225777e+00) (46, 3.70496416124750815868e+00) (47, 1.53625534995050649911e+00) (48, 7.26079868332774380768e-01) (49, 1.01663381068936349294e+01) (50, 1.96063371448457335333e+00) (51, 9.68927202099524431667e-01) (52, 1.41750236202020630571e+02) (53, 1.41815610956389889452e+02) (54, 1.41921006467182621691e+02) (55, 1.41752500604827389452e+02) (56, 1.41758244011540398333e+02) (57, 1.41910526733834728930e+02) (58, 6.26341393700398541000e+00) (59, -1.04335988890948172525e+01) (60, 4.21868497625406213558e+00) (61, 4.72222491380125730664e-01) (62, 2.11040856635556517418e+00) (63, 1.29137615326482757538e+00) (64, 6.76430204548155500355e-01) (65, 7.01491230763708784046e-01) (66, 5.43670083252817848418e-01) (67, -3.73000366624584925312e-02) (68, 3.77634707783648382318e-02) (69, 2.03070601716221127431e-01) (70, 1.64539231135101537973e+00) (71, 1.60379685236664037973e+00) (72, 3.81999102267672219213e+00) (73, 3.81981401178290047582e+00) (74, 3.80876055392672219213e+00) (75, 1.62176560385675649911e+00) (76, 1.70749559028597097665e+00) (77, 1.69984242385054207247e+00) (78, 7.99951364570818834743e-01) (79, 8.97583206468783201259e-01) (80, 2.65432720210854844467e-01) (81, -8.11724802660702904333e-01) (82, 1.41925120230753407213e+02) (83, 1.41761558223505005571e+02) (84, 1.41918070670206532213e+02) (85, 1.41916569214303478930e+02) (86, 4.04494657652304123729e+00) (87, 3.50460958584647597203e-01) (88, 3.63081278578869376394e-02) (89, -7.09522940939930624182e-02) (90, -8.98392732820148642858e-01) (91, -1.53445426865907075253e+00) (92, -5.20382936613412283577e-01) (93, 3.14533413344704637638e-01) (94, -2.81527265910718860198e+00) (95, 5.57832457767419187533e-01) (96, 7.22332787163136202935e-01) (97, 4.97279903096275011087e-01) (98, 4.49687133664876170780e-01) (99, 2.94816519255429398960e-01) (100, 2.88261341984063279575e-01) (101, 2.09371810920363277120e+00) (102, 2.19379493585711538017e+00) (103, 2.08592139921074926079e+00) (104, 9.83916847429177066076e-01) (105, 7.95360880152613858307e-01) (106, 8.30300847153450094495e-01) (107, 8.01993044083027628588e-01) (108, 6.75835787846998381490e-01) (109, 2.77818367014577405349e-01) (110, 9.16622295584208268693e-01) (111, 1.41885465692718014452e+02) (112, 1.41784745477129206392e+02) (113, 5.92013281383738387831e+01) (114, 9.65869334810934954128e-01) (115, 1.06975169357935628867e+00) (116, 9.56765574083776493275e-01) (117, 4.40794478214083629286e-01) (118, 8.84951622256784919962e-01) (119, -8.25596558745940733992e-02) (120, 4.33432129157158674282e-01) (121, -8.17145407389499173201e-02) (122, -1.34198680539021647506e-01) (123, -2.08795845527539353226e-01) (124, -2.64266822839387072186e-01) (125, -7.22221908570933324167e-02) (126, -1.79547960240987652947e-01) (127, -1.24145133806111002128e-01) (128, -1.29034048331619882743e-01) (129, -2.62574870865221909888e-01) (130, 3.75769480069154974619e-04) (131, 7.83572435285936452765e-01) (132, 1.37806735935098800816e+00) (133, 1.20536957375874798082e+00) (134, 2.89455270206671722022e-01) (135, 1.80130699088625695348e-01) (136, 3.24224543833412148786e-01) (137, 1.38436415433282028475e-01) (138, 9.96633138329811041345e-01) (139, 3.91458034405419130763e+00) (140, 1.41903879996378407213e+02) (141, 1.41908506464202389452e+02) (142, 4.67231884628122706715e+00) (143, 5.32822530922724713065e+00) (144, 6.21450646704591846969e+00) (145, 2.54421806273776729412e+00) (146, 1.16436615622608030662e+00) (147, 4.40901148744981041805e-01) (148, 1.08846795652322872461e-01) (149, -2.46810038079466248506e-01) (150, -4.36690638473027636923e-01) (151, -3.18885322346416255623e-01) (152, -1.25962783809098782806e-01) (153, 1.41058253426014745813e-01) (154, 3.90923118869065389092e-02) (155, 1.02678740648388777679e-01) (156, -2.34371259936110125366e-02) (157, -8.90493079643866480843e-02) (158, -2.36518968622561387427e-01) (159, 1.72758181574660191204e-01) (160, 7.28921547438989736456e-01) (161, 1.25893290497895132818e-01) (162, 4.88805864477673962520e-02) (163, 1.65201075592683432891e-01) (164, 1.69336491518228861308e-02) (165, -8.14781442962755619863e-02) (166, -6.61732336462083625683e-02) (167, 2.19451771087606140043e+00) (168, 1.41833274532098755571e+02) (169, 1.10367447550078008334e+01) (170, 2.95282723249735812310e-01) (171, 1.54433998204449984826e+00) (172, 1.10092335492593695889e+00) (173, 3.34576559584694344096e-01) (174, 5.69201463431314946817e-01) (175, 1.57482906640264319620e-01) (176, 1.44802612159662308366e-01) (177, -1.15116643886441188949e-01) (178, -1.30918057694162204285e-01) (179, 2.06760684092836335979e-02) (180, 1.33068749982773598672e-01) (181, 7.80455603486889526454e-02) (182, 6.65305493223552896209e-02) (183, 7.36777646291141563584e-02) (184, 1.56899411243699576923e-01) (185, 2.15100007433354167841e-01) (186, -1.26146478913368942365e-01) (187, -2.12023022668394317547e-01) (188, -1.98247390883001556317e-01) (189, 2.16321812052759493428e-01) (190, 8.62481228650594095031e-02) (191, 1.11274447462208908588e-01) (192, 6.42077797384726783880e-02) (193, -6.15379617296328076947e-02) (194, -1.35157030775249833998e-02) (195, -3.64026763194925384592e-01) (196, -6.59419888725848934996e+00) (197, -1.20698575639139049631e-01) (198, -2.34878802100329964198e-01) (199, 1.12092130854825433595e+00) (200, 9.31209124447589076112e-01) (201, 7.65555226802226984617e-01) (202, 2.07508815795046042130e-01) (203, 1.16424240232416792429e-01) (204, 2.84399148636221288378e-02) (205, -1.00784748878948504647e-01) (206, -2.84176905772645198300e-02) (207, 3.56448079326193781324e-02) (208, 8.85640513578860866239e-02) (209, 3.19755645787105580169e-01) (210, 3.60716345106945002197e-01) (211, 3.37297158634052296478e-01) (212, 3.52563373868690077551e-02) (213, 4.43242149802131821246e-02) (214, 1.41058835610954280693e-01) (215, -7.23073653500697077767e-02) (216, -2.46257643299135381421e-01) (217, -2.65887545206291764366e-01) (218, -3.77284478574279213969e-01) (219, 1.02604521304141688143e-01) (220, 2.59663939058473514088e-01) (221, 8.92218798806140717117e-02) (222, 5.74652851035068329422e-02) (223, -2.95607206469994006348e-02) (224, -6.80156953517528606312e+00) (225, -2.72148436764122869658e-01) (226, -1.73137425845169140581e-01) (227, 1.45858626448754719052e-01) (228, 4.68274192572550651548e-01) (229, -7.75889865680377543988e-02) (230, 5.68682367487303025433e-02) (231, 5.11347184887488426241e-02) (232, -5.09149467966076019199e-02) (233, 4.28937450894753824482e-02) (234, 1.87828151037199575502e-02) (235, -7.86984991869056106639e-03) (236, 2.11082212725603818315e-01) (237, 2.28987143840609003176e-01) (238, 2.61598334505377783099e-01) (239, 1.92829824551931400256e-01) (240, 6.56605049002002838510e-02) (241, -2.82464454483379423522e-01) (242, -2.33490466171318356015e-01) (243, -1.81129441047410716381e-01) (244, -3.21197620962378249665e-01) (245, -4.04984124545484380775e-01) (246, -2.36995600133034861612e-01) (247, -2.26907515197559445097e-01) (248, 2.62307326535760554354e-01) (249, 1.58323548495515831203e-01) (250, 1.00236643364262301148e+00) (251, 9.82785758851700136374e-02) (252, -8.15889908958856602261e-01) (253, -1.01057359293415083279e-01) (254, -6.94229643233703896943e-02) (255, 5.64185465448390835452e-02) (256, 1.06076353267150036430e-01) (257, -1.55737215038647014431e-01) (258, -1.20209602781330790466e-01) (259, -6.56746906719558182219e-02) (260, -2.48347997594228347973e-02) (261, -4.49303938134582858677e-02) (262, -2.49352818413647661644e-02) (263, 3.86760533512038665038e-02) (264, 1.01555119438739377413e-01) (265, 1.13774465890499359988e-01) (266, 7.82688189249646920631e-02) (267, 9.91278943380927979323e-02) (268, -8.64926606649049911635e-02) (269, -1.64397935592521138304e-01) (270, -3.39984638322513299524e-01) (271, -2.54931776922237562921e-01) (272, -3.56382863448672981832e-01) (273, -2.51418295671858083029e-01) (274, 1.13273685859995953962e+00) (275, -4.21498262459567563099e-01) (276, 6.27832510018685174824e-02) (277, 1.16653558670911094985e+00) (278, 1.13789480773128470759e+00) (279, -1.23702588663244100742e-01) (280, -3.34127966212176163996e-01) (281, -1.86539109238075540009e-02) (282, -4.79935150035309121552e-02) (283, -7.62589018233703896943e-02) (284, -1.25898793656437302246e-01) (285, -1.97259538515915877621e-01) (286, -1.26087283857857446190e-01) (287, 6.89136005734022633745e-03) (288, 1.98323079850492856036e-01) (289, 1.22016923036394525637e-01) (290, -1.07019088616284261534e-02) (291, -2.20905541717606110352e-02) (292, 2.58529284153488532472e-02) (293, 3.79665042619844239624e-01) (294, 3.93377767364074926171e-01) (295, 4.45375261884469075824e-01) (296, 5.68347972182454003187e-02) (297, -4.23605108039795258401e-02) (298, -2.82926195570928074030e-01) (299, -9.62837234791218687935e-02) (300, -1.58920212432278357140e-01) (301, -3.55543216672254025479e-01) (302, -1.89541669153553637983e-01) (303, -1.65774577819687518598e-01) (304, -5.14598356345803975564e-02) (305, 9.61007323087900489078e-01) (306, 1.49836451229495426496e+00) (307, 7.05478702912338828668e-01) (308, -7.49416521777097721646e-01) (309, -1.30058687539704953551e-01) (310, -1.10442116325401379351e-01) (311, -1.52754258681147003784e-01) (312, -1.36305291522352600708e-01) (313, -3.11278185096623971617e-01) (314, -2.68021303187226056508e-01) (315, -1.83280725671991412407e-01) (316, 1.81145317755414987648e-02) (317, 1.28696285987862674149e-01) (318, 1.35216008110614377413e-01) (319, 8.80999900628521293022e-02) (320, 3.58387701488030563368e-01) (321, 7.05982657785183320698e-01) (322, 3.84789590339699705268e+00) (323, 5.27629049328400601127e+00) (324, 2.82604993946015792261e-01) (325, 8.39415082444249227578e-02) (326, -4.60365208337800563276e-02) (327, 2.18173943204241632676e-01) (328, -1.04043504938019476525e-01) (329, -5.20404413762201034643e-01) (330, -1.03963505413632439911e+00) (331, -2.58318202510196792687e+00) (332, -4.64422065152561180934e-01) (333, 1.01769214933267591050e+01) (334, 1.80790533259451402515e+00) (335, 2.10159440411865805487e+00) (336, -2.01478290659667580442e+00) (337, -5.06459692769280211966e-02) (338, -6.53614219147049535508e-02) (339, -1.98442600136303021197e-01) (340, -5.67019882623897686358e-01) (341, -6.92513304803121898523e-01) (342, -6.17039098700663757313e-01) (343, -2.48234596578650018595e-01) (344, -9.44039614709460406239e-02) (345, -2.46776022240147233089e-02) (346, 3.51463318222919096634e-01) (347, 2.19826179902692681045e-01) (348, 5.87867415214544553059e-01) (349, 4.36017667994316049374e+00) (350, 1.01576039775243760488e+01) (351, 3.93386392842570264961e+00) (352, 3.25398199534905452346e-01) (353, 2.43645673932789325056e-01) (354, -4.83605740650566440220e-02) (355, 3.23997579827708159783e-01) (356, -3.08365120550007643097e-01) (357, -1.81165697211669840527e+00) (358, -2.83238078081765287664e+00) (359, -6.86511826892304455328e+00) (360, -6.84807724882769619512e+00) (361, 1.37619548210768938290e+00) (362, 5.65327902920758074146e-01) (363, 1.00631946911564824632e+01) (364, 1.08811113311553295802e+01) (365, -5.99563296281823976397e-02) (366, -3.16397155186740941524e-01) (367, -1.74522053243230140795e-01) (368, -3.63485949922918649690e+00) (369, -1.84938844741995600529e+00) (370, -9.44269498566106091353e-01) (371, -7.66575235238454055775e-01) (372, -2.67621155752729877886e-01) (373, -1.91522474615196475201e-01) (374, 2.87228288505934459263e-01) (375, 3.49909239492949830641e-01) (376, 6.17725814397102612752e-01) (377, 4.31636564180667825497e+00) (378, 4.26326505214388795650e+00) (379, 8.62664987617693723720e-01) (380, 3.84483540140972690491e-01) (381, 3.10431731103619990009e-01) (382, 2.47374736092663499720e-01) (383, 4.02024777228022558995e-02) (384, -4.04994538760113043097e-01) (385, -1.65906641799940901549e+00) (386, -6.89398789782929455328e+00) (387, -1.03380971830906744913e+01) (388, -1.04397939574541922525e+01) (389, -5.81426619529257004970e-01) (390, -2.40772831661612727316e+01) (391, -1.65265163129514682794e+01) (392, -3.04497498045427494873e+00) (393, 1.83266566784883910834e+00) (394, 3.08519735114062797210e-02) (395, 1.84536219786483446370e+00) (396, -9.12870037459288141690e+00) (397, -4.47786935106812133967e+00) (398, -4.52052071378527298151e+00) (399, -9.88275846222356091353e-01) (400, -6.76926791032931518544e-01) (401, -5.05199364046235777082e-01) (402, 1.33523754661950266875e-01) (403, 1.82088728398584531742e-01) (404, 4.81950582646713920898e-01) (405, 8.30676463717184843105e-01) (406, 5.50285125070587910479e-01) (407, 4.38749479049221735583e-01) (408, 4.07038830495370040907e-01) (409, 2.69373377023896631854e-01) (410, 1.35221675522176537632e-01) (411, -8.52381327492430368453e-03) (412, -5.13028687603563349207e-01) (413, -4.48499366854855141540e-01) (414, -2.96608334639128701227e+00) (415, -1.03069692459525938943e+01) (416, -1.03510122206630583719e+01) (417, -1.00547719856407513639e+00) (418, -5.90097731839046417690e+01) (419, -5.91317275355682312465e+01) (420, -1.50047159618894943023e+00) (421, 5.91971777477488387831e+01) (422, 1.22004273702903631715e+00) (423, 9.60787118403076512152e-01) (424, -9.86799315534218557389e+00) (425, -4.53998482660351410090e+00) (426, -4.45171578661499633967e+00) (427, -3.22480778976538173808e+00) (428, -1.19578157998556999786e+00) (429, -1.09908968098397163971e+00) (430, -1.03416156593317731804e+00) (431, 3.22079543468408058260e-01) (432, 2.49277922692379083625e-01) (433, 3.41528811877289006915e-01) (434, 4.12854493980922832019e-01) (435, 1.97890699319069329754e-01) (436, 7.08227595698060069518e-02) (437, 1.84138223228733161063e-01) (438, -3.60371701851977810360e-02) (439, -7.99398610309262902529e-02) (440, -4.89707155890554468591e-01) (441, -2.50798642708718433347e-01) (442, -9.98983934046325461331e-01) (443, -1.02720510420026656107e+01) (444, -1.03430166151943083719e+01) (445, -2.58442956812738033889e+00) (446, -1.28877353968307168941e+01) (447, -5.90458449686989723659e+01) (448, 2.08015234879868407547e-02) (449, 2.45104254695827776800e+01) (450, 5.07037813532029613128e+00) (451, 2.42121953660423585575e+01) (452, -3.19714813852163803887e+00) (453, -6.77802719552922283697e+00) (454, -6.85170884062457119512e+00) (455, -3.12726139857628337992e+00) (456, -1.32670460382390498211e+00) (457, -1.39948903510261057903e+00) (458, -7.12308060979197854579e-01) (459, 1.83599852475494970672e-02) (460, 1.67086334695926569394e-01) (461, 2.68221464644936569144e-01) (462, -2.46300202916664462416e-01) (463, -2.06298647207863339315e-01) (464, -6.18539643751928935878e-01) (465, 2.84653121637884441719e-02) (466, -8.43945634694878987769e-02) (467, 9.39434852193270775178e-02) (468, -2.42276272211264104284e-02) (469, 2.17896940707714126262e+00) (470, -5.89463018515108072570e-01) (471, -4.18266340376555145752e+00) (472, -1.07360768677998112963e+01) (473, -2.84555638464582116853e+01) (474, -6.99285846837584923463e+00) (475, -5.89684829007015167690e+01) (476, 1.41760368037958130571e+02) (477, 2.43233832258040720831e+01) (478, 2.40621982221488650566e+00) (479, 9.34019203941067743813e+00) (480, -5.44858322450663123959e-01) (481, -3.52634120958760588493e+00) (482, -4.74396456763735585582e+00) (483, -2.99284295514675324767e+00) (484, -1.68550370403943960973e+00) (485, -7.19639188271496643701e-01) (486, -1.43304492481430095774e-01) (487, 