FANN_FLO_2.1
num_layers=3
learning_rate=0.700000
connection_rate=1.000000
network_type=0
learning_momentum=0.000000
training_algorithm=1
train_error_function=1
train_stop_function=0
cascade_output_change_fraction=0.010000
quickprop_decay=-0.000100
quickprop_mu=1.750000
rprop_increase_factor=1.200000
rprop_decrease_factor=0.500000
rprop_delta_min=0.000000
rprop_delta_max=50.000000
rprop_delta_zero=0.100000
cascade_output_stagnation_epochs=12
cascade_candidate_change_fraction=0.010000
cascade_candidate_stagnation_epochs=12
cascade_max_out_epochs=150
cascade_min_out_epochs=50
cascade_max_cand_epochs=150
cascade_min_cand_epochs=50
cascade_num_candidate_groups=2
bit_fail_limit=3.49999999999999977796e-01
cascade_candidate_limit=1.00000000000000000000e+03
cascade_weight_multiplier=4.00000000000000022204e-01
cascade_activation_functions_count=10
cascade_activation_functions=3 5 7 8 10 11 14 15 16 17 
cascade_activation_steepnesses_count=4
cascade_activation_steepnesses=2.50000000000000000000e-01 5.00000000000000000000e-01 7.50000000000000000000e-01 1.00000000000000000000e+00 
layer_sizes=785 16 11 
scale_included=0
neurons (num_inputs, activation_function, activation_steepness)=(0, 0, 0.00000000000000000000e+00) (0, 0, 0.00000000000000000000e+00) (0, 0, 0.00000000000000000000e+00) (0, 0, 0.00000000000000000000e+00) (0, 0, 0.00000000000000000000e+00) (0, 0, 0.00000000000000000000e+00) (0, 0, 0.00000000000000000000e+00) (0, 0, 0.00000000000000000000e+00) (0, 0, 0.00000000000000000000e+00) (0, 0, 0.00000000000000000000e+00) (0, 0, 0.00000000000000000000e+00) (0, 0, 0.00000000000000000000e+00) (0, 0, 0.00000000000000000000e+00) (0, 0, 0.00000000000000000000e+00) (0, 0, 0.00000000000000000000e+00) (0, 0, 0.00000000000000000000e+00) (0, 0, 0.00000000000000000000e+00) (0, 0, 0.00000000000000000000e+00) (0, 0, 0.00000000000000000000e+00) (0, 0, 0.00000000000000000000e+00) (0, 0, 0.00000000000000000000e+00) (0, 0, 0.00000000000000000000e+00) (0, 0, 0.00000000000000000000e+00) (0, 0, 0.00000000000000000000e+00) (0, 0, 0.00000000000000000000e+00) (0, 0, 0.00000000000000000000e+00) (0, 0, 0.00000000000000000000e+00) (0, 0, 0.00000000000000000000e+00) (0, 0, 0.00000000000000000000e+00) (0, 0, 0.00000000000000000000e+00) (0, 0, 0.00000000000000000000e+00) (0, 0, 0.00000000000000000000e+00) (0, 0, 0.00000000000000000000e+00) (0, 0, 0.00000000000000000000e+00) (0, 0, 0.00000000000000000000e+00) (0, 0, 0.00000000000000000000e+00) (0, 0, 0.00000000000000000000e+00) (0, 0, 0.00000000000000000000e+00) (0, 0, 0.00000000000000000000e+00) (0, 0, 0.00000000000000000000e+00) (0, 0, 0.00000000000000000000e+00) (0, 0, 0.00000000000000000000e+00) (0, 0, 0.00000000000000000000e+00) (0, 0, 0.00000000000000000000e+00) (0, 0, 0.00000000000000000000e+00) (0, 0, 0.00000000000000000000e+00) (0, 0, 0.00000000000000000000e+00) (0, 0, 0.00000000000000000000e+00) (0, 0, 0.00000000000000000000e+00) (0, 0, 0.00000000000000000000e+00) (0, 0, 0.00000000000000000000e+00) (0, 0, 0.00000000000000000000e+00) (0, 0, 0.00000000000000000000e+00) (0, 0, 0.00000000000000000000e+00) (0, 0, 0.00000000000000000000e+00) (0, 0, 0.00000000000000000000e+00) (0, 0, 0.00000000000000000000e+00) (0, 0, 0.00000000000000000000e+00) (0, 0, 0.00000000000000000000e+00) (0, 0, 0.00000000000000000000e+00) (0, 0, 0.00000000000000000000e+00) (0, 0, 0.00000000000000000000e+00) (0, 0, 0.00000000000000000000e+00) (0, 0, 0.00000000000000000000e+00) (0, 0, 0.00000000000000000000e+00) (0, 0, 0.00000000000000000000e+00) (0, 0, 0.00000000000000000000e+00) (0, 0, 0.00000000000000000000e+00) (0, 0, 0.00000000000000000000e+00) (0, 0, 0.00000000000000000000e+00) (0, 0, 0.00000000000000000000e+00) (0, 0, 0.00000000000000000000e+00) (0, 0, 0.00000000000000000000e+00) (0, 0, 0.00000000000000000000e+00) (0, 0, 0.00000000000000000000e+00) (0, 0, 0.00000000000000000000e+00) (0, 0, 0.00000000000000000000e+00) (0, 0, 0.00000000000000000000e+00) (0, 0, 0.00000000000000000000e+00) (0, 0, 0.00000000000000000000e+00) (0, 0, 0.00000000000000000000e+00) (0, 0, 0.00000000000000000000e+00) (0, 0, 0.00000000000000000000e+00) (0, 0, 0.00000000000000000000e+00) (0, 0, 0.00000000000000000000e+00) (0, 0, 0.00000000000000000000e+00) (0, 0, 0.00000000000000000000e+00) (0, 0, 0.00000000000000000000e+00) (0, 0, 0.00000000000000000000e+00) (0, 0, 0.00000000000000000000e+00) (0, 0, 0.00000000000000000000e+00) (0, 0, 0.00000000000000000000e+00) (0, 0, 0.00000000000000000000e+00) (0, 0, 0.00000000000000000000e+00) (0, 0, 0.00000000000000000000e+00) (0, 0, 0.00000000000000000000e+00) (0, 0, 0.00000000000000000000e+00) (0, 0, 0.00000000000000000000e+00) (0, 0, 0.00000000000000000000e+00) (0, 0, 0.00000000000000000000e+00) (0, 0, 0.00000000000000000000e+00) (0, 0, 0.00000000000000000000e+00) (0, 0, 0.00000000000000000000e+00) (0, 0, 0.00000000000000000000e+00) (0, 0, 0.00000000000000000000e+00) (0, 0, 0.00000000000000000000e+00) (0, 0, 0.00000000000000000000e+00) (0, 0, 0.00000000000000000000e+00) (0, 0, 0.00000000000000000000e+00) (0, 0, 0.00000000000000000000e+00) (0, 0, 0.00000000000000000000e+00) (0, 0, 0.00000000000000000000e+00) (0, 0, 0.00000000000000000000e+00) (0, 0, 0.00000000000000000000e+00) (0, 0, 0.00000000000000000000e+00) (0, 0, 0.00000000000000000000e+00) (0, 0, 0.00000000000000000000e+00) (0, 0, 0.00000000000000000000e+00) (0, 0, 0.00000000000000000000e+00) (0, 0, 0.00000000000000000000e+00) (0, 0, 0.00000000000000000000e+00) (0, 0, 0.00000000000000000000e+00) (0, 0, 0.00000000000000000000e+00) (0, 0, 0.00000000000000000000e+00) (0, 0, 0.00000000000000000000e+00) (0, 0, 0.00000000000000000000e+00) (0, 0, 0.00000000000000000000e+00) (0, 0, 0.00000000000000000000e+00) (0, 0, 0.00000000000000000000e+00) (0, 0, 0.00000000000000000000e+00) (0, 0, 0.00000000000000000000e+00) (0, 0, 0.00000000000000000000e+00) (0, 0, 0.00000000000000000000e+00) (0, 0, 0.00000000000000000000e+00) (0, 0, 0.00000000000000000000e+00) (0, 0, 0.00000000000000000000e+00) (0, 0, 0.00000000000000000000e+00) (0, 0, 0.00000000000000000000e+00) (0, 0, 0.00000000000000000000e+00) (0, 0, 0.00000000000000000000e+00) (0, 0, 0.00000000000000000000e+00) (0, 0, 0.00000000000000000000e+00) (0, 0, 0.00000000000000000000e+00) (0, 0, 0.00000000000000000000e+00) (0, 0, 0.00000000000000000000e+00) (0, 0, 0.00000000000000000000e+00) (0, 0, 0.00000000000000000000e+00) (0, 0, 0.00000000000000000000e+00) (0, 0, 0.00000000000000000000e+00) (0, 0, 0.00000000000000000000e+00) (0, 0, 0.00000000000000000000e+00) (0, 0, 0.00000000000000000000e+00) (0, 0, 0.00000000000000000000e+00) (0, 0, 0.00000000000000000000e+00) (0, 0, 0.00000000000000000000e+00) (0, 0, 0.00000000000000000000e+00) (0, 0, 0.00000000000000000000e+00) (0, 0, 0.00000000000000000000e+00) (0, 0, 0.00000000000000000000e+00) (0, 0, 0.00000000000000000000e+00) (0, 0, 0.00000000000000000000e+00) (0, 0, 0.00000000000000000000e+00) (0, 0, 0.00000000000000000000e+00) (0, 0, 0.00000000000000000000e+00) (0, 0, 0.00000000000000000000e+00) (0, 0, 0.00000000000000000000e+00) (0, 0, 0.00000000000000000000e+00) (0, 0, 0.00000000000000000000e+00) (0, 0, 0.00000000000000000000e+00) (0, 0, 0.00000000000000000000e+00) (0, 0, 0.00000000000000000000e+00) (0, 0, 0.00000000000000000000e+00) (0, 0, 0.00000000000000000000e+00) (0, 0, 0.00000000000000000000e+00) (0, 0, 0.00000000000000000000e+00) (0, 0, 0.00000000000000000000e+00) (0, 0, 0.00000000000000000000e+00) (0, 0, 0.00000000000000000000e+00) (0, 0, 0.00000000000000000000e+00) (0, 0, 0.00000000000000000000e+00) (0, 0, 0.00000000000000000000e+00) (0, 0, 0.00000000000000000000e+00) (0, 0, 0.00000000000000000000e+00) (0, 0, 0.00000000000000000000e+00) (0, 0, 0.00000000000000000000e+00) (0, 0, 0.00000000000000000000e+00) (0, 0, 0.00000000000000000000e+00) (0, 0, 0.00000000000000000000e+00) (0, 0, 0.00000000000000000000e+00) (0, 0, 0.00000000000000000000e+00) (0, 0, 0.00000000000000000000e+00) (0, 0, 0.00000000000000000000e+00) (0, 0, 0.00000000000000000000e+00) (0, 0, 0.00000000000000000000e+00) (0, 0, 0.00000000000000000000e+00) (0, 0, 0.00000000000000000000e+00) (0, 0, 0.00000000000000000000e+00) (0, 0, 0.00000000000000000000e+00) (0, 0, 0.00000000000000000000e+00) (0, 0, 0.00000000000000000000e+00) (0, 0, 0.00000000000000000000e+00) (0, 0, 0.00000000000000000000e+00) (0, 0, 0.00000000000000000000e+00) (0, 0, 0.00000000000000000000e+00) (0, 0, 0.00000000000000000000e+00) (0, 0, 0.00000000000000000000e+00) (0, 0, 0.00000000000000000000e+00) (0, 0, 0.00000000000000000000e+00) (0, 0, 0.00000000000000000000e+00) (0, 0, 0.00000000000000000000e+00) (0, 0, 0.00000000000000000000e+00) (0, 0, 0.00000000000000000000e+00) (0, 0, 0.00000000000000000000e+00) (0, 0, 0.00000000000000000000e+00) (0, 0, 0.00000000000000000000e+00) (0, 0, 0.00000000000000000000e+00) (0, 0, 0.00000000000000000000e+00) (0, 0, 0.00000000000000000000e+00) (0, 0, 0.00000000000000000000e+00) (0, 0, 0.00000000000000000000e+00) (0, 0, 0.00000000000000000000e+00) (0, 0, 0.00000000000000000000e+00) (0, 0, 0.00000000000000000000e+00) (0, 0, 0.00000000000000000000e+00) (0, 0, 0.00000000000000000000e+00) (0, 0, 0.00000000000000000000e+00) (0, 0, 0.00000000000000000000e+00) (0, 0, 0.00000000000000000000e+00) (0, 0, 0.00000000000000000000e+00) (0, 0, 0.00000000000000000000e+00) (0, 0, 0.00000000000000000000e+00) (0, 0, 0.00000000000000000000e+00) (0, 0, 0.00000000000000000000e+00) (0, 0, 0.00000000000000000000e+00) (0, 0, 0.00000000000000000000e+00) (0, 0, 0.00000000000000000000e+00) (0, 0, 0.00000000000000000000e+00) (0, 0, 0.00000000000000000000e+00) (0, 0, 0.00000000000000000000e+00) (0, 0, 0.00000000000000000000e+00) (0, 0, 0.00000000000000000000e+00) (0, 0, 0.00000000000000000000e+00) (0, 0, 0.00000000000000000000e+00) (0, 0, 0.00000000000000000000e+00) (0, 0, 0.00000000000000000000e+00) (0, 0, 0.00000000000000000000e+00) (0, 0, 0.00000000000000000000e+00) (0, 0, 0.00000000000000000000e+00) (0, 0, 0.00000000000000000000e+00) (0, 0, 0.00000000000000000000e+00) (0, 0, 0.00000000000000000000e+00) (0, 0, 0.00000000000000000000e+00) (0, 0, 0.00000000000000000000e+00) (0, 0, 0.00000000000000000000e+00) (0, 0, 0.00000000000000000000e+00) (0, 0, 0.00000000000000000000e+00) (0, 0, 0.00000000000000000000e+00) (0, 0, 0.00000000000000000000e+00) (0, 0, 0.00000000000000000000e+00) (0, 0, 0.00000000000000000000e+00) (0, 0, 0.00000000000000000000e+00) (0, 0, 0.00000000000000000000e+00) (0, 0, 0.00000000000000000000e+00) (0, 0, 0.00000000000000000000e+00) (0, 0, 0.00000000000000000000e+00) (0, 0, 0.00000000000000000000e+00) (0, 0, 0.00000000000000000000e+00) (0, 0, 0.00000000000000000000e+00) (0, 0, 0.00000000000000000000e+00) (0, 0, 0.00000000000000000000e+00) (0, 0, 0.00000000000000000000e+00) (0, 0, 0.00000000000000000000e+00) (0, 0, 0.00000000000000000000e+00) (0, 0, 0.00000000000000000000e+00) (0, 0, 0.00000000000000000000e+00) (0, 0, 0.00000000000000000000e+00) (0, 0, 0.00000000000000000000e+00) (0, 0, 0.00000000000000000000e+00) (0, 0, 0.00000000000000000000e+00) (0, 0, 0.00000000000000000000e+00) (0, 0, 0.00000000000000000000e+00) (0, 0, 0.00000000000000000000e+00) (0, 0, 0.00000000000000000000e+00) (0, 0, 0.00000000000000000000e+00) (0, 0, 0.00000000000000000000e+00) (0, 0, 0.00000000000000000000e+00) (0, 0, 0.00000000000000000000e+00) (0, 0, 0.00000000000000000000e+00) (0, 0, 0.00000000000000000000e+00) (0, 0, 0.00000000000000000000e+00) (0, 0, 0.00000000000000000000e+00) (0, 0, 0.00000000000000000000e+00) (0, 0, 0.00000000000000000000e+00) (0, 0, 0.00000000000000000000e+00) (0, 0, 0.00000000000000000000e+00) (0, 0, 0.00000000000000000000e+00) (0, 0, 0.00000000000000000000e+00) (0, 0, 0.00000000000000000000e+00) (0, 0, 0.00000000000000000000e+00) (0, 0, 0.00000000000000000000e+00) (0, 0, 0.00000000000000000000e+00) (0, 0, 0.00000000000000000000e+00) (0, 0, 0.00000000000000000000e+00) (0, 0, 0.00000000000000000000e+00) (0, 0, 0.00000000000000000000e+00) (0, 0, 0.00000000000000000000e+00) (0, 0, 0.00000000000000000000e+00) (0, 0, 0.00000000000000000000e+00) (0, 0, 0.00000000000000000000e+00) (0, 0, 0.00000000000000000000e+00) (0, 0, 0.00000000000000000000e+00) (0, 0, 0.00000000000000000000e+00) (0, 0, 0.00000000000000000000e+00) (0, 0, 0.00000000000000000000e+00) (0, 0, 0.00000000000000000000e+00) (0, 0, 0.00000000000000000000e+00) (0, 0, 0.00000000000000000000e+00) (0, 0, 0.00000000000000000000e+00) (0, 0, 0.00000000000000000000e+00) (0, 0, 0.00000000000000000000e+00) (0, 0, 0.00000000000000000000e+00) (0, 0, 0.00000000000000000000e+00) (0, 0, 0.00000000000000000000e+00) (0, 0, 0.00000000000000000000e+00) (0, 0, 0.00000000000000000000e+00) (0, 0, 0.00000000000000000000e+00) (0, 0, 0.00000000000000000000e+00) (0, 0, 0.00000000000000000000e+00) (0, 0, 0.00000000000000000000e+00) (0, 0, 0.00000000000000000000e+00) (0, 0, 0.00000000000000000000e+00) (0, 0, 0.00000000000000000000e+00) (0, 0, 0.00000000000000000000e+00) (0, 0, 0.00000000000000000000e+00) (0, 0, 0.00000000000000000000e+00) (0, 0, 0.00000000000000000000e+00) (0, 0, 0.00000000000000000000e+00) (0, 0, 0.00000000000000000000e+00) (0, 0, 0.00000000000000000000e+00) (0, 0, 0.00000000000000000000e+00) (0, 0, 0.00000000000000000000e+00) (0, 0, 0.00000000000000000000e+00) (0, 0, 0.00000000000000000000e+00) (0, 0, 0.00000000000000000000e+00) (0, 0, 0.00000000000000000000e+00) (0, 0, 0.00000000000000000000e+00) (0, 0, 0.00000000000000000000e+00) (0, 0, 0.00000000000000000000e+00) (0, 0, 0.00000000000000000000e+00) (0, 0, 0.00000000000000000000e+00) (0, 0, 0.00000000000000000000e+00) (0, 0, 0.00000000000000000000e+00) (0, 0, 0.00000000000000000000e+00) (0, 0, 0.00000000000000000000e+00) (0, 0, 0.00000000000000000000e+00) (0, 0, 0.00000000000000000000e+00) (0, 0, 0.00000000000000000000e+00) (0, 0, 0.00000000000000000000e+00) (0, 0, 0.00000000000000000000e+00) (0, 0, 0.00000000000000000000e+00) (0, 0, 0.00000000000000000000e+00) (0, 0, 0.00000000000000000000e+00) (0, 0, 0.00000000000000000000e+00) (0, 0, 0.00000000000000000000e+00) (0, 0, 0.00000000000000000000e+00) (0, 0, 0.00000000000000000000e+00) (0, 0, 0.00000000000000000000e+00) (0, 0, 0.00000000000000000000e+00) (0, 0, 0.00000000000000000000e+00) (0, 0, 0.00000000000000000000e+00) (0, 0, 0.00000000000000000000e+00) (0, 0, 0.00000000000000000000e+00) (0, 0, 0.00000000000000000000e+00) (0, 0, 0.00000000000000000000e+00) (0, 0, 0.00000000000000000000e+00) (0, 0, 0.00000000000000000000e+00) (0, 0, 0.00000000000000000000e+00) (0, 0, 0.00000000000000000000e+00) (0, 0, 0.00000000000000000000e+00) (0, 0, 0.00000000000000000000e+00) (0, 0, 0.00000000000000000000e+00) (0, 0, 0.00000000000000000000e+00) (0, 0, 0.00000000000000000000e+00) (0, 0, 0.00000000000000000000e+00) (0, 0, 0.00000000000000000000e+00) (0, 0, 0.00000000000000000000e+00) (0, 0, 0.00000000000000000000e+00) (0, 0, 0.00000000000000000000e+00) (0, 0, 0.00000000000000000000e+00) (0, 0, 0.00000000000000000000e+00) (0, 0, 0.00000000000000000000e+00) (0, 0, 0.00000000000000000000e+00) (0, 0, 0.00000000000000000000e+00) (0, 0, 0.00000000000000000000e+00) (0, 0, 0.00000000000000000000e+00) (0, 0, 0.00000000000000000000e+00) (0, 0, 0.00000000000000000000e+00) (0, 0, 0.00000000000000000000e+00) (0, 0, 0.00000000000000000000e+00) (0, 0, 0.00000000000000000000e+00) (0, 0, 0.00000000000000000000e+00) (0, 0, 0.00000000000000000000e+00) (0, 0, 0.00000000000000000000e+00) (0, 0, 0.00000000000000000000e+00) (0, 0, 0.00000000000000000000e+00) (0, 0, 0.00000000000000000000e+00) (0, 0, 0.00000000000000000000e+00) (0, 0, 0.00000000000000000000e+00) (0, 0, 0.00000000000000000000e+00) (0, 0, 0.00000000000000000000e+00) (0, 0, 0.00000000000000000000e+00) (0, 0, 0.00000000000000000000e+00) (0, 0, 0.00000000000000000000e+00) (0, 0, 0.00000000000000000000e+00) (0, 0, 0.00000000000000000000e+00) (0, 0, 0.00000000000000000000e+00) (0, 0, 0.00000000000000000000e+00) (0, 0, 0.00000000000000000000e+00) (0, 0, 0.00000000000000000000e+00) (0, 0, 0.00000000000000000000e+00) (0, 0, 0.00000000000000000000e+00) (0, 0, 0.00000000000000000000e+00) (0, 0, 0.00000000000000000000e+00) (0, 0, 0.00000000000000000000e+00) (0, 0, 0.00000000000000000000e+00) (0, 0, 0.00000000000000000000e+00) (0, 0, 0.00000000000000000000e+00) (0, 0, 0.00000000000000000000e+00) (0, 0, 0.00000000000000000000e+00) (0, 0, 0.00000000000000000000e+00) (0, 0, 0.00000000000000000000e+00) (0, 0, 0.00000000000000000000e+00) (0, 0, 0.00000000000000000000e+00) (0, 0, 0.00000000000000000000e+00) (0, 0, 0.00000000000000000000e+00) (0, 0, 0.00000000000000000000e+00) (0, 0, 0.00000000000000000000e+00) (0, 0, 0.00000000000000000000e+00) (0, 0, 0.00000000000000000000e+00) (0, 0, 0.00000000000000000000e+00) (0, 0, 0.00000000000000000000e+00) (0, 0, 0.00000000000000000000e+00) (0, 0, 0.00000000000000000000e+00) (0, 0, 0.00000000000000000000e+00) (0, 0, 0.00000000000000000000e+00) (0, 0, 0.00000000000000000000e+00) (0, 0, 0.00000000000000000000e+00) (0, 0, 0.00000000000000000000e+00) (0, 0, 0.00000000000000000000e+00) (0, 0, 0.00000000000000000000e+00) (0, 0, 0.00000000000000000000e+00) (0, 0, 0.00000000000000000000e+00) (0, 0, 0.00000000000000000000e+00) (0, 0, 0.00000000000000000000e+00) (0, 0, 0.00000000000000000000e+00) (0, 0, 0.00000000000000000000e+00) (0, 0, 0.00000000000000000000e+00) (0, 0, 0.00000000000000000000e+00) (0, 0, 0.00000000000000000000e+00) (0, 0, 0.00000000000000000000e+00) (0, 0, 0.00000000000000000000e+00) (0, 0, 0.00000000000000000000e+00) (0, 0, 0.00000000000000000000e+00) (0, 0, 0.00000000000000000000e+00) (0, 0, 0.00000000000000000000e+00) (0, 0, 0.00000000000000000000e+00) (0, 0, 0.00000000000000000000e+00) (0, 0, 0.00000000000000000000e+00) (0, 0, 0.00000000000000000000e+00) (0, 0, 0.00000000000000000000e+00) (0, 0, 0.00000000000000000000e+00) (0, 0, 0.00000000000000000000e+00) (0, 0, 0.00000000000000000000e+00) (0, 0, 0.00000000000000000000e+00) (0, 0, 0.00000000000000000000e+00) (0, 0, 0.00000000000000000000e+00) (0, 0, 0.00000000000000000000e+00) (0, 0, 0.00000000000000000000e+00) (0, 0, 0.00000000000000000000e+00) (0, 0, 0.00000000000000000000e+00) (0, 0, 0.00000000000000000000e+00) (0, 0, 0.00000000000000000000e+00) (0, 0, 0.00000000000000000000e+00) (0, 0, 0.00000000000000000000e+00) (0, 0, 0.00000000000000000000e+00) (0, 0, 0.00000000000000000000e+00) (0, 0, 0.00000000000000000000e+00) (0, 0, 0.00000000000000000000e+00) (0, 0, 0.00000000000000000000e+00) (0, 0, 0.00000000000000000000e+00) (0, 0, 0.00000000000000000000e+00) (0, 0, 0.00000000000000000000e+00) (0, 0, 0.00000000000000000000e+00) (0, 0, 0.00000000000000000000e+00) (0, 0, 0.00000000000000000000e+00) (0, 0, 0.00000000000000000000e+00) (0, 0, 0.00000000000000000000e+00) (0, 0, 0.00000000000000000000e+00) (0, 0, 0.00000000000000000000e+00) (0, 0, 0.00000000000000000000e+00) (0, 0, 0.00000000000000000000e+00) (0, 0, 0.00000000000000000000e+00) (0, 0, 0.00000000000000000000e+00) (0, 0, 0.00000000000000000000e+00) (0, 0, 0.00000000000000000000e+00) (0, 0, 0.00000000000000000000e+00) (0, 0, 0.00000000000000000000e+00) (0, 0, 0.00000000000000000000e+00) (0, 0, 0.00000000000000000000e+00) (0, 0, 0.00000000000000000000e+00) (0, 0, 0.00000000000000000000e+00) (0, 0, 0.00000000000000000000e+00) (0, 0, 0.00000000000000000000e+00) (0, 0, 0.00000000000000000000e+00) (0, 0, 0.00000000000000000000e+00) (0, 0, 0.00000000000000000000e+00) (0, 0, 0.00000000000000000000e+00) (0, 0, 0.00000000000000000000e+00) (0, 0, 0.00000000000000000000e+00) (0, 0, 0.00000000000000000000e+00) (0, 0, 0.00000000000000000000e+00) (0, 0, 0.00000000000000000000e+00) (0, 0, 0.00000000000000000000e+00) (0, 0, 0.00000000000000000000e+00) (0, 0, 0.00000000000000000000e+00) (0, 0, 0.00000000000000000000e+00) (0, 0, 0.00000000000000000000e+00) (0, 0, 0.00000000000000000000e+00) (0, 0, 0.00000000000000000000e+00) (0, 0, 0.00000000000000000000e+00) (0, 0, 0.00000000000000000000e+00) (0, 0, 0.00000000000000000000e+00) (0, 0, 0.00000000000000000000e+00) (0, 0, 0.00000000000000000000e+00) (0, 0, 0.00000000000000000000e+00) (0, 0, 0.00000000000000000000e+00) (0, 0, 0.00000000000000000000e+00) (0, 0, 0.00000000000000000000e+00) (0, 0, 0.00000000000000000000e+00) (0, 0, 0.00000000000000000000e+00) (0, 0, 0.00000000000000000000e+00) (0, 0, 0.00000000000000000000e+00) (0, 0, 0.00000000000000000000e+00) (0, 0, 0.00000000000000000000e+00) (0, 0, 0.00000000000000000000e+00) (0, 0, 0.00000000000000000000e+00) (0, 0, 0.00000000000000000000e+00) (0, 0, 0.00000000000000000000e+00) (0, 0, 0.00000000000000000000e+00) (0, 0, 0.00000000000000000000e+00) (0, 0, 0.00000000000000000000e+00) (0, 0, 0.00000000000000000000e+00) (0, 0, 0.00000000000000000000e+00) (0, 0, 0.00000000000000000000e+00) (0, 0, 0.00000000000000000000e+00) (0, 0, 0.00000000000000000000e+00) (0, 0, 0.00000000000000000000e+00) (0, 0, 0.00000000000000000000e+00) (0, 0, 0.00000000000000000000e+00) (0, 0, 0.00000000000000000000e+00) (0, 0, 0.00000000000000000000e+00) (0, 0, 0.00000000000000000000e+00) (0, 0, 0.00000000000000000000e+00) (0, 0, 0.00000000000000000000e+00) (0, 0, 0.00000000000000000000e+00) (0, 0, 0.00000000000000000000e+00) (0, 0, 0.00000000000000000000e+00) (0, 0, 0.00000000000000000000e+00) (0, 0, 0.00000000000000000000e+00) (0, 0, 0.00000000000000000000e+00) (0, 0, 0.00000000000000000000e+00) (0, 0, 0.00000000000000000000e+00) (0, 0, 0.00000000000000000000e+00) (0, 0, 0.00000000000000000000e+00) (0, 0, 0.00000000000000000000e+00) (0, 0, 0.00000000000000000000e+00) (0, 0, 0.00000000000000000000e+00) (0, 0, 0.00000000000000000000e+00) (0, 0, 0.00000000000000000000e+00) (0, 0, 0.00000000000000000000e+00) (0, 0, 0.00000000000000000000e+00) (0, 0, 0.00000000000000000000e+00) (0, 0, 0.00000000000000000000e+00) (0, 0, 0.00000000000000000000e+00) (0, 0, 0.00000000000000000000e+00) (0, 0, 0.00000000000000000000e+00) (0, 0, 0.00000000000000000000e+00) (0, 0, 0.00000000000000000000e+00) (0, 0, 0.00000000000000000000e+00) (0, 0, 0.00000000000000000000e+00) (0, 0, 0.00000000000000000000e+00) (0, 0, 0.00000000000000000000e+00) (0, 0, 0.00000000000000000000e+00) (0, 0, 0.00000000000000000000e+00) (0, 0, 0.00000000000000000000e+00) (0, 0, 0.00000000000000000000e+00) (0, 0, 0.00000000000000000000e+00) (0, 0, 0.00000000000000000000e+00) (0, 0, 0.00000000000000000000e+00) (0, 0, 0.00000000000000000000e+00) (0, 0, 0.00000000000000000000e+00) (0, 0, 0.00000000000000000000e+00) (0, 0, 0.00000000000000000000e+00) (0, 0, 0.00000000000000000000e+00) (0, 0, 0.00000000000000000000e+00) (0, 0, 0.00000000000000000000e+00) (0, 0, 0.00000000000000000000e+00) (0, 0, 0.00000000000000000000e+00) (0, 0, 0.00000000000000000000e+00) (0, 0, 0.00000000000000000000e+00) (0, 0, 0.00000000000000000000e+00) (0, 0, 0.00000000000000000000e+00) (0, 0, 0.00000000000000000000e+00) (0, 0, 0.00000000000000000000e+00) (0, 0, 0.00000000000000000000e+00) (0, 0, 0.00000000000000000000e+00) (0, 0, 0.00000000000000000000e+00) (0, 0, 0.00000000000000000000e+00) (0, 0, 0.00000000000000000000e+00) (0, 0, 0.00000000000000000000e+00) (0, 0, 0.00000000000000000000e+00) (0, 0, 0.00000000000000000000e+00) (0, 0, 0.00000000000000000000e+00) (0, 0, 0.00000000000000000000e+00) (0, 0, 0.00000000000000000000e+00) (0, 0, 0.00000000000000000000e+00) (0, 0, 0.00000000000000000000e+00) (0, 0, 0.00000000000000000000e+00) (0, 0, 0.00000000000000000000e+00) (0, 0, 0.00000000000000000000e+00) (0, 0, 0.00000000000000000000e+00) (0, 0, 0.00000000000000000000e+00) (0, 0, 0.00000000000000000000e+00) (0, 0, 0.00000000000000000000e+00) (0, 0, 0.00000000000000000000e+00) (0, 0, 0.00000000000000000000e+00) (0, 0, 0.00000000000000000000e+00) (0, 0, 0.00000000000000000000e+00) (0, 0, 0.00000000000000000000e+00) (0, 0, 0.00000000000000000000e+00) (0, 0, 0.00000000000000000000e+00) (0, 0, 0.00000000000000000000e+00) (0, 0, 0.00000000000000000000e+00) (0, 0, 0.00000000000000000000e+00) (0, 0, 0.00000000000000000000e+00) (0, 0, 0.00000000000000000000e+00) (0, 0, 0.00000000000000000000e+00) (0, 0, 0.00000000000000000000e+00) (0, 0, 0.00000000000000000000e+00) (0, 0, 0.00000000000000000000e+00) (0, 0, 0.00000000000000000000e+00) (0, 0, 0.00000000000000000000e+00) (0, 0, 0.00000000000000000000e+00) (0, 0, 0.00000000000000000000e+00) (0, 0, 0.00000000000000000000e+00) (0, 0, 0.00000000000000000000e+00) (0, 0, 0.00000000000000000000e+00) (0, 0, 0.00000000000000000000e+00) (0, 0, 0.00000000000000000000e+00) (0, 0, 0.00000000000000000000e+00) (0, 0, 0.00000000000000000000e+00) (0, 0, 0.00000000000000000000e+00) (0, 0, 0.00000000000000000000e+00) (0, 0, 0.00000000000000000000e+00) (0, 0, 0.00000000000000000000e+00) (0, 0, 0.00000000000000000000e+00) (0, 0, 0.00000000000000000000e+00) (0, 0, 0.00000000000000000000e+00) (0, 0, 0.00000000000000000000e+00) (0, 0, 0.00000000000000000000e+00) (0, 0, 0.00000000000000000000e+00) (0, 0, 0.00000000000000000000e+00) (0, 0, 0.00000000000000000000e+00) (0, 0, 0.00000000000000000000e+00) (0, 0, 0.00000000000000000000e+00) (0, 0, 0.00000000000000000000e+00) (0, 0, 0.00000000000000000000e+00) (0, 0, 0.00000000000000000000e+00) (0, 0, 0.00000000000000000000e+00) (0, 0, 0.00000000000000000000e+00) (0, 0, 0.00000000000000000000e+00) (0, 0, 0.00000000000000000000e+00) (0, 0, 0.00000000000000000000e+00) (0, 0, 0.00000000000000000000e+00) (0, 0, 0.00000000000000000000e+00) (0, 0, 0.00000000000000000000e+00) (0, 0, 0.00000000000000000000e+00) (0, 0, 0.00000000000000000000e+00) (0, 0, 0.00000000000000000000e+00) (0, 0, 0.00000000000000000000e+00) (0, 0, 0.00000000000000000000e+00) (0, 0, 0.00000000000000000000e+00) (0, 0, 0.00000000000000000000e+00) (0, 0, 0.00000000000000000000e+00) (0, 0, 0.00000000000000000000e+00) (0, 0, 0.00000000000000000000e+00) (0, 0, 0.00000000000000000000e+00) (0, 0, 0.00000000000000000000e+00) (0, 0, 0.00000000000000000000e+00) (0, 0, 0.00000000000000000000e+00) (0, 0, 0.00000000000000000000e+00) (0, 0, 0.00000000000000000000e+00) (0, 0, 0.00000000000000000000e+00) (0, 0, 0.00000000000000000000e+00) (0, 0, 0.00000000000000000000e+00) (0, 0, 0.00000000000000000000e+00) (0, 0, 0.00000000000000000000e+00) (0, 0, 0.00000000000000000000e+00) (0, 0, 0.00000000000000000000e+00) (0, 0, 0.00000000000000000000e+00) (0, 0, 0.00000000000000000000e+00) (0, 0, 0.00000000000000000000e+00) (0, 0, 0.00000000000000000000e+00) (0, 0, 0.00000000000000000000e+00) (0, 0, 0.00000000000000000000e+00) (0, 0, 0.00000000000000000000e+00) (0, 0, 0.00000000000000000000e+00) (0, 0, 0.00000000000000000000e+00) (0, 0, 0.00000000000000000000e+00) (0, 0, 0.00000000000000000000e+00) (0, 0, 0.00000000000000000000e+00) (0, 0, 0.00000000000000000000e+00) (0, 0, 0.00000000000000000000e+00) (0, 0, 0.00000000000000000000e+00) (0, 0, 0.00000000000000000000e+00) (0, 0, 0.00000000000000000000e+00) (0, 0, 0.00000000000000000000e+00) (0, 0, 0.00000000000000000000e+00) (0, 0, 0.00000000000000000000e+00) (0, 0, 0.00000000000000000000e+00) (0, 0, 0.00000000000000000000e+00) (0, 0, 0.00000000000000000000e+00) (0, 0, 0.00000000000000000000e+00) (0, 0, 0.00000000000000000000e+00) (0, 0, 0.00000000000000000000e+00) (0, 0, 0.00000000000000000000e+00) (0, 0, 0.00000000000000000000e+00) (0, 0, 0.00000000000000000000e+00) (0, 0, 0.00000000000000000000e+00) (0, 0, 0.00000000000000000000e+00) (0, 0, 0.00000000000000000000e+00) (0, 0, 0.00000000000000000000e+00) (0, 0, 0.00000000000000000000e+00) (0, 0, 0.00000000000000000000e+00) (0, 0, 0.00000000000000000000e+00) (0, 0, 0.00000000000000000000e+00) (0, 0, 0.00000000000000000000e+00) (0, 0, 0.00000000000000000000e+00) (0, 0, 0.00000000000000000000e+00) (0, 0, 0.00000000000000000000e+00) (0, 0, 0.00000000000000000000e+00) (0, 0, 0.00000000000000000000e+00) (0, 0, 0.00000000000000000000e+00) (0, 0, 0.00000000000000000000e+00) (0, 0, 0.00000000000000000000e+00) (0, 0, 0.00000000000000000000e+00) (0, 0, 0.00000000000000000000e+00) (0, 0, 0.00000000000000000000e+00) (0, 0, 0.00000000000000000000e+00) (0, 0, 0.00000000000000000000e+00) (0, 0, 0.00000000000000000000e+00) (0, 0, 0.00000000000000000000e+00) (0, 0, 0.00000000000000000000e+00) (0, 0, 0.00000000000000000000e+00) (0, 0, 0.00000000000000000000e+00) (0, 0, 0.00000000000000000000e+00) (0, 0, 0.00000000000000000000e+00) (0, 0, 0.00000000000000000000e+00) (0, 0, 0.00000000000000000000e+00) (0, 0, 0.00000000000000000000e+00) (0, 0, 0.00000000000000000000e+00) (0, 0, 0.00000000000000000000e+00) (0, 0, 0.00000000000000000000e+00) (0, 0, 0.00000000000000000000e+00) (0, 0, 0.00000000000000000000e+00) (0, 0, 0.00000000000000000000e+00) (0, 0, 0.00000000000000000000e+00) (0, 0, 0.00000000000000000000e+00) (0, 0, 0.00000000000000000000e+00) (0, 0, 0.00000000000000000000e+00) (0, 0, 0.00000000000000000000e+00) (0, 0, 0.00000000000000000000e+00) (0, 0, 0.00000000000000000000e+00) (0, 0, 0.00000000000000000000e+00) (0, 0, 0.00000000000000000000e+00) (785, 5, 5.00000000000000000000e-01) (785, 5, 5.00000000000000000000e-01) (785, 5, 5.00000000000000000000e-01) (785, 5, 5.00000000000000000000e-01) (785, 5, 5.00000000000000000000e-01) (785, 5, 5.00000000000000000000e-01) (785, 5, 5.00000000000000000000e-01) (785, 5, 5.00000000000000000000e-01) (785, 5, 5.00000000000000000000e-01) (785, 5, 5.00000000000000000000e-01) (785, 5, 5.00000000000000000000e-01) (785, 5, 5.00000000000000000000e-01) (785, 5, 5.00000000000000000000e-01) (785, 5, 5.00000000000000000000e-01) (785, 5, 5.00000000000000000000e-01) (0, 5, 0.00000000000000000000e+00) (16, 5, 5.00000000000000000000e-01) (16, 5, 5.00000000000000000000e-01) (16, 5, 5.00000000000000000000e-01) (16, 5, 5.00000000000000000000e-01) (16, 5, 5.00000000000000000000e-01) (16, 5, 5.00000000000000000000e-01) (16, 5, 5.00000000000000000000e-01) (16, 5, 5.00000000000000000000e-01) (16, 5, 5.00000000000000000000e-01) (16, 5, 5.00000000000000000000e-01) (0, 5, 0.00000000000000000000e+00) 
connections (connected_to_neuron, weight)=(0, -7.54272490739822387695e-02) (1, 5.08605912327766418457e-02) (2, -4.04174812138080596924e-02) (3, 8.69384780526161193848e-02) (4, 9.53918471932411193848e-02) (5, -5.47546409070491790771e-02) (6, -7.03002959489822387695e-02) (7, -4.69360500574111938477e-03) (8, -2.13806182146072387695e-02) (9, 7.72277787327766418457e-02) (10, -3.11523452401161193848e-02) (11, 3.23608443140983581543e-02) (12, 3.52806694542109819390e-02) (13, 2.77092902304944266323e-02) (14, -3.00678951450292740455e-02) (15, -9.57385613806896601519e-02) (16, 4.85046431422233581543e-02) (17, -1.61437988281250000000e-02) (18, -2.09716781973838806152e-02) (19, -2.51403823494911193848e-02) (20, -1.18347182869911193848e-02) (21, 1.13891586661338806152e-02) (22, 5.56823685765266418457e-02) (23, -2.93395966291427612305e-02) (24, 1.29089355468750000000e-02) (25, 3.23242172598838806152e-02) (26, -8.75366255640983581543e-02) (27, 2.63366773724555969238e-02) (28, 1.35437026619911193848e-02) (29, -9.65575873851776123047e-03) (30, -3.00170928239822387695e-02) (31, 2.50671431422233581543e-02) (32, 5.52123658159905678772e-03) (33, -5.53525456294794437895e-02) (34, 3.68202747233985772102e-02) (35, 1.06614471334313884454e-01) (36, 1.78135720225217619728e-01) (37, 1.29089269954765772930e-01) (38, 2.35966348073024079213e-01) (39, 9.18958406242003505993e-02) (40, 1.48629896454696958097e-01) (41, 9.58688888391827087609e-02) (42, 2.55775812415218184448e-01) (43, 2.40625438446186862285e-01) (44, 1.91939845730082596365e-02) (45, 9.13182341965162319708e-02) (46, 1.27905010698588922358e-01) (47, 1.53072892628577317264e-01) (48, 1.16352384207558098850e-01) (49, 6.13520905893110979346e-02) (50, -4.07038143874858507516e-04) (51, -4.22188513270066803629e-02) (52, -3.21654975414276123047e-03) (53, 3.41369584202766418457e-02) (54, 5.72753921151161193848e-02) (55, -9.04785171151161193848e-02) (56, -9.39758345484733581543e-02) (57, 2.02636420726776123047e-03) (58, -7.82767414482393175668e-02) (59, 4.57051518139258636242e-02) (60, 1.10628252943272189363e-02) (61, -9.26957765307832720625e-02) (62, 9.47384546735446503307e-02) (63, 1.04794919672491940003e-03) (64, 2.51327688590537723368e-01) (65, 8.37450492245061239860e-02) (66, 1.85155904517407376986e-01) (67, 1.48166493121135611766e-01) (68, 3.09251943491443082035e-01) (69, 2.55828872756154790391e-01) (70, 3.13444665652740039885e-01) (71, 4.01286236661958506389e-01) (72, 1.98333331849352811904e-01) (73, 2.84259239881375580516e-01) (74, 3.70495178038458161662e-01) (75, 3.70011734125512858906e-01) (76, 1.60019231990281646238e-01) (77, 2.15017883703202017376e-01) (78, 1.58931304146883806139e-01) (79, 6.18794349012065977161e-03) (80, 5.79346610352053717485e-02) (81, -8.49861102283169522753e-02) (82, 7.28759914636611938477e-03) (83, -1.29699707031250000000e-02) (84, 4.20288071036338806152e-02) (85, 3.48876938223838806152e-02) (86, 5.92773777470167462234e-02) (87, 3.07565732334826140437e-02) (88, 7.56112002119518900045e-02) (89, 4.90869745327674467106e-02) (90, 6.69713529990566547312e-02) (91, 2.75973361495089990203e-02) (92, 3.79348885763899842938e-02) (93, 3.62656530507313654144e-02) (94, 2.29222149090110988157e-02) (95, -8.58091951551288312228e-02) (96, 3.41426586140490956334e-02) (97, -2.53307606144675179216e-01) (98, -1.83765413255281867544e-01) (99, 9.48871040232283496918e-02) (100, -8.24563526980868904959e-02) (101, 3.70589437203400623444e-02) (102, 2.14226509977731904844e-01) (103, 2.29076105301039750772e-01) (104, 3.31842610973518081785e-01) (105, 2.76239617343382704018e-01) (106, 2.27758871219074510162e-01) (107, 9.90033275705018561696e-02) (108, 8.32897375311224957839e-02) (109, -5.27187159581506744471e-03) (110, -6.07797446032763352686e-02) (111, -4.58923354744911193848e-02) (112, -2.13623046875000000000e-04) (113, 6.34687066203706712342e-02) (114, 3.77331504583903118433e-02) (115, -1.80359939243046130466e-03) (116, 5.60280591500514485448e-02) (117, -9.83194891015568006587e-03) (118, 1.28733301892545615175e-01) (119, 1.80333220410529515565e-01) (120, 1.11785668650892136555e-01) (121, -1.82413422656656026843e-01) (122, -2.56112239679807118797e-01) (123, 3.13406067862022769122e-02) (124, -1.97117762548383340659e-01) (125, 5.04658934024611940949e-02) (126, -1.19664486658283164555e-01) (127, 5.46595919795958840037e-02) (128, -6.35083891974770886613e-02) (129, -1.17536021293511164232e-01) (130, 4.21330508590173069550e-02) (131, -1.57085966951863095775e-02) (132, -9.40364541278224802534e-02) (133, 9.96930488723564156572e-02) (134, 2.41613114040941351357e-01) (135, 3.54791313789952156288e-01) (136, 2.57670028448357124606e-01) (137, 1.34851203013169190781e-01) (138, -5.29521576723001111131e-02) (139, 4.29522396483038929049e-02) (140, 6.94213882088661193848e-02) (141, 3.62670943140983581543e-02) (142, 4.20415459549816974971e-02) (143, -1.90354991346143656572e-02) (144, 3.46214050842152953891e-02) (145, 2.12723397078212861366e-01) (146, 1.69749240972578041564e-01) (147, -1.86770760695477051894e-02) (148, -4.68278057408108155935e-02) (149, -5.48805384981644120423e-02) (150, -1.26910718439691622139e-01) (151, -9.89876579136348827559e-02) (152, -2.13097842426225786427e-01) (153, -4.06555590597377572437e-02) (154, 6.34103905467407486657e-03) (155, -1.65468633522005331704e-01) (156, -2.10042791985971338820e-01) (157, -5.17729071263436091410e-02) (158, -9.40057646328701229654e-02) (159, 3.98768459644255821028e-02) (160, -5.18533785487628046118e-02) (161, -7.76010725399821493786e-02) (162, -4.66250192614525438284e-02) (163, 2.10847454570598835666e-01) (164, 2.31560651697429398244e-01) (165, 1.59672479501988618181e-03) (166, 2.47220443463432304476e-02) (167, 1.16641651364668137540e-03) (168, -4.20532375574111938477e-03) (169, -6.64929183502217108215e-02) (170, 3.46916573503980585347e-02) (171, -3.35462784936869096164e-02) (172, 1.53607045317053179934e-02) (173, 7.60746318871591137301e-02) (174, 2.87281132957139702377e-02) (175, 2.25249735816275137301e-02) (176, -6.60442832523850699433e-03) (177, -2.18798582296424348748e-01) (178, -2.14173412062957126134e-02) (179, -8.87361889186021046694e-02) (180, 4.25649477426466929519e-02) (181, -2.72416165295378577549e-02) (182, 1.51279217598289245084e-01) (183, -8.77159181212892741231e-02) (184, -2.30411014721609366807e-02) (185, -2.55477472784773063097e-02) (186, -1.56747825282833513905e-01) (187, 7.31530850695809586881e-02) (188, 7.98209511767554030781e-02) (189, -8.01753247229323486034e-03) (190, 1.34372493120231806252e-01) (191, 3.59429845665491853879e-01) (192, 3.51501625368522807591e-01) (193, 1.23812011191723164716e-01) (194, 2.22234019156446367671e-02) (195, -3.17628786739215969448e-03) (196, -9.07635532469604766614e-02) (197, 4.53042716524194727379e-02) (198, -6.36964128268218132689e-02) (199, 8.60384134885626983280e-02) (200, 4.89345897227803222629e-02) (201, 8.09620381176814341018e-02) (202, -2.32752662082317068881e-01) (203, 5.76054517494153026091e-02) (204, 1.63970743969617700764e-02) (205, 8.20428819773582618247e-02) (206, 1.38637983051295904380e-01) (207, 5.64127247356615638130e-02) (208, 2.70312971194919315909e-01) (209, -1.41741173312354779013e-01) (210, -1.99077340495231930317e-01) (211, 1.86172322577500048979e-01) (212, 1.76491612294285430199e-03) (213, 7.04619295054718375315e-02) (214, 1.13941633335814918038e-01) (215, 2.00667126267492945679e-01) (216, 2.74068988291393637879e-02) (217, 2.41345477640183186940e-01) (218, -1.66171873710240475264e-01) (219, 3.08756705458532509923e-01) (220, 3.14713065614314446705e-01) (221, 9.45975825342284665220e-02) (222, 1.90104380759244413757e-02) (223, -8.91260150472877876737e-02) (224, -3.62505145082682375679e-02) (225, -1.13233644567673916170e-01) (226, 4.90716922350614356829e-02) (227, 5.66027308777963741870e-02) (228, 3.07145603460377614180e-01) (229, 2.40571962341922740425e-01) (230, 1.94721898626370598651e-02) (231, 6.91360986887768706050e-03) (232, 3.69633075124188789640e-02) (233, 1.58424962447708567170e-01) (234, -8.26797648942037138875e-02) (235, -1.91160085900067416853e-01) (236, -1.17722213116801005528e-01) (237, 2.04540473437266785706e-02) (238, -2.73406941547654595837e-02) (239, 1.25654766640088594309e-01) (240, 6.76192435216350640204e-02) (241, -9.36372472292383573045e-04) (242, -5.01841964299685125428e-02) (243, 5.19403332097762571173e-02) (244, -5.97412794384702544592e-02) (245, 2.00882454355037737281e-01) (246, 1.03345751092581678021e-01) (247, 2.40921684228712296161e-01) (248, 3.47947398446865840960e-01) (249, 8.25027878643484757770e-02) (250, -2.00852478399031024459e-02) (251, 4.41563424691920475285e-02) (252, 9.58214374748403846516e-02) (253, -5.64842619973417725543e-02) (254, -5.57700715941229080430e-02) (255, -3.86098740816111854479e-02) (256, 3.78142225383534535954e-02) (257, 8.22189884118332686702e-02) (258, 1.15370635235445814781e-01) (259, -3.81191715715364642936e-02) (260, -4.54576571435926553993e-03) (261, -2.17295325012384160646e-01) (262, -3.99674015126294801536e-02) (263, -1.41618867742583615099e-01) (264, -1.85655129094279840347e-03) (265, 7.49247541168775732512e-02) (266, -1.88989934632782963231e-01) (267, -8.48615824198727802807e-03) (268, -8.76166231870062206522e-02) (269, 8.16314547465417789107e-02) (270, 6.91477559951863690602e-02) (271, 4.10745338986810981652e-02) (272, 6.25934005918391961343e-02) (273, 1.90216350942460921125e-02) (274, -5.84317702065638780451e-02) (275, 2.77388800568991844564e-01) (276, 2.39346978635744139785e-01) (277, -4.33879932923304859060e-02) (278, 1.54998358822456046985e-02) (279, 4.40916908884088631915e-02) (280, 3.95327565663036867294e-02) (281, 8.21698642734909334706e-02) (282, -4.52349645045175136060e-02) (283, 2.26399009948872076414e-01) (284, 2.92289165154104857436e-01) (285, -2.15172766066949572306e-01) (286, -2.97533891630087365954e-01) (287, 9.17930767005648295953e-02) (288, 1.52896628224443109634e-01) (289, 2.86657080341623203557e-02) (290, 1.07797494418815253958e-01) (291, -8.27720293823270419908e-02) (292, 1.09942178312729746392e-02) (293, 1.83899870978144003297e-01) (294, -8.05324558571140630692e-02) (295, -1.61936748561814558567e-01) (296, 9.81520539928462110169e-02) (297, -3.46731641797133616212e-02) (298, -2.75104276485852727863e-02) (299, 6.54485983170111172008e-03) (300, 3.23701834419954943139e-03) (301, 6.25474168821786233319e-03) (302, 5.36114457314400064125e-02) (303, 8.62913637531826788196e-02) (304, 1.40627549335101603711e-01) (305, -4.61604367958109926273e-02) (306, -4.77011728175362539894e-02) (307, -3.10725355091925961593e-02) (308, -1.19917934516207882328e-02) (309, 2.14339528722125444160e-02) (310, 1.02392277490386679473e-01) (311, 2.15265329744345534912e-01) (312, 2.46297349134466603271e-01) (313, 8.57279214652399701446e-02) (314, 4.51958589722995240923e-01) (315, 5.46383643409592223428e-01) (316, 4.32737751733404563126e-01) (317, 7.03109405673145393401e-01) (318, 6.46276560419026924187e-01) (319, 6.65505141134877464815e-01) (320, 6.01659888694906608286e-01) (321, 5.53173046873534079992e-01) (322, 1.77534099259417377237e-01) (323, 1.90978009166432399768e-01) (324, 2.05991791557030047566e-02) (325, 1.72847429458508172750e-01) (326, -4.63882308358067249610e-02) (327, -6.67412176006189489241e-02) (328, -6.04224053388571769041e-02) (329, -2.64902581147188481703e-02) (330, 1.17831963901827846408e-01) (331, 2.42556567878045747921e-01) (332, 9.10755781766128466592e-03) (333, -1.15890987092954853011e-01) (334, -1.15622969022737387412e-01) (335, -2.70224703811118537045e-02) (336, 4.78117911807903472887e-02) (337, -2.92620794624914928872e-02) (338, 1.60535392125594061907e-01) (339, 1.42294768839371421620e-01) (340, 2.51247803665627433833e-01) (341, 5.77031857149938764984e-01) (342, 1.09226106774446285463e+00) (343, 1.02029067957195374028e+00) (344, 4.35371182102969989103e-01) (345, 5.33983405166014724053e-01) (346, 3.31579213950206619366e-01) (347, 3.19861291172553741102e-01) (348, 3.47662791672711135593e-01) (349, 2.76618092419336769616e-01) (350, 3.39552918216109930749e-02) (351, -2.63946157330579439515e-02) (352, 2.22748609081072523885e-01) (353, 2.25475895343035831475e-01) (354, 1.07666096285190179827e-01) (355, -3.02461843613979000644e-02) (356, -1.03840080954838362426e-01) (357, -7.00184288171997182282e-02) (358, 1.75609041256641562612e-01) (359, 3.13068513290021277484e-01) (360, -7.40164355622114078503e-02) (361, -3.12985556585754776115e-01) (362, -3.06957653785827733195e-01) (363, -3.03781931780722604455e-03) (364, 9.21527281193783576185e-02) (365, 1.33497616792559836707e-01) (366, 1.36903729589129379007e-02) (367, 1.27310380496312658405e-01) (368, 2.19847234924835516212e-01) (369, 6.60276852110184830913e-01) (370, 4.28597411648507453652e-01) (371, 3.22242436384310271258e-01) (372, -7.74668249683681947593e-02) (373, 1.56302287043696558344e-01) (374, 8.19036190780007972156e-02) (375, -1.91718763743204512195e-01) (376, 4.42823543151305842880e-02) (377, 1.07561174326753061087e-02) (378, -1.80435043986936660687e-01) (379, 1.70209193837011163453e-01) (380, -1.77190459949488413050e-02) (381, 1.17472089592565664962e-01) (382, 9.40214928592084248082e-02) (383, 1.27726079080673377009e-01) (384, 3.64927370836518050190e-02) (385, 2.45813691440718629089e-01) (386, 4.12626971773867257109e-01) (387, 1.31040531078027600032e-01) (388, -1.42690661424373949062e-01) (389, -5.92465318113108319054e-01) (390, -5.44211391791123766382e-01) (391, -2.63159927081340783150e-01) (392, -6.81026860821009327740e-02) (393, 7.94444675287474255665e-02) (394, 1.29352716417556246054e-01) (395, -3.43819463910611175517e-02) (396, 1.85325479573240498032e-02) (397, 3.05970698297438226110e-01) (398, -2.23057980175764593300e-02) (399, -2.45018676202089946692e-01) (400, 7.10524616505853745529e-02) (401, 6.12301936827152198939e-02) (402, 6.73671607115656628784e-02) (403, -4.16368066011370760449e-02) (404, -3.33078006002871171432e-02) (405, -3.46478655966858561932e-01) (406, -9.32137743173819810494e-02) (407, -1.27015469674752023987e-01) (408, -2.15379305480278664120e-02) (409, 1.12539694153944880295e-01) (410, -1.51859260517131500201e-01) (411, 1.64299860533788477657e-01) (412, 1.28608612565434182740e-01) (413, 3.34008105764137919191e-01) (414, -4.77282114612771132811e-02) (415, -7.06466491490572862100e-02) (416, 1.25756380438507037178e-01) (417, -1.56962877012204793381e-01) (418, -4.59063989228462809855e-01) (419, -1.18052142059997380863e-01) (420, 2.13519332821465249173e-02) (421, -4.17091727126354047672e-02) (422, 1.16079209917454115319e-01) (423, -1.54263816745809689834e-01) (424, -2.88162870544889759827e-01) (425, -5.09746117193804137990e-01) (426, -7.82567701257726594521e-02) (427, 5.23805958229091525591e-02) (428, 1.41998869473095395977e-01) (429, 5.94718984297880962075e-02) (430, -8.85549275391311480066e-02) (431, -9.34360585286430900265e-02) (432, 5.42958851252736685034e-03) (433, -3.42085354389915635709e-02) (434, -5.37133786632769047453e-02) (435, -1.67212419671854406467e-01) (436, -1.43218602342322615106e-01) (437, 8.37502371576021096937e-04) (438, 1.46051806134730816078e-01) (439, -6.08851164304068590005e-02) (440, -6.48564258146340916200e-02) (441, 9.67606158795272230932e-02) (442, 1.10340260465054157413e-01) (443, 2.30014191197579154213e-01) (444, 3.22898644171515925017e-02) (445, -1.52740081341566330542e-01) (446, -4.66409518448153426196e-01) (447, -1.68035255092891605555e-01) (448, 2.68795582046569420109e-02) (449, -4.12215454959983587657e-02) (450, 1.45718622848670903425e-01) (451, -1.04456663559599899349e-01) (452, -2.52554522647670476321e-01) (453, -2.75442802101713402063e-01) (454, -1.08573866568080198980e-01) (455, -1.57106892133324932415e-01) (456, 2.07906033287229397022e-01) (457, -2.77958353867454321939e-01) (458, 4.67593166629758222319e-02) (459, -8.86312466662497605574e-02) (460, -3.56071688338851222166e-02) (461, -2.46277754547379018613e-01) (462, -1.25196251273628378353e-01) (463, -1.44800993659016524751e-01) (464, -2.64210317771599312309e-01) (465, -4.10355583781688126876e-01) (466, 4.80692147613034984066e-02) (467, 7.84371110684654038181e-02) (468, 3.60580826260676445827e-01) (469, -2.04818090141340919397e-01) (470, -2.94935547543346110455e-01) (471, -1.68905081235835308195e-01) (472, -1.09972257005697023058e-02) (473, -4.01898226653305157274e-01) (474, -6.37367161224669631636e-01) (475, -1.67997165573465223609e-01) (476, 6.64367750287055969238e-02) (477, 1.03552046190023370326e-02) (478, 9.73983560099906248153e-02) (479, -5.83691977413669724206e-02) (480, -1.26264990234022017601e-01) (481, -1.24273724102272040137e-01) (482, -2.25620631832093326841e-01) (483, -5.74289946443779578122e-02) (484, -2.45380835299988026010e-01) (485, -7.80582235532104062349e-04) (486, 1.05631445849262897013e-02) (487, -8.77001740816542481316e-03) (488, -1.20483834666945455183e-01) (489, -1.63200798007614306107e-01) (490, -2.35398577559581712038e-01) (491, -2.28473097111915462998e-01) (492, -7.43359731638473381077e-02) (493, -6.83930715558243168539e-02) (494, -1.19059925868426966233e-01) (495, 7.23091072704797055426e-02) (496, 1.24228281096159826058e-01) (497, -1.38970962159156830040e-01) (498, -2.69195593002574617980e-01) (499, 1.30782634506563105736e-01) (500, -2.43172000946655399167e-02) (501, -4.32732058046024214981e-01) (502, -9.04873582714718072140e-02) (503, -3.64428257138202094101e-02) (504, -5.51740213657960151816e-02) (505, 3.13767523821508673154e-02) (506, 4.85776771253139949547e-02) (507, 7.08354000739650768725e-02) (508, -6.42784858602750142076e-02) (509, -1.91782842040664786021e-01) (510, -1.47735601302731528461e-01) (511, -1.44725682145295242442e-01) (512, -8.51880953265404944341e-02) (513, -4.89308524697242216983e-02) (514, 3.31449349471444471016e-02) (515, 8.97073186657908472341e-02) (516, 1.40736250412745567129e-01) (517, -1.24836657006029611017e-01) (518, -2.03071571018814039933e-01) (519, -2.27473035010896634800e-01) (520, -3.02935576494666902736e-01) (521, -3.04777627588594168806e-01) (522, -3.44496556883139778971e-02) (523, -1.82814076800120989263e-01) (524, -6.58347724558265845474e-02) (525, 7.29559218964834482052e-03) (526, -2.70969366729631344626e-01) (527, -2.70275347972945390040e-01) (528, -5.70204791266388677506e-01) (529, -2.58331846415968680031e-01) (530, 1.89578994014937343704e-02) (531, -1.47870586454570851487e-01) (532, 2.03537011292136442095e-03) (533, 9.97617718543182263602e-02) (534, 1.46304530365143181658e-01) (535, 7.74970880200548661865e-02) (536, 8.59106123815062128202e-03) (537, 3.22993791585057810067e-02) (538, 2.19742414902633319274e-02) (539, -1.18938692823870525994e-01) (540, -1.46653826914086460320e-01) (541, -9.49738044095647798715e-02) (542, -2.54556932604714999946e-02) (543, 5.03992925231354291227e-02) (544, 3.36854692631294694305e-01) (545, 2.29181127356249125793e-02) (546, 1.15515362964607931628e-01) (547, -3.94631076011000780923e-01) (548, -1.20866120286013095653e-01) (549, -1.21603920370122742245e-01) (550, -1.72899049022819384369e-01) (551, 8.99312657990716940448e-02) (552, -7.25009645309995093276e-02) (553, -2.28410340229100006226e-01) (554, -4.18415201120205637597e-01) (555, -8.18499709176097184349e-02) (556, -4.03499072105649891906e-01) (557, -2.63201754914799190832e-01) (558, -5.96818350345703005355e-02) (559, -8.85990130334238790155e-02) (560, 9.13574174046516418457e-02) (561, -2.63531515366264811051e-02) (562, -4.86460943505337625736e-02) (563, 1.20775055949018869650e-01) (564, -1.85286437675922233126e-01) (565, -8.42472705308857650053e-02) (566, -1.08115228778849742364e-01) (567, -2.65293580657669503253e-01) (568, -9.58648907535972066851e-02) (569, -2.32625648786846855876e-01) (570, 1.18966280732160645250e-01) (571, -2.16947171823707957161e-01) (572, 1.91963346964561576424e-01) (573, 3.20231569317682929210e-01) (574, 3.91107021235329699316e-01) (575, 2.53454534343584780842e-01) (576, 1.46773679364665732283e-01) (577, 3.99575944400973104287e-01) (578, -9.65054869437917545172e-02) (579, -1.53646509940516540205e-01) (580, 3.25050125979795059838e-02) (581, -1.21823393520123848810e-01) (582, -1.23500590020089423549e-01) (583, -6.21001497468689905856e-02) (584, -1.89528466917936039282e-01) (585, -1.94764916627168188645e-01) (586, -1.05587603333847229736e-02) (587, -7.84134336897610445538e-02) (588, -8.82799915087550124415e-02) (589, -1.69096439606920764809e-02) (590, -1.40820373442510655276e-02) (591, 1.52241799790950205207e-01) (592, 2.48167933849296161453e-02) (593, 1.64001684767583187120e-03) (594, -6.18109395819203960576e-02) (595, -3.29428636763192945851e-04) (596, 1.09062367530703505786e-02) (597, -1.06581184513922191948e-01) (598, -2.34563507057153619595e-01) (599, 6.60126044266763911672e-02) (600, 2.05226710888870844673e-01) (601, 1.52829016263738431958e-01) (602, 1.58844434959901359417e-01) (603, 3.92881227964196999558e-01) (604, 1.52877946196569747261e-01) (605, 1.72567152912809995691e-01) (606, 3.09930196674318980676e-01) (607, -6.55343295981997055882e-03) (608, 1.25738012264906162674e-01) (609, -2.87414363890043544902e-01) (610, -1.96842229104544436113e-01) (611, -1.27580589189704662889e-01) (612, 1.02609388892525871945e-02) (613, -5.05886492507098967097e-02) (614, -2.22956187337501748891e-02) (615, -5.72843380820283118449e-02) (616, 4.83139615200986125010e-03) (617, -2.23835723635477309990e-02) (618, 3.27595427742006367611e-02) (619, 4.21938663766043137171e-02) (620, 1.25748122953233731902e-01) (621, -4.46009017851842284874e-02) (622, 1.49195739944308677222e-02) (623, -1.70890301258939364404e-01) (624, -9.21206143075014860511e-02) (625, -5.24132703980320149850e-02) (626, -1.54813071385717301864e-02) (627, -1.47443118427263236692e-01) (628, 4.76895106888769668152e-02) (629, -2.45029279545207305524e-02) (630, 2.98171505102796274844e-01) (631, 6.27599941771366465204e-01) (632, 5.65757479804921747935e-01) (633, 2.77797361890041949462e-01) (634, 3.02519680253636735756e-01) (635, 2.31213010448419714615e-01) (636, 8.57594587119638457340e-02) (637, 3.75111118535603887958e-02) (638, 2.58590012376994152210e-02) (639, -1.64999129064204885786e-01) (640, 3.35293728983801844756e-02) (641, 1.77643564210825180560e-02) (642, 4.21545428404878075312e-02) (643, 2.06485769058139985443e-02) (644, 4.28772047162055969238e-02) (645, 2.00927704572677612305e-02) (646, 8.17267710406810454771e-02) (647, -5.95530090919186363974e-02) (648, 6.23093236817462287069e-02) (649, 1.33120812281617706407e-01) (650, 2.02862716215677085785e-01) (651, 2.08422275741944634797e-01) (652, 1.64001441126216868094e-01) (653, 2.02339692505118240451e-01) (654, 6.40809008511875576042e-03) (655, 8.49929217380183260611e-02) (656, 2.22450781061576924325e-01) (657, 5.45102701415370427540e-01) (658, 5.62754806375202032420e-01) (659, 7.53632506846610095153e-01) (660, 5.18849924021278496866e-01) (661, 4.75304843903379348191e-01) (662, 5.29602145114475453269e-01) (663, 3.12890963926520493388e-01) (664, 2.27790205321767275093e-01) (665, 6.86056000156779199894e-02) (666, 2.94453704865261123302e-01) (667, 7.79593923509716707487e-02) (668, -6.89922714671028919353e-02) (669, -1.20159869105171290826e-01) (670, -6.43971022970747514202e-02) (671, 6.32446333765983581543e-02) (672, -7.80700668692588806152e-02) (673, 6.44714310765266418457e-02) (674, -1.77649485181984798099e-02) (675, 6.37632961502663103692e-02) (676, 9.50411314800442552642e-02) (677, 9.90891909684078475706e-02) (678, 3.79908659636061241116e-01) (679, 3.20222177694944154513e-01) (680, 2.25511102498802268324e-01) (681, 3.12482472013119738641e-01) (682, 4.60210609890178479198e-01) (683, 4.52408476647621071720e-01) (684, 6.34410430355902832389e-01) (685, 5.27010026949653043182e-01) (686, 4.38808216308366916270e-01) (687, 4.30386264994154277286e-01) (688, 3.62157830570203176368e-01) (689, 2.82003702890192664565e-01) (690, 1.41215792650179389200e-01) (691, 2.25598473999399112833e-01) (692, 1.95271237694659149930e-01) (693, 2.11415460463248550127e-01) (694, 2.23448760972667026525e-01) (695, 1.29574163287562577063e-01) (696, 3.67260984916519192534e-02) (697, -1.30982569882243438109e-01) (698, 3.52029861492190523919e-02) (699, -7.05627426505088806152e-02) (700, 8.13415572047233581543e-02) (701, 4.62951734662055969238e-02) (702, 5.22504412953621391602e-02) (703, -2.82468412402555220375e-02) (704, 3.65984143679915080449e-02) (705, 2.21604480290364773409e-02) (706, 2.58913813068513798399e-01) (707, 2.83622523280500693499e-01) (708, 3.51778789873293140644e-01) (709, 5.27193801363799341431e-01) (710, 3.45066591053166615843e-01) (711, 3.47694825195418000252e-01) (712, 2.24116520416953235451e-01) (713, 3.19924832286867022457e-01) (714, 3.08621225072520488641e-01) (715, 2.60044401483645049034e-01) (716, 1.08083385903883319457e-01) (717, 1.31107206428523276331e-01) (718, 2.10609206933101311687e-01) (719, 3.66590627829225079726e-01) (720, 2.61978216256093354719e-01) (721, 2.00005760813507571516e-01) (722, 2.32030221681958970237e-01) (723, 1.85557664927824494949e-01) (724, 2.29814197617892630732e-02) (725, -4.58761571076289273452e-02) (726, 5.08299237858011107583e-02) (727, 6.59240707755088806152e-02) (728, -3.33984345197677612305e-02) (729, -2.84118652343750000000e-02) (730, -6.25854507088661193848e-02) (731, 9.21505470719279351499e-02) (732, -4.12564789481475926308e-03) (733, 3.42970334889202560502e-02) (734, 1.60186090186625912368e-01) (735, 4.21521492996835070444e-02) (736, -8.95796437035702511342e-03) (737, 7.75523904069618380541e-02) (738, 9.35616441706768608988e-02) (739, 8.40189342551068002463e-02) (740, 1.31730757642471552060e-01) (741, 4.11423038436264099094e-02) (742, 1.51186841218969858502e-01) (743, 2.88943636813342556724e-02) (744, 1.18504591761453809129e-01) (745, 1.07482542824987731267e-01) (746, 2.33265563733349966247e-02) (747, 1.35461561843784627536e-03) (748, 8.68501198684568515018e-02) (749, 1.60563619419546971256e-01) (750, -6.91248656030274757911e-03) (751, -8.29172211521865196171e-03) (752, -8.33118514379332930631e-02) (753, -1.15755215060872832661e-02) (754, -5.17272949218750000000e-02) (755, 9.05090346932411193848e-02) (756, 5.54565414786338806152e-02) (757, -8.63769575953483581543e-02) (758, -3.97338718175888061523e-03) (759, -6.96227997541427612305e-02) (760, 2.60137763962076697111e-02) (761, 1.47143061531461345759e-02) (762, 1.90862261575124869672e-02) (763, 4.29967518495373290932e-02) (764, -3.83302759835684250800e-02) (765, -9.57971227188199152269e-03) (766, 9.50262947499122268002e-02) (767, -8.73666809868449828480e-02) (768, -6.58857823024450867111e-02) (769, 4.08950613537425872179e-02) (770, 9.59302423844404545013e-04) (771, -1.64844953578516077719e-02) (772, 8.85578755038508025343e-02) (773, 9.81485008236688410976e-02) (774, 8.86520734070963822848e-02) (775, -4.78984868137327240989e-02) (776, 2.15107640117587761708e-02) (777, -4.24213189170616553070e-02) (778, -2.33273785895408390656e-02) (779, -6.19080471228282891091e-04) (780, -1.26892104744911193848e-02) (781, 1.85547024011611938477e-03) (782, -9.57763716578483581543e-02) (783, 1.44531279802322387695e-02) (784, 2.27021874993517425168e+00) (0, -3.51257324218750000000e-02) (1, 1.37817412614822387695e-02) (2, 1.21765136718750000000e-02) (3, 2.64831557869911193848e-02) (4, -7.93640166521072387695e-02) (5, 3.03588882088661193848e-02) (6, 1.43798813223838806152e-02) (7, -4.64843772351741790771e-02) (8, 7.02575668692588806152e-02) (9, -5.56030124425888061523e-03) (10, 6.80725052952766418457e-02) (11, 3.23489308357238769531e-04) (12, -2.94006581027318747434e-02) (13, -6.19589724522323463674e-03) (14, -4.04963695249734093040e-02) (15, -3.15396406097616238684e-02) (16, 1.73217803239822387695e-02) (17, -9.41650420427322387695e-02) (18, 8.94042924046516418457e-02) (19, 2.99438461661338806152e-02) (20, -8.11218246817588806152e-02) (21, 6.75720199942588806152e-02) (22, 3.35021987557411193848e-02) (23, 2.41821259260177612305e-02) (24, -8.68042036890983581543e-02) (25, -1.63696259260177612305e-02) (26, 9.80895981192588806152e-02) (27, 6.28539994359016418457e-02) (28, 8.77807661890983581543e-02) (29, 2.43835449218750000000e-02) (30, -2.66906768083572387695e-02) (31, -2.82958969473838806152e-02) (32, -2.31520380911285524050e-02) (33, 5.29903450535837219904e-02) (34, -2.57951597377990594906e-02) (35, 6.99213548411157376217e-03) (36, -3.62321166802091337855e-02) (37, 1.06025321572761649369e-01) (38, 5.14525681586375238652e-02) (39, -1.69559647923676268255e-02) (40, 8.21678423582691691562e-02) (41, -3.28547905683951591005e-02) (42, 5.76953371872570980328e-02) (43, 2.02052982128680558294e-01) (44, 2.13027782514279319381e-02) (45, 1.27359288228970274348e-01) (46, 1.05761906847377448737e-01) (47, 5.91126492444971618490e-02) (48, 5.66843978170112408610e-02) (49, 8.29654379444591250081e-02) (50, -6.65525212425057133281e-02) (51, -6.59208932868451530362e-02) (52, 2.64892652630805969238e-02) (53, 9.83459427952766418457e-02) (54, 3.34472730755805969238e-02) (55, 8.81408676505088806152e-02) (56, -9.19494628906250000000e-02) (57, -9.55200195312500000000e-02) (58, 2.22931541734643565156e-02) (59, 2.00877209914045277983e-02) (60, 5.66455692424030210486e-02) (61, -7.21785433438753565305e-02) (62, -7.63066185574978322892e-02) (63, 7.25608576410372019261e-02) (64, -3.81812327725671932233e-02) (65, -1.20578413585442911771e-01) (66, 3.12734396347480181344e-02) (67, 9.33703705523476479300e-02) (68, 5.21666462030025909757e-02) (69, 1.44571580745336047968e-01) (70, 1.69448868290445697760e-01) (71, 2.12014121218910278621e-01) (72, 9.48819689146437744709e-02) (73, 3.41976068257972332098e-01) (74, 3.55223128246361319338e-01) (75, 2.61463675214986535078e-01) (76, 2.38016022438776259085e-01) (77, 2.32779078973554098830e-01) (78, 1.76999707616714074820e-01) (79, 1.32588703112901051817e-01) (80, -2.93483570126199452832e-02) (81, -7.84591508000721665761e-02) (82, 4.75463941693305969238e-02) (83, 2.28576660156250000000e-02) (84, -5.63964992761611938477e-03) (85, -9.03259292244911193848e-02) (86, 7.35304780243157228570e-03) (87, 8.11793303274987165796e-02) (88, -3.65669033766651344064e-02) (89, -1.07588867950131908402e-01) (90, 2.42003792396085111449e-02) (91, -1.76018965387430524616e-02) (92, -3.65923504232018234616e-02) (93, -2.31064417429785534663e-01) (94, -1.17339468386390199939e-01) (95, -1.25764942181104122376e-01) (96, -4.19262480961380620825e-02) (97, -9.59725254491868851048e-02) (98, 1.22447134274425523115e-01) (99, 1.13328255001133637592e-01) (100, 2.04664024083225731809e-01) (101, 1.32696363215500878763e-01) (102, 2.44157520491230933812e-01) (103, 2.52936751657021341444e-01) (104, 4.13431666880066162051e-01) (105, 2.23228069200944539974e-01) (106, 6.04822058221847966286e-02) (107, 1.30567567845113863267e-01) (108, -6.09887436409491459632e-02) (109, -1.68302549386516175911e-02) (110, 2.05200654924378479704e-02) (111, -8.94897505640983581543e-02) (112, 6.80786147713661193848e-02) (113, 2.04980318470359586247e-02) (114, 5.50969350345948891134e-02) (115, 9.18797609071091286870e-02) (116, -1.58885607341687010163e-02) (117, -1.58540387878505460717e-02) (118, -6.83228278773055641704e-02) (119, -5.67144008684083988925e-02) (120, 4.07545006458553196738e-02) (121, -2.26827340881958383623e-01) (122, 8.29840470241798716655e-02) (123, -9.36314595874116056828e-02) (124, 2.85308535345008646919e-03) (125, -3.13446949049562606504e-01) (126, -3.39425736094435895329e-02) (127, 1.48753082870975078533e-01) (128, -9.57102117028044291347e-02) (129, 1.45261078476863342290e-01) (130, 1.47378970297526168398e-01) (131, 2.41934830287492991241e-01) (132, 1.86066396732080918675e-01) (133, 4.77736514782396259893e-01) (134, 3.33751176525873827217e-01) (135, 3.65813291401327289609e-01) (136, 2.04698406119431047800e-01) (137, 1.09874854882604511275e-01) (138, 4.10857780618359771929e-02) (139, 8.44718394239870190576e-02) (140, 8.68286117911338806152e-02) (141, 6.57653883099555969238e-02) (142, 6.88139482734526630736e-02) (143, -9.30173663219494885335e-03) (144, 1.64416838087953036396e-02) (145, 2.23570449897953077434e-01) (146, 3.13759692829085223842e-01) (147, 2.90831958785593182315e-03) (148, -3.44157530254319832252e-01) (149, 3.37704515258911264208e-01) (150, -2.11614399462143026875e-01) (151, -4.30827773420160486939e-01) (152, -3.30334910148026017485e-02) (153, -1.39957212065317082583e-01) (154, 3.35985675384793958109e-02) (155, 8.51198814604959136387e-02) (156, -2.91072123793070458575e-01) (157, -4.71256584408970002897e-02) (158, -1.45916303822541365554e-01) (159, 8.85554599770911193835e-02) (160, -1.29286670514200535687e-01) (161, -4.21225390088948020706e-02) (162, 3.62696760232805170965e-02) (163, 4.51559936167474029745e-01) (164, 3.32537270618753988405e-01) (165, 8.16321335030531364252e-02) (166, 1.85383109503918064309e-01) (167, -4.89247477645584349926e-02) (168, 4.56481948494911193848e-02) (169, 9.59777587376198920710e-02) (170, 8.33912345970275331597e-02) (171, 8.00546916093210353393e-02) (172, -2.36322205669589439914e-02) (173, 1.10497180287318128022e-01) (174, 6.86152901492923100735e-02) (175, -3.70154908065089827129e-02) (176, 1.79339121980006399593e-01) (177, -4.83460489141080557163e-02) (178, -3.77303489383749995900e-02) (179, 2.46492162792385866021e-01) (180, -6.85641612144928663808e-02) (181, -1.71029936009133326502e-01) (182, -2.44666738562766133969e-01) (183, 5.79710611611538514931e-02) (184, -1.04653151643628358758e-01) (185, 1.17226166812273976947e-01) (186, -7.91980512582774777430e-03) (187, 1.70218440835035483838e-01) (188, 2.52921934282067606414e-01) (189, 1.33754417325861574284e-01) (190, 1.05568378032640158848e-01) (191, 3.59356018686292799647e-01) (192, 2.63262613975962844748e-01) (193, 1.51871182353592232284e-01) (194, 2.95509958566437698491e-02) (195, 7.08801920365020460268e-02) (196, 3.94384310238328275600e-02) (197, -3.11204042608637237999e-02) (198, -8.85717121149194042129e-02) (199, 3.63549969044310167243e-02) (200, 3.55811687075596391749e-02) (201, -1.30903364491123136437e-01) (202, -7.23808961907793368962e-02) (203, -1.18261850515255603766e-01) (204, -2.50216320700946792677e-01) (205, 1.38957194579825610292e-01) (206, 1.63471665807319643804e-01) (207, -2.79075641222098436156e-01) (208, 7.34541641136119277666e-02) (209, -1.25573347207863950104e-01) (210, 6.23841339805652414507e-02) (211, 5.39590539127219465110e-02) (212, -1.24836407699786572367e-01) (213, 1.53377645143906948810e-01) (214, -4.92067134603293432349e-02) (215, 1.75992423361951477734e-01) (216, 3.23236176874704239648e-01) (217, -7.59477580243086008993e-02) (218, -7.22638837875800021937e-02) (219, 5.79784444976689017359e-01) (220, 4.87660223063417108680e-01) (221, 2.24344153365691106883e-01) (222, 9.59307406650467819897e-02) (223, -4.14602056090530163290e-02) (224, 3.08988504204983464863e-02) (225, 6.78773853104361248739e-03) (226, 1.36562289491360566718e-01) (227, 1.06048678911800225988e-02) (228, -1.27577481870758818738e-01) (229, -3.62854939218117900079e-01) (230, 3.46504946039157823989e-01) (231, 3.35355925988974012952e-01) (232, -4.78400307709016467395e-02) (233, 6.19936577167953181688e-02) (234, -2.63811399201043850216e-01) (235, -1.30824673470310598455e-01) (236, 1.71247860890151648583e-01) (237, -1.09605494639628917031e-01) (238, -6.19721962019203487237e-02) (239, -1.00892657583417200140e-01) (240, 1.72006214814330871121e-01) (241, 7.11199240793992520926e-02) (242, 3.44315844660948555678e-01) (243, 7.42258942333147569981e-02) (244, -5.77655825872951458888e-02) (245, -1.16781349711796475499e-01) (246, -4.91718929310076963146e-02) (247, 1.77630608579155940818e-01) (248, 5.56513486433542037268e-01) (249, 2.38172559410035150629e-01) (250, 6.06837004745866132049e-02) (251, 3.85402242877828996037e-02) (252, 6.54485839400741342686e-02) (253, 9.58571198816704148071e-03) (254, 9.74098343475966882421e-02) (255, 1.33485451466110266461e-01) (256, -6.05018462240707807775e-02) (257, -4.06294596848915223752e-01) (258, 2.26700594735587263040e-01) (259, 4.12592389882896065645e-02) (260, 2.61970628733961097279e-01) (261, 8.28441388141795409528e-02) (262, 1.41766002033895749390e-01) (263, 2.63244333593054546938e-01) (264, 1.19073318528329238908e-01) (265, 1.78460447315644421540e-01) (266, 1.03425781465746352561e-01) (267, -1.65821260370190626254e-01) (268, 9.89505449108879150955e-03) (269, -1.72649748082241927261e-01) (270, -9.81318528903087905491e-02) (271, -1.08146190874011671745e-02) (272, 2.27937619555592746456e-01) (273, -7.80834304159294945169e-02) (274, -2.23676578908330814244e-01) (275, -6.70897568000767968721e-02) (276, 3.78529870662535072867e-01) (277, 1.65090324217577605337e-01) (278, 5.25329081945927200969e-02) (279, -9.14518537632243444513e-02) (280, -1.72741179461301172515e-02) (281, -8.04719188786159889126e-02) (282, -1.90129673817860632423e-02) (283, 1.38361118283121808936e-01) (284, 2.16424949839030433818e-01) (285, -1.68508490587536502447e-01) (286, -5.48851166739868112643e-01) (287, -2.49211158969701918053e-01) (288, -8.11941912607142685099e-02) (289, -2.79350497731392144463e-01) (290, -2.60958576878812353872e-01) (291, 1.42419995837685359197e-01) (292, 1.48000261444725417226e-01) (293, 3.75423038563120925470e-01) (294, 4.20219019909754631925e-01) (295, 2.19830905542544058351e-01) (296, -5.66390143792539976775e-02) (297, -2.60401235121226981573e-01) (298, -2.40025290248398109894e-01) (299, 8.22744496687111415145e-02) (300, 1.34880037157071530629e-01) (301, -9.45263299692147146436e-02) (302, 1.20492971515447022668e-01) (303, 8.09359059102528061169e-02) (304, 5.97833966998844099083e-02) (305, 8.94312520796549242919e-02) (306, 1.49332535174052961902e-02) (307, -3.38163405678723744119e-02) (308, -4.02014110733752497162e-02) (309, -6.13307392017817878949e-02) (310, 6.26023621871878155343e-02) (311, 2.55789397182144495613e-01) (312, 2.33974892445665910712e-01) (313, -3.29631649592760034295e-01) (314, -4.11188031439237045017e-01) (315, -4.23127351275312535428e-02) (316, -3.31991732663663163816e-01) (317, -1.06009438653714788137e-01) (318, 4.80699465397189606986e-01) (319, 2.70728174187289727382e-01) (320, 4.70598472409955614904e-01) (321, 5.54780641577877431381e-01) (322, 4.69284370827504959678e-01) (323, 4.73191305453454669205e-01) (324, 2.19129382399774169654e-01) (325, 4.20445964028299978832e-01) (326, -6.19662303477718848232e-02) (327, -2.01271092158817360707e-01) (328, 3.02526705433514231380e-01) (329, 2.56243637316667279002e-02) (330, 2.08094091697355543236e-01) (331, 2.76388483953018904149e-01) (332, 1.57161055981178660046e-01) (333, 9.56494943970433164626e-02) (334, 2.47418479168159607950e-02) (335, -8.44313293181057217263e-02) (336, -6.34751617415795638122e-02) (337, -3.05945005323155910792e-02) (338, 9.80833143412994240551e-02) (339, 1.64278651752394810881e-01) (340, 2.86202512401002973075e-01) (341, 3.52160806706593387805e-01) (342, 6.69782743175451500406e-01) (343, 7.05061787477811896530e-01) (344, 5.12227118470852227361e-01) (345, 1.08225370695831890622e+00) (346, 1.21401804388583411942e+00) (347, 1.12683778142825552493e+00) (348, 1.12307311979828927662e+00) (349, 6.68666791038573293804e-01) (350, 7.58122819360613542372e-01) (351, 6.04066478906644110936e-01) (352, 1.51732180194593391231e-01) (353, 4.17795876770215068863e-01) (354, 2.59246438935516410051e-01) (355, 1.08901589429827305722e-01) (356, 6.89787586752009518332e-02) (357, -9.33586942148857540369e-02) (358, 1.98557814148144440303e-01) (359, 4.58326934864078605614e-01) (360, -1.07465060848270982374e-01) (361, -2.82930922109604909842e-02) (362, -8.36905642811966166139e-02) (363, 5.12733838838271699379e-02) (364, 6.58460673127366918900e-02) (365, 1.09520672952769845127e-02) (366, -8.93970046011722391244e-03) (367, 9.77516457153978779449e-02) (368, 5.91447532694737376779e-01) (369, 1.02625551381030355458e+00) (370, 1.54406360966549494051e+00) (371, 1.91256016965700226251e+00) (372, 1.99996476242191678629e+00) (373, 1.41318174599799784019e+00) (374, 9.70609395847125355772e-01) (375, 4.91976066530739775118e-01) (376, 1.74648380845464301636e-01) (377, -1.86900537783948571258e-02) (378, 3.06240270251469770546e-01) (379, 4.01971607602124969549e-01) (380, 1.77386188511270553869e-01) (381, 2.27150090458945186356e-01) (382, 2.47479675592511938476e-01) (383, 4.20504241164407766007e-01) (384, 1.40224986221469422043e-01) (385, -1.42693381948998693209e-01) (386, 7.71250032037250898842e-02) (387, 1.28020674796695377307e-01) (388, -1.69961238817340404283e-01) (389, -3.70594706443707733179e-01) (390, -1.11200866506697554348e-01) (391, -4.31190130413200006787e-02) (392, 3.13036260525908563435e-02) (393, 2.65969490777002888493e-02) (394, 1.92403337454334654767e-03) (395, 2.34151721018210495773e-01) (396, 5.42127814659425388832e-01) (397, 1.25040788899089649888e+00) (398, 1.29378758753900391376e+00) (399, 1.33228608693495309545e+00) (400, 1.05294225524715256981e+00) (401, 3.51887090302955507504e-01) (402, -2.57897742235480009754e-01) (403, -7.79132778233700279413e-02) (404, 2.09389848045753779182e-01) (405, 2.73784946861981515198e-01) (406, 3.12173341359028189146e-01) (407, 4.78084075748785863880e-01) (408, -5.69088852547337403776e-02) (409, 3.08228785086169021490e-01) (410, 2.20591703162318492071e-01) (411, -8.88771945567148335954e-02) (412, 3.22628426262629552923e-01) (413, 8.41141142572676275835e-02) (414, 1.34840065429512961925e-01) (415, 4.07914063064700072037e-01) (416, 2.59288583435699715452e-01) (417, -2.49052419863618618168e-01) (418, -3.50152981337844282361e-01) (419, -7.94912004163273872015e-02) (420, -2.76851213989508689040e-02) (421, 8.88803328564874983719e-02) (422, 3.40377925349408666511e-02) (423, -1.09286692726769090606e-02) (424, 3.08229038324638382473e-01) (425, 4.54981835422549107939e-01) (426, 4.09686388237511966981e-01) (427, 3.16545447359523279829e-01) (428, -1.05689247110577172473e-01) (429, -2.81678267125844983276e-01) (430, -2.05582251510502023173e-01) (431, -3.31356309253829361960e-02) (432, -3.64914321143178996265e-02) (433, -3.35828034954307796944e-01) (434, 5.79973223205992316487e-02) (435, 1.21761588889409036462e-01) (436, -7.83437662506276805141e-02) (437, 8.89456923586710995755e-02) (438, 3.24204810901291218261e-01) (439, 1.14373672595628139703e-01) (440, 2.29869148976629411596e-01) (441, 5.55213891833430603362e-03) (442, 4.13809311934847101622e-01) (443, 5.44080502469305837820e-01) (444, 1.11577660584077486411e-02) (445, -1.94894534820044013079e-01) (446, -3.71566427753178940563e-01) (447, -3.23235265122584075614e-02) (448, 6.96236158987082881522e-02) (449, 5.59097092498314716252e-03) (450, 9.38781412203119058901e-02) (451, -1.57239856402877326014e-01) (452, 2.27795085137057706781e-01) (453, 3.12159331440328258189e-01) (454, 3.45742430107067854478e-03) (455, -2.32041110704585828994e-02) (456, -2.91876080372129143026e-01) (457, -1.77774412366239253913e-01) (458, -2.54149871825384954249e-01) (459, -7.36160065012688297204e-02) (460, -2.72386516901917119515e-01) (461, -2.67204567673023710150e-02) (462, 2.73109698428953995286e-01) (463, 1.39010687495054324758e-01) (464, 1.03039099883883447650e-01) (465, -8.98366253455152863339e-02) (466, 9.28394594709394394005e-02) (467, -2.10601039465023121000e-01) (468, 1.33279823035796135544e-01) (469, 2.99401879028694695162e-01) (470, 2.75421264113881125724e-01) (471, 3.15649589163824351168e-01) (472, 1.46658347739826361300e-01) (473, -2.57247281120060566906e-01) (474, -3.31801929265518769085e-01) (475, 2.42525405198553145603e-02) (476, -7.33825713396072387695e-02) (477, 5.63532839525997183983e-02) (478, 3.27431403896129638587e-02) (479, -1.30047640046153822890e-01) (480, -1.63959485084404915645e-01) (481, -2.48529188347585611174e-01) (482, -9.68713169581220945314e-02) (483, -1.32625601516620172937e-01) (484, -2.69469012883931380298e-01) (485, -3.27578263397470426099e-01) (486, -2.19342786139601259032e-01) (487, -1.49286083664476071364e-01) (488, -3.25532431863555626883e-01) (489, -2.41787442237725719307e-01) (490, 6.60445939912135820959e-02) (491, -1.66834553410493774406e-01) (492, -6.15003747196383870888e-02) (493, 8.05600853904455127541e-02) (494, 2.54185341499375550001e-01) (495, 3.82059286814449838854e-01) (496, 2.85530129780391994654e-01) (497, 6.53443600418893488779e-01) (498, 2.48390615061203468006e-01) (499, -5.02396454337820028146e-02) (500, -1.03388807150338060681e-01) (501, -5.26941753169942850299e-01) (502, -2.55330140861687759912e-01) (503, 9.81537734883567228317e-03) (504, -5.92859434632983951091e-03) (505, -3.11183619850049913991e-02) (506, 2.10068381045612206925e-02) (507, 7.05754089975920845257e-02) (508, -1.37641096969241594206e-01) (509, -2.45584024621243346420e-01) (510, 2.12605679194216475036e-02) (511, -3.09076402254924387236e-01) (512, -4.01559772140787529793e-01) (513, -3.44557215128300564633e-01) (514, -4.15108167237381697756e-01) (515, -1.75163507118598210655e-02) (516, -6.03164941903223450481e-01) (517, -7.21212781015898030113e-02) (518, -1.46090641363674694775e-01) (519, 1.73242448877318100386e-01) (520, -8.52853376980414884523e-02) (521, 1.75332426398565277559e-01) (522, 1.97389634168280675430e-01) (523, 2.89182251585392791071e-01) (524, 5.80555469436006554851e-02) (525, -7.81527149442071411567e-02) (526, -1.11892010522329860001e-01) (527, -3.28216845039410787255e-01) (528, -5.20825975414270669894e-01) (529, -4.74917410482865343102e-01) (530, -3.92756855893011611047e-02) (531, -1.72595853043057932685e-02) (532, -1.93676935552062855217e-02) (533, -9.71030870029633008667e-02) (534, 2.06082247381508612549e-02) (535, 1.16755984233123374927e-01) (536, -7.76126136859275062019e-02) (537, 1.66223600482184014071e-01) (538, 5.88638120678672341346e-02) (539, -2.08050062093963344934e-01) (540, -2.93100788205609905090e-02) (541, -3.88611305060652778565e-01) (542, -2.43501100931345498823e-01) (543, -4.45573439894181244636e-01) (544, -2.66131265615363710175e-01) (545, -4.14332110264999275984e-01) (546, -5.79819939066506251368e-02) (547, 1.77311115395505536352e-01) (548, -2.60240349066983289728e-01) (549, -2.86928814011430999287e-01) (550, -1.86640337157170654869e-01) (551, 1.19723091798234426708e-01) (552, -2.85971172458635347624e-01) (553, -6.90187655037420438875e-02) (554, -2.27299805285331897597e-02) (555, 9.26883235587499937358e-02) (556, -2.60867997184728306337e-01) (557, -3.68954708059435587675e-01) (558, -1.57778738075128321938e-01) (559, 1.00153850179903830542e-01) (560, 9.39331129193305969238e-02) (561, 9.34806548317887037181e-02) (562, -6.09251041303883814071e-03) (563, -5.10239101376726705839e-02) (564, -2.28472107507098287638e-01) (565, -2.37648902506406578539e-01) (566, -4.76587328033146351292e-01) (567, -2.46523435959251635552e-01) (568, -3.86932607302296560636e-01) (569, -2.66200287467001084352e-01) (570, -1.84857049511700732847e-01) (571, -4.56768058459289472140e-01) (572, -3.39018775905575608931e-01) (573, -1.93747197640012802644e-01) (574, -6.35355552675305745858e-02) (575, -3.21570722462035440969e-01) (576, -2.36883485301370128040e-01) (577, 4.72163037997897216957e-02) (578, 8.34139362487134050639e-02) (579, -6.39721004521461994452e-02) (580, -5.30162189288038154800e-02) (581, -3.36498749036861666273e-01) (582, 6.45342089647062966407e-02) (583, -4.20532944886836457243e-01) (584, -4.88973386671468890352e-01) (585, -3.17612713530121604233e-01) (586, -5.65904999198362443358e-02) (587, -9.41090760066321113664e-02) (588, 5.66228144183035311809e-02) (589, 3.48547190380338453228e-03) (590, -1.98698931646064912149e-02) (591, -1.81154801623271105582e-01) (592, 1.41879030789318731631e-02) (593, 1.36342624668218583700e-02) (594, -1.27431728963164320190e-01) (595, 1.48068013302479650761e-01) (596, 4.47779944332765078574e-01) (597, -3.52533088324248400358e-01) (598, 4.64750598608629130609e-03) (599, -1.30161033653136359867e-01) (600, -2.28410782083785096619e-02) (601, -7.23614774538887117750e-02) (602, -5.17448078665651914343e-02) (603, 1.68765208235255002867e-02) (604, -2.35264941358724249953e-01) (605, -1.91282470750266664350e-01) (606, -3.26043613112765418016e-01) (607, -2.01067582247150461461e-01) (608, 9.03560845670988016520e-02) (609, -9.58507752391662831704e-02) (610, -2.90990176508744036177e-01) (611, -5.97472930935357138260e-01) (612, -3.94258168748871262732e-01) (613, -2.38110842249087406586e-01) (614, 2.84048078931448712281e-02) (615, 2.55684670118920438775e-02) (616, -6.30778280017202236385e-02) (617, -7.67723165124842895496e-03) (618, -8.86841071704142919208e-02) (619, -2.85310028246132607599e-01) (620, -2.59105709614127766027e-01) (621, 5.69220796897164232897e-02) (622, -5.62369554518966571766e-02) (623, -9.37462651273255342943e-02) (624, -2.99290483491871261990e-01) (625, -2.95108748989090896586e-01) (626, -6.44586971917267131937e-02) (627, -2.61694061086307938613e-01) (628, -2.35318893357593705851e-01) (629, -2.01190132563739791649e-02) (630, -8.82422794032365065409e-02) (631, 1.80587098765436215864e-01) (632, 1.41575697161276270464e-01) (633, -2.08282171933206862804e-03) (634, -4.77823285033234290697e-01) (635, -5.95005583320250275303e-02) (636, -3.56924879350527690658e-01) (637, -8.22630592960313313140e-04) (638, -2.49029900424942968185e-01) (639, -1.89637226362498134691e-01) (640, -1.88851625558124375237e-01) (641, -1.12020219242400992377e-01) (642, -6.76289154390419429419e-03) (643, -9.48757172669942028254e-02) (644, -5.66528327763080596924e-02) (645, 9.86083969473838806152e-02) (646, 6.06304335392425716722e-02) (647, -3.48829124117549932427e-02) (648, -1.02965198532516580276e-01) (649, 1.26851596467566335967e-03) (650, -2.16751366316558113922e-01) (651, -4.13956201645959212532e-02) (652, 6.21357154465140906763e-02) (653, -1.84206310836788345053e-01) (654, 8.48428414532148011951e-02) (655, -8.22313378437648234698e-02) (656, -1.69680345981104915842e-02) (657, 3.55810886091932135344e-02) (658, -5.36833489612656769574e-02) (659, 1.30908769912811473457e-01) (660, -7.91190735211898393819e-02) (661, 1.91940847204841669171e-01) (662, -4.03218621525712139775e-01) (663, -5.48970603604100881867e-01) (664, -2.01852122515989190754e-01) (665, -4.71230490275171942649e-01) (666, -6.37432892481734847401e-01) (667, -4.65586869221946308972e-01) (668, -1.36351489807628900586e-01) (669, -1.52945409545067717572e-01) (670, -1.84063090448111296715e-02) (671, -4.43176291882991790771e-02) (672, 2.32482925057411193848e-02) (673, 3.11523452401161193848e-02) (674, -4.96349696415272489958e-02) (675, 7.69279633393470524405e-02) (676, 1.37513846025656610861e-01) (677, 4.13014083768161510690e-01) (678, 4.64576409591247019293e-01) (679, 3.17664639444064422769e-01) (680, 6.27519397408959067608e-02) (681, 3.74223336355798796848e-01) (682, 4.62061068678193964665e-01) (683, -3.73396256226299697034e-02) (684, -4.59507337758629230695e-02) (685, 1.33065785998414148894e-01) (686, -1.64977128607771028612e-01) (687, -1.52587953116508134865e-01) (688, 2.41125225674711091139e-01) (689, 2.22516473359904237705e-01) (690, -2.24677399024559611151e-02) (691, -1.64556314903882283662e-01) (692, -2.51842497896279826630e-01) (693, -4.44840365418376848528e-01) (694, -3.86928106406524086047e-01) (695, -3.34218835360737376305e-01) (696, -2.42036249351516519202e-01) (697, -1.69784340700069175112e-01) (698, 1.87052871322734327875e-02) (699, -1.75170600414276123047e-03) (700, 1.06750503182411193848e-02) (701, 9.65759232640266418457e-02) (702, -5.01601244971930163019e-02) (703, -6.01617436176256695224e-02) (704, -8.71836653868161663705e-03) (705, 1.51590546329040620765e-01) (706, 2.85131384839466650583e-01) (707, 4.82101841843868172965e-01) (708, 6.47315741565737123864e-01) (709, 1.03662126645182395279e+00) (710, 9.65085934767169528747e-01) (711, 1.13478684809366403563e+00) (712, 8.36131755182934588433e-01) (713, 9.27285567737571314595e-01) (714, 6.71164314312524434847e-01) (715, 4.88572989393290024740e-01) (716, 3.69804743279522230015e-01) (717, 4.40179217150610702092e-01) (718, 7.48714984848392162142e-01) (719, 5.99067460590345879368e-01) (720, 3.01373722944070276952e-01) (721, 1.74533528113968022799e-01) (722, 2.04495055446832524337e-01) (723, 4.08178815746466847059e-02) (724, 1.60385214673452701495e-02) (725, 7.71163519497264637881e-02) (726, -3.50409617055529448715e-02) (727, -2.53417938947677612305e-02) (728, -3.36059555411338806152e-02) (729, -4.61120605468750000000e-02) (730, 6.65100142359733581543e-02) (731, -8.62725689808762907784e-02) (732, 8.82757058324759730228e-02) (733, -5.50497773225907954808e-02) (734, 9.32700008208007039223e-03) (735, 1.16575000147982499321e-01) (736, 1.52484425985591309782e-01) (737, 1.57638412467017430263e-01) (738, 1.14604253617790571851e-01) (739, 3.61979240391106182884e-01) (740, 1.35265798026784900276e-01) (741, 1.72634687997264196779e-01) (742, 1.58994968415463705513e-01) (743, 2.07786099007970015418e-01) (744, 1.78779891865321727273e-01) (745, 2.04774323915137196339e-01) (746, 8.44060223098889311766e-02) (747, 7.34727444101084953276e-02) (748, 6.95586543686517108642e-03) (749, -3.94012467199772974114e-03) (750, -3.85709573027325086647e-02) (751, -2.69209480350422226957e-03) (752, 6.51868645253794315453e-02) (753, -2.43500794358327971034e-02) (754, 1.26281753182411193848e-02) (755, -5.30090332031250000000e-02) (756, 5.44677749276161193848e-02) (757, -4.00024428963661193848e-02) (758, -1.94824188947677612305e-02) (759, -5.53894042968750000000e-02) (760, -3.56506302039346981148e-02) (761, -9.71712067601707141229e-02) (762, 1.28384596703414117017e-03) (763, -1.84054293781783576134e-02) (764, -5.65886293574433679732e-02) (765, -5.49689176479658189733e-02) (766, 7.08760702827233163292e-02) (767, 6.56950667658422193806e-02) (768, 8.77774438901278569736e-02) (769, -8.81292752708913787463e-03) (770, 1.00305595920651385855e-01) (771, 7.60946629654905282170e-02) (772, 3.60156592639051462146e-02) (773, -8.15109810735353268463e-02) (774, -5.04347043212822823688e-02) (775, -4.82563158312131063044e-02) (776, -2.94421446992232903328e-02) (777, 3.04853794264364520716e-02) (778, 1.01562632566973953807e-01) (779, -2.14575759032697944637e-03) (780, -5.95581047236919403076e-02) (781, -3.95324714481830596924e-02) (782, 8.12988355755805969238e-02) (783, -9.63012725114822387695e-02) (784, 2.31405454162982993083e+00) (0, -2.51159667968750000000e-02) (1, -8.39721709489822387695e-02) (2, 2.37853974103927612305e-02) (3, -8.75244289636611938477e-03) (4, 6.38244673609733581543e-02) (5, 7.96814039349555969238e-02) (6, -4.41711433231830596924e-02) (7, -1.73217803239822387695e-02) (8, -4.31152358651161193848e-02) (9, -9.18151885271072387695e-02) (10, 1.79992690682411193848e-02) (11, -5.89294433593750000000e-02) (12, 8.32140185172706575711e-02) (13, 1.47246104390075585600e-02) (14, -3.40294326428904822524e-02) (15, -8.93207264239774811898e-02) (16, 7.60986283421516418457e-02) (17, -9.58496108651161193848e-02) (18, -2.05810517072677612305e-02) (19, -2.16247588396072387695e-02) (20, 9.81323197484016418457e-02) (21, -8.37890654802322387695e-02) (22, 4.82055619359016418457e-02) (23, 3.87023910880088806152e-02) (24, -2.78564468026161193848e-02) (25, -3.60107421875000000000e-02) (26, -8.85619968175888061523e-03) (27, 6.40136674046516418457e-02) (28, -4.77294623851776123047e-03) (29, 1.37329101562500000000e-02) (30, 3.68896499276161193848e-02) (31, 8.59497115015983581543e-02) (32, 1.94474723083373282617e-02) (33, -3.14888433112524984692e-02) (34, 2.72576000940373281561e-03) (35, 2.17063181649978457349e-03) (36, 8.85088902519245712686e-02) (37, -7.97561959967304501262e-02) (38, -6.14430311551270296605e-03) (39, -2.05126797641731577204e-02) (40, -4.86122126441693724885e-02) (41, -4.65205990261479129799e-02) (42, 2.18826956670023116402e-02) (43, -5.88712082417885366331e-03) (44, -8.27722930959996772149e-02) (45, 7.76424696377281675641e-02) (46, 4.01654254796369250546e-02) (47, 5.20704449530191371479e-04) (48, -9.98297567396078250335e-02) (49, -4.34551503090771507054e-02) (50, -4.31329451286579235170e-02) (51, 1.04569128036122276082e-02) (52, -4.40002456307411193848e-02) (53, 4.60082963109016418457e-02) (54, 8.92272964119911193848e-02) (55, 2.57568061351776123047e-03) (56, 8.53637680411338806152e-02) (57, 1.29455551505088806152e-02) (58, 6.91433879621057151388e-02) (59, -1.63370756474354901500e-02) (60, 9.07720300366288146421e-02) (61, 2.21979678199071515932e-02) (62, -1.08153317114982865793e-02) (63, 2.65818095485041878956e-02) (64, 9.32097935753331691133e-02) (65, 2.21707514397105273640e-02) (66, 1.49254871417264247356e-03) (67, -3.81359863650370944921e-02) (68, -5.85093114275610833713e-03) (69, -1.17137078835735153337e-01) (70, -2.12800484226452868430e-01) (71, -2.03291751045206775528e-01) (72, -1.30249590944258863967e-01) (73, -9.57362912357908740768e-02) (74, -6.15782463496960252858e-02) (75, 2.95425844725286752476e-03) (76, -1.31941547690523935943e-01) (77, -1.45893446546685651155e-01) (78, -7.51069787094488239276e-02) (79, 6.28357966120481475913e-02) (80, -3.06899670294694774941e-02) (81, 6.16516802909119893128e-02) (82, -5.00183105468750000000e-02) (83, -8.49426314234733581543e-02) (84, -2.57629379630088806152e-02) (85, -6.42700195312500000000e-02) (86, -7.24284551657485425880e-02) (87, -5.99093602306235914479e-02) (88, -4.42846029175636632380e-02) (89, -1.41081551176320652008e-01) (90, 2.58122074886883400013e-02) (91, 4.43363835359934232994e-02) (92, -1.83749187917351203270e-01) (93, -1.72530258291246935132e-01) (94, -6.47043666411728363164e-02) (95, -4.02747304666478789237e-01) (96, -1.29090612083434530533e-01) (97, -4.37917157554214217519e-02) (98, -7.55974283474042801911e-02) (99, -3.63127730887581601227e-02) (100, -1.28596569677643823848e-01) (101, -1.55188604593926832154e-01) (102, -1.22488870092182594584e-01) (103, -1.71886956395495560379e-01) (104, -1.35561528218791332856e-01) (105, 1.25453868375633548204e-01) (106, 1.27908552794356672466e-01) (107, 1.76280380206647407926e-01) (108, 1.30107853079137220087e-01) (109, -8.08363050773606567345e-02) (110, 1.69109106692692558183e-02) (111, 6.40991255640983581543e-02) (112, -1.28967314958572387695e-02) (113, -3.31161162738051531584e-02) (114, 7.16467041683926109119e-02) (115, 3.43796915699839901112e-03) (116, 1.77045651804258186157e-02) (117, -1.92732703758912937708e-01) (118, -1.06998330068491340206e-01) (119, -1.91837198631016975225e-01) (120, -1.99453261164918266291e-01) (121, -2.91767035737336477563e-01) (122, -2.18652780080442254995e-01) (123, -1.25871635796555442210e-01) (124, -1.37818982668842904271e-01) (125, -3.11520178485997500939e-01) (126, -2.96406169204986247312e-01) (127, 8.63417462025345000542e-02) (128, 7.91733762029366155977e-02) (129, -1.29774660085555743061e-01) (130, 4.99810303181088960711e-02) (131, 5.10667597404605710931e-02) (132, 9.21590972691533338867e-02) (133, 4.20018917768550159586e-01) (134, 3.01591739306896033934e-01) (135, 3.61963701764789202997e-01) (136, 3.31988359083735362631e-01) (137, -2.43117565736156795997e-02) (138, -1.18704188253085610172e-01) (139, -1.83598955634495554501e-02) (140, 8.07617232203483581543e-02) (141, 2.26684585213661193848e-02) (142, -9.71129055995876150353e-02) (143, -1.39218815807111956362e-01) (144, -7.49699626874110319763e-02) (145, -1.70469801524040981411e-01) (146, -2.10095624154252785809e-01) (147, -2.98448666446602894897e-01) (148, -1.94069926283582994131e-01) (149, 4.77848194204715231298e-03) (150, 1.85922093415284428453e-01) (151, 2.82512577972350686917e-01) (152, -9.44789473903767662577e-02) (153, -3.99464882804135071326e-02) (154, 5.00257927240050012663e-02) (155, -1.27965956470853514659e-01) (156, -3.28435241738354302340e-03) (157, 2.64115126447559189771e-01) (158, 1.10612036450802947440e-01) (159, 1.24656147010925782981e-01) (160, 3.08358013184164614362e-01) (161, -1.93390829755278520485e-01) (162, -2.13362488098696512218e-01) (163, -1.49548649307055470103e-01) (164, -7.53246199308839486930e-02) (165, -1.94136521660469796302e-01) (166, -5.69311541406469015514e-02) (167, -4.36013303594608644942e-02) (168, 5.10559156537055969238e-02) (169, 4.44974600774657516600e-03) (170, -5.98667486384636474139e-02) (171, -7.29131830447074941182e-02) (172, -1.31913005028486129966e-01) (173, -1.86973011912601155826e-01) (174, -2.26705217683251358807e-01) (175, -2.56826792888788291158e-01) (176, -1.69835480428468077463e-01) (177, -2.51216361180531038907e-03) (178, -1.19219202981620933657e-01) (179, -6.07086430420512579431e-02) (180, -1.74492283324166552738e-01) (181, -1.08645543435692923384e-01) (182, 6.37740977731394154127e-02) (183, -2.16605212652086265290e-01) (184, 5.25664829113135518429e-03) (185, 7.13911914701625405222e-02) (186, 2.98124099106477080667e-02) (187, -2.30543070938944938408e-01) (188, -4.56617610543336216455e-01) (189, -6.01320932896911353183e-01) (190, -3.71222954685044792544e-01) (191, 1.93891209425101379571e-01) (192, -2.61766655512799574501e-02) (193, -2.29335661030119014603e-01) (194, 1.36799622378741114054e-02) (195, -7.85220165796396765701e-03) (196, 8.14235168858826879879e-02) (197, 2.50532369134069017591e-02) (198, -5.72015533391333069746e-02) (199, -2.22904095106960742356e-01) (200, -3.49778649304655353536e-01) (201, -3.59950516087032754142e-02) (202, -1.33654745870858376877e-01) (203, -2.14143048488601023260e-01) (204, -4.51313362958293967653e-02) (205, 1.25856214984650965905e-01) (206, 1.10136737701488338081e-01) (207, 1.70864969760264572007e-02) (208, -5.61685039843059855103e-02) (209, -1.22175752047721852822e-01) (210, 1.78391726576043220531e-02) (211, -1.11331201565962781275e-01) (212, -2.74786734060107860900e-02) (213, -2.43186111861119741429e-01) (214, -5.03081892463529634085e-01) (215, -5.20238748366570136206e-01) (216, -2.44237008282693485173e-01) (217, -3.39868648411290399936e-02) (218, 6.85379784642969197561e-02) (219, 5.19369338027874660746e-01) (220, 3.38401120778623998309e-01) (221, -3.51964839001988188949e-02) (222, -1.12993285203327520350e-01) (223, -2.11459216746997663572e-02) (224, -9.89982221144354163078e-02) (225, 1.98443756048996347574e-02) (226, -1.16365973436983807798e-01) (227, -2.44577337096092174706e-02) (228, -2.90190288856893130465e-01) (229, -1.93197122374079127693e-01) (230, -1.69116179008540826190e-02) (231, -2.53764796354713717541e-01) (232, 8.50060451550432583101e-02) (233, 1.83630801234232268748e-02) (234, 3.83162214398186928843e-02) (235, 2.30668545633358146318e-01) (236, -1.69757409661941360834e-01) (237, -2.36029721691450145027e-01) (238, -4.46312091616608341837e-01) (239, -3.40309659582953727419e-01) (240, -5.99136517679104363410e-01) (241, -1.92121299785843191454e-01) (242, 1.00804981126243309308e-01) (243, 1.37466711643446509727e-01) (244, 2.65838608393361708337e-01) (245, 2.73437740254115546623e-01) (246, -2.08378064281266109359e-02) (247, 5.69254334456247512719e-01) (248, 3.66149819439465507021e-01) (249, 1.51660728704753611229e-01) (250, -1.13945792839800399965e-01) (251, -8.52551103107049984553e-02) (252, -8.16343157215686510142e-02) (253, -1.33635189586599357342e-02) (254, -8.33827359712876331477e-02) (255, -2.18186419318825625124e-01) (256, -2.74497511992377984935e-01) (257, -2.00975949056066915954e-01) (258, -6.27146473028350887047e-02) (259, -1.07007671975512475004e-01) (260, 1.13385526690506499570e-01) (261, 1.06157085579067167469e-01) (262, 1.27905937174009887158e-01) (263, 4.29809813982110988650e-01) (264, 5.29705346711731930864e-02) (265, -1.33471128732141286477e-01) (266, -2.47125357964498526542e-01) (267, -1.99196369568370196257e-01) (268, -3.08031134220473346019e-01) (269, -1.28931117659515037666e-01) (270, -1.04456683846039261043e-01) (271, 9.59273415028612796984e-02) (272, 2.09734219200357563384e-01) (273, 2.56759240053285264782e-01) (274, 3.57505096602857286303e-01) (275, 3.79646398404952289951e-01) (276, 4.72489577120515313879e-01) (277, 4.40459214906805229806e-01) (278, 3.11440766307726768503e-01) (279, 1.31060366229553471040e-01) (280, 1.80694964436408853081e-02) (281, -5.37650526648099785776e-02) (282, -4.07091649875034253259e-02) (283, -1.28111045355382202615e-01) (284, -1.43953602995580715040e-01) (285, -4.26896095533856489990e-01) (286, -3.40191807706732129990e-01) (287, 1.23582638318249810050e-01) (288, 2.19041204572800851658e-01) (289, 2.95634565580298436238e-01) (290, 2.78160648333832458134e-02) (291, -3.88902058925045465698e-02) (292, 2.81570355570588404248e-01) (293, 1.93199864814588284645e-01) (294, -4.98574157386659569391e-02) (295, 1.16584537732518409014e-01) (296, -1.07961736741210026502e-01) (297, -2.27043174077203396832e-01) (298, -5.18192004030085695554e-01) (299, -1.05381593655269042986e-01) (300, 4.31079733401877260301e-02) (301, 1.76746230532179832151e-01) (302, 5.13884662557151705720e-01) (303, 9.61842864640019334921e-01) (304, 8.96702764457068868253e-01) (305, 8.80800045368625106335e-01) (306, 3.75801998697241623759e-01) (307, 2.79998503729516354591e-03) (308, -5.38131788414045117430e-02) (309, -4.23590215552550677924e-02) (310, -1.26479567041869078725e-01) (311, -2.11068454152752132957e-01) (312, -1.53430719470849546981e-01) (313, -5.30339426286048576387e-01) (314, -9.35244542204022033527e-02) (315, 2.49376557026115303062e-01) (316, 2.07158841990355863105e-01) (317, -6.32099040601088735247e-02) (318, 1.81704331781017858205e-01) (319, 1.48392515252825873961e-01) (320, 8.09857338385304298400e-02) (321, 1.50155360997062309325e-01) (322, 3.04316976292400842574e-01) (323, -2.69149048284330116854e-01) (324, 3.42582233347246203903e-02) (325, -1.63442901937692036674e-01) (326, -2.00091986634064133987e-01) (327, -5.36342477129920669476e-01) (328, -8.98385122412609149478e-01) (329, -4.41808231408658769190e-01) (330, -1.52638096399873107734e-01) (331, 4.95015625600372710657e-01) (332, 1.00040299485055328432e+00) (333, 8.72754339451063176902e-01) (334, 2.71507702101318637578e-01) (335, 3.86660454005411519107e-03) (336, -6.38025603818163488529e-03) (337, 3.71589656852323105274e-02) (338, 3.56622402967464030565e-02) (339, -4.30251527840241690392e-02) (340, -1.51075903758540575073e-01) (341, -2.96395307518194317531e-01) (342, -2.19461783000167637292e-01) (343, -5.53829983950606969528e-03) (344, -1.14571928309149223546e-01) (345, -7.69694232578624487617e-02) (346, 2.13088443492881113306e-01) (347, 1.37093769597455561460e-01) (348, 1.66709175251105318205e-01) (349, 5.67752346134884136597e-02) (350, 2.58006190776061909015e-03) (351, 1.25840265296229936176e-01) (352, -3.39625005232612117712e-02) (353, -2.71334351927209060928e-01) (354, -1.94039042440403534939e-02) (355, -4.57554955609176416953e-01) (356, -6.49751425960984674290e-01) (357, -1.29050184954750468691e+00) (358, -1.18396303114568790527e+00) (359, -9.40398703060156493372e-01) (360, -5.43821008524316917843e-01) (361, -1.42767518897921295851e-02) (362, 2.44224983274423879109e-01) (363, 5.11346500274256141050e-02) (364, -5.11440330464185688442e-02) (365, -6.20968218915628061838e-02) (366, 3.30884040282603958394e-02) (367, 1.63182067195279216498e-02) (368, 6.43818558483687849309e-03) (369, -1.46233726079218834260e-01) (370, -3.90315060810022873561e-01) (371, -2.56477679719717133189e-01) (372, 9.12555608474699547772e-02) (373, -7.76541403237171884433e-02) (374, -1.48237111296974116703e-01) (375, 1.52890123944810191192e-01) (376, 1.67965202407058894485e-01) (377, 3.85849495236281151561e-03) (378, -1.56392916458497704957e-01) (379, -1.90231930584912778404e-01) (380, -1.44453025465849843600e-01) (381, -9.20917125544625791989e-02) (382, -2.41479759817383281273e-02) (383, 5.81332518667594388972e-02) (384, 1.62457675124428130298e-01) (385, -4.60915431669245367896e-01) (386, -1.13408058432825553652e+00) (387, -1.13083870144549059056e+00) (388, -7.18211168081641537775e-01) (389, -2.31068790686192016004e-01) (390, -1.09394256662432326488e-01) (391, 2.18446336392513892552e-03) (392, -4.69563161565312234269e-02) (393, 1.16034760150482158664e-03) (394, -9.41869558514902074919e-03) (395, -7.18691820015892601781e-02) (396, -2.00605700293971754566e-02) (397, -2.80803685116490175933e-01) (398, -5.07793515542752982306e-01) (399, -4.03713935990907768492e-01) (400, -1.82661209659058104693e-01) (401, 3.45453190217756833658e-01) (402, -3.32064464573469178554e-02) (403, 1.81343778805659855413e-01) (404, 1.50856625610435307605e-01) (405, 2.65542156892806489876e-02) (406, -9.22062513837046682230e-02) (407, 1.82095159493047636934e-01) (408, -6.71185941667111207742e-02) (409, -1.72510452238963496452e-01) (410, 2.86493466156975250952e-03) (411, -2.56482536280714934485e-01) (412, 3.87528932614310428484e-01) (413, 1.08082452332072614931e-01) (414, -5.01902631679829291933e-01) (415, -1.01649932078039761940e+00) (416, -5.07188362579160112453e-01) (417, -2.22778568709614627208e-01) (418, -1.22863763203456044515e-01) (419, 2.72758737106838702186e-03) (420, 3.67864843027267685027e-02) (421, -9.50034138600367589200e-02) (422, 5.95860077696498818822e-02) (423, -3.81803699645322028311e-02) (424, -3.07619401060348733601e-02) (425, -2.66712445622380167620e-01) (426, -1.83242709394787234300e-01) (427, -5.28742224817524530955e-01) (428, -2.90340130419167397058e-01) (429, -2.39010133067484274727e-02) (430, 1.67178698224631411273e-01) (431, 2.02274919976473954719e-02) (432, 3.26537423267067972166e-01) (433, -1.95950847240217884693e-01) (434, -3.31460819199890455167e-01) (435, -5.12852282572384202131e-02) (436, -3.77564326076443093627e-02) (437, -1.49904719263619007341e-01) (438, 2.09068807831735287150e-01) (439, 5.38794516144584095807e-03) (440, 1.02659623530687388326e-01) (441, 8.18110273320864361812e-02) (442, -4.65872195601408148335e-02) (443, -5.83642681599216395227e-01) (444, -3.69029157781352479262e-01) (445, -1.70156026004519539407e-01) (446, -1.29637605134105549087e-01) (447, 1.96389548224580080815e-02) (448, 5.73763337409803134137e-02) (449, -7.83784782462882412268e-02) (450, 5.66375290937249156742e-02) (451, -4.97103253358321429956e-03) (452, 1.16867298931153829056e-01) (453, 1.09162977736768238013e-01) (454, -2.08164047664889273470e-01) (455, -1.30798962046016042926e-01) (456, -6.27517737249526197374e-01) (457, -8.90197159790451442163e-01) (458, -3.95811619137807213509e-01) (459, -1.65025756795426803425e-01) (460, 2.39104708160272405593e-01) (461, 1.59961740707500188474e-01) (462, -3.22875416546756055514e-01) (463, 6.35705675735534353477e-02) (464, -3.01551319976461951189e-01) (465, -6.39264098053883150774e-02) (466, 7.71068181744715142045e-02) (467, 1.53481780365612423961e-02) (468, 1.73741198123596063407e-01) (469, -1.25731732878458596359e-01) (470, 1.81419549185923845158e-01) (471, -2.30576083930556813284e-01) (472, -3.87783022397495291678e-01) (473, -1.37790295586021904750e-01) (474, -1.34109848554891109007e-01) (475, -1.67106427908832004536e-02) (476, -6.80725127458572387695e-02) (477, 8.62254233041281487049e-02) (478, 