FANN_FLO_2.1
num_layers=3
learning_rate=0.700000
connection_rate=1.000000
network_type=0
learning_momentum=0.000000
training_algorithm=1
train_error_function=1
train_stop_function=0
cascade_output_change_fraction=0.010000
quickprop_decay=-0.000100
quickprop_mu=1.750000
rprop_increase_factor=1.200000
rprop_decrease_factor=0.500000
rprop_delta_min=0.000000
rprop_delta_max=50.000000
rprop_delta_zero=0.100000
cascade_output_stagnation_epochs=12
cascade_candidate_change_fraction=0.010000
cascade_candidate_stagnation_epochs=12
cascade_max_out_epochs=150
cascade_min_out_epochs=50
cascade_max_cand_epochs=150
cascade_min_cand_epochs=50
cascade_num_candidate_groups=2
bit_fail_limit=3.49999999999999977796e-01
cascade_candidate_limit=1.00000000000000000000e+03
cascade_weight_multiplier=4.00000000000000022204e-01
cascade_activation_functions_count=10
cascade_activation_functions=3 5 7 8 10 11 14 15 16 17 
cascade_activation_steepnesses_count=4
cascade_activation_steepnesses=2.50000000000000000000e-01 5.00000000000000000000e-01 7.50000000000000000000e-01 1.00000000000000000000e+00 
layer_sizes=785 16 11 
scale_included=0
neurons (num_inputs, activation_function, activation_steepness)=(0, 0, 0.00000000000000000000e+00) (0, 0, 0.00000000000000000000e+00) (0, 0, 0.00000000000000000000e+00) (0, 0, 0.00000000000000000000e+00) (0, 0, 0.00000000000000000000e+00) (0, 0, 0.00000000000000000000e+00) (0, 0, 0.00000000000000000000e+00) (0, 0, 0.00000000000000000000e+00) (0, 0, 0.00000000000000000000e+00) (0, 0, 0.00000000000000000000e+00) (0, 0, 0.00000000000000000000e+00) (0, 0, 0.00000000000000000000e+00) (0, 0, 0.00000000000000000000e+00) (0, 0, 0.00000000000000000000e+00) (0, 0, 0.00000000000000000000e+00) (0, 0, 0.00000000000000000000e+00) (0, 0, 0.00000000000000000000e+00) (0, 0, 0.00000000000000000000e+00) (0, 0, 0.00000000000000000000e+00) (0, 0, 0.00000000000000000000e+00) (0, 0, 0.00000000000000000000e+00) (0, 0, 0.00000000000000000000e+00) (0, 0, 0.00000000000000000000e+00) (0, 0, 0.00000000000000000000e+00) (0, 0, 0.00000000000000000000e+00) (0, 0, 0.00000000000000000000e+00) (0, 0, 0.00000000000000000000e+00) (0, 0, 0.00000000000000000000e+00) (0, 0, 0.00000000000000000000e+00) (0, 0, 0.00000000000000000000e+00) (0, 0, 0.00000000000000000000e+00) (0, 0, 0.00000000000000000000e+00) (0, 0, 0.00000000000000000000e+00) (0, 0, 0.00000000000000000000e+00) (0, 0, 0.00000000000000000000e+00) (0, 0, 0.00000000000000000000e+00) (0, 0, 0.00000000000000000000e+00) (0, 0, 0.00000000000000000000e+00) (0, 0, 0.00000000000000000000e+00) (0, 0, 0.00000000000000000000e+00) (0, 0, 0.00000000000000000000e+00) (0, 0, 0.00000000000000000000e+00) (0, 0, 0.00000000000000000000e+00) (0, 0, 0.00000000000000000000e+00) (0, 0, 0.00000000000000000000e+00) (0, 0, 0.00000000000000000000e+00) (0, 0, 0.00000000000000000000e+00) (0, 0, 0.00000000000000000000e+00) (0, 0, 0.00000000000000000000e+00) (0, 0, 0.00000000000000000000e+00) (0, 0, 0.00000000000000000000e+00) (0, 0, 0.00000000000000000000e+00) (0, 0, 0.00000000000000000000e+00) (0, 0, 0.00000000000000000000e+00) (0, 0, 0.00000000000000000000e+00) (0, 0, 0.00000000000000000000e+00) (0, 0, 0.00000000000000000000e+00) (0, 0, 0.00000000000000000000e+00) (0, 0, 0.00000000000000000000e+00) (0, 0, 0.00000000000000000000e+00) (0, 0, 0.00000000000000000000e+00) (0, 0, 0.00000000000000000000e+00) (0, 0, 0.00000000000000000000e+00) (0, 0, 0.00000000000000000000e+00) (0, 0, 0.00000000000000000000e+00) (0, 0, 0.00000000000000000000e+00) (0, 0, 0.00000000000000000000e+00) (0, 0, 0.00000000000000000000e+00) (0, 0, 0.00000000000000000000e+00) (0, 0, 0.00000000000000000000e+00) (0, 0, 0.00000000000000000000e+00) (0, 0, 0.00000000000000000000e+00) (0, 0, 0.00000000000000000000e+00) (0, 0, 0.00000000000000000000e+00) (0, 0, 0.00000000000000000000e+00) (0, 0, 0.00000000000000000000e+00) (0, 0, 0.00000000000000000000e+00) (0, 0, 0.00000000000000000000e+00) (0, 0, 0.00000000000000000000e+00) (0, 0, 0.00000000000000000000e+00) (0, 0, 0.00000000000000000000e+00) (0, 0, 0.00000000000000000000e+00) (0, 0, 0.00000000000000000000e+00) (0, 0, 0.00000000000000000000e+00) (0, 0, 0.00000000000000000000e+00) (0, 0, 0.00000000000000000000e+00) (0, 0, 0.00000000000000000000e+00) (0, 0, 0.00000000000000000000e+00) (0, 0, 0.00000000000000000000e+00) (0, 0, 0.00000000000000000000e+00) (0, 0, 0.00000000000000000000e+00) (0, 0, 0.00000000000000000000e+00) (0, 0, 0.00000000000000000000e+00) (0, 0, 0.00000000000000000000e+00) (0, 0, 0.00000000000000000000e+00) (0, 0, 0.00000000000000000000e+00) (0, 0, 0.00000000000000000000e+00) (0, 0, 0.00000000000000000000e+00) (0, 0, 0.00000000000000000000e+00) (0, 0, 0.00000000000000000000e+00) (0, 0, 0.00000000000000000000e+00) (0, 0, 0.00000000000000000000e+00) (0, 0, 0.00000000000000000000e+00) (0, 0, 0.00000000000000000000e+00) (0, 0, 0.00000000000000000000e+00) (0, 0, 0.00000000000000000000e+00) (0, 0, 0.00000000000000000000e+00) (0, 0, 0.00000000000000000000e+00) (0, 0, 0.00000000000000000000e+00) (0, 0, 0.00000000000000000000e+00) (0, 0, 0.00000000000000000000e+00) (0, 0, 0.00000000000000000000e+00) (0, 0, 0.00000000000000000000e+00) (0, 0, 0.00000000000000000000e+00) (0, 0, 0.00000000000000000000e+00) (0, 0, 0.00000000000000000000e+00) (0, 0, 0.00000000000000000000e+00) (0, 0, 0.00000000000000000000e+00) (0, 0, 0.00000000000000000000e+00) (0, 0, 0.00000000000000000000e+00) (0, 0, 0.00000000000000000000e+00) (0, 0, 0.00000000000000000000e+00) (0, 0, 0.00000000000000000000e+00) (0, 0, 0.00000000000000000000e+00) (0, 0, 0.00000000000000000000e+00) (0, 0, 0.00000000000000000000e+00) (0, 0, 0.00000000000000000000e+00) (0, 0, 0.00000000000000000000e+00) (0, 0, 0.00000000000000000000e+00) (0, 0, 0.00000000000000000000e+00) (0, 0, 0.00000000000000000000e+00) (0, 0, 0.00000000000000000000e+00) (0, 0, 0.00000000000000000000e+00) (0, 0, 0.00000000000000000000e+00) (0, 0, 0.00000000000000000000e+00) (0, 0, 0.00000000000000000000e+00) (0, 0, 0.00000000000000000000e+00) (0, 0, 0.00000000000000000000e+00) (0, 0, 0.00000000000000000000e+00) (0, 0, 0.00000000000000000000e+00) (0, 0, 0.00000000000000000000e+00) (0, 0, 0.00000000000000000000e+00) (0, 0, 0.00000000000000000000e+00) (0, 0, 0.00000000000000000000e+00) (0, 0, 0.00000000000000000000e+00) (0, 0, 0.00000000000000000000e+00) (0, 0, 0.00000000000000000000e+00) (0, 0, 0.00000000000000000000e+00) (0, 0, 0.00000000000000000000e+00) (0, 0, 0.00000000000000000000e+00) (0, 0, 0.00000000000000000000e+00) (0, 0, 0.00000000000000000000e+00) (0, 0, 0.00000000000000000000e+00) (0, 0, 0.00000000000000000000e+00) (0, 0, 0.00000000000000000000e+00) (0, 0, 0.00000000000000000000e+00) (0, 0, 0.00000000000000000000e+00) (0, 0, 0.00000000000000000000e+00) (0, 0, 0.00000000000000000000e+00) (0, 0, 0.00000000000000000000e+00) (0, 0, 0.00000000000000000000e+00) (0, 0, 0.00000000000000000000e+00) (0, 0, 0.00000000000000000000e+00) (0, 0, 0.00000000000000000000e+00) (0, 0, 0.00000000000000000000e+00) (0, 0, 0.00000000000000000000e+00) (0, 0, 0.00000000000000000000e+00) (0, 0, 0.00000000000000000000e+00) (0, 0, 0.00000000000000000000e+00) (0, 0, 0.00000000000000000000e+00) (0, 0, 0.00000000000000000000e+00) (0, 0, 0.00000000000000000000e+00) (0, 0, 0.00000000000000000000e+00) (0, 0, 0.00000000000000000000e+00) (0, 0, 0.00000000000000000000e+00) (0, 0, 0.00000000000000000000e+00) (0, 0, 0.00000000000000000000e+00) (0, 0, 0.00000000000000000000e+00) (0, 0, 0.00000000000000000000e+00) (0, 0, 0.00000000000000000000e+00) (0, 0, 0.00000000000000000000e+00) (0, 0, 0.00000000000000000000e+00) (0, 0, 0.00000000000000000000e+00) (0, 0, 0.00000000000000000000e+00) (0, 0, 0.00000000000000000000e+00) (0, 0, 0.00000000000000000000e+00) (0, 0, 0.00000000000000000000e+00) (0, 0, 0.00000000000000000000e+00) (0, 0, 0.00000000000000000000e+00) (0, 0, 0.00000000000000000000e+00) (0, 0, 0.00000000000000000000e+00) (0, 0, 0.00000000000000000000e+00) (0, 0, 0.00000000000000000000e+00) (0, 0, 0.00000000000000000000e+00) (0, 0, 0.00000000000000000000e+00) (0, 0, 0.00000000000000000000e+00) (0, 0, 0.00000000000000000000e+00) (0, 0, 0.00000000000000000000e+00) (0, 0, 0.00000000000000000000e+00) (0, 0, 0.00000000000000000000e+00) (0, 0, 0.00000000000000000000e+00) (0, 0, 0.00000000000000000000e+00) (0, 0, 0.00000000000000000000e+00) (0, 0, 0.00000000000000000000e+00) (0, 0, 0.00000000000000000000e+00) (0, 0, 0.00000000000000000000e+00) (0, 0, 0.00000000000000000000e+00) (0, 0, 0.00000000000000000000e+00) (0, 0, 0.00000000000000000000e+00) (0, 0, 0.00000000000000000000e+00) (0, 0, 0.00000000000000000000e+00) (0, 0, 0.00000000000000000000e+00) (0, 0, 0.00000000000000000000e+00) (0, 0, 0.00000000000000000000e+00) (0, 0, 0.00000000000000000000e+00) (0, 0, 0.00000000000000000000e+00) (0, 0, 0.00000000000000000000e+00) (0, 0, 0.00000000000000000000e+00) (0, 0, 0.00000000000000000000e+00) (0, 0, 0.00000000000000000000e+00) (0, 0, 0.00000000000000000000e+00) (0, 0, 0.00000000000000000000e+00) (0, 0, 0.00000000000000000000e+00) (0, 0, 0.00000000000000000000e+00) (0, 0, 0.00000000000000000000e+00) (0, 0, 0.00000000000000000000e+00) (0, 0, 0.00000000000000000000e+00) (0, 0, 0.00000000000000000000e+00) (0, 0, 0.00000000000000000000e+00) (0, 0, 0.00000000000000000000e+00) (0, 0, 0.00000000000000000000e+00) (0, 0, 0.00000000000000000000e+00) (0, 0, 0.00000000000000000000e+00) (0, 0, 0.00000000000000000000e+00) (0, 0, 0.00000000000000000000e+00) (0, 0, 0.00000000000000000000e+00) (0, 0, 0.00000000000000000000e+00) (0, 0, 0.00000000000000000000e+00) (0, 0, 0.00000000000000000000e+00) (0, 0, 0.00000000000000000000e+00) (0, 0, 0.00000000000000000000e+00) (0, 0, 0.00000000000000000000e+00) (0, 0, 0.00000000000000000000e+00) (0, 0, 0.00000000000000000000e+00) (0, 0, 0.00000000000000000000e+00) (0, 0, 0.00000000000000000000e+00) (0, 0, 0.00000000000000000000e+00) (0, 0, 0.00000000000000000000e+00) (0, 0, 0.00000000000000000000e+00) (0, 0, 0.00000000000000000000e+00) (0, 0, 0.00000000000000000000e+00) (0, 0, 0.00000000000000000000e+00) (0, 0, 0.00000000000000000000e+00) (0, 0, 0.00000000000000000000e+00) (0, 0, 0.00000000000000000000e+00) (0, 0, 0.00000000000000000000e+00) (0, 0, 0.00000000000000000000e+00) (0, 0, 0.00000000000000000000e+00) (0, 0, 0.00000000000000000000e+00) (0, 0, 0.00000000000000000000e+00) (0, 0, 0.00000000000000000000e+00) (0, 0, 0.00000000000000000000e+00) (0, 0, 0.00000000000000000000e+00) (0, 0, 0.00000000000000000000e+00) (0, 0, 0.00000000000000000000e+00) (0, 0, 0.00000000000000000000e+00) (0, 0, 0.00000000000000000000e+00) (0, 0, 0.00000000000000000000e+00) (0, 0, 0.00000000000000000000e+00) (0, 0, 0.00000000000000000000e+00) (0, 0, 0.00000000000000000000e+00) (0, 0, 0.00000000000000000000e+00) (0, 0, 0.00000000000000000000e+00) (0, 0, 0.00000000000000000000e+00) (0, 0, 0.00000000000000000000e+00) (0, 0, 0.00000000000000000000e+00) (0, 0, 0.00000000000000000000e+00) (0, 0, 0.00000000000000000000e+00) (0, 0, 0.00000000000000000000e+00) (0, 0, 0.00000000000000000000e+00) (0, 0, 0.00000000000000000000e+00) (0, 0, 0.00000000000000000000e+00) (0, 0, 0.00000000000000000000e+00) (0, 0, 0.00000000000000000000e+00) (0, 0, 0.00000000000000000000e+00) (0, 0, 0.00000000000000000000e+00) (0, 0, 0.00000000000000000000e+00) (0, 0, 0.00000000000000000000e+00) (0, 0, 0.00000000000000000000e+00) (0, 0, 0.00000000000000000000e+00) (0, 0, 0.00000000000000000000e+00) (0, 0, 0.00000000000000000000e+00) (0, 0, 0.00000000000000000000e+00) (0, 0, 0.00000000000000000000e+00) (0, 0, 0.00000000000000000000e+00) (0, 0, 0.00000000000000000000e+00) (0, 0, 0.00000000000000000000e+00) (0, 0, 0.00000000000000000000e+00) (0, 0, 0.00000000000000000000e+00) (0, 0, 0.00000000000000000000e+00) (0, 0, 0.00000000000000000000e+00) (0, 0, 0.00000000000000000000e+00) (0, 0, 0.00000000000000000000e+00) (0, 0, 0.00000000000000000000e+00) (0, 0, 0.00000000000000000000e+00) (0, 0, 0.00000000000000000000e+00) (0, 0, 0.00000000000000000000e+00) (0, 0, 0.00000000000000000000e+00) (0, 0, 0.00000000000000000000e+00) (0, 0, 0.00000000000000000000e+00) (0, 0, 0.00000000000000000000e+00) (0, 0, 0.00000000000000000000e+00) (0, 0, 0.00000000000000000000e+00) (0, 0, 0.00000000000000000000e+00) (0, 0, 0.00000000000000000000e+00) (0, 0, 0.00000000000000000000e+00) (0, 0, 0.00000000000000000000e+00) (0, 0, 0.00000000000000000000e+00) (0, 0, 0.00000000000000000000e+00) (0, 0, 0.00000000000000000000e+00) (0, 0, 0.00000000000000000000e+00) (0, 0, 0.00000000000000000000e+00) (0, 0, 0.00000000000000000000e+00) (0, 0, 0.00000000000000000000e+00) (0, 0, 0.00000000000000000000e+00) (0, 0, 0.00000000000000000000e+00) (0, 0, 0.00000000000000000000e+00) (0, 0, 0.00000000000000000000e+00) (0, 0, 0.00000000000000000000e+00) (0, 0, 0.00000000000000000000e+00) (0, 0, 0.00000000000000000000e+00) (0, 0, 0.00000000000000000000e+00) (0, 0, 0.00000000000000000000e+00) (0, 0, 0.00000000000000000000e+00) (0, 0, 0.00000000000000000000e+00) (0, 0, 0.00000000000000000000e+00) (0, 0, 0.00000000000000000000e+00) (0, 0, 0.00000000000000000000e+00) (0, 0, 0.00000000000000000000e+00) (0, 0, 0.00000000000000000000e+00) (0, 0, 0.00000000000000000000e+00) (0, 0, 0.00000000000000000000e+00) (0, 0, 0.00000000000000000000e+00) (0, 0, 0.00000000000000000000e+00) (0, 0, 0.00000000000000000000e+00) (0, 0, 0.00000000000000000000e+00) (0, 0, 0.00000000000000000000e+00) (0, 0, 0.00000000000000000000e+00) (0, 0, 0.00000000000000000000e+00) (0, 0, 0.00000000000000000000e+00) (0, 0, 0.00000000000000000000e+00) (0, 0, 0.00000000000000000000e+00) (0, 0, 0.00000000000000000000e+00) (0, 0, 0.00000000000000000000e+00) (0, 0, 0.00000000000000000000e+00) (0, 0, 0.00000000000000000000e+00) (0, 0, 0.00000000000000000000e+00) (0, 0, 0.00000000000000000000e+00) (0, 0, 0.00000000000000000000e+00) (0, 0, 0.00000000000000000000e+00) (0, 0, 0.00000000000000000000e+00) (0, 0, 0.00000000000000000000e+00) (0, 0, 0.00000000000000000000e+00) (0, 0, 0.00000000000000000000e+00) (0, 0, 0.00000000000000000000e+00) (0, 0, 0.00000000000000000000e+00) (0, 0, 0.00000000000000000000e+00) (0, 0, 0.00000000000000000000e+00) (0, 0, 0.00000000000000000000e+00) (0, 0, 0.00000000000000000000e+00) (0, 0, 0.00000000000000000000e+00) (0, 0, 0.00000000000000000000e+00) (0, 0, 0.00000000000000000000e+00) (0, 0, 0.00000000000000000000e+00) (0, 0, 0.00000000000000000000e+00) (0, 0, 0.00000000000000000000e+00) (0, 0, 0.00000000000000000000e+00) (0, 0, 0.00000000000000000000e+00) (0, 0, 0.00000000000000000000e+00) (0, 0, 0.00000000000000000000e+00) (0, 0, 0.00000000000000000000e+00) (0, 0, 0.00000000000000000000e+00) (0, 0, 0.00000000000000000000e+00) (0, 0, 0.00000000000000000000e+00) (0, 0, 0.00000000000000000000e+00) (0, 0, 0.00000000000000000000e+00) (0, 0, 0.00000000000000000000e+00) (0, 0, 0.00000000000000000000e+00) (0, 0, 0.00000000000000000000e+00) (0, 0, 0.00000000000000000000e+00) (0, 0, 0.00000000000000000000e+00) (0, 0, 0.00000000000000000000e+00) (0, 0, 0.00000000000000000000e+00) (0, 0, 0.00000000000000000000e+00) (0, 0, 0.00000000000000000000e+00) (0, 0, 0.00000000000000000000e+00) (0, 0, 0.00000000000000000000e+00) (0, 0, 0.00000000000000000000e+00) (0, 0, 0.00000000000000000000e+00) (0, 0, 0.00000000000000000000e+00) (0, 0, 0.00000000000000000000e+00) (0, 0, 0.00000000000000000000e+00) (0, 0, 0.00000000000000000000e+00) (0, 0, 0.00000000000000000000e+00) (0, 0, 0.00000000000000000000e+00) (0, 0, 0.00000000000000000000e+00) (0, 0, 0.00000000000000000000e+00) (0, 0, 0.00000000000000000000e+00) (0, 0, 0.00000000000000000000e+00) (0, 0, 0.00000000000000000000e+00) (0, 0, 0.00000000000000000000e+00) (0, 0, 0.00000000000000000000e+00) (0, 0, 0.00000000000000000000e+00) (0, 0, 0.00000000000000000000e+00) (0, 0, 0.00000000000000000000e+00) (0, 0, 0.00000000000000000000e+00) (0, 0, 0.00000000000000000000e+00) (0, 0, 0.00000000000000000000e+00) (0, 0, 0.00000000000000000000e+00) (0, 0, 0.00000000000000000000e+00) (0, 0, 0.00000000000000000000e+00) (0, 0, 0.00000000000000000000e+00) (0, 0, 0.00000000000000000000e+00) (0, 0, 0.00000000000000000000e+00) (0, 0, 0.00000000000000000000e+00) (0, 0, 0.00000000000000000000e+00) (0, 0, 0.00000000000000000000e+00) (0, 0, 0.00000000000000000000e+00) (0, 0, 0.00000000000000000000e+00) (0, 0, 0.00000000000000000000e+00) (0, 0, 0.00000000000000000000e+00) (0, 0, 0.00000000000000000000e+00) (0, 0, 0.00000000000000000000e+00) (0, 0, 0.00000000000000000000e+00) (0, 0, 0.00000000000000000000e+00) (0, 0, 0.00000000000000000000e+00) (0, 0, 0.00000000000000000000e+00) (0, 0, 0.00000000000000000000e+00) (0, 0, 0.00000000000000000000e+00) (0, 0, 0.00000000000000000000e+00) (0, 0, 0.00000000000000000000e+00) (0, 0, 0.00000000000000000000e+00) (0, 0, 0.00000000000000000000e+00) (0, 0, 0.00000000000000000000e+00) (0, 0, 0.00000000000000000000e+00) (0, 0, 0.00000000000000000000e+00) (0, 0, 0.00000000000000000000e+00) (0, 0, 0.00000000000000000000e+00) (0, 0, 0.00000000000000000000e+00) (0, 0, 0.00000000000000000000e+00) (0, 0, 0.00000000000000000000e+00) (0, 0, 0.00000000000000000000e+00) (0, 0, 0.00000000000000000000e+00) (0, 0, 0.00000000000000000000e+00) (0, 0, 0.00000000000000000000e+00) (0, 0, 0.00000000000000000000e+00) (0, 0, 0.00000000000000000000e+00) (0, 0, 0.00000000000000000000e+00) (0, 0, 0.00000000000000000000e+00) (0, 0, 0.00000000000000000000e+00) (0, 0, 0.00000000000000000000e+00) (0, 0, 0.00000000000000000000e+00) (0, 0, 0.00000000000000000000e+00) (0, 0, 0.00000000000000000000e+00) (0, 0, 0.00000000000000000000e+00) (0, 0, 0.00000000000000000000e+00) (0, 0, 0.00000000000000000000e+00) (0, 0, 0.00000000000000000000e+00) (0, 0, 0.00000000000000000000e+00) (0, 0, 0.00000000000000000000e+00) (0, 0, 0.00000000000000000000e+00) (0, 0, 0.00000000000000000000e+00) (0, 0, 0.00000000000000000000e+00) (0, 0, 0.00000000000000000000e+00) (0, 0, 0.00000000000000000000e+00) (0, 0, 0.00000000000000000000e+00) (0, 0, 0.00000000000000000000e+00) (0, 0, 0.00000000000000000000e+00) (0, 0, 0.00000000000000000000e+00) (0, 0, 0.00000000000000000000e+00) (0, 0, 0.00000000000000000000e+00) (0, 0, 0.00000000000000000000e+00) (0, 0, 0.00000000000000000000e+00) (0, 0, 0.00000000000000000000e+00) (0, 0, 0.00000000000000000000e+00) (0, 0, 0.00000000000000000000e+00) (0, 0, 0.00000000000000000000e+00) (0, 0, 0.00000000000000000000e+00) (0, 0, 0.00000000000000000000e+00) (0, 0, 0.00000000000000000000e+00) (0, 0, 0.00000000000000000000e+00) (0, 0, 0.00000000000000000000e+00) (0, 0, 0.00000000000000000000e+00) (0, 0, 0.00000000000000000000e+00) (0, 0, 0.00000000000000000000e+00) (0, 0, 0.00000000000000000000e+00) (0, 0, 0.00000000000000000000e+00) (0, 0, 0.00000000000000000000e+00) (0, 0, 0.00000000000000000000e+00) (0, 0, 0.00000000000000000000e+00) (0, 0, 0.00000000000000000000e+00) (0, 0, 0.00000000000000000000e+00) (0, 0, 0.00000000000000000000e+00) (0, 0, 0.00000000000000000000e+00) (0, 0, 0.00000000000000000000e+00) (0, 0, 0.00000000000000000000e+00) (0, 0, 0.00000000000000000000e+00) (0, 0, 0.00000000000000000000e+00) (0, 0, 0.00000000000000000000e+00) (0, 0, 0.00000000000000000000e+00) (0, 0, 0.00000000000000000000e+00) (0, 0, 0.00000000000000000000e+00) (0, 0, 0.00000000000000000000e+00) (0, 0, 0.00000000000000000000e+00) (0, 0, 0.00000000000000000000e+00) (0, 0, 0.00000000000000000000e+00) (0, 0, 0.00000000000000000000e+00) (0, 0, 0.00000000000000000000e+00) (0, 0, 0.00000000000000000000e+00) (0, 0, 0.00000000000000000000e+00) (0, 0, 0.00000000000000000000e+00) (0, 0, 0.00000000000000000000e+00) (0, 0, 0.00000000000000000000e+00) (0, 0, 0.00000000000000000000e+00) (0, 0, 0.00000000000000000000e+00) (0, 0, 0.00000000000000000000e+00) (0, 0, 0.00000000000000000000e+00) (0, 0, 0.00000000000000000000e+00) (0, 0, 0.00000000000000000000e+00) (0, 0, 0.00000000000000000000e+00) (0, 0, 0.00000000000000000000e+00) (0, 0, 0.00000000000000000000e+00) (0, 0, 0.00000000000000000000e+00) (0, 0, 0.00000000000000000000e+00) (0, 0, 0.00000000000000000000e+00) (0, 0, 0.00000000000000000000e+00) (0, 0, 0.00000000000000000000e+00) (0, 0, 0.00000000000000000000e+00) (0, 0, 0.00000000000000000000e+00) (0, 0, 0.00000000000000000000e+00) (0, 0, 0.00000000000000000000e+00) (0, 0, 0.00000000000000000000e+00) (0, 0, 0.00000000000000000000e+00) (0, 0, 0.00000000000000000000e+00) (0, 0, 0.00000000000000000000e+00) (0, 0, 0.00000000000000000000e+00) (0, 0, 0.00000000000000000000e+00) (0, 0, 0.00000000000000000000e+00) (0, 0, 0.00000000000000000000e+00) (0, 0, 0.00000000000000000000e+00) (0, 0, 0.00000000000000000000e+00) (0, 0, 0.00000000000000000000e+00) (0, 0, 0.00000000000000000000e+00) (0, 0, 0.00000000000000000000e+00) (0, 0, 0.00000000000000000000e+00) (0, 0, 0.00000000000000000000e+00) (0, 0, 0.00000000000000000000e+00) (0, 0, 0.00000000000000000000e+00) (0, 0, 0.00000000000000000000e+00) (0, 0, 0.00000000000000000000e+00) (0, 0, 0.00000000000000000000e+00) (0, 0, 0.00000000000000000000e+00) (0, 0, 0.00000000000000000000e+00) (0, 0, 0.00000000000000000000e+00) (0, 0, 0.00000000000000000000e+00) (0, 0, 0.00000000000000000000e+00) (0, 0, 0.00000000000000000000e+00) (0, 0, 0.00000000000000000000e+00) (0, 0, 0.00000000000000000000e+00) (0, 0, 0.00000000000000000000e+00) (0, 0, 0.00000000000000000000e+00) (0, 0, 0.00000000000000000000e+00) (0, 0, 0.00000000000000000000e+00) (0, 0, 0.00000000000000000000e+00) (0, 0, 0.00000000000000000000e+00) (0, 0, 0.00000000000000000000e+00) (0, 0, 0.00000000000000000000e+00) (0, 0, 0.00000000000000000000e+00) (0, 0, 0.00000000000000000000e+00) (0, 0, 0.00000000000000000000e+00) (0, 0, 0.00000000000000000000e+00) (0, 0, 0.00000000000000000000e+00) (0, 0, 0.00000000000000000000e+00) (0, 0, 0.00000000000000000000e+00) (0, 0, 0.00000000000000000000e+00) (0, 0, 0.00000000000000000000e+00) (0, 0, 0.00000000000000000000e+00) (0, 0, 0.00000000000000000000e+00) (0, 0, 0.00000000000000000000e+00) (0, 0, 0.00000000000000000000e+00) (0, 0, 0.00000000000000000000e+00) (0, 0, 0.00000000000000000000e+00) (0, 0, 0.00000000000000000000e+00) (0, 0, 0.00000000000000000000e+00) (0, 0, 0.00000000000000000000e+00) (0, 0, 0.00000000000000000000e+00) (0, 0, 0.00000000000000000000e+00) (0, 0, 0.00000000000000000000e+00) (0, 0, 0.00000000000000000000e+00) (0, 0, 0.00000000000000000000e+00) (0, 0, 0.00000000000000000000e+00) (0, 0, 0.00000000000000000000e+00) (0, 0, 0.00000000000000000000e+00) (0, 0, 0.00000000000000000000e+00) (0, 0, 0.00000000000000000000e+00) (0, 0, 0.00000000000000000000e+00) (0, 0, 0.00000000000000000000e+00) (0, 0, 0.00000000000000000000e+00) (0, 0, 0.00000000000000000000e+00) (0, 0, 0.00000000000000000000e+00) (0, 0, 0.00000000000000000000e+00) (0, 0, 0.00000000000000000000e+00) (0, 0, 0.00000000000000000000e+00) (0, 0, 0.00000000000000000000e+00) (0, 0, 0.00000000000000000000e+00) (0, 0, 0.00000000000000000000e+00) (0, 0, 0.00000000000000000000e+00) (0, 0, 0.00000000000000000000e+00) (0, 0, 0.00000000000000000000e+00) (0, 0, 0.00000000000000000000e+00) (0, 0, 0.00000000000000000000e+00) (0, 0, 0.00000000000000000000e+00) (0, 0, 0.00000000000000000000e+00) (0, 0, 0.00000000000000000000e+00) (0, 0, 0.00000000000000000000e+00) (0, 0, 0.00000000000000000000e+00) (0, 0, 0.00000000000000000000e+00) (0, 0, 0.00000000000000000000e+00) (0, 0, 0.00000000000000000000e+00) (0, 0, 0.00000000000000000000e+00) (0, 0, 0.00000000000000000000e+00) (0, 0, 0.00000000000000000000e+00) (0, 0, 0.00000000000000000000e+00) (0, 0, 0.00000000000000000000e+00) (0, 0, 0.00000000000000000000e+00) (0, 0, 0.00000000000000000000e+00) (0, 0, 0.00000000000000000000e+00) (0, 0, 0.00000000000000000000e+00) (0, 0, 0.00000000000000000000e+00) (0, 0, 0.00000000000000000000e+00) (0, 0, 0.00000000000000000000e+00) (0, 0, 0.00000000000000000000e+00) (0, 0, 0.00000000000000000000e+00) (0, 0, 0.00000000000000000000e+00) (0, 0, 0.00000000000000000000e+00) (0, 0, 0.00000000000000000000e+00) (0, 0, 0.00000000000000000000e+00) (0, 0, 0.00000000000000000000e+00) (0, 0, 0.00000000000000000000e+00) (0, 0, 0.00000000000000000000e+00) (0, 0, 0.00000000000000000000e+00) (0, 0, 0.00000000000000000000e+00) (0, 0, 0.00000000000000000000e+00) (0, 0, 0.00000000000000000000e+00) (0, 0, 0.00000000000000000000e+00) (0, 0, 0.00000000000000000000e+00) (0, 0, 0.00000000000000000000e+00) (0, 0, 0.00000000000000000000e+00) (0, 0, 0.00000000000000000000e+00) (0, 0, 0.00000000000000000000e+00) (0, 0, 0.00000000000000000000e+00) (0, 0, 0.00000000000000000000e+00) (0, 0, 0.00000000000000000000e+00) (0, 0, 0.00000000000000000000e+00) (0, 0, 0.00000000000000000000e+00) (0, 0, 0.00000000000000000000e+00) (0, 0, 0.00000000000000000000e+00) (0, 0, 0.00000000000000000000e+00) (0, 0, 0.00000000000000000000e+00) (0, 0, 0.00000000000000000000e+00) (0, 0, 0.00000000000000000000e+00) (0, 0, 0.00000000000000000000e+00) (0, 0, 0.00000000000000000000e+00) (0, 0, 0.00000000000000000000e+00) (0, 0, 0.00000000000000000000e+00) (0, 0, 0.00000000000000000000e+00) (0, 0, 0.00000000000000000000e+00) (0, 0, 0.00000000000000000000e+00) (0, 0, 0.00000000000000000000e+00) (0, 0, 0.00000000000000000000e+00) (0, 0, 0.00000000000000000000e+00) (0, 0, 0.00000000000000000000e+00) (0, 0, 0.00000000000000000000e+00) (0, 0, 0.00000000000000000000e+00) (0, 0, 0.00000000000000000000e+00) (0, 0, 0.00000000000000000000e+00) (0, 0, 0.00000000000000000000e+00) (0, 0, 0.00000000000000000000e+00) (0, 0, 0.00000000000000000000e+00) (0, 0, 0.00000000000000000000e+00) (0, 0, 0.00000000000000000000e+00) (0, 0, 0.00000000000000000000e+00) (0, 0, 0.00000000000000000000e+00) (0, 0, 0.00000000000000000000e+00) (0, 0, 0.00000000000000000000e+00) (0, 0, 0.00000000000000000000e+00) (0, 0, 0.00000000000000000000e+00) (0, 0, 0.00000000000000000000e+00) (0, 0, 0.00000000000000000000e+00) (0, 0, 0.00000000000000000000e+00) (0, 0, 0.00000000000000000000e+00) (0, 0, 0.00000000000000000000e+00) (0, 0, 0.00000000000000000000e+00) (0, 0, 0.00000000000000000000e+00) (0, 0, 0.00000000000000000000e+00) (0, 0, 0.00000000000000000000e+00) (0, 0, 0.00000000000000000000e+00) (0, 0, 0.00000000000000000000e+00) (0, 0, 0.00000000000000000000e+00) (0, 0, 0.00000000000000000000e+00) (0, 0, 0.00000000000000000000e+00) (0, 0, 0.00000000000000000000e+00) (0, 0, 0.00000000000000000000e+00) (0, 0, 0.00000000000000000000e+00) (0, 0, 0.00000000000000000000e+00) (0, 0, 0.00000000000000000000e+00) (0, 0, 0.00000000000000000000e+00) (0, 0, 0.00000000000000000000e+00) (0, 0, 0.00000000000000000000e+00) (0, 0, 0.00000000000000000000e+00) (0, 0, 0.00000000000000000000e+00) (0, 0, 0.00000000000000000000e+00) (0, 0, 0.00000000000000000000e+00) (0, 0, 0.00000000000000000000e+00) (0, 0, 0.00000000000000000000e+00) (0, 0, 0.00000000000000000000e+00) (0, 0, 0.00000000000000000000e+00) (0, 0, 0.00000000000000000000e+00) (0, 0, 0.00000000000000000000e+00) (0, 0, 0.00000000000000000000e+00) (0, 0, 0.00000000000000000000e+00) (0, 0, 0.00000000000000000000e+00) (0, 0, 0.00000000000000000000e+00) (0, 0, 0.00000000000000000000e+00) (0, 0, 0.00000000000000000000e+00) (0, 0, 0.00000000000000000000e+00) (0, 0, 0.00000000000000000000e+00) (0, 0, 0.00000000000000000000e+00) (0, 0, 0.00000000000000000000e+00) (0, 0, 0.00000000000000000000e+00) (0, 0, 0.00000000000000000000e+00) (0, 0, 0.00000000000000000000e+00) (0, 0, 0.00000000000000000000e+00) (0, 0, 0.00000000000000000000e+00) (0, 0, 0.00000000000000000000e+00) (0, 0, 0.00000000000000000000e+00) (0, 0, 0.00000000000000000000e+00) (0, 0, 0.00000000000000000000e+00) (0, 0, 0.00000000000000000000e+00) (0, 0, 0.00000000000000000000e+00) (0, 0, 0.00000000000000000000e+00) (0, 0, 0.00000000000000000000e+00) (0, 0, 0.00000000000000000000e+00) (0, 0, 0.00000000000000000000e+00) (0, 0, 0.00000000000000000000e+00) (0, 0, 0.00000000000000000000e+00) (0, 0, 0.00000000000000000000e+00) (0, 0, 0.00000000000000000000e+00) (0, 0, 0.00000000000000000000e+00) (0, 0, 0.00000000000000000000e+00) (0, 0, 0.00000000000000000000e+00) (0, 0, 0.00000000000000000000e+00) (0, 0, 0.00000000000000000000e+00) (0, 0, 0.00000000000000000000e+00) (0, 0, 0.00000000000000000000e+00) (0, 0, 0.00000000000000000000e+00) (0, 0, 0.00000000000000000000e+00) (0, 0, 0.00000000000000000000e+00) (0, 0, 0.00000000000000000000e+00) (0, 0, 0.00000000000000000000e+00) (0, 0, 0.00000000000000000000e+00) (0, 0, 0.00000000000000000000e+00) (0, 0, 0.00000000000000000000e+00) (0, 0, 0.00000000000000000000e+00) (0, 0, 0.00000000000000000000e+00) (0, 0, 0.00000000000000000000e+00) (0, 0, 0.00000000000000000000e+00) (0, 0, 0.00000000000000000000e+00) (0, 0, 0.00000000000000000000e+00) (0, 0, 0.00000000000000000000e+00) (0, 0, 0.00000000000000000000e+00) (0, 0, 0.00000000000000000000e+00) (0, 0, 0.00000000000000000000e+00) (0, 0, 0.00000000000000000000e+00) (0, 0, 0.00000000000000000000e+00) (785, 5, 5.00000000000000000000e-01) (785, 5, 5.00000000000000000000e-01) (785, 5, 5.00000000000000000000e-01) (785, 5, 5.00000000000000000000e-01) (785, 5, 5.00000000000000000000e-01) (785, 5, 5.00000000000000000000e-01) (785, 5, 5.00000000000000000000e-01) (785, 5, 5.00000000000000000000e-01) (785, 5, 5.00000000000000000000e-01) (785, 5, 5.00000000000000000000e-01) (785, 5, 5.00000000000000000000e-01) (785, 5, 5.00000000000000000000e-01) (785, 5, 5.00000000000000000000e-01) (785, 5, 5.00000000000000000000e-01) (785, 5, 5.00000000000000000000e-01) (0, 5, 0.00000000000000000000e+00) (16, 5, 5.00000000000000000000e-01) (16, 5, 5.00000000000000000000e-01) (16, 5, 5.00000000000000000000e-01) (16, 5, 5.00000000000000000000e-01) (16, 5, 5.00000000000000000000e-01) (16, 5, 5.00000000000000000000e-01) (16, 5, 5.00000000000000000000e-01) (16, 5, 5.00000000000000000000e-01) (16, 5, 5.00000000000000000000e-01) (16, 5, 5.00000000000000000000e-01) (0, 5, 0.00000000000000000000e+00) 
connections (connected_to_neuron, weight)=(0, -7.54272490739822387695e-02) (1, 5.08605912327766418457e-02) (2, -4.04174812138080596924e-02) (3, 8.69384780526161193848e-02) (4, 9.53918471932411193848e-02) (5, -5.47546409070491790771e-02) (6, -7.03002959489822387695e-02) (7, -4.69360500574111938477e-03) (8, -2.13806182146072387695e-02) (9, 7.72277787327766418457e-02) (10, -3.11523452401161193848e-02) (11, 3.23608443140983581543e-02) (12, 2.47283130805391222762e-02) (13, 5.40769911085909032317e-03) (14, -2.91727178048456006754e-02) (15, -9.57012623248470889470e-02) (16, 4.85046431422233581543e-02) (17, -1.61437988281250000000e-02) (18, -2.09716781973838806152e-02) (19, -2.51403823494911193848e-02) (20, -1.18347182869911193848e-02) (21, 1.13891586661338806152e-02) (22, 5.56823685765266418457e-02) (23, -2.93395966291427612305e-02) (24, 1.29089355468750000000e-02) (25, 3.23242172598838806152e-02) (26, -8.75366255640983581543e-02) (27, 2.63366773724555969238e-02) (28, 1.35437026619911193848e-02) (29, -9.65575873851776123047e-03) (30, -3.00170928239822387695e-02) (31, 2.50671431422233581543e-02) (32, 5.49663556560298516979e-03) (33, -5.54049252004758310819e-02) (34, 3.53233703458634418215e-02) (35, 9.22775617314843810135e-02) (36, 8.42717620293741281889e-02) (37, -3.39055742444041852135e-02) (38, 1.03699897925883674499e-01) (39, 1.91415460815990944032e-02) (40, 2.52755429669932578374e-02) (41, -4.23793099739664599901e-02) (42, 1.04536986256914349314e-01) (43, 1.16675164607521364424e-01) (44, 1.41766666609954555128e-02) (45, -1.89171307953786517128e-03) (46, 6.85918223504441426641e-02) (47, 8.87741148381245986920e-02) (48, 6.60726749754522030278e-02) (49, 3.24863956345052135033e-02) (50, -9.43812697102144708416e-04) (51, -4.16305869170067108231e-02) (52, -3.21654975414276123047e-03) (53, 3.41369584202766418457e-02) (54, 5.72753921151161193848e-02) (55, -9.04785171151161193848e-02) (56, -9.39758345484733581543e-02) (57, 2.02636420726776123047e-03) (58, -7.81685967803067149884e-02) (59, 4.56427476060805928371e-02) (60, 4.59040278432036683715e-03) (61, -9.34763250099068798704e-02) (62, 8.54449959619655446952e-02) (63, -4.54857268601223593829e-02) (64, 8.71784083845891788478e-02) (65, -3.93337166596178719469e-02) (66, 6.46634456041444150021e-02) (67, 9.13492868775159783112e-02) (68, 1.35930430068862267978e-01) (69, 1.36576069313662507021e-01) (70, 1.09364897205145472636e-01) (71, 1.85445595826113002191e-01) (72, 4.85023741639111286017e-02) (73, 1.82708379298416934144e-01) (74, 1.65677774726055909715e-01) (75, 1.41578067613344987796e-01) (76, 1.39160942811197979596e-02) (77, 9.31815073194630916209e-02) (78, 5.27079372172395768659e-02) (79, -4.97084142310389165420e-02) (80, 3.90801758996008677394e-02) (81, -8.16531488897467988552e-02) (82, 7.28759914636611938477e-03) (83, -1.29699707031250000000e-02) (84, 4.20288071036338806152e-02) (85, 3.48876938223838806152e-02) (86, 6.07942729429163664090e-02) (87, 3.14349295865122210780e-02) (88, 7.38837444824155809009e-02) (89, 6.59593738504285209689e-02) (90, 8.23769736560481247167e-02) (91, 5.05172332554368330726e-02) (92, -3.45325270864496186585e-02) (93, -6.62395495080851520742e-02) (94, -6.57005568335256306955e-02) (95, -8.79068806562558098527e-03) (96, -1.78704531099950249262e-02) (97, -8.09852433516955738657e-02) (98, 2.64857877981925678157e-02) (99, 1.67677619301791654138e-02) (100, -1.55356543191524937991e-02) (101, 1.99734408492722580620e-04) (102, 2.56083166710531773269e-02) (103, 6.31069450784887270300e-02) (104, 1.45329418575738028574e-01) (105, 1.35674802480775985591e-01) (106, 9.28592815545560140711e-02) (107, 9.69171253261390253098e-03) (108, 5.71437539882337502961e-02) (109, 4.50791183042118827340e-03) (110, -6.23271471667412868545e-02) (111, -4.58923354744911193848e-02) (112, -2.13623046875000000000e-04) (113, 6.24065652776340587526e-02) (114, 4.22096844129270856727e-02) (115, -6.74309290584387561324e-03) (116, -1.25100724847319131477e-02) (117, -8.77904578047211531233e-02) (118, 4.54567631470510491454e-02) (119, 2.24018836672027349399e-02) (120, 1.89366832828962057544e-02) (121, -1.04837763203974421167e-01) (122, -2.09305055228463848804e-01) (123, -4.79987101144587688384e-02) (124, -5.73213591173902109466e-02) (125, -5.39228884321996740359e-02) (126, -2.25397222028203177147e-02) (127, -3.27264399836991667914e-02) (128, -7.18494589873876730868e-03) (129, -3.47909095131294435199e-02) (130, 6.69898094097602647690e-02) (131, 1.35052788838930775545e-02) (132, -8.41822771905616348484e-04) (133, 1.44287055873383252003e-01) (134, 1.39558312009270185650e-01) (135, 1.74230671344685505986e-01) (136, 1.46043992873129052645e-01) (137, 1.14611138406745166618e-01) (138, -6.09653456943084690045e-02) (139, 3.56034454676651193616e-02) (140, 6.94213882088661193848e-02) (141, 3.62670943140983581543e-02) (142, 4.47802679403310061046e-02) (143, -6.93528212653914642727e-03) (144, 2.85358903058096739780e-02) (145, 1.01798134644422430539e-01) (146, 3.60158107667631205429e-02) (147, -8.06359597601385702514e-02) (148, -9.53187370250264676130e-02) (149, -5.81521700093908869289e-02) (150, -1.14839451286208565906e-01) (151, -1.52982062349924813338e-01) (152, -1.39042879033811878076e-01) (153, -1.00808835399370973207e-02) (154, -5.04016824774137020548e-02) (155, -1.02023967795175266038e-01) (156, 6.08861960288687650844e-02) (157, 3.36856006101443686274e-02) (158, -3.65686156110263810293e-02) (159, 2.56885626038524557402e-02) (160, 7.38352415509234503294e-03) (161, 5.74436904382772187128e-02) (162, 4.72509337457525796511e-02) (163, 1.24206715409947140993e-01) (164, 8.66060020006213793220e-02) (165, 1.03358931131556433525e-02) (166, -1.80521893506482931230e-03) (167, -9.71913533258533975101e-03) (168, -4.20532375574111938477e-03) (169, -6.67861530755433641104e-02) (170, 1.45668628230156034509e-02) (171, -5.59082973513456288339e-02) (172, -2.34636639152883859361e-02) (173, 2.20906122372179110347e-02) (174, 3.09590128891242891140e-02) (175, 1.70947522023653791789e-02) (176, -1.04680451031342863083e-02) (177, 8.58963440011221990300e-02) (178, 5.60995370794411807314e-02) (179, 5.75014966682985961821e-02) (180, -2.29173137661696710299e-02) (181, 7.54425640534928110270e-03) (182, 9.78945569140577710743e-04) (183, 1.48828821190134675395e-02) (184, 2.40168240812308510235e-02) (185, 6.45213454968585065075e-02) (186, 8.52800980944841968689e-02) (187, 1.21941935922932065406e-01) (188, 1.13411385217823748595e-01) (189, 1.20397348470462184356e-01) (190, 2.51535252585815105597e-01) (191, 3.45386170452442076151e-01) (192, 1.70201044906267362489e-01) (193, 1.51513279449171783808e-01) (194, 2.39853694758813962284e-02) (195, -2.14092018503267476990e-04) (196, -9.07225553832859965553e-02) (197, 3.82643242729668181523e-02) (198, -5.35695651736331907022e-02) (199, 2.58927888398692747363e-02) (200, -2.01399210643682623212e-02) (201, 3.52125156259867344577e-02) (202, -2.93805769184347087553e-02) (203, -2.11559179872249161769e-02) (204, 1.18193282856047701679e-01) (205, 8.04243262546013859549e-02) (206, 8.26119522361483255013e-02) (207, 9.80662874574945442330e-02) (208, 6.14212478594238844853e-02) (209, 4.34974515736977693225e-02) (210, 6.17582328937883295178e-03) (211, 8.67605255525666085870e-02) (212, 2.31125699646628005035e-02) (213, 7.21095224314593635784e-02) (214, 1.72896375280939901264e-01) (215, 1.60127479651956533546e-01) (216, 1.82482271264570700131e-01) (217, 2.22494332910914111023e-01) (218, 4.54697456107548206306e-02) (219, 2.36501595347178961148e-01) (220, 2.22646867906183792973e-01) (221, 1.70053147817693983690e-01) (222, 1.99382006908690283253e-02) (223, -8.78271647452640719100e-02) (224, -3.67326821304108167010e-02) (225, -9.68082104293694900576e-02) (226, 5.64829786029921315782e-02) (227, -1.53850109886513059659e-02) (228, 8.96736233533482057778e-02) (229, 8.93001177121935663106e-02) (230, 7.29040165551357866036e-02) (231, 9.52444784241079783760e-02) (232, 5.03567368674472659595e-02) (233, 1.50433751183464831103e-01) (234, 9.66964306905633425027e-02) (235, 3.75910356623741503945e-02) (236, -2.06524106943663075678e-04) (237, -4.86008246065212715092e-02) (238, -2.05088416100910921058e-02) (239, -4.01320229286777074851e-02) (240, 4.48528044577172144147e-02) (241, -7.25597694850981800307e-02) (242, 5.05409894066663409329e-02) (243, 8.41610185864032217529e-02) (244, 4.65074473277597849608e-02) (245, 1.46113085617001509098e-01) (246, 1.41249322540170363371e-01) (247, 3.30162953395192249051e-01) (248, 3.13241330295019382302e-01) (249, 1.38937846774015411055e-01) (250, -2.27540255082537279385e-02) (251, 4.32284043114946059383e-02) (252, 9.59335382736701963724e-02) (253, -5.60884372785636700631e-02) (254, -7.64197672700480806762e-02) (255, -5.37969416042284112600e-02) (256, -5.32938996965287500873e-02) (257, 1.50504648658794492472e-02) (258, 1.09040750109664241752e-01) (259, 3.16289722292045841212e-02) (260, 1.27011673063001928607e-01) (261, 4.25116179147394315785e-02) (262, 6.39516469996825043243e-02) (263, 5.44930841235803306577e-02) (264, 4.35154557247897089134e-02) (265, -5.75817505603359730548e-02) (266, -1.21685549418399388544e-01) (267, -3.92284392349095331620e-02) (268, -3.68773776634432476351e-02) (269, 7.85391628712428652159e-02) (270, 1.69860664519958133589e-02) (271, 5.13303108019130538420e-02) (272, 1.08637272251541530665e-01) (273, 1.26971735561369786227e-01) (274, 2.33972984187765270514e-01) (275, 2.89595273161553923291e-01) (276, 2.89118309453256949748e-01) (277, 1.40094327161473693188e-02) (278, 6.50446129588167776259e-02) (279, 4.12116821408377298486e-02) (280, 3.95365720702373982243e-02) (281, 8.06326413532108265958e-02) (282, -8.83341131959741038271e-02) (283, 7.07908523323571292618e-02) (284, 1.18133593976848944029e-01) (285, 9.57300234233529889760e-02) (286, 6.52396382859944667931e-02) (287, 1.30157513716360001554e-01) (288, 1.96912270217564688846e-01) (289, 1.44561981293669122861e-01) (290, 1.38613889969877751573e-01) (291, 1.18221536950142175337e-01) (292, 1.09775415078883165076e-01) (293, 4.96872798667595400035e-02) (294, -1.60245160424950655598e-01) (295, -1.35865846528501282853e-01) (296, 1.00774225059883482114e-01) (297, -3.71192870843850067364e-02) (298, 4.56935876484065080921e-03) (299, -1.11969494470516260642e-02) (300, -3.91286976766917760084e-02) (301, 4.87768869502514454406e-02) (302, 9.57348661856819993510e-02) (303, 2.80185479834192896487e-01) (304, 2.20695757304845169289e-01) (305, -1.73510519109577390773e-02) (306, 2.97492571089845690702e-02) (307, -3.18515324278715039608e-02) (308, -1.24003837078913818626e-02) (309, 1.47019170484669284976e-02) (310, -1.18096314247111214280e-02) (311, -4.61579669573775833863e-03) (312, 4.07178414796748530669e-02) (313, 5.78681777025001412018e-02) (314, 3.17347639419198079835e-01) (315, 3.12426496795659203176e-01) (316, 2.85321011839988203374e-01) (317, 3.44741172420061581239e-01) (318, 4.14717467207303236432e-01) (319, 3.20233658205888727100e-01) (320, 4.03420604082858402784e-01) (321, 2.93199258788543415388e-01) (322, -1.66675075159094417121e-02) (323, 3.32344302994876522606e-02) (324, 1.17931201821824468978e-02) (325, 1.19728226625592612531e-01) (326, -2.89175940142215618864e-03) (327, -5.14166339183379020317e-02) (328, 1.86762851493342402209e-02) (329, -5.70979923080898246757e-02) (330, 7.17267787500557446601e-02) (331, 2.05356593743091120352e-01) (332, 1.39302355749023991371e-02) (333, -5.09201031932368514132e-02) (334, -7.80314736447059592583e-02) (335, -2.86196079146005324945e-02) (336, 4.74384935615382308249e-02) (337, -5.56492138934772048731e-02) (338, 8.64041166113117820036e-02) (339, -2.68922378023541755465e-02) (340, 3.32063684169789513634e-02) (341, 2.46803042720255882969e-01) (342, 3.75592580778244033990e-01) (343, 3.92661972383433033329e-01) (344, 4.83720417862975538004e-01) (345, 4.01095835635944419906e-01) (346, 4.41700453627311528937e-01) (347, 3.34298939451041554616e-01) (348, 3.58826138586031462285e-01) (349, 2.81748780361589623578e-01) (350, 9.11769419062290198408e-03) (351, -2.77146735157901176472e-02) (352, 1.48709189413195219664e-01) (353, 6.13206003352310194399e-02) (354, 5.50616985969620761909e-02) (355, -1.13465519931949310184e-01) (356, -1.33868312088130242410e-01) (357, 3.89253632605446736603e-02) (358, 6.52915665522821875300e-02) (359, 1.06059922389907315687e-01) (360, 1.63300313493997609204e-02) (361, 2.45335230178107231713e-02) (362, -1.19998816867968954858e-01) (363, 3.22148009151814254669e-02) (364, 9.21756679793908489939e-02) (365, 8.49418130840235707790e-02) (366, -3.76334742804566163565e-02) (367, 6.70308730057981166928e-02) (368, 7.83344401913452087483e-02) (369, 2.35329011795607223601e-01) (370, 3.25824372709398901726e-01) (371, 4.06171947063257599009e-01) (372, 1.82857627210097628545e-01) (373, 1.58529977853555187339e-01) (374, 2.79462462000923776706e-02) (375, 1.42327664349736981997e-01) (376, 2.45459402212375110697e-01) (377, 6.88125044201252505927e-02) (378, -1.84531362556935751851e-01) (379, 7.99739814864253856230e-03) (380, 2.84005562023831835405e-02) (381, -1.98296839547437292461e-02) (382, -4.60264314295509013863e-02) (383, -4.42505911607836560639e-02) (384, 4.92159264826640824309e-03) (385, 6.75997345369350327582e-02) (386, 1.95183094969663184504e-01) (387, 1.46322981813744090740e-01) (388, 2.09001019921444888827e-02) (389, -8.18948819839970670875e-02) (390, -9.55391656635297403799e-02) (391, -3.14701504622322270066e-02) (392, -6.81751475072577411973e-02) (393, 3.19535587895819137016e-02) (394, 6.59260462503858946093e-02) (395, -4.52466452489980047735e-02) (396, 1.34921173040395525611e-01) (397, 1.83754556735959306835e-01) (398, 1.90370140923687647394e-01) (399, 2.91828290797920657240e-02) (400, -1.98087501984481571815e-02) (401, -3.49832647379292316359e-02) (402, -5.34032082682126610362e-02) (403, 4.64993399924582620497e-02) (404, 1.48690157596630928571e-01) (405, -9.26652212717874040893e-02) (406, -6.45877197391477864130e-02) (407, -1.11420581382183983554e-02) (408, 9.68372463854401815952e-02) (409, 2.06294813766396308019e-02) (410, -6.39658754317671551792e-02) (411, 8.27167807893534542951e-03) (412, 3.82176821815083528344e-02) (413, 1.28898027772610473951e-01) (414, 6.19186579126435043818e-02) (415, 1.22569874579544102478e-01) (416, 7.51885092507697944120e-02) (417, -9.71542824796445964042e-02) (418, -1.33494792254558514166e-01) (419, -9.77198997478248981841e-02) (420, 2.13263093078014352721e-02) (421, -9.28442486725736815245e-02) (422, 6.34716726449428836343e-02) (423, 2.03454405478037912702e-03) (424, 5.10105206212391106696e-03) (425, 4.50524060498356873627e-02) (426, 3.27619481284120370179e-02) (427, -6.44706284079300945278e-02) (428, -1.15943372053251333303e-02) (429, -8.47958613165979979698e-02) (430, -7.95122502940790593096e-02) (431, 1.56040189810400424866e-03) (432, 1.97930130634283357738e-01) (433, 1.71311487404780631028e-02) (434, -5.40206034445208094219e-02) (435, -6.40608785383987577866e-02) (436, 4.04430461590047640730e-02) (437, 1.24534513403793695857e-02) (438, -7.57607259073454913922e-02) (439, 9.74845004872940262830e-02) (440, 1.56679908673279577602e-01) (441, -1.01018683335378986476e-02) (442, 5.69692177646620306897e-02) (443, 3.31586750040603409073e-02) (444, 3.59582554234107523716e-02) (445, -1.57575051116440684185e-01) (446, -8.49406253381974757355e-02) (447, -1.04409720942171449498e-01) (448, 2.68687143932657482304e-02) (449, -6.63757825397514183985e-02) (450, 8.87617546148738723044e-02) (451, 7.74977746162878039504e-02) (452, -3.94023709089965576413e-02) (453, -1.48451258911041724699e-03) (454, -1.49018683202292834267e-01) (455, -6.53360330138437750414e-02) (456, -1.05012697822947892456e-01) (457, -1.15437985860552635997e-01) (458, -6.15512749499015909826e-02) (459, 7.30297956229304379150e-02) (460, 7.90516914352341060201e-02) (461, 3.30699457117652889648e-02) (462, -1.81588172726972724158e-01) (463, -6.11111676300339287660e-02) (464, -1.09321099719012326812e-01) (465, -2.49562705929206422872e-02) (466, 4.10639952789091794427e-02) (467, 1.16004623665041731173e-02) (468, 3.96938660322837880146e-02) (469, -8.18580997703977214508e-02) (470, -2.40315116842514490958e-02) (471, -1.12227696099310506050e-01) (472, -3.20875528249579475282e-03) (473, -1.52161172444247483337e-01) (474, -1.33757813883656623277e-01) (475, -8.71185832955630179431e-02) (476, 6.64367750287055969238e-02) (477, 2.65041947134091356031e-03) (478, 5.30378052482132558709e-02) (479, -6.63239355304433286786e-03) (480, -4.30280286403164208275e-02) (481, -9.62784492835027511104e-02) (482, -6.22422121665003880153e-02) (483, -1.04660454782871434332e-01) (484, -8.76887160840852386556e-02) (485, -3.67670147095092367251e-02) (486, -4.74194135844068914709e-02) (487, 1.02299614432532354202e-01) (488, -4.79488238320089667222e-03) (489, -4.32605172002972909739e-02) (490, -1.79165558992457063514e-01) (491, -2.17959864897740523970e-01) (492, 2.42613400235819256373e-03) (493, 7.14301231361472860337e-02) (494, -6.94856230513259953696e-02) (495, 4.42880224404293212914e-02) (496, -4.64229043328799259593e-02) (497, -2.00186030400093979698e-02) (498, -1.38328891213700816420e-01) (499, -6.08015978089383110627e-02) (500, -2.30693787078600887064e-01) (501, -1.90833458402258598907e-01) (502, 4.35260365341797600403e-02) (503, -1.40766973928482699678e-03) (504, -5.52399798483229204082e-02) (505, 3.21283792866371709085e-02) (506, -6.02114721118307272274e-02) (507, 6.74725368756116938851e-02) (508, -1.76934493469142500865e-01) (509, -1.42372093372923141930e-01) (510, -1.61643572038349336850e-01) (511, -1.49888534095640985067e-01) (512, -2.15584777166197734399e-02) (513, -7.29256983728168439729e-02) (514, 5.49675747776060055760e-02) (515, 8.61116062851556007818e-02) (516, -2.29549028036597352331e-02) (517, -1.11927153647533667025e-01) (518, -2.80284920722097485868e-01) (519, -1.68914647584399058022e-01) (520, 1.11610762817361823702e-03) (521, -2.77328931771582513910e-02) (522, 5.82617010834687240606e-02) (523, -5.95173234836966977279e-02) (524, -8.56734429974173733457e-02) (525, -5.33506715030460654248e-02) (526, -3.86543861392505405661e-02) (527, -2.27874204854558476407e-01) (528, -2.34444248211571837359e-01) (529, -1.24752593423270163875e-01) (530, 5.07001263960192780078e-02) (531, -9.38918722106686920448e-02) (532, 1.84741891946092794477e-03) (533, 9.58207689491085146116e-02) (534, 1.27208475600627701763e-01) (535, -3.01362045531387880148e-02) (536, -1.35451592011995108900e-01) (537, -1.15503525261998404861e-01) (538, -1.38110253252625436726e-01) (539, -1.66245728587848251578e-01) (540, -6.92953857024142805265e-02) (541, -1.07947701070047238914e-01) (542, -5.13257809044463577525e-03) (543, 2.63672522704280071215e-02) (544, 1.10143128490375497019e-01) (545, -2.13714437421232583691e-01) (546, -1.61805332822259340109e-01) (547, -1.48247976586065338678e-01) (548, -8.26239037739290027584e-02) (549, -3.97499724133757760536e-03) (550, -6.19836793632409233101e-02) (551, 3.59338641213076404046e-02) (552, -2.02759822728885812093e-03) (553, -5.99728667854299794110e-03) (554, -1.20945330202464493285e-01) (555, -2.26214115759058947974e-01) (556, -2.15202520639951738746e-01) (557, -1.09937619665514699219e-01) (558, 1.66040739528395160651e-02) (559, -9.08698509827488704049e-02) (560, 9.13574174046516418457e-02) (561, -3.61721206775278344980e-02) (562, -2.89809476582357262997e-02) (563, 2.82216393954944112787e-02) (564, -1.74310016284522029117e-01) (565, -1.27531491296882376618e-01) (566, 7.05060592916603723346e-03) (567, -1.19761824708551289920e-01) (568, -4.57891658025175729563e-02) (569, -4.48385006052948800748e-02) (570, 1.98476697579453090214e-02) (571, -9.29575675320969269100e-02) (572, 1.68701393762059753678e-02) (573, -1.03319531564525821099e-01) (574, -6.76749857679904975871e-02) (575, -2.92965754858751994960e-02) (576, -2.08112566306753628276e-02) (577, 7.92192573687937190430e-02) (578, -5.15666203674705544979e-02) (579, -6.80982776028980357763e-02) (580, -2.21933386344751876207e-02) (581, -5.42583541356594367677e-02) (582, -2.42534452527745442163e-01) (583, -1.80711670747077862709e-01) (584, -1.61092747473942671244e-01) (585, -1.22539023142742578565e-01) (586, -2.67309976807094621526e-03) (587, -7.85000476918348982780e-02) (588, -8.82729477964759173814e-02) (589, -1.36158152815125995522e-02) (590, 3.67437779716876160383e-04) (591, -2.77334274461292808189e-02) (592, -1.29716670090917057800e-01) (593, -1.07345705499221594215e-01) (594, -1.33559591974196350400e-02) (595, -4.12618132702968591630e-03) (596, -2.99234102611314403686e-02) (597, 3.69612806198309287731e-02) (598, -6.81893738186316322736e-02) (599, 6.47408768067100209853e-02) (600, 4.17859608188533154793e-02) (601, 6.12556930846779520983e-02) (602, -4.26256173091020366950e-03) (603, 1.64484603329376477543e-02) (604, 3.93505904384955917941e-02) (605, -9.28287608764148436565e-04) (606, 6.75493994420415036495e-03) (607, 2.88618444919931833870e-02) (608, -1.72158207474006341720e-02) (609, -1.98902504231651094946e-01) (610, -2.24534516016586610521e-01) (611, -1.47950062270406440534e-01) (612, -1.39208318917208889731e-01) (613, -7.83023222016716174965e-03) (614, -1.22434587545116359275e-02) (615, -5.73080640995038415042e-02) (616, 4.83821974828049349709e-03) (617, -2.23603587289530544857e-02) (618, -1.05280507236739009208e-02) (619, -6.03437230042770528238e-02) (620, -9.88087748493189921284e-02) (621, -1.35996272958461644764e-01) (622, 6.21527595514872587684e-03) (623, 6.87478708638616237137e-02) (624, 6.58829869968560188909e-02) (625, 7.98931206494493117987e-02) (626, 1.33169843294454665061e-01) (627, 1.59828867283861947302e-01) (628, 2.04475310126666504074e-01) (629, 2.92546155918074424207e-01) (630, 1.87854439599903777491e-01) (631, 2.29944581284569044000e-01) (632, 9.96153102222147590616e-02) (633, 1.45282977650633388089e-01) (634, 4.07087559272849633385e-02) (635, 2.82487977183011364224e-02) (636, -2.94949318493837112087e-02) (637, -1.57717748685118508423e-01) (638, -8.62920735376647152215e-02) (639, -1.83894489092197299662e-01) (640, 1.09854843045181296834e-02) (641, -1.83481553940460923036e-02) (642, 3.41944981110133688906e-02) (643, 2.06047750273982838154e-02) (644, 4.28772047162055969238e-02) (645, 2.00927704572677612305e-02) (646, 6.82592814217620191819e-02) (647, -9.64384423610685145856e-03) (648, -2.19627936370450950465e-02) (649, -3.77678813430675787942e-04) (650, 3.37631006246740944521e-02) (651, 1.40443269349982968741e-01) (652, 1.56140423141606587976e-01) (653, 1.88067218748964620767e-01) (654, 1.55668093043808186682e-01) (655, 2.70837612026193330639e-01) (656, 3.74236007163605444159e-01) (657, 3.45184676117853583843e-01) (658, 2.82931033425071809528e-01) (659, 1.73882946668781346311e-01) (660, 1.53097160528210068930e-01) (661, 9.95286470339535739305e-02) (662, 1.36400781216044708621e-01) (663, 4.97470493126834639730e-02) (664, 1.15252310284824979747e-02) (665, -1.87637826330197543534e-02) (666, 6.24632134370884245511e-02) (667, -4.72774675926668774828e-02) (668, -4.69282563144610576772e-03) (669, -9.14342389771286984113e-02) (670, -6.78251667058434176694e-02) (671, 6.32446333765983581543e-02) (672, -7.80700668692588806152e-02) (673, 6.44714310765266418457e-02) (674, -1.95535697560088594926e-02) (675, 3.30605698665566924421e-02) (676, 1.37017820997831246688e-01) (677, 5.71796287500332817144e-02) (678, 1.36334764449793394148e-01) (679, 1.24657608795027727289e-01) (680, 1.65582342990517217274e-01) (681, 1.36184530195874897718e-01) (682, 2.52352519462877400436e-01) (683, 1.45683305261605139380e-01) (684, 2.33189207831539180305e-01) (685, 1.82325107079722881220e-01) (686, 1.79100811405676740851e-01) (687, 2.08186400842995972260e-01) (688, 1.43945398752733599856e-01) (689, 1.85065503305526762867e-01) (690, 6.88795806865381693429e-02) (691, 9.88206726317472777810e-02) (692, 2.01647869028075618636e-02) (693, 4.66392237415313715143e-02) (694, 9.61466815152610815298e-02) (695, -6.71366202725302285703e-02) (696, 3.20115912870081315011e-02) (697, -1.05823830811385632966e-01) (698, 3.64172354241516088580e-02) (699, -7.05627426505088806152e-02) (700, 8.13415572047233581543e-02) (701, 4.62951734662055969238e-02) (702, 5.22194577493748507413e-02) (703, -4.96938766652128965928e-02) (704, 2.91202671441161894950e-02) (705, -3.86183346894758139367e-02) (706, 1.86206003551233539861e-01) (707, 1.42613847341645866296e-01) (708, 1.42743468886695756837e-01) (709, 2.90629224852144429914e-01) (710, 2.14643361134655763500e-01) (711, 2.32399452328107658516e-01) (712, 1.35790906393094018556e-01) (713, 2.58900524855574354355e-01) (714, 2.66626028355923971880e-01) (715, 1.81942708083022014476e-01) (716, 8.32385062759916777297e-02) (717, 1.32175805375437133149e-01) (718, 1.31491179621575970948e-01) (719, 1.56792450932053489820e-01) (720, 3.07419944330629829610e-02) (721, -4.55097099985061256250e-03) (722, 9.94096011270677315519e-02) (723, 9.85098132978880908217e-02) (724, 5.35943321670304530062e-04) (725, -4.48069155327323193072e-02) (726, 5.21436915678636994653e-02) (727, 6.59240707755088806152e-02) (728, -3.33984345197677612305e-02) (729, -2.84118652343750000000e-02) (730, -6.25854507088661193848e-02) (731, 9.20632141254289354526e-02) (732, -8.82729902408291126903e-03) (733, -2.03695317146481633119e-02) (734, 1.02926467941825222630e-01) (735, -2.84049285678378629627e-03) (736, -4.49729092177698075439e-02) (737, -6.37445589959759976312e-03) (738, 4.26331951680416001982e-02) (739, -9.04607801792254966056e-03) (740, 9.08015217483057190950e-02) (741, -3.29700429354011807434e-03) (742, 9.03410768751690546052e-02) (743, -4.22272437428211980248e-02) (744, 7.79131264171500914628e-02) (745, 7.65681916962671765825e-02) (746, 4.31601253358574604713e-03) (747, -6.31631367727515519173e-02) (748, -2.26600783310794660907e-02) (749, 6.06616304685356003135e-02) (750, -3.04287646999974251139e-02) (751, -8.49061867624206940974e-03) (752, -8.33875759678950057019e-02) (753, -1.15937312489711574076e-02) (754, -5.17272949218750000000e-02) (755, 9.05090346932411193848e-02) (756, 5.54565414786338806152e-02) (757, -8.63769575953483581543e-02) (758, -3.97338718175888061523e-03) (759, -6.96227997541427612305e-02) (760, 2.59275098574008808217e-02) (761, 1.38649540675752323826e-02) (762, 1.62924604816667949192e-02) (763, 4.38545579164625262680e-02) (764, -3.81401481319881205390e-02) (765, -9.70150356297295318742e-03) (766, 9.33557047967994296789e-02) (767, -8.90516308987345101000e-02) (768, -6.48369999794060486442e-02) (769, 3.31440657036896901833e-02) (770, -8.28845188317895234520e-03) (771, -2.24708286420663566618e-02) (772, 8.62974323878448190683e-02) (773, 9.90040245978181937536e-02) (774, 8.70798824262437182187e-02) (775, -4.99516778749124201742e-02) (776, 1.45531419395022038055e-02) (777, -4.45961378008488118496e-02) (778, -2.72083664238064633356e-02) (779, -7.88832950417281170315e-04) (780, -1.26892104744911193848e-02) (781, 1.85547024011611938477e-03) (782, -9.57763716578483581543e-02) (783, 1.44531279802322387695e-02) (784, 5.33537291193099783015e-01) (0, -3.51257324218750000000e-02) (1, 1.37817412614822387695e-02) (2, 1.21765136718750000000e-02) (3, 2.64831557869911193848e-02) (4, -7.93640166521072387695e-02) (5, 3.03588882088661193848e-02) (6, 1.43798813223838806152e-02) (7, -4.64843772351741790771e-02) (8, 7.02575668692588806152e-02) (9, -5.56030124425888061523e-03) (10, 6.80725052952766418457e-02) (11, 3.23489308357238769531e-04) (12, -3.04446588520273543621e-02) (13, -7.20888190402699854248e-03) (14, -3.90797451912397939000e-02) (15, -3.14806145958563057818e-02) (16, 1.73217803239822387695e-02) (17, -9.41650420427322387695e-02) (18, 8.94042924046516418457e-02) (19, 2.99438461661338806152e-02) (20, -8.11218246817588806152e-02) (21, 6.75720199942588806152e-02) (22, 3.35021987557411193848e-02) (23, 2.41821259260177612305e-02) (24, -8.68042036890983581543e-02) (25, -1.63696259260177612305e-02) (26, 9.80895981192588806152e-02) (27, 6.28539994359016418457e-02) (28, 8.77807661890983581543e-02) (29, 2.43835449218750000000e-02) (30, -2.66906768083572387695e-02) (31, -2.82958969473838806152e-02) (32, -2.31586583256567779543e-02) (33, 5.29786110993938907932e-02) (34, -2.63894779858499829717e-02) (35, 4.63245298097751580929e-03) (36, -4.20943479674073459118e-02) (37, 8.72919484629848529966e-02) (38, 2.38610784171280551624e-02) (39, -3.82693656939432011455e-02) (40, 4.74841109210158013321e-02) (41, -6.18838093366787661553e-02) (42, -1.55337642588460490140e-02) (43, 1.12398021457231753195e-01) (44, 7.49379201964719826590e-02) (45, 9.25996667174054516325e-02) (46, 9.57708047333289541614e-02) (47, 3.39658648062199572393e-02) (48, 4.07257813195458437394e-02) (49, 8.04915864118135454541e-02) (50, -6.60598856597432448901e-02) (51, -6.56298070955327883524e-02) (52, 2.64892652630805969238e-02) (53, 9.83459427952766418457e-02) (54, 3.34472730755805969238e-02) (55, 8.81408676505088806152e-02) (56, -9.19494628906250000000e-02) (57, -9.55200195312500000000e-02) (58, 2.23744148896153557948e-02) (59, 1.99959613765647754857e-02) (60, 5.51840952151498170819e-02) (61, -7.32090010388090906002e-02) (62, -8.22971088010114870670e-02) (63, 5.52601135236029661346e-02) (64, -3.60496762554308805560e-02) (65, -3.50662632839252030870e-02) (66, 3.79268337746703834701e-02) (67, 9.58000415900515239764e-02) (68, 3.27556848865904115184e-03) (69, 2.13325858204008095287e-01) (70, 1.88134484568616616729e-01) (71, 2.52046915605035670715e-01) (72, 1.27943731333078347667e-01) (73, 2.66464138031479003121e-01) (74, 2.98013464511207859520e-01) (75, 2.10059334668958014314e-01) (76, 1.60502324170074095466e-01) (77, 1.11501683673022031207e-01) (78, 4.73566657496439294417e-02) (79, 1.09611394737135561805e-01) (80, -1.84357531741087439514e-02) (81, -7.03597249074304209593e-02) (82, 4.75463941693305969238e-02) (83, 2.28576660156250000000e-02) (84, -5.63964992761611938477e-03) (85, -9.03259292244911193848e-02) (86, 7.76155943945562414032e-03) (87, 8.10288497740101892886e-02) (88, -3.84036428448844419092e-02) (89, -7.80157724736172814017e-02) (90, 6.03617574029052875173e-02) (91, 1.91029645415709131706e-02) (92, -8.20884685615025505578e-02) (93, -1.18849400327012383327e-01) (94, -7.12520069044076248543e-02) (95, -1.77287944350148884975e-01) (96, -1.35166586265124261113e-01) (97, -6.19276248626933478736e-02) (98, 1.18998684550558175843e-01) (99, 7.54481739564638875795e-02) (100, 1.48230156996423612092e-01) (101, 1.34299785153314421571e-01) (102, 2.19125446390752071091e-01) (103, 1.80349495206066273711e-01) (104, 2.04704297476906743602e-01) (105, 1.04276622862050930007e-01) (106, 1.45731018219405650260e-01) (107, 1.16470166018096038529e-01) (108, -4.30894431008747025302e-02) (109, -5.79837765124581547976e-03) (110, 2.03373722641300644365e-02) (111, -8.94897505640983581543e-02) (112, 6.80786147713661193848e-02) (113, 2.03714382350449300929e-02) (114, 5.57324960274941313965e-02) (115, 8.18118949151696028821e-02) (116, -5.56282834727872058100e-02) (117, 4.95890887708567013048e-02) (118, 1.97402751810653179568e-03) (119, -5.80440263382739768394e-02) (120, -8.90446844059335357313e-02) (121, -1.62637335985662878635e-01) (122, -7.33691693488618956742e-02) (123, 7.06793510189839858937e-03) (124, -2.02782459526247120507e-02) (125, -1.20158737643979302012e-01) (126, 2.32036500873562083480e-02) (127, 3.70979205948921975100e-02) (128, -1.58533317548070380731e-02) (129, 1.58936039034939274872e-01) (130, 1.18329622522697977538e-01) (131, 2.08532289629252853835e-01) (132, 1.09029802976985779051e-01) (133, 2.70173522069218186026e-01) (134, 2.53465781177195759177e-01) (135, 2.29020285418184310622e-01) (136, 8.90328912069567046661e-02) (137, 8.73755327263315839659e-02) (138, 1.27732532872695467296e-02) (139, 5.73830805939304355867e-02) (140, 8.68286117911338806152e-02) (141, 6.57653883099555969238e-02) (142, 6.95730966217750906866e-02) (143, 1.03681319853268661541e-02) (144, 6.65910760124802936222e-02) (145, 1.74880765362188279888e-02) (146, 7.18652488297331498712e-02) (147, -8.78506881640195996797e-03) (148, -6.89833094643994698680e-02) (149, -1.39961808124232853223e-02) (150, -1.33524157117375141812e-01) (151, -2.31847325652672631158e-01) (152, -1.42063859176090517833e-01) (153, -2.79498959409878122706e-01) (154, -1.39381164204621599279e-01) (155, -1.18119142595593820677e-01) (156, -2.72819966771304101005e-01) (157, -1.69691872246661851209e-01) (158, -9.47989468525231027130e-02) (159, -1.01675063986439682961e-02) (160, 5.92859562749303084517e-02) (161, 2.39514238936121282020e-02) (162, 1.57667515765538723826e-01) (163, 3.20309442588414816644e-01) (164, 2.15409209023861597521e-01) (165, 5.36185429345694478109e-02) (166, 9.31001831249441413885e-02) (167, -8.86337687626846115752e-02) (168, 4.56481948494911193848e-02) (169, 9.59587587556285370738e-02) (170, 1.00539731900688711352e-01) (171, 8.17472150317934131980e-02) (172, 2.57934301053559557337e-02) (173, -4.16616692669947025207e-02) (174, -3.35795535315197568593e-02) (175, -1.90464151416913710091e-02) (176, 7.57842248516435012390e-03) (177, -6.78563923608125202369e-02) (178, -1.91731473010884577446e-02) (179, -2.24990848953243553765e-03) (180, -4.43763193697637031709e-02) (181, -1.15270670363596117181e-01) (182, -1.36059882779008906040e-01) (183, -5.91195977998334454284e-02) (184, -9.35007704473600764761e-02) (185, 6.15819657431439168582e-02) (186, 3.48194208930193982443e-02) (187, 1.26442662056962223938e-01) (188, 5.59322306152375131605e-02) (189, 5.69363379134639399637e-02) (190, 1.74818413352708063035e-01) (191, 3.23988022093420313663e-01) (192, 1.46935692654397986878e-01) (193, 1.25602964352721863106e-01) (194, 3.20024381983866207380e-02) (195, 7.58776342680144988417e-02) (196, 3.94666082476153451397e-02) (197, -3.08523658446716551873e-02) (198, 1.45960233298954265846e-02) (199, 4.99490353427538211206e-02) (200, 4.87388212661324995989e-02) (201, -4.91710877552566788529e-02) (202, 1.35436393777239091202e-02) (203, 3.08388193786291939236e-02) (204, -9.50345193951661615372e-02) (205, 3.56394413428938461319e-02) (206, 8.98732974858915296956e-03) (207, -3.93805819856359803910e-02) (208, 9.17913117666507294423e-02) (209, -7.41925548863209688433e-02) (210, -2.81350888307022664603e-02) (211, 1.28861395547227280955e-01) (212, 4.51645607329526285745e-02) (213, 1.35196456243584756107e-01) (214, 4.49408195996409409734e-02) (215, 1.15975179708322564953e-01) (216, 2.13201485054818618003e-01) (217, 1.93139793285198660411e-02) (218, -5.75212941816082706792e-02) (219, 3.40953547840677495540e-01) (220, 2.06666430548861884686e-01) (221, 1.18275813654702147137e-01) (222, 9.77849105514584648891e-02) (223, -3.91559192000346181772e-02) (224, 3.08690716090907271707e-02) (225, 2.04052291182505417255e-02) (226, 8.81937765962204495152e-02) (227, -2.21231747160463322610e-02) (228, 4.84647087880545682226e-02) (229, -6.78480324452139932356e-02) (230, 6.10401311438953028676e-02) (231, 1.17976454772745933779e-03) (232, -2.25207428674043079464e-02) (233, -1.36965467743588274752e-02) (234, -1.64587532515475254424e-01) (235, -7.51308555857388704613e-02) (236, -6.31287353737928699782e-03) (237, 2.41696529974118716477e-02) (238, 9.13090798088098294649e-03) (239, 1.13671629349387931507e-02) (240, 1.19560345224038397371e-01) (241, 8.68982107370904199861e-02) (242, 1.20394898752667095509e-01) (243, 2.52936851422303939085e-02) (244, -5.30813717219514192430e-03) (245, 9.16880305119806698899e-02) (246, -3.52072461056215490344e-03) (247, 1.87827776195453932662e-01) (248, 2.72401857142840153614e-01) (249, 1.20133710189600756424e-01) (250, 5.40191450850591170507e-02) (251, 3.65210315460347129113e-02) (252, 6.52972491648123321006e-02) (253, 7.38545282473489651115e-03) (254, 8.92561589557063217448e-02) (255, 1.08097389810310778868e-01) (256, 2.71546427137328225121e-03) (257, -1.85100965470290534931e-01) (258, 5.27428827428908994501e-02) (259, -6.95724090535441014316e-02) (260, -1.43621400340359518105e-02) (261, -1.27775524845844895561e-01) (262, -1.24525350475809287731e-01) (263, -9.16345066837706001550e-02) (264, 1.55910261406886838098e-02) (265, -1.93046230250145459117e-02) (266, -4.98791875825405073286e-02) (267, -2.31333999610401760613e-03) (268, 6.66464218678788355987e-02) (269, 2.62092042512372114249e-02) (270, 6.90192484128556299483e-02) (271, 4.62506000261676056273e-02) (272, 1.54511501175033677535e-01) (273, 8.17759774385344168079e-02) (274, -2.10086954024281194475e-02) (275, 6.04046465932729093051e-02) (276, 2.85437253612549346471e-01) (277, 1.22334753800165868531e-01) (278, 3.79420588616965820047e-03) (279, -9.03400552514946331151e-02) (280, -1.75393368310146659239e-02) (281, -8.56549026227358123453e-02) (282, -5.06367306846212603122e-02) (283, 5.49483330092847971349e-02) (284, 3.29807122276770114944e-02) (285, -1.29656618125912476147e-01) (286, -1.12918055961670094067e-01) (287, 6.42009300024193318990e-03) (288, -1.08782052317026520227e-01) (289, -1.22868920375198878436e-01) (290, -9.39603588623311725136e-02) (291, 6.76291827915543874994e-02) (292, 1.43783296531508564264e-01) (293, 2.99519572671390177376e-01) (294, 1.81294950273017091424e-01) (295, 1.17040163550079207022e-01) (296, -4.09039509402621924428e-03) (297, -8.04802803304948133345e-02) (298, -9.51616167482827873814e-02) (299, 8.60342273482137404050e-02) (300, 1.04444919588405835120e-01) (301, 1.28538016986872144498e-01) (302, 7.42875234305074017005e-02) (303, 9.05608284536682656141e-02) (304, 8.73743936446997188083e-02) (305, -1.87020816162460183640e-02) (306, -2.71108955263464346253e-02) (307, -3.38090696994794853714e-02) (308, -4.07730528300760397542e-02) (309, -6.40312770106064577114e-02) (310, 3.44717151147337988459e-02) (311, 1.23235262336948911410e-01) (312, 1.52688336928921891689e-01) (313, 1.20651364871598221207e-01) (314, 3.14290327420830017946e-01) (315, 4.89662777056771525430e-01) (316, 3.84208994989354513105e-01) (317, 5.15132186435673822267e-01) (318, 5.98996798067295554979e-01) (319, 6.48358581519361210077e-01) (320, 6.54040437381315786780e-01) (321, 5.09614189304910314426e-01) (322, 3.93659022953565251868e-01) (323, 3.30039141613135800224e-01) (324, 7.64230043172350187453e-02) (325, 1.04158279033571679606e-01) (326, 2.30872799158392642827e-02) (327, -1.50436214299573597225e-02) (328, 7.90327792842705351140e-02) (329, 3.67919720653861817561e-02) (330, 1.43577316427453832715e-01) (331, 2.08182617679731396532e-01) (332, 9.73285590398050882988e-03) (333, -3.92504681374660283066e-02) (334, -1.11558149594074198369e-02) (335, -8.71354103109834715601e-02) (336, -6.39522819053227470354e-02) (337, -3.42317407917986094024e-02) (338, 8.41431979889143005780e-02) (339, 9.21669827453106826898e-02) (340, 2.16609167790632634043e-01) (341, 5.83577982447473830874e-01) (342, 9.20108003287355646904e-01) (343, 1.04629059238728805425e+00) (344, 1.04426184987516013081e+00) (345, 1.05796453954213709459e+00) (346, 8.69860768755057245372e-01) (347, 7.14530161289846366124e-01) (348, 7.02042699450152629659e-01) (349, 4.76315705691661650523e-01) (350, 7.37154138163396588368e-01) (351, 4.04997589721856177114e-01) (352, 2.23878452341254197133e-01) (353, 3.54790194872641406754e-01) (354, 8.56907693980848012005e-02) (355, -3.81684947126361209802e-02) (356, 7.45602068033634352018e-02) (357, -5.24940573937157373141e-02) (358, 1.88480919014320680294e-01) (359, 2.76649347364484154976e-01) (360, -9.41712394810573089066e-02) (361, -6.01827376579473494189e-02) (362, -4.56108173904403862986e-02) (363, 5.30399123247784209934e-02) (364, 6.58223400588101303921e-02) (365, 6.59096816104984967177e-03) (366, -1.63080728208648655098e-02) (367, 3.85693683368332276840e-02) (368, 3.71813362069048913838e-01) (369, 7.60430866630643076398e-01) (370, 9.92635796844189566279e-01) (371, 1.03924372865427461221e+00) (372, 8.00282190374681179357e-01) (373, 4.54847181614159323804e-01) (374, 2.13140781275346330448e-01) (375, 1.67824182784574532645e-01) (376, 8.96553098627295673440e-03) (377, -3.63801591441628019430e-02) (378, 2.50760086118253011644e-01) (379, 2.52764204839528439095e-01) (380, 1.63485997455726339567e-01) (381, 1.69316634998812665103e-01) (382, 1.96226908383200282504e-01) (383, 1.94677179577075365469e-01) (384, 4.59655443417507358905e-02) (385, 8.56195581457244170309e-02) (386, 2.22462871867332961928e-01) (387, 1.52777205565031021228e-01) (388, -9.42700796523786160863e-02) (389, -2.34574482815215173970e-01) (390, -3.37689263122904021960e-03) (391, 6.73047825711658043862e-03) (392, 3.12901458892860390160e-02) (393, 1.38201592053761711937e-02) (394, -9.11501388022847337800e-03) (395, 1.75897239385688408664e-01) (396, 2.57291480700684804805e-01) (397, 5.87876370833337547062e-01) (398, 4.92852135101485733237e-01) (399, 2.66114782579021547093e-01) (400, 8.48897693534869796084e-02) (401, -1.24972535194272760251e-01) (402, -1.37328635954750838399e-01) (403, -3.77976202350801676610e-02) (404, -1.00990340416472854090e-01) (405, -5.80538024137524782953e-02) (406, 1.33121218324694451374e-01) (407, 1.79490118737480081057e-01) (408, 2.00642731824761215431e-02) (409, 1.86125973496947261232e-01) (410, 7.68070889671500223184e-02) (411, 9.18307618038877310207e-02) (412, 1.77038319985148157043e-01) (413, 2.03162040507276209222e-01) (414, 1.92912134983016930745e-01) (415, 2.28584285120185609630e-01) (416, 1.79381251356272974906e-01) (417, -1.24227729527109795327e-01) (418, -1.70003034354514165338e-01) (419, -5.86497086419630608844e-02) (420, -2.76931039390873982853e-02) (421, 6.65123798790902692746e-02) (422, 3.15906506606553894034e-02) (423, 3.44695425006386127476e-02) (424, 1.13112705191804691074e-01) (425, 8.66444062999806724479e-02) (426, -8.92331910520993976110e-02) (427, -1.78371070578963453190e-01) (428, -1.89445886603946456184e-01) (429, -6.15315307283295157004e-02) (430, -8.49185127584142634971e-02) (431, -2.06552640385488060770e-02) (432, -1.97270984150872685792e-02) (433, -9.31640934274854254360e-02) (434, 1.82170789249633605089e-02) (435, 1.62343624997492663731e-01) (436, -2.86140121048663285952e-02) (437, 1.61685907928057592819e-01) (438, 1.61728183934562091961e-01) (439, 1.42685326225467812300e-01) (440, 2.13776985993818557930e-01) (441, 1.43320614070223895098e-01) (442, 1.75716101712436373328e-01) (443, 1.44406675545978857578e-01) (444, -9.79205591457464469274e-02) (445, -2.30341336561248971604e-01) (446, -2.18318328780164633285e-01) (447, 1.11532174353781298078e-03) (448, 6.96032234338208044555e-02) (449, -5.00624875892973983382e-03) (450, 1.01846264430400110235e-01) (451, -2.72851377033283166995e-02) (452, 5.18580558484521489393e-02) (453, -1.22250698723369591314e-01) (454, -2.41361162850268706759e-01) (455, -1.26925480811369228995e-01) (456, -6.21527299790275988833e-02) (457, -8.31393076318878154751e-02) (458, -9.72197492924959244531e-02) (459, -1.16608032666206562489e-01) (460, -2.11794693430268271550e-01) (461, -1.80924368007915364887e-01) (462, 8.13644735168883165288e-02) (463, -1.71445881977692581033e-02) (464, -2.85015957407483387642e-02) (465, 2.86461040719221994577e-02) (466, 1.17899991646462677652e-02) (467, 8.48660081867569082714e-02) (468, 1.25220940637678357366e-01) (469, -7.91341847375666707087e-02) (470, -1.28575225118060493257e-01) (471, -1.71639366974377129138e-02) (472, -9.18474977327509573000e-02) (473, -3.10143131979686126343e-01) (474, -2.39649804353682382985e-01) (475, 5.71897450547639712992e-02) (476, -7.33825713396072387695e-02) (477, 5.37911713720740369826e-02) (478, 4.74600698329036563283e-02) (479, 5.73532434411778702099e-02) (480, -1.32260404534313730229e-01) (481, -2.97276309321476583936e-01) (482, -2.26880585838251352948e-01) (483, -1.40250553440728509269e-01) (484, -1.65465510043523500450e-01) (485, -2.22585093272507833495e-01) (486, -9.05409891424168306040e-02) (487, -1.54560453292773763989e-01) (488, -1.45964604559098182213e-01) (489, -1.42382189011880100349e-01) (490, -4.94075662402697693421e-02) (491, -6.07600752268616164931e-02) (492, -1.75619125658564856352e-02) (493, 2.19085633828551666624e-02) (494, 8.42048745190709102548e-02) (495, 1.25991765318806514529e-01) (496, 5.67075589278599398457e-02) (497, -3.57545398331472960574e-02) (498, -7.06376127019089500303e-02) (499, -1.81910707052888226398e-01) (500, -2.36000953692922982308e-01) (501, -4.80341945691291349885e-01) (502, -1.93696333860525676807e-01) (503, 4.36691945919291876765e-02) (504, -6.08122807107002328469e-03) (505, -3.06650136287300451032e-02) (506, -6.61157325016164306580e-03) (507, 5.32472500537421455924e-02) (508, -9.41820962894797247822e-02) (509, -2.99274336003615915036e-01) (510, -2.23415375944970434618e-01) (511, -2.99191157535146579072e-01) (512, -2.69339226431214051605e-01) (513, -1.85892174770268425732e-01) (514, -2.45060287926151171289e-01) (515, -1.50127827463560736820e-01) (516, -3.50620829411100787265e-01) (517, -2.26388532069819292669e-01) (518, -2.02001341223853297935e-01) (519, -9.77782042893201724931e-02) (520, -6.20247996259817788167e-02) (521, -1.14078735771484376937e-01) (522, 2.97278814336864255843e-03) (523, 2.01787784829795570352e-02) (524, -2.38520344749596248379e-02) (525, -4.28050757322021580009e-02) (526, -2.90414015093593373684e-02) (527, -2.85753172242826425364e-01) (528, -5.33762793676307079060e-01) (529, -4.41743744625463008457e-01) (530, -6.98645713392442163636e-03) (531, 2.49973721225770911802e-02) (532, -1.95543549913508515892e-02) (533, -9.81155753663289637023e-02) (534, 1.44413914609354231133e-02) (535, 7.31833726775406728793e-02) (536, -1.07425269818046731363e-01) (537, -9.74294419494461105824e-02) (538, -9.60927552714374300091e-02) (539, -1.96055906205545249499e-01) (540, -1.00888444357906850724e-01) (541, -2.54711712917320420857e-01) (542, -1.68602988517478596942e-01) (543, -2.21964768438332599176e-01) (544, -2.42621765229677210929e-01) (545, -1.78973188917107922657e-01) (546, -1.38085606819296713432e-01) (547, 1.32411012866134221444e-02) (548, -1.07647804704335228743e-01) (549, -3.53687570917177382390e-02) (550, -3.36777825682823411801e-02) (551, 6.09410704045375978266e-02) (552, -1.08585045926383391701e-01) (553, -5.61903694042776916118e-02) (554, -1.07580198579588545704e-01) (555, -2.38179094565109356063e-01) (556, -3.91435682429010223249e-01) (557, -2.61727269748678936789e-01) (558, -1.12152398409357118014e-01) (559, 9.79713378759004549501e-02) (560, 9.39331129193305969238e-02) (561, 9.25639923059175667719e-02) (562, 6.24500313325045269819e-02) (563, 1.04250601232264671070e-02) (564, -8.31993147445106023818e-02) (565, -1.40411465673336260940e-01) (566, -2.15542938795017541276e-01) (567, -3.38526567563205538214e-01) (568, -2.08134286928339462541e-01) (569, -1.87193964449686695017e-01) (570, -1.95849222822571250591e-01) (571, -2.59814525537863272309e-01) (572, -9.07740270427704054601e-02) (573, 4.85808768087094625110e-02) (574, 1.02850301469536182380e-02) (575, -9.13881681560696143563e-03) (576, 9.84177614010916038123e-03) (577, 8.41691723764721871914e-02) (578, -9.58739656158420078258e-02) (579, -2.11573167081168883596e-01) (580, -4.84808147121808460933e-02) (581, -1.00536048634538036084e-01) (582, -3.59014745352937147960e-02) (583, -3.73215039682861349224e-01) (584, -4.41401737546091021969e-01) (585, -1.71260162827872791658e-01) (586, -4.52469101830841186063e-02) (587, -9.45669705037230773348e-02) (588, 5.66685780177517833822e-02) (589, 3.83608006075303147042e-03) (590, 5.24780090144053787404e-02) (591, -2.58933419679701001814e-02) (592, -9.43211397827777714431e-02) (593, -8.01883262020892106925e-02) (594, 1.11671343100494101924e-03) (595, -2.02467750371951695290e-03) (596, 6.30792815587545158129e-02) (597, -2.04465203881380952478e-01) (598, -6.20705880266470000350e-04) (599, -7.62032040343104677405e-02) (600, -2.36531217772244532413e-03) (601, -3.03422317587195566890e-02) (602, 9.55380521617459066430e-02) (603, 1.16862608627547701068e-01) (604, -5.22622810786961128349e-02) (605, -5.76405313772727842525e-02) (606, -1.49025498214768126193e-01) (607, -1.13097250946059019183e-01) (608, -4.21570609313944993923e-02) (609, -1.57670313696455538510e-01) (610, -1.74846984015578382765e-01) (611, -3.12631671796654242446e-01) (612, -2.46068175927936727554e-01) (613, -5.76894089007286489657e-02) (614, 5.71202134629157157186e-02) (615, 2.55818880219515071284e-02) (616, -6.30334945147536102050e-02) (617, -7.62841458890820608291e-03) (618, -5.97028276594064322147e-02) (619, -5.91628391992253602205e-02) (620, -1.95371652059674549839e-01) (621, -8.22389607710556636011e-02) (622, -5.43471230152332562824e-02) (623, -1.38239731144543548380e-01) (624, -1.93325564996157467368e-01) (625, -1.21852404358616855928e-01) (626, -5.59028425151543856275e-02) (627, -1.25560160164093242985e-01) (628, -1.07226249437974138767e-01) (629, 2.89106226316815234645e-02) (630, -3.76019001442923737899e-03) (631, 1.21984371853469886204e-01) (632, 5.76116948585082069845e-02) (633, 3.95725027813159588308e-02) (634, -2.10793540262710604738e-01) (635, -1.20125624175578968322e-01) (636, -1.79293645867266648875e-01) (637, -1.54372447692896902494e-01) (638, -3.43111548039305214175e-01) (639, -1.82006966444906131963e-01) (640, -8.96435104622786138595e-02) (641, -7.74695861873623825566e-02) (642, -2.24106052108511422105e-02) (643, -9.48509400176534289706e-02) (644, -5.66528327763080596924e-02) (645, 9.86083969473838806152e-02) (646, 6.18398197882573108508e-02) (647, 4.59776457110193451094e-02) (648, -5.96048502450701594979e-02) (649, 3.15304874052255573735e-02) (650, -8.79011829803740818434e-02) (651, -1.08810291911169178258e-02) (652, 1.22586948029670558813e-01) (653, 5.65218302127326183149e-02) (654, 1.23753972271551257456e-01) (655, 2.51508846329736336644e-02) (656, 5.62260383499109117622e-02) (657, 1.07990212279039807242e-01) (658, 1.57227288928723195338e-02) (659, 2.07842651096215941253e-01) (660, 1.18150950958624781362e-01) (661, 1.02430211407589427663e-01) (662, -2.43749460214850666162e-01) (663, -2.10158090988863788251e-01) (664, -7.62607494141840508428e-02) (665, -2.54553017784269197676e-01) (666, -3.43960329763005112635e-01) (667, -1.66210144917470603598e-01) (668, 2.79119279641220560673e-02) (669, -1.04474497984679726148e-01) (670, -2.50524801166555448340e-02) (671, -4.43176291882991790771e-02) (672, 2.32482925057411193848e-02) (673, 3.11523452401161193848e-02) (674, -4.99025339160620445833e-02) (675, 5.62900127717623488532e-03) (676, 9.06369814856982092266e-02) (677, 2.59213134937018307991e-01) (678, 2.42000813639245249131e-01) (679, 2.91749399651515473053e-01) (680, 7.71713905031838898196e-02) (681, 2.27822269049113068640e-01) (682, 1.86052977194404056682e-01) (683, 1.06936821612127835879e-01) (684, 3.90383158358864890136e-02) (685, 3.19529053295374287913e-02) (686, -5.28366456874916970432e-03) (687, 3.62694345092427761212e-02) (688, 1.59764447717791080450e-01) (689, 1.86313724733750935014e-01) (690, 1.40881396449271972804e-01) (691, 6.00184835221145643325e-02) (692, -2.63749279506321140931e-02) (693, -4.49194910968017321884e-02) (694, -3.45392822080065192702e-02) (695, -1.01401501853934747355e-01) (696, 2.43115466601541291292e-02) (697, -4.63865436258827576466e-02) (698, 3.05964901594485104430e-02) (699, -1.75170600414276123047e-03) (700, 1.06750503182411193848e-02) (701, 9.65759232640266418457e-02) (702, -5.02599025233077117969e-02) (703, -6.58791443027541834265e-02) (704, 2.46710310158532956232e-03) (705, 2.73346937064112768812e-02) (706, 2.04942492115704921751e-01) (707, 3.11671880500176912143e-01) (708, 2.67880447630344686871e-01) (709, 4.50061117272155031266e-01) (710, 3.91256414403916175093e-01) (711, 4.78354560674073836513e-01) (712, 3.45051498295280756334e-01) (713, 4.28271840931342795411e-01) (714, 2.47677956560778289585e-01) (715, 2.32679630342618404271e-01) (716, 1.61843296034436728847e-01) (717, 2.33904045719691144889e-01) (718, 2.76539063539335827624e-01) (719, 1.68742979912562512945e-01) (720, 1.32007252066320801553e-01) (721, 5.35249590372401384819e-02) (722, 1.17918047029171038642e-01) (723, -2.06523152015517449942e-02) (724, -8.26288460229990403237e-04) (725, 8.75311924035528932109e-02) (726, -2.24634264847996152625e-02) (727, -2.53417938947677612305e-02) (728, -3.36059555411338806152e-02) (729, -4.61120605468750000000e-02) (730, 6.65100142359733581543e-02) (731, -8.62841973398040112953e-02) (732, 8.70568524408399796455e-02) (733, -6.36378330767305572246e-02) (734, -1.22500595205395183818e-02) (735, 7.04610746011005567579e-02) (736, 7.93768766872144926339e-02) (737, 1.21188849949427860514e-02) (738, 1.31395625573084429139e-02) (739, 1.23465701874800465321e-01) (740, 2.01406762314801299207e-02) (741, 5.04457845999035855988e-02) (742, 3.32344876564759361681e-02) (743, 8.25083161261530723118e-02) (744, 1.38943686364431072400e-02) (745, 1.91515480162179826951e-02) (746, 4.22439939413876437008e-03) (747, 4.90567923069939459957e-02) (748, -2.58555280940880281848e-02) (749, -4.11834311066949024238e-02) (750, -5.33842547981170922888e-02) (751, -3.11843683177175220664e-03) (752, 6.51219451626420531287e-02) (753, -2.43717047733431890766e-02) (754, 1.26281753182411193848e-02) (755, -5.30090332031250000000e-02) (756, 5.44677749276161193848e-02) (757, -4.00024428963661193848e-02) (758, -1.94824188947677612305e-02) (759, -5.53894042968750000000e-02) (760, -3.56772205256188149058e-02) (761, -9.81714322794482313617e-02) (762, -1.51567029130187627857e-03) (763, -2.17780894821539873496e-02) (764, -6.12972873645299953793e-02) (765, -6.05398835720177413977e-02) (766, 5.05097473461078513846e-02) (767, 4.99803291628949930558e-02) (768, 7.84781724944077913042e-02) (769, -2.33333185222034805717e-02) (770, 8.53086491833464771739e-02) (771, 6.61173119667297914948e-02) (772, 2.98060566567156723372e-02) (773, -8.77690523468169225829e-02) (774, -5.56188624306598530800e-02) (775, -5.13076195877476062823e-02) (776, -3.26389044595446764507e-02) (777, 2.83685842412078198516e-02) (778, 9.12719527895121951477e-02) (779, -2.19177533640954342459e-03) (780, -5.95581047236919403076e-02) (781, -3.95324714481830596924e-02) (782, 8.12988355755805969238e-02) (783, -9.63012725114822387695e-02) (784, 1.86129847700248340914e+00) (0, -2.51159667968750000000e-02) (1, -8.39721709489822387695e-02) (2, 2.37853974103927612305e-02) (3, -8.75244289636611938477e-03) (4, 6.38244673609733581543e-02) (5, 7.96814039349555969238e-02) (6, -4.41711433231830596924e-02) (7, -1.73217803239822387695e-02) (8, -4.31152358651161193848e-02) (9, -9.18151885271072387695e-02) (10, 1.79992690682411193848e-02) (11, -5.89294433593750000000e-02) (12, 8.33117435501117692409e-02) (13, 1.49955574450317142415e-02) (14, -3.39660438535356254408e-02) (15, -8.93180852244200018664e-02) (16, 7.60986283421516418457e-02) (17, -9.58496108651161193848e-02) (18, -2.05810517072677612305e-02) (19, -2.16247588396072387695e-02) (20, 9.81323197484016418457e-02) (21, -8.37890654802322387695e-02) (22, 4.82055619359016418457e-02) (23, 3.87023910880088806152e-02) (24, -2.78564468026161193848e-02) (25, -3.60107421875000000000e-02) (26, -8.85619968175888061523e-03) (27, 6.40136674046516418457e-02) (28, -4.77294623851776123047e-03) (29, 1.37329101562500000000e-02) (30, 3.68896499276161193848e-02) (31, 8.59497115015983581543e-02) (32, 1.94384057697560286293e-02) (33, -3.15370270701072694108e-02) (34, 1.23975369695071340956e-03) (35, -1.33395840164828374808e-03) (36, 8.46014844982684727226e-02) (37, -8.50607301748518979112e-02) (38, -1.06494192853486043665e-02) (39, -2.50085511871388048444e-02) (40, -3.71905802750613564966e-02) (41, -3.84908103139350518673e-02) (42, 2.53326727410532574758e-02) (43, -3.13461995460229993216e-04) (44, -7.82445827706262919676e-02) (45, 7.77270308650108016080e-02) (46, 5.33905597153641955921e-02) (47, 1.70723733895686916040e-02) (48, -9.54939776482298802174e-02) (49, -4.45588904164735954971e-02) (50, -4.49038943201677392958e-02) (51, 9.77720683079969475615e-03) (52, -4.40002456307411193848e-02) (53, 4.60082963109016418457e-02) (54, 8.92272964119911193848e-02) (55, 2.57568061351776123047e-03) (56, 8.53637680411338806152e-02) (57, 1.29455551505088806152e-02) (58, 6.90609182320332110061e-02) (59, -1.59051727913442492168e-02) (60, 9.00528139821142603605e-02) (61, 2.18045019249236554648e-02) (62, -1.29941228419005790767e-02) (63, 2.46654758162640833086e-02) (64, 1.08571527084901170435e-01) (65, 7.59130434142716165047e-02) (66, 8.57253514049762660454e-02) (67, 3.49778256371827134252e-02) (68, 1.23068974400092831512e-01) (69, 9.65138521658336911990e-02) (70, 4.97009807198616759827e-02) (71, 6.85562165423297537048e-02) (72, 3.70097299134247853525e-02) (73, -3.29933801869223284134e-03) (74, -3.82587369921983874721e-02) (75, -4.73186571011043749513e-02) (76, 8.43699595923399548771e-04) (77, 2.61349028015803565642e-03) (78, 1.41921441087850177393e-02) (79, 8.33257365498229346512e-02) (80, -1.30275273396923321062e-02) (81, 6.98961849200788049030e-02) (82, -5.00183105468750000000e-02) (83, -8.49426314234733581543e-02) (84, -2.57629379630088806152e-02) (85, -6.42700195312500000000e-02) (86, -7.26091723886956447176e-02) (87, -5.57206006718242441433e-02) (88, -4.19290315359023141317e-02) (89, -9.84637622927732464317e-02) (90, 4.89398182188155103645e-02) (91, 9.22017597119732801314e-02) (92, -9.88924958689607752627e-02) (93, -2.94086827231239654468e-02) (94, -1.63233779286812443442e-03) (95, -1.10420539597269357079e-01) (96, 8.91905721783589622298e-02) (97, -1.84216395796473614288e-02) (98, -9.98038806906701991828e-02) (99, -1.30934737566847508861e-02) (100, -5.97094701687475651330e-02) (101, -3.85677394692901867601e-02) (102, 4.09388909093687525242e-02) (103, -6.19960191718664926919e-02) (104, 5.48393934300708055241e-02) (105, 1.19495796314066787813e-01) (106, 4.21272442582915698783e-02) (107, 9.03999070811293548022e-02) (108, 4.21619912401926880130e-02) (109, -7.75769948539991455183e-02) (110, 1.72457258014820438707e-02) (111, 6.40991255640983581543e-02) (112, -1.28967314958572387695e-02) (113, -3.32088689740057674271e-02) (114, 7.58975524197974260598e-02) (115, 1.51612269996062622168e-02) (116, 3.85236858579581994966e-02) (117, -5.12506077838294007987e-02) (118, 4.22910052400035305076e-02) (119, -6.65928952601474027917e-02) (120, 1.60419755458407545246e-02) (121, -7.15014510263734526241e-02) (122, -1.10018605437846112016e-01) (123, -4.23953679290924589917e-02) (124, -7.53607347004012495528e-02) (125, -9.04647730372925840125e-02) (126, -5.83067478839924963063e-02) (127, -5.09711396972990435361e-02) (128, 5.73068192074083007648e-02) (129, -6.81912213139552747521e-02) (130, 1.58653204427631057231e-03) (131, 1.92943480009268968078e-02) (132, 2.00897166104149656196e-02) (133, -1.51698444895005373628e-02) (134, 5.95241386626559065842e-02) (135, -5.78109228012344475434e-02) (136, 9.04670615113183501643e-02) (137, 5.67816794138924010871e-02) (138, -5.08482936358629691864e-02) (139, -1.40572422405157802100e-02) (140, 8.07617232203483581543e-02) (141, 2.26684585213661193848e-02) (142, -9.45141316372731937756e-02) (143, -9.11961050591680727484e-02) (144, 2.24688746517515205992e-02) (145, -1.14301764269543609798e-02) (146, -7.35158620307939658645e-02) (147, -1.09164091612973981893e-01) (148, -1.28370922986162702001e-02) (149, 6.13870210251595688211e-02) (150, 1.14841121090804479388e-01) (151, 1.09587760773488709920e-01) (152, 9.95623505607041991983e-02) (153, -5.03676304836827362643e-02) (154, 2.39437856477354160667e-02) (155, 2.45008527017928114111e-02) (156, 1.04601338223935507593e-02) (157, 7.62223822928078664773e-02) (158, -6.79923966628293990899e-02) (159, -8.85838608610874517213e-02) (160, -1.05088103640239030612e-01) (161, -1.62506632822206509292e-01) (162, -1.04487637512063885614e-01) (163, -1.19440495734405308093e-01) (164, -1.91565485596851305117e-02) (165, 1.90803209064784387583e-02) (166, -3.98722404061965587929e-02) (167, -4.62485248518692756980e-02) (168, 5.10559156537055969238e-02) (169, 4.46104836991359759296e-03) (170, -5.54366756946875274825e-02) (171, 2.73132678629047498386e-02) (172, 1.91610308478599236648e-02) (173, -5.96677548119101119894e-02) (174, -1.32853767081551915608e-01) (175, -5.39471880559817054679e-02) (176, -2.07374896907831333948e-02) (177, -3.35280290336245137550e-02) (178, -4.10447662288904689676e-03) (179, 5.01140497470607682029e-02) (180, -1.98618440335308552025e-02) (181, 1.21060596934818385378e-02) (182, -4.42669552377179462144e-02) (183, -1.38645985138983490748e-01) (184, -6.60930943234577655820e-02) (185, -1.04220097148067805670e-01) (186, -2.06543964281502206992e-01) (187, -1.87945575983360563255e-01) (188, -1.92416382449713707636e-01) (189, -2.18060717968559025781e-01) (190, -5.53892868423764561658e-02) (191, 1.72470268811410649967e-02) (192, 2.77641775749089686487e-02) (193, -2.64726219724933792277e-02) (194, -1.01291084942734411350e-02) (195, -8.48464276488202634452e-02) (196, 8.13732508190800757353e-02) (197, 2.61031703443801513242e-02) (198, -4.59526871535145403636e-02) (199, -1.05166987079029217167e-01) (200, -1.41641339912363439790e-01) (201, 9.42452926171147287171e-03) (202, -9.95379982168876770166e-02) (203, -2.53010407368336256995e-02) (204, -1.76397974411604159528e-02) (205, 3.25685258289811069288e-02) (206, 4.46442510801647596264e-02) (207, 9.20190609530976699748e-02) (208, -2.40507092899900701277e-02) (209, -1.24061152322119921942e-01) (210, -1.57276908405278942338e-01) (211, -2.12335511534674475920e-01) (212, -2.86086292791136342917e-01) (213, -3.05862952248044217551e-01) (214, -2.92625700998347115789e-01) (215, -2.61505254888528659851e-01) (216, -1.45467319092686009352e-01) (217, -1.27424359491124294941e-01) (218, 3.22099803898960035387e-02) (219, 1.37337638224297037270e-01) (220, 1.32145093499874188847e-01) (221, -2.83882517545304170759e-02) (222, -1.60592627511667238038e-02) (223, -5.70887079850706316564e-02) (224, -9.91731734583949642303e-02) (225, 1.90350204614239404410e-02) (226, -1.02726588990424680392e-01) (227, 5.05331602958703079986e-02) (228, -1.23803398195868261111e-02) (229, -1.21994092886561114608e-01) (230, -4.18439122830283824483e-02) (231, -6.53922617225159152898e-02) (232, -2.11100068335970426914e-02) (233, 1.50026957375214101825e-02) (234, -2.19569150529981757525e-02) (235, -3.97234602771208283878e-02) (236, -2.03299504058802121831e-01) (237, -3.43553091487831030459e-01) (238, -3.40813195964790094372e-01) (239, -1.88789315313265232410e-01) (240, -2.63592842835049134820e-01) (241, -1.46128612036315858047e-01) (242, -1.01168753553330034722e-01) (243, -8.70046975810485900826e-02) (244, 1.12519826308653727448e-02) (245, 6.41427125905019851482e-02) (246, -3.08679756596439217042e-02) (247, 1.21280261904321604027e-01) (248, 1.81513203054317034946e-01) (249, 1.35090978283394225201e-02) (250, 3.58433412935380349418e-02) (251, 2.65984030476682647981e-02) (252, -7.84157142823531799758e-02) (253, -1.14260280333875058334e-02) (254, -8.26141619026317802765e-02) (255, -1.42573230282863921969e-01) (256, -6.74281329408829982475e-02) (257, -4.89755233109874302255e-02) (258, 4.48980032751214279407e-03) (259, -6.53876430396484326080e-02) (260, 2.11329136570026394903e-02) (261, 1.68753356999953550710e-02) (262, -9.29908288254041176524e-02) (263, -1.25295915790737399931e-01) (264, -3.49990134262487873062e-01) (265, -2.62835007976453371992e-01) (266, -1.12040746317279435451e-01) (267, -1.39386629736989536843e-01) (268, -7.47955934554020429594e-02) (269, -2.33913990035941633805e-02) (270, -1.46835159252356080295e-02) (271, 3.77756504634714079804e-02) (272, -1.18120045853312913287e-02) (273, -7.49453413743960544791e-02) (274, 1.15794792544834934667e-02) (275, 1.54434205309250338622e-01) (276, 1.34558889772225187542e-01) (277, 4.02610213204259506647e-02) (278, 9.06861208233691179492e-02) (279, 1.04755704905154595208e-01) (280, 2.17398455340802911062e-02) (281, -5.49436557118449520054e-02) (282, -4.30751332831107031085e-02) (283, -7.64342712857733752596e-02) (284, -8.22086281834638957222e-03) (285, -1.01843029851969441024e-01) (286, -1.30874734694111372058e-01) (287, -5.05717165222694178817e-02) (288, -7.00851053807147600372e-02) (289, -1.37685058844396718269e-01) (290, -3.85233726042463614503e-02) (291, -9.33288637131649695400e-02) (292, -1.73641554480414919692e-02) (293, -7.36168587735020196750e-02) (294, -9.91138838632413671226e-02) (295, -5.19466968490373687262e-02) (296, -9.77435236906156051928e-02) (297, -8.20644051154054837705e-02) (298, -1.31647657144461888157e-01) (299, -8.86151995008359200101e-02) (300, -4.74699741521598522764e-02) (301, -9.00069821496858324394e-02) (302, 8.39389718013886093617e-02) (303, 2.83754028942836800109e-01) (304, 3.31322259299846766378e-01) (305, 1.39069798577865416656e-01) (306, 1.01628900658252224742e-01) (307, -1.75129746032698686842e-02) (308, -5.34267760679617842445e-02) (309, -2.98086915443121040770e-02) (310, -1.07647511901995479588e-01) (311, -1.19902279363800004508e-01) (312, 2.09246738444290045558e-03) (313, -1.37782028135017886594e-01) (314, 4.48885535862167256438e-02) (315, -7.16153574356798577893e-02) (316, -1.49559531701399656134e-01) (317, -1.12817351680719296647e-01) (318, 4.76453767708465356079e-02) (319, 6.71329648274991003243e-02) (320, 1.26141611656022611943e-01) (321, 7.06829702512764834754e-02) (322, -5.19628627913281196382e-03) (323, -1.93791069892427364474e-02) (324, 8.89802076171525846426e-02) (325, -9.94395287449453997575e-03) (326, -1.61215313637091753329e-02) (327, -6.61904415066291856862e-02) (328, -3.13848939673520149762e-02) (329, -3.21361958591652036032e-02) (330, 3.48406040662672944475e-02) (331, 9.47028375911530828635e-02) (332, 2.54758082207752367676e-01) (333, 1.09605407031003826424e-01) (334, -4.31200245785051464176e-02) (335, -4.30943800480162314548e-03) (336, -6.56666579214445697565e-03) (337, 5.72938778984599661470e-02) (338, 6.70702464415185717339e-02) (339, 6.83744904670542750363e-03) (340, -2.71363145042732983869e-02) (341, 4.85726281872980638482e-03) (342, 5.28523145787721925631e-03) (343, -9.29239880559339925803e-02) (344, -4.46718739248458326929e-02) (345, -7.83446800107067409247e-02) (346, 3.94333199796715605512e-02) (347, 1.34150703865988096819e-02) (348, 6.32844923101197609494e-02) (349, 3.82484061947679226945e-02) (350, 5.42080300749756757717e-02) (351, 4.10313755007352329307e-02) (352, -1.36158115660347939224e-02) (353, -6.48787418626526300736e-03) (354, -1.08248265469650967185e-01) (355, -2.23957694084945035939e-01) (356, -1.06558003443425863832e-01) (357, -1.32702619197571397569e-01) (358, -5.36110873476832658358e-02) (359, -1.60685845072100597086e-01) (360, -9.96863616578223116216e-02) (361, -6.11414876952214546291e-03) (362, 5.82729494283253102171e-02) (363, 5.65225653985609380325e-02) (364, -5.11072078081663758176e-02) (365, -5.95403743147423156201e-02) (366, 5.95108630932581830764e-02) (367, 1.93231099848409047792e-02) (368, 3.91286613345135161901e-02) (369, 8.50215832824755858577e-03) (370, -1.22786959490147173923e-01) (371, -1.24215997842008554763e-01) (372, 6.20642166561970621413e-03) (373, -9.90681884435492404739e-03) (374, -7.35346496987989844962e-02) (375, -3.72769065977466215744e-02) (376, 1.72370532317998731431e-01) (377, 5.46415773264676274401e-02) (378, -6.87500947720729449486e-02) (379, 2.77840886282136991306e-04) (380, 3.01954819054265216627e-02) (381, -3.30229987006508407532e-02) (382, -5.34822453563433553025e-02) (383, 1.00144529500235633657e-02) (384, -1.60060685284437120846e-01) (385, -8.70600097258050487081e-02) (386, -1.53889632253720931576e-01) (387, -1.35715233382430466857e-01) (388, -1.27631698962664602570e-01) (389, 1.52879553089461609622e-02) (390, -6.67467352087334625521e-02) (391, 3.77690330374027480320e-02) (392, -4.95203342476555619101e-02) (393, 2.46899716403532103540e-03) (394, -4.81192902176528439911e-03) (395, -6.47695257977638216840e-02) (396, 4.91385511224941284869e-03) (397, -1.04306338156926747818e-01) (398, -1.98023562153548909892e-01) (399, -1.49670127505121958178e-01) (400, -4.47647192359574355724e-02) (401, 4.31528325784901051199e-02) (402, -7.41940307891375766883e-04) (403, 1.56344906397915955898e-01) (404, 1.36610669928597133760e-01) (405, -3.51111935946413016539e-04) (406, -8.63999596987034407247e-02) (407, 4.32399999056079925586e-02) (408, 2.27258281485527048604e-02) (409, -5.24657761050447979390e-02) (410, 2.59243776088423499848e-02) (411, -6.22543965325900727770e-02) (412, -5.07365464114178238431e-03) (413, -1.18959285346684803808e-01) (414, -1.95567413302255244112e-01) (415, -2.29850112765038222529e-01) (416, -1.04131576972788353341e-01) (417, -2.34646783201048064749e-02) (418, -6.62869310617573287425e-02) (419, 4.34747011047059445793e-03) (420, 3.66753769839029478139e-02) (421, -9.36786037862106096830e-02) (422, 6.24991000862521600689e-02) (423, -1.95381099710135175407e-02) (424, -9.49446509465228793978e-02) (425, -1.30306631476917594847e-01) (426, -3.90852258790761256102e-02) (427, -1.76081496600332926272e-01) (428, 5.55022760647873544836e-05) (429, -1.05534935291541412394e-01) (430, 8.09029748306395457558e-02) (431, -3.26861272467562843924e-02) (432, 8.29644386176910109132e-03) (433, -1.09692863912641172530e-01) (434, -1.33499697654328619567e-01) (435, -5.50456361929886894835e-02) (436, -4.20005931751388644768e-02) (437, 1.31100154661927623817e-02) (438, 1.52947982580691449472e-01) (439, 6.06072245735315151549e-02) (440, 4.19813142103796915761e-02) (441, 1.70797715890133906813e-02) (442, -3.96737795702024539923e-02) (443, -9.19162786102181439407e-02) (444, -3.35554341861490999094e-03) (445, 1.16392228544863456791e-02) (446, -4.75740776889171726460e-02) (447, 3.19315669885898989477e-02) (448, 6.15388390428535936305e-02) (449, -7.74865342777731475055e-02) (450, 6.29463077176787150213e-02) (451, 2.72728245925030442220e-02) (452, -9.29750287020884025324e-02) (453, -8.98724002274295941106e-02) (454, -1.20489286464787792585e-01) (455, -8.99129160411131084230e-02) (456, -1.47292342114016067134e-01) (457, -1.34492457906393358957e-01) (458, -1.82263111398065447144e-01) (459, -1.37095987120602585962e-01) (460, -8.43539487184307434919e-02) (461, -8.05249279428498360156e-02) (462, -1.04025202117515258582e-01) (463, -5.15212738184264301688e-02) (464, -4.62152541515771925207e-02) (465, -5.66366836119325950394e-02) (466, -3.71491808880652918390e-02) (467, -5.87540023612671338804e-02) (468, -5.21398586591486235681e-03) (469, -5.58886156928524030496e-02) (470, -5.29866019280683248072e-02) (471, -9.95570824827446548833e-02) (472, -1.05685282711833514191e-01) (473, 3.05611279868661760151e-02) (474, -5.39642496987736974834e-02) (475, 3.68475045649531462218e-04) (476, -6.80725127458572387695e-02) (477, 8.63257676998131218138e-02) (478, 