FANN_FLO_2.1
num_layers=3
learning_rate=0.200000
connection_rate=1.000000
network_type=0
learning_momentum=0.700000
training_algorithm=2
train_error_function=1
train_stop_function=0
cascade_output_change_fraction=0.010000
quickprop_decay=-0.000100
quickprop_mu=1.750000
rprop_increase_factor=1.200000
rprop_decrease_factor=0.500000
rprop_delta_min=0.000000
rprop_delta_max=50.000000
rprop_delta_zero=0.100000
cascade_output_stagnation_epochs=12
cascade_candidate_change_fraction=0.010000
cascade_candidate_stagnation_epochs=12
cascade_max_out_epochs=150
cascade_min_out_epochs=50
cascade_max_cand_epochs=150
cascade_min_cand_epochs=50
cascade_num_candidate_groups=2
bit_fail_limit=3.49999999999999977796e-01
cascade_candidate_limit=1.00000000000000000000e+03
cascade_weight_multiplier=4.00000000000000022204e-01
cascade_activation_functions_count=10
cascade_activation_functions=3 5 7 8 10 11 14 15 16 17 
cascade_activation_steepnesses_count=4
cascade_activation_steepnesses=2.50000000000000000000e-01 5.00000000000000000000e-01 7.50000000000000000000e-01 1.00000000000000000000e+00 
layer_sizes=785 16 11 
scale_included=0
neurons (num_inputs, activation_function, activation_steepness)=(0, 0, 0.00000000000000000000e+00) (0, 0, 0.00000000000000000000e+00) (0, 0, 0.00000000000000000000e+00) (0, 0, 0.00000000000000000000e+00) (0, 0, 0.00000000000000000000e+00) (0, 0, 0.00000000000000000000e+00) (0, 0, 0.00000000000000000000e+00) (0, 0, 0.00000000000000000000e+00) (0, 0, 0.00000000000000000000e+00) (0, 0, 0.00000000000000000000e+00) (0, 0, 0.00000000000000000000e+00) (0, 0, 0.00000000000000000000e+00) (0, 0, 0.00000000000000000000e+00) (0, 0, 0.00000000000000000000e+00) (0, 0, 0.00000000000000000000e+00) (0, 0, 0.00000000000000000000e+00) (0, 0, 0.00000000000000000000e+00) (0, 0, 0.00000000000000000000e+00) (0, 0, 0.00000000000000000000e+00) (0, 0, 0.00000000000000000000e+00) (0, 0, 0.00000000000000000000e+00) (0, 0, 0.00000000000000000000e+00) (0, 0, 0.00000000000000000000e+00) (0, 0, 0.00000000000000000000e+00) (0, 0, 0.00000000000000000000e+00) (0, 0, 0.00000000000000000000e+00) (0, 0, 0.00000000000000000000e+00) (0, 0, 0.00000000000000000000e+00) (0, 0, 0.00000000000000000000e+00) (0, 0, 0.00000000000000000000e+00) (0, 0, 0.00000000000000000000e+00) (0, 0, 0.00000000000000000000e+00) (0, 0, 0.00000000000000000000e+00) (0, 0, 0.00000000000000000000e+00) (0, 0, 0.00000000000000000000e+00) (0, 0, 0.00000000000000000000e+00) (0, 0, 0.00000000000000000000e+00) (0, 0, 0.00000000000000000000e+00) (0, 0, 0.00000000000000000000e+00) (0, 0, 0.00000000000000000000e+00) (0, 0, 0.00000000000000000000e+00) (0, 0, 0.00000000000000000000e+00) (0, 0, 0.00000000000000000000e+00) (0, 0, 0.00000000000000000000e+00) (0, 0, 0.00000000000000000000e+00) (0, 0, 0.00000000000000000000e+00) (0, 0, 0.00000000000000000000e+00) (0, 0, 0.00000000000000000000e+00) (0, 0, 0.00000000000000000000e+00) (0, 0, 0.00000000000000000000e+00) (0, 0, 0.00000000000000000000e+00) (0, 0, 0.00000000000000000000e+00) (0, 0, 0.00000000000000000000e+00) (0, 0, 0.00000000000000000000e+00) (0, 0, 0.00000000000000000000e+00) (0, 0, 0.00000000000000000000e+00) (0, 0, 0.00000000000000000000e+00) (0, 0, 0.00000000000000000000e+00) (0, 0, 0.00000000000000000000e+00) (0, 0, 0.00000000000000000000e+00) (0, 0, 0.00000000000000000000e+00) (0, 0, 0.00000000000000000000e+00) (0, 0, 0.00000000000000000000e+00) (0, 0, 0.00000000000000000000e+00) (0, 0, 0.00000000000000000000e+00) (0, 0, 0.00000000000000000000e+00) (0, 0, 0.00000000000000000000e+00) (0, 0, 0.00000000000000000000e+00) (0, 0, 0.00000000000000000000e+00) (0, 0, 0.00000000000000000000e+00) (0, 0, 0.00000000000000000000e+00) (0, 0, 0.00000000000000000000e+00) (0, 0, 0.00000000000000000000e+00) (0, 0, 0.00000000000000000000e+00) (0, 0, 0.00000000000000000000e+00) (0, 0, 0.00000000000000000000e+00) (0, 0, 0.00000000000000000000e+00) (0, 0, 0.00000000000000000000e+00) (0, 0, 0.00000000000000000000e+00) (0, 0, 0.00000000000000000000e+00) (0, 0, 0.00000000000000000000e+00) (0, 0, 0.00000000000000000000e+00) (0, 0, 0.00000000000000000000e+00) (0, 0, 0.00000000000000000000e+00) (0, 0, 0.00000000000000000000e+00) (0, 0, 0.00000000000000000000e+00) (0, 0, 0.00000000000000000000e+00) (0, 0, 0.00000000000000000000e+00) (0, 0, 0.00000000000000000000e+00) (0, 0, 0.00000000000000000000e+00) (0, 0, 0.00000000000000000000e+00) (0, 0, 0.00000000000000000000e+00) (0, 0, 0.00000000000000000000e+00) (0, 0, 0.00000000000000000000e+00) (0, 0, 0.00000000000000000000e+00) (0, 0, 0.00000000000000000000e+00) (0, 0, 0.00000000000000000000e+00) (0, 0, 0.00000000000000000000e+00) (0, 0, 0.00000000000000000000e+00) (0, 0, 0.00000000000000000000e+00) (0, 0, 0.00000000000000000000e+00) (0, 0, 0.00000000000000000000e+00) (0, 0, 0.00000000000000000000e+00) (0, 0, 0.00000000000000000000e+00) (0, 0, 0.00000000000000000000e+00) (0, 0, 0.00000000000000000000e+00) (0, 0, 0.00000000000000000000e+00) (0, 0, 0.00000000000000000000e+00) (0, 0, 0.00000000000000000000e+00) (0, 0, 0.00000000000000000000e+00) (0, 0, 0.00000000000000000000e+00) (0, 0, 0.00000000000000000000e+00) (0, 0, 0.00000000000000000000e+00) (0, 0, 0.00000000000000000000e+00) (0, 0, 0.00000000000000000000e+00) (0, 0, 0.00000000000000000000e+00) (0, 0, 0.00000000000000000000e+00) (0, 0, 0.00000000000000000000e+00) (0, 0, 0.00000000000000000000e+00) (0, 0, 0.00000000000000000000e+00) (0, 0, 0.00000000000000000000e+00) (0, 0, 0.00000000000000000000e+00) (0, 0, 0.00000000000000000000e+00) (0, 0, 0.00000000000000000000e+00) (0, 0, 0.00000000000000000000e+00) (0, 0, 0.00000000000000000000e+00) (0, 0, 0.00000000000000000000e+00) (0, 0, 0.00000000000000000000e+00) (0, 0, 0.00000000000000000000e+00) (0, 0, 0.00000000000000000000e+00) (0, 0, 0.00000000000000000000e+00) (0, 0, 0.00000000000000000000e+00) (0, 0, 0.00000000000000000000e+00) (0, 0, 0.00000000000000000000e+00) (0, 0, 0.00000000000000000000e+00) (0, 0, 0.00000000000000000000e+00) (0, 0, 0.00000000000000000000e+00) (0, 0, 0.00000000000000000000e+00) (0, 0, 0.00000000000000000000e+00) (0, 0, 0.00000000000000000000e+00) (0, 0, 0.00000000000000000000e+00) (0, 0, 0.00000000000000000000e+00) (0, 0, 0.00000000000000000000e+00) (0, 0, 0.00000000000000000000e+00) (0, 0, 0.00000000000000000000e+00) (0, 0, 0.00000000000000000000e+00) (0, 0, 0.00000000000000000000e+00) (0, 0, 0.00000000000000000000e+00) (0, 0, 0.00000000000000000000e+00) (0, 0, 0.00000000000000000000e+00) (0, 0, 0.00000000000000000000e+00) (0, 0, 0.00000000000000000000e+00) (0, 0, 0.00000000000000000000e+00) (0, 0, 0.00000000000000000000e+00) (0, 0, 0.00000000000000000000e+00) (0, 0, 0.00000000000000000000e+00) (0, 0, 0.00000000000000000000e+00) (0, 0, 0.00000000000000000000e+00) (0, 0, 0.00000000000000000000e+00) (0, 0, 0.00000000000000000000e+00) (0, 0, 0.00000000000000000000e+00) (0, 0, 0.00000000000000000000e+00) (0, 0, 0.00000000000000000000e+00) (0, 0, 0.00000000000000000000e+00) (0, 0, 0.00000000000000000000e+00) (0, 0, 0.00000000000000000000e+00) (0, 0, 0.00000000000000000000e+00) (0, 0, 0.00000000000000000000e+00) (0, 0, 0.00000000000000000000e+00) (0, 0, 0.00000000000000000000e+00) (0, 0, 0.00000000000000000000e+00) (0, 0, 0.00000000000000000000e+00) (0, 0, 0.00000000000000000000e+00) (0, 0, 0.00000000000000000000e+00) (0, 0, 0.00000000000000000000e+00) (0, 0, 0.00000000000000000000e+00) (0, 0, 0.00000000000000000000e+00) (0, 0, 0.00000000000000000000e+00) (0, 0, 0.00000000000000000000e+00) (0, 0, 0.00000000000000000000e+00) (0, 0, 0.00000000000000000000e+00) (0, 0, 0.00000000000000000000e+00) (0, 0, 0.00000000000000000000e+00) (0, 0, 0.00000000000000000000e+00) (0, 0, 0.00000000000000000000e+00) (0, 0, 0.00000000000000000000e+00) (0, 0, 0.00000000000000000000e+00) (0, 0, 0.00000000000000000000e+00) (0, 0, 0.00000000000000000000e+00) (0, 0, 0.00000000000000000000e+00) (0, 0, 0.00000000000000000000e+00) (0, 0, 0.00000000000000000000e+00) (0, 0, 0.00000000000000000000e+00) (0, 0, 0.00000000000000000000e+00) (0, 0, 0.00000000000000000000e+00) (0, 0, 0.00000000000000000000e+00) (0, 0, 0.00000000000000000000e+00) (0, 0, 0.00000000000000000000e+00) (0, 0, 0.00000000000000000000e+00) (0, 0, 0.00000000000000000000e+00) (0, 0, 0.00000000000000000000e+00) (0, 0, 0.00000000000000000000e+00) (0, 0, 0.00000000000000000000e+00) (0, 0, 0.00000000000000000000e+00) (0, 0, 0.00000000000000000000e+00) (0, 0, 0.00000000000000000000e+00) (0, 0, 0.00000000000000000000e+00) (0, 0, 0.00000000000000000000e+00) (0, 0, 0.00000000000000000000e+00) (0, 0, 0.00000000000000000000e+00) (0, 0, 0.00000000000000000000e+00) (0, 0, 0.00000000000000000000e+00) (0, 0, 0.00000000000000000000e+00) (0, 0, 0.00000000000000000000e+00) (0, 0, 0.00000000000000000000e+00) (0, 0, 0.00000000000000000000e+00) (0, 0, 0.00000000000000000000e+00) (0, 0, 0.00000000000000000000e+00) (0, 0, 0.00000000000000000000e+00) (0, 0, 0.00000000000000000000e+00) (0, 0, 0.00000000000000000000e+00) (0, 0, 0.00000000000000000000e+00) (0, 0, 0.00000000000000000000e+00) (0, 0, 0.00000000000000000000e+00) (0, 0, 0.00000000000000000000e+00) (0, 0, 0.00000000000000000000e+00) (0, 0, 0.00000000000000000000e+00) (0, 0, 0.00000000000000000000e+00) (0, 0, 0.00000000000000000000e+00) (0, 0, 0.00000000000000000000e+00) (0, 0, 0.00000000000000000000e+00) (0, 0, 0.00000000000000000000e+00) (0, 0, 0.00000000000000000000e+00) (0, 0, 0.00000000000000000000e+00) (0, 0, 0.00000000000000000000e+00) (0, 0, 0.00000000000000000000e+00) (0, 0, 0.00000000000000000000e+00) (0, 0, 0.00000000000000000000e+00) (0, 0, 0.00000000000000000000e+00) (0, 0, 0.00000000000000000000e+00) (0, 0, 0.00000000000000000000e+00) (0, 0, 0.00000000000000000000e+00) (0, 0, 0.00000000000000000000e+00) (0, 0, 0.00000000000000000000e+00) (0, 0, 0.00000000000000000000e+00) (0, 0, 0.00000000000000000000e+00) (0, 0, 0.00000000000000000000e+00) (0, 0, 0.00000000000000000000e+00) (0, 0, 0.00000000000000000000e+00) (0, 0, 0.00000000000000000000e+00) (0, 0, 0.00000000000000000000e+00) (0, 0, 0.00000000000000000000e+00) (0, 0, 0.00000000000000000000e+00) (0, 0, 0.00000000000000000000e+00) (0, 0, 0.00000000000000000000e+00) (0, 0, 0.00000000000000000000e+00) (0, 0, 0.00000000000000000000e+00) (0, 0, 0.00000000000000000000e+00) (0, 0, 0.00000000000000000000e+00) (0, 0, 0.00000000000000000000e+00) (0, 0, 0.00000000000000000000e+00) (0, 0, 0.00000000000000000000e+00) (0, 0, 0.00000000000000000000e+00) (0, 0, 0.00000000000000000000e+00) (0, 0, 0.00000000000000000000e+00) (0, 0, 0.00000000000000000000e+00) (0, 0, 0.00000000000000000000e+00) (0, 0, 0.00000000000000000000e+00) (0, 0, 0.00000000000000000000e+00) (0, 0, 0.00000000000000000000e+00) (0, 0, 0.00000000000000000000e+00) (0, 0, 0.00000000000000000000e+00) (0, 0, 0.00000000000000000000e+00) (0, 0, 0.00000000000000000000e+00) (0, 0, 0.00000000000000000000e+00) (0, 0, 0.00000000000000000000e+00) (0, 0, 0.00000000000000000000e+00) (0, 0, 0.00000000000000000000e+00) (0, 0, 0.00000000000000000000e+00) (0, 0, 0.00000000000000000000e+00) (0, 0, 0.00000000000000000000e+00) (0, 0, 0.00000000000000000000e+00) (0, 0, 0.00000000000000000000e+00) (0, 0, 0.00000000000000000000e+00) (0, 0, 0.00000000000000000000e+00) (0, 0, 0.00000000000000000000e+00) (0, 0, 0.00000000000000000000e+00) (0, 0, 0.00000000000000000000e+00) (0, 0, 0.00000000000000000000e+00) (0, 0, 0.00000000000000000000e+00) (0, 0, 0.00000000000000000000e+00) (0, 0, 0.00000000000000000000e+00) (0, 0, 0.00000000000000000000e+00) (0, 0, 0.00000000000000000000e+00) (0, 0, 0.00000000000000000000e+00) (0, 0, 0.00000000000000000000e+00) (0, 0, 0.00000000000000000000e+00) (0, 0, 0.00000000000000000000e+00) (0, 0, 0.00000000000000000000e+00) (0, 0, 0.00000000000000000000e+00) (0, 0, 0.00000000000000000000e+00) (0, 0, 0.00000000000000000000e+00) (0, 0, 0.00000000000000000000e+00) (0, 0, 0.00000000000000000000e+00) (0, 0, 0.00000000000000000000e+00) (0, 0, 0.00000000000000000000e+00) (0, 0, 0.00000000000000000000e+00) (0, 0, 0.00000000000000000000e+00) (0, 0, 0.00000000000000000000e+00) (0, 0, 0.00000000000000000000e+00) (0, 0, 0.00000000000000000000e+00) (0, 0, 0.00000000000000000000e+00) (0, 0, 0.00000000000000000000e+00) (0, 0, 0.00000000000000000000e+00) (0, 0, 0.00000000000000000000e+00) (0, 0, 0.00000000000000000000e+00) (0, 0, 0.00000000000000000000e+00) (0, 0, 0.00000000000000000000e+00) (0, 0, 0.00000000000000000000e+00) (0, 0, 0.00000000000000000000e+00) (0, 0, 0.00000000000000000000e+00) (0, 0, 0.00000000000000000000e+00) (0, 0, 0.00000000000000000000e+00) (0, 0, 0.00000000000000000000e+00) (0, 0, 0.00000000000000000000e+00) (0, 0, 0.00000000000000000000e+00) (0, 0, 0.00000000000000000000e+00) (0, 0, 0.00000000000000000000e+00) (0, 0, 0.00000000000000000000e+00) (0, 0, 0.00000000000000000000e+00) (0, 0, 0.00000000000000000000e+00) (0, 0, 0.00000000000000000000e+00) (0, 0, 0.00000000000000000000e+00) (0, 0, 0.00000000000000000000e+00) (0, 0, 0.00000000000000000000e+00) (0, 0, 0.00000000000000000000e+00) (0, 0, 0.00000000000000000000e+00) (0, 0, 0.00000000000000000000e+00) (0, 0, 0.00000000000000000000e+00) (0, 0, 0.00000000000000000000e+00) (0, 0, 0.00000000000000000000e+00) (0, 0, 0.00000000000000000000e+00) (0, 0, 0.00000000000000000000e+00) (0, 0, 0.00000000000000000000e+00) (0, 0, 0.00000000000000000000e+00) (0, 0, 0.00000000000000000000e+00) (0, 0, 0.00000000000000000000e+00) (0, 0, 0.00000000000000000000e+00) (0, 0, 0.00000000000000000000e+00) (0, 0, 0.00000000000000000000e+00) (0, 0, 0.00000000000000000000e+00) (0, 0, 0.00000000000000000000e+00) (0, 0, 0.00000000000000000000e+00) (0, 0, 0.00000000000000000000e+00) (0, 0, 0.00000000000000000000e+00) (0, 0, 0.00000000000000000000e+00) (0, 0, 0.00000000000000000000e+00) (0, 0, 0.00000000000000000000e+00) (0, 0, 0.00000000000000000000e+00) (0, 0, 0.00000000000000000000e+00) (0, 0, 0.00000000000000000000e+00) (0, 0, 0.00000000000000000000e+00) (0, 0, 0.00000000000000000000e+00) (0, 0, 0.00000000000000000000e+00) (0, 0, 0.00000000000000000000e+00) (0, 0, 0.00000000000000000000e+00) (0, 0, 0.00000000000000000000e+00) (0, 0, 0.00000000000000000000e+00) (0, 0, 0.00000000000000000000e+00) (0, 0, 0.00000000000000000000e+00) (0, 0, 0.00000000000000000000e+00) (0, 0, 0.00000000000000000000e+00) (0, 0, 0.00000000000000000000e+00) (0, 0, 0.00000000000000000000e+00) (0, 0, 0.00000000000000000000e+00) (0, 0, 0.00000000000000000000e+00) (0, 0, 0.00000000000000000000e+00) (0, 0, 0.00000000000000000000e+00) (0, 0, 0.00000000000000000000e+00) (0, 0, 0.00000000000000000000e+00) (0, 0, 0.00000000000000000000e+00) (0, 0, 0.00000000000000000000e+00) (0, 0, 0.00000000000000000000e+00) (0, 0, 0.00000000000000000000e+00) (0, 0, 0.00000000000000000000e+00) (0, 0, 0.00000000000000000000e+00) (0, 0, 0.00000000000000000000e+00) (0, 0, 0.00000000000000000000e+00) (0, 0, 0.00000000000000000000e+00) (0, 0, 0.00000000000000000000e+00) (0, 0, 0.00000000000000000000e+00) (0, 0, 0.00000000000000000000e+00) (0, 0, 0.00000000000000000000e+00) (0, 0, 0.00000000000000000000e+00) (0, 0, 0.00000000000000000000e+00) (0, 0, 0.00000000000000000000e+00) (0, 0, 0.00000000000000000000e+00) (0, 0, 0.00000000000000000000e+00) (0, 0, 0.00000000000000000000e+00) (0, 0, 0.00000000000000000000e+00) (0, 0, 0.00000000000000000000e+00) (0, 0, 0.00000000000000000000e+00) (0, 0, 0.00000000000000000000e+00) (0, 0, 0.00000000000000000000e+00) (0, 0, 0.00000000000000000000e+00) (0, 0, 0.00000000000000000000e+00) (0, 0, 0.00000000000000000000e+00) (0, 0, 0.00000000000000000000e+00) (0, 0, 0.00000000000000000000e+00) (0, 0, 0.00000000000000000000e+00) (0, 0, 0.00000000000000000000e+00) (0, 0, 0.00000000000000000000e+00) (0, 0, 0.00000000000000000000e+00) (0, 0, 0.00000000000000000000e+00) (0, 0, 0.00000000000000000000e+00) (0, 0, 0.00000000000000000000e+00) (0, 0, 0.00000000000000000000e+00) (0, 0, 0.00000000000000000000e+00) (0, 0, 0.00000000000000000000e+00) (0, 0, 0.00000000000000000000e+00) (0, 0, 0.00000000000000000000e+00) (0, 0, 0.00000000000000000000e+00) (0, 0, 0.00000000000000000000e+00) (0, 0, 0.00000000000000000000e+00) (0, 0, 0.00000000000000000000e+00) (0, 0, 0.00000000000000000000e+00) (0, 0, 0.00000000000000000000e+00) (0, 0, 0.00000000000000000000e+00) (0, 0, 0.00000000000000000000e+00) (0, 0, 0.00000000000000000000e+00) (0, 0, 0.00000000000000000000e+00) (0, 0, 0.00000000000000000000e+00) (0, 0, 0.00000000000000000000e+00) (0, 0, 0.00000000000000000000e+00) (0, 0, 0.00000000000000000000e+00) (0, 0, 0.00000000000000000000e+00) (0, 0, 0.00000000000000000000e+00) (0, 0, 0.00000000000000000000e+00) (0, 0, 0.00000000000000000000e+00) (0, 0, 0.00000000000000000000e+00) (0, 0, 0.00000000000000000000e+00) (0, 0, 0.00000000000000000000e+00) (0, 0, 0.00000000000000000000e+00) (0, 0, 0.00000000000000000000e+00) (0, 0, 0.00000000000000000000e+00) (0, 0, 0.00000000000000000000e+00) (0, 0, 0.00000000000000000000e+00) (0, 0, 0.00000000000000000000e+00) (0, 0, 0.00000000000000000000e+00) (0, 0, 0.00000000000000000000e+00) (0, 0, 0.00000000000000000000e+00) (0, 0, 0.00000000000000000000e+00) (0, 0, 0.00000000000000000000e+00) (0, 0, 0.00000000000000000000e+00) (0, 0, 0.00000000000000000000e+00) (0, 0, 0.00000000000000000000e+00) (0, 0, 0.00000000000000000000e+00) (0, 0, 0.00000000000000000000e+00) (0, 0, 0.00000000000000000000e+00) (0, 0, 0.00000000000000000000e+00) (0, 0, 0.00000000000000000000e+00) (0, 0, 0.00000000000000000000e+00) (0, 0, 0.00000000000000000000e+00) (0, 0, 0.00000000000000000000e+00) (0, 0, 0.00000000000000000000e+00) (0, 0, 0.00000000000000000000e+00) (0, 0, 0.00000000000000000000e+00) (0, 0, 0.00000000000000000000e+00) (0, 0, 0.00000000000000000000e+00) (0, 0, 0.00000000000000000000e+00) (0, 0, 0.00000000000000000000e+00) (0, 0, 0.00000000000000000000e+00) (0, 0, 0.00000000000000000000e+00) (0, 0, 0.00000000000000000000e+00) (0, 0, 0.00000000000000000000e+00) (0, 0, 0.00000000000000000000e+00) (0, 0, 0.00000000000000000000e+00) (0, 0, 0.00000000000000000000e+00) (0, 0, 0.00000000000000000000e+00) (0, 0, 0.00000000000000000000e+00) (0, 0, 0.00000000000000000000e+00) (0, 0, 0.00000000000000000000e+00) (0, 0, 0.00000000000000000000e+00) (0, 0, 0.00000000000000000000e+00) (0, 0, 0.00000000000000000000e+00) (0, 0, 0.00000000000000000000e+00) (0, 0, 0.00000000000000000000e+00) (0, 0, 0.00000000000000000000e+00) (0, 0, 0.00000000000000000000e+00) (0, 0, 0.00000000000000000000e+00) (0, 0, 0.00000000000000000000e+00) (0, 0, 0.00000000000000000000e+00) (0, 0, 0.00000000000000000000e+00) (0, 0, 0.00000000000000000000e+00) (0, 0, 0.00000000000000000000e+00) (0, 0, 0.00000000000000000000e+00) (0, 0, 0.00000000000000000000e+00) (0, 0, 0.00000000000000000000e+00) (0, 0, 0.00000000000000000000e+00) (0, 0, 0.00000000000000000000e+00) (0, 0, 0.00000000000000000000e+00) (0, 0, 0.00000000000000000000e+00) (0, 0, 0.00000000000000000000e+00) (0, 0, 0.00000000000000000000e+00) (0, 0, 0.00000000000000000000e+00) (0, 0, 0.00000000000000000000e+00) (0, 0, 0.00000000000000000000e+00) (0, 0, 0.00000000000000000000e+00) (0, 0, 0.00000000000000000000e+00) (0, 0, 0.00000000000000000000e+00) (0, 0, 0.00000000000000000000e+00) (0, 0, 0.00000000000000000000e+00) (0, 0, 0.00000000000000000000e+00) (0, 0, 0.00000000000000000000e+00) (0, 0, 0.00000000000000000000e+00) (0, 0, 0.00000000000000000000e+00) (0, 0, 0.00000000000000000000e+00) (0, 0, 0.00000000000000000000e+00) (0, 0, 0.00000000000000000000e+00) (0, 0, 0.00000000000000000000e+00) (0, 0, 0.00000000000000000000e+00) (0, 0, 0.00000000000000000000e+00) (0, 0, 0.00000000000000000000e+00) (0, 0, 0.00000000000000000000e+00) (0, 0, 0.00000000000000000000e+00) (0, 0, 0.00000000000000000000e+00) (0, 0, 0.00000000000000000000e+00) (0, 0, 0.00000000000000000000e+00) (0, 0, 0.00000000000000000000e+00) (0, 0, 0.00000000000000000000e+00) (0, 0, 0.00000000000000000000e+00) (0, 0, 0.00000000000000000000e+00) (0, 0, 0.00000000000000000000e+00) (0, 0, 0.00000000000000000000e+00) (0, 0, 0.00000000000000000000e+00) (0, 0, 0.00000000000000000000e+00) (0, 0, 0.00000000000000000000e+00) (0, 0, 0.00000000000000000000e+00) (0, 0, 0.00000000000000000000e+00) (0, 0, 0.00000000000000000000e+00) (0, 0, 0.00000000000000000000e+00) (0, 0, 0.00000000000000000000e+00) (0, 0, 0.00000000000000000000e+00) (0, 0, 0.00000000000000000000e+00) (0, 0, 0.00000000000000000000e+00) (0, 0, 0.00000000000000000000e+00) (0, 0, 0.00000000000000000000e+00) (0, 0, 0.00000000000000000000e+00) (0, 0, 0.00000000000000000000e+00) (0, 0, 0.00000000000000000000e+00) (0, 0, 0.00000000000000000000e+00) (0, 0, 0.00000000000000000000e+00) (0, 0, 0.00000000000000000000e+00) (0, 0, 0.00000000000000000000e+00) (0, 0, 0.00000000000000000000e+00) (0, 0, 0.00000000000000000000e+00) (0, 0, 0.00000000000000000000e+00) (0, 0, 0.00000000000000000000e+00) (0, 0, 0.00000000000000000000e+00) (0, 0, 0.00000000000000000000e+00) (0, 0, 0.00000000000000000000e+00) (0, 0, 0.00000000000000000000e+00) (0, 0, 0.00000000000000000000e+00) (0, 0, 0.00000000000000000000e+00) (0, 0, 0.00000000000000000000e+00) (0, 0, 0.00000000000000000000e+00) (0, 0, 0.00000000000000000000e+00) (0, 0, 0.00000000000000000000e+00) (0, 0, 0.00000000000000000000e+00) (0, 0, 0.00000000000000000000e+00) (0, 0, 0.00000000000000000000e+00) (0, 0, 0.00000000000000000000e+00) (0, 0, 0.00000000000000000000e+00) (0, 0, 0.00000000000000000000e+00) (0, 0, 0.00000000000000000000e+00) (0, 0, 0.00000000000000000000e+00) (0, 0, 0.00000000000000000000e+00) (0, 0, 0.00000000000000000000e+00) (0, 0, 0.00000000000000000000e+00) (0, 0, 0.00000000000000000000e+00) (0, 0, 0.00000000000000000000e+00) (0, 0, 0.00000000000000000000e+00) (0, 0, 0.00000000000000000000e+00) (0, 0, 0.00000000000000000000e+00) (0, 0, 0.00000000000000000000e+00) (0, 0, 0.00000000000000000000e+00) (0, 0, 0.00000000000000000000e+00) (0, 0, 0.00000000000000000000e+00) (0, 0, 0.00000000000000000000e+00) (0, 0, 0.00000000000000000000e+00) (0, 0, 0.00000000000000000000e+00) (0, 0, 0.00000000000000000000e+00) (0, 0, 0.00000000000000000000e+00) (0, 0, 0.00000000000000000000e+00) (0, 0, 0.00000000000000000000e+00) (0, 0, 0.00000000000000000000e+00) (0, 0, 0.00000000000000000000e+00) (0, 0, 0.00000000000000000000e+00) (0, 0, 0.00000000000000000000e+00) (0, 0, 0.00000000000000000000e+00) (0, 0, 0.00000000000000000000e+00) (0, 0, 0.00000000000000000000e+00) (0, 0, 0.00000000000000000000e+00) (0, 0, 0.00000000000000000000e+00) (0, 0, 0.00000000000000000000e+00) (0, 0, 0.00000000000000000000e+00) (0, 0, 0.00000000000000000000e+00) (0, 0, 0.00000000000000000000e+00) (0, 0, 0.00000000000000000000e+00) (0, 0, 0.00000000000000000000e+00) (0, 0, 0.00000000000000000000e+00) (0, 0, 0.00000000000000000000e+00) (0, 0, 0.00000000000000000000e+00) (0, 0, 0.00000000000000000000e+00) (0, 0, 0.00000000000000000000e+00) (0, 0, 0.00000000000000000000e+00) (0, 0, 0.00000000000000000000e+00) (0, 0, 0.00000000000000000000e+00) (0, 0, 0.00000000000000000000e+00) (0, 0, 0.00000000000000000000e+00) (0, 0, 0.00000000000000000000e+00) (0, 0, 0.00000000000000000000e+00) (0, 0, 0.00000000000000000000e+00) (0, 0, 0.00000000000000000000e+00) (0, 0, 0.00000000000000000000e+00) (0, 0, 0.00000000000000000000e+00) (0, 0, 0.00000000000000000000e+00) (0, 0, 0.00000000000000000000e+00) (0, 0, 0.00000000000000000000e+00) (0, 0, 0.00000000000000000000e+00) (0, 0, 0.00000000000000000000e+00) (0, 0, 0.00000000000000000000e+00) (0, 0, 0.00000000000000000000e+00) (0, 0, 0.00000000000000000000e+00) (0, 0, 0.00000000000000000000e+00) (0, 0, 0.00000000000000000000e+00) (0, 0, 0.00000000000000000000e+00) (0, 0, 0.00000000000000000000e+00) (0, 0, 0.00000000000000000000e+00) (0, 0, 0.00000000000000000000e+00) (0, 0, 0.00000000000000000000e+00) (0, 0, 0.00000000000000000000e+00) (0, 0, 0.00000000000000000000e+00) (0, 0, 0.00000000000000000000e+00) (0, 0, 0.00000000000000000000e+00) (0, 0, 0.00000000000000000000e+00) (0, 0, 0.00000000000000000000e+00) (0, 0, 0.00000000000000000000e+00) (0, 0, 0.00000000000000000000e+00) (0, 0, 0.00000000000000000000e+00) (0, 0, 0.00000000000000000000e+00) (0, 0, 0.00000000000000000000e+00) (0, 0, 0.00000000000000000000e+00) (0, 0, 0.00000000000000000000e+00) (0, 0, 0.00000000000000000000e+00) (0, 0, 0.00000000000000000000e+00) (0, 0, 0.00000000000000000000e+00) (0, 0, 0.00000000000000000000e+00) (0, 0, 0.00000000000000000000e+00) (0, 0, 0.00000000000000000000e+00) (0, 0, 0.00000000000000000000e+00) (0, 0, 0.00000000000000000000e+00) (0, 0, 0.00000000000000000000e+00) (0, 0, 0.00000000000000000000e+00) (0, 0, 0.00000000000000000000e+00) (0, 0, 0.00000000000000000000e+00) (0, 0, 0.00000000000000000000e+00) (0, 0, 0.00000000000000000000e+00) (0, 0, 0.00000000000000000000e+00) (0, 0, 0.00000000000000000000e+00) (0, 0, 0.00000000000000000000e+00) (0, 0, 0.00000000000000000000e+00) (0, 0, 0.00000000000000000000e+00) (0, 0, 0.00000000000000000000e+00) (0, 0, 0.00000000000000000000e+00) (0, 0, 0.00000000000000000000e+00) (0, 0, 0.00000000000000000000e+00) (0, 0, 0.00000000000000000000e+00) (0, 0, 0.00000000000000000000e+00) (0, 0, 0.00000000000000000000e+00) (0, 0, 0.00000000000000000000e+00) (0, 0, 0.00000000000000000000e+00) (0, 0, 0.00000000000000000000e+00) (0, 0, 0.00000000000000000000e+00) (0, 0, 0.00000000000000000000e+00) (0, 0, 0.00000000000000000000e+00) (0, 0, 0.00000000000000000000e+00) (0, 0, 0.00000000000000000000e+00) (0, 0, 0.00000000000000000000e+00) (0, 0, 0.00000000000000000000e+00) (0, 0, 0.00000000000000000000e+00) (0, 0, 0.00000000000000000000e+00) (0, 0, 0.00000000000000000000e+00) (0, 0, 0.00000000000000000000e+00) (0, 0, 0.00000000000000000000e+00) (0, 0, 0.00000000000000000000e+00) (0, 0, 0.00000000000000000000e+00) (0, 0, 0.00000000000000000000e+00) (0, 0, 0.00000000000000000000e+00) (0, 0, 0.00000000000000000000e+00) (0, 0, 0.00000000000000000000e+00) (0, 0, 0.00000000000000000000e+00) (0, 0, 0.00000000000000000000e+00) (0, 0, 0.00000000000000000000e+00) (0, 0, 0.00000000000000000000e+00) (0, 0, 0.00000000000000000000e+00) (0, 0, 0.00000000000000000000e+00) (0, 0, 0.00000000000000000000e+00) (0, 0, 0.00000000000000000000e+00) (0, 0, 0.00000000000000000000e+00) (0, 0, 0.00000000000000000000e+00) (0, 0, 0.00000000000000000000e+00) (0, 0, 0.00000000000000000000e+00) (0, 0, 0.00000000000000000000e+00) (0, 0, 0.00000000000000000000e+00) (0, 0, 0.00000000000000000000e+00) (0, 0, 0.00000000000000000000e+00) (0, 0, 0.00000000000000000000e+00) (0, 0, 0.00000000000000000000e+00) (0, 0, 0.00000000000000000000e+00) (0, 0, 0.00000000000000000000e+00) (0, 0, 0.00000000000000000000e+00) (0, 0, 0.00000000000000000000e+00) (0, 0, 0.00000000000000000000e+00) (0, 0, 0.00000000000000000000e+00) (0, 0, 0.00000000000000000000e+00) (0, 0, 0.00000000000000000000e+00) (0, 0, 0.00000000000000000000e+00) (0, 0, 0.00000000000000000000e+00) (0, 0, 0.00000000000000000000e+00) (0, 0, 0.00000000000000000000e+00) (0, 0, 0.00000000000000000000e+00) (0, 0, 0.00000000000000000000e+00) (0, 0, 0.00000000000000000000e+00) (0, 0, 0.00000000000000000000e+00) (0, 0, 0.00000000000000000000e+00) (0, 0, 0.00000000000000000000e+00) (0, 0, 0.00000000000000000000e+00) (0, 0, 0.00000000000000000000e+00) (0, 0, 0.00000000000000000000e+00) (0, 0, 0.00000000000000000000e+00) (0, 0, 0.00000000000000000000e+00) (0, 0, 0.00000000000000000000e+00) (0, 0, 0.00000000000000000000e+00) (0, 0, 0.00000000000000000000e+00) (0, 0, 0.00000000000000000000e+00) (0, 0, 0.00000000000000000000e+00) (0, 0, 0.00000000000000000000e+00) (0, 0, 0.00000000000000000000e+00) (0, 0, 0.00000000000000000000e+00) (0, 0, 0.00000000000000000000e+00) (0, 0, 0.00000000000000000000e+00) (0, 0, 0.00000000000000000000e+00) (0, 0, 0.00000000000000000000e+00) (0, 0, 0.00000000000000000000e+00) (0, 0, 0.00000000000000000000e+00) (0, 0, 0.00000000000000000000e+00) (0, 0, 0.00000000000000000000e+00) (0, 0, 0.00000000000000000000e+00) (0, 0, 0.00000000000000000000e+00) (0, 0, 0.00000000000000000000e+00) (0, 0, 0.00000000000000000000e+00) (0, 0, 0.00000000000000000000e+00) (0, 0, 0.00000000000000000000e+00) (0, 0, 0.00000000000000000000e+00) (0, 0, 0.00000000000000000000e+00) (0, 0, 0.00000000000000000000e+00) (0, 0, 0.00000000000000000000e+00) (0, 0, 0.00000000000000000000e+00) (0, 0, 0.00000000000000000000e+00) (0, 0, 0.00000000000000000000e+00) (0, 0, 0.00000000000000000000e+00) (0, 0, 0.00000000000000000000e+00) (0, 0, 0.00000000000000000000e+00) (0, 0, 0.00000000000000000000e+00) (0, 0, 0.00000000000000000000e+00) (0, 0, 0.00000000000000000000e+00) (0, 0, 0.00000000000000000000e+00) (0, 0, 0.00000000000000000000e+00) (0, 0, 0.00000000000000000000e+00) (0, 0, 0.00000000000000000000e+00) (0, 0, 0.00000000000000000000e+00) (0, 0, 0.00000000000000000000e+00) (0, 0, 0.00000000000000000000e+00) (0, 0, 0.00000000000000000000e+00) (785, 3, 5.00000000000000000000e-01) (785, 3, 5.00000000000000000000e-01) (785, 3, 5.00000000000000000000e-01) (785, 3, 5.00000000000000000000e-01) (785, 3, 5.00000000000000000000e-01) (785, 3, 5.00000000000000000000e-01) (785, 3, 5.00000000000000000000e-01) (785, 3, 5.00000000000000000000e-01) (785, 3, 5.00000000000000000000e-01) (785, 3, 5.00000000000000000000e-01) (785, 3, 5.00000000000000000000e-01) (785, 3, 5.00000000000000000000e-01) (785, 3, 5.00000000000000000000e-01) (785, 3, 5.00000000000000000000e-01) (785, 3, 5.00000000000000000000e-01) (0, 3, 0.00000000000000000000e+00) (16, 3, 5.00000000000000000000e-01) (16, 3, 5.00000000000000000000e-01) (16, 3, 5.00000000000000000000e-01) (16, 3, 5.00000000000000000000e-01) (16, 3, 5.00000000000000000000e-01) (16, 3, 5.00000000000000000000e-01) (16, 3, 5.00000000000000000000e-01) (16, 3, 5.00000000000000000000e-01) (16, 3, 5.00000000000000000000e-01) (16, 3, 5.00000000000000000000e-01) (0, 3, 0.00000000000000000000e+00) 
connections (connected_to_neuron, weight)=(0, 1.50000000000000000000e+03) (1, 1.50000000000000000000e+03) (2, 1.50000000000000000000e+03) (3, 1.50000000000000000000e+03) (4, 1.50000000000000000000e+03) (5, 1.50000000000000000000e+03) (6, 1.50000000000000000000e+03) (7, 1.50000000000000000000e+03) (8, 1.50000000000000000000e+03) (9, 1.50000000000000000000e+03) (10, 1.50000000000000000000e+03) (11, 1.50000000000000000000e+03) (12, 1.50000000000000000000e+03) (13, 1.50000000000000000000e+03) (14, 7.96405387273624455702e+02) (15, 7.96371683663323437941e+02) (16, 1.50000000000000000000e+03) (17, 1.50000000000000000000e+03) (18, 1.50000000000000000000e+03) (19, 1.50000000000000000000e+03) (20, 1.50000000000000000000e+03) (21, 1.50000000000000000000e+03) (22, 1.50000000000000000000e+03) (23, 1.50000000000000000000e+03) (24, 1.50000000000000000000e+03) (25, 1.50000000000000000000e+03) (26, 1.50000000000000000000e+03) (27, 1.50000000000000000000e+03) (28, 1.50000000000000000000e+03) (29, 1.50000000000000000000e+03) (30, 1.50000000000000000000e+03) (31, 1.50000000000000000000e+03) (32, 1.50000000000000000000e+03) (33, 1.50000000000000000000e+03) (34, 1.50000000000000000000e+03) (35, 1.50000000000000000000e+03) (36, 1.50000000000000000000e+03) (37, 1.50000000000000000000e+03) (38, 1.50000000000000000000e+03) (39, 1.50000000000000000000e+03) (40, 1.50000000000000000000e+03) (41, 1.50000000000000000000e+03) (42, 1.50000000000000000000e+03) (43, 1.50000000000000000000e+03) (44, 1.50000000000000000000e+03) (45, 1.50000000000000000000e+03) (46, 1.50000000000000000000e+03) (47, 1.50000000000000000000e+03) (48, 1.50000000000000000000e+03) (49, 1.50000000000000000000e+03) (50, 1.50000000000000000000e+03) (51, 1.50000000000000000000e+03) (52, 1.50000000000000000000e+03) (53, 1.50000000000000000000e+03) (54, 1.50000000000000000000e+03) (55, 1.50000000000000000000e+03) (56, 1.50000000000000000000e+03) (57, 1.50000000000000000000e+03) (58, 1.50000000000000000000e+03) (59, 1.50000000000000000000e+03) (60, 1.50000000000000000000e+03) (61, 7.53927115566710426720e+02) (62, 1.50000000000000000000e+03) (63, 1.50000000000000000000e+03) (64, 1.50000000000000000000e+03) (65, 1.50000000000000000000e+03) (66, 1.50000000000000000000e+03) (67, 1.50000000000000000000e+03) (68, 1.50000000000000000000e+03) (69, 1.50000000000000000000e+03) (70, 1.50000000000000000000e+03) (71, -5.48712999341655063290e+02) (72, 1.50000000000000000000e+03) (73, 1.50000000000000000000e+03) (74, 1.50000000000000000000e+03) (75, 1.50000000000000000000e+03) (76, 1.50000000000000000000e+03) (77, 1.50000000000000000000e+03) (78, 1.50000000000000000000e+03) (79, 1.44297598970031663157e+03) (80, 1.50000000000000000000e+03) (81, 1.50000000000000000000e+03) (82, 1.50000000000000000000e+03) (83, 1.50000000000000000000e+03) (84, 1.50000000000000000000e+03) (85, 1.50000000000000000000e+03) (86, -1.50000000000000000000e+03) (87, 1.50000000000000000000e+03) (88, -9.00977777554522845094e+02) (89, -3.19344179534923036101e+01) (90, 6.27571798758031036414e+02) (91, 1.50000000000000000000e+03) (92, 1.50000000000000000000e+03) (93, 1.50000000000000000000e+03) (94, 1.50000000000000000000e+03) (95, 1.50000000000000000000e+03) (96, 1.50000000000000000000e+03) (97, 1.50000000000000000000e+03) (98, 1.50000000000000000000e+03) (99, 1.50000000000000000000e+03) (100, 1.50000000000000000000e+03) (101, 1.50000000000000000000e+03) (102, 1.50000000000000000000e+03) (103, 1.50000000000000000000e+03) (104, 1.50000000000000000000e+03) (105, 1.50000000000000000000e+03) (106, 1.50000000000000000000e+03) (107, 1.50000000000000000000e+03) (108, 1.50000000000000000000e+03) (109, 1.50000000000000000000e+03) (110, 1.50000000000000000000e+03) (111, 1.50000000000000000000e+03) (112, 1.50000000000000000000e+03) (113, 1.50000000000000000000e+03) (114, -1.50000000000000000000e+03) (115, 1.34070537116267314559e+03) (116, -4.26806619243975035261e+02) (117, 1.50000000000000000000e+03) (118, 1.50000000000000000000e+03) (119, 1.50000000000000000000e+03) (120, 1.50000000000000000000e+03) (121, 1.50000000000000000000e+03) (122, 1.50000000000000000000e+03) (123, 1.50000000000000000000e+03) (124, 1.50000000000000000000e+03) (125, 1.50000000000000000000e+03) (126, 1.50000000000000000000e+03) (127, 1.50000000000000000000e+03) (128, 1.50000000000000000000e+03) (129, 1.50000000000000000000e+03) (130, 1.50000000000000000000e+03) (131, 1.50000000000000000000e+03) (132, 1.45247999330520588046e+03) (133, 5.27469502557176383561e+02) (134, 1.29079999079704271026e+03) (135, 1.50000000000000000000e+03) (136, 1.50000000000000000000e+03) (137, 1.50000000000000000000e+03) (138, 1.09775286436481928831e+03) (139, 1.49638496507269746871e+03) (140, 1.50000000000000000000e+03) (141, 1.50000000000000000000e+03) (142, 1.50000000000000000000e+03) (143, -1.50000000000000000000e+03) (144, 4.21614457068475871893e+02) (145, 1.46999999880790710449e+03) (146, 1.50000000000000000000e+03) (147, 1.50000000000000000000e+03) (148, 1.50000000000000000000e+03) (149, 1.50000000000000000000e+03) (150, 1.50000000000000000000e+03) (151, 1.50000000000000000000e+03) (152, 1.50000000000000000000e+03) (153, 1.49981369649751468387e+03) (154, 1.47113216058579655510e+03) (155, 1.49134762098468013392e+03) (156, 1.50000000000000000000e+03) (157, 1.50000000000000000000e+03) (158, 1.50000000000000000000e+03) (159, 1.50000000000000000000e+03) (160, 1.43399999594688415527e+03) (161, -1.10837789560800501931e+03) (162, -5.20860136435641948083e+02) (163, 1.50000000000000000000e+03) (164, 1.50000000000000000000e+03) (165, 1.50000000000000000000e+03) (166, 1.49611199922752371094e+03) (167, 1.49638496507269746871e+03) (168, 1.50000000000000000000e+03) (169, 1.48199999856948852539e+03) (170, 1.50000000000000000000e+03) (171, -1.50000000000000000000e+03) (172, 1.50000000000000000000e+03) (173, 1.50000000000000000000e+03) (174, 1.50000000000000000000e+03) (175, 1.50000000000000000000e+03) (176, 1.50000000000000000000e+03) (177, 1.50000000000000000000e+03) (178, 1.50000000000000000000e+03) (179, 1.50000000000000000000e+03) (180, 1.50000000000000000000e+03) (181, 1.46999999880790710449e+03) (182, 1.46999999880790710449e+03) (183, 1.50000000000000000000e+03) (184, 1.50000000000000000000e+03) (185, 1.50000000000000000000e+03) (186, 1.50000000000000000000e+03) (187, 1.50000000000000000000e+03) (188, 1.50000000000000000000e+03) (189, 1.50000000000000000000e+03) (190, 1.50000000000000000000e+03) (191, 1.50000000000000000000e+03) (192, 1.50000000000000000000e+03) (193, 1.50000000000000000000e+03) (194, 1.50000000000000000000e+03) (195, 1.29079999079704271026e+03) (196, 1.50000000000000000000e+03) (197, 1.50000000000000000000e+03) (198, 1.50000000000000000000e+03) (199, 1.46999999880790710449e+03) (200, 1.50000000000000000000e+03) (201, 1.50000000000000000000e+03) (202, 1.50000000000000000000e+03) (203, 1.50000000000000000000e+03) (204, 1.50000000000000000000e+03) (205, 1.50000000000000000000e+03) (206, 1.50000000000000000000e+03) (207, 1.50000000000000000000e+03) (208, 1.50000000000000000000e+03) (209, 1.50000000000000000000e+03) (210, 1.50000000000000000000e+03) (211, 1.50000000000000000000e+03) (212, 1.50000000000000000000e+03) (213, 1.50000000000000000000e+03) (214, 1.50000000000000000000e+03) (215, 1.50000000000000000000e+03) (216, 1.50000000000000000000e+03) (217, 1.50000000000000000000e+03) (218, 1.50000000000000000000e+03) (219, 1.50000000000000000000e+03) (220, 1.50000000000000000000e+03) (221, 1.50000000000000000000e+03) (222, 1.50000000000000000000e+03) (223, 1.29079999079704271026e+03) (224, 1.50000000000000000000e+03) (225, 1.39279999115467057891e+03) (226, 1.50000000000000000000e+03) (227, 1.50000000000000000000e+03) (228, 1.50000000000000000000e+03) (229, 1.50000000000000000000e+03) (230, 1.50000000000000000000e+03) (231, 1.50000000000000000000e+03) (232, 1.50000000000000000000e+03) (233, 1.50000000000000000000e+03) (234, 1.50000000000000000000e+03) (235, 1.50000000000000000000e+03) (236, 1.50000000000000000000e+03) (237, 1.50000000000000000000e+03) (238, 1.50000000000000000000e+03) (239, 1.50000000000000000000e+03) (240, 1.50000000000000000000e+03) (241, 1.50000000000000000000e+03) (242, 1.50000000000000000000e+03) (243, 1.50000000000000000000e+03) (244, 1.50000000000000000000e+03) (245, 1.50000000000000000000e+03) (246, 1.50000000000000000000e+03) (247, 1.50000000000000000000e+03) (248, 1.50000000000000000000e+03) (249, 1.50000000000000000000e+03) (250, 1.50000000000000000000e+03) (251, 1.50000000000000000000e+03) (252, 1.50000000000000000000e+03) (253, -1.38124735140795201005e+03) (254, 1.50000000000000000000e+03) (255, 1.50000000000000000000e+03) (256, 1.50000000000000000000e+03) (257, 1.50000000000000000000e+03) (258, 1.50000000000000000000e+03) (259, 1.50000000000000000000e+03) (260, 1.50000000000000000000e+03) (261, 1.50000000000000000000e+03) (262, 1.50000000000000000000e+03) (263, 1.50000000000000000000e+03) (264, 1.50000000000000000000e+03) (265, 1.50000000000000000000e+03) (266, 1.50000000000000000000e+03) (267, 1.50000000000000000000e+03) (268, 1.50000000000000000000e+03) (269, 1.50000000000000000000e+03) (270, 1.50000000000000000000e+03) (271, 1.50000000000000000000e+03) (272, 1.50000000000000000000e+03) (273, 1.50000000000000000000e+03) (274, 1.50000000000000000000e+03) (275, 1.50000000000000000000e+03) (276, 1.50000000000000000000e+03) (277, 1.50000000000000000000e+03) (278, 1.50000000000000000000e+03) (279, 1.50000000000000000000e+03) (280, 1.50000000000000000000e+03) (281, -2.06641584815921035556e+01) (282, 1.50000000000000000000e+03) (283, 1.50000000000000000000e+03) (284, 1.50000000000000000000e+03) (285, 1.50000000000000000000e+03) (286, 1.50000000000000000000e+03) (287, 1.50000000000000000000e+03) (288, 1.50000000000000000000e+03) (289, 1.50000000000000000000e+03) (290, 1.50000000000000000000e+03) (291, 1.50000000000000000000e+03) (292, 1.50000000000000000000e+03) (293, 1.50000000000000000000e+03) (294, 9.37670809238999858337e+00) (295, 1.50000000000000000000e+03) (296, 1.50000000000000000000e+03) (297, 1.50000000000000000000e+03) (298, 1.50000000000000000000e+03) (299, 1.50000000000000000000e+03) (300, 1.50000000000000000000e+03) (301, 1.50000000000000000000e+03) (302, 1.50000000000000000000e+03) (303, 1.50000000000000000000e+03) (304, 1.50000000000000000000e+03) (305, 1.50000000000000000000e+03) (306, 1.50000000000000000000e+03) (307, 1.50000000000000000000e+03) (308, 1.50000000000000000000e+03) (309, 1.24979998674392686553e+03) (310, 1.50000000000000000000e+03) (311, 1.50000000000000000000e+03) (312, 1.50000000000000000000e+03) (313, 1.50000000000000000000e+03) (314, 1.50000000000000000000e+03) (315, 1.50000000000000000000e+03) (316, 1.50000000000000000000e+03) (317, 1.50000000000000000000e+03) (318, 1.50000000000000000000e+03) (319, 1.50000000000000000000e+03) (320, 1.50000000000000000000e+03) (321, 1.46999999880790710449e+03) (322, -5.30002536760528073501e+02) (323, -1.47763197923577263282e+03) (324, 1.09859505590419850307e+01) (325, 1.50000000000000000000e+03) (326, 1.50000000000000000000e+03) (327, 1.50000000000000000000e+03) (328, 1.50000000000000000000e+03) (329, 1.50000000000000000000e+03) (330, 1.50000000000000000000e+03) (331, 1.50000000000000000000e+03) (332, 1.50000000000000000000e+03) (333, 1.50000000000000000000e+03) (334, 1.50000000000000000000e+03) (335, -1.36579999079704271026e+03) (336, 1.50000000000000000000e+03) (337, 1.50000000000000000000e+03) (338, 1.50000000000000000000e+03) (339, 1.50000000000000000000e+03) (340, 1.50000000000000000000e+03) (341, 1.50000000000000000000e+03) (342, 1.50000000000000000000e+03) (343, 1.50000000000000000000e+03) (344, 1.50000000000000000000e+03) (345, 1.50000000000000000000e+03) (346, 1.50000000000000000000e+03) (347, 1.50000000000000000000e+03) (348, 1.50000000000000000000e+03) (349, 2.16008566396972234713e+00) (350, -1.45821316367243389323e+03) (351, -1.45964571294179381766e+03) (352, 3.41441262372226050914e+00) (353, 1.50000000000000000000e+03) (354, 1.50000000000000000000e+03) (355, 1.50000000000000000000e+03) (356, 1.50000000000000000000e+03) (357, 1.50000000000000000000e+03) (358, 1.50000000000000000000e+03) (359, 1.50000000000000000000e+03) (360, 1.50000000000000000000e+03) (361, 1.50000000000000000000e+03) (362, 1.50000000000000000000e+03) (363, 1.49690005432715611278e+03) (364, -1.50000000000000000000e+03) (365, 1.50000000000000000000e+03) (366, 1.50000000000000000000e+03) (367, 1.50000000000000000000e+03) (368, 1.50000000000000000000e+03) (369, 1.50000000000000000000e+03) (370, 1.50000000000000000000e+03) (371, 1.50000000000000000000e+03) (372, 1.50000000000000000000e+03) (373, 1.50000000000000000000e+03) (374, 1.50000000000000000000e+03) (375, 1.50000000000000000000e+03) (376, 1.50000000000000000000e+03) (377, -8.31941015064205657836e+00) (378, -1.50000000000000000000e+03) (379, -1.50000000000000000000e+03) (380, 1.50000000000000000000e+03) (381, 1.50000000000000000000e+03) (382, 1.50000000000000000000e+03) (383, 1.50000000000000000000e+03) (384, 1.50000000000000000000e+03) (385, 1.50000000000000000000e+03) (386, 1.50000000000000000000e+03) (387, 1.50000000000000000000e+03) (388, 1.50000000000000000000e+03) (389, 1.50000000000000000000e+03) (390, -1.50000000000000000000e+03) (391, 1.50000000000000000000e+03) (392, 1.50000000000000000000e+03) (393, 1.49124104615342798752e+03) (394, 1.50000000000000000000e+03) (395, 1.50000000000000000000e+03) (396, 1.50000000000000000000e+03) (397, 1.50000000000000000000e+03) (398, 1.50000000000000000000e+03) (399, 1.50000000000000000000e+03) (400, 1.50000000000000000000e+03) (401, 1.50000000000000000000e+03) (402, 1.50000000000000000000e+03) (403, 1.50000000000000000000e+03) (404, 1.50000000000000000000e+03) (405, -1.40811199806880949836e+03) (406, -1.50000000000000000000e+03) (407, -1.47480656199825261865e+03) (408, 1.50000000000000000000e+03) (409, 1.50000000000000000000e+03) (410, 1.50000000000000000000e+03) (411, 1.50000000000000000000e+03) (412, 1.50000000000000000000e+03) (413, 1.50000000000000000000e+03) (414, 1.50000000000000000000e+03) (415, 1.50000000000000000000e+03) (416, 1.50000000000000000000e+03) (417, 1.50000000000000000000e+03) (418, 1.50000000000000000000e+03) (419, 1.50000000000000000000e+03) (420, 1.50000000000000000000e+03) (421, 1.47119999728202810729e+03) (422, 1.50000000000000000000e+03) (423, 1.50000000000000000000e+03) (424, 1.50000000000000000000e+03) (425, 1.50000000000000000000e+03) (426, 1.50000000000000000000e+03) (427, 1.50000000000000000000e+03) (428, 1.50000000000000000000e+03) (429, 1.50000000000000000000e+03) (430, 1.50000000000000000000e+03) (431, 1.50000000000000000000e+03) (432, -9.24544675100780466437e+00) (433, -1.40811199806880949836e+03) (434, -1.50000000000000000000e+03) (435, -1.27426815942667004400e+00) (436, 1.50000000000000000000e+03) (437, 1.50000000000000000000e+03) (438, 1.50000000000000000000e+03) (439, 1.50000000000000000000e+03) (440, 1.50000000000000000000e+03) (441, 1.50000000000000000000e+03) (442, 1.50000000000000000000e+03) (443, 1.50000000000000000000e+03) (444, 1.50000000000000000000e+03) (445, 1.50000000000000000000e+03) (446, -1.50000000000000000000e+03) (447, 1.50000000000000000000e+03) (448, 1.50000000000000000000e+03) (449, -5.78371784190655716884e+02) (450, 1.43399999594688415527e+03) (451, 1.50000000000000000000e+03) (452, 1.50000000000000000000e+03) (453, 1.50000000000000000000e+03) (454, 1.50000000000000000000e+03) (455, 1.50000000000000000000e+03) (456, 1.50000000000000000000e+03) (457, 1.50000000000000000000e+03) (458, 1.50000000000000000000e+03) (459, 1.50000000000000000000e+03) (460, -5.24352558533639836469e+01) (461, -1.47480656199825261865e+03) (462, -1.50000000000000000000e+03) (463, 5.25993572817419430265e+00) (464, 1.50000000000000000000e+03) (465, 1.50000000000000000000e+03) (466, 1.50000000000000000000e+03) (467, 1.50000000000000000000e+03) (468, 1.50000000000000000000e+03) (469, 1.50000000000000000000e+03) (470, 1.50000000000000000000e+03) (471, 1.50000000000000000000e+03) (472, 1.50000000000000000000e+03) (473, 1.50000000000000000000e+03) (474, -1.50000000000000000000e+03) (475, 4.52775078985410516452e+02) (476, 1.50000000000000000000e+03) (477, 9.24292108623887429530e+02) (478, -1.50000000000000000000e+03) (479, 1.50000000000000000000e+03) (480, 1.50000000000000000000e+03) (481, 1.50000000000000000000e+03) (482, 1.50000000000000000000e+03) (483, 1.50000000000000000000e+03) (484, 1.50000000000000000000e+03) (485, 1.50000000000000000000e+03) (486, 1.50000000000000000000e+03) (487, 1.50000000000000000000e+03) (488, -9.86862375789321390585e+02) (489, -1.45964571294179381766e+03) (490, -1.42755776956341787809e+03) (491, 1.50000000000000000000e+03) (492, 1.50000000000000000000e+03) (493, 1.50000000000000000000e+03) (494, 1.50000000000000000000e+03) (495, 1.50000000000000000000e+03) (496, 1.50000000000000000000e+03) (497, 1.50000000000000000000e+03) (498, 1.50000000000000000000e+03) (499, 1.50000000000000000000e+03) (500, 1.50000000000000000000e+03) (501, 1.50000000000000000000e+03) (502, 1.50000000000000000000e+03) (503, -1.41793860307735803872e+03) (504, 1.50000000000000000000e+03) (505, 1.50000000000000000000e+03) (506, 1.46999999880790710449e+03) (507, 1.50000000000000000000e+03) (508, 1.50000000000000000000e+03) (509, 1.50000000000000000000e+03) (510, 1.50000000000000000000e+03) (511, 1.50000000000000000000e+03) (512, 1.50000000000000000000e+03) (513, 1.50000000000000000000e+03) (514, 1.50000000000000000000e+03) (515, 1.50000000000000000000e+03) (516, -8.94001934959738377984e+02) (517, -1.02191047385958268023e+03) (518, 9.48270148260914824689e-01) (519, 1.50000000000000000000e+03) (520, 1.50000000000000000000e+03) (521, 1.50000000000000000000e+03) (522, 1.50000000000000000000e+03) (523, 1.50000000000000000000e+03) (524, 1.50000000000000000000e+03) (525, 1.50000000000000000000e+03) (526, 1.50000000000000000000e+03) (527, 1.50000000000000000000e+03) (528, 1.50000000000000000000e+03) (529, 1.50000000000000000000e+03) (530, 1.50000000000000000000e+03) (531, 1.58934828847877099633e+02) (532, -1.50000000000000000000e+03) (533, 1.50000000000000000000e+03) (534, 1.50000000000000000000e+03) (535, 1.50000000000000000000e+03) (536, 1.50000000000000000000e+03) (537, 1.50000000000000000000e+03) (538, 1.50000000000000000000e+03) (539, 1.50000000000000000000e+03) (540, 1.50000000000000000000e+03) (541, 1.50000000000000000000e+03) (542, 1.50000000000000000000e+03) (543, 1.50000000000000000000e+03) (544, 1.50000000000000000000e+03) (545, 7.60693363552825076113e+02) (546, 1.50000000000000000000e+03) (547, 1.50000000000000000000e+03) (548, 1.50000000000000000000e+03) (549, 1.50000000000000000000e+03) (550, 1.50000000000000000000e+03) (551, 1.50000000000000000000e+03) (552, 1.50000000000000000000e+03) (553, 1.50000000000000000000e+03) (554, 1.50000000000000000000e+03) (555, 1.50000000000000000000e+03) (556, 1.50000000000000000000e+03) (557, 1.50000000000000000000e+03) (558, 1.40759039204215969221e+03) (559, 1.50000000000000000000e+03) (560, 1.50000000000000000000e+03) (561, 1.41704485153986979640e+03) (562, 1.50000000000000000000e+03) (563, 1.50000000000000000000e+03) (564, 1.50000000000000000000e+03) (565, 1.50000000000000000000e+03) (566, 1.50000000000000000000e+03) (567, 1.50000000000000000000e+03) (568, 1.50000000000000000000e+03) (569, 1.50000000000000000000e+03) (570, 1.50000000000000000000e+03) (571, 1.50000000000000000000e+03) (572, 1.50000000000000000000e+03) (573, 1.50000000000000000000e+03) (574, 1.50000000000000000000e+03) (575, 1.50000000000000000000e+03) (576, 1.50000000000000000000e+03) (577, 1.50000000000000000000e+03) (578, 1.50000000000000000000e+03) (579, 1.50000000000000000000e+03) (580, 1.50000000000000000000e+03) (581, 1.50000000000000000000e+03) (582, 1.50000000000000000000e+03) (583, 1.50000000000000000000e+03) (584, 1.50000000000000000000e+03) (585, 1.50000000000000000000e+03) (586, 8.89522485140521212088e+02) (587, 1.50000000000000000000e+03) (588, -1.08779998996257768340e+03) (589, 1.41704485153986979640e+03) (590, 1.50000000000000000000e+03) (591, 1.50000000000000000000e+03) (592, 1.50000000000000000000e+03) (593, 1.50000000000000000000e+03) (594, 1.50000000000000000000e+03) (595, 1.50000000000000000000e+03) (596, 1.50000000000000000000e+03) (597, 1.50000000000000000000e+03) (598, 1.50000000000000000000e+03) (599, 1.50000000000000000000e+03) (600, 1.50000000000000000000e+03) (601, 1.50000000000000000000e+03) (602, 1.50000000000000000000e+03) (603, 1.50000000000000000000e+03) (604, 1.50000000000000000000e+03) (605, 1.50000000000000000000e+03) (606, 1.50000000000000000000e+03) (607, 1.50000000000000000000e+03) (608, 1.50000000000000000000e+03) (609, 1.50000000000000000000e+03) (610, 1.50000000000000000000e+03) (611, 1.50000000000000000000e+03) (612, 1.50000000000000000000e+03) (613, 1.50000000000000000000e+03) (614, 1.37213153158668637843e+03) (615, 1.50000000000000000000e+03) (616, -1.08779998996257768340e+03) (617, 1.50000000000000000000e+03) (618, 1.50000000000000000000e+03) (619, 1.50000000000000000000e+03) (620, 1.40402862102338917794e+03) (621, 6.53874201295975467474e+02) (622, 1.50000000000000000000e+03) (623, 1.50000000000000000000e+03) (624, 1.50000000000000000000e+03) (625, 1.50000000000000000000e+03) (626, 1.50000000000000000000e+03) (627, 1.50000000000000000000e+03) (628, 1.50000000000000000000e+03) (629, 1.50000000000000000000e+03) (630, 1.50000000000000000000e+03) (631, 1.50000000000000000000e+03) (632, 1.50000000000000000000e+03) (633, 1.50000000000000000000e+03) (634, 1.46999999880790710449e+03) (635, 1.48387568063349522163e+03) (636, 1.50000000000000000000e+03) (637, 1.50000000000000000000e+03) (638, 1.50000000000000000000e+03) (639, 1.50000000000000000000e+03) (640, 1.50000000000000000000e+03) (641, 1.50000000000000000000e+03) (642, -1.27432470198194346267e+03) (643, 1.50000000000000000000e+03) (644, 1.50000000000000000000e+03) (645, 1.50000000000000000000e+03) (646, 1.50000000000000000000e+03) (647, 1.50000000000000000000e+03) (648, -1.50000000000000000000e+03) (649, -1.50000000000000000000e+03) (650, 2.08766814022963103525e+02) (651, 1.44228874535516752076e+03) (652, 1.50000000000000000000e+03) (653, 1.50000000000000000000e+03) (654, 1.50000000000000000000e+03) (655, 1.50000000000000000000e+03) (656, 1.50000000000000000000e+03) (657, 1.50000000000000000000e+03) (658, 1.50000000000000000000e+03) (659, 1.46999999880790710449e+03) (660, 1.46999999880790710449e+03) (661, 1.49841369296352604579e+03) (662, 1.09987318057324750953e+03) (663, 1.49610485741462093756e+03) (664, 1.50000000000000000000e+03) (665, 1.50000000000000000000e+03) (666, 1.50000000000000000000e+03) (667, 1.50000000000000000000e+03) (668, 1.50000000000000000000e+03) (669, -2.02248403784616101575e+02) (670, -1.50000000000000000000e+03) (671, 1.50000000000000000000e+03) (672, 1.50000000000000000000e+03) (673, 1.50000000000000000000e+03) (674, 1.50000000000000000000e+03) (675, 1.50000000000000000000e+03) (676, 1.50000000000000000000e+03) (677, 1.50000000000000000000e+03) (678, 1.50000000000000000000e+03) (679, 1.50000000000000000000e+03) (680, 1.50000000000000000000e+03) (681, 1.50000000000000000000e+03) (682, 1.50000000000000000000e+03) (683, 1.50000000000000000000e+03) (684, 1.50000000000000000000e+03) (685, 1.50000000000000000000e+03) (686, 1.50000000000000000000e+03) (687, 1.50000000000000000000e+03) (688, 1.50000000000000000000e+03) (689, 1.50000000000000000000e+03) (690, 1.40771977238681552080e+03) (691, 1.50000000000000000000e+03) (692, 1.50000000000000000000e+03) (693, 1.31451003333519133776e+03) (694, -9.03735217743355406128e+02) (695, 1.50000000000000000000e+03) (696, 1.50000000000000000000e+03) (697, -1.02052858546800143813e+03) (698, -1.50000000000000000000e+03) (699, 1.50000000000000000000e+03) (700, 1.50000000000000000000e+03) (701, 1.50000000000000000000e+03) (702, 1.50000000000000000000e+03) (703, 1.50000000000000000000e+03) (704, -2.72198642458133690525e+01) (705, 1.50000000000000000000e+03) (706, 1.50000000000000000000e+03) (707, 1.50000000000000000000e+03) (708, 1.50000000000000000000e+03) (709, 1.50000000000000000000e+03) (710, 1.50000000000000000000e+03) (711, 1.50000000000000000000e+03) (712, 1.50000000000000000000e+03) (713, 1.50000000000000000000e+03) (714, 1.50000000000000000000e+03) (715, 1.50000000000000000000e+03) (716, 1.50000000000000000000e+03) (717, 1.50000000000000000000e+03) (718, 1.50000000000000000000e+03) (719, 1.50000000000000000000e+03) (720, 1.50000000000000000000e+03) (721, 1.50000000000000000000e+03) (722, 1.50000000000000000000e+03) (723, 1.50000000000000000000e+03) (724, 1.50000000000000000000e+03) (725, 1.50000000000000000000e+03) (726, 1.42819999370574919340e+03) (727, 1.50000000000000000000e+03) (728, 1.50000000000000000000e+03) (729, 1.50000000000000000000e+03) (730, 1.50000000000000000000e+03) (731, 1.50000000000000000000e+03) (732, 1.00079999020099626250e+03) (733, 5.82061396922642188656e+02) (734, 1.50000000000000000000e+03) (735, 1.50000000000000000000e+03) (736, 1.50000000000000000000e+03) (737, 1.50000000000000000000e+03) (738, 1.50000000000000000000e+03) (739, 1.50000000000000000000e+03) (740, 1.50000000000000000000e+03) (741, 1.50000000000000000000e+03) (742, 1.50000000000000000000e+03) (743, 1.50000000000000000000e+03) (744, 1.50000000000000000000e+03) (745, 1.50000000000000000000e+03) (746, 1.50000000000000000000e+03) (747, 1.50000000000000000000e+03) (748, 1.50000000000000000000e+03) (749, 1.50000000000000000000e+03) (750, 1.50000000000000000000e+03) (751, 1.50000000000000000000e+03) (752, -2.92582462989411737908e+01) (753, 1.50000000000000000000e+03) (754, 1.50000000000000000000e+03) (755, 1.50000000000000000000e+03) (756, 1.50000000000000000000e+03) (757, 1.50000000000000000000e+03) (758, 1.50000000000000000000e+03) (759, 1.50000000000000000000e+03) (760, 1.50000000000000000000e+03) (761, 1.50000000000000000000e+03) (762, 1.50000000000000000000e+03) (763, 1.50000000000000000000e+03) (764, 1.50000000000000000000e+03) (765, 1.50000000000000000000e+03) (766, 1.50000000000000000000e+03) (767, 1.50000000000000000000e+03) (768, 1.50000000000000000000e+03) (769, 1.50000000000000000000e+03) (770, 1.50000000000000000000e+03) (771, 1.50000000000000000000e+03) (772, 1.50000000000000000000e+03) (773, 1.50000000000000000000e+03) (774, 1.50000000000000000000e+03) (775, 1.50000000000000000000e+03) (776, 4.22251355514232272981e+02) (777, 1.50000000000000000000e+03) (778, 1.50000000000000000000e+03) (779, 1.50000000000000000000e+03) (780, 1.50000000000000000000e+03) (781, 1.50000000000000000000e+03) (782, 1.50000000000000000000e+03) (783, 1.50000000000000000000e+03) (784, 1.50000000000000000000e+03) (0, 1.50000000000000000000e+03) (1, 1.50000000000000000000e+03) (2, 1.50000000000000000000e+03) (3, 1.50000000000000000000e+03) (4, 1.50000000000000000000e+03) (5, 1.50000000000000000000e+03) (6, 1.50000000000000000000e+03) (7, 1.50000000000000000000e+03) (8, 1.50000000000000000000e+03) (9, 1.50000000000000000000e+03) (10, 1.50000000000000000000e+03) (11, 1.50000000000000000000e+03) (12, 1.02409132502063879855e+01) (13, 2.04378417602385259455e-01) (14, 5.36938926563125118463e+00) (15, 5.32640220210414483404e+00) (16, 1.50000000000000000000e+03) (17, 1.50000000000000000000e+03) (18, 1.50000000000000000000e+03) (19, 1.50000000000000000000e+03) (20, 1.50000000000000000000e+03) (21, 1.50000000000000000000e+03) (22, 1.50000000000000000000e+03) (23, 1.50000000000000000000e+03) (24, 1.50000000000000000000e+03) (25, 1.50000000000000000000e+03) (26, 1.50000000000000000000e+03) (27, 1.50000000000000000000e+03) (28, 1.50000000000000000000e+03) (29, 1.50000000000000000000e+03) (30, 1.50000000000000000000e+03) (31, 1.50000000000000000000e+03) (32, -3.83377473801555822774e+02) (33, -6.12340271254975760939e+01) (34, 2.04700465368115303022e+00) (35, -1.80209062784642810584e+01) (36, 9.32068798183914082323e-01) (37, -1.12289129056745409230e+01) (38, 2.77823987361933397722e+01) (39, -1.51871528760877829711e+01) (40, 6.97255120061160127420e+00) (41, 1.18238045147135615309e+01) (42, -1.97587615580005717675e+01) (43, 2.12500668284127236518e+01) (44, 1.86637544969707080966e+00) (45, 6.02200639995779507530e+00) (46, -7.77065233803541755009e+00) (47, 1.16475193813377604357e+01) (48, 2.10766135274638806152e+01) (49, 2.64481958706623920818e+00) (50, 1.27308453856382488567e+01) (51, 2.87384849237057906635e+01) (52, 1.50000000000000000000e+03) (53, 1.50000000000000000000e+03) (54, 1.50000000000000000000e+03) (55, 1.50000000000000000000e+03) (56, 1.50000000000000000000e+03) (57, 1.50000000000000000000e+03) (58, -1.71266991597990454466e+02) (59, 9.39524560808268461187e+02) (60, 1.70854125133020566807e+01) (61, 7.64972734302737222833e+01) (62, 5.27259565458585441888e+01) (63, 3.88132387498187299002e+01) (64, 5.32702136147680533895e+01) (65, -1.22645084754560085294e+00) (66, 3.05105941969771521372e+01) (67, 1.32756359076127949947e+01) (68, 1.98988817027208284571e+01) (69, 1.76840080928310676711e+01) (70, 5.48724132638345452051e+00) (71, 1.45947095544710041537e+01) (72, -1.53771694722417362478e-01) (73, 8.35277968760174438501e+00) (74, 1.05454835227682064414e+01) (75, -4.79478341143077013697e+00) (76, -4.40386350666297143874e+00) (77, 2.48087873105650080774e+00) (78, 8.77136004927245305218e-03) (79, 3.00537092000181615958e+01) (80, 3.81945304264146372475e+01) (81, -5.07053200693597858617e+01) (82, 1.50000000000000000000e+03) (83, 1.50000000000000000000e+03) (84, 1.50000000000000000000e+03) (85, 1.50000000000000000000e+03) (86, 3.95065084706045354324e+02) (87, 3.92737832624423433003e+01) (88, 1.50000000000000000000e+03) (89, -2.10146911712987431997e+01) (90, -3.82658130078559537424e+01) (91, 3.59895434096926791767e+00) (92, -5.61054845982838745755e+00) (93, -1.38488826140905019191e-01) (94, -2.31235182054039707655e-02) (95, 1.68922972622019962330e+00) (96, -1.17869964734599737000e+01) (97, -4.14112908863916162616e-01) (98, -3.01365146995383303974e+00) (99, -2.88620997728370298763e-01) (100, 7.20774520102907212404e-01) (101, -2.86515634525820983569e+00) (102, 2.42351643930307192321e+00) (103, -1.02068512197716776413e+00) (104, 5.04235155464261702862e-02) (105, 1.02556389993103369562e+00) (106, -3.90426001643992259815e+00) (107, 4.24742172011294893963e+00) (108, 4.08267525945524845099e+00) (109, -4.90984976665358097137e+00) (110, 9.69315016840650400809e+00) (111, 1.50000000000000000000e+03) (112, 1.50000000000000000000e+03) (113, -1.50000000000000000000e+03) (114, -1.29941718494049212040e+02) (115, 3.80856430046848686288e+02) (116, -3.49835562337429664126e+01) (117, -1.47988466696259157729e+00) (118, -1.00639108967715280585e+01) (119, -8.77518379460187625263e-03) (120, -2.41350370854368145856e+00) (121, -1.76050020406054330557e+00) (122, -1.65375732553470844444e+00) (123, -5.39658667930767235732e-02) (124, 2.53317937640504253771e-01) (125, 5.86150714329914279688e-01) (126, 8.35841151596359188680e-01) (127, 3.59730179577282371817e-01) (128, -4.38439419114857786841e-01) (129, 9.08962501771620745572e-01) (130, -1.77557531334111458332e-02) (131, 5.57987600365759228715e-01) (132, 1.96410167684361591789e-02) (133, 1.53513248601237561886e+00) (134, -2.73308728613440532484e+00) (135, -1.03958841928263545640e-01) (136, -4.75911700729677900057e+00) (137, -3.62290203548703670933e+00) (138, 3.47108157598156807921e+00) (139, -8.77217758604632358299e+00) (140, 1.50000000000000000000e+03) (141, 1.50000000000000000000e+03) (142, 3.70808972984181480115e+02) (143, 3.06845223020909884326e+02) (144, -1.50000000000000000000e+03) (145, -7.45831532924687290453e-01) (146, -1.24855322401151127565e+01) (147, 1.35718721504117123544e+00) (148, -1.15322663420345294938e+00) (149, -6.38989211807455381731e-01) (150, -2.54061773805607737931e-01) (151, -3.58853747361603664379e-02) (152, 1.01065347673923322525e+00) (153, 1.00714815928486856045e+00) (154, 1.81726807165278281264e-01) (155, 2.59385684181228315381e-01) (156, 2.80208072585877467076e-02) (157, 3.40071802852259352790e-01) (158, 2.72171269111036173705e-01) (159, 2.64739655880468438554e-01) (160, 1.32871244105845054406e-01) (161, -1.20919289388437770777e-02) (162, 1.29310910611752172272e+00) (163, -1.42538835535879093719e+00) (164, -1.51625479547058872321e+00) (165, 5.39681517446481850975e-01) (166, -1.22006951470247027025e+00) (167, 9.99201703326937895611e+00) (168, 1.50000000000000000000e+03) (169, -1.50000000000000000000e+03) (170, -1.50000000000000000000e+03) (171, -1.50000000000000000000e+03) (172, -1.46138948741890271776e+03) (173, -9.39469564391255507196e-01) (174, 2.02640330800865875460e+00) (175, -8.45244459246244028705e-01) (176, -1.02238333120401958531e+00) (177, -1.45038091692234027974e+00) (178, -1.07829425188248517742e+00) (179, -4.64554811346514051618e-01) (180, 8.94508382160557058427e-02) (181, 1.88014660267373456826e-01) (182, 4.03296406628184833654e-01) (183, 4.01515253626497758965e-01) (184, 3.21790959660568531842e-01) (185, 2.43745145000733270946e-01) (186, 1.83651457950143093267e-01) (187, 1.33869922447805794752e-01) (188, 9.06689918090618079960e-02) (189, 1.47485027563169474041e-01) (190, -1.88685841559068645523e-02) (191, 1.46319351937442454492e+00) (192, -1.63880043738554226351e+00) (193, 1.20579376940847304844e+00) (194, 1.03601377881732248376e+00) (195, -1.03407050294180038463e+01) (196, -1.00573865469855456922e+03) (197, -2.80956510236978047601e+01) (198, 1.50000000000000000000e+03) (199, -1.50000000000000000000e+03) (200, 4.62576670883582075078e+00) (201, -2.96830213087811678463e+00) (202, -2.60838080857376652943e+00) (203, -4.79984951163806683461e-01) (204, -2.12469354226791667939e-01) (205, -8.40619220722711446570e-02) (206, 6.42348872884222852481e-03) (207, -4.92668827521981211870e-01) (208, 1.53017455134040719633e-01) (209, 2.78525026223960907312e-02) (210, 1.02706532570743455657e-01) (211, 1.73968559833028363348e-01) (212, 1.89303825340304238134e-01) (213, 4.82739990113418282469e-02) (214, 7.93194019204211675511e-02) (215, 7.64401635574318838451e-02) (216, 4.88479156276300924278e-02) (217, 3.77391970677092902786e-01) (218, -8.77885336379089359360e-02) (219, -8.77533098712547143805e-01) (220, -4.08042302498341780126e-01) (221, -6.34717238377451842268e+00) (222, 2.97706661344900025412e+00) (223, -1.50526919073832150531e+01) (224, 2.89960792022206526042e+01) (225, 1.74970162875831931615e+01) (226, -1.50000000000000000000e+03) (227, -1.50000000000000000000e+03) (228, -1.20113567752347072393e+00) (229, -2.55862684544725116353e+00) (230, -2.69066533369227867123e-01) (231, 5.84112184372139742194e-02) (232, 1.86019576547375248277e-01) (233, 1.54692411006152663600e-01) (234, 1.54784301556691178403e-01) (235, -1.20831239045315827485e-01) (236, -1.67279779253642520154e-02) (237, 1.70312345122355518479e-01) (238, -1.90319742234577121698e-01) (239, 1.48209072104359407263e-01) (240, 3.13914038800619465963e-01) (241, 2.32984807446210584470e-01) (242, -2.42546912642813694561e-02) (243, -4.01211477030311070013e-01) (244, -2.93389498064532388416e-03) (245, 1.43269028503432566124e-01) (246, 1.17294759514289428926e-01) (247, 3.29814717430186921110e-01) (248, -3.81783858730428832251e-02) (249, -2.00240353598286846548e+00) (250, 9.21629396770413444884e-01) (251, 4.60267562231909543868e+00) (252, -1.50000000000000000000e+03) (253, 3.86469077885635847736e+00) (254, -1.50000000000000000000e+03) (255, -1.50000000000000000000e+03) (256, -5.01301665042517807791e+00) (257, 1.57468119578853316121e-01) (258, 4.03720220710564792199e-01) (259, 3.75296788802227443416e-01) (260, 1.12025336205147693636e-01) (261, -1.30824967086608262568e-01) (262, 3.35288281186686076829e-01) (263, 2.60536746109083228173e-01) (264, 1.96545945065724342316e-02) (265, 2.80318737184974631216e-01) (266, 8.88667698032939878949e-01) (267, -1.03249847711310983704e-03) (268, 2.30048419276381005405e-01) (269, 6.57999951266179661236e-02) (270, 2.86607672712694938610e-01) (271, -1.34669187911701238036e-01) (272, -3.80375113350675253532e-01) (273, 2.55795327655590140625e-02) (274, 1.14029486826917061948e-01) (275, 1.93832649751917274195e-01) (276, 2.35399631525124247711e-01) (277, -3.26625202243566414850e+00) (278, 9.21242496153397927294e-01) (279, -1.09957808313699416658e+01) (280, -1.50000000000000000000e+03) (281, 1.94181596012540391705e+00) (282, -1.50000000000000000000e+03) (283, -1.50000000000000000000e+03) (284, 6.61358208925013002499e+00) (285, -4.68372925985244104030e-01) (286, -7.80282975425966307537e-02) (287, 8.42235178954227170500e-01) (288, 9.19593219528885730263e-01) (289, 4.42165809736196124824e-01) (290, 9.03394220300567152293e-01) (291, 1.20458808870314765249e-01) (292, 2.75224353990649428514e-01) (293, 1.19202454231738430579e+00) (294, 7.09264159233598312504e-01) (295, -7.09877154460861192753e-01) (296, -7.82106575876143295112e-01) (297, -3.47462786192453298995e-01) (298, 2.56671169702333334950e-01) (299, -1.78730031512628589896e-01) (300, 1.10918050412811927674e-01) (301, 4.23710897238894101946e-01) (302, 6.99004326479844562137e-01) (303, 1.34559467734255777671e+00) (304, -1.44033724431220422346e+00) (305, -9.85629538767526369725e+00) (306, 1.72972183624939024327e+00) (307, 4.40814027189694996878e+01) (308, -1.50000000000000000000e+03) (309, 1.42853597242314378946e+02) (310, -1.50000000000000000000e+03) (311, -1.50000000000000000000e+03) (312, -3.52582298477780220480e+00) (313, -1.39715770165988528717e+00) (314, 6.14022076024524299243e-01) (315, 7.36531963573383019472e-01) (316, 6.09402005714526628921e-01) (317, 2.96036662925601323781e-01) (318, 2.91068009443293862493e-01) (319, 8.13548615294696353395e-02) (320, -5.32698170067966852992e-02) (321, 5.96981761185383263957e-01) (322, 3.30733191379926461106e-01) (323, -4.12125166813937349186e-01) (324, -6.37255450090042585565e-01) (325, -1.75078169678131700948e+00) (326, 2.54627017634929952994e-03) (327, -5.22150303347147792810e-02) (328, 1.29990459847447659136e+00) (329, 3.32031514828846519016e-01) (330, 1.29672747084774475645e+00) (331, 3.07542632310918540028e+00) (332, 1.02423362479256514490e+01) (333, 4.32502635774716637229e+00) (334, 4.55110882944947015005e+00) (335, 1.50000000000000000000e+03) (336, -1.50000000000000000000e+03) (337, -7.59304053610044775269e+02) (338, -1.50000000000000000000e+03) (339, -1.50000000000000000000e+03) (340, 4.37482639876788093058e-01) (341, -7.38600396872831077566e-02) (342, 6.33778858332242206464e-02) (343, 5.97660275832283816033e-02) (344, 4.21270964974523876023e-01) (345, 1.06697403788839983996e+00) (346, 2.80043033360094340001e-01) (347, -3.40947350453228825717e-01) (348, -9.77365436177859536748e-01) (349, -5.34628440569029431129e-02) (350, 2.00388570760500032975e-02) (351, -6.00176410691823702948e-01) (352, -5.91505911076954715710e-01) (353, -1.28065607601363296020e+00) (354, -1.44058252078868576085e-01) (355, -1.50594053359641238954e-01) (356, -1.13778719566733826918e-01) (357, 6.61602448697647171905e-01) (358, 5.04517270006106022251e-01) (359, 2.18080574660102444184e+00) (360, 2.88224469627586898923e+00) (361, 5.23519117039210279962e-01) (362, 4.56873447539291988040e-01) (363, 1.50000000000000000000e+03) (364, 1.50000000000000000000e+03) (365, 1.89156365726517094572e+02) (366, 1.50000000000000000000e+03) (367, -5.16318225106228283039e+02) (368, 9.68236547228892407979e-01) (369, -6.35016844615146625053e-01) (370, 2.21000613991222422117e-01) (371, -3.55212675876756922566e-01) (372, -5.58436173988186901340e-01) (373, 2.29578122552391211686e-01) (374, -7.55429180165979596850e-01) (375, -5.11617952450992702351e-02) (376, 3.75345850983723805516e-01) (377, 4.56579865278862739864e-02) (378, 3.15295046115379284934e-01) (379, 3.08098404391314480144e-02) (380, -9.24061707766009265974e-01) (381, -9.13598865851897423696e-01) (382, -4.50907107537680984510e-01) (383, -5.36373772018221339763e-01) (384, -2.72904533488514566830e-01) (385, -2.08783525431536709505e+00) (386, 8.10325708950067835623e-01) (387, 8.26723906277195053072e-01) (388, 3.01960465424947366309e-01) (389, -2.20106728478481672440e-01) (390, -4.20421018008819569189e+00) (391, 1.31086140834289244594e+03) (392, -1.50000000000000000000e+03) (393, -1.39099999451637268066e+03) (394, -2.09796577845431642118e+02) (395, -1.28560713268103927476e+03) (396, -1.39310675070522171914e+00) (397, -9.31472466416388034105e-01) (398, -6.21584056923022099106e-01) (399, -4.81092281104738728192e-01) (400, -9.96062952565494375001e-01) (401, -4.91239885373530416057e-01) (402, -5.50439112185783674391e-01) (403, 2.84164019615925855788e-01) (404, -2.12464885159761640576e-01) (405, 2.82690340513729709837e-01) (406, 1.78744186051629838641e-01) (407, -3.11775821119477242194e-02) (408, -7.40733491205534777535e-01) (409, -1.13642714811868872360e+00) (410, -7.82545876058292511068e-01) (411, -1.21676397498553012788e+00) (412, -3.55147455146719803754e-01) (413, 1.14649344227964716803e-01) (414, -2.83452842477095630358e-02) (415, -1.25413333836026130719e+00) (416, -9.71805778173252310381e-01) (417, 1.86075960517484761958e+00) (418, 3.29848497126235002952e+01) (419, -1.50000000000000000000e+03) (420, -1.50000000000000000000e+03) (421, -1.29079999079704271026e+03) (422, -1.50000000000000000000e+03) (423, -1.34192845196819462217e+03) (424, -2.17926247766320280164e+00) (425, -1.65472111597297855123e-01) (426, -5.87946081453802671390e-01) (427, -6.09177575673054305661e-01) (428, -1.22112834182596374788e+00) (429, -5.04711868948199637863e-01) (430, 3.80519724739957376780e-01) (431, -1.66706262069022843886e-02) (432, 2.84801697270645137738e-01) (433, 3.34802775218563886117e-01) (434, 2.31223852159680776097e-01) (435, -7.72613685284606471759e-02) (436, -1.00288850792086980945e+00) (437, -1.73655569750426197473e+00) (438, -8.12537782978741240925e-01) (439, -1.19596031872382901895e+00) (440, -1.19965064955416744752e+00) (441, -3.17554042102876188380e-01) (442, -2.80076199759003385825e-01) (443, 2.38592232724926495147e-01) (444, 2.27037472717852395476e+00) (445, 4.57149683119134309095e+00) (446, -9.56345884481095112051e+01) (447, 1.55170887189293807751e+02) (448, -1.43867885275283697410e+03) (449, -2.35425266284864335375e+02) (450, -1.50000000000000000000e+03) (451, -1.50000000000000000000e+03) (452, -2.20953743879062081135e+00) (453, -9.17770383399024725080e-01) (454, -1.65166336241996236645e+00) (455, -1.05575845620797492685e+00) (456, -4.11297544315951224547e-01) (457, 2.86059825076687923584e-01) (458, 3.18850165558110021369e-01) (459, 2.50249580399874160808e-01) (460, 3.05384995857630237026e-01) (461, 2.89876864614461604575e-01) (462, 4.18411744601425161783e-02) (463, -7.91520199843331773160e-01) (464, -8.24121467889429193399e-01) (465, -1.12585820403664138567e+00) (466, -1.01460334633505899760e+00) (467, -6.71966018426295330634e-01) (468, -6.32302214146130636685e-01) (469, -2.03789233785741563665e+00) (470, -1.36880605055095444511e-01) (471, -4.37566542161064719885e-01) (472, -2.49588422233333329103e+00) (473, -4.48371186730022963651e-01) (474, -9.20799991989135605763e+02) (475, 1.19894012565674486837e+02) (476, 1.50000000000000000000e+03) (477, 3.69925704607165869220e+02) (478, -1.50000000000000000000e+03) (479, -1.50000000000000000000e+03) (480, -3.15160752937380439498e-01) (481, -1.49381950770796829465e-03) (482, 4.61973513709481198308e-01) (483, -3.83026564660958912523e-01) (484, 6.49505781094288581201e-01) (485, 1.17827480103439374837e+00) (486, 3.97585356797632794024e-01) (487, 3.14967699633859843367e-01) (488, 4.67635560579325704200e-01) (489, 4.58368548771483474980e-01) (490, -4.14607693275062028082e-01) (491, -1.22272501986176762578e+00) (492, -1.46613858637676108820e+00) (493, -7.56969312466095445302e-01) (494, -9.45592667848271450914e-01) (495, -3.39422128867976735656e-01) (496, 1.21079446216395561486e-01) (497, -4.08532765244597473320e-01) (498, -6.22029546102276162389e-02) (499, -4.54594670698747982396e-01) (500, -1.04737454656126960373e+00) (501, -7.91045279587575489444e+00) (502, -3.50165945471839776815e+01) (503, 7.86856788124143349705e+02) (504, -1.50000000000000000000e+03) (505, -1.50000000000000000000e+03) (506, -1.50000000000000000000e+03) (507, -1.30016958920840988156e+01) (508, 3.87373499983137359326e-01) (509, -3.00326525855780124274e-01) (510, -1.22048218438292610522e+00) (511, 1.76235838683448231556e+00) (512, 4.13809425913709616474e-01) (513, 1.00920892313312138278e+00) (514, 7.75882142900910287686e-01) (515, 8.02372399659528778848e-01) (516, 1.07787686954458594712e+00) (517, 7.50255233370574536877e-01) (518, -9.75763020167545458428e-01) (519, -6.63896075792113848912e-01) (520, -1.89607406207442680257e-01) (521, -8.41182384341414429718e-02) (522, -9.22157690521159534303e-02) (523, -3.64978958628643435080e-01) (524, 2.11447821546656061775e-01) (525, -4.53106695053317243271e-01) (526, 9.21118687869385416311e-02) (527, 7.95971442309941767945e-01) (528, 1.18919632777814876512e+00) (529, 3.84352359334374837907e-01) (530, -1.19984241898339227816e+01) (531, -4.71937055866884946909e+01) (532, 1.50000000000000000000e+03) (533, -9.37829931005195930993e+02) (534, -1.50000000000000000000e+03) (535, -1.56590721012212341634e+00) (536, -3.32041138114630762779e-01) (537, -1.09007214746230696178e+00) (538, -4.70162380988353278966e-01) (539, 1.01710887167681152121e+00) (540, 1.41074992725709669195e+00) (541, 1.37681527909698875334e+00) (542, 1.51112300200987004217e+00) (543, 8.45137616859451878959e-01) (544, 1.55190917902983183119e+00) (545, 2.32943439235645172181e-01) (546, 5.29893045043281218920e-02) (547, 9.23371300570291347887e-02) (548, 2.15189436863994082438e-01) (549, -1.32582763065803826974e-01) (550, -1.06811460265504296063e-01) (551, -7.15225692698541609671e-02) (552, 1.87174764724667014315e-01) (553, -4.00317053516322851614e-01) (554, 6.85229093405634759328e-01) (555, 9.39365825006139631981e-01) (556, -1.58864235064943182252e+00) (557, -6.25450893632351867524e+00) (558, -7.90280874074499184445e+00) (559, 8.68977561907009743436e+01) (560, 1.50000000000000000000e+03) (561, 1.46458694295340956160e+03) (562, -1.50000000000000000000e+03) (563, -1.20351706931983715165e+00) (564, 6.30173928861959886660e-01) (565, 8.02627510721260040150e-01) (566, 2.62633110737091682307e-02) (567, 1.41791072775734461331e+00) (568, 1.62157312468767877967e+00) (569, 8.66942532191454562351e-01) (570, 1.15377120170216862505e+00) (571, 1.13730019445156349533e+00) (572, 2.17850740671611120547e+00) (573, 5.32952520013145414346e-01) (574, 5.78392043860430860036e-01) (575, 2.73031083522831952148e-01) (576, 6.89238402840322839094e-02) (577, -1.23747180272677934076e-01) (578, -1.86689092778920240866e-03) (579, 3.44536963127131834472e-01) (580, 3.03467447017240210538e-01) (581, 2.15634812972492623251e-01) (582, 1.07896347127615821471e+00) (583, 3.85807768260283889816e+00) (584, 2.24779142205297910451e+00) (585, -4.81892626160313408690e+00) (586, -3.79255848986356198793e+01) (587, 1.61095476911515405050e+01) (588, 1.50000000000000000000e+03) (589, -8.19848018715191074079e+02) (590, 3.84730173753086788224e+01) (591, 1.26626748993433335677e+00) (592, -2.96284519668322943176e+00) (593, 4.93756452873576279217e-01) (594, -2.04205338080604259510e-01) (595, 2.53913642787910343035e-01) (596, -1.07367568949961883495e-01) (597, 2.64608299279166236939e-01) (598, 8.36579098923337038940e-01) (599, 2.36987268990203697738e-01) (600, 1.28946246243891310401e-01) (601, 5.42765180321885476467e-01) (602, 1.99194338657543768001e+00) (603, 6.75873297921513072062e-01) (604, 2.07438249132188140544e-01) (605, 7.16228415192279532775e-01) (606, 1.22359309766392101992e-01) (607, 1.45594880109483237884e-01) (608, 6.52473459537046940326e-01) (609, 9.70463878312449068630e-01) (610, 1.73239190662426079115e+00) (611, 1.85042591973588832488e+00) (612, -1.20616656312348524693e+01) (613, 1.97054532549110206219e+01) (614, 1.09482907381633474131e+01) (615, 1.50000000000000000000e+03) (616, 1.50000000000000000000e+03) (617, -1.50000000000000000000e+03) (618, -4.03943903972335149888e+01) (619, 2.67297639113299845270e-01) (620, -6.45313982634245419945e+00) (621, 3.02392839487899012241e+00) (622, -1.36484312374957200698e-01) (623, 3.41030075082349226623e-01) (624, 1.23350869133830740032e-01) (625, 8.93623905330586248974e-02) (626, 1.25181294765342066011e-01) (627, 4.96130295500115323093e-02) (628, 2.12673093475720803580e-01) (629, 2.99141916775173433152e-01) (630, 2.63896495046937740181e-01) (631, 2.30296312638875955159e-01) (632, 5.45851386131308236038e-01) (633, 3.52413156156193285717e-01) (634, 3.77052455995961266488e-01) (635, 8.41315209688096726781e-02) (636, 1.42039402968317240994e-01) (637, 1.95984011003645131055e+00) (638, 1.16758061752502495523e+00) (639, -3.98357015509655321139e+00) (640, -1.77305128999505945409e+00) (641, -1.35770708448165944304e+00) (642, 5.73332608994885077891e+01) (643, 1.50000000000000000000e+03) (644, 1.50000000000000000000e+03) (645, 1.50000000000000000000e+03) (646, -1.46399999713897705078e+03) (647, -1.54666451991038105263e+01) (648, 5.42841027927861752289e+00) (649, -8.76784053626579323870e-02) (650, -4.80543368627216679889e-02) (651, -5.29971655716750464360e-02) (652, 7.97193302491338018356e-02) (653, -1.30850182298831191341e-01) (654, -2.23277865795646429659e-01) (655, -7.74165196618887690994e-02) (656, 2.57404946591849648208e-01) (657, 1.78632246670701233526e+00) (658, 2.37019685943087671243e-01) (659, 1.07753411620270034277e+00) (660, 9.14817337164360311341e-01) (661, 1.39937651965638476526e+00) (662, 1.35638422308664541305e+00) (663, 7.03861909970851518104e-01) (664, 5.64156748039945990514e-03) (665, -2.78188156839197474335e-02) (666, -4.57843643963744884040e-01) (667, 6.76543798312772093340e+00) (668, 4.36621589887069561087e-01) (669, -2.98631809958531269089e+00) (670, -3.95927372470997696041e+01) (671, 1.50000000000000000000e+03) (672, 1.50000000000000000000e+03) (673, 1.50000000000000000000e+03) (674, -1.34638222717274231854e+02) (675, 1.30630707895354838399e+01) (676, -1.15523928643771416347e+01) (677, -1.28872801425437688572e+00) (678, -1.42203105151840980547e+00) (679, -1.41475362217003186593e+00) (680, -2.24590515018997488594e-01) (681, -6.89662449266608690301e-01) (682, -5.42317964641497174405e-01) (683, -7.97849013730149381196e-01) (684, 7.35197811051632177382e-01) (685, -1.59429251760967172213e-01) (686, 3.52316745550741161619e-01) (687, 5.49693604638737842727e-01) (688, 3.14040828047435549575e-01) (689, -3.34165908867159189288e-01) (690, 1.77163359529340680432e+00) (691, 7.42675612656406802792e-01) (692, -1.41776309778397324735e+00) (693, 1.06541212755083991581e+00) (694, -5.13435667906868342669e+00) (695, -2.79717703097721237526e+00) (696, 9.34405954973441232880e+00) (697, -1.36207555637608184185e+01) (698, 1.32231452175454001008e+03) (699, 1.50000000000000000000e+03) (700, 1.50000000000000000000e+03) (701, 1.50000000000000000000e+03) (702, -1.44799999964237213135e+03) (703, -1.50000000000000000000e+03) (704, -1.50000000000000000000e+03) (705, -1.55060673721338364572e+01) (706, 4.80727635390788243797e+00) (707, -6.70147573708845012419e+00) (708, -4.09969162720447677373e+00) (709, -6.60018834713817392768e-01) (710, 9.19689574269267340334e-01) (711, -9.27930557214328821658e-01) (712, -6.80645765076559161599e-01) (713, -2.53291170558168898808e+00) (714, -6.03637151446590913828e-01) (715, -1.94518345712304474571e-01) (716, -2.80480031861285050709e+00) (717, 7.49377109508548855388e-01) (718, -1.44907569020530702097e+00) (719, -1.33661019717975926291e+00) (720, 3.83444340636008051959e+00) (721, -3.47974093732700922033e+01) (722, -6.40169848420781284482e-02) (723, -1.45081472489231551037e+01) (724, -1.40037768662840267098e+03) (725, -8.49852357196996763378e+02) (726, -2.92840039208099824464e+02) (727, 1.50000000000000000000e+03) (728, 1.50000000000000000000e+03) (729, 1.50000000000000000000e+03) (730, 1.50000000000000000000e+03) (731, -1.50000000000000000000e+03) (732, -1.50000000000000000000e+03) (733, -7.67846773031749762595e+02) (734, -6.13491076852802947883e+01) (735, 1.40193213038128838832e+01) (736, 1.42926233695973814442e+00) (737, -9.28472972236290061687e+00) (738, -9.89868533631056868316e-01) (739, 3.12395305899373865177e-01) (740, -1.25379337325239625933e+00) (741, 2.82378288999291138239e+00) (742, -3.90829674490738909753e+01) (743, -1.50000000000000000000e+03) (744, -1.50000000000000000000e+03) (745, -6.14903765072477995091e+02) (746, 5.62261499306969358969e+00) (747, 5.78318297712512752184e-01) (748, -9.46570290690080355489e+02) (749, -1.50000000000000000000e+03) (750, 3.71327794301593350212e+00) (751, 6.03395181556654733868e+01) (752, -1.50000000000000000000e+03) (753, -1.50000000000000000000e+03) (754, 1.50000000000000000000e+03) (755, 1.50000000000000000000e+03) (756, 1.50000000000000000000e+03) (757, 1.50000000000000000000e+03) (758, 1.50000000000000000000e+03) (759, 1.50000000000000000000e+03) (760, -1.40899999594688415527e+03) (761, -1.44499999880790710449e+03) (762, -1.13870836308525940694e+03) (763, -2.48406555892550109377e+01) (764, 3.02039731611503636799e+00) (765, -2.31795715341320871516e+01) (766, -8.19261399211460684455e+02) (767, -1.21382025335004664157e+03) (768, -1.27517232084078635523e+01) (769, 1.13425438468205630471e+01) (770, 3.31249989567921758749e+01) (771, 1.05588976694966436298e+03) (772, -2.07999919891356057633e+01) (773, -1.50000000000000000000e+03) (774, -1.50000000000000000000e+03) (775, -1.50000000000000000000e+03) (776, -1.50000000000000000000e+03) (777, 5.66761052925578951545e+02) (778, -1.26383694470962586820e+03) (779, 1.50000000000000000000e+03) (780, 1.50000000000000000000e+03) (781, 1.50000000000000000000e+03) (782, 1.50000000000000000000e+03) (783, 1.50000000000000000000e+03) (784, -4.40394697240176125064e+00) (0, 1.50000000000000000000e+03) (1, 1.50000000000000000000e+03) (2, 1.50000000000000000000e+03) (3, 1.50000000000000000000e+03) (4, 1.50000000000000000000e+03) (5, 1.50000000000000000000e+03) (6, 1.50000000000000000000e+03) (7, 1.50000000000000000000e+03) (8, 1.50000000000000000000e+03) (9, 1.50000000000000000000e+03) (10, 1.50000000000000000000e+03) (11, 1.50000000000000000000e+03) (12, 6.13973532277684252989e+00) (13, -2.58230901252119560141e+00) (14, -1.35761205218023815178e+03) (15, -1.35761205218023815178e+03) (16, 1.50000000000000000000e+03) (17, 1.50000000000000000000e+03) (18, 1.50000000000000000000e+03) (19, 1.50000000000000000000e+03) (20, 1.50000000000000000000e+03) (21, 1.50000000000000000000e+03) (22, 1.50000000000000000000e+03) (23, 1.50000000000000000000e+03) (24, 1.50000000000000000000e+03) (25, 1.50000000000000000000e+03) (26, 1.50000000000000000000e+03) (27, 1.50000000000000000000e+03) (28, 1.50000000000000000000e+03) (29, 1.50000000000000000000e+03) (30, 1.50000000000000000000e+03) (31, 1.50000000000000000000e+03) (32, 4.17046373092342435029e+01) (33, 1.13281306430202244329e+00) (34, -5.50833802885914280978e+00) (35, 7.92372881008370288924e+00) (36, 6.40004208752119030379e+00) (37, 3.69409516418220906786e+00) (38, 1.03370498836366397910e+01) (39, -3.01691827083375363472e+00) (40, 1.22660654395451262921e+00) (41, -7.41755316128405617349e+00) (42, 2.66078261173692443009e+00) (43, 5.97750167500364359974e-01) (44, -7.30875060402840937002e+00) (45, -2.74150626207621650465e-01) (46, 2.49406904875239909813e+00) (47, 5.80219517640034521122e+00) (48, -3.31082635478251807726e+00) (49, -7.98045013297683691889e+00) (50, -1.43086841434618534663e+01) (51, -1.02667769208089822541e+02) (52, 1.50000000000000000000e+03) (53, 1.50000000000000000000e+03) (54, 1.50000000000000000000e+03) (55, 1.50000000000000000000e+03) (56, 1.50000000000000000000e+03) (57, 1.50000000000000000000e+03) (58, -1.69433268837886572555e+02) (59, -1.50000000000000000000e+03) (60, 2.21750770032795898601e+01) (61, -2.22813987225559770877e+01) (62, 6.30950463490236934661e+00) (63, -8.53694099810073048218e-01) (64, -1.31142100419200957617e+00) (65, -1.36135418419878750917e+00) (66, 2.45219842640016327806e+00) (67, -8.94015418569116038228e-01) (68, 9.43463799167507111143e-01) (69, 2.52261826275139600106e-01) (70, -1.03529743450708067165e+00) (71, 1.39563122220766500092e+00) (72, 6.61583304823281426188e-01) (73, -2.22965457385519894018e+00) (74, 1.00646779256901200417e-01) (75, 9.69055300258481300268e-01) (76, 4.11942548869749280982e+00) (77, -2.98216464348775156523e+00) (78, 1.57194864540227456473e+02) (79, -2.89076832171704323216e+00) (80, -9.61418513005589048248e+00) (81, -1.58278998908826817882e+01) (82, 1.50000000000000000000e+03) (83, 1.50000000000000000000e+03) (84, 1.50000000000000000000e+03) (85, 1.50000000000000000000e+03) (86, 5.89734143461091022687e+01) (87, 1.81849104374906403336e+02) (88, 4.29211600397348718161e+01) (89, -1.20567860589628921275e+01) (90, -6.43821447625079090749e-01) (91, -2.47247350855834735484e+00) (92, 3.02088208370270505654e-01) (93, 1.72135685979864816453e+00) (94, 1.24466928310959468185e+00) (95, -5.92563799625530074344e-01) (96, -1.54372328509298650800e+00) (97, -4.04860565166009378490e-01) (98, -4.54881919222673181125e-01) (99, -1.46106071407542448259e-01) (100, -3.11301518364257734373e-01) (101, -9.40254587592624230252e-02) (102, -6.62498343516192744751e-01) (103, 1.90437942262347004174e+00) (104, -2.35518398355940128397e+00) (105, 1.03098577102710808884e-01) (106, 3.32993312902706684042e+00) (107, -1.41828903092127256436e+00) (108, -3.18609047823994284698e+00) (109, -5.25596789573630118753e+00) (110, -2.16469483325887409819e+02) (111, 1.50000000000000000000e+03) (112, 1.50000000000000000000e+03) (113, -1.50000000000000000000e+03) (114, 2.26828419693947003211e+00) (115, -1.60819742343972251319e+02) (116, 2.35837835558713670991e+00) (117, -4.80486829209212928937e-01) (118, 1.06380077522118110522e+00) (119, 2.01696409427757838984e+00) (120, -1.36911397890759167773e+00) (121, -8.02989239664952614284e-01) (122, -1.00072939885821332595e+00) (123, -5.36651046261601205600e-01) (124, -4.95364915090926033470e-02) (125, -6.71093342051912289392e-01) (126, -1.82834940907775744812e-01) (127, -1.50492755002518269203e-01) (128, 1.10954891106320577276e-01) (129, 9.22420261811892489012e-02) (130, 5.54159619094735100830e-02) (131, 7.35855570022194288571e-02) (132, 8.04985086390004739298e-02) (133, 9.92428683350085605319e-01) (134, 2.45708246354979942955e-03) (135, 9.29717509071818382083e-01) (136, 2.92462550351289296557e+00) (137, -1.62909645732677210717e+00) (138, 1.50000000000000000000e+03) (139, -1.39081878575311043278e+03) (140, 1.50000000000000000000e+03) (141, 1.50000000000000000000e+03) (142, 2.68799495569645596760e+00) (143, 1.84673355940728933788e+00) (144, -2.36743902356463387093e+00) (145, -3.34719642876171119550e-01) (146, -8.10357027307830879437e-01) (147, -1.46258364293304077286e+00) (148, -5.68173760733625340946e-02) (149, 3.38979959910045536287e-01) (150, -1.14965020704575551780e-01) (151, -2.92192754204734173040e-01) (152, -3.64980859786045774840e-01) (153, -2.90266416400551341415e-01) (154, -3.46597035809940834383e-01) (155, -3.78466244676465390917e-01) (156, -3.39044762205323479964e-01) (157, -6.16290482547645207534e-02) (158, -2.01718192021972025918e-01) (159, -4.50985094146742968024e-02) (160, -3.09492182799894766099e-02) (161, -9.66651838473655267148e-02) (162, -1.43490547917468930228e-01) (163, 1.52018630276546473645e+00) (164, -1.50571573633718824858e+00) (165, -1.16436203377859670560e+00) (166, 1.50000000000000000000e+03) (167, -1.37347523107652682484e+03) (168, 1.50000000000000000000e+03) (169, -1.50000000000000000000e+03) (170, -3.62787553488170488869e-01) (171, -2.24703950878693259341e+00) (172, 1.73023462274695383201e+00) (173, -1.72474327921921632978e+00) (174, -4.35261279355749652886e-01) (175, -2.12796333459762038176e-01) (176, -7.27588899166775382454e-01) (177, -1.49394137873036153552e-01) (178, -1.43815012015529264389e-01) (179, -2.44579417922058478529e-01) (180, -2.63572912838393569324e-01) (181, -7.18279033604395378276e-01) (182, -2.13590254928592654382e-01) (183, -2.53876172759120777300e-01) (184, -2.82367831413183500988e-01) (185, -5.17786122333652783917e-03) (186, -6.56912718681341902677e-03) (187, -3.14366358591091363608e-03) (188, 1.67479972891312778316e-01) (189, 2.51972456015514933991e-01) (190, -3.49857679981148139703e-02) (191, 4.28753238895183685919e-01) (192, 1.38691708379103961768e+00) (193, 1.50000000000000000000e+03) (194, 1.50000000000000000000e+03) (195, -9.65799990797042710255e+02) (196, 2.41921645315772707363e+02) (197, -1.71460527138111231693e+01) (198, -4.56405679474891368130e+00) (199, -5.17355273845461560711e+00) (200, -3.60044219231166251483e-01) (201, -1.84275022845138247707e-01) (202, -5.21950218949926880718e-01) (203, -7.93915805701434357244e-02) (204, -1.36228038106614435243e-01) (205, -8.10493003957333674192e-02) (206, -1.71027095706700854594e-01) (207, -1.61108848430604439939e-01) (208, -3.88103698371740246653e-01) (209, -3.94762673427320465169e-01) (210, -3.75874225252410432141e-01) (211, -3.18539649815804126742e-01) (212, -3.64866483625337800767e-01) (213, 5.78160411551375819084e-02) (214, -7.19047256488412472875e-02) (215, -4.34057233012237059233e-02) (216, 1.18781891494710953316e-01) (217, 6.38955052503873133229e-02) (218, 4.41818100870253416268e-01) (219, -8.84832425252440601948e-02) (220, 1.43946988026895050794e+00) (221, 1.50000000000000000000e+03) (222, 1.50000000000000000000e+03) (223, -3.89261405767971609748e+02) (224, -2.06875291504030052181e+01) (225, -1.45988146319497058556e+01) (226, 1.50976398992811966515e+00) (227, 4.02864932158458266542e+00) (228, -2.79202590899522240520e+00) (229, 9.24702718759949221505e-02) (230, -9.65526812622120172991e-02) (231, 3.56800000200217903856e-01) (232, -2.61210416772258667562e-02) (233, -1.38985716052810015508e-01) (234, -5.65265016536800266045e-02) (235, -6.12539686301038360794e-02) (236, 7.12315029838232749437e-02) (237, -4.49943603661841287633e-02) (238, -4.17766380389239355697e-01) (239, -7.20626198186232636012e-01) (240, -2.36626236107627618832e-01) (241, -4.30503133566167539570e-01) (242, -2.31468366713329820605e-01) (243, 6.58279525064009961299e-03) (244, 5.67219952242028549461e-02) (245, 1.51553053584673663723e-01) (246, 5.27885676705857509461e-01) (247, 4.65272962704714299065e-01) (248, 1.24148284571170353097e+00) (249, 1.50000000000000000000e+03) (250, 9.54995129961797601936e+02) (251, -8.04766203880742409638e+02) (252, 1.31466335547241204296e+01) (253, -1.59925159707845736534e+01) (254, -5.05774250197230124115e+00) (255, 4.19765209858396493026e-01) (256, -5.01184410603495589243e+00) (257, 4.66406014037389349269e-01) (258, -2.89294128388282556497e-01) (259, -6.02014347284628881241e-01) (260, -1.04144175046476814006e-01) (261, 1.90579938231118906078e-01) (262, 3.71982320426689355708e-02) (263, 4.84328655231816174176e-01) (264, 2.86617942798182034903e-01) (265, 2.52256780190939916553e-02) (266, -1.05116653676911653292e+00) (267, -1.32907926879302507039e+00) (268, -7.48423721207009395862e-01) (269, -5.57650870328077585825e-01) (270, -4.84589197586885012115e-01) (271, -1.71686415026832794872e-01) (272, -3.82511024107096749697e-03) (273, 3.59827002160180209334e-01) (274, 1.61189636407243791494e-01) (275, 7.79428259561912306630e-01) (276, 7.77205306033535298083e-02) (277, 2.28294978517650477556e+01) (278, 8.87210401143998161899e+00) (279, -3.44861250019416161194e+01) (280, -1.96877111036862451066e+00) (281, 5.53636063765205754805e+00) (282, -1.16397908325062200419e+01) (283, -2.22409947545652852963e-01) (284, 3.09629288942618519087e+00) (285, -1.28586143133975450148e+00) (286, -6.75141125254742902051e-01) (287, 3.70474306885387016930e-01) (288, 7.72180762534771081285e-01) (289, 9.74186216969201934646e-01) (290, 1.05961766518910294188e+00) (291, 1.00653946146419071006e+00) (292, 5.95895142196513738497e-01) (293, 1.28255526861010438200e-01) (294, 1.40951354902060677077e-01) (295, -5.76946075728229201829e-01) (296, -3.90125531247525136891e-01) (297, -1.14911934236462331960e+00) (298, -9.17034035462354624180e-01) (299, -1.03581158536263751024e+00) (300, -1.14445178143102332946e+00) (301, -2.12939280876854958313e-01) (302, -2.06547104878676196504e-01) (303, 1.90532068822387351537e-01) (304, 1.27614692830591391903e+00) (305, 6.83568473832761380748e+00) (306, 1.55078566015332452999e+00) (307, -1.38886882184720654720e+01) (308, -2.45978036795094001654e-01) (309, -3.14781633214769414053e+01) (310, 3.61543230282996530534e+00) (311, -8.27193564917927304236e+00) (312, -4.02707753796558931558e-01) (313, 2.05939041102839004438e-01) (314, 8.61570324656214747705e-01) (315, 2.08399171573517927314e+00) (316, 9.29351445464016046039e-01) (317, 3.94923961144913349131e-01) (318, 7.85362541454553086950e-01) (319, 1.61796358447935884062e-01) (320, 7.65234764602022332625e-01) (321, 1.08328238738557569576e+00) (322, 6.55633742576365641241e-01) (323, 2.27783998575019630550e-01) (324, 1.01485879692961675214e-01) (325, 7.68729738650497096408e-02) (326, -6.46924192966373545755e-02) (327, -7.78649883826211364202e-01) (328, -8.40397476711302937602e-01) (329, -1.91755262908245049935e+00) (330, -2.65509185618800280793e+00) (331, -1.07563867519379807725e+00) (332, 2.87746384383548825525e-01) (333, 1.38778126569182678196e+01) (334, 4.41726763107957651755e+01) (335, 1.50000000000000000000e+03) (336, 3.21435167442108848945e+01) (337, -1.83553906647155109511e+01) (338, 1.15063667293364009225e+01) (339, 2.44876246029555622030e+00) (340, 2.19482038619213914998e+00) (341, 3.04299692300032376124e+00) (342, 1.96001143518976284064e+00) (343, 3.49811218548321478661e-01) (344, 5.40126230827872033657e-01) (345, 3.22493673879756359568e-01) (346, 1.80734022386220688494e-01) (347, 2.04054253548402730889e-01) (348, 1.78051164318853039070e-01) (349, 2.73256535483688500765e-01) (350, 6.57312191858421379642e-01) (351, 5.37589876357863483136e-01) (352, -5.52755556427289296284e-02) (353, 1.40420225843102430829e-01) (354, 7.98324762246449132208e-02) (355, 3.66293520053350751819e-01) (356, 7.04902121152678889926e-02) (357, 1.12786380623179427474e+00) (358, -2.39594878773449426745e-01) (359, -6.27037728352444534430e-01) (360, -1.32353222779092449812e+00) (361, -7.37200616529689689571e+00) (362, -4.25458046196595163213e-01) (363, 6.59102581796252252389e+02) (364, 1.50000000000000000000e+03) (365, 1.08980006015398060981e+01) (366, 5.41313558590455934372e-01) (367, -1.76403333794907490883e+00) (368, 1.63652424540004015618e+00) (369, 1.25154320374197491894e-01) (370, 5.17135591958045037764e-01) (371, 2.40931065994451049095e-01) (372, -1.58514912489054506095e-02) (373, 2.77878578870550285718e-01) (374, 2.25646776075444338572e-01) (375, 3.00463489392983229553e-01) (376, 9.55237702709828412351e-02) (377, 4.25398888822341558758e-01) (378, 7.54914278666081517422e-01) (379, 2.89372628559311839691e-01) (380, 3.00063828768254603485e-01) (381, 3.52637698669172605648e-01) (382, 2.27417531802283467979e-01) (383, 1.29008961155561541201e-01) (384, 3.93008769428251913958e-01) (385, 1.38112384075873756428e-01) (386, -3.72899613316944392172e-02) (387, -4.08553312112766076059e-01) (388, -3.70580786182836352527e-01) (389, -6.09280892232565829403e+00) (390, 4.08891473436337182790e+00) (391, -6.94420298437842262729e+01) (392, 1.50000000000000000000e+03) (393, 2.31544100946500748250e+01) (394, -1.13515665510721035503e+01) (395, 4.65205605441729730387e+00) (396, -1.71183409558871152401e-01) (397, -4.17456993218038419080e-01) (398, 2.93379871927384405783e-01) (399, -3.94963734096201862789e-02) (400, 2.49517588996553713043e-01) (401, 1.83510383442620550465e-01) (402, 1.10079413819310675815e-01) (403, 2.16655310553305502363e-01) (404, 4.23996520482500027782e-01) (405, 2.87707835591176297463e-01) (406, 5.81138681695409720085e-01) (407, 4.18970967775484204321e-01) (408, 1.13155725705641641010e-01) (409, 2.74660561519343038306e-01) (410, -1.57953861234566173000e-01) (411, 5.99541109628221914607e-03) (412, 5.82045503226269744790e-02) (413, 2.69923245736600585232e-02) (414, 7.07590835288487429722e-02) (415, 1.35363342307307284867e-02) (416, 3.03383075662377321713e-01) (417, 4.10022212329248603169e+00) (418, -7.61149637108629262272e-01) (419, -5.17612489869800356246e+02) (420, 4.69628356528778567736e+01) (421, -2.52488057399921700608e+02) (422, 1.27676246241047008922e+00) (423, 2.34416129923498450793e+00) (424, -2.70876524831985365793e+00) (425, -1.48325060788427887104e+00) (426, 3.47121854855377085652e-03) (427, -2.87217862777248478245e-01) (428, -7.54951118125161690919e-02) (429, 8.29977642242799885930e-03) (430, 1.59257033790475538426e-01) (431, 2.59018762775255428910e-01) (432, 3.80977809132504452450e-01) (433, 4.04401595030470795145e-01) (434, 4.82565860514112765500e-01) (435, 2.28920606936338533188e-01) (436, 3.66017341268832063772e-01) (437, 1.29895683939433598253e-01) (438, 4.81167405359062341774e-02) (439, -4.29302095138228353988e-02) (440, -4.88763173085375979277e-01) (441, -1.72424388637408082525e-01) (442, -1.22571354270732804648e-01) (443, -9.88521989265926492862e-01) (444, 9.19569549036047040325e-01) (445, -7.52850789368717410177e-01) (446, -4.71093912572951989404e+00) (447, -3.30802877373353325652e+01) (448, -4.74054853499474901923e+01) (449, -2.79568919953254805932e+02) (450, -6.93588898462992631266e+00) (451, -3.97889144069837885631e-01) (452, 9.33140860933858395931e-01) (453, -3.81271911062650403768e-01) (454, -1.45883845864201833198e-01) (455, -3.03726004711153789450e-02) (456, 8.47813712112873568705e-02) (457, 7.21252911154383197223e-02) (458, 1.26277531407280846354e-01) (459, 1.32335461842183008813e-02) (460, 1.65617507017663284641e-01) (461, 5.46392720956924218823e-02) (462, 9.18155868694697563370e-01) (463, 2.95223195866519183550e-01) (464, 1.15366759791281289771e-01) (465, 3.02200379455795017924e-02) (466, -3.42760829631295504960e-01) (467, -1.25569470313642600479e-01) (468, -2.19736986333883624334e-02) (469, 2.51991989264888881228e-02) (470, -3.39835812768340406187e-02) (471, -9.37511491753172110375e-02) (472, -3.31934161812638295341e-01) (473, -1.99937127062494424123e+00) (474, -1.55423634122138825120e+01) (475, 3.88364804668338408078e+01) (476, 1.50000000000000000000e+03) (477, 3.83173350471239587023e+02) (478, 3.55348438650965992025e+00) (479, 1.33189031583776240630e+00) (480, 2.36332068310281362411e-01) (481, -8.31965439263117945146e-01) (482, 6.51469739291584692964e-02) (483, -6.60082445517041482841e-02) (484, -9.31497203633770975983e-02) (485, 1.14827716240316804464e-01) (486, 1.73893630965027995439e-01) (487, 6.23635296724963206216e-01) (488, 5.68029597087869486671e-01) 