FANN_FLO_2.1
num_layers=3
learning_rate=0.700000
connection_rate=1.000000
network_type=0
learning_momentum=0.000000
training_algorithm=1
train_error_function=1
train_stop_function=0
cascade_output_change_fraction=0.010000
quickprop_decay=-0.000100
quickprop_mu=1.750000
rprop_increase_factor=1.200000
rprop_decrease_factor=0.500000
rprop_delta_min=0.000000
rprop_delta_max=50.000000
rprop_delta_zero=0.100000
cascade_output_stagnation_epochs=12
cascade_candidate_change_fraction=0.010000
cascade_candidate_stagnation_epochs=12
cascade_max_out_epochs=150
cascade_min_out_epochs=50
cascade_max_cand_epochs=150
cascade_min_cand_epochs=50
cascade_num_candidate_groups=2
bit_fail_limit=3.49999999999999977796e-01
cascade_candidate_limit=1.00000000000000000000e+03
cascade_weight_multiplier=4.00000000000000022204e-01
cascade_activation_functions_count=10
cascade_activation_functions=3 5 7 8 10 11 14 15 16 17 
cascade_activation_steepnesses_count=4
cascade_activation_steepnesses=2.50000000000000000000e-01 5.00000000000000000000e-01 7.50000000000000000000e-01 1.00000000000000000000e+00 
layer_sizes=785 16 11 
scale_included=0
neurons (num_inputs, activation_function, activation_steepness)=(0, 0, 0.00000000000000000000e+00) (0, 0, 0.00000000000000000000e+00) (0, 0, 0.00000000000000000000e+00) (0, 0, 0.00000000000000000000e+00) (0, 0, 0.00000000000000000000e+00) (0, 0, 0.00000000000000000000e+00) (0, 0, 0.00000000000000000000e+00) (0, 0, 0.00000000000000000000e+00) (0, 0, 0.00000000000000000000e+00) (0, 0, 0.00000000000000000000e+00) (0, 0, 0.00000000000000000000e+00) (0, 0, 0.00000000000000000000e+00) (0, 0, 0.00000000000000000000e+00) (0, 0, 0.00000000000000000000e+00) (0, 0, 0.00000000000000000000e+00) (0, 0, 0.00000000000000000000e+00) (0, 0, 0.00000000000000000000e+00) (0, 0, 0.00000000000000000000e+00) (0, 0, 0.00000000000000000000e+00) (0, 0, 0.00000000000000000000e+00) (0, 0, 0.00000000000000000000e+00) (0, 0, 0.00000000000000000000e+00) (0, 0, 0.00000000000000000000e+00) (0, 0, 0.00000000000000000000e+00) (0, 0, 0.00000000000000000000e+00) (0, 0, 0.00000000000000000000e+00) (0, 0, 0.00000000000000000000e+00) (0, 0, 0.00000000000000000000e+00) (0, 0, 0.00000000000000000000e+00) (0, 0, 0.00000000000000000000e+00) (0, 0, 0.00000000000000000000e+00) (0, 0, 0.00000000000000000000e+00) (0, 0, 0.00000000000000000000e+00) (0, 0, 0.00000000000000000000e+00) (0, 0, 0.00000000000000000000e+00) (0, 0, 0.00000000000000000000e+00) (0, 0, 0.00000000000000000000e+00) (0, 0, 0.00000000000000000000e+00) (0, 0, 0.00000000000000000000e+00) (0, 0, 0.00000000000000000000e+00) (0, 0, 0.00000000000000000000e+00) (0, 0, 0.00000000000000000000e+00) (0, 0, 0.00000000000000000000e+00) (0, 0, 0.00000000000000000000e+00) (0, 0, 0.00000000000000000000e+00) (0, 0, 0.00000000000000000000e+00) (0, 0, 0.00000000000000000000e+00) (0, 0, 0.00000000000000000000e+00) (0, 0, 0.00000000000000000000e+00) (0, 0, 0.00000000000000000000e+00) (0, 0, 0.00000000000000000000e+00) (0, 0, 0.00000000000000000000e+00) (0, 0, 0.00000000000000000000e+00) (0, 0, 0.00000000000000000000e+00) (0, 0, 0.00000000000000000000e+00) (0, 0, 0.00000000000000000000e+00) (0, 0, 0.00000000000000000000e+00) (0, 0, 0.00000000000000000000e+00) (0, 0, 0.00000000000000000000e+00) (0, 0, 0.00000000000000000000e+00) (0, 0, 0.00000000000000000000e+00) (0, 0, 0.00000000000000000000e+00) (0, 0, 0.00000000000000000000e+00) (0, 0, 0.00000000000000000000e+00) (0, 0, 0.00000000000000000000e+00) (0, 0, 0.00000000000000000000e+00) (0, 0, 0.00000000000000000000e+00) (0, 0, 0.00000000000000000000e+00) (0, 0, 0.00000000000000000000e+00) (0, 0, 0.00000000000000000000e+00) (0, 0, 0.00000000000000000000e+00) (0, 0, 0.00000000000000000000e+00) (0, 0, 0.00000000000000000000e+00) (0, 0, 0.00000000000000000000e+00) (0, 0, 0.00000000000000000000e+00) (0, 0, 0.00000000000000000000e+00) (0, 0, 0.00000000000000000000e+00) (0, 0, 0.00000000000000000000e+00) (0, 0, 0.00000000000000000000e+00) (0, 0, 0.00000000000000000000e+00) (0, 0, 0.00000000000000000000e+00) (0, 0, 0.00000000000000000000e+00) (0, 0, 0.00000000000000000000e+00) (0, 0, 0.00000000000000000000e+00) (0, 0, 0.00000000000000000000e+00) (0, 0, 0.00000000000000000000e+00) (0, 0, 0.00000000000000000000e+00) (0, 0, 0.00000000000000000000e+00) (0, 0, 0.00000000000000000000e+00) (0, 0, 0.00000000000000000000e+00) (0, 0, 0.00000000000000000000e+00) (0, 0, 0.00000000000000000000e+00) (0, 0, 0.00000000000000000000e+00) (0, 0, 0.00000000000000000000e+00) (0, 0, 0.00000000000000000000e+00) (0, 0, 0.00000000000000000000e+00) (0, 0, 0.00000000000000000000e+00) (0, 0, 0.00000000000000000000e+00) (0, 0, 0.00000000000000000000e+00) (0, 0, 0.00000000000000000000e+00) (0, 0, 0.00000000000000000000e+00) (0, 0, 0.00000000000000000000e+00) (0, 0, 0.00000000000000000000e+00) (0, 0, 0.00000000000000000000e+00) (0, 0, 0.00000000000000000000e+00) (0, 0, 0.00000000000000000000e+00) (0, 0, 0.00000000000000000000e+00) (0, 0, 0.00000000000000000000e+00) (0, 0, 0.00000000000000000000e+00) (0, 0, 0.00000000000000000000e+00) (0, 0, 0.00000000000000000000e+00) (0, 0, 0.00000000000000000000e+00) (0, 0, 0.00000000000000000000e+00) (0, 0, 0.00000000000000000000e+00) (0, 0, 0.00000000000000000000e+00) (0, 0, 0.00000000000000000000e+00) (0, 0, 0.00000000000000000000e+00) (0, 0, 0.00000000000000000000e+00) (0, 0, 0.00000000000000000000e+00) (0, 0, 0.00000000000000000000e+00) (0, 0, 0.00000000000000000000e+00) (0, 0, 0.00000000000000000000e+00) (0, 0, 0.00000000000000000000e+00) (0, 0, 0.00000000000000000000e+00) (0, 0, 0.00000000000000000000e+00) (0, 0, 0.00000000000000000000e+00) (0, 0, 0.00000000000000000000e+00) (0, 0, 0.00000000000000000000e+00) (0, 0, 0.00000000000000000000e+00) (0, 0, 0.00000000000000000000e+00) (0, 0, 0.00000000000000000000e+00) (0, 0, 0.00000000000000000000e+00) (0, 0, 0.00000000000000000000e+00) (0, 0, 0.00000000000000000000e+00) (0, 0, 0.00000000000000000000e+00) (0, 0, 0.00000000000000000000e+00) (0, 0, 0.00000000000000000000e+00) (0, 0, 0.00000000000000000000e+00) (0, 0, 0.00000000000000000000e+00) (0, 0, 0.00000000000000000000e+00) (0, 0, 0.00000000000000000000e+00) (0, 0, 0.00000000000000000000e+00) (0, 0, 0.00000000000000000000e+00) (0, 0, 0.00000000000000000000e+00) (0, 0, 0.00000000000000000000e+00) (0, 0, 0.00000000000000000000e+00) (0, 0, 0.00000000000000000000e+00) (0, 0, 0.00000000000000000000e+00) (0, 0, 0.00000000000000000000e+00) (0, 0, 0.00000000000000000000e+00) (0, 0, 0.00000000000000000000e+00) (0, 0, 0.00000000000000000000e+00) (0, 0, 0.00000000000000000000e+00) (0, 0, 0.00000000000000000000e+00) (0, 0, 0.00000000000000000000e+00) (0, 0, 0.00000000000000000000e+00) (0, 0, 0.00000000000000000000e+00) (0, 0, 0.00000000000000000000e+00) (0, 0, 0.00000000000000000000e+00) (0, 0, 0.00000000000000000000e+00) (0, 0, 0.00000000000000000000e+00) (0, 0, 0.00000000000000000000e+00) (0, 0, 0.00000000000000000000e+00) (0, 0, 0.00000000000000000000e+00) (0, 0, 0.00000000000000000000e+00) (0, 0, 0.00000000000000000000e+00) (0, 0, 0.00000000000000000000e+00) (0, 0, 0.00000000000000000000e+00) (0, 0, 0.00000000000000000000e+00) (0, 0, 0.00000000000000000000e+00) (0, 0, 0.00000000000000000000e+00) (0, 0, 0.00000000000000000000e+00) (0, 0, 0.00000000000000000000e+00) (0, 0, 0.00000000000000000000e+00) (0, 0, 0.00000000000000000000e+00) (0, 0, 0.00000000000000000000e+00) (0, 0, 0.00000000000000000000e+00) (0, 0, 0.00000000000000000000e+00) (0, 0, 0.00000000000000000000e+00) (0, 0, 0.00000000000000000000e+00) (0, 0, 0.00000000000000000000e+00) (0, 0, 0.00000000000000000000e+00) (0, 0, 0.00000000000000000000e+00) (0, 0, 0.00000000000000000000e+00) (0, 0, 0.00000000000000000000e+00) (0, 0, 0.00000000000000000000e+00) (0, 0, 0.00000000000000000000e+00) (0, 0, 0.00000000000000000000e+00) (0, 0, 0.00000000000000000000e+00) (0, 0, 0.00000000000000000000e+00) (0, 0, 0.00000000000000000000e+00) (0, 0, 0.00000000000000000000e+00) (0, 0, 0.00000000000000000000e+00) (0, 0, 0.00000000000000000000e+00) (0, 0, 0.00000000000000000000e+00) (0, 0, 0.00000000000000000000e+00) (0, 0, 0.00000000000000000000e+00) (0, 0, 0.00000000000000000000e+00) (0, 0, 0.00000000000000000000e+00) (0, 0, 0.00000000000000000000e+00) (0, 0, 0.00000000000000000000e+00) (0, 0, 0.00000000000000000000e+00) (0, 0, 0.00000000000000000000e+00) (0, 0, 0.00000000000000000000e+00) (0, 0, 0.00000000000000000000e+00) (0, 0, 0.00000000000000000000e+00) (0, 0, 0.00000000000000000000e+00) (0, 0, 0.00000000000000000000e+00) (0, 0, 0.00000000000000000000e+00) (0, 0, 0.00000000000000000000e+00) (0, 0, 0.00000000000000000000e+00) (0, 0, 0.00000000000000000000e+00) (0, 0, 0.00000000000000000000e+00) (0, 0, 0.00000000000000000000e+00) (0, 0, 0.00000000000000000000e+00) (0, 0, 0.00000000000000000000e+00) (0, 0, 0.00000000000000000000e+00) (0, 0, 0.00000000000000000000e+00) (0, 0, 0.00000000000000000000e+00) (0, 0, 0.00000000000000000000e+00) (0, 0, 0.00000000000000000000e+00) (0, 0, 0.00000000000000000000e+00) (0, 0, 0.00000000000000000000e+00) (0, 0, 0.00000000000000000000e+00) (0, 0, 0.00000000000000000000e+00) (0, 0, 0.00000000000000000000e+00) (0, 0, 0.00000000000000000000e+00) (0, 0, 0.00000000000000000000e+00) (0, 0, 0.00000000000000000000e+00) (0, 0, 0.00000000000000000000e+00) (0, 0, 0.00000000000000000000e+00) (0, 0, 0.00000000000000000000e+00) (0, 0, 0.00000000000000000000e+00) (0, 0, 0.00000000000000000000e+00) (0, 0, 0.00000000000000000000e+00) (0, 0, 0.00000000000000000000e+00) (0, 0, 0.00000000000000000000e+00) (0, 0, 0.00000000000000000000e+00) (0, 0, 0.00000000000000000000e+00) (0, 0, 0.00000000000000000000e+00) (0, 0, 0.00000000000000000000e+00) (0, 0, 0.00000000000000000000e+00) (0, 0, 0.00000000000000000000e+00) (0, 0, 0.00000000000000000000e+00) (0, 0, 0.00000000000000000000e+00) (0, 0, 0.00000000000000000000e+00) (0, 0, 0.00000000000000000000e+00) (0, 0, 0.00000000000000000000e+00) (0, 0, 0.00000000000000000000e+00) (0, 0, 0.00000000000000000000e+00) (0, 0, 0.00000000000000000000e+00) (0, 0, 0.00000000000000000000e+00) (0, 0, 0.00000000000000000000e+00) (0, 0, 0.00000000000000000000e+00) (0, 0, 0.00000000000000000000e+00) (0, 0, 0.00000000000000000000e+00) (0, 0, 0.00000000000000000000e+00) (0, 0, 0.00000000000000000000e+00) (0, 0, 0.00000000000000000000e+00) (0, 0, 0.00000000000000000000e+00) (0, 0, 0.00000000000000000000e+00) (0, 0, 0.00000000000000000000e+00) (0, 0, 0.00000000000000000000e+00) (0, 0, 0.00000000000000000000e+00) (0, 0, 0.00000000000000000000e+00) (0, 0, 0.00000000000000000000e+00) (0, 0, 0.00000000000000000000e+00) (0, 0, 0.00000000000000000000e+00) (0, 0, 0.00000000000000000000e+00) (0, 0, 0.00000000000000000000e+00) (0, 0, 0.00000000000000000000e+00) (0, 0, 0.00000000000000000000e+00) (0, 0, 0.00000000000000000000e+00) (0, 0, 0.00000000000000000000e+00) (0, 0, 0.00000000000000000000e+00) (0, 0, 0.00000000000000000000e+00) (0, 0, 0.00000000000000000000e+00) (0, 0, 0.00000000000000000000e+00) (0, 0, 0.00000000000000000000e+00) (0, 0, 0.00000000000000000000e+00) (0, 0, 0.00000000000000000000e+00) (0, 0, 0.00000000000000000000e+00) (0, 0, 0.00000000000000000000e+00) (0, 0, 0.00000000000000000000e+00) (0, 0, 0.00000000000000000000e+00) (0, 0, 0.00000000000000000000e+00) (0, 0, 0.00000000000000000000e+00) (0, 0, 0.00000000000000000000e+00) (0, 0, 0.00000000000000000000e+00) (0, 0, 0.00000000000000000000e+00) (0, 0, 0.00000000000000000000e+00) (0, 0, 0.00000000000000000000e+00) (0, 0, 0.00000000000000000000e+00) (0, 0, 0.00000000000000000000e+00) (0, 0, 0.00000000000000000000e+00) (0, 0, 0.00000000000000000000e+00) (0, 0, 0.00000000000000000000e+00) (0, 0, 0.00000000000000000000e+00) (0, 0, 0.00000000000000000000e+00) (0, 0, 0.00000000000000000000e+00) (0, 0, 0.00000000000000000000e+00) (0, 0, 0.00000000000000000000e+00) (0, 0, 0.00000000000000000000e+00) (0, 0, 0.00000000000000000000e+00) (0, 0, 0.00000000000000000000e+00) (0, 0, 0.00000000000000000000e+00) (0, 0, 0.00000000000000000000e+00) (0, 0, 0.00000000000000000000e+00) (0, 0, 0.00000000000000000000e+00) (0, 0, 0.00000000000000000000e+00) (0, 0, 0.00000000000000000000e+00) (0, 0, 0.00000000000000000000e+00) (0, 0, 0.00000000000000000000e+00) (0, 0, 0.00000000000000000000e+00) (0, 0, 0.00000000000000000000e+00) (0, 0, 0.00000000000000000000e+00) (0, 0, 0.00000000000000000000e+00) (0, 0, 0.00000000000000000000e+00) (0, 0, 0.00000000000000000000e+00) (0, 0, 0.00000000000000000000e+00) (0, 0, 0.00000000000000000000e+00) (0, 0, 0.00000000000000000000e+00) (0, 0, 0.00000000000000000000e+00) (0, 0, 0.00000000000000000000e+00) (0, 0, 0.00000000000000000000e+00) (0, 0, 0.00000000000000000000e+00) (0, 0, 0.00000000000000000000e+00) (0, 0, 0.00000000000000000000e+00) (0, 0, 0.00000000000000000000e+00) (0, 0, 0.00000000000000000000e+00) (0, 0, 0.00000000000000000000e+00) (0, 0, 0.00000000000000000000e+00) (0, 0, 0.00000000000000000000e+00) (0, 0, 0.00000000000000000000e+00) (0, 0, 0.00000000000000000000e+00) (0, 0, 0.00000000000000000000e+00) (0, 0, 0.00000000000000000000e+00) (0, 0, 0.00000000000000000000e+00) (0, 0, 0.00000000000000000000e+00) (0, 0, 0.00000000000000000000e+00) (0, 0, 0.00000000000000000000e+00) (0, 0, 0.00000000000000000000e+00) (0, 0, 0.00000000000000000000e+00) (0, 0, 0.00000000000000000000e+00) (0, 0, 0.00000000000000000000e+00) (0, 0, 0.00000000000000000000e+00) (0, 0, 0.00000000000000000000e+00) (0, 0, 0.00000000000000000000e+00) (0, 0, 0.00000000000000000000e+00) (0, 0, 0.00000000000000000000e+00) (0, 0, 0.00000000000000000000e+00) (0, 0, 0.00000000000000000000e+00) (0, 0, 0.00000000000000000000e+00) (0, 0, 0.00000000000000000000e+00) (0, 0, 0.00000000000000000000e+00) (0, 0, 0.00000000000000000000e+00) (0, 0, 0.00000000000000000000e+00) (0, 0, 0.00000000000000000000e+00) (0, 0, 0.00000000000000000000e+00) (0, 0, 0.00000000000000000000e+00) (0, 0, 0.00000000000000000000e+00) (0, 0, 0.00000000000000000000e+00) (0, 0, 0.00000000000000000000e+00) (0, 0, 0.00000000000000000000e+00) (0, 0, 0.00000000000000000000e+00) (0, 0, 0.00000000000000000000e+00) (0, 0, 0.00000000000000000000e+00) (0, 0, 0.00000000000000000000e+00) (0, 0, 0.00000000000000000000e+00) (0, 0, 0.00000000000000000000e+00) (0, 0, 0.00000000000000000000e+00) (0, 0, 0.00000000000000000000e+00) (0, 0, 0.00000000000000000000e+00) (0, 0, 0.00000000000000000000e+00) (0, 0, 0.00000000000000000000e+00) (0, 0, 0.00000000000000000000e+00) (0, 0, 0.00000000000000000000e+00) (0, 0, 0.00000000000000000000e+00) (0, 0, 0.00000000000000000000e+00) (0, 0, 0.00000000000000000000e+00) (0, 0, 0.00000000000000000000e+00) (0, 0, 0.00000000000000000000e+00) (0, 0, 0.00000000000000000000e+00) (0, 0, 0.00000000000000000000e+00) (0, 0, 0.00000000000000000000e+00) (0, 0, 0.00000000000000000000e+00) (0, 0, 0.00000000000000000000e+00) (0, 0, 0.00000000000000000000e+00) (0, 0, 0.00000000000000000000e+00) (0, 0, 0.00000000000000000000e+00) (0, 0, 0.00000000000000000000e+00) (0, 0, 0.00000000000000000000e+00) (0, 0, 0.00000000000000000000e+00) (0, 0, 0.00000000000000000000e+00) (0, 0, 0.00000000000000000000e+00) (0, 0, 0.00000000000000000000e+00) (0, 0, 0.00000000000000000000e+00) (0, 0, 0.00000000000000000000e+00) (0, 0, 0.00000000000000000000e+00) (0, 0, 0.00000000000000000000e+00) (0, 0, 0.00000000000000000000e+00) (0, 0, 0.00000000000000000000e+00) (0, 0, 0.00000000000000000000e+00) (0, 0, 0.00000000000000000000e+00) (0, 0, 0.00000000000000000000e+00) (0, 0, 0.00000000000000000000e+00) (0, 0, 0.00000000000000000000e+00) (0, 0, 0.00000000000000000000e+00) (0, 0, 0.00000000000000000000e+00) (0, 0, 0.00000000000000000000e+00) (0, 0, 0.00000000000000000000e+00) (0, 0, 0.00000000000000000000e+00) (0, 0, 0.00000000000000000000e+00) (0, 0, 0.00000000000000000000e+00) (0, 0, 0.00000000000000000000e+00) (0, 0, 0.00000000000000000000e+00) (0, 0, 0.00000000000000000000e+00) (0, 0, 0.00000000000000000000e+00) (0, 0, 0.00000000000000000000e+00) (0, 0, 0.00000000000000000000e+00) (0, 0, 0.00000000000000000000e+00) (0, 0, 0.00000000000000000000e+00) (0, 0, 0.00000000000000000000e+00) (0, 0, 0.00000000000000000000e+00) (0, 0, 0.00000000000000000000e+00) (0, 0, 0.00000000000000000000e+00) (0, 0, 0.00000000000000000000e+00) (0, 0, 0.00000000000000000000e+00) (0, 0, 0.00000000000000000000e+00) (0, 0, 0.00000000000000000000e+00) (0, 0, 0.00000000000000000000e+00) (0, 0, 0.00000000000000000000e+00) (0, 0, 0.00000000000000000000e+00) (0, 0, 0.00000000000000000000e+00) (0, 0, 0.00000000000000000000e+00) (0, 0, 0.00000000000000000000e+00) (0, 0, 0.00000000000000000000e+00) (0, 0, 0.00000000000000000000e+00) (0, 0, 0.00000000000000000000e+00) (0, 0, 0.00000000000000000000e+00) (0, 0, 0.00000000000000000000e+00) (0, 0, 0.00000000000000000000e+00) (0, 0, 0.00000000000000000000e+00) (0, 0, 0.00000000000000000000e+00) (0, 0, 0.00000000000000000000e+00) (0, 0, 0.00000000000000000000e+00) (0, 0, 0.00000000000000000000e+00) (0, 0, 0.00000000000000000000e+00) (0, 0, 0.00000000000000000000e+00) (0, 0, 0.00000000000000000000e+00) (0, 0, 0.00000000000000000000e+00) (0, 0, 0.00000000000000000000e+00) (0, 0, 0.00000000000000000000e+00) (0, 0, 0.00000000000000000000e+00) (0, 0, 0.00000000000000000000e+00) (0, 0, 0.00000000000000000000e+00) (0, 0, 0.00000000000000000000e+00) (0, 0, 0.00000000000000000000e+00) (0, 0, 0.00000000000000000000e+00) (0, 0, 0.00000000000000000000e+00) (0, 0, 0.00000000000000000000e+00) (0, 0, 0.00000000000000000000e+00) (0, 0, 0.00000000000000000000e+00) (0, 0, 0.00000000000000000000e+00) (0, 0, 0.00000000000000000000e+00) (0, 0, 0.00000000000000000000e+00) (0, 0, 0.00000000000000000000e+00) (0, 0, 0.00000000000000000000e+00) (0, 0, 0.00000000000000000000e+00) (0, 0, 0.00000000000000000000e+00) (0, 0, 0.00000000000000000000e+00) (0, 0, 0.00000000000000000000e+00) (0, 0, 0.00000000000000000000e+00) (0, 0, 0.00000000000000000000e+00) (0, 0, 0.00000000000000000000e+00) (0, 0, 0.00000000000000000000e+00) (0, 0, 0.00000000000000000000e+00) (0, 0, 0.00000000000000000000e+00) (0, 0, 0.00000000000000000000e+00) (0, 0, 0.00000000000000000000e+00) (0, 0, 0.00000000000000000000e+00) (0, 0, 0.00000000000000000000e+00) (0, 0, 0.00000000000000000000e+00) (0, 0, 0.00000000000000000000e+00) (0, 0, 0.00000000000000000000e+00) (0, 0, 0.00000000000000000000e+00) (0, 0, 0.00000000000000000000e+00) (0, 0, 0.00000000000000000000e+00) (0, 0, 0.00000000000000000000e+00) (0, 0, 0.00000000000000000000e+00) (0, 0, 0.00000000000000000000e+00) (0, 0, 0.00000000000000000000e+00) (0, 0, 0.00000000000000000000e+00) (0, 0, 0.00000000000000000000e+00) (0, 0, 0.00000000000000000000e+00) (0, 0, 0.00000000000000000000e+00) (0, 0, 0.00000000000000000000e+00) (0, 0, 0.00000000000000000000e+00) (0, 0, 0.00000000000000000000e+00) (0, 0, 0.00000000000000000000e+00) (0, 0, 0.00000000000000000000e+00) (0, 0, 0.00000000000000000000e+00) (0, 0, 0.00000000000000000000e+00) (0, 0, 0.00000000000000000000e+00) (0, 0, 0.00000000000000000000e+00) (0, 0, 0.00000000000000000000e+00) (0, 0, 0.00000000000000000000e+00) (0, 0, 0.00000000000000000000e+00) (0, 0, 0.00000000000000000000e+00) (0, 0, 0.00000000000000000000e+00) (0, 0, 0.00000000000000000000e+00) (0, 0, 0.00000000000000000000e+00) (0, 0, 0.00000000000000000000e+00) (0, 0, 0.00000000000000000000e+00) (0, 0, 0.00000000000000000000e+00) (0, 0, 0.00000000000000000000e+00) (0, 0, 0.00000000000000000000e+00) (0, 0, 0.00000000000000000000e+00) (0, 0, 0.00000000000000000000e+00) (0, 0, 0.00000000000000000000e+00) (0, 0, 0.00000000000000000000e+00) (0, 0, 0.00000000000000000000e+00) (0, 0, 0.00000000000000000000e+00) (0, 0, 0.00000000000000000000e+00) (0, 0, 0.00000000000000000000e+00) (0, 0, 0.00000000000000000000e+00) (0, 0, 0.00000000000000000000e+00) (0, 0, 0.00000000000000000000e+00) (0, 0, 0.00000000000000000000e+00) (0, 0, 0.00000000000000000000e+00) (0, 0, 0.00000000000000000000e+00) (0, 0, 0.00000000000000000000e+00) (0, 0, 0.00000000000000000000e+00) (0, 0, 0.00000000000000000000e+00) (0, 0, 0.00000000000000000000e+00) (0, 0, 0.00000000000000000000e+00) (0, 0, 0.00000000000000000000e+00) (0, 0, 0.00000000000000000000e+00) (0, 0, 0.00000000000000000000e+00) (0, 0, 0.00000000000000000000e+00) (0, 0, 0.00000000000000000000e+00) (0, 0, 0.00000000000000000000e+00) (0, 0, 0.00000000000000000000e+00) (0, 0, 0.00000000000000000000e+00) (0, 0, 0.00000000000000000000e+00) (0, 0, 0.00000000000000000000e+00) (0, 0, 0.00000000000000000000e+00) (0, 0, 0.00000000000000000000e+00) (0, 0, 0.00000000000000000000e+00) (0, 0, 0.00000000000000000000e+00) (0, 0, 0.00000000000000000000e+00) (0, 0, 0.00000000000000000000e+00) (0, 0, 0.00000000000000000000e+00) (0, 0, 0.00000000000000000000e+00) (0, 0, 0.00000000000000000000e+00) (0, 0, 0.00000000000000000000e+00) (0, 0, 0.00000000000000000000e+00) (0, 0, 0.00000000000000000000e+00) (0, 0, 0.00000000000000000000e+00) (0, 0, 0.00000000000000000000e+00) (0, 0, 0.00000000000000000000e+00) (0, 0, 0.00000000000000000000e+00) (0, 0, 0.00000000000000000000e+00) (0, 0, 0.00000000000000000000e+00) (0, 0, 0.00000000000000000000e+00) (0, 0, 0.00000000000000000000e+00) (0, 0, 0.00000000000000000000e+00) (0, 0, 0.00000000000000000000e+00) (0, 0, 0.00000000000000000000e+00) (0, 0, 0.00000000000000000000e+00) (0, 0, 0.00000000000000000000e+00) (0, 0, 0.00000000000000000000e+00) (0, 0, 0.00000000000000000000e+00) (0, 0, 0.00000000000000000000e+00) (0, 0, 0.00000000000000000000e+00) (0, 0, 0.00000000000000000000e+00) (0, 0, 0.00000000000000000000e+00) (0, 0, 0.00000000000000000000e+00) (0, 0, 0.00000000000000000000e+00) (0, 0, 0.00000000000000000000e+00) (0, 0, 0.00000000000000000000e+00) (0, 0, 0.00000000000000000000e+00) (0, 0, 0.00000000000000000000e+00) (0, 0, 0.00000000000000000000e+00) (0, 0, 0.00000000000000000000e+00) (0, 0, 0.00000000000000000000e+00) (0, 0, 0.00000000000000000000e+00) (0, 0, 0.00000000000000000000e+00) (0, 0, 0.00000000000000000000e+00) (0, 0, 0.00000000000000000000e+00) (0, 0, 0.00000000000000000000e+00) (0, 0, 0.00000000000000000000e+00) (0, 0, 0.00000000000000000000e+00) (0, 0, 0.00000000000000000000e+00) (0, 0, 0.00000000000000000000e+00) (0, 0, 0.00000000000000000000e+00) (0, 0, 0.00000000000000000000e+00) (0, 0, 0.00000000000000000000e+00) (0, 0, 0.00000000000000000000e+00) (0, 0, 0.00000000000000000000e+00) (0, 0, 0.00000000000000000000e+00) (0, 0, 0.00000000000000000000e+00) (0, 0, 0.00000000000000000000e+00) (0, 0, 0.00000000000000000000e+00) (0, 0, 0.00000000000000000000e+00) (0, 0, 0.00000000000000000000e+00) (0, 0, 0.00000000000000000000e+00) (0, 0, 0.00000000000000000000e+00) (0, 0, 0.00000000000000000000e+00) (0, 0, 0.00000000000000000000e+00) (0, 0, 0.00000000000000000000e+00) (0, 0, 0.00000000000000000000e+00) (0, 0, 0.00000000000000000000e+00) (0, 0, 0.00000000000000000000e+00) (0, 0, 0.00000000000000000000e+00) (0, 0, 0.00000000000000000000e+00) (0, 0, 0.00000000000000000000e+00) (0, 0, 0.00000000000000000000e+00) (0, 0, 0.00000000000000000000e+00) (0, 0, 0.00000000000000000000e+00) (0, 0, 0.00000000000000000000e+00) (0, 0, 0.00000000000000000000e+00) (0, 0, 0.00000000000000000000e+00) (0, 0, 0.00000000000000000000e+00) (0, 0, 0.00000000000000000000e+00) (0, 0, 0.00000000000000000000e+00) (0, 0, 0.00000000000000000000e+00) (0, 0, 0.00000000000000000000e+00) (0, 0, 0.00000000000000000000e+00) (0, 0, 0.00000000000000000000e+00) (0, 0, 0.00000000000000000000e+00) (0, 0, 0.00000000000000000000e+00) (0, 0, 0.00000000000000000000e+00) (0, 0, 0.00000000000000000000e+00) (0, 0, 0.00000000000000000000e+00) (0, 0, 0.00000000000000000000e+00) (0, 0, 0.00000000000000000000e+00) (0, 0, 0.00000000000000000000e+00) (0, 0, 0.00000000000000000000e+00) (0, 0, 0.00000000000000000000e+00) (0, 0, 0.00000000000000000000e+00) (0, 0, 0.00000000000000000000e+00) (0, 0, 0.00000000000000000000e+00) (0, 0, 0.00000000000000000000e+00) (0, 0, 0.00000000000000000000e+00) (0, 0, 0.00000000000000000000e+00) (0, 0, 0.00000000000000000000e+00) (0, 0, 0.00000000000000000000e+00) (0, 0, 0.00000000000000000000e+00) (0, 0, 0.00000000000000000000e+00) (0, 0, 0.00000000000000000000e+00) (0, 0, 0.00000000000000000000e+00) (0, 0, 0.00000000000000000000e+00) (0, 0, 0.00000000000000000000e+00) (0, 0, 0.00000000000000000000e+00) (0, 0, 0.00000000000000000000e+00) (0, 0, 0.00000000000000000000e+00) (0, 0, 0.00000000000000000000e+00) (0, 0, 0.00000000000000000000e+00) (0, 0, 0.00000000000000000000e+00) (0, 0, 0.00000000000000000000e+00) (0, 0, 0.00000000000000000000e+00) (0, 0, 0.00000000000000000000e+00) (0, 0, 0.00000000000000000000e+00) (0, 0, 0.00000000000000000000e+00) (0, 0, 0.00000000000000000000e+00) (0, 0, 0.00000000000000000000e+00) (0, 0, 0.00000000000000000000e+00) (0, 0, 0.00000000000000000000e+00) (0, 0, 0.00000000000000000000e+00) (0, 0, 0.00000000000000000000e+00) (0, 0, 0.00000000000000000000e+00) (0, 0, 0.00000000000000000000e+00) (0, 0, 0.00000000000000000000e+00) (0, 0, 0.00000000000000000000e+00) (0, 0, 0.00000000000000000000e+00) (0, 0, 0.00000000000000000000e+00) (0, 0, 0.00000000000000000000e+00) (0, 0, 0.00000000000000000000e+00) (0, 0, 0.00000000000000000000e+00) (0, 0, 0.00000000000000000000e+00) (0, 0, 0.00000000000000000000e+00) (0, 0, 0.00000000000000000000e+00) (0, 0, 0.00000000000000000000e+00) (0, 0, 0.00000000000000000000e+00) (0, 0, 0.00000000000000000000e+00) (0, 0, 0.00000000000000000000e+00) (0, 0, 0.00000000000000000000e+00) (0, 0, 0.00000000000000000000e+00) (0, 0, 0.00000000000000000000e+00) (0, 0, 0.00000000000000000000e+00) (0, 0, 0.00000000000000000000e+00) (0, 0, 0.00000000000000000000e+00) (0, 0, 0.00000000000000000000e+00) (0, 0, 0.00000000000000000000e+00) (0, 0, 0.00000000000000000000e+00) (0, 0, 0.00000000000000000000e+00) (0, 0, 0.00000000000000000000e+00) (0, 0, 0.00000000000000000000e+00) (0, 0, 0.00000000000000000000e+00) (0, 0, 0.00000000000000000000e+00) (0, 0, 0.00000000000000000000e+00) (0, 0, 0.00000000000000000000e+00) (0, 0, 0.00000000000000000000e+00) (0, 0, 0.00000000000000000000e+00) (0, 0, 0.00000000000000000000e+00) (0, 0, 0.00000000000000000000e+00) (0, 0, 0.00000000000000000000e+00) (0, 0, 0.00000000000000000000e+00) (0, 0, 0.00000000000000000000e+00) (0, 0, 0.00000000000000000000e+00) (0, 0, 0.00000000000000000000e+00) (0, 0, 0.00000000000000000000e+00) (0, 0, 0.00000000000000000000e+00) (0, 0, 0.00000000000000000000e+00) (0, 0, 0.00000000000000000000e+00) (0, 0, 0.00000000000000000000e+00) (0, 0, 0.00000000000000000000e+00) (0, 0, 0.00000000000000000000e+00) (0, 0, 0.00000000000000000000e+00) (0, 0, 0.00000000000000000000e+00) (0, 0, 0.00000000000000000000e+00) (0, 0, 0.00000000000000000000e+00) (0, 0, 0.00000000000000000000e+00) (0, 0, 0.00000000000000000000e+00) (0, 0, 0.00000000000000000000e+00) (0, 0, 0.00000000000000000000e+00) (0, 0, 0.00000000000000000000e+00) (0, 0, 0.00000000000000000000e+00) (0, 0, 0.00000000000000000000e+00) (0, 0, 0.00000000000000000000e+00) (0, 0, 0.00000000000000000000e+00) (0, 0, 0.00000000000000000000e+00) (0, 0, 0.00000000000000000000e+00) (0, 0, 0.00000000000000000000e+00) (0, 0, 0.00000000000000000000e+00) (0, 0, 0.00000000000000000000e+00) (0, 0, 0.00000000000000000000e+00) (0, 0, 0.00000000000000000000e+00) (0, 0, 0.00000000000000000000e+00) (0, 0, 0.00000000000000000000e+00) (0, 0, 0.00000000000000000000e+00) (0, 0, 0.00000000000000000000e+00) (0, 0, 0.00000000000000000000e+00) (0, 0, 0.00000000000000000000e+00) (0, 0, 0.00000000000000000000e+00) (0, 0, 0.00000000000000000000e+00) (0, 0, 0.00000000000000000000e+00) (0, 0, 0.00000000000000000000e+00) (0, 0, 0.00000000000000000000e+00) (0, 0, 0.00000000000000000000e+00) (0, 0, 0.00000000000000000000e+00) (0, 0, 0.00000000000000000000e+00) (0, 0, 0.00000000000000000000e+00) (0, 0, 0.00000000000000000000e+00) (0, 0, 0.00000000000000000000e+00) (0, 0, 0.00000000000000000000e+00) (0, 0, 0.00000000000000000000e+00) (0, 0, 0.00000000000000000000e+00) (0, 0, 0.00000000000000000000e+00) (0, 0, 0.00000000000000000000e+00) (0, 0, 0.00000000000000000000e+00) (0, 0, 0.00000000000000000000e+00) (0, 0, 0.00000000000000000000e+00) (0, 0, 0.00000000000000000000e+00) (0, 0, 0.00000000000000000000e+00) (0, 0, 0.00000000000000000000e+00) (0, 0, 0.00000000000000000000e+00) (0, 0, 0.00000000000000000000e+00) (0, 0, 0.00000000000000000000e+00) (0, 0, 0.00000000000000000000e+00) (0, 0, 0.00000000000000000000e+00) (0, 0, 0.00000000000000000000e+00) (0, 0, 0.00000000000000000000e+00) (0, 0, 0.00000000000000000000e+00) (0, 0, 0.00000000000000000000e+00) (0, 0, 0.00000000000000000000e+00) (0, 0, 0.00000000000000000000e+00) (0, 0, 0.00000000000000000000e+00) (0, 0, 0.00000000000000000000e+00) (0, 0, 0.00000000000000000000e+00) (0, 0, 0.00000000000000000000e+00) (0, 0, 0.00000000000000000000e+00) (0, 0, 0.00000000000000000000e+00) (0, 0, 0.00000000000000000000e+00) (785, 5, 5.00000000000000000000e-01) (785, 5, 5.00000000000000000000e-01) (785, 5, 5.00000000000000000000e-01) (785, 5, 5.00000000000000000000e-01) (785, 5, 5.00000000000000000000e-01) (785, 5, 5.00000000000000000000e-01) (785, 5, 5.00000000000000000000e-01) (785, 5, 5.00000000000000000000e-01) (785, 5, 5.00000000000000000000e-01) (785, 5, 5.00000000000000000000e-01) (785, 5, 5.00000000000000000000e-01) (785, 5, 5.00000000000000000000e-01) (785, 5, 5.00000000000000000000e-01) (785, 5, 5.00000000000000000000e-01) (785, 5, 5.00000000000000000000e-01) (0, 5, 0.00000000000000000000e+00) (16, 5, 5.00000000000000000000e-01) (16, 5, 5.00000000000000000000e-01) (16, 5, 5.00000000000000000000e-01) (16, 5, 5.00000000000000000000e-01) (16, 5, 5.00000000000000000000e-01) (16, 5, 5.00000000000000000000e-01) (16, 5, 5.00000000000000000000e-01) (16, 5, 5.00000000000000000000e-01) (16, 5, 5.00000000000000000000e-01) (16, 5, 5.00000000000000000000e-01) (0, 5, 0.00000000000000000000e+00) 
connections (connected_to_neuron, weight)=(0, -7.54272490739822387695e-02) (1, 5.08605912327766418457e-02) (2, -4.04174812138080596924e-02) (3, 8.69384780526161193848e-02) (4, 9.53918471932411193848e-02) (5, -5.47546409070491790771e-02) (6, -7.03002959489822387695e-02) (7, -4.69360500574111938477e-03) (8, -2.13806182146072387695e-02) (9, 7.72277787327766418457e-02) (10, -3.11523452401161193848e-02) (11, 3.23608443140983581543e-02) (12, 2.50424503374931904653e-02) (13, 5.97672048282636009242e-03) (14, -2.93049538578536578060e-02) (15, -9.57067721603899607130e-02) (16, 4.85046431422233581543e-02) (17, -1.61437988281250000000e-02) (18, -2.09716781973838806152e-02) (19, -2.51403823494911193848e-02) (20, -1.18347182869911193848e-02) (21, 1.13891586661338806152e-02) (22, 5.56823685765266418457e-02) (23, -2.93395966291427612305e-02) (24, 1.29089355468750000000e-02) (25, 3.23242172598838806152e-02) (26, -8.75366255640983581543e-02) (27, 2.63366773724555969238e-02) (28, 1.35437026619911193848e-02) (29, -9.65575873851776123047e-03) (30, -3.00170928239822387695e-02) (31, 2.50671431422233581543e-02) (32, 5.51055814747075049104e-03) (33, -5.53703266679010860929e-02) (34, 3.54863190186011645544e-02) (35, 9.42792587220411815174e-02) (36, 9.46482074030397246833e-02) (37, -1.73264237172310806012e-02) (38, 1.19500624826068643780e-01) (39, 3.19922764806673393112e-02) (40, 3.87692116709895950866e-02) (41, -2.32072017773276538521e-02) (42, 1.19652964843479314716e-01) (43, 1.23965586009005382384e-01) (44, 2.15640517314546857619e-02) (45, 1.04464944192521960731e-02) (46, 7.65900147252336904735e-02) (47, 9.96374608416358414908e-02) (48, 7.63492369987521513064e-02) (49, 3.52652348013500899215e-02) (50, -1.43555843097856791063e-03) (51, -4.18312417411393147604e-02) (52, -3.21654975414276123047e-03) (53, 3.41369584202766418457e-02) (54, 5.72753921151161193848e-02) (55, -9.04785171151161193848e-02) (56, -9.39758345484733581543e-02) (57, 2.02636420726776123047e-03) (58, -7.81925208504593016734e-02) (59, 4.56235513835726094745e-02) (60, 5.31269584606810282151e-03) (61, -9.31626370213986254587e-02) (62, 8.72235491985482030985e-02) (63, -3.76323875894506304496e-02) (64, 1.11561157060150656362e-01) (65, -5.55807126952367848080e-04) (66, 1.14571138698856975213e-01) (67, 1.19183775571340411226e-01) (68, 1.46590738976649037628e-01) (69, 1.54577130369045273595e-01) (70, 1.32691112283999906873e-01) (71, 2.02181737775338266072e-01) (72, 9.08330836749042386247e-02) (73, 2.15096641029297458436e-01) (74, 2.12697997964400753457e-01) (75, 1.93162129305630425602e-01) (76, 4.30026300625349633400e-02) (77, 1.07455410647428514781e-01) (78, 6.20747119219068749230e-02) (79, -4.68406300919013765527e-02) (80, 3.92192950750201649313e-02) (81, -8.22649088628414904001e-02) (82, 7.28759914636611938477e-03) (83, -1.29699707031250000000e-02) (84, 4.20288071036338806152e-02) (85, 3.48876938223838806152e-02) (86, 6.04240134174359247443e-02) (87, 3.08713839524367740508e-02) (88, 7.41123339857933383090e-02) (89, 6.55016238216747925804e-02) (90, 8.36472969597525789487e-02) (91, 5.47693202340168022735e-02) (92, -7.84894286825982105682e-03) (93, -2.85106158047250847487e-02) (94, -3.49396888013074127799e-02) (95, -1.96994762376365498135e-03) (96, -2.54327233198745963905e-02) (97, -1.40752250934141287519e-01) (98, -3.56600015283683804967e-02) (99, -1.51087988873129224626e-03) (100, -3.88427200886987747386e-02) (101, 6.42456306892498930222e-03) (102, 7.10307638742421754152e-02) (103, 1.03980212103393518386e-01) (104, 1.74412358666242467420e-01) (105, 1.43319702114468872090e-01) (106, 1.11091083273716223490e-01) (107, 2.66844875356702163072e-02) (108, 6.42101988815699242785e-02) (109, 4.20809693717545760944e-03) (110, -6.20379231343830481182e-02) (111, -4.58923354744911193848e-02) (112, -2.13623046875000000000e-04) (113, 6.24103003539574485714e-02) (114, 4.10046253110854311275e-02) (115, -5.81738002504893041145e-03) (116, -5.39760442793573661652e-03) (117, -7.73151409172487397159e-02) (118, 6.11062895107158873809e-02) (119, 4.14479188473941204118e-02) (120, 3.79707755715042449829e-02) (121, -1.21256734924235456963e-01) (122, -2.28614120826255873276e-01) (123, -6.49438684397133508819e-02) (124, -5.91104470148784630346e-02) (125, -5.01338692335530217159e-02) (126, -5.18540384310320345840e-02) (127, -4.89676319416129310347e-02) (128, -3.14493001644721228982e-02) (129, -4.54173484136472169204e-02) (130, 2.73792706708059149778e-02) (131, -1.85548382354709592845e-02) (132, -3.35065750703713235992e-02) (133, 1.36135224293170709053e-01) (134, 1.61560854447707180626e-01) (135, 2.28555627084144341588e-01) (136, 1.89217768456236334895e-01) (137, 1.21650267818075280557e-01) (138, -6.06805011482270187373e-02) (139, 3.58846123251078397143e-02) (140, 6.94213882088661193848e-02) (141, 3.62670943140983581543e-02) (142, 4.38374555386696479475e-02) (143, -5.30561627543715830235e-03) (144, 2.86190806025537723689e-02) (145, 1.16094259337931285381e-01) (146, 6.22437656122844101825e-02) (147, -6.97560077880992474020e-02) (148, -8.37605490178157247039e-02) (149, -5.31186697917677280723e-02) (150, -1.16359672857892532116e-01) (151, -1.19321986588655781780e-01) (152, -6.04842554735185652937e-02) (153, 4.03119007440301338474e-02) (154, -2.66227610685671849111e-02) (155, -1.15675691839419544915e-01) (156, 2.36468003401447933454e-02) (157, 4.05420485928423210420e-02) (158, -4.92941732533452026122e-02) (159, 6.85397062064546040011e-03) (160, -1.83374562278580538477e-02) (161, 4.12725633408681860659e-02) (162, 3.75566600258322863537e-02) (163, 1.70942534973886645089e-01) (164, 1.36769098323481275159e-01) (165, 1.20670116152993417424e-02) (166, -1.94380687796833747987e-04) (167, -9.23361793629506356906e-03) (168, -4.20532375574111938477e-03) (169, -6.67588528884568571664e-02) (170, 2.00895074750019712873e-02) (171, -4.50759834237550796598e-02) (172, -9.67624865669607092666e-03) (173, 4.80930182047430501702e-02) (174, 6.13676191891568273418e-02) (175, 1.58933518054692642096e-02) (176, -8.40611018915458614933e-04) (177, 1.16240810958753312820e-01) (178, 6.97266885052468532447e-02) (179, 1.03289544534106783602e-01) (180, 6.61779889525008352402e-02) (181, 6.16098212158215571832e-02) (182, 1.42862025895142911308e-02) (183, -3.87054358003612666850e-02) (184, 8.36266159025247229897e-03) (185, 4.60124303317257996038e-02) (186, 6.34628349707957034598e-02) (187, 1.34211344740729793257e-01) (188, 1.04878758199165159071e-01) (189, 1.28629397431138242647e-01) (190, 2.65374439730151623351e-01) (191, 3.77529715259364129221e-01) (192, 2.02203600837181252103e-01) (193, 1.48192195352679245701e-01) (194, 2.66982534855305653210e-02) (195, 5.76313149851238849201e-06) (196, -9.07277651319649131034e-02) (197, 3.96030960268688447812e-02) (198, -5.59561219212834498604e-02) (199, 3.84670147713352811314e-02) (200, -1.41374019764244920026e-03) (201, 7.26260038046354777785e-02) (202, 4.18821388566119920220e-04) (203, 8.42517081435576083159e-03) (204, 1.17808906893951556571e-01) (205, 1.13109648115685426650e-01) (206, 1.13028490575750539815e-01) (207, 8.08711937298663419149e-02) (208, 9.68695314160975678996e-02) (209, 7.12798145200432917840e-03) (210, -3.06114164013990032454e-02) (211, 8.81841662119517283314e-02) (212, 6.30570909224874853738e-02) (213, 1.13501978340508694054e-01) (214, 1.75296844451760247541e-01) (215, 1.80184940903818341384e-01) (216, 1.86810628521254157297e-01) (217, 2.17771588126283943687e-01) (218, 1.59143081839912201025e-02) (219, 2.51130793597910462189e-01) (220, 2.29607720734703119048e-01) (221, 1.60002393200865067335e-01) (222, 2.19205680561732479950e-02) (223, -8.78908109738604781391e-02) (224, -3.65017627180467471582e-02) (225, -9.80515678218840669444e-02) (226, 5.20478684518611706133e-02) (227, -2.24057308006145620635e-03) (228, 1.13352185040133279781e-01) (229, 1.14715431796534983455e-01) (230, 8.22676133708174495140e-02) (231, 1.05984987531763136248e-01) (232, 7.11369050782623552065e-02) (233, 1.52621097979836806147e-01) (234, 5.23847218950490647882e-02) (235, -2.41763172563051915998e-02) (236, -5.52846543857400257727e-02) (237, -6.66627775158599722438e-02) (238, 1.36004277821859895919e-02) (239, 1.39458094698693239877e-02) (240, 8.80338254853518659138e-02) (241, -5.16976211866852428112e-02) (242, 6.74553170921178280039e-02) (243, 5.47652390854729484437e-02) (244, 9.99108043366876349967e-03) (245, 1.24004409899820491892e-01) (246, 8.41322160792412343522e-02) (247, 2.71178433399234253276e-01) (248, 2.73870358062033913971e-01) (249, 1.16350131328008310483e-01) (250, -2.43544022382823563411e-02) (251, 4.30664295235013913632e-02) (252, 9.57531368198897420152e-02) (253, -5.63600014291276013578e-02) (254, -7.28018215600741702698e-02) (255, -4.15242341766603670350e-02) (256, -1.50030415959649197216e-02) (257, 4.53180357081619591963e-02) (258, 1.45325421481799943457e-01) (259, 5.09089525165191889022e-02) (260, 1.24299302848342202443e-01) (261, 2.08719133238584250711e-02) (262, 5.45353458542277638732e-02) (263, 4.24904586744703424706e-02) (264, 3.85069756608210217452e-02) (265, -2.71419645731088877982e-02) (266, -9.21811342204772454778e-02) (267, 3.92730255022704591999e-03) (268, 2.38896726602208769180e-03) (269, 8.02757201003364284642e-02) (270, 2.45633609292596234719e-02) (271, -5.80537838194816833287e-03) (272, 6.99439560104455401029e-03) (273, 2.81105718058088302480e-02) (274, 1.54909186797149101000e-01) (275, 2.25310483494998187171e-01) (276, 2.53738399371181089226e-01) (277, -1.60555616550792472352e-02) (278, 5.59793742073920047586e-02) (279, 4.28041902171977309277e-02) (280, 3.93404361365752436308e-02) (281, 8.07136977436839764266e-02) (282, -8.47473819765072050592e-02) (283, 1.03282259723779260008e-01) (284, 1.62461979783346227579e-01) (285, 1.10635208526680808849e-01) (286, 7.13595350123481242388e-02) (287, 1.46084807660761317738e-01) (288, 1.91446159533795901009e-01) (289, 1.44132884854696941002e-01) (290, 1.29278553921195693555e-01) (291, 1.16147321608225967404e-01) (292, 1.16841728509069250896e-01) (293, 5.70868747233443246669e-02) (294, -2.06915249524391192670e-01) (295, -1.88068568543046821251e-01) (296, 6.91030459031172772377e-02) (297, -2.50182826416456803587e-02) (298, -3.27924057650002473419e-02) (299, -5.65365517915669621440e-02) (300, -1.34927284625753290959e-01) (301, -8.88167418482132056679e-03) (302, 8.14673545868726950436e-02) (303, 2.44451392761267261022e-01) (304, 2.08478493736952930071e-01) (305, -3.20834793785861605020e-02) (306, 1.86049097703591959085e-02) (307, -3.23708394893307827012e-02) (308, -1.24349238935466538392e-02) (309, 1.49817975466945991353e-02) (310, -3.76091506627934625204e-03) (311, 3.07907407615274318624e-02) (312, 7.26417044193883310044e-02) (313, 5.74589515367129044510e-02) (314, 3.60043426231639096535e-01) (315, 3.56568515023905852068e-01) (316, 3.30733092010883078515e-01) (317, 4.11199444542248548906e-01) (318, 4.80905626884602310778e-01) (319, 3.89799320577328967108e-01) (320, 4.18937651740356076235e-01) (321, 2.72301997061929368371e-01) (322, -8.14230658259851858283e-02) (323, -2.85619633102283144999e-02) (324, -6.20709607648234837352e-02) (325, 1.39348794878331488922e-01) (326, -2.10245259100061247792e-02) (327, -3.96538715635759153599e-02) (328, 3.98777544169673509034e-02) (329, -5.44561624301485719402e-02) (330, 8.47943555189214631662e-02) (331, 1.95451262760298616339e-01) (332, -8.32421622626437415771e-03) (333, -7.28131641006241614456e-02) (334, -8.84524464870605209299e-02) (335, -2.93629685059002623615e-02) (336, 4.74476244658223605954e-02) (337, -5.48835114333342533044e-02) (338, 9.03517337550916732614e-02) (339, 5.27888043082451897253e-03) (340, 6.15220224076777136291e-02) (341, 2.82435225171298542879e-01) (342, 4.88849844922019105553e-01) (343, 4.67512212068992738523e-01) (344, 4.76515668095951083760e-01) (345, 3.82157666754098512829e-01) (346, 4.14297632838134588518e-01) (347, 2.99835085405222967481e-01) (348, 3.24023183839998785150e-01) (349, 2.02429693783841763155e-01) (350, -2.89089532358733879158e-02) (351, -3.68328792483352887577e-02) (352, 9.47320773019164757978e-02) (353, 1.08545892156821921493e-01) (354, 8.82859332640763133648e-02) (355, -8.33571434138239836242e-02) (356, -1.14454713494925613970e-01) (357, 6.35811371786026563457e-02) (358, 1.22841607916352887897e-01) (359, 1.40392311129320879193e-01) (360, -1.09329500940549047966e-02) (361, -2.31691268327624023959e-02) (362, -1.42439041478973321686e-01) (363, 3.07977147649533579410e-02) (364, 9.21597600219615092909e-02) (365, 8.66735502861947504361e-02) (366, -3.69702298325674458268e-02) (367, 9.49261313969845116345e-02) (368, 1.15016405954902353748e-01) (369, 2.80492001648689981419e-01) (370, 3.31180898058988815169e-01) (371, 2.93667360477398220464e-01) (372, 2.29217937311296769687e-02) (373, 1.97726775648489339066e-02) (374, -6.15082109829761039532e-02) (375, 3.89233356152190665411e-02) (376, 1.41168807412436536630e-01) (377, -1.69816323192218260330e-02) (378, -2.00992507404434472829e-01) (379, -3.32479045162441810835e-02) (380, -5.20571537225222591427e-02) (381, -4.39372333172719658784e-04) (382, -5.88431199141963776067e-02) (383, -5.66210117820968791835e-02) (384, 3.12671378705208363735e-02) (385, 1.43713477443420389879e-01) (386, 2.67483849183002109218e-01) (387, 1.67243761848231892175e-01) (388, -5.96496090303134940402e-03) (389, -1.42198084168005500771e-01) (390, -1.38984797794729358911e-01) (391, -4.25931454289742925101e-02) (392, -6.81589286893148349478e-02) (393, 3.47043848832192525222e-02) (394, 6.84343758579684796617e-02) (395, -3.04719915337904011243e-02) (396, 1.30709201732063184931e-01) (397, 1.53855932313950422019e-01) (398, 7.36382578093440903766e-02) (399, -1.06144353231891780398e-01) (400, -9.63072101592551688132e-02) (401, -4.57605467760920370246e-02) (402, -3.73325796252787500684e-02) (403, 1.23588146409329482922e-02) (404, 7.35527357051465099230e-03) (405, -1.86993482797300714093e-01) (406, -6.51299374859977686647e-02) (407, -5.22440260628884226013e-02) (408, 5.33230244472514755549e-02) (409, 2.95800520732117482037e-02) (410, -8.56530617574998709429e-02) (411, 2.50443517083729846884e-02) (412, 7.70003911950888075832e-02) (413, 1.96693087262261145920e-01) (414, 7.54977062445392199663e-02) (415, 1.01846190901179273203e-01) (416, 7.82483601006490753216e-02) (417, -1.28173455821161297319e-01) (418, -1.74182241759962053163e-01) (419, -9.84875700789361596676e-02) (420, 2.13306279534752722682e-02) (421, -8.84805363083704388139e-02) (422, 6.43548367489392841856e-02) (423, -2.17298612300828794530e-02) (424, -4.35611444144591367089e-02) (425, -7.07164769600915343872e-02) (426, -4.55212374559496243953e-02) (427, -1.57844502508502765314e-02) (428, 8.32431945694446090434e-02) (429, 1.07802923664139967130e-02) (430, -3.12994193721265884234e-02) (431, -1.00324083827501454175e-02) (432, 8.50282008276667944369e-02) (433, -4.45541055289110435322e-02) (434, -5.12985302617938038194e-02) (435, -1.16009950154260410571e-01) (436, 3.48151054472586388155e-02) (437, 2.33128161271196725213e-02) (438, -5.27413646366645394448e-02) (439, 6.93405234317758384366e-02) (440, 1.65697628599336094224e-01) (441, 2.87183759015594355923e-02) (442, 7.91460410516259260660e-02) (443, 4.44804263797664231617e-02) (444, 7.92879916577141422018e-03) (445, -2.11616550754016585767e-01) (446, -1.41322950450042783554e-01) (447, -1.09321237736491536086e-01) (448, 2.68630461605085697763e-02) (449, -6.33267349158275899557e-02) (450, 8.74454541047237493556e-02) (451, 3.56328287779571900584e-02) (452, -9.02166516937275286825e-02) (453, -6.49954328584214230391e-02) (454, -1.97453751300895791188e-01) (455, -2.19541348620232723565e-02) (456, -1.27321125686552603234e-02) (457, -7.46620480194874203139e-02) (458, -1.53033770492344237818e-02) (459, 7.85267877685849186031e-02) (460, 4.99296601483438934332e-02) (461, 1.30179924044640966951e-02) (462, -1.97340761229530370358e-01) (463, -1.11236571045209911568e-01) (464, -1.56676110377753780023e-01) (465, -1.39259024427574207294e-01) (466, 3.17953310551035740750e-03) (467, -1.51170723338202705327e-02) (468, 6.22701132550633890128e-02) (469, -1.04613367594130104998e-01) (470, -4.00827889964572234294e-02) (471, -1.36285857135276994301e-01) (472, -3.01973858122745880683e-02) (473, -2.18107146613199354146e-01) (474, -1.99329723675726933063e-01) (475, -9.23822866021203753517e-02) (476, 6.64367750287055969238e-02) (477, 3.30808805577713100493e-03) (478, 4.67822240278190637497e-02) (479, -3.27936404670952433293e-02) (480, -9.62867961071672967543e-02) (481, -1.38560543921629059083e-01) (482, -1.36492391046807881594e-01) (483, -1.03642012990298335029e-01) (484, -8.79811343010511726082e-02) (485, -4.28048091416291104361e-02) (486, -3.48278126021115894129e-02) (487, 1.28007781300361000998e-01) (488, -1.68643728009162906234e-02) (489, -5.04195058099201759427e-02) (490, -1.57833750741232653469e-01) (491, -2.37884386401223030250e-01) (492, -3.46229809494109017076e-02) (493, -2.52039029595771055248e-02) (494, -1.60405328517256223764e-01) (495, -1.29690733578369798984e-02) (496, -8.78988333210382888350e-02) (497, -7.14719861817272733573e-02) (498, -1.82753794839208838496e-01) (499, -9.12673780177659654811e-02) (500, -2.52669597088458208756e-01) (501, -2.40759552861713466143e-01) (502, 1.40084784745640681530e-02) (503, -3.83987398642727162032e-03) (504, -5.53087382686509657082e-02) (505, 3.20078398607971104095e-02) (506, -5.70785269225683455918e-02) (507, 6.11187417934108342954e-02) (508, -2.26742647464613450436e-01) (509, -2.02154575101994055109e-01) (510, -2.15248774529557873603e-01) (511, -2.07376563192703367022e-01) (512, -6.42759191595696915966e-02) (513, -9.66833004695613479340e-02) (514, 4.83333172106278213809e-02) (515, 1.50897828674791678605e-01) (516, 1.73062473971073542411e-02) (517, -7.84215699189257930968e-02) (518, -2.41053373510905277755e-01) (519, -1.60049538251087725138e-01) (520, -5.22006872681828534843e-02) (521, -1.28399168176239475425e-01) (522, -3.66589258884020829932e-02) (523, -1.33950719415715041594e-01) (524, -1.44962972362525033265e-01) (525, -1.00246052422697837225e-01) (526, -1.10734066338659772888e-01) (527, -2.90001299162140901977e-01) (528, -3.09404941947099276778e-01) (529, -1.59708701537805475290e-01) (530, 3.68665547709237026441e-02) (531, -9.92578843364834567664e-02) (532, 1.86744393986475404681e-03) (533, 9.62905779144255097313e-02) (534, 1.35835775531961050477e-01) (535, 3.02205642400963584836e-04) (536, -1.67478076084137561530e-01) (537, -1.37932992523903064086e-01) (538, -1.50661309852403224596e-01) (539, -1.96321806018147193562e-01) (540, -1.06301233820079804593e-01) (541, -1.17619008418412496209e-01) (542, 3.52799530893671761667e-02) (543, 1.12544471549040139835e-01) (544, 1.91934310612039471522e-01) (545, -1.52971388700794186377e-01) (546, -1.10665891673252136940e-01) (547, -1.04446180009512154530e-01) (548, -5.13773464814552618951e-02) (549, -1.66784278084138141984e-02) (550, -8.87108735658140995506e-02) (551, -7.16949249190344806149e-03) (552, -5.72181633542305917439e-02) (553, -5.59583998917576250220e-02) (554, -1.79106206695709480048e-01) (555, -2.61936238678244837086e-01) (556, -2.52721892355895982885e-01) (557, -1.31474974889890350305e-01) (558, -5.88180515308344168887e-04) (559, -9.25664148750875021010e-02) (560, 9.13574174046516418457e-02) (561, -3.50229627742709506699e-02) (562, -2.65208602293755951740e-02) (563, 6.49781482275263444492e-02) (564, -2.23485739010385375813e-01) (565, -1.47781134055384011372e-01) (566, -2.80995096894544570121e-02) (567, -1.61887438858974191946e-01) (568, -4.29926263190165136585e-02) (569, -2.69948826669320941785e-02) (570, 9.69848857855513252213e-02) (571, -3.42945337181457636511e-03) (572, 1.10074065485310040868e-01) (573, -8.92263113412860089935e-03) (574, 6.60655475723766205665e-02) (575, 8.49511644842185914550e-02) (576, 9.40403627870409347667e-02) (577, 1.88433702172799616426e-01) (578, -9.50716726083305693762e-03) (579, -7.65044159291354275432e-02) (580, -3.47334770467850675879e-02) (581, -4.93499882695670535893e-02) (582, -2.63298258148483121932e-01) (583, -2.08865803177861103501e-01) (584, -1.80542925463393677532e-01) (585, -1.25150577918171024283e-01) (586, -4.99000187556529559846e-03) (587, -7.85244664569593464609e-02) (588, -8.82959798500031617374e-02) (589, -1.40688198781302002682e-02) (590, -4.75102353153229132326e-03) (591, -9.86502234381534878760e-03) (592, -1.27524813490718674780e-01) (593, -1.08961769849946168986e-01) (594, -6.92352590304873890398e-03) (595, 6.33219844303547791525e-03) (596, -4.12165905168261556546e-02) (597, 1.20724597456736016526e-02) (598, -6.46971154977522555640e-02) (599, 1.26154195192677426318e-01) (600, 1.08843281080407167094e-01) (601, 1.17647154813302109999e-01) (602, 6.46068671189715115766e-02) (603, 1.16719026197812242307e-01) (604, 1.86845320326483044227e-01) (605, 1.22317471671135075129e-01) (606, 1.31278115781369497661e-01) (607, 7.95149973767328016594e-02) (608, 2.20088818470783910419e-02) (609, -1.71181831311807669538e-01) (610, -2.27891316235482616070e-01) (611, -1.59913514266289830124e-01) (612, -1.23602739944118369952e-01) (613, -6.72909778148370746331e-03) (614, -1.17920709064977639879e-02) (615, -5.72950789938111923472e-02) (616, 4.81590744642623833777e-03) (617, -2.23680876699854890022e-02) (618, -8.26226648400430613295e-03) (619, -6.45786977915190907318e-02) (620, -8.61071448152100071827e-02) (621, -9.91487724104253842494e-02) (622, 4.18346851906645084140e-02) (623, 6.07609786037344931642e-02) (624, 2.66726323061166441242e-02) (625, 4.21056178665756980495e-02) (626, 7.25350397866982854467e-02) (627, 1.00904615092276786492e-01) (628, 1.83348936591013172981e-01) (629, 2.54876615592638855468e-01) (630, 2.14758888605080355827e-01) (631, 3.12353146500217615511e-01) (632, 2.11236217208761040132e-01) (633, 2.34974352705773464889e-01) (634, 1.36464802138552637745e-01) (635, 9.38729103511003609706e-02) (636, 1.08489210652144250913e-02) (637, -1.26664254684107246973e-01) (638, -7.59372164367217022951e-02) (639, -1.73945397338895885175e-01) (640, 1.81496011163906761920e-02) (641, -1.31776730925533356459e-02) (642, 3.66468113375034779122e-02) (643, 2.06287475302150725975e-02) (644, 4.28772047162055969238e-02) (645, 2.00927704572677612305e-02) (646, 6.90640674531663029123e-02) (647, -5.96065388256994226068e-03) (648, -1.32172180132386456186e-03) (649, 5.06292791459939800491e-02) (650, 1.06390011068502959857e-01) (651, 2.14612446022792946465e-01) (652, 1.86808471015854599129e-01) (653, 1.91685800528984512381e-01) (654, 1.86326701586707055291e-01) (655, 3.30308213185986743188e-01) (656, 4.24552475172124910152e-01) (657, 4.13694258673428238993e-01) (658, 3.41128860280770107583e-01) (659, 2.55539579736250799247e-01) (660, 2.30193530841531296405e-01) (661, 2.03987583290550111847e-01) (662, 2.21273565882553230333e-01) (663, 1.08658920688182100700e-01) (664, 5.02888782413749915734e-02) (665, 3.91427844922907167829e-03) (666, 8.16071422352906694631e-02) (667, -2.32008960643482926856e-02) (668, -3.19792532039637296057e-03) (669, -9.01659502541844876111e-02) (670, -6.62541021371282901065e-02) (671, 6.32446333765983581543e-02) (672, -7.80700668692588806152e-02) (673, 6.44714310765266418457e-02) (674, -1.95199723047735952675e-02) (675, 4.60386605587918135152e-02) (676, 1.58269785394747147800e-01) (677, 8.96725212611525768214e-02) (678, 1.85938056795222739215e-01) (679, 1.73870721078334095067e-01) (680, 1.87334951296733387416e-01) (681, 1.42879790337551854096e-01) (682, 2.57556427498435547285e-01) (683, 1.82570986770429655177e-01) (684, 2.80336017932892034299e-01) (685, 2.34524577030383513110e-01) (686, 2.06532349962902844753e-01) (687, 2.24271357162787260409e-01) (688, 1.99974039324510938220e-01) (689, 2.47011099908285736149e-01) (690, 1.14422426183823866541e-01) (691, 1.44503367610522653885e-01) (692, 5.81703745242684658323e-02) (693, 6.52932821835958132617e-02) (694, 1.02766569508270164124e-01) (695, -4.70568083598529654510e-02) (696, 3.19947941846036379432e-02) (697, -1.07233095997415692202e-01) (698, 3.71483198733291164473e-02) (699, -7.05627426505088806152e-02) (700, 8.13415572047233581543e-02) (701, 4.62951734662055969238e-02) (702, 5.22212001967167077643e-02) (703, -4.47916058840219233339e-02) (704, 3.64710202142532122216e-02) (705, -2.30512941618245363606e-02) (706, 2.08292095154077094854e-01) (707, 1.71270117844456531975e-01) (708, 1.63864967007231937535e-01) (709, 3.10703363695829348767e-01) (710, 2.34497494731127548162e-01) (711, 2.54163549090539175879e-01) (712, 1.45584872051816666128e-01) (713, 2.70869297768384142966e-01) (714, 2.75245717368750086873e-01) (715, 2.11241866175050557741e-01) (716, 1.11678781702182039481e-01) (717, 1.68120160795582701541e-01) (718, 1.82890424899651571344e-01) (719, 2.21732827462666842733e-01) (720, 6.92993196803258632022e-02) (721, 2.37375351549963704845e-02) (722, 1.14295592675036333796e-01) (723, 1.06371335450605924988e-01) (724, 3.22584994953201316392e-03) (725, -4.41725396579612447634e-02) (726, 5.28994124202785825917e-02) (727, 6.59240707755088806152e-02) (728, -3.33984345197677612305e-02) (729, -2.84118652343750000000e-02) (730, -6.25854507088661193848e-02) (731, 9.20955448396277714940e-02) (732, -7.64247822397224815805e-03) (733, -1.45928331719172126035e-02) (734, 1.09629451263845087428e-01) (735, -2.76379068384120666138e-03) (736, -5.10367083841054974824e-02) (737, -1.05399530733024469203e-02) (738, 4.17364360378043586230e-02) (739, -5.18065379636073117253e-03) (740, 8.44376877305629963688e-02) (741, -7.83550515859627455528e-03) (742, 8.67065616461410448856e-02) (743, -4.07739899546096309924e-02) (744, 8.71849481535802856014e-02) (745, 8.76754362117192070913e-02) (746, 1.15035910780883713495e-02) (747, -5.69609049907515083144e-02) (748, -1.31932071822705009739e-02) (749, 6.95404232691411022804e-02) (750, -2.69627831258441412465e-02) (751, -8.51349448464476001031e-03) (752, -8.33773650073766081636e-02) (753, -1.16031749539952586114e-02) (754, -5.17272949218750000000e-02) (755, 9.05090346932411193848e-02) (756, 5.54565414786338806152e-02) (757, -8.63769575953483581543e-02) (758, -3.97338718175888061523e-03) (759, -6.96227997541427612305e-02) (760, 2.59298274050889995812e-02) (761, 1.38632577096284258233e-02) (762, 1.62801637741188769126e-02) (763, 4.34171963755975859334e-02) (764, -3.90332030400965049322e-02) (765, -1.03193628980358838299e-02) (766, 9.26033862169138854981e-02) (767, -8.93514139727472900265e-02) (768, -6.55666426158868081986e-02) (769, 3.25852995238760934082e-02) (770, -9.07174351704739465041e-03) (771, -2.28793961577439218524e-02) (772, 8.58302405856904149228e-02) (773, 9.82493603359977096812e-02) (774, 8.62161603970097306648e-02) (775, -5.01742800509760028538e-02) (776, 1.59316904781829915549e-02) (777, -4.42106513081840790669e-02) (778, -2.41852427725604383901e-02) (779, -8.00817287676015821495e-04) (780, -1.26892104744911193848e-02) (781, 1.85547024011611938477e-03) (782, -9.57763716578483581543e-02) (783, 1.44531279802322387695e-02) (784, 8.55582411664018049891e-01) (0, -3.51257324218750000000e-02) (1, 1.37817412614822387695e-02) (2, 1.21765136718750000000e-02) (3, 2.64831557869911193848e-02) (4, -7.93640166521072387695e-02) (5, 3.03588882088661193848e-02) (6, 1.43798813223838806152e-02) (7, -4.64843772351741790771e-02) (8, 7.02575668692588806152e-02) (9, -5.56030124425888061523e-03) (10, 6.80725052952766418457e-02) (11, 3.23489308357238769531e-04) (12, -3.04021065553925565195e-02) (13, -7.09639576940375525066e-03) (14, -3.90582554334433715293e-02) (15, -3.14797191892810454550e-02) (16, 1.73217803239822387695e-02) (17, -9.41650420427322387695e-02) (18, 8.94042924046516418457e-02) (19, 2.99438461661338806152e-02) (20, -8.11218246817588806152e-02) (21, 6.75720199942588806152e-02) (22, 3.35021987557411193848e-02) (23, 2.41821259260177612305e-02) (24, -8.68042036890983581543e-02) (25, -1.63696259260177612305e-02) (26, 9.80895981192588806152e-02) (27, 6.28539994359016418457e-02) (28, 8.77807661890983581543e-02) (29, 2.43835449218750000000e-02) (30, -2.66906768083572387695e-02) (31, -2.82958969473838806152e-02) (32, -2.31569666379420405211e-02) (33, 5.29827745137668726372e-02) (34, -2.63307423330806367190e-02) (35, 4.92690296654576219415e-03) (36, -4.05827415597418278415e-02) (37, 9.21982700489802492472e-02) (38, 3.06933328145536504783e-02) (39, -3.39628228225842543342e-02) (40, 5.90194096441000320974e-02) (41, -4.66279171613421389297e-02) (42, 1.56162181837768577336e-02) (43, 1.45225982833752320644e-01) (44, 6.74557427281002042196e-02) (45, 1.03133478768466776976e-01) (46, 1.02459135830695380331e-01) (47, 4.50102040538968711791e-02) (48, 4.76910425845154320457e-02) (49, 8.13607324583739965895e-02) (50, -6.62649628697785375575e-02) (51, -6.56907095185304545915e-02) (52, 2.64892652630805969238e-02) (53, 9.83459427952766418457e-02) (54, 3.34472730755805969238e-02) (55, 8.81408676505088806152e-02) (56, -9.19494628906250000000e-02) (57, -9.55200195312500000000e-02) (58, 2.23639431452800976907e-02) (59, 2.00089364782419856792e-02) (60, 5.54316528704974567643e-02) (61, -7.31250348290803514617e-02) (62, -8.20822096889578384227e-02) (63, 5.81810350378927781945e-02) (64, -3.37360634929448344188e-02) (65, -3.20711506999814474628e-02) (66, 6.99264547043306483598e-02) (67, 1.18286566152702748989e-01) (68, 1.75199503701548089940e-02) (69, 2.54379786266172025488e-01) (70, 2.70622518004950241011e-01) (71, 3.09142418427393206315e-01) (72, 1.54316169083840021292e-01) (73, 3.14625937896237717339e-01) (74, 3.58228361639178982667e-01) (75, 2.54594470765788893907e-01) (76, 1.92779102200418328561e-01) (77, 1.42093745170499025088e-01) (78, 7.64753677372156104308e-02) (79, 1.17030132901390207523e-01) (80, -1.98191623665569006951e-02) (81, -7.20098814863395775276e-02) (82, 4.75463941693305969238e-02) (83, 2.28576660156250000000e-02) (84, -5.63964992761611938477e-03) (85, -9.03259292244911193848e-02) (86, 7.70572260626243340370e-03) (87, 8.10705664633743910974e-02) (88, -3.82568414100697071212e-02) (89, -7.92290298494890549152e-02) (90, 5.92312779762571434139e-02) (91, 7.41607868015368033171e-03) (92, -9.81939379435088216530e-02) (93, -1.48525603588723881243e-01) (94, -8.38122051874637952196e-02) (95, -1.91042686365319958064e-01) (96, -1.53477905216840515568e-01) (97, -9.65446361630843546964e-02) (98, 1.29145002018010351952e-01) (99, 1.21494240771467393314e-01) (100, 1.39804016500542971357e-01) (101, 1.32530352410798191176e-01) (102, 2.33634084398501390423e-01) (103, 1.82316222473373423796e-01) (104, 2.24358971473641338745e-01) (105, 1.33727109828143536641e-01) (106, 1.61428688408753101546e-01) (107, 1.33413786577111309617e-01) (108, -4.25678794945646421510e-02) (109, -7.82707663604268431834e-03) (110, 2.03345444879856132592e-02) (111, -8.94897505640983581543e-02) (112, 6.80786147713661193848e-02) (113, 2.03716802570482989621e-02) (114, 5.56803021917312707112e-02) (115, 8.45487519982184437817e-02) (116, -4.46718590731673900751e-02) (117, 5.61357841705801691168e-02) (118, 1.00987268165692763155e-02) (119, -3.83440836380493088598e-02) (120, -6.68944143333376206595e-02) (121, -1.65224613634500777648e-01) (122, -1.52675011822241881582e-02) (123, 2.94772227418271665078e-02) (124, 6.75631572205617628515e-04) (125, -1.20960132495424754762e-01) (126, 4.17830633485077526657e-03) (127, 4.97353787537732350277e-02) (128, -3.58580733248803837365e-02) (129, 1.96500010657388507473e-01) (130, 1.28495053742805009911e-01) (131, 2.17384194705942640491e-01) (132, 1.32954098045768687175e-01) (133, 3.24307641626665976720e-01) (134, 2.96312876630116128762e-01) (135, 2.79914217603906778642e-01) (136, 1.34432687260016725528e-01) (137, 9.70265254652571684790e-02) (138, 1.60392494808902670578e-02) (139, 6.04136642623467889912e-02) (140, 8.68286117911338806152e-02) (141, 6.57653883099555969238e-02) (142, 6.94250222742669315101e-02) (143, 7.44555067823654982001e-03) (144, 6.09619737579952108986e-02) (145, 6.33683904146979809502e-02) (146, 1.12831446294032133881e-01) (147, -1.20493369764263277139e-02) (148, -1.13829170228632051143e-01) (149, 5.42438953863297809721e-02) (150, -1.39793120502665235705e-01) (151, -2.77688619547704351742e-01) (152, -1.58291156306677088805e-01) (153, -2.86634186009581071186e-01) (154, -9.64800385998591247816e-02) (155, -7.03353076520151221374e-02) (156, -2.72075461151796427206e-01) (157, -1.46966882254339459291e-01) (158, -1.10384272572883260222e-01) (159, -1.88901537765448004902e-02) (160, 2.14538999028206084363e-02) (161, -3.95001080890380537602e-02) (162, 9.22869984279312410846e-02) (163, 3.74110648676454604633e-01) (164, 2.68655054823685346399e-01) (165, 6.34559104089341408095e-02) (166, 1.03823532316745778536e-01) (167, -8.41912302240949289578e-02) (168, 4.56481948494911193848e-02) (169, 9.59608689792287999909e-02) (170, 1.01744224780209738257e-01) (171, 8.83104869938985959088e-02) (172, 2.14685388559058068503e-02) (173, -4.71318993819500250964e-02) (174, -5.73105553627251684823e-02) (175, 1.31522187246333453238e-03) (176, 4.44182536221345639071e-02) (177, -5.37217075799626200827e-02) (178, -7.45724576306616357413e-03) (179, 6.74598002128166396307e-02) (180, -1.91537615445525641160e-03) (181, -1.06900199687161717721e-01) (182, -1.57866535313267636331e-01) (183, -5.77252535961653018282e-02) (184, -1.07725318058077029759e-01) (185, 1.04145143795028483069e-01) (186, 5.45337319369683104497e-02) (187, 1.51796469035834769024e-01) (188, 1.14316703373246369990e-01) (189, 6.15531887260227505987e-02) (190, 1.78926001524824268563e-01) (191, 4.05036083933330459672e-01) (192, 2.02234356910514168071e-01) (193, 1.40877073976038630354e-01) (194, 3.43536642653421986360e-02) (195, 7.58500418396162862100e-02) (196, 3.94667254268096859282e-02) (197, -3.08265170049690506726e-02) (198, -4.08455589127755275963e-03) (199, 4.79826477490652922309e-02) (200, 5.57072875614763041163e-02) (201, -8.37909914369106140208e-02) (202, 3.74053538921693311606e-03) (203, 2.74041934433205472410e-02) (204, -1.71723392369905747401e-01) (205, 2.00776286333370981851e-02) (206, 1.75794501944762544821e-02) (207, -9.91022837110891868795e-02) (208, 1.07479212522924152950e-01) (209, -1.18225043052883838079e-01) (210, -4.22983671680461428832e-02) (211, 1.37060244796188945848e-01) (212, -1.03571634511152085162e-02) (213, 1.16300518386620838074e-01) (214, -1.02525258875242764739e-02) (215, 7.51133858825293737604e-02) (216, 2.57803068397449763882e-01) (217, -2.27574289800096668523e-02) (218, -1.00926579664081639276e-01) (219, 4.52695823104300121287e-01) (220, 2.93241131387585785006e-01) (221, 1.46745480549547752114e-01) (222, 1.00866108704324705658e-01) (223, -3.92323308751131027972e-02) (224, 3.08848930372851576687e-02) (225, 1.69350953894344402606e-02) (226, 9.34415922759864875369e-02) (227, 4.39021186409250391280e-04) (228, 3.60153984930676185350e-02) (229, -9.84494421189637813896e-02) (230, 1.45391208880431110906e-01) (231, 6.61310035102450344269e-02) (232, 5.24207213580589470592e-03) (233, 4.32716680069119077889e-02) (234, -1.86630015766877183081e-01) (235, -8.17053106840915227549e-02) (236, 3.15252701981470415116e-02) (237, 1.40178720039845824269e-02) (238, -1.07896810966888970912e-02) (239, -2.72343789550647079334e-02) (240, 1.09922827030681416471e-01) (241, 5.43475020241975387281e-02) (242, 1.41981904859827895438e-01) (243, -6.00032538155447891376e-03) (244, -2.27510523149396307052e-02) (245, 3.91714416191424538716e-02) (246, -6.36573454197530419485e-02) (247, 1.97660898269120227644e-01) (248, 3.43235149093642943896e-01) (249, 1.42462927208513806532e-01) (250, 5.59805274018859433394e-02) (251, 3.65723634411585576953e-02) (252, 6.52949150268060662938e-02) (253, 8.63912548150944439862e-03) (254, 1.11174249472442934761e-01) (255, 1.43169433970002230039e-01) (256, 3.28385982476533770658e-03) (257, -2.22081208668391122396e-01) (258, 1.10163057410527412405e-01) (259, -8.06736789938687637314e-02) (260, 2.13875745174258134751e-02) (261, -1.08822861506222584582e-01) (262, -1.26389784251074079741e-02) (263, -2.73844983891807225440e-02) (264, 2.92680967681480767861e-02) (265, 2.90560357341773621564e-02) (266, 9.45633077113909592537e-03) (267, -3.80723468111635460209e-02) (268, 6.42159872113185897780e-02) (269, 3.53464674673486661804e-02) (270, 6.24732292526011048772e-02) (271, 8.44951619357363209462e-02) (272, 1.84374291930511191584e-01) (273, 9.29110222327562407241e-02) (274, -7.23929204296630685045e-02) (275, 3.98275398007205197470e-02) (276, 3.13896185071660671628e-01) (277, 1.21746689764705956494e-01) (278, 1.32313055740229165019e-02) (279, -9.05690703516911221893e-02) (280, -1.75451555593373470510e-02) (281, -8.36280801859246303298e-02) (282, -2.99890966790983364010e-02) (283, 9.38778279291591633005e-02) (284, 8.35612245751441024000e-02) (285, -1.65487078118036617935e-01) (286, -2.33624955338365331015e-01) (287, -5.59205082662257435544e-02) (288, -2.00764701959797453590e-01) (289, -2.44088563690653265192e-01) (290, -1.76136034240123140471e-01) (291, 3.13623878132849240319e-02) (292, 1.12136239286666647419e-01) (293, 3.20021540096122936170e-01) (294, 2.29255431017247934822e-01) (295, 1.22791515286844718502e-01) (296, -3.16891314291710976883e-03) (297, -1.57576998076233654178e-01) (298, -1.13321146827743621244e-01) (299, 1.47385015449368217411e-01) (300, 1.26947111432161197087e-01) (301, 1.38915833877331973412e-01) (302, 1.14173958953017296025e-01) (303, 1.02837087194149592873e-01) (304, 8.79914142104609858785e-02) (305, -9.35650862171202857276e-03) (306, -1.87575284508351772250e-02) (307, -3.37897152551278889820e-02) (308, -4.07600822117560809832e-02) (309, -6.38689476531845573559e-02) (310, 4.14390774548318227555e-02) (311, 1.64425205894884907121e-01) (312, 2.07030761315630668085e-01) (313, 5.75408526014097518320e-02) (314, 2.38704204167920791546e-01) (315, 4.79560489812255075215e-01) (316, 2.93434474836350878135e-01) (317, 4.23501766662901013571e-01) (318, 5.83339040621836946166e-01) (319, 6.54084981854850866512e-01) (320, 6.99159221658595897431e-01) (321, 5.78052888795427821655e-01) (322, 4.24075155045064322579e-01) (323, 3.48007435078484084201e-01) (324, 5.05897548186052467556e-02) (325, 1.59100496956341097565e-01) (326, -1.21230359823431286040e-03) (327, -6.79246048814638458957e-02) (328, 1.89486733086854652885e-01) (329, 9.20098202325461134166e-02) (330, 1.83561118229372682853e-01) (331, 2.23361255355897486696e-01) (332, 2.01518352540592526889e-02) (333, -3.17370303822829408213e-02) (334, -4.49049999590207370853e-03) (335, -8.59151820002710397972e-02) (336, -6.39434643397309432356e-02) (337, -3.40294722005151165090e-02) (338, 8.61690886456945859262e-02) (339, 1.47789818280871149137e-01) (340, 3.15527992837620618882e-01) (341, 6.69661293272022062339e-01) (342, 1.08857645602903940762e+00) (343, 1.29317098940123287321e+00) (344, 1.24034023533494752733e+00) (345, 1.27129017406361777276e+00) (346, 1.08090067489260044375e+00) (347, 9.04033833978530765307e-01) (348, 8.84289809258211434440e-01) (349, 5.55633784769786087665e-01) (350, 8.41740631394429006384e-01) (351, 4.91502747831013886426e-01) (352, 2.08228180364018689019e-01) (353, 4.13595592982292703521e-01) (354, 1.33778740492346476243e-01) (355, -3.65155201800317283367e-02) (356, 1.02365210764728958859e-01) (357, -6.39313318600247398882e-02) (358, 2.06320241164124645872e-01) (359, 3.21185668876786789561e-01) (360, -1.47511446335725132650e-01) (361, -1.13510515922906465858e-01) (362, -7.24789095230556762450e-02) (363, 5.31880492565628901214e-02) (364, 6.58370727305230690751e-02) (365, 6.88935936463889401354e-03) (366, -1.57604070286973124704e-02) (367, 1.00027579575608441265e-01) (368, 5.04982999580445457433e-01) (369, 9.82411071136405689153e-01) (370, 1.28063453027234608328e+00) (371, 1.39481379740107525045e+00) (372, 1.13237624691878480121e+00) (373, 6.19529174013962791179e-01) (374, 2.96316759761360737357e-01) (375, 2.33647671468366763259e-01) (376, 5.73191585416070667480e-02) (377, -2.40747370635728645538e-02) (378, 2.84460762293758939734e-01) (379, 3.02326001052209469844e-01) (380, 1.64033671206661318953e-01) (381, 1.86153828537217819195e-01) (382, 1.78814926241185112588e-01) (383, 2.47343817411723371213e-01) (384, 6.91538349847428124306e-02) (385, 2.04261469773009581019e-02) (386, 1.98931634677720625692e-01) (387, 1.25261772018622874469e-01) (388, -1.77978448930319832488e-01) (389, -3.27924113616921475423e-01) (390, -5.35893920447979080213e-02) (391, -2.04609266018828750769e-03) (392, 3.13018417313223676346e-02) (393, 1.84454545914268450146e-02) (394, -5.93371953659240555096e-03) (395, 2.33795989661997272169e-01) (396, 3.74245355413608982165e-01) (397, 7.99917230224368225322e-01) (398, 6.68494016559072257166e-01) (399, 3.67430484116706757014e-01) (400, 1.35987617846194230875e-01) (401, -1.30289011136394405899e-01) (402, -1.38677773476307442113e-01) (403, 2.85888419170358051846e-02) (404, -9.14395482085508456982e-03) (405, -3.85877201487107258579e-03) (406, 2.08735106332031905563e-01) (407, 2.47496576934477158227e-01) (408, -2.51490933769344740534e-02) (409, 2.56334968115226935481e-01) (410, 3.30011579431373491822e-02) (411, 5.06010683367674810040e-02) (412, 1.97407761076705656755e-01) (413, 2.20293642625139285407e-01) (414, 1.83297874994413356742e-01) (415, 2.32925294120172904355e-01) (416, 1.92358405268178989100e-01) (417, -2.03651871695296027287e-01) (418, -2.35030402436997687410e-01) (419, -6.14168508496865245272e-02) (420, -2.76895868697039082562e-02) (421, 7.59420003316572111984e-02) (422, 3.39849252589570910432e-02) (423, 5.71759521968852393869e-02) (424, 1.92198934010219729673e-01) (425, 1.08237933024453225617e-01) (426, -9.63036973835820903078e-02) (427, -1.43651607205384279631e-01) (428, -1.64577228611236331401e-01) (429, -7.37728795817934462908e-02) (430, -8.69265400536800847409e-02) (431, -4.39536789852821713209e-02) (432, -6.85376216212318142146e-03) (433, -1.41880309435134688290e-01) (434, 5.20034298584940712917e-02) (435, 1.52025766332823414340e-01) (436, -3.75894770055910307227e-02) (437, 1.87247290412866002063e-01) (438, 1.78721253604737784215e-01) (439, 9.37404425548225561649e-02) (440, 2.60104098268845063124e-01) (441, 1.13939491050198127287e-01) (442, 1.93244871390285510859e-01) (443, 2.11064509310853298807e-01) (444, -1.03873354887064617280e-01) (445, -2.82069467619332325814e-01) (446, -2.92000661384724857772e-01) (447, -1.00256527916167612058e-02) (448, 6.96014374760447057655e-02) (449, -5.17509747770416531770e-04) (450, 1.05396788861929366354e-01) (451, -3.57759799473273340520e-02) (452, 7.34776218238716027908e-02) (453, -9.46814879620931360016e-02) (454, -2.89906808630958079398e-01) (455, -1.05967056878047971580e-01) (456, -8.50406041394217160345e-02) (457, -8.80117071580788362661e-02) (458, -1.27540814426118809255e-01) (459, -1.43412700818727284480e-01) (460, -2.20581299839933187013e-01) (461, -1.90359273279187363181e-01) (462, 1.42061346332734150799e-01) (463, 2.16745988019262925128e-02) (464, 1.46599836547164786432e-02) (465, 1.66655873522570559253e-02) (466, 5.38515716613802430945e-02) (467, 3.18223761085545259197e-02) (468, 1.55986382464966683026e-01) (469, -9.45970148111107828059e-02) (470, -1.47932846123213057599e-01) (471, -2.29691515143049078407e-02) (472, -8.86925247359810070558e-02) (473, -3.77768487094980287555e-01) (474, -3.10319200451824261933e-01) (475, 4.61479761768802052013e-02) (476, -7.33825713396072387695e-02) (477, 5.51371714429822537551e-02) (478, 5.30687404394362960414e-02) (479, 3.02626923239071830840e-02) (480, -1.58810349025680502821e-01) (481, -3.30715154920027787355e-01) (482, -2.43074730954879913991e-01) (483, -1.68489190968213770061e-01) (484, -2.38336123834635038587e-01) (485, -2.57053523291369268033e-01) (486, -1.24458460428591280444e-01) (487, -1.76142544987170607262e-01) (488, -1.56382413689313687355e-01) (489, -1.52206686574401534040e-01) (490, -6.82160368393176369528e-02) (491, -9.03625214708030227717e-02) (492, 3.12892213635475036071e-02) (493, 2.77396981372028880730e-02) (494, 9.53861211499667932534e-02) (495, 1.92515981885366449511e-01) (496, 9.53780021489546991909e-02) (497, 9.09858158045113996071e-02) (498, -2.92714844134114859919e-02) (499, -1.74969198037695977677e-01) (500, -2.41288157734577124458e-01) (501, -5.50836635576863686836e-01) (502, -2.46291924683071011826e-01) (503, 3.26180491338840666815e-02) (504, -6.04475523249496226458e-03) (505, -3.07170433529097113012e-02) (506, 2.10728149362759999141e-02) (507, 7.94568435162385511283e-02) (508, -1.04536904904638516811e-01) (509, -3.48505952212142089408e-01) (510, -1.76283591016950347274e-01) (511, -3.25193132809601381794e-01) (512, -2.99322473424691204436e-01) (513, -2.47203116484208507142e-01) (514, -3.22405366989339414729e-01) (515, -1.70439052479190972234e-01) (516, -4.46672684815077769560e-01) (517, -2.08787363306073475711e-01) (518, -2.34733039035206564327e-01) (519, -8.88569775347295698342e-02) (520, -8.69950843680405566660e-02) (521, -1.13929778614751037180e-01) (522, 2.48602435191637542722e-02) (523, 7.65180177641569397862e-02) (524, 2.17649309730307966015e-02) (525, -4.76243121469481570096e-02) (526, -1.45205336955748099542e-02) (527, -2.82040481654405872369e-01) (528, -6.15263724506938447512e-01) (529, -5.10866344831504060053e-01) (530, -2.29247172305209225007e-02) (531, 1.62916194356407806332e-02) (532, -1.95081702248028239499e-02) (533, -9.78171744729827985498e-02) (534, 3.35306035040696601146e-02) (535, 9.60656143069417989278e-02) (536, -9.20274520730872264140e-02) (537, -7.30541791446526478371e-02) (538, -4.49196461649768938318e-02) (539, -1.67490677664235143585e-01) (540, -5.69593879855807491697e-02) (541, -2.81986367917503089053e-01) (542, -2.13747524305440861347e-01) (543, -2.83730677330150282689e-01) (544, -3.16321957105583861924e-01) (545, -2.54675443177764138092e-01) (546, -1.40486480189646600891e-01) (547, 2.82278071214591948571e-03) (548, -1.59095540181997147089e-01) (549, -9.56176767960253276568e-02) (550, -5.01140257777441464060e-02) (551, 1.05047145934469413064e-01) (552, -9.29618868168228806859e-02) (553, -6.46509248153869509057e-02) (554, -4.99069998219271171447e-02) (555, -1.29914922871508992097e-01) (556, -4.59767783272041097309e-01) (557, -3.56165335137846317259e-01) (558, -1.39650365187536817935e-01) (559, 9.83207615474645524323e-02) (560, 9.39331129193305969238e-02) (561, 9.27714391470695481923e-02) (562, 5.94533923763365737547e-02) (563, -6.31477880532212588333e-03) (564, -1.37780707713690164784e-01) (565, -1.84986639107110883984e-01) (566, -2.80321836584010775084e-01) (567, -3.62121582559738308671e-01) (568, -2.39841618182797644554e-01) (569, -2.15140051573637025584e-01) (570, -2.05946226967207490777e-01) (571, -3.22481523102939593439e-01) (572, -1.25360874599436233900e-01) (573, -4.62365475313046385419e-03) (574, -5.78341921992290147747e-02) (575, -6.31296354802758502567e-02) (576, -5.43325760800663290495e-02) (577, 1.15180809044418963616e-01) (578, -1.07280205620883056783e-01) (579, -2.50061888582287672467e-01) (580, -2.82312129970243366750e-02) (581, -1.07565584474136055615e-01) (582, -1.27481459842711652292e-02) (583, -4.08397998937231831995e-01) (584, -5.36936476238474402756e-01) (585, -2.36204021544566877822e-01) (586, -5.15803101402188823865e-02) (587, -9.44038516804519556302e-02) (588, 5.66381936945344263701e-02) (589, 3.77203530688212775382e-03) (590, 4.57884219127350916567e-02) (591, -4.97648135389851045685e-02) (592, -9.99188016130508060986e-02) (593, -5.84510036457325590775e-02) (594, 4.00541174243488826145e-02) (595, 6.30617478512892626341e-02) (596, 1.52667759323147300687e-01) (597, -2.74727961005924670168e-01) (598, -3.75000487280758576514e-02) (599, -1.13100618037429989649e-01) (600, -3.96381435485042218914e-02) (601, -4.98411768879768249385e-02) (602, 5.90034193746356849797e-02) (603, 7.28710809977164003515e-02) (604, -1.33179979083434707476e-01) (605, -1.14869248328331688414e-01) (606, -1.84628657204657264934e-01) (607, -1.24603596241757166863e-01) (608, -1.24960490750675480565e-02) (609, -1.69834928929178979873e-01) (610, -1.96531368742139722627e-01) (611, -3.83117090582402508581e-01) (612, -3.02899252862180723422e-01) (613, -1.05297168169947316652e-01) (614, 5.55365912006855755312e-02) (615, 2.55802825038228473509e-02) (616, -6.30629293278705815862e-02) (617, -7.64780747874057795221e-03) (618, -6.00044258238483507739e-02) (619, -9.12117052005073786214e-02) (620, -2.42370466065986694959e-01) (621, -7.71222676066381784832e-02) (622, -1.29227582101959399818e-02) (623, -1.51913184329581202325e-01) (624, -2.34072087973211051537e-01) (625, -1.99639876234098262442e-01) (626, -6.95120817264680002090e-02) (627, -2.06474954097016161203e-01) (628, -1.41931950809328855101e-01) (629, 4.10805299786298587505e-03) (630, -2.68575742453573615420e-02) (631, 1.60766569166182787809e-01) (632, 8.79223293826576074439e-02) (633, 2.29824191136364201771e-02) (634, -2.92618823643633563236e-01) (635, -1.61219011294594510852e-01) (636, -2.04988800087300193642e-01) (637, -1.11972572543675347179e-01) (638, -3.54381605662613063945e-01) (639, -2.07389739973767306402e-01) (640, -1.41307374382775602362e-01) (641, -9.63073808605717229803e-02) (642, -2.01894225793970427674e-02) (643, -9.48539040511223313645e-02) (644, -5.66528327763080596924e-02) (645, 9.86083969473838806152e-02) (646, 6.19168479694577056360e-02) (647, 3.93676250270505040385e-02) (648, -4.99849425929865878726e-02) (649, 2.95633319791919549346e-02) (650, -1.16087168650065741815e-01) (651, -3.45848686103218116994e-02) (652, 1.02354004193379574672e-01) (653, 1.45977636248011896636e-02) (654, 1.00392934835086086731e-01) (655, -1.55922778190494670109e-02) (656, 4.82655239577015060526e-02) (657, 1.24359462700147513359e-01) (658, 4.19121065247933261705e-03) (659, 1.97284018057256232970e-01) (660, 9.33630050657776461298e-02) (661, 1.19016377400463335690e-01) (662, -3.21085806062484546697e-01) (663, -2.95460469973470918337e-01) (664, -9.48060963832260544804e-02) (665, -3.35056504824962686495e-01) (666, -4.60982924249990488885e-01) (667, -2.26920039197520517771e-01) (668, 3.50791418631718563553e-03) (669, -1.17150414562948931851e-01) (670, -2.45863569868651869743e-02) (671, -4.43176291882991790771e-02) (672, 2.32482925057411193848e-02) (673, 3.11523452401161193848e-02) (674, -4.92659656362510467442e-02) (675, 3.81804256474686104506e-02) (676, 1.43580908506658028179e-01) (677, 3.36807056022477568913e-01) (678, 3.48134258487137249194e-01) (679, 3.24147703589326374729e-01) (680, 4.40533680969708574260e-02) (681, 2.36923447102887207993e-01) (682, 2.20163350363550086586e-01) (683, 9.77636609915798621140e-02) (684, 5.76576146417787718801e-02) (685, 4.79845499792790342042e-02) (686, -4.28787718625406807926e-02) (687, 2.30705131153653491757e-03) (688, 1.65192506157104318509e-01) (689, 1.92414630095788186104e-01) (690, 1.03648781808275317062e-01) (691, 2.10535714763506152936e-02) (692, -7.45207823964822713148e-02) (693, -1.21593911511873931097e-01) (694, -1.17126516974006097960e-01) (695, -1.45260106525143400935e-01) (696, -2.00909382952468816563e-02) (697, -7.15475764003261349711e-02) (698, 2.67054256062394489157e-02) (699, -1.75170600414276123047e-03) (700, 1.06750503182411193848e-02) (701, 9.65759232640266418457e-02) (702, -5.02380824367138975606e-02) (703, -5.89052040713912081205e-02) (704, 1.61557819318596529445e-02) (705, 7.52213724053542032166e-02) (706, 2.64804545522745404806e-01) (707, 4.06265760659859920256e-01) (708, 3.97842090825940741805e-01) (709, 6.09717809528145915365e-01) (710, 5.61483117429776745766e-01) (711, 6.70626916462319533352e-01) (712, 5.04484582625881472495e-01) (713, 5.77734023312992173160e-01) (714, 3.85720040757901894146e-01) (715, 3.39855642875859564889e-01) (716, 2.49535305335297469265e-01) (717, 3.17030221413926616147e-01) (718, 3.86634007438538152002e-01) (719, 2.55128495387339837563e-01) (720, 1.62611137940963407233e-01) (721, 9.24414204880750350890e-02) (722, 1.49447401340731200747e-01) (723, -6.23856157447819428818e-03) (724, 1.80437991393363216831e-03) (725, 8.40873721009967461937e-02) (726, -2.65721537055824894025e-02) (727, -2.53417938947677612305e-02) (728, -3.36059555411338806152e-02) (729, -4.61120605468750000000e-02) (730, 6.65100142359733581543e-02) (731, -8.62812108679977263215e-02) (732, 8.77943676743080242408e-02) (733, -6.01298420431929728225e-02) (734, -5.76490848700857497211e-03) (735, 8.35921449290273621546e-02) (736, 9.39057708947686059497e-02) (737, 2.45940252751999169356e-02) (738, 2.37614600135796008584e-02) (739, 1.54926610060487413012e-01) (740, 3.25219755264666218753e-02) (741, 7.02175721032038957503e-02) (742, 5.61850500111031395112e-02) (743, 1.14837644058508506206e-01) (744, 6.08574019148512140864e-02) (745, 5.29805961350725967973e-02) (746, 2.29642170918045590566e-02) (747, 5.62446780387796038680e-02) (748, -1.62362583628032942917e-02) (749, -2.56464546472545511235e-02) (750, -4.62419325912922854482e-02) (751, -3.04220608047466294782e-03) (752, 6.51381759091310408305e-02) (753, -2.43769088329873866161e-02) (754, 1.26281753182411193848e-02) (755, -5.30090332031250000000e-02) (756, 5.44677749276161193848e-02) (757, -4.00024428963661193848e-02) (758, -1.94824188947677612305e-02) (759, -5.53894042968750000000e-02) (760, -3.57081816840884788689e-02) (761, -9.82321179945821743029e-02) (762, -1.59635111084963023272e-03) (763, -2.16653437570152769542e-02) (764, -6.11258248573567850026e-02) (765, -5.96323702300012997712e-02) (766, 5.61936082774749587343e-02) (767, 5.33476242339817122162e-02) (768, 7.95863046075007407598e-02) (769, -2.19583293995266846943e-02) (770, 8.60004279111633296306e-02) (771, 6.59723290974360554451e-02) (772, 3.01228268757913683618e-02) (773, -8.67074900210773463760e-02) (774, -5.53397743460142671479e-02) (775, -5.11380592519670440499e-02) (776, -3.20795073053014023756e-02) (777, 2.90115831823942113554e-02) (778, 9.86615381817235598261e-02) (779, -2.19296746911992052054e-03) (780, -5.95581047236919403076e-02) (781, -3.95324714481830596924e-02) (782, 8.12988355755805969238e-02) (783, -9.63012725114822387695e-02) (784, 2.14622882556350447203e+00) (0, -2.51159667968750000000e-02) (1, -8.39721709489822387695e-02) (2, 2.37853974103927612305e-02) (3, -8.75244289636611938477e-03) (4, 6.38244673609733581543e-02) (5, 7.96814039349555969238e-02) (6, -4.41711433231830596924e-02) (7, -1.73217803239822387695e-02) (8, -4.31152358651161193848e-02) (9, -9.18151885271072387695e-02) (10, 1.79992690682411193848e-02) (11, -5.89294433593750000000e-02) (12, 8.32391375001904076925e-02) (13, 1.48152219627143196673e-02) (14, -3.39898059570185387401e-02) (15, -8.93190753120652325414e-02) (16, 7.60986283421516418457e-02) (17, -9.58496108651161193848e-02) (18, -2.05810517072677612305e-02) (19, -2.16247588396072387695e-02) (20, 9.81323197484016418457e-02) (21, -8.37890654802322387695e-02) (22, 4.82055619359016418457e-02) (23, 3.87023910880088806152e-02) (24, -2.78564468026161193848e-02) (25, -3.60107421875000000000e-02) (26, -8.85619968175888061523e-03) (27, 6.40136674046516418457e-02) (28, -4.77294623851776123047e-03) (29, 1.37329101562500000000e-02) (30, 3.68896499276161193848e-02) (31, 8.59497115015983581543e-02) (32, 1.94402966782862111905e-02) (33, -3.15270205067243944330e-02) (34, 1.55311777564192407888e-03) (35, -5.93432298485592436485e-04) (36, 8.54819388555700665489e-02) (37, -8.39508718936787523557e-02) (38, -9.61080239763490752625e-03) (39, -2.42753870517942969831e-02) (40, -3.88416515288246277926e-02) (41, -3.94720227331663703341e-02) (42, 2.46817529396672619146e-02) (43, -2.31369059682162654451e-04) (44, -7.73534289034162464427e-02) (45, 7.85438171934218359871e-02) (46, 5.35939963190112320102e-02) (47, 1.71061520559589973212e-02) (48, -9.50120608475647360214e-02) (49, -4.42573310178026521622e-02) (50, -4.46958518439980884152e-02) (51, 9.89360093519190027245e-03) (52, -4.40002456307411193848e-02) (53, 4.60082963109016418457e-02) (54, 8.92272964119911193848e-02) (55, 2.57568061351776123047e-03) (56, 8.53637680411338806152e-02) (57, 1.29455551505088806152e-02) (58, 6.90673847450119365865e-02) (59, -1.59511825997406958555e-02) (60, 9.01680368934912601642e-02) (61, 2.18661042556593139541e-02) (62, -1.30543979038792359176e-02) (63, 2.37891577935482011197e-02) (64, 1.03672285142218226217e-01) (65, 6.19722344733435459574e-02) (66, 6.81366829226309062006e-02) (67, 1.46131653205924267463e-02) (68, 9.00675957954885364476e-02) (69, 5.13398684624084208905e-02) (70, -1.56352554176602837749e-03) (71, 2.00779112265926373837e-02) (72, 1.15830247898932609668e-02) (73, -2.29434411184197377398e-02) (74, -4.65468649341013521181e-02) (75, -4.89471021591818961083e-02) (76, -1.97424960373185397547e-03) (77, 2.17864177087916067663e-03) (78, 1.55309594395884841000e-02) (79, 8.29336451106856831217e-02) (80, -1.45237471423950385147e-02) (81, 6.94383604130228010431e-02) (82, -5.00183105468750000000e-02) (83, -8.49426314234733581543e-02) (84, -2.57629379630088806152e-02) (85, -6.42700195312500000000e-02) (86, -7.25829019471377900885e-02) (87, -5.62113301287514161020e-02) (88, -4.27289677664253950140e-02) (89, -1.05232349374452138768e-01) (90, 4.42021545026787671118e-02) (91, 7.91984725020935947937e-02) (92, -1.20563937078612917753e-01) (93, -6.96378695094840710622e-02) (94, -4.51109200638040025444e-02) (95, -1.98250688685990800186e-01) (96, 1.93753635313278771424e-02) (97, -6.28685395585487916126e-02) (98, -1.32472528172952158654e-01) (99, -4.50299553914518674302e-02) (100, -7.09240581042103052090e-02) (101, -5.72633593637884852345e-02) (102, 3.92976940062672933096e-02) (103, -2.14957767597551419048e-02) (104, 1.06867221878370541321e-01) (105, 1.91872336927459724576e-01) (106, 1.03110057799822407709e-01) (107, 1.07006747274819402627e-01) (108, 4.69746438948255573553e-02) (109, -7.82530867518747702549e-02) (110, 1.69522468394929376467e-02) (111, 6.40991255640983581543e-02) (112, -1.28967314958572387695e-02) (113, -3.31919943812386264437e-02) (114, 7.52741563728295398628e-02) (115, 1.34280333521940263564e-02) (116, 3.46724876533885187357e-02) (117, -7.02641942000427066617e-02) (118, 1.55012691046999863398e-02) (119, -1.03860646552275948107e-01) (120, -4.53419711599125849211e-02) (121, -1.39665951642813868094e-01) (122, -1.40162520906455201342e-01) (123, -4.93056584243276446733e-02) (124, -9.98512903657163969351e-02) (125, -1.54499930257471135286e-01) (126, -1.24377499588257320329e-01) (127, -4.27042902240603108877e-02) (128, 1.16198036615382166437e-01) (129, 2.11282887208005983048e-02) (130, 1.17782999323080450615e-01) (131, 1.43880335083898525106e-01) (132, 1.15646294313419856215e-01) (133, 6.74925177056113489993e-02) (134, 7.55348001539383334668e-02) (135, -2.21047178553156822844e-02) (136, 1.19353249415542372880e-01) (137, 4.98664377943175141095e-02) (138, -5.85060697966819226457e-02) (139, -1.57373184098220549043e-02) (140, 8.07617232203483581543e-02) (141, 2.26684585213661193848e-02) (142, -9.51031168209471172714e-02) (143, -9.87802652056629509891e-02) (144, 7.80848660070571597147e-03) (145, -3.13465819383588958913e-02) (146, -9.28462167489177564450e-02) (147, -1.43294650600773704197e-01) (148, -5.05924657487887841079e-02) (149, 6.38977753959716898713e-02) (150, 1.53049397949038740174e-01) (151, 1.44382027119420136563e-01) (152, 4.98781579664234336891e-02) (153, -7.05876228247998005472e-02) (154, 1.47431112431626546583e-02) (155, 6.35266334374548630182e-02) (156, 1.13197075253379506043e-01) (157, 2.26463536517624436373e-01) (158, -1.38115894772554478193e-02) (159, -8.12143426658832323639e-02) (160, -1.51013336622730670600e-01) (161, -2.71234138919701828208e-01) (162, -2.01192258985026906082e-01) (163, -1.85280157867104389169e-01) (164, -4.21122145656499108357e-02) (165, -6.79395076472222997355e-03) (166, -4.29803940341008661186e-02) (167, -4.73856096179532046420e-02) (168, 5.10559156537055969238e-02) (169, 4.45799754385574256016e-03) (170, -5.67773224226692449501e-02) (171, 9.37406380796180181691e-03) (172, -1.09653595640967424507e-02) (173, -8.41639000139458581806e-02) (174, -1.52932416881092214656e-01) (175, -9.65973748439802326615e-02) (176, -4.18157587511784265000e-02) (177, -1.70446558920919061242e-02) (178, -2.61541382012570565452e-02) (179, 1.68609504668305598685e-02) (180, -1.00185681424424188890e-01) (181, -3.30707124660278573014e-02) (182, -1.59937683328013093009e-02) (183, -1.42504113408582350209e-01) (184, -7.99747954724426279860e-02) (185, -1.84275800231321562617e-01) (186, -3.62850772647178965169e-01) (187, -3.90508897893910744692e-01) (188, -4.10468919984432634163e-01) (189, -4.02528700415145657132e-01) (190, -1.76052170938580249127e-01) (191, -3.74370311638697571277e-03) (192, 1.06654307832219387431e-02) (193, -3.66293695400196350764e-02) (194, 9.44593247711804817786e-04) (195, -7.44211657718655966720e-02) (196, 8.13775913003768891496e-02) (197, 2.58407571907328936778e-02) (198, -4.82827573942387414108e-02) (199, -1.23976684279659341015e-01) (200, -1.81624064039702076689e-01) (201, -1.05449839910487959405e-02) (202, -1.08816859017285536004e-01) (203, -8.65208991207450511807e-02) (204, -4.35832044218218278564e-02) (205, 4.92297442750562197489e-02) (206, 6.38082331523796980610e-02) (207, 1.07407303534445303095e-01) (208, -5.63069938604391501125e-02) (209, -1.31354941822954845998e-01) (210, -2.04480575243923962114e-01) (211, -3.90302533986124522425e-01) (212, -5.00925631826170336680e-01) (213, -5.16535830710250443154e-01) (214, -5.02431445352387706649e-01) (215, -4.19886910333508556192e-01) (216, -2.47499052386718404462e-01) (217, -1.44759556042928838604e-01) (218, 4.28631953075450169988e-02) (219, 2.33475357658661286653e-01) (220, 1.77670490698349170522e-01) (221, -4.03910230866693087393e-02) (222, -2.73837154603568840028e-02) (223, -5.15742005289507796095e-02) (224, -9.91837968423031207665e-02) (225, 1.91477454682443502809e-02) (226, -1.03631661076768299967e-01) (227, 3.53237752713063887788e-02) (228, -6.27652163318647843271e-02) (229, -1.37590927824415398817e-01) (230, -3.68754237602726339662e-02) (231, -1.08219075628206956585e-01) (232, -2.25006273640703455263e-02) (233, 9.37402177898337823914e-02) (234, 8.62725821797680203495e-02) (235, 1.50032039724320248597e-01) (236, -8.95286942590844125878e-02) (237, -2.87614229514835006984e-01) (238, -3.38578179023029335326e-01) (239, -2.31549092361132274887e-01) (240, -3.12606245903177426548e-01) (241, -1.64913194957043207634e-01) (242, -4.78924626691489760399e-02) (243, -4.42658806050741232552e-02) (244, 6.19220412884523424557e-02) (245, 1.68040293319344780087e-01) (246, 6.93045666211035138460e-02) (247, 2.81066304868852812060e-01) (248, 2.35847633935287043228e-01) (249, 1.49437880639388884219e-02) (250, 1.90838697975837558174e-02) (251, 2.37624855084262627536e-02) (252, -7.90944242553708876109e-02) (253, -1.22697282515965601368e-02) (254, -8.41936141414146854700e-02) (255, -1.62265233303760997297e-01) (256, -1.04833188569357318998e-01) (257, -7.11743512016635576645e-02) (258, 1.98034892498118002269e-03) (259, -6.98540278453799040603e-02) (260, 6.31428103951595376397e-02) (261, 1.42011387972558744686e-01) (262, 4.31336276233761570231e-02) (263, 8.64210348166485758936e-02) (264, -1.78490369698523998476e-01) (265, -1.20541563615834568246e-01) (266, -2.63746965282785697515e-02) (267, -9.86364295613118974293e-02) (268, -8.54389310315099570481e-02) (269, -2.09744858525239830094e-02) (270, -3.77725952898942327063e-02) (271, 4.22677171865135925533e-02) (272, 4.14247069167168746606e-02) (273, 2.72560978256615763990e-03) (274, 1.31133074013650291478e-01) (275, 2.72018095561835593355e-01) (276, 2.28869290309379275206e-01) (277, 5.62936522270790148936e-02) (278, 1.22410253114470540803e-01) (279, 1.13000503405820559855e-01) (280, 2.09558879208608210554e-02) (281, -5.50013728663201473257e-02) (282, -4.74023598401242460265e-02) (283, -8.96509242798247951711e-02) (284, -4.47230837703932876392e-02) (285, -1.63317958177329913827e-01) (286, -1.89851760387655582596e-01) (287, -4.36897075152508640450e-02) (288, 1.18609278668256132999e-02) (289, 1.41310226930577882698e-02) (290, 2.34667813417907995810e-02) (291, 2.10219363144127299736e-03) (292, 1.20682738359748381596e-01) (293, 3.19475433494884331065e-02) (294, -3.31475763481925422838e-03) (295, 6.33762371393325890656e-02) (296, -4.07732810989256885814e-02) (297, -1.05217415353601184691e-01) (298, -1.74697470587550335308e-01) (299, -1.46830875386525449254e-03) (300, 5.12958426669023609401e-02) (301, 1.27695773586121580356e-02) (302, 2.09535670454058325918e-01) (303, 4.52903206200810370952e-01) (304, 4.91245857804111285549e-01) (305, 2.68969875387387258314e-01) (306, 1.32969054018298976638e-01) (307, -1.52870183199528726636e-02) (308, -5.35870472105860612411e-02) (309, -3.19915631117155957464e-02) (310, -1.13168946401392203627e-01) (311, -1.40030794580646905656e-01) (312, -4.33052690742455476114e-02) (313, -2.20238062669808110083e-01) (314, -3.61604567400067578031e-02) (315, -9.75760498570120704542e-02) (316, -1.07143908830742651261e-01) (317, -2.48042772777434588835e-03) (318, 1.00965311896349288490e-01) (319, 9.76681183848461670349e-02) (320, 1.41163964931118268709e-01) (321, 1.14602167235141799706e-01) (322, 1.37152074174450661070e-01) (323, 9.30414532072609996860e-03) (324, 1.30119946000815028819e-01) (325, -1.47454725619418046401e-02) (326, -2.53100633693636618837e-02) (327, -8.40147024252070606654e-02) (328, -9.07426251475033779359e-02) (329, -3.34887351730954602180e-02) (330, 4.23253774740910276853e-02) (331, 1.76743122279086783966e-01) (332, 4.20857675266673281200e-01) (333, 2.49346356769630461692e-01) (334, -2.02236337689549565411e-02) (335, -4.47237727023013301175e-03) (336, -6.57028561080369270797e-03) (337, 5.50310382919130466894e-02) (338, 6.04146106979780439517e-02) (339, -8.85691317833632585366e-03) (340, -6.57671354399089053144e-02) (341, -7.98262725247738114120e-02) (342, -9.48137299604998040614e-02) (343, -1.54619628860155761130e-01) (344, -7.83808602447912949884e-02) (345, -2.79136934329008573608e-02) (346, 9.62224498006403611283e-02) (347, 5.07763664413405299558e-02) (348, 9.11462497199774235312e-02) (349, 8.27768184388350536373e-02) (350, 7.58537371674328775306e-02) (351, 3.11131340108702081348e-02) (352, -2.54951055774655169217e-02) (353, -8.41189014174682503366e-02) (354, -1.27458844773470469924e-01) (355, -3.20493883361548326238e-01) (356, -2.55833524271788070870e-01) (357, -2.93425586002809268837e-01) (358, -1.84446149213681409584e-01) (359, -2.49369774695509166529e-01) (360, -1.24489783767574593853e-01) (361, 1.59130160063308892515e-02) (362, 8.64513049260863669643e-02) (363, 5.58321463147740393307e-02) (364, -5.11198061652894594764e-02) (365, -5.98957854367079475799e-02) (366, 5.06776347003373844879e-02) (367, 1.33164295154716803837e-02) (368, 1.28553718083617846135e-02) (369, -4.29517231088477197121e-02) (370, -2.17028129463592123205e-01) (371, -2.15653379547019685702e-01) (372, -3.72714019700822463133e-02) (373, -4.05636816895939833483e-02) (374, -5.42063887295563193169e-02) (375, 4.96434521482937568537e-02) (376, 2.24593101220986329780e-01) (377, 6.37528812173625697435e-02) (378, -1.37357656774947128886e-01) (379, -9.06221196160232611572e-02) (380, -4.64088331016546881691e-02) (381, -8.81990112900512546190e-02) (382, -1.04942483820802873185e-01) (383, -5.02938702469135079376e-02) (384, -2.58580440929948862649e-01) (385, -2.26863422060306269001e-01) (386, -2.90566082461856611818e-01) (387, -2.68913293449608292729e-01) (388, -1.91100287012288122535e-01) (389, -4.35029133826653636313e-03) (390, -7.28107314043135583903e-02) (391, 3.18234692863539406216e-02) (392, -4.93257488045507619390e-02) (393, 2.12825582190174231526e-03) (394, -6.55268369922721877902e-03) (395, -6.95687722894271914909e-02) (396, -1.18819162624699131703e-02) (397, -1.37592557640501961247e-01) (398, -2.78350047843454850849e-01) (399, -2.45676391119942855168e-01) (400, -1.32148209620111561913e-01) (401, 2.27659066408470028842e-02) (402, 2.01320919423735936182e-02) (403, 2.17167813431769468613e-01) (404, 1.71547136926137350210e-01) (405, 1.10778942379517308242e-02) (406, -1.16460748402147984404e-01) (407, 5.75719479302171655011e-02) (408, 1.88287890461957471699e-02) (409, -9.69069019404472514756e-02) (410, 2.05192578024504003464e-02) (411, -9.72257457496989163648e-02) (412, 2.83577065606319296542e-02) (413, -1.50283484697012664766e-01) (414, -2.78380911915602213824e-01) (415, -3.38829399527384389490e-01) (416, -1.47763650177868716140e-01) (417, -4.81824631113305160146e-02) (418, -7.51461632782751270954e-02) (419, 3.99229458846252823617e-03) (420, 3.67250010762390291519e-02) (421, -9.42136950884169543929e-02) (422, 6.04536930614872208833e-02) (423, -2.67755420070916287656e-02) (424, -1.00373588063491975264e-01) (425, -1.36741284619951469770e-01) (426, -5.62038913340883530823e-02) (427, -2.40942923101985895240e-01) (428, -1.26983286242637299912e-01) (429, -1.79722669090758097044e-01) (430, 6.00189692752521944397e-02) (431, -6.25346305035268668071e-02) (432, 8.04099517660441659439e-02) (433, -1.22079625921108297915e-01) (434, -1.77104779424012481748e-01) (435, -5.69130756118996147808e-02) (436, -6.34622803963708764785e-02) (437, -5.32296795881603418410e-02) (438, 1.59657994659213459121e-01) (439, 4.60094321418017745962e-02) (440, 6.60880306476841622443e-02) (441, 5.05524345346885020658e-02) (442, -5.69501704193643987217e-02) (443, -1.76006665122926758693e-01) (444, -5.10625139302507830008e-02) (445, -1.58163524049909805236e-02) (446, -6.00558663143671012108e-02) (447, 3.01845637849485447235e-02) (448, 6.14583263267525284346e-02) (449, -7.78439603279112019019e-02) (450, 5.85164314297396959130e-02) (451, 1.38027426022439454745e-02) (452, -7.77349945276328141430e-02) (453, -3.05997364067013694067e-02) (454, -9.32244938395035416256e-02) (455, -1.10375534815219847329e-01) (456, -2.91491823313609565993e-01) (457, -3.58931995589673868974e-01) (458, -3.76310410783952165037e-01) (459, -2.73217470656396954620e-01) (460, -7.42313610257934047842e-02) (461, -7.89218219778632101846e-02) (462, -1.82936697868938014100e-01) (463, -7.52967696006501679973e-02) (464, -1.14918781225389732281e-01) (465, -7.17941897965612002563e-02) (466, -1.15354827245211510878e-02) (467, -7.03967329460670615537e-02) (468, 3.51769375073979206903e-02) (469, 2.17871357268416034059e-02) (470, 1.26229658389654195855e-02) (471, -1.27231966797366452537e-01) (472, -1.52593742494466499959e-01) (473, 1.28796228786569127121e-03) (474, -6.80811362584264334608e-02) (475, -2.16553638924331425322e-03) (476, -6.80725127458572387695e-02) (477, 8.62303854936799785147e-02) (478, 