FANN_FLO_2.1
num_layers=3
learning_rate=0.200000
connection_rate=1.000000
network_type=0
learning_momentum=0.700000
training_algorithm=2
train_error_function=1
train_stop_function=0
cascade_output_change_fraction=0.010000
quickprop_decay=-0.000100
quickprop_mu=1.750000
rprop_increase_factor=1.200000
rprop_decrease_factor=0.500000
rprop_delta_min=0.000000
rprop_delta_max=50.000000
rprop_delta_zero=0.100000
cascade_output_stagnation_epochs=12
cascade_candidate_change_fraction=0.010000
cascade_candidate_stagnation_epochs=12
cascade_max_out_epochs=150
cascade_min_out_epochs=50
cascade_max_cand_epochs=150
cascade_min_cand_epochs=50
cascade_num_candidate_groups=2
bit_fail_limit=3.49999999999999977796e-01
cascade_candidate_limit=1.00000000000000000000e+03
cascade_weight_multiplier=4.00000000000000022204e-01
cascade_activation_functions_count=10
cascade_activation_functions=3 5 7 8 10 11 14 15 16 17 
cascade_activation_steepnesses_count=4
cascade_activation_steepnesses=2.50000000000000000000e-01 5.00000000000000000000e-01 7.50000000000000000000e-01 1.00000000000000000000e+00 
layer_sizes=785 16 11 
scale_included=0
neurons (num_inputs, activation_function, activation_steepness)=(0, 0, 0.00000000000000000000e+00) (0, 0, 0.00000000000000000000e+00) (0, 0, 0.00000000000000000000e+00) (0, 0, 0.00000000000000000000e+00) (0, 0, 0.00000000000000000000e+00) (0, 0, 0.00000000000000000000e+00) (0, 0, 0.00000000000000000000e+00) (0, 0, 0.00000000000000000000e+00) (0, 0, 0.00000000000000000000e+00) (0, 0, 0.00000000000000000000e+00) (0, 0, 0.00000000000000000000e+00) (0, 0, 0.00000000000000000000e+00) (0, 0, 0.00000000000000000000e+00) (0, 0, 0.00000000000000000000e+00) (0, 0, 0.00000000000000000000e+00) (0, 0, 0.00000000000000000000e+00) (0, 0, 0.00000000000000000000e+00) (0, 0, 0.00000000000000000000e+00) (0, 0, 0.00000000000000000000e+00) (0, 0, 0.00000000000000000000e+00) (0, 0, 0.00000000000000000000e+00) (0, 0, 0.00000000000000000000e+00) (0, 0, 0.00000000000000000000e+00) (0, 0, 0.00000000000000000000e+00) (0, 0, 0.00000000000000000000e+00) (0, 0, 0.00000000000000000000e+00) (0, 0, 0.00000000000000000000e+00) (0, 0, 0.00000000000000000000e+00) (0, 0, 0.00000000000000000000e+00) (0, 0, 0.00000000000000000000e+00) (0, 0, 0.00000000000000000000e+00) (0, 0, 0.00000000000000000000e+00) (0, 0, 0.00000000000000000000e+00) (0, 0, 0.00000000000000000000e+00) (0, 0, 0.00000000000000000000e+00) (0, 0, 0.00000000000000000000e+00) (0, 0, 0.00000000000000000000e+00) (0, 0, 0.00000000000000000000e+00) (0, 0, 0.00000000000000000000e+00) (0, 0, 0.00000000000000000000e+00) (0, 0, 0.00000000000000000000e+00) (0, 0, 0.00000000000000000000e+00) (0, 0, 0.00000000000000000000e+00) (0, 0, 0.00000000000000000000e+00) (0, 0, 0.00000000000000000000e+00) (0, 0, 0.00000000000000000000e+00) (0, 0, 0.00000000000000000000e+00) (0, 0, 0.00000000000000000000e+00) (0, 0, 0.00000000000000000000e+00) (0, 0, 0.00000000000000000000e+00) (0, 0, 0.00000000000000000000e+00) (0, 0, 0.00000000000000000000e+00) (0, 0, 0.00000000000000000000e+00) (0, 0, 0.00000000000000000000e+00) (0, 0, 0.00000000000000000000e+00) (0, 0, 0.00000000000000000000e+00) (0, 0, 0.00000000000000000000e+00) (0, 0, 0.00000000000000000000e+00) (0, 0, 0.00000000000000000000e+00) (0, 0, 0.00000000000000000000e+00) (0, 0, 0.00000000000000000000e+00) (0, 0, 0.00000000000000000000e+00) (0, 0, 0.00000000000000000000e+00) (0, 0, 0.00000000000000000000e+00) (0, 0, 0.00000000000000000000e+00) (0, 0, 0.00000000000000000000e+00) (0, 0, 0.00000000000000000000e+00) (0, 0, 0.00000000000000000000e+00) (0, 0, 0.00000000000000000000e+00) (0, 0, 0.00000000000000000000e+00) (0, 0, 0.00000000000000000000e+00) (0, 0, 0.00000000000000000000e+00) (0, 0, 0.00000000000000000000e+00) (0, 0, 0.00000000000000000000e+00) (0, 0, 0.00000000000000000000e+00) (0, 0, 0.00000000000000000000e+00) (0, 0, 0.00000000000000000000e+00) (0, 0, 0.00000000000000000000e+00) (0, 0, 0.00000000000000000000e+00) (0, 0, 0.00000000000000000000e+00) (0, 0, 0.00000000000000000000e+00) (0, 0, 0.00000000000000000000e+00) (0, 0, 0.00000000000000000000e+00) (0, 0, 0.00000000000000000000e+00) (0, 0, 0.00000000000000000000e+00) (0, 0, 0.00000000000000000000e+00) (0, 0, 0.00000000000000000000e+00) (0, 0, 0.00000000000000000000e+00) (0, 0, 0.00000000000000000000e+00) (0, 0, 0.00000000000000000000e+00) (0, 0, 0.00000000000000000000e+00) (0, 0, 0.00000000000000000000e+00) (0, 0, 0.00000000000000000000e+00) (0, 0, 0.00000000000000000000e+00) (0, 0, 0.00000000000000000000e+00) (0, 0, 0.00000000000000000000e+00) (0, 0, 0.00000000000000000000e+00) (0, 0, 0.00000000000000000000e+00) (0, 0, 0.00000000000000000000e+00) (0, 0, 0.00000000000000000000e+00) (0, 0, 0.00000000000000000000e+00) (0, 0, 0.00000000000000000000e+00) (0, 0, 0.00000000000000000000e+00) (0, 0, 0.00000000000000000000e+00) (0, 0, 0.00000000000000000000e+00) (0, 0, 0.00000000000000000000e+00) (0, 0, 0.00000000000000000000e+00) (0, 0, 0.00000000000000000000e+00) (0, 0, 0.00000000000000000000e+00) (0, 0, 0.00000000000000000000e+00) (0, 0, 0.00000000000000000000e+00) (0, 0, 0.00000000000000000000e+00) (0, 0, 0.00000000000000000000e+00) (0, 0, 0.00000000000000000000e+00) (0, 0, 0.00000000000000000000e+00) (0, 0, 0.00000000000000000000e+00) (0, 0, 0.00000000000000000000e+00) (0, 0, 0.00000000000000000000e+00) (0, 0, 0.00000000000000000000e+00) (0, 0, 0.00000000000000000000e+00) (0, 0, 0.00000000000000000000e+00) (0, 0, 0.00000000000000000000e+00) (0, 0, 0.00000000000000000000e+00) (0, 0, 0.00000000000000000000e+00) (0, 0, 0.00000000000000000000e+00) (0, 0, 0.00000000000000000000e+00) (0, 0, 0.00000000000000000000e+00) (0, 0, 0.00000000000000000000e+00) (0, 0, 0.00000000000000000000e+00) (0, 0, 0.00000000000000000000e+00) (0, 0, 0.00000000000000000000e+00) (0, 0, 0.00000000000000000000e+00) (0, 0, 0.00000000000000000000e+00) (0, 0, 0.00000000000000000000e+00) (0, 0, 0.00000000000000000000e+00) (0, 0, 0.00000000000000000000e+00) (0, 0, 0.00000000000000000000e+00) (0, 0, 0.00000000000000000000e+00) (0, 0, 0.00000000000000000000e+00) (0, 0, 0.00000000000000000000e+00) (0, 0, 0.00000000000000000000e+00) (0, 0, 0.00000000000000000000e+00) (0, 0, 0.00000000000000000000e+00) (0, 0, 0.00000000000000000000e+00) (0, 0, 0.00000000000000000000e+00) (0, 0, 0.00000000000000000000e+00) (0, 0, 0.00000000000000000000e+00) (0, 0, 0.00000000000000000000e+00) (0, 0, 0.00000000000000000000e+00) (0, 0, 0.00000000000000000000e+00) (0, 0, 0.00000000000000000000e+00) (0, 0, 0.00000000000000000000e+00) (0, 0, 0.00000000000000000000e+00) (0, 0, 0.00000000000000000000e+00) (0, 0, 0.00000000000000000000e+00) (0, 0, 0.00000000000000000000e+00) (0, 0, 0.00000000000000000000e+00) (0, 0, 0.00000000000000000000e+00) (0, 0, 0.00000000000000000000e+00) (0, 0, 0.00000000000000000000e+00) (0, 0, 0.00000000000000000000e+00) (0, 0, 0.00000000000000000000e+00) (0, 0, 0.00000000000000000000e+00) (0, 0, 0.00000000000000000000e+00) (0, 0, 0.00000000000000000000e+00) (0, 0, 0.00000000000000000000e+00) (0, 0, 0.00000000000000000000e+00) (0, 0, 0.00000000000000000000e+00) (0, 0, 0.00000000000000000000e+00) (0, 0, 0.00000000000000000000e+00) (0, 0, 0.00000000000000000000e+00) (0, 0, 0.00000000000000000000e+00) (0, 0, 0.00000000000000000000e+00) (0, 0, 0.00000000000000000000e+00) (0, 0, 0.00000000000000000000e+00) (0, 0, 0.00000000000000000000e+00) (0, 0, 0.00000000000000000000e+00) (0, 0, 0.00000000000000000000e+00) (0, 0, 0.00000000000000000000e+00) (0, 0, 0.00000000000000000000e+00) (0, 0, 0.00000000000000000000e+00) (0, 0, 0.00000000000000000000e+00) (0, 0, 0.00000000000000000000e+00) (0, 0, 0.00000000000000000000e+00) (0, 0, 0.00000000000000000000e+00) (0, 0, 0.00000000000000000000e+00) (0, 0, 0.00000000000000000000e+00) (0, 0, 0.00000000000000000000e+00) (0, 0, 0.00000000000000000000e+00) (0, 0, 0.00000000000000000000e+00) (0, 0, 0.00000000000000000000e+00) (0, 0, 0.00000000000000000000e+00) (0, 0, 0.00000000000000000000e+00) (0, 0, 0.00000000000000000000e+00) (0, 0, 0.00000000000000000000e+00) (0, 0, 0.00000000000000000000e+00) (0, 0, 0.00000000000000000000e+00) (0, 0, 0.00000000000000000000e+00) (0, 0, 0.00000000000000000000e+00) (0, 0, 0.00000000000000000000e+00) (0, 0, 0.00000000000000000000e+00) (0, 0, 0.00000000000000000000e+00) (0, 0, 0.00000000000000000000e+00) (0, 0, 0.00000000000000000000e+00) (0, 0, 0.00000000000000000000e+00) (0, 0, 0.00000000000000000000e+00) (0, 0, 0.00000000000000000000e+00) (0, 0, 0.00000000000000000000e+00) (0, 0, 0.00000000000000000000e+00) (0, 0, 0.00000000000000000000e+00) (0, 0, 0.00000000000000000000e+00) (0, 0, 0.00000000000000000000e+00) (0, 0, 0.00000000000000000000e+00) (0, 0, 0.00000000000000000000e+00) (0, 0, 0.00000000000000000000e+00) (0, 0, 0.00000000000000000000e+00) (0, 0, 0.00000000000000000000e+00) (0, 0, 0.00000000000000000000e+00) (0, 0, 0.00000000000000000000e+00) (0, 0, 0.00000000000000000000e+00) (0, 0, 0.00000000000000000000e+00) (0, 0, 0.00000000000000000000e+00) (0, 0, 0.00000000000000000000e+00) (0, 0, 0.00000000000000000000e+00) (0, 0, 0.00000000000000000000e+00) (0, 0, 0.00000000000000000000e+00) (0, 0, 0.00000000000000000000e+00) (0, 0, 0.00000000000000000000e+00) (0, 0, 0.00000000000000000000e+00) (0, 0, 0.00000000000000000000e+00) (0, 0, 0.00000000000000000000e+00) (0, 0, 0.00000000000000000000e+00) (0, 0, 0.00000000000000000000e+00) (0, 0, 0.00000000000000000000e+00) (0, 0, 0.00000000000000000000e+00) (0, 0, 0.00000000000000000000e+00) (0, 0, 0.00000000000000000000e+00) (0, 0, 0.00000000000000000000e+00) (0, 0, 0.00000000000000000000e+00) (0, 0, 0.00000000000000000000e+00) (0, 0, 0.00000000000000000000e+00) (0, 0, 0.00000000000000000000e+00) (0, 0, 0.00000000000000000000e+00) (0, 0, 0.00000000000000000000e+00) (0, 0, 0.00000000000000000000e+00) (0, 0, 0.00000000000000000000e+00) (0, 0, 0.00000000000000000000e+00) (0, 0, 0.00000000000000000000e+00) (0, 0, 0.00000000000000000000e+00) (0, 0, 0.00000000000000000000e+00) (0, 0, 0.00000000000000000000e+00) (0, 0, 0.00000000000000000000e+00) (0, 0, 0.00000000000000000000e+00) (0, 0, 0.00000000000000000000e+00) (0, 0, 0.00000000000000000000e+00) (0, 0, 0.00000000000000000000e+00) (0, 0, 0.00000000000000000000e+00) (0, 0, 0.00000000000000000000e+00) (0, 0, 0.00000000000000000000e+00) (0, 0, 0.00000000000000000000e+00) (0, 0, 0.00000000000000000000e+00) (0, 0, 0.00000000000000000000e+00) (0, 0, 0.00000000000000000000e+00) (0, 0, 0.00000000000000000000e+00) (0, 0, 0.00000000000000000000e+00) (0, 0, 0.00000000000000000000e+00) (0, 0, 0.00000000000000000000e+00) (0, 0, 0.00000000000000000000e+00) (0, 0, 0.00000000000000000000e+00) (0, 0, 0.00000000000000000000e+00) (0, 0, 0.00000000000000000000e+00) (0, 0, 0.00000000000000000000e+00) (0, 0, 0.00000000000000000000e+00) (0, 0, 0.00000000000000000000e+00) (0, 0, 0.00000000000000000000e+00) (0, 0, 0.00000000000000000000e+00) (0, 0, 0.00000000000000000000e+00) (0, 0, 0.00000000000000000000e+00) (0, 0, 0.00000000000000000000e+00) (0, 0, 0.00000000000000000000e+00) (0, 0, 0.00000000000000000000e+00) (0, 0, 0.00000000000000000000e+00) (0, 0, 0.00000000000000000000e+00) (0, 0, 0.00000000000000000000e+00) (0, 0, 0.00000000000000000000e+00) (0, 0, 0.00000000000000000000e+00) (0, 0, 0.00000000000000000000e+00) (0, 0, 0.00000000000000000000e+00) (0, 0, 0.00000000000000000000e+00) (0, 0, 0.00000000000000000000e+00) (0, 0, 0.00000000000000000000e+00) (0, 0, 0.00000000000000000000e+00) (0, 0, 0.00000000000000000000e+00) (0, 0, 0.00000000000000000000e+00) (0, 0, 0.00000000000000000000e+00) (0, 0, 0.00000000000000000000e+00) (0, 0, 0.00000000000000000000e+00) (0, 0, 0.00000000000000000000e+00) (0, 0, 0.00000000000000000000e+00) (0, 0, 0.00000000000000000000e+00) (0, 0, 0.00000000000000000000e+00) (0, 0, 0.00000000000000000000e+00) (0, 0, 0.00000000000000000000e+00) (0, 0, 0.00000000000000000000e+00) (0, 0, 0.00000000000000000000e+00) (0, 0, 0.00000000000000000000e+00) (0, 0, 0.00000000000000000000e+00) (0, 0, 0.00000000000000000000e+00) (0, 0, 0.00000000000000000000e+00) (0, 0, 0.00000000000000000000e+00) (0, 0, 0.00000000000000000000e+00) (0, 0, 0.00000000000000000000e+00) (0, 0, 0.00000000000000000000e+00) (0, 0, 0.00000000000000000000e+00) (0, 0, 0.00000000000000000000e+00) (0, 0, 0.00000000000000000000e+00) (0, 0, 0.00000000000000000000e+00) (0, 0, 0.00000000000000000000e+00) (0, 0, 0.00000000000000000000e+00) (0, 0, 0.00000000000000000000e+00) (0, 0, 0.00000000000000000000e+00) (0, 0, 0.00000000000000000000e+00) (0, 0, 0.00000000000000000000e+00) (0, 0, 0.00000000000000000000e+00) (0, 0, 0.00000000000000000000e+00) (0, 0, 0.00000000000000000000e+00) (0, 0, 0.00000000000000000000e+00) (0, 0, 0.00000000000000000000e+00) (0, 0, 0.00000000000000000000e+00) (0, 0, 0.00000000000000000000e+00) (0, 0, 0.00000000000000000000e+00) (0, 0, 0.00000000000000000000e+00) (0, 0, 0.00000000000000000000e+00) (0, 0, 0.00000000000000000000e+00) (0, 0, 0.00000000000000000000e+00) (0, 0, 0.00000000000000000000e+00) (0, 0, 0.00000000000000000000e+00) (0, 0, 0.00000000000000000000e+00) (0, 0, 0.00000000000000000000e+00) (0, 0, 0.00000000000000000000e+00) (0, 0, 0.00000000000000000000e+00) (0, 0, 0.00000000000000000000e+00) (0, 0, 0.00000000000000000000e+00) (0, 0, 0.00000000000000000000e+00) (0, 0, 0.00000000000000000000e+00) (0, 0, 0.00000000000000000000e+00) (0, 0, 0.00000000000000000000e+00) (0, 0, 0.00000000000000000000e+00) (0, 0, 0.00000000000000000000e+00) (0, 0, 0.00000000000000000000e+00) (0, 0, 0.00000000000000000000e+00) (0, 0, 0.00000000000000000000e+00) (0, 0, 0.00000000000000000000e+00) (0, 0, 0.00000000000000000000e+00) (0, 0, 0.00000000000000000000e+00) (0, 0, 0.00000000000000000000e+00) (0, 0, 0.00000000000000000000e+00) (0, 0, 0.00000000000000000000e+00) (0, 0, 0.00000000000000000000e+00) (0, 0, 0.00000000000000000000e+00) (0, 0, 0.00000000000000000000e+00) (0, 0, 0.00000000000000000000e+00) (0, 0, 0.00000000000000000000e+00) (0, 0, 0.00000000000000000000e+00) (0, 0, 0.00000000000000000000e+00) (0, 0, 0.00000000000000000000e+00) (0, 0, 0.00000000000000000000e+00) (0, 0, 0.00000000000000000000e+00) (0, 0, 0.00000000000000000000e+00) (0, 0, 0.00000000000000000000e+00) (0, 0, 0.00000000000000000000e+00) (0, 0, 0.00000000000000000000e+00) (0, 0, 0.00000000000000000000e+00) (0, 0, 0.00000000000000000000e+00) (0, 0, 0.00000000000000000000e+00) (0, 0, 0.00000000000000000000e+00) (0, 0, 0.00000000000000000000e+00) (0, 0, 0.00000000000000000000e+00) (0, 0, 0.00000000000000000000e+00) (0, 0, 0.00000000000000000000e+00) (0, 0, 0.00000000000000000000e+00) (0, 0, 0.00000000000000000000e+00) (0, 0, 0.00000000000000000000e+00) (0, 0, 0.00000000000000000000e+00) (0, 0, 0.00000000000000000000e+00) (0, 0, 0.00000000000000000000e+00) (0, 0, 0.00000000000000000000e+00) (0, 0, 0.00000000000000000000e+00) (0, 0, 0.00000000000000000000e+00) (0, 0, 0.00000000000000000000e+00) (0, 0, 0.00000000000000000000e+00) (0, 0, 0.00000000000000000000e+00) (0, 0, 0.00000000000000000000e+00) (0, 0, 0.00000000000000000000e+00) (0, 0, 0.00000000000000000000e+00) (0, 0, 0.00000000000000000000e+00) (0, 0, 0.00000000000000000000e+00) (0, 0, 0.00000000000000000000e+00) (0, 0, 0.00000000000000000000e+00) (0, 0, 0.00000000000000000000e+00) (0, 0, 0.00000000000000000000e+00) (0, 0, 0.00000000000000000000e+00) (0, 0, 0.00000000000000000000e+00) (0, 0, 0.00000000000000000000e+00) (0, 0, 0.00000000000000000000e+00) (0, 0, 0.00000000000000000000e+00) (0, 0, 0.00000000000000000000e+00) (0, 0, 0.00000000000000000000e+00) (0, 0, 0.00000000000000000000e+00) (0, 0, 0.00000000000000000000e+00) (0, 0, 0.00000000000000000000e+00) (0, 0, 0.00000000000000000000e+00) (0, 0, 0.00000000000000000000e+00) (0, 0, 0.00000000000000000000e+00) (0, 0, 0.00000000000000000000e+00) (0, 0, 0.00000000000000000000e+00) (0, 0, 0.00000000000000000000e+00) (0, 0, 0.00000000000000000000e+00) (0, 0, 0.00000000000000000000e+00) (0, 0, 0.00000000000000000000e+00) (0, 0, 0.00000000000000000000e+00) (0, 0, 0.00000000000000000000e+00) (0, 0, 0.00000000000000000000e+00) (0, 0, 0.00000000000000000000e+00) (0, 0, 0.00000000000000000000e+00) (0, 0, 0.00000000000000000000e+00) (0, 0, 0.00000000000000000000e+00) (0, 0, 0.00000000000000000000e+00) (0, 0, 0.00000000000000000000e+00) (0, 0, 0.00000000000000000000e+00) (0, 0, 0.00000000000000000000e+00) (0, 0, 0.00000000000000000000e+00) (0, 0, 0.00000000000000000000e+00) (0, 0, 0.00000000000000000000e+00) (0, 0, 0.00000000000000000000e+00) (0, 0, 0.00000000000000000000e+00) (0, 0, 0.00000000000000000000e+00) (0, 0, 0.00000000000000000000e+00) (0, 0, 0.00000000000000000000e+00) (0, 0, 0.00000000000000000000e+00) (0, 0, 0.00000000000000000000e+00) (0, 0, 0.00000000000000000000e+00) (0, 0, 0.00000000000000000000e+00) (0, 0, 0.00000000000000000000e+00) (0, 0, 0.00000000000000000000e+00) (0, 0, 0.00000000000000000000e+00) (0, 0, 0.00000000000000000000e+00) (0, 0, 0.00000000000000000000e+00) (0, 0, 0.00000000000000000000e+00) (0, 0, 0.00000000000000000000e+00) (0, 0, 0.00000000000000000000e+00) (0, 0, 0.00000000000000000000e+00) (0, 0, 0.00000000000000000000e+00) (0, 0, 0.00000000000000000000e+00) (0, 0, 0.00000000000000000000e+00) (0, 0, 0.00000000000000000000e+00) (0, 0, 0.00000000000000000000e+00) (0, 0, 0.00000000000000000000e+00) (0, 0, 0.00000000000000000000e+00) (0, 0, 0.00000000000000000000e+00) (0, 0, 0.00000000000000000000e+00) (0, 0, 0.00000000000000000000e+00) (0, 0, 0.00000000000000000000e+00) (0, 0, 0.00000000000000000000e+00) (0, 0, 0.00000000000000000000e+00) (0, 0, 0.00000000000000000000e+00) (0, 0, 0.00000000000000000000e+00) (0, 0, 0.00000000000000000000e+00) (0, 0, 0.00000000000000000000e+00) (0, 0, 0.00000000000000000000e+00) (0, 0, 0.00000000000000000000e+00) (0, 0, 0.00000000000000000000e+00) (0, 0, 0.00000000000000000000e+00) (0, 0, 0.00000000000000000000e+00) (0, 0, 0.00000000000000000000e+00) (0, 0, 0.00000000000000000000e+00) (0, 0, 0.00000000000000000000e+00) (0, 0, 0.00000000000000000000e+00) (0, 0, 0.00000000000000000000e+00) (0, 0, 0.00000000000000000000e+00) (0, 0, 0.00000000000000000000e+00) (0, 0, 0.00000000000000000000e+00) (0, 0, 0.00000000000000000000e+00) (0, 0, 0.00000000000000000000e+00) (0, 0, 0.00000000000000000000e+00) (0, 0, 0.00000000000000000000e+00) (0, 0, 0.00000000000000000000e+00) (0, 0, 0.00000000000000000000e+00) (0, 0, 0.00000000000000000000e+00) (0, 0, 0.00000000000000000000e+00) (0, 0, 0.00000000000000000000e+00) (0, 0, 0.00000000000000000000e+00) (0, 0, 0.00000000000000000000e+00) (0, 0, 0.00000000000000000000e+00) (0, 0, 0.00000000000000000000e+00) (0, 0, 0.00000000000000000000e+00) (0, 0, 0.00000000000000000000e+00) (0, 0, 0.00000000000000000000e+00) (0, 0, 0.00000000000000000000e+00) (0, 0, 0.00000000000000000000e+00) (0, 0, 0.00000000000000000000e+00) (0, 0, 0.00000000000000000000e+00) (0, 0, 0.00000000000000000000e+00) (0, 0, 0.00000000000000000000e+00) (0, 0, 0.00000000000000000000e+00) (0, 0, 0.00000000000000000000e+00) (0, 0, 0.00000000000000000000e+00) (0, 0, 0.00000000000000000000e+00) (0, 0, 0.00000000000000000000e+00) (0, 0, 0.00000000000000000000e+00) (0, 0, 0.00000000000000000000e+00) (0, 0, 0.00000000000000000000e+00) (0, 0, 0.00000000000000000000e+00) (0, 0, 0.00000000000000000000e+00) (0, 0, 0.00000000000000000000e+00) (0, 0, 0.00000000000000000000e+00) (0, 0, 0.00000000000000000000e+00) (0, 0, 0.00000000000000000000e+00) (0, 0, 0.00000000000000000000e+00) (0, 0, 0.00000000000000000000e+00) (0, 0, 0.00000000000000000000e+00) (0, 0, 0.00000000000000000000e+00) (0, 0, 0.00000000000000000000e+00) (0, 0, 0.00000000000000000000e+00) (0, 0, 0.00000000000000000000e+00) (0, 0, 0.00000000000000000000e+00) (0, 0, 0.00000000000000000000e+00) (0, 0, 0.00000000000000000000e+00) (0, 0, 0.00000000000000000000e+00) (0, 0, 0.00000000000000000000e+00) (0, 0, 0.00000000000000000000e+00) (0, 0, 0.00000000000000000000e+00) (0, 0, 0.00000000000000000000e+00) (0, 0, 0.00000000000000000000e+00) (0, 0, 0.00000000000000000000e+00) (0, 0, 0.00000000000000000000e+00) (0, 0, 0.00000000000000000000e+00) (0, 0, 0.00000000000000000000e+00) (0, 0, 0.00000000000000000000e+00) (0, 0, 0.00000000000000000000e+00) (0, 0, 0.00000000000000000000e+00) (0, 0, 0.00000000000000000000e+00) (0, 0, 0.00000000000000000000e+00) (0, 0, 0.00000000000000000000e+00) (0, 0, 0.00000000000000000000e+00) (0, 0, 0.00000000000000000000e+00) (0, 0, 0.00000000000000000000e+00) (0, 0, 0.00000000000000000000e+00) (0, 0, 0.00000000000000000000e+00) (0, 0, 0.00000000000000000000e+00) (0, 0, 0.00000000000000000000e+00) (0, 0, 0.00000000000000000000e+00) (0, 0, 0.00000000000000000000e+00) (0, 0, 0.00000000000000000000e+00) (0, 0, 0.00000000000000000000e+00) (0, 0, 0.00000000000000000000e+00) (0, 0, 0.00000000000000000000e+00) (0, 0, 0.00000000000000000000e+00) (0, 0, 0.00000000000000000000e+00) (0, 0, 0.00000000000000000000e+00) (0, 0, 0.00000000000000000000e+00) (0, 0, 0.00000000000000000000e+00) (0, 0, 0.00000000000000000000e+00) (0, 0, 0.00000000000000000000e+00) (0, 0, 0.00000000000000000000e+00) (0, 0, 0.00000000000000000000e+00) (0, 0, 0.00000000000000000000e+00) (0, 0, 0.00000000000000000000e+00) (0, 0, 0.00000000000000000000e+00) (0, 0, 0.00000000000000000000e+00) (0, 0, 0.00000000000000000000e+00) (0, 0, 0.00000000000000000000e+00) (0, 0, 0.00000000000000000000e+00) (0, 0, 0.00000000000000000000e+00) (0, 0, 0.00000000000000000000e+00) (0, 0, 0.00000000000000000000e+00) (0, 0, 0.00000000000000000000e+00) (0, 0, 0.00000000000000000000e+00) (0, 0, 0.00000000000000000000e+00) (0, 0, 0.00000000000000000000e+00) (0, 0, 0.00000000000000000000e+00) (0, 0, 0.00000000000000000000e+00) (0, 0, 0.00000000000000000000e+00) (0, 0, 0.00000000000000000000e+00) (0, 0, 0.00000000000000000000e+00) (0, 0, 0.00000000000000000000e+00) (0, 0, 0.00000000000000000000e+00) (0, 0, 0.00000000000000000000e+00) (0, 0, 0.00000000000000000000e+00) (0, 0, 0.00000000000000000000e+00) (0, 0, 0.00000000000000000000e+00) (0, 0, 0.00000000000000000000e+00) (0, 0, 0.00000000000000000000e+00) (0, 0, 0.00000000000000000000e+00) (0, 0, 0.00000000000000000000e+00) (0, 0, 0.00000000000000000000e+00) (0, 0, 0.00000000000000000000e+00) (0, 0, 0.00000000000000000000e+00) (0, 0, 0.00000000000000000000e+00) (0, 0, 0.00000000000000000000e+00) (0, 0, 0.00000000000000000000e+00) (0, 0, 0.00000000000000000000e+00) (0, 0, 0.00000000000000000000e+00) (0, 0, 0.00000000000000000000e+00) (0, 0, 0.00000000000000000000e+00) (0, 0, 0.00000000000000000000e+00) (0, 0, 0.00000000000000000000e+00) (0, 0, 0.00000000000000000000e+00) (0, 0, 0.00000000000000000000e+00) (0, 0, 0.00000000000000000000e+00) (0, 0, 0.00000000000000000000e+00) (0, 0, 0.00000000000000000000e+00) (0, 0, 0.00000000000000000000e+00) (0, 0, 0.00000000000000000000e+00) (0, 0, 0.00000000000000000000e+00) (0, 0, 0.00000000000000000000e+00) (0, 0, 0.00000000000000000000e+00) (0, 0, 0.00000000000000000000e+00) (0, 0, 0.00000000000000000000e+00) (0, 0, 0.00000000000000000000e+00) (0, 0, 0.00000000000000000000e+00) (0, 0, 0.00000000000000000000e+00) (0, 0, 0.00000000000000000000e+00) (0, 0, 0.00000000000000000000e+00) (0, 0, 0.00000000000000000000e+00) (0, 0, 0.00000000000000000000e+00) (0, 0, 0.00000000000000000000e+00) (0, 0, 0.00000000000000000000e+00) (0, 0, 0.00000000000000000000e+00) (0, 0, 0.00000000000000000000e+00) (0, 0, 0.00000000000000000000e+00) (0, 0, 0.00000000000000000000e+00) (0, 0, 0.00000000000000000000e+00) (0, 0, 0.00000000000000000000e+00) (0, 0, 0.00000000000000000000e+00) (0, 0, 0.00000000000000000000e+00) (0, 0, 0.00000000000000000000e+00) (0, 0, 0.00000000000000000000e+00) (0, 0, 0.00000000000000000000e+00) (0, 0, 0.00000000000000000000e+00) (0, 0, 0.00000000000000000000e+00) (0, 0, 0.00000000000000000000e+00) (0, 0, 0.00000000000000000000e+00) (0, 0, 0.00000000000000000000e+00) (0, 0, 0.00000000000000000000e+00) (0, 0, 0.00000000000000000000e+00) (0, 0, 0.00000000000000000000e+00) (0, 0, 0.00000000000000000000e+00) (0, 0, 0.00000000000000000000e+00) (0, 0, 0.00000000000000000000e+00) (0, 0, 0.00000000000000000000e+00) (0, 0, 0.00000000000000000000e+00) (0, 0, 0.00000000000000000000e+00) (0, 0, 0.00000000000000000000e+00) (0, 0, 0.00000000000000000000e+00) (0, 0, 0.00000000000000000000e+00) (0, 0, 0.00000000000000000000e+00) (0, 0, 0.00000000000000000000e+00) (0, 0, 0.00000000000000000000e+00) (0, 0, 0.00000000000000000000e+00) (0, 0, 0.00000000000000000000e+00) (0, 0, 0.00000000000000000000e+00) (0, 0, 0.00000000000000000000e+00) (0, 0, 0.00000000000000000000e+00) (0, 0, 0.00000000000000000000e+00) (0, 0, 0.00000000000000000000e+00) (0, 0, 0.00000000000000000000e+00) (0, 0, 0.00000000000000000000e+00) (0, 0, 0.00000000000000000000e+00) (0, 0, 0.00000000000000000000e+00) (0, 0, 0.00000000000000000000e+00) (0, 0, 0.00000000000000000000e+00) (0, 0, 0.00000000000000000000e+00) (0, 0, 0.00000000000000000000e+00) (0, 0, 0.00000000000000000000e+00) (0, 0, 0.00000000000000000000e+00) (0, 0, 0.00000000000000000000e+00) (0, 0, 0.00000000000000000000e+00) (0, 0, 0.00000000000000000000e+00) (0, 0, 0.00000000000000000000e+00) (0, 0, 0.00000000000000000000e+00) (0, 0, 0.00000000000000000000e+00) (0, 0, 0.00000000000000000000e+00) (0, 0, 0.00000000000000000000e+00) (0, 0, 0.00000000000000000000e+00) (0, 0, 0.00000000000000000000e+00) (0, 0, 0.00000000000000000000e+00) (0, 0, 0.00000000000000000000e+00) (0, 0, 0.00000000000000000000e+00) (0, 0, 0.00000000000000000000e+00) (0, 0, 0.00000000000000000000e+00) (0, 0, 0.00000000000000000000e+00) (0, 0, 0.00000000000000000000e+00) (0, 0, 0.00000000000000000000e+00) (0, 0, 0.00000000000000000000e+00) (0, 0, 0.00000000000000000000e+00) (0, 0, 0.00000000000000000000e+00) (0, 0, 0.00000000000000000000e+00) (0, 0, 0.00000000000000000000e+00) (0, 0, 0.00000000000000000000e+00) (0, 0, 0.00000000000000000000e+00) (0, 0, 0.00000000000000000000e+00) (0, 0, 0.00000000000000000000e+00) (0, 0, 0.00000000000000000000e+00) (0, 0, 0.00000000000000000000e+00) (0, 0, 0.00000000000000000000e+00) (0, 0, 0.00000000000000000000e+00) (0, 0, 0.00000000000000000000e+00) (0, 0, 0.00000000000000000000e+00) (0, 0, 0.00000000000000000000e+00) (0, 0, 0.00000000000000000000e+00) (0, 0, 0.00000000000000000000e+00) (0, 0, 0.00000000000000000000e+00) (0, 0, 0.00000000000000000000e+00) (0, 0, 0.00000000000000000000e+00) (0, 0, 0.00000000000000000000e+00) (0, 0, 0.00000000000000000000e+00) (0, 0, 0.00000000000000000000e+00) (0, 0, 0.00000000000000000000e+00) (0, 0, 0.00000000000000000000e+00) (0, 0, 0.00000000000000000000e+00) (0, 0, 0.00000000000000000000e+00) (0, 0, 0.00000000000000000000e+00) (0, 0, 0.00000000000000000000e+00) (0, 0, 0.00000000000000000000e+00) (0, 0, 0.00000000000000000000e+00) (0, 0, 0.00000000000000000000e+00) (0, 0, 0.00000000000000000000e+00) (0, 0, 0.00000000000000000000e+00) (0, 0, 0.00000000000000000000e+00) (0, 0, 0.00000000000000000000e+00) (0, 0, 0.00000000000000000000e+00) (0, 0, 0.00000000000000000000e+00) (0, 0, 0.00000000000000000000e+00) (0, 0, 0.00000000000000000000e+00) (0, 0, 0.00000000000000000000e+00) (0, 0, 0.00000000000000000000e+00) (0, 0, 0.00000000000000000000e+00) (0, 0, 0.00000000000000000000e+00) (0, 0, 0.00000000000000000000e+00) (0, 0, 0.00000000000000000000e+00) (0, 0, 0.00000000000000000000e+00) (0, 0, 0.00000000000000000000e+00) (0, 0, 0.00000000000000000000e+00) (0, 0, 0.00000000000000000000e+00) (0, 0, 0.00000000000000000000e+00) (0, 0, 0.00000000000000000000e+00) (0, 0, 0.00000000000000000000e+00) (0, 0, 0.00000000000000000000e+00) (0, 0, 0.00000000000000000000e+00) (0, 0, 0.00000000000000000000e+00) (0, 0, 0.00000000000000000000e+00) (0, 0, 0.00000000000000000000e+00) (0, 0, 0.00000000000000000000e+00) (0, 0, 0.00000000000000000000e+00) (0, 0, 0.00000000000000000000e+00) (0, 0, 0.00000000000000000000e+00) (0, 0, 0.00000000000000000000e+00) (0, 0, 0.00000000000000000000e+00) (0, 0, 0.00000000000000000000e+00) (0, 0, 0.00000000000000000000e+00) (0, 0, 0.00000000000000000000e+00) (0, 0, 0.00000000000000000000e+00) (0, 0, 0.00000000000000000000e+00) (0, 0, 0.00000000000000000000e+00) (0, 0, 0.00000000000000000000e+00) (0, 0, 0.00000000000000000000e+00) (0, 0, 0.00000000000000000000e+00) (0, 0, 0.00000000000000000000e+00) (0, 0, 0.00000000000000000000e+00) (0, 0, 0.00000000000000000000e+00) (0, 0, 0.00000000000000000000e+00) (0, 0, 0.00000000000000000000e+00) (0, 0, 0.00000000000000000000e+00) (0, 0, 0.00000000000000000000e+00) (0, 0, 0.00000000000000000000e+00) (0, 0, 0.00000000000000000000e+00) (0, 0, 0.00000000000000000000e+00) (0, 0, 0.00000000000000000000e+00) (0, 0, 0.00000000000000000000e+00) (0, 0, 0.00000000000000000000e+00) (0, 0, 0.00000000000000000000e+00) (0, 0, 0.00000000000000000000e+00) (0, 0, 0.00000000000000000000e+00) (0, 0, 0.00000000000000000000e+00) (785, 3, 5.00000000000000000000e-01) (785, 3, 5.00000000000000000000e-01) (785, 3, 5.00000000000000000000e-01) (785, 3, 5.00000000000000000000e-01) (785, 3, 5.00000000000000000000e-01) (785, 3, 5.00000000000000000000e-01) (785, 3, 5.00000000000000000000e-01) (785, 3, 5.00000000000000000000e-01) (785, 3, 5.00000000000000000000e-01) (785, 3, 5.00000000000000000000e-01) (785, 3, 5.00000000000000000000e-01) (785, 3, 5.00000000000000000000e-01) (785, 3, 5.00000000000000000000e-01) (785, 3, 5.00000000000000000000e-01) (785, 3, 5.00000000000000000000e-01) (0, 3, 0.00000000000000000000e+00) (16, 3, 5.00000000000000000000e-01) (16, 3, 5.00000000000000000000e-01) (16, 3, 5.00000000000000000000e-01) (16, 3, 5.00000000000000000000e-01) (16, 3, 5.00000000000000000000e-01) (16, 3, 5.00000000000000000000e-01) (16, 3, 5.00000000000000000000e-01) (16, 3, 5.00000000000000000000e-01) (16, 3, 5.00000000000000000000e-01) (16, 3, 5.00000000000000000000e-01) (0, 3, 0.00000000000000000000e+00) 
connections (connected_to_neuron, weight)=(0, 1.50000000000000000000e+03) (1, 1.50000000000000000000e+03) (2, 1.50000000000000000000e+03) (3, 1.50000000000000000000e+03) (4, 1.50000000000000000000e+03) (5, 1.50000000000000000000e+03) (6, 1.50000000000000000000e+03) (7, 1.50000000000000000000e+03) (8, 1.50000000000000000000e+03) (9, 1.50000000000000000000e+03) (10, 1.50000000000000000000e+03) (11, 1.50000000000000000000e+03) (12, 3.66669881269331412454e+01) (13, -2.94342946357750250286e+01) (14, 2.08747769738229038694e+01) (15, 2.08747769738229038694e+01) (16, 1.50000000000000000000e+03) (17, 1.50000000000000000000e+03) (18, 1.50000000000000000000e+03) (19, 1.50000000000000000000e+03) (20, 1.50000000000000000000e+03) (21, 1.50000000000000000000e+03) (22, 1.50000000000000000000e+03) (23, 1.50000000000000000000e+03) (24, 1.50000000000000000000e+03) (25, 1.50000000000000000000e+03) (26, 1.50000000000000000000e+03) (27, 1.50000000000000000000e+03) (28, 1.50000000000000000000e+03) (29, 1.50000000000000000000e+03) (30, 1.50000000000000000000e+03) (31, 1.50000000000000000000e+03) (32, 1.52512711061523731360e+00) (33, -4.69805795303992823619e+01) (34, -9.65804731341523670096e+00) (35, -3.37947432814007120427e+00) (36, -3.85342336375960359263e+00) (37, 2.42449481242250719504e+00) (38, 6.80229729233949331757e+00) (39, -5.42557201428482382966e+00) (40, 8.55673532304133566129e+00) (41, -5.20641323633312413932e+00) (42, 1.95451747267583719747e+00) (43, 4.69258417969251162560e+00) (44, -1.06538820396865148155e+01) (45, 1.65734558872234449822e+00) (46, 1.09046242501113237466e+01) (47, 5.58719077489111981549e+01) (48, -6.09258701365815369400e+01) (49, 2.72511192874254390972e+02) (50, -3.23737550272828002562e+02) (51, 7.35967208372365007563e+02) (52, 1.50000000000000000000e+03) (53, 1.50000000000000000000e+03) (54, 1.50000000000000000000e+03) (55, 1.50000000000000000000e+03) (56, 1.50000000000000000000e+03) (57, 1.50000000000000000000e+03) (58, -8.02304240945257902240e+02) (59, -5.16942577387054740257e+01) (60, 7.36728497093361234249e+00) (61, 1.37092394759466706944e+00) (62, 1.31472429093593117244e+01) (63, -5.65697091939344609557e+00) (64, 2.53118972442222434083e+00) (65, 6.04237379568371490990e+00) (66, -1.82992477732241587418e+00) (67, 1.23004187651731689002e+00) (68, 1.22181364096346323223e+00) (69, 1.69911544881300868859e+00) (70, 4.13507444511824973077e-01) (71, -1.57623579691623860732e+00) (72, 3.17152434667559157688e+00) (73, 6.95254703592843026350e-02) (74, -1.74163644075490653407e+00) (75, 4.06964616131002987487e+00) (76, 8.64227183995082803847e+00) (77, -1.03312404576404599510e+01) (78, 1.44353939850034276304e+01) (79, 4.27803403755860323088e+00) (80, -5.58141056555896497571e+00) (81, 2.87305151960664630906e+01) (82, 1.50000000000000000000e+03) (83, 1.50000000000000000000e+03) (84, 1.50000000000000000000e+03) (85, 1.50000000000000000000e+03) (86, 1.50000000000000000000e+03) (87, 1.52334498223885326240e+01) (88, -9.43744718155410211580e+00) (89, -1.08351218413008254515e+01) (90, 9.22419108786310459891e+00) (91, 2.69683669796198233204e-01) (92, -3.72024775746622182737e+00) (93, 8.04007041985553394525e-01) (94, -1.58470623473188609864e+00) (95, 6.11253409761953123147e-02) (96, -2.32197296284483423179e+00) (97, -1.89359113007987495125e-01) (98, -3.36391824564531205510e-01) (99, 7.02670399637628895206e-01) (100, -9.00878408705232114340e-02) (101, -1.04729338626132473244e+00) (102, 8.87273027404655412198e-01) (103, 1.72282198045651868679e-01) (104, 4.75245377743702124285e-01) (105, -1.06453162000682044486e+00) (106, 3.42217824531857495174e+00) (107, 5.44862789797807112180e-01) (108, 3.56616714698275760753e+00) (109, -6.54418523270585250629e+00) (110, 1.35052529019779186115e+01) (111, 1.50000000000000000000e+03) (112, 1.50000000000000000000e+03) (113, -1.50000000000000000000e+03) (114, 2.42360485694308920301e+01) (115, -1.57126245802626645087e+01) (116, 4.00535343240118013597e+00) (117, 9.31816120766981836887e-01) (118, -3.59874882332603895918e+00) (119, -1.16696599199465289587e+00) (120, 2.05770208147920463659e+00) (121, -7.37433045757854954694e-01) (122, -5.90675891813935538543e-01) (123, -3.46079860764654967387e-01) (124, -6.02141965228254250064e-01) (125, -8.62682650363197495169e-02) (126, -6.00332593845556816703e-01) (127, -3.97157266951426057844e-01) (128, 1.79798156277069659525e-01) (129, -1.23429075510517904934e-01) (130, 2.95345681545971849857e-01) (131, 4.72057796346131375298e-01) (132, 4.11039202434833828015e-01) (133, 9.90212840706073960106e-01) (134, 8.19615466297444639210e-01) (135, -4.30068596044692885716e-02) (136, 5.29150384601491663439e-01) (137, -8.24702167166997313075e+00) (138, 8.90282801319801819773e+00) (139, -4.12642850881081244552e+01) (140, 1.50000000000000000000e+03) (141, 1.50000000000000000000e+03) (142, 2.80679953798573080803e+01) (143, 2.18552873434964967103e+00) (144, 1.95408434280246345871e+00) (145, 9.22840318140904058986e-01) (146, -5.07599915863448547526e-01) (147, 1.58540497527774038033e+00) (148, 4.79759737239758732308e-01) (149, -1.00998180963512360075e-01) (150, -3.18050718751877126156e-01) (151, -8.79740440560314529428e-01) (152, -2.44161658040825041427e-01) (153, -1.32937275714030711526e+00) (154, -5.24082337467928427444e-01) (155, -6.16762729899683725954e-01) (156, -7.72688123232934009899e-01) (157, -5.87134814377506031313e-01) (158, -6.97373046899655846254e-02) (159, 5.78003604351145366946e-02) (160, -1.68722012340825032461e-02) (161, 6.42737934050787607099e-01) (162, 7.50546309144850543049e-01) (163, 6.05493679613795299232e-01) (164, 8.30534241505043069331e-01) (165, -2.05146926258335804416e-01) (166, -9.86836016042816233096e-01) (167, 4.72437407500995032450e+00) (168, 1.50000000000000000000e+03) (169, -1.36478500142558118569e+03) (170, -3.60324273408104858163e+01) (171, -3.67627437211303798037e+00) (172, 1.54446004928329760908e+00) (173, 1.80150656547495707782e-01) (174, -9.30035847035380780490e-01) (175, 3.57214755424863084077e-01) (176, -1.72107374562852544209e+00) (177, -1.07903563723085449411e+00) (178, -1.90143716444343857663e-01) (179, -4.13456747861618734152e-01) (180, -4.18798649842735792870e-01) (181, -4.68848771299686772895e-01) (182, -2.03077401922023420555e-01) (183, -2.40836775140133629858e-01) (184, -2.50110920270083803008e-01) (185, -3.17181272625749799410e-01) (186, -2.64724578110614450210e-01) (187, -4.73405092685549089282e-01) (188, -1.85696886784862041919e-01) (189, -1.75780966268116650708e-01) (190, -1.14545489159842250881e-01) (191, -3.51513098707212423566e-01) (192, -7.42983217412272689550e-01) (193, -7.14338650957538234820e-01) (194, -2.70082372373028256618e+00) (195, -1.44926102248435455522e+01) (196, -1.26579999079704271026e+03) (197, -5.52541986865771491466e+02) (198, -1.50000000000000000000e+03) (199, -2.74111438736594514864e+00) (200, -1.56973214457678478251e-01) (201, -4.51912298997861339167e-01) (202, -2.67610049267487948299e+00) (203, -2.68434117533984939463e-01) (204, -7.20448177071216555589e-01) (205, -6.80218343607102760018e-01) (206, -2.68816400414358835924e-01) (207, -2.73204878122969618826e-01) (208, -2.53279351989789069943e-01) (209, -2.11973627887790755375e-01) (210, -1.25803527776910201164e-01) (211, -6.07436180710195783305e-02) (212, -1.06483274748070434745e-02) (213, -1.46119239685777779769e-01) (214, -3.71660087542120209925e-01) (215, -2.22627473167911343888e-01) (216, -5.21159257914084794727e-01) (217, -8.62660286796432695944e-01) (218, -1.39046854429477895199e-01) (219, 1.98304526333701242047e-01) (220, 4.07545538405379548230e-01) (221, -3.28654138537932016817e+00) (222, 3.98481223363950665117e+00) (223, -5.66347651115851213888e+00) (224, -4.55949415491331038197e+01) (225, -1.50000000000000000000e+03) (226, -1.50000000000000000000e+03) (227, -3.34517471838551028185e+00) (228, 2.73279774716235157594e-01) (229, -3.77777794148625445381e-01) (230, -1.76565838194052804333e-01) (231, -4.78327151371046144224e-01) (232, -5.26783006436189915611e-01) (233, -7.33422702488648492469e-01) (234, -6.30127290300216968966e-01) (235, -5.23510357186124930529e-01) (236, -4.68051990555682417838e-01) (237, -2.82900733983482526035e-02) (238, -2.38647029831896007046e-01) (239, -8.35265984972544256459e-02) (240, -5.05052624490277324298e-01) (241, -2.99298795407191342566e-01) (242, -2.36504199128251629825e-01) (243, -2.47897328916427656109e-01) (244, -3.63477815394332881560e-01) (245, -3.46696237726638670229e-02) (246, -2.23600751225110888631e-01) (247, -1.36822911764625709807e+00) (248, -1.09306874036791845661e+00) (249, -2.46070436425204697173e+00) (250, 2.19820644356612238113e+00) (251, -1.80467288963996974616e+00) (252, -1.50000000000000000000e+03) (253, -1.89660004169534772700e+01) (254, -1.50000000000000000000e+03) (255, -1.53495183682670610636e+00) (256, -6.88682424338641574479e-01) (257, -1.93958136255020119343e+00) (258, -5.60689949826910366548e-02) (259, -8.52611253533076873801e-01) (260, -5.02275584475769393267e-02) (261, -2.67273085363270379577e-01) (262, -1.92801246919731633644e-01) (263, -5.29815041231438632607e-01) (264, -2.51296866562751630703e-01) (265, -1.97341959888661377942e-01) (266, -8.13256231811730789794e-01) (267, -4.38272673026225578763e-01) (268, -3.68815148445186313797e-01) (269, -3.04421521172126063881e-01) (270, -2.77576386778168759939e-01) (271, -2.80924523046288676653e-01) (272, -4.56869885171834244630e-01) (273, -3.94546366315571939154e-01) (274, -2.18219046283232687156e-01) (275, -2.30987334369499502928e-01) (276, -2.73992641182948470924e-01) (277, -4.11537848672331030286e+00) (278, -6.92246292296523879628e+00) (279, 4.38055556006123669732e+00) (280, -1.50000000000000000000e+03) (281, 7.07740683183125174338e+00) (282, -7.78791696917777054310e-01) (283, -2.38251486055974259770e+00) (284, -5.88526600548925582501e-01) (285, -4.52403621247037146524e-01) (286, -7.31267598882360050916e-03) (287, -4.42611730869263142463e-02) (288, 7.19194330285382044110e-02) (289, -5.69192853032022758053e-02) (290, -1.59457647961741749709e-01) (291, -2.53664522637626010937e-01) (292, -2.79337846391545463476e-01) (293, -8.36416839770718567593e-01) (294, -3.57462475047850780641e-01) (295, -2.77749355742429537841e-01) (296, -8.20298962769929640437e-01) (297, -5.98043656651811805780e-01) (298, -4.60516440674589799809e-01) (299, -5.46700203121504135773e-01) (300, -3.53827046556043411929e-01) (301, -6.52313620636593483049e-01) (302, -2.74259455321007421247e-02) (303, -2.71198074655426424329e+00) (304, -3.47257887455419522738e+00) (305, -2.78555286000289648030e+00) (306, 3.63416277424036149313e-01) (307, 3.25140753793390802073e+00) (308, -1.50000000000000000000e+03) (309, -1.50000000000000000000e+03) (310, -7.39818189686680049988e+00) (311, -4.28285067950212283705e+00) (312, 1.73012367837629466027e-01) (313, -2.92983875902187052009e-01) (314, -3.35342262576674224328e-02) (315, 2.91894044362749280341e-02) (316, 3.34379593507556138743e-01) (317, 1.41319562688672323292e-01) (318, 6.17692753305376721085e-02) (319, 4.30095425535228087499e-02) (320, -1.74152369904031795178e-01) (321, -2.98940294697929875856e-01) (322, 3.19419388284415295409e-01) (323, 2.09564527998245681006e-01) (324, -2.95727412221740926235e-01) (325, -9.07989152620947564953e-02) (326, 5.32603320767166682481e-02) (327, 3.35998866792108219492e-02) (328, -4.73735758013813304523e-02) (329, -2.78575019999071804566e-01) (330, -3.89194038205020909071e-01) (331, 5.87150171099663942265e-01) (332, 1.41458342824723337650e+00) (333, -1.09740349482017176541e+01) (334, -1.00645161051154530263e+00) (335, 2.85317531580152525805e+01) (336, -1.50000000000000000000e+03) (337, -1.50000000000000000000e+03) (338, 2.59693815699946040088e-01) (339, -1.23409967930947983561e+00) (340, 4.43024851501349736793e-01) (341, 3.62066313062461953010e-01) (342, 1.02123721046021387338e+00) (343, 6.09372857352029062561e-01) (344, 2.84574716282375461684e-01) (345, 4.74570163347389384345e-01) (346, 2.70096439258038445441e-01) (347, 1.92768019547849500661e-01) (348, 1.31425745628394124997e-01) (349, 6.36480538274243223817e-01) (350, 1.67074132402888286819e+00) (351, 4.65642669064988579120e-01) (352, 3.71571936752054743369e-01) (353, 2.95025973799359853000e-01) (354, 3.94964728627923700177e-01) (355, 2.80927901814809477532e-01) (356, 2.94989240418699338875e-01) (357, 6.71456311855024523538e-01) (358, 7.45541064764054350889e-01) (359, 1.45857449849799847286e+00) (360, 2.24557086347908763102e+00) (361, -3.17473866951858196828e+00) (362, -6.84713182509649254115e+00) (363, 3.16955292319917738553e+01) (364, -3.03028197525625806463e+01) (365, 3.64715274087012460313e+02) (366, -7.59527261594206848372e+00) (367, -2.86267047447516675973e+00) (368, 3.03744064211749986715e-01) (369, 1.61742026651771036994e-01) (370, 1.82051008394355451347e-01) (371, 3.58913737782614261640e-01) (372, 2.30033946167485875423e-01) (373, 7.63237107850533114117e-01) (374, 5.87195649679002618093e-01) (375, 2.17215751385693378595e-01) (376, 1.09822401929824883804e-01) (377, 5.52400856377250448759e-01) (378, 1.57581268915356931259e+00) (379, 5.26226147892222217983e-01) (380, 2.02816728264971157802e-01) (381, 4.35047863219371666599e-01) (382, 5.17156095250690728271e-01) (383, 1.23638069399297845230e+00) (384, 7.58792915868509165733e-01) (385, 1.04775724537647096923e+00) (386, 8.08049560322308790816e-01) (387, -1.63934996569833968394e+00) (388, -4.25018177725640278197e+00) (389, 4.38688044436062085651e+00) (390, -8.39169670380240440011e+00) (391, -4.45978896727164482172e+01) (392, 4.17570233299208439348e+02) (393, -1.53792977089056904560e+02) (394, 1.44010165539758649977e+00) (395, 3.48693244280332015350e+00) (396, 2.21992092054922790512e-01) (397, 3.43203101253091613643e-01) (398, 9.18849345291985919459e-01) (399, 2.98606144615333968240e-01) (400, 2.99453983025838310628e-01) (401, 4.96574889035352518007e-01) (402, 2.03026277466879290223e-01) (403, 4.44305160848309899091e-01) (404, 3.16114876927521271099e-02) (405, 4.47366918919509581887e-01) (406, 9.79528335356933732569e-01) (407, 5.35337898998586747545e-01) (408, 2.06669400470186115371e-01) (409, 4.63959250493427177719e-01) (410, 5.01440554053550591185e-01) (411, 3.71918313996875193883e-01) (412, 4.32976343285607356837e-02) (413, 1.38031655224992888531e-01) (414, -9.77687506262156169612e-01) (415, 1.64184318336343060274e+00) (416, 1.01650615204435035288e+00) (417, -1.60292782957730195470e+00) (418, -2.24866113561143521338e+01) (419, 1.34366333139921522388e+02) (420, -1.31147520877846432086e+03) (421, -1.27913040597642338980e+03) (422, -7.75853333928948618592e+00) (423, 3.00747712410892820145e+00) (424, 1.96506233230401672341e-01) (425, -5.83508233522169406093e-01) (426, 1.13993540738283249958e+00) (427, 2.80134752116096619190e-01) (428, 3.99995712101450406895e-01) (429, 3.86555923271416079778e-01) (430, 3.81418040468617769445e-01) (431, 3.56556547455922800971e-01) (432, 6.52414223340719301447e-01) (433, 4.47461739577909523025e-01) (434, 5.09841056556780469755e-01) (435, 6.44087771558760957546e-01) (436, 3.77110812557764074615e-01) (437, 4.14027242663182470928e-01) (438, -2.97771563732761201937e-01) (439, -1.66220969879146085457e-01) (440, -5.72544393277615415450e-01) (441, -2.58579342985706617242e-01) (442, -2.01520323714270810367e-01) (443, 6.31914318489429249759e-01) (444, -1.28772079305138853478e+00) (445, 3.47754044410287654898e+00) (446, -2.49389536739278261379e+00) (447, -1.50000000000000000000e+03) (448, -1.50000000000000000000e+03) (449, -1.31868359924430187391e+01) (450, -5.01357403996217421138e+00) (451, -3.27027889166832519408e+00) (452, -1.50193300257816897414e+00) (453, 6.68788351268312791786e-02) (454, 1.67731149776703641896e-01) (455, 1.28438097396296835306e+00) (456, 1.90305985747937111974e-01) (457, -5.69719963446041269273e-02) (458, 3.83361814707458906093e-02) (459, 3.52120756938465895303e-01) (460, 3.27010990015266900244e-01) (461, 6.02451697795188589879e-01) (462, 6.17009805446121273320e-01) (463, 2.74610567506226088685e-01) (464, 3.01894811960920605998e-01) (465, 8.67506161292699723431e-02) (466, -1.04120261708958758429e-01) (467, -2.33888217992530456080e-01) (468, 2.53373537243051560885e-01) (469, -1.60412810831793983812e-02) (470, 1.02855206049081204789e+00) (471, -1.38989840928463603831e+00) (472, -8.10216051721533103702e-01) (473, -8.88760257540536002807e-01) (474, -8.68948163932041417468e+00) (475, 6.34275067511546808419e+01) (476, 1.50000000000000000000e+03) (477, -2.67372696288165112577e+00) (478, 9.39859760487080286850e+00) (479, -9.47133137073087327806e-01) (480, -2.62691458361018870260e-01) (481, -8.20920215014769527606e-01) (482, -3.66799730723313954783e-01) (483, 6.16499378036255762936e-01) (484, 4.85495535563448765703e-01) (485, -4.21293974109794022720e-02) (486, 8.73445045095683214598e-01) (487, 2.37918549833832204676e-01) (488, 5.71786512265704094382e-01) (489, 8.58201406494898511035e-01) (490, 6.84911945777976760574e-01) (491, 4.06229319917641717996e-01) (492, 1.38586884827518463936e-01) (493, -2.68925830330207192576e-02) (494, 1.00971765429414672005e-02) (495, -3.33442712838896260230e-01) (496, 1.26995954239433189725e-01) (497, 4.86345054230992307476e-02) (498, 1.16284795427651355126e-01) (499, -2.58174197170285391056e-01) (500, -1.27343312402089625657e+00) (501, -1.44814505825351313995e+00) (502, -1.00229271814492317816e+01) (503, -3.79250830588049097969e+02) (504, -7.70495765371426966084e+00) (505, -2.24777865352418837475e+00) (506, -4.17688378240260504981e+00) (507, -1.24321297588637835752e+00) (508, -8.06747724608558036685e-01) (509, -1.21003888117363289645e+00) (510, -1.50150894485909702780e+00) (511, -1.72715063188081358048e-01) (512, 5.60685921193277314600e-01) (513, -1.57825892684674909394e-02) (514, 6.20340360254837963616e-01) (515, 5.58133042033550297312e-01) (516, 4.77467726284618809718e-01) (517, 3.24330937203098967903e-01) (518, 5.57200550666284599721e-01) (519, 3.66473250180128717890e-01) (520, -1.19683407451307455283e-01) (521, -4.30221281081713036176e-01) (522, -5.03969627548346510437e-01) (523, -2.93234003557878396273e-02) (524, -1.64489293499524596998e-01) (525, -2.08885798567101516054e-01) (526, -9.69309098967011895098e-01) (527, -2.27050059559856909353e-01) (528, -3.56914489801779621914e+00) (529, -1.41633149255838630687e+00) (530, 4.93417300156454974314e+00) (531, 1.02506693791986052133e+01) (532, 1.50000000000000000000e+03) (533, -2.81363804871723402812e+02) (534, -4.07030005938736465509e+01) (535, 5.43186779849058343217e+00) (536, -1.93378086650784486444e+00) (537, 7.39879500710608262182e-01) (538, -1.71261927328482577160e+00) (539, -1.02787663902736614574e+00) (540, -5.34608184693171062385e-01) (541, -5.16170737779913513243e-01) (542, -5.02248553817633350271e-02) (543, 1.93851661140879871770e-01) (544, 1.37559870288712693398e-01) (545, 1.25853738970346795689e-01) (546, 2.59736602335814026343e-01) (547, -4.01502970581350190904e-02) (548, -1.13273967951116258379e-01) (549, -1.39073042369935923057e-01) (550, -8.85606866068234105382e-02) (551, -5.05906861957951675679e-02) (552, -3.39389677123403732395e-01) (553, 6.31005634073787513572e-01) (554, 6.99381091247223141139e-01) (555, -2.03060396266923914865e+00) (556, -3.71129396558037827347e+00) (557, -4.56073443693862223824e+00) (558, -1.33671041950124696029e+01) (559, 3.31109241540396865844e+01) (560, 1.50000000000000000000e+03) (561, 9.38141853968889494197e-01) (562, 5.52216423198185921706e+01) (563, -1.42494929233873879326e+01) (564, -2.31121000208328331027e+00) (565, -2.94578638523586100462e+00) (566, -1.13785043356013981786e+00) (567, -8.36596927131184275872e-01) (568, -9.33416376678463444172e-01) (569, -5.34566162329082494864e-01) (570, -1.94198335131650967611e-01) (571, -6.27268740233339339163e-02) (572, -3.96097506921756423170e-02) (573, 1.16652785059194574746e-01) (574, 1.13671505818908169516e-01) (575, 9.63602731672367623927e-02) (576, 1.35424937274992857050e-01) (577, 7.08148029349791596765e-02) (578, 2.85359954868081022727e-02) (579, -1.08188260747324946354e-01) (580, -1.04639267841732649944e-01) (581, -2.44641049359848566924e-01) (582, -7.38813999529096210317e-01) (583, -9.13444592435933233610e-01) (584, -5.18952322174558577927e+00) (585, 4.21749039719878204835e+00) (586, 9.25862812250114153301e+00) (587, 5.86782617504429726552e+00) (588, 1.50000000000000000000e+03) (589, 2.86283635098880822056e+01) (590, -2.13501422066060335681e+01) (591, -3.72706230154998650050e+01) (592, -8.67364170217657282080e+00) (593, 2.18715248310579957192e+00) (594, -1.43542619151406802835e+00) (595, -9.58259014698683353473e-01) (596, -8.32480879165201775871e-02) (597, -4.75979207749033628172e-01) (598, -4.24067973196076475340e-01) (599, -1.58626138551665116228e-02) (600, 7.67272428602026879130e-03) (601, 1.22604458668298291202e-01) (602, 5.43507300889196076632e-01) (603, 5.52393124079435193785e-01) (604, 6.77274743013649704881e-02) (605, 1.17026986908352295669e-01) (606, -1.97502628993990431150e-01) (607, -2.52677154341783949398e-01) (608, -5.32742106376261848055e-01) (609, -1.21933963434484637922e+00) (610, -9.78846654694889295456e-01) (611, -1.66155926188892744122e+00) (612, 1.49148750765156834497e+00) (613, 1.70625689179407924456e+00) (614, -3.65052715553698732265e+01) (615, -4.15799990797042710255e+02) (616, 1.50000000000000000000e+03) (617, 4.42553137519644906206e+02) (618, 5.76556150264409197348e+01) (619, 1.04370354012437740465e+01) (620, -6.88237436480120701177e-01) (621, 5.54529924351210359856e-02) (622, -1.43866407060137313501e-01) (623, -5.56947713430087421038e-01) (624, -1.52966640517705632085e+00) (625, -5.36783514114634208170e-01) (626, -6.22482969729469481912e-01) (627, -6.68709628561802826852e-01) (628, -6.34051711630363445948e-01) (629, -5.52048537817671158834e-01) (630, -3.95029482357228567402e-01) (631, -2.91967466113673301820e-01) (632, -7.35158917784041882060e-02) (633, -6.48816128761563748473e-02) (634, -1.56963583885928931183e-01) (635, -3.99336197003532289429e-01) (636, -1.78831495576790178159e-01) (637, -4.55765046154347042151e-01) (638, -3.46830576683185842768e-01) (639, 1.59635071111774151653e+00) (640, -4.90328316450985901565e-01) (641, 1.06260303365694985800e+00) (642, 3.07998795899181878610e+01) (643, -4.15799990797042710255e+02) (644, 1.50000000000000000000e+03) (645, 1.50000000000000000000e+03) (646, -4.22867688433306057050e+01) (647, -5.90951386956118653870e+01) (648, -9.06758703264761600771e-01) (649, 5.48365119748267071387e-01) (650, 6.53468518757468808111e-01) (651, -8.78885774723934809494e-02) (652, 1.82872520069497779271e-01) (653, -3.55303413413034577251e-02) (654, -6.11367755089204933938e-01) (655, -1.34738256012184298704e+00) (656, -9.90930541638856299258e-01) (657, -1.05340372048138153360e+00) (658, -1.13771676014022871115e+00) (659, -7.84954979602096480917e-01) (660, -3.43877952681974297100e-01) (661, -3.83975205802352059781e-01) (662, 1.90577826914656273116e-01) (663, 2.54394296886525705936e-01) (664, 4.17331810804160430184e-01) (665, 1.35757449773644522928e+00) (666, 2.97785194571127564966e-01) (667, -2.36560185123139499197e+00) (668, 1.07879469987211340509e+00) (669, -1.67928192857114644276e+00) (670, 8.76599359147800960557e+00) (671, 1.50000000000000000000e+03) (672, 1.50000000000000000000e+03) (673, 1.50000000000000000000e+03) (674, 2.49302690205767163434e+01) (675, 8.96603310416410081984e+00) (676, -1.20906015811088818346e+00) (677, 8.95264610128016224966e-02) (678, -2.97329919568431633170e-01) (679, -4.66461660755176088511e-02) (680, -5.79027642285747101702e-01) (681, -2.99977852171503245327e-01) (682, -1.58731370982156255733e-01) (683, -3.22195310365094578220e-01) (684, -1.72734706562697737375e-01) (685, -6.98420278659433457769e-01) (686, -1.66508773001352000653e-01) (687, -2.90241611020771672624e-01) (688, -3.42233463343397770196e-01) (689, -1.70617739363117637552e-01) (690, 2.43194281177265020366e-01) (691, 1.56263339852279892206e+00) (692, -9.63741296679815895310e-01) (693, 2.41628622003724746747e+00) (694, 2.01647534731455330137e-01) (695, 3.19182999144956092152e+00) (696, -4.10728873963619067755e-01) (697, 1.14058920084509836101e+01) (698, 1.71862807529955716745e+02) (699, 1.50000000000000000000e+03) (700, 1.50000000000000000000e+03) (701, 1.50000000000000000000e+03) (702, 1.13164410639146717585e+03) (703, -1.28196485346727945398e+03) (704, -5.83644271108326506692e+00) (705, -3.70759224633680425920e-03) (706, -5.94727534158657200614e-01) (707, 2.09015222746117473873e-01) (708, 1.39432276123648349331e-02) (709, -3.47024081952632290626e-01) (710, 7.95263129421908410155e-02) (711, -2.03262764184873427620e-02) (712, 1.09919736866459880065e-01) (713, 4.06938276945791599370e-01) (714, -2.84314604123414971237e-01) (715, -8.22134063537788839504e-01) (716, 3.55449140186050505097e-01) (717, 4.60759509313132975539e-01) (718, 1.38132976720272471205e-01) (719, -7.47120670890208060655e-01) (720, 2.19013420503460487510e+00) (721, 3.34370068647122664629e+00) (722, 1.33439446326873998316e+01) (723, -1.87901421224660603038e+00) (724, -1.74623838706009726351e+00) (725, 1.39877274433953243715e+03) (726, -1.36458570346489341318e+03) (727, 1.50000000000000000000e+03) (728, 1.50000000000000000000e+03) (729, 1.50000000000000000000e+03) (730, 1.50000000000000000000e+03) (731, -3.45655268378245921213e+01) (732, 1.12063452985672906692e+01) (733, -5.91857153236766730942e+00) (734, 1.69194750997549059335e+00) (735, -1.14662301837150826245e+00) (736, -4.55538640865386090795e-01) (737, -3.13893114582563637072e-01) (738, 1.88198334384911569739e-01) (739, -6.83498703046482303236e-01) (740, -2.51882043545997080791e-01) (741, -9.64817325081704146861e-01) (742, 1.79983821858964193607e-01) (743, 2.15749437034005731029e-02) (744, -9.19571479210937070548e-01) (745, -1.13433084397908845453e+00) (746, 5.32842562374635120293e-01) (747, -1.94487678797245644446e+00) (748, 2.35471221541635111763e+00) (749, 4.95198207641937782064e-01) (750, -1.07301612766923675224e+01) (751, 1.79486441419170317246e+00) (752, 3.14816319980316450255e+02) (753, -1.50000000000000000000e+03) (754, 1.50000000000000000000e+03) (755, 1.50000000000000000000e+03) (756, 1.50000000000000000000e+03) (757, 1.50000000000000000000e+03) (758, 1.50000000000000000000e+03) (759, 1.50000000000000000000e+03) (760, -1.50000000000000000000e+03) (761, -1.50000000000000000000e+03) (762, 3.81716953528002056473e-01) (763, 1.94699094435824715532e+00) (764, -6.26668250533378312639e+00) (765, -1.70880906752066819010e+00) (766, -3.53184838051789729008e+00) (767, -2.19218213210256429591e+00) (768, 7.41822501942787537743e-01) (769, -4.64851465384062745301e+00) (770, -1.62838283978647813122e+00) (771, 3.24859879189322353632e-01) (772, 1.82232152900762861547e-01) (773, -4.49061247135614927117e+00) (774, -1.50970384237059929156e+00) (775, -4.97274324819258706221e-01) (776, -8.21299394799964588287e+00) (777, 1.80473595674124460686e+01) (778, -5.28193284639226874333e+01) (779, 1.61529486280808441734e+02) (780, 1.50000000000000000000e+03) (781, 1.50000000000000000000e+03) (782, 1.50000000000000000000e+03) (783, 1.50000000000000000000e+03) (784, 2.98197085518080440281e-01) (0, 1.50000000000000000000e+03) (1, 1.50000000000000000000e+03) (2, 1.50000000000000000000e+03) (3, 1.50000000000000000000e+03) (4, 1.50000000000000000000e+03) (5, 1.50000000000000000000e+03) (6, 1.50000000000000000000e+03) (7, 1.50000000000000000000e+03) (8, 1.50000000000000000000e+03) (9, 1.50000000000000000000e+03) (10, 1.50000000000000000000e+03) (11, 1.50000000000000000000e+03) (12, -3.39261405767971609748e+02) (13, 1.50000000000000000000e+03) (14, 1.50000000000000000000e+03) (15, 1.50000000000000000000e+03) (16, 1.50000000000000000000e+03) (17, 1.50000000000000000000e+03) (18, 1.50000000000000000000e+03) (19, 1.50000000000000000000e+03) (20, 1.50000000000000000000e+03) (21, 1.50000000000000000000e+03) (22, 1.50000000000000000000e+03) (23, 1.50000000000000000000e+03) (24, 1.50000000000000000000e+03) (25, 1.50000000000000000000e+03) (26, 1.50000000000000000000e+03) (27, 1.50000000000000000000e+03) (28, 1.50000000000000000000e+03) (29, 1.50000000000000000000e+03) (30, 1.50000000000000000000e+03) (31, 1.50000000000000000000e+03) (32, -1.50000000000000000000e+03) (33, -1.50000000000000000000e+03) (34, -1.50000000000000000000e+03) (35, -1.50000000000000000000e+03) (36, 5.64037245476182533821e+02) (37, -1.50000000000000000000e+03) (38, -1.50000000000000000000e+03) (39, -1.50000000000000000000e+03) (40, -1.50000000000000000000e+03) (41, -1.50000000000000000000e+03) (42, 1.50000000000000000000e+03) (43, 1.50000000000000000000e+03) (44, 1.50000000000000000000e+03) (45, -1.50000000000000000000e+03) (46, -1.50000000000000000000e+03) (47, -1.50000000000000000000e+03) (48, -1.50000000000000000000e+03) (49, -1.50000000000000000000e+03) (50, -1.50000000000000000000e+03) (51, -1.50000000000000000000e+03) (52, 1.50000000000000000000e+03) (53, 1.50000000000000000000e+03) (54, 1.50000000000000000000e+03) (55, 1.50000000000000000000e+03) (56, 1.50000000000000000000e+03) (57, 1.50000000000000000000e+03) (58, -1.50000000000000000000e+03) (59, -1.50000000000000000000e+03) (60, -1.50000000000000000000e+03) (61, -1.50000000000000000000e+03) (62, -1.50000000000000000000e+03) (63, -1.50000000000000000000e+03) (64, -1.50000000000000000000e+03) (65, 1.50000000000000000000e+03) (66, 1.50000000000000000000e+03) (67, 1.50000000000000000000e+03) (68, 1.50000000000000000000e+03) (69, 1.50000000000000000000e+03) (70, 1.50000000000000000000e+03) (71, 1.50000000000000000000e+03) (72, 1.50000000000000000000e+03) (73, 1.50000000000000000000e+03) (74, 1.50000000000000000000e+03) (75, -1.50000000000000000000e+03) (76, 1.50000000000000000000e+03) (77, 1.50000000000000000000e+03) (78, -1.77400014352798621076e+02) (79, -1.50000000000000000000e+03) (80, 1.50000000000000000000e+03) (81, 1.50000000000000000000e+03) (82, 1.50000000000000000000e+03) (83, 1.50000000000000000000e+03) (84, 1.50000000000000000000e+03) (85, 1.50000000000000000000e+03) (86, 1.50000000000000000000e+03) (87, -1.50000000000000000000e+03) (88, 1.50000000000000000000e+03) (89, -4.65799990797042596569e+02) (90, 1.50000000000000000000e+03) (91, -7.35544746189605461950e+02) (92, -1.50000000000000000000e+03) (93, 1.12057179065179957433e+03) (94, 1.40137228063986140114e+03) (95, 1.20026140862899455897e+03) (96, 1.50000000000000000000e+03) (97, 1.50000000000000000000e+03) (98, 2.31471351253000676707e+02) (99, -8.57645445864376142708e+02) (100, -1.07420041502530170874e+03) (101, -9.87991591102302891159e+02) (102, -1.05786412766256921714e+03) (103, -1.50000000000000000000e+03) (104, -1.40213861228031510109e+03) (105, 1.50000000000000000000e+03) (106, 1.34079999079704271026e+03) (107, 2.63760221390526226060e+02) (108, -1.50000000000000000000e+03) (109, 1.50000000000000000000e+03) (110, 1.50000000000000000000e+03) (111, 1.50000000000000000000e+03) (112, 1.50000000000000000000e+03) (113, -1.36579999079704271026e+03) (114, -1.50000000000000000000e+03) (115, 4.47454594520200942043e+02) (116, 1.50000000000000000000e+03) (117, 1.50000000000000000000e+03) (118, 1.50000000000000000000e+03) (119, 1.50000000000000000000e+03) (120, 1.48606858640658606419e+03) (121, 1.16914973285582163953e+03) (122, 1.31920759521102854706e+03) (123, -1.00763793777987871181e+01) (124, -1.50000000000000000000e+03) (125, -1.50000000000000000000e+03) (126, -1.50000000000000000000e+03) (127, -1.50000000000000000000e+03) (128, -1.50000000000000000000e+03) (129, -1.50000000000000000000e+03) (130, -1.50000000000000000000e+03) (131, -1.50000000000000000000e+03) (132, -1.50000000000000000000e+03) (133, 1.69624080409271698500e+02) (134, 1.50000000000000000000e+03) (135, 1.50000000000000000000e+03) (136, 1.50000000000000000000e+03) (137, 1.50000000000000000000e+03) (138, 1.50000000000000000000e+03) (139, -1.50000000000000000000e+03) (140, 1.50000000000000000000e+03) (141, 1.50000000000000000000e+03) (142, 9.41954370490811925265e+02) (143, 1.50000000000000000000e+03) (144, 1.50000000000000000000e+03) (145, 1.50000000000000000000e+03) (146, 1.50000000000000000000e+03) (147, 1.50000000000000000000e+03) (148, 1.50000000000000000000e+03) (149, 1.49662810296594420834e+03) (150, -7.59200009202957289745e+02) (151, -1.50000000000000000000e+03) (152, -1.50000000000000000000e+03) (153, -1.50000000000000000000e+03) (154, -1.50000000000000000000e+03) (155, -1.50000000000000000000e+03) (156, -1.50000000000000000000e+03) (157, -1.50000000000000000000e+03) (158, -1.50000000000000000000e+03) (159, -1.50000000000000000000e+03) (160, -1.50000000000000000000e+03) (161, -1.50000000000000000000e+03) (162, 1.50000000000000000000e+03) (163, 1.50000000000000000000e+03) (164, 1.50000000000000000000e+03) (165, 1.50000000000000000000e+03) (166, 1.50000000000000000000e+03) (167, 1.50000000000000000000e+03) (168, 1.50000000000000000000e+03) (169, -1.50000000000000000000e+03) (170, 1.50000000000000000000e+03) (171, 1.50000000000000000000e+03) (172, 1.50000000000000000000e+03) (173, 1.50000000000000000000e+03) (174, 1.50000000000000000000e+03) (175, 1.50000000000000000000e+03) (176, 1.50000000000000000000e+03) (177, 1.50000000000000000000e+03) (178, -1.42999999821186065674e+03) (179, -1.50000000000000000000e+03) (180, -1.50000000000000000000e+03) (181, -1.50000000000000000000e+03) (182, -1.50000000000000000000e+03) (183, -1.50000000000000000000e+03) (184, -1.50000000000000000000e+03) (185, -1.50000000000000000000e+03) (186, -1.50000000000000000000e+03) (187, -1.50000000000000000000e+03) (188, -1.50000000000000000000e+03) (189, -1.50000000000000000000e+03) (190, 5.90799990797042710255e+02) (191, 1.50000000000000000000e+03) (192, 1.50000000000000000000e+03) (193, 1.50000000000000000000e+03) (194, 1.50000000000000000000e+03) (195, 1.50000000000000000000e+03) (196, 1.50000000000000000000e+03) (197, 1.50000000000000000000e+03) (198, 1.50000000000000000000e+03) (199, 1.50000000000000000000e+03) (200, 1.50000000000000000000e+03) (201, 1.50000000000000000000e+03) (202, 1.50000000000000000000e+03) (203, 1.50000000000000000000e+03) (204, 1.50000000000000000000e+03) (205, 1.50000000000000000000e+03) (206, -1.50000000000000000000e+03) (207, -1.50000000000000000000e+03) (208, -1.50000000000000000000e+03) (209, -1.50000000000000000000e+03) (210, -1.50000000000000000000e+03) (211, -1.50000000000000000000e+03) (212, -1.50000000000000000000e+03) (213, -1.50000000000000000000e+03) (214, -1.50000000000000000000e+03) (215, -1.50000000000000000000e+03) (216, -1.50000000000000000000e+03) (217, -1.50000000000000000000e+03) (218, 5.08811660903738470552e+02) (219, 1.50000000000000000000e+03) (220, 1.50000000000000000000e+03) (221, 1.50000000000000000000e+03) (222, 1.50000000000000000000e+03) (223, 1.50000000000000000000e+03) (224, -1.50000000000000000000e+03) (225, 1.50000000000000000000e+03) (226, 1.50000000000000000000e+03) (227, 1.50000000000000000000e+03) (228, 1.50000000000000000000e+03) (229, 1.50000000000000000000e+03) (230, 1.50000000000000000000e+03) (231, 1.50000000000000000000e+03) (232, 1.50000000000000000000e+03) (233, -1.50000000000000000000e+03) (234, -1.50000000000000000000e+03) (235, -1.50000000000000000000e+03) (236, -1.50000000000000000000e+03) (237, -1.50000000000000000000e+03) (238, -1.50000000000000000000e+03) (239, -1.50000000000000000000e+03) (240, -1.50000000000000000000e+03) (241, -1.50000000000000000000e+03) (242, -1.50000000000000000000e+03) (243, -1.50000000000000000000e+03) (244, -1.50000000000000000000e+03) (245, -1.50000000000000000000e+03) (246, -1.50000000000000000000e+03) (247, 1.34339342534709885513e+03) (248, 1.50000000000000000000e+03) (249, 1.50000000000000000000e+03) (250, 1.50000000000000000000e+03) (251, -4.85287083343377275924e+02) (252, 1.50000000000000000000e+03) (253, 1.50000000000000000000e+03) (254, 1.50000000000000000000e+03) (255, 1.50000000000000000000e+03) (256, 1.50000000000000000000e+03) (257, 1.50000000000000000000e+03) (258, 1.50000000000000000000e+03) (259, 1.50000000000000000000e+03) (260, -1.50000000000000000000e+03) (261, -1.50000000000000000000e+03) (262, -1.50000000000000000000e+03) (263, -1.50000000000000000000e+03) (264, -1.50000000000000000000e+03) (265, -1.50000000000000000000e+03) (266, 5.49461599340613133791e+02) (267, 3.56796276176052629125e+02) (268, 3.39061392511898361590e+02) (269, -4.02789571150280949041e+02) (270, -1.50000000000000000000e+03) (271, -1.50000000000000000000e+03) (272, -1.50000000000000000000e+03) (273, -1.50000000000000000000e+03) (274, -1.50000000000000000000e+03) (275, -1.50000000000000000000e+03) (276, 1.50000000000000000000e+03) (277, 1.50000000000000000000e+03) (278, 1.50000000000000000000e+03) (279, 1.50000000000000000000e+03) (280, 1.50000000000000000000e+03) (281, 1.50000000000000000000e+03) (282, 1.50000000000000000000e+03) (283, 1.50000000000000000000e+03) (284, 1.50000000000000000000e+03) (285, 1.50000000000000000000e+03) (286, 1.50000000000000000000e+03) (287, -1.50000000000000000000e+03) (288, -1.50000000000000000000e+03) (289, -1.50000000000000000000e+03) (290, -1.50000000000000000000e+03) (291, -1.50000000000000000000e+03) (292, -1.50000000000000000000e+03) (293, -7.55926705298328784011e+02) (294, 1.47997356505262268911e+03) (295, 1.50000000000000000000e+03) (296, 1.50000000000000000000e+03) (297, 1.50000000000000000000e+03) (298, -1.50000000000000000000e+03) (299, -1.50000000000000000000e+03) (300, -1.50000000000000000000e+03) (301, -1.50000000000000000000e+03) (302, -1.50000000000000000000e+03) (303, -1.50000000000000000000e+03) (304, -1.50000000000000000000e+03) (305, 1.50000000000000000000e+03) (306, 1.50000000000000000000e+03) (307, 1.50000000000000000000e+03) (308, 1.50000000000000000000e+03) (309, 1.50000000000000000000e+03) (310, 1.50000000000000000000e+03) (311, 1.50000000000000000000e+03) (312, 1.50000000000000000000e+03) (313, 1.44395903532824513604e+03) (314, -1.50000000000000000000e+03) (315, -1.50000000000000000000e+03) (316, -1.50000000000000000000e+03) (317, -1.50000000000000000000e+03) (318, -1.50000000000000000000e+03) (319, -1.50000000000000000000e+03) (320, -1.07313775739861557668e+03) (321, 1.50000000000000000000e+03) (322, 1.50000000000000000000e+03) (323, 1.50000000000000000000e+03) (324, 1.50000000000000000000e+03) (325, 1.50000000000000000000e+03) (326, 9.93498631918256251083e+02) (327, -1.50000000000000000000e+03) (328, -1.50000000000000000000e+03) (329, -1.50000000000000000000e+03) (330, -1.50000000000000000000e+03) (331, -1.50000000000000000000e+03) (332, -1.50000000000000000000e+03) (333, 1.62642221512424214325e+02) (334, 1.50000000000000000000e+03) (335, 8.06423147124284128040e+02) (336, 1.50000000000000000000e+03) (337, 1.50000000000000000000e+03) (338, 1.50000000000000000000e+03) (339, 1.50000000000000000000e+03) (340, 1.50000000000000000000e+03) (341, -1.50000000000000000000e+03) (342, -1.50000000000000000000e+03) (343, -1.50000000000000000000e+03) (344, -1.50000000000000000000e+03) (345, -1.50000000000000000000e+03) (346, -1.20679998531341539092e+03) (347, -8.83338570342486264053e+02) (348, 1.16476475150402211511e+03) (349, 1.50000000000000000000e+03) (350, 1.50000000000000000000e+03) (351, 1.50000000000000000000e+03) (352, 1.50000000000000000000e+03) (353, 1.50000000000000000000e+03) (354, 1.50000000000000000000e+03) (355, -1.50000000000000000000e+03) (356, -1.50000000000000000000e+03) (357, -1.50000000000000000000e+03) (358, -1.50000000000000000000e+03) (359, -1.50000000000000000000e+03) (360, -1.50000000000000000000e+03) (361, -1.50000000000000000000e+03) (362, -7.65799990797042710255e+02) (363, 1.18553462828621127301e+03) (364, 1.50000000000000000000e+03) (365, 1.50000000000000000000e+03) (366, 1.50000000000000000000e+03) (367, 1.50000000000000000000e+03) (368, 1.50000000000000000000e+03) (369, -1.50000000000000000000e+03) (370, -1.50000000000000000000e+03) (371, -1.50000000000000000000e+03) (372, -1.50000000000000000000e+03) (373, -1.38001324253683992538e+03) (374, -7.83338570342486264053e+02) (375, -7.15799990797042596569e+02) (376, -3.15799990797042596569e+02) (377, 1.50000000000000000000e+03) (378, 1.50000000000000000000e+03) (379, 1.50000000000000000000e+03) (380, 1.50000000000000000000e+03) (381, 1.50000000000000000000e+03) (382, 1.50000000000000000000e+03) (383, -1.40860773439370450433e+03) (384, -1.50000000000000000000e+03) (385, -1.50000000000000000000e+03) (386, -1.50000000000000000000e+03) (387, -1.50000000000000000000e+03) (388, -1.50000000000000000000e+03) (389, -1.50000000000000000000e+03) (390, 1.50000000000000000000e+03) (391, 1.50000000000000000000e+03) (392, 1.50000000000000000000e+03) (393, 1.50000000000000000000e+03) (394, 1.50000000000000000000e+03) (395, 1.50000000000000000000e+03) (396, 1.50000000000000000000e+03) (397, -1.50000000000000000000e+03) (398, -1.50000000000000000000e+03) (399, -1.50000000000000000000e+03) (400, -1.50000000000000000000e+03) (401, -1.42909467274345001897e+03) (402, -9.33338570342486491427e+02) (403, -7.15799990797042596569e+02) (404, 8.42000092029574034314e+01) (405, 1.50000000000000000000e+03) (406, 1.50000000000000000000e+03) (407, 1.50000000000000000000e+03) (408, 1.50000000000000000000e+03) (409, 1.50000000000000000000e+03) (410, 1.50000000000000000000e+03) (411, 1.50000000000000000000e+03) (412, -1.50000000000000000000e+03) (413, -1.50000000000000000000e+03) (414, -1.50000000000000000000e+03) (415, -1.50000000000000000000e+03) (416, -1.50000000000000000000e+03) (417, -1.50000000000000000000e+03) (418, 1.50000000000000000000e+03) (419, 1.50000000000000000000e+03) (420, 1.50000000000000000000e+03) (421, -1.11579999079704271026e+03) (422, 1.50000000000000000000e+03) (423, 1.50000000000000000000e+03) (424, -1.50000000000000000000e+03) (425, -1.50000000000000000000e+03) (426, -1.50000000000000000000e+03) (427, -1.50000000000000000000e+03) (428, -1.50000000000000000000e+03) (429, -1.50000000000000000000e+03) (430, -1.50000000000000000000e+03) (431, -6.15799990797042596569e+02) (432, 1.50000000000000000000e+03) (433, 1.50000000000000000000e+03) (434, 1.50000000000000000000e+03) (435, 1.50000000000000000000e+03) (436, 1.50000000000000000000e+03) (437, 1.50000000000000000000e+03) (438, 1.50000000000000000000e+03) (439, -2.35418062600628815062e+02) (440, -1.50000000000000000000e+03) (441, -1.50000000000000000000e+03) (442, -1.50000000000000000000e+03) (443, -1.50000000000000000000e+03) (444, -1.50000000000000000000e+03) (445, -1.50000000000000000000e+03) (446, 1.50000000000000000000e+03) (447, 1.50000000000000000000e+03) (448, 1.50000000000000000000e+03) (449, -1.36605117679595764457e+03) (450, 1.50000000000000000000e+03) (451, 1.50000000000000000000e+03) (452, -1.50000000000000000000e+03) (453, -1.50000000000000000000e+03) (454, -1.50000000000000000000e+03) (455, -1.50000000000000000000e+03) (456, -1.50000000000000000000e+03) (457, -1.50000000000000000000e+03) (458, -1.50000000000000000000e+03) (459, -7.65799990797042710255e+02) (460, 1.50000000000000000000e+03) (461, 1.50000000000000000000e+03) (462, 1.50000000000000000000e+03) (463, 1.50000000000000000000e+03) (464, 1.50000000000000000000e+03) (465, 1.50000000000000000000e+03) (466, 1.50000000000000000000e+03) (467, -1.50000000000000000000e+03) (468, -1.50000000000000000000e+03) (469, -1.50000000000000000000e+03) (470, -1.50000000000000000000e+03) (471, -1.50000000000000000000e+03) (472, -1.50000000000000000000e+03) (473, -1.23356969739224382465e+02) (474, 1.50000000000000000000e+03) (475, 1.50000000000000000000e+03) (476, 1.50000000000000000000e+03) (477, -7.83879163783597277870e+02) (478, 1.50000000000000000000e+03) (479, 1.50000000000000000000e+03) (480, -1.50000000000000000000e+03) (481, -1.50000000000000000000e+03) (482, -1.50000000000000000000e+03) (483, -1.50000000000000000000e+03) (484, -1.50000000000000000000e+03) (485, -1.50000000000000000000e+03) (486, -1.50000000000000000000e+03) (487, -1.50000000000000000000e+03) (488, 1.50000000000000000000e+03) (489, 1.50000000000000000000e+03) (490, 1.50000000000000000000e+03) (491, 1.50000000000000000000e+03) (492, 1.50000000000000000000e+03) (493, 1.50000000000000000000e+03) (494, -1.19798683232755456629e+03) (495, -1.50000000000000000000e+03) (496, -1.50000000000000000000e+03) (497, -1.50000000000000000000e+03) (498, -1.50000000000000000000e+03) (499, -1.50000000000000000000e+03) (500, -1.50000000000000000000e+03) (501, 1.50000000000000000000e+03) (502, 1.50000000000000000000e+03) (503, -3.05242299250719497650e+01) (504, 4.49993974953897918567e+02) (505, -1.26579999079704271026e+03) (506, 1.50000000000000000000e+03) (507, 1.50000000000000000000e+03) (508, -1.50000000000000000000e+03) (509, -1.50000000000000000000e+03) (510, -1.50000000000000000000e+03) (511, -1.50000000000000000000e+03) (512, -1.50000000000000000000e+03) (513, -1.50000000000000000000e+03) (514, -1.50000000000000000000e+03) (515, -1.50000000000000000000e+03) (516, 1.50000000000000000000e+03) (517, 1.50000000000000000000e+03) (518, 1.50000000000000000000e+03) (519, 1.50000000000000000000e+03) (520, 1.50000000000000000000e+03) (521, -1.25853487446119697779e+03) (522, -1.50000000000000000000e+03) (523, -1.50000000000000000000e+03) (524, -1.50000000000000000000e+03) (525, -1.50000000000000000000e+03) (526, -1.50000000000000000000e+03) (527, -1.50000000000000000000e+03) (528, -1.50000000000000000000e+03) (529, 1.50000000000000000000e+03) (530, 1.50000000000000000000e+03) (531, 1.50000000000000000000e+03) (532, 1.50000000000000000000e+03) (533, -1.50000000000000000000e+03) (534, 1.50000000000000000000e+03) (535, 1.50000000000000000000e+03) (536, -1.50000000000000000000e+03) (537, -1.50000000000000000000e+03) (538, -1.50000000000000000000e+03) (539, -1.50000000000000000000e+03) (540, -1.50000000000000000000e+03) (541, -1.50000000000000000000e+03) (542, -1.50000000000000000000e+03) (543, -1.50000000000000000000e+03) (544, 7.18171779279232623594e+02) (545, 1.50000000000000000000e+03) (546, 1.50000000000000000000e+03) (547, 1.50000000000000000000e+03) (548, -1.50000000000000000000e+03) (549, -1.50000000000000000000e+03) (550, -1.50000000000000000000e+03) (551, -1.50000000000000000000e+03) (552, -1.50000000000000000000e+03) (553, -1.50000000000000000000e+03) (554, -1.50000000000000000000e+03) (555, -1.18239036470719020144e+03) (556, -2.68956016014262218050e+02) (557, 1.50000000000000000000e+03) (558, 1.50000000000000000000e+03) (559, 1.50000000000000000000e+03) (560, 1.50000000000000000000e+03) (561, -1.50000000000000000000e+03) (562, 1.50000000000000000000e+03) (563, 1.50000000000000000000e+03) (564, -1.50000000000000000000e+03) (565, -1.50000000000000000000e+03) (566, -1.50000000000000000000e+03) (567, -1.50000000000000000000e+03) (568, -1.50000000000000000000e+03) (569, -1.50000000000000000000e+03) (570, -1.50000000000000000000e+03) (571, -1.50000000000000000000e+03) (572, -1.50000000000000000000e+03) (573, 3.56796276176052629125e+02) (574, -5.29635880066830964097e+01) (575, -1.50000000000000000000e+03) (576, -1.50000000000000000000e+03) (577, -1.50000000000000000000e+03) (578, -1.50000000000000000000e+03) (579, -1.50000000000000000000e+03) (580, -1.50000000000000000000e+03) (581, -1.50000000000000000000e+03) (582, -1.42549562107610569228e+02) (583, 6.34428187175272341847e+02) (584, 5.80601052239739942706e+02) (585, 1.50000000000000000000e+03) (586, 1.50000000000000000000e+03) (587, 1.50000000000000000000e+03) (588, 1.50000000000000000000e+03) (589, -8.90061395968967872250e+02) (590, 1.50000000000000000000e+03) (591, 1.50000000000000000000e+03) (592, -1.50000000000000000000e+03) (593, -1.50000000000000000000e+03) (594, -1.50000000000000000000e+03) (595, -1.50000000000000000000e+03) (596, -1.50000000000000000000e+03) (597, -1.50000000000000000000e+03) (598, -1.50000000000000000000e+03) (599, -1.50000000000000000000e+03) (600, -1.50000000000000000000e+03) (601, -1.50000000000000000000e+03) (602, -1.50000000000000000000e+03) (603, -1.50000000000000000000e+03) (604, -1.50000000000000000000e+03) (605, -1.50000000000000000000e+03) (606, -1.50000000000000000000e+03) (607, -1.50000000000000000000e+03) (608, -1.50000000000000000000e+03) (609, -6.89745983171806869905e+02) (610, 9.41979635451836657012e+02) (611, 6.99221705113285565858e+02) (612, 9.75891034319867685554e+02) (613, 1.50000000000000000000e+03) (614, -6.59469083590479726809e+02) (615, -1.50000000000000000000e+03) (616, 1.50000000000000000000e+03) (617, -1.50000000000000000000e+03) (618, 5.90799990797042710255e+02) (619, 1.50000000000000000000e+03) (620, -8.63482604781266900318e+02) (621, -1.50000000000000000000e+03) (622, -1.50000000000000000000e+03) (623, -1.50000000000000000000e+03) (624, -1.50000000000000000000e+03) (625, -1.50000000000000000000e+03) (626, -1.50000000000000000000e+03) (627, -1.50000000000000000000e+03) (628, -1.50000000000000000000e+03) (629, -1.50000000000000000000e+03) (630, -1.50000000000000000000e+03) (631, -1.50000000000000000000e+03) (632, -1.50000000000000000000e+03) (633, -1.50000000000000000000e+03) (634, -1.50000000000000000000e+03) (635, -1.50000000000000000000e+03) (636, -1.50000000000000000000e+03) (637, 6.18171779279232509907e+02) (638, 7.18171779279232623594e+02) (639, 1.16468379456186426069e+03) (640, 1.29079999079704271026e+03) (641, 1.50000000000000000000e+03) (642, 1.50000000000000000000e+03) (643, -1.50000000000000000000e+03) (644, 1.50000000000000000000e+03) (645, 1.50000000000000000000e+03) (646, -1.50000000000000000000e+03) (647, 1.50000000000000000000e+03) (648, 1.50000000000000000000e+03) (649, -1.50000000000000000000e+03) (650, -1.50000000000000000000e+03) (651, -1.50000000000000000000e+03) (652, -1.50000000000000000000e+03) (653, -1.50000000000000000000e+03) (654, -1.50000000000000000000e+03) (655, -1.50000000000000000000e+03) (656, -1.50000000000000000000e+03) (657, -1.50000000000000000000e+03) (658, -1.50000000000000000000e+03) (659, -1.50000000000000000000e+03) (660, -1.50000000000000000000e+03) (661, -1.50000000000000000000e+03) (662, -1.50000000000000000000e+03) (663, -6.65799990797042596569e+02) (664, 1.50000000000000000000e+03) (665, 1.50000000000000000000e+03) (666, 1.50000000000000000000e+03) (667, 1.50000000000000000000e+03) (668, 1.50000000000000000000e+03) (669, 1.03716275976535348491e+03) (670, 1.50000000000000000000e+03) (671, 1.50000000000000000000e+03) (672, 1.50000000000000000000e+03) (673, 1.50000000000000000000e+03) (674, -7.85774014244542399865e+02) (675, 1.75461412348324643062e+02) (676, 1.50000000000000000000e+03) (677, 1.50000000000000000000e+03) (678, 9.55560193831606170534e+02) (679, 4.47635656319586075824e+02) (680, -1.50000000000000000000e+03) (681, -1.50000000000000000000e+03) (682, -1.50000000000000000000e+03) (683, -1.50000000000000000000e+03) (684, -1.50000000000000000000e+03) (685, -1.50000000000000000000e+03) (686, -1.50000000000000000000e+03) (687, -1.50000000000000000000e+03) (688, -1.50000000000000000000e+03) (689, -1.44539999539852124144e+03) (690, 1.50000000000000000000e+03) (691, 1.50000000000000000000e+03) (692, 1.50000000000000000000e+03) (693, 1.50000000000000000000e+03) (694, 1.43690778045066235791e+03) (695, 1.50000000000000000000e+03) (696, 1.50000000000000000000e+03) (697, 1.39079999079704271026e+03) (698, 1.50000000000000000000e+03) (699, 1.50000000000000000000e+03) (700, 1.50000000000000000000e+03) (701, 1.50000000000000000000e+03) (702, -1.50000000000000000000e+03) (703, 1.50000000000000000000e+03) (704, 1.50000000000000000000e+03) (705, 1.50000000000000000000e+03) (706, 1.50000000000000000000e+03) (707, 1.50000000000000000000e+03) (708, 1.50000000000000000000e+03) (709, 1.50000000000000000000e+03) (710, 1.50000000000000000000e+03) (711, 1.50000000000000000000e+03) (712, 1.50000000000000000000e+03) (713, 1.50000000000000000000e+03) (714, 1.50000000000000000000e+03) (715, 1.50000000000000000000e+03) (716, 1.50000000000000000000e+03) (717, 1.50000000000000000000e+03) (718, 1.50000000000000000000e+03) (719, 1.50000000000000000000e+03) (720, 1.50000000000000000000e+03) (721, 1.50000000000000000000e+03) (722, 1.50000000000000000000e+03) (723, 1.50000000000000000000e+03) (724, 1.50000000000000000000e+03) (725, 1.50000000000000000000e+03) (726, 1.50000000000000000000e+03) (727, 1.50000000000000000000e+03) (728, 1.50000000000000000000e+03) (729, 1.50000000000000000000e+03) (730, 1.50000000000000000000e+03) (731, -1.50000000000000000000e+03) (732, 1.50000000000000000000e+03) (733, 1.50000000000000000000e+03) (734, 1.50000000000000000000e+03) (735, 1.50000000000000000000e+03) (736, 1.50000000000000000000e+03) (737, 1.50000000000000000000e+03) (738, 1.50000000000000000000e+03) (739, 1.50000000000000000000e+03) (740, 1.50000000000000000000e+03) (741, 1.50000000000000000000e+03) (742, 1.50000000000000000000e+03) (743, 1.50000000000000000000e+03) (744, 1.50000000000000000000e+03) (745, 1.50000000000000000000e+03) (746, 1.50000000000000000000e+03) (747, 1.50000000000000000000e+03) (748, 1.50000000000000000000e+03) (749, 1.50000000000000000000e+03) (750, 1.50000000000000000000e+03) (751, 1.50000000000000000000e+03) (752, -1.50000000000000000000e+03) (753, 1.50000000000000000000e+03) (754, 1.50000000000000000000e+03) (755, 1.50000000000000000000e+03) (756, 1.50000000000000000000e+03) (757, 1.50000000000000000000e+03) (758, 1.50000000000000000000e+03) (759, 1.50000000000000000000e+03) (760, 1.50000000000000000000e+03) (761, 1.50000000000000000000e+03) (762, 1.50000000000000000000e+03) (763, 1.50000000000000000000e+03) (764, 1.50000000000000000000e+03) (765, 1.50000000000000000000e+03) (766, 1.50000000000000000000e+03) (767, 1.50000000000000000000e+03) (768, 1.50000000000000000000e+03) (769, 1.50000000000000000000e+03) (770, 1.50000000000000000000e+03) (771, 1.50000000000000000000e+03) (772, 1.50000000000000000000e+03) (773, 1.50000000000000000000e+03) (774, 1.50000000000000000000e+03) (775, 1.50000000000000000000e+03) (776, 1.50000000000000000000e+03) (777, 1.50000000000000000000e+03) (778, 1.50000000000000000000e+03) (779, 1.50000000000000000000e+03) (780, 1.50000000000000000000e+03) (781, 1.50000000000000000000e+03) (782, 1.50000000000000000000e+03) (783, 1.50000000000000000000e+03) (784, 1.21840947617052625801e-02) (0, 1.50000000000000000000e+03) (1, 1.50000000000000000000e+03) (2, 1.50000000000000000000e+03) (3, 1.50000000000000000000e+03) (4, 1.50000000000000000000e+03) (5, 1.50000000000000000000e+03) (6, 1.50000000000000000000e+03) (7, 1.50000000000000000000e+03) (8, 1.50000000000000000000e+03) (9, 1.50000000000000000000e+03) (10, 1.50000000000000000000e+03) (11, 1.50000000000000000000e+03) (12, 1.50000000000000000000e+03) (13, 1.50000000000000000000e+03) (14, 1.50000000000000000000e+03) (15, 1.50000000000000000000e+03) (16, 1.50000000000000000000e+03) (17, 1.50000000000000000000e+03) (18, 1.50000000000000000000e+03) (19, 1.50000000000000000000e+03) (20, 1.50000000000000000000e+03) (21, 1.50000000000000000000e+03) (22, 1.50000000000000000000e+03) (23, 1.50000000000000000000e+03) (24, 1.50000000000000000000e+03) (25, 1.50000000000000000000e+03) (26, 1.50000000000000000000e+03) (27, 1.50000000000000000000e+03) (28, 1.50000000000000000000e+03) (29, 1.50000000000000000000e+03) (30, 1.50000000000000000000e+03) (31, 1.50000000000000000000e+03) (32, -1.50000000000000000000e+03) (33, -1.50000000000000000000e+03) (34, 1.22480459181833884941e+03) (35, 1.50000000000000000000e+03) (36, 1.50000000000000000000e+03) (37, 1.50000000000000000000e+03) (38, 1.50000000000000000000e+03) (39, 1.50000000000000000000e+03) (40, 1.50000000000000000000e+03) (41, 1.50000000000000000000e+03) (42, 1.50000000000000000000e+03) (43, -5.31599981594085420511e+02) (44, -1.50000000000000000000e+03) (45, -1.50000000000000000000e+03) (46, 1.50000000000000000000e+03) (47, 1.50000000000000000000e+03) (48, 1.50000000000000000000e+03) (49, 1.50000000000000000000e+03) (50, 4.15467665815575514898e+02) (51, -3.18140933606478483853e+02) (52, 1.50000000000000000000e+03) (53, 1.50000000000000000000e+03) (54, 1.50000000000000000000e+03) (55, 1.50000000000000000000e+03) (56, 1.50000000000000000000e+03) (57, 1.50000000000000000000e+03) (58, -1.50000000000000000000e+03) (59, 1.50000000000000000000e+03) (60, 1.50000000000000000000e+03) (61, 1.50000000000000000000e+03) (62, 1.50000000000000000000e+03) (63, 1.50000000000000000000e+03) (64, 1.50000000000000000000e+03) (65, -1.06093859795135836066e+03) (66, -1.50000000000000000000e+03) (67, -7.76738598285144348665e+02) (68, -1.03747718953694038646e+03) (69, -8.75172979045878491888e+02) (70, 1.19079999079704271026e+03) (71, 1.19079999079704271026e+03) (72, 7.57461410917813168453e+02) (73, 3.56599981594085306824e+02) (74, 1.50000000000000000000e+03) (75, 1.50000000000000000000e+03) (76, 1.50000000000000000000e+03) (77, 1.50000000000000000000e+03) (78, 1.31679999425411210723e+03) (79, -1.50000000000000000000e+03) (80, -1.50000000000000000000e+03) (81, -1.50000000000000000000e+03) (82, 1.50000000000000000000e+03) (83, 1.50000000000000000000e+03) (84, 1.50000000000000000000e+03) (85, 1.50000000000000000000e+03) (86, -1.08229311951345880516e+03) (87, -6.78322798279870085025e+02) (88, 1.50000000000000000000e+03) (89, 1.50000000000000000000e+03) (90, 1.50000000000000000000e+03) (91, 1.50000000000000000000e+03) (92, 1.50000000000000000000e+03) (93, 1.50000000000000000000e+03) (94, 1.50000000000000000000e+03) (95, 1.50000000000000000000e+03) (96, 1.20574108524057646719e+03) (97, 1.19079999079704271026e+03) (98, 1.43668799225139582632e+03) (99, 1.44297598970031663157e+03) (100, 1.19079999079704271026e+03) (101, 1.50000000000000000000e+03) (102, 1.50000000000000000000e+03) (103, 1.50000000000000000000e+03) (104, 1.50000000000000000000e+03) (105, 1.50000000000000000000e+03) (106, 1.32968336564475953310e+03) (107, -5.59200009202957289745e+02) (108, -1.50340198676583895576e+02) (109, 1.37627374770872120280e+03) (110, 1.50000000000000000000e+03) (111, 1.50000000000000000000e+03) (112, 1.50000000000000000000e+03) (113, -1.50000000000000000000e+03) (114, -5.61261404933506810266e+02) (115, -1.24103167280987690901e+03) (116, -1.50000000000000000000e+03) (117, -1.50000000000000000000e+03) (118, 1.13334619901132759878e+03) (119, 1.50000000000000000000e+03) (120, 1.50000000000000000000e+03) (121, 1.50000000000000000000e+03) (122, -6.06266053517189334343e+02) (123, -7.44302354028216086590e+02) (124, -4.46655527944604443746e+02) (125, 6.04968126330134850832e+02) (126, 1.38216173899138152592e+03) (127, 1.50000000000000000000e+03) (128, 7.63913961263943406266e+02) (129, 3.49903142800532691581e+02) (130, 7.49680517287215820943e+02) (131, 1.50000000000000000000e+03) (132, 1.50000000000000000000e+03) (133, 1.50000000000000000000e+03) (134, 1.50000000000000000000e+03) (135, 1.50000000000000000000e+03) (136, 1.50000000000000000000e+03) (137, 1.50000000000000000000e+03) (138, 1.50000000000000000000e+03) (139, 1.50000000000000000000e+03) (140, 1.50000000000000000000e+03) (141, 1.50000000000000000000e+03) (142, -1.50000000000000000000e+03) (143, -1.50000000000000000000e+03) (144, -1.50000000000000000000e+03) (145, -1.50000000000000000000e+03) (146, -8.05112227132488555981e+02) (147, 7.65331480400686245957e+02) (148, 7.87021810779073803133e+02) (149, -4.09174253114133250619e+02) (150, -1.50000000000000000000e+03) (151, -1.50000000000000000000e+03) (152, -4.51262549169353178513e+02) (153, 4.02532132288820037047e+02) (154, -6.38887719863717165936e+02) (155, 4.98825431174453058247e+02) (156, 6.17602853721983819923e+02) (157, 1.50000000000000000000e+03) (158, 1.50000000000000000000e+03) (159, 1.50000000000000000000e+03) (160, 1.50000000000000000000e+03) (161, 1.50000000000000000000e+03) (162, 1.50000000000000000000e+03) (163, 1.50000000000000000000e+03) (164, 1.50000000000000000000e+03) (165, 1.50000000000000000000e+03) (166, 1.50000000000000000000e+03) (167, 1.50000000000000000000e+03) (168, 1.50000000000000000000e+03) (169, 1.98361529952986415992e+02) (170, -1.24960115977250723063e+02) (171, -1.50000000000000000000e+03) (172, -1.50000000000000000000e+03) (173, -1.50000000000000000000e+03) (174, -6.59030780963568986408e+02) (175, 9.07657054344532411960e+02) (176, 1.15246380442389295240e+03) (177, 4.20293893499194609831e+02) (178, -1.13309539221342291171e+02) (179, -8.19180266864540726601e+02) (180, 7.76521449785558615986e+02) (181, 1.21337270782412383596e+03) (182, 9.98849693259632658737e+02) (183, 3.82909192121774282214e+01) (184, 5.47034709327898553965e+01) (185, 1.50000000000000000000e+03) (186, 1.50000000000000000000e+03) (187, 1.50000000000000000000e+03) (188, 1.50000000000000000000e+03) (189, 1.50000000000000000000e+03) (190, 1.50000000000000000000e+03) (191, 1.50000000000000000000e+03) (192, 1.50000000000000000000e+03) (193, 4.34993617871210403791e+02) (194, 1.50000000000000000000e+03) (195, 1.50000000000000000000e+03) (196, 1.50000000000000000000e+03) (197, 1.50000000000000000000e+03) (198, 1.96652011449587234893e+02) (199, 5.79598900724526515660e+02) (200, -1.50000000000000000000e+03) (201, -1.50000000000000000000e+03) (202, 1.48902618605720681444e+03) (203, 1.50000000000000000000e+03) (204, 1.50000000000000000000e+03) (205, 1.50000000000000000000e+03) (206, 1.50000000000000000000e+03) (207, 1.50000000000000000000e+03) (208, 1.50000000000000000000e+03) (209, 1.50000000000000000000e+03) (210, 1.50000000000000000000e+03) (211, 1.50000000000000000000e+03) (212, 1.50000000000000000000e+03) (213, 1.50000000000000000000e+03) (214, 1.50000000000000000000e+03) (215, 1.50000000000000000000e+03) (216, 1.50000000000000000000e+03) (217, 1.50000000000000000000e+03) (218, 1.50000000000000000000e+03) (219, 1.50000000000000000000e+03) (220, 1.50000000000000000000e+03) (221, 1.50000000000000000000e+03) (222, 1.50000000000000000000e+03) (223, 1.50000000000000000000e+03) (224, 1.50000000000000000000e+03) (225, 1.50000000000000000000e+03) (226, 1.50000000000000000000e+03) (227, 1.50000000000000000000e+03) (228, -1.50000000000000000000e+03) (229, 1.50000000000000000000e+03) (230, 1.50000000000000000000e+03) (231, 1.50000000000000000000e+03) (232, 1.50000000000000000000e+03) (233, 1.50000000000000000000e+03) (234, 1.50000000000000000000e+03) (235, 1.50000000000000000000e+03) (236, 1.50000000000000000000e+03) (237, 1.50000000000000000000e+03) (238, 1.50000000000000000000e+03) (239, 1.50000000000000000000e+03) (240, 1.50000000000000000000e+03) (241, 1.50000000000000000000e+03) (242, 1.50000000000000000000e+03) (243, 1.50000000000000000000e+03) (244, 1.50000000000000000000e+03) (245, 1.50000000000000000000e+03) (246, 1.50000000000000000000e+03) (247, 1.50000000000000000000e+03) (248, 1.50000000000000000000e+03) (249, 1.50000000000000000000e+03) (250, 1.50000000000000000000e+03) (251, 1.50000000000000000000e+03) (252, 1.48133759555053666190e+03) (253, 1.50000000000000000000e+03) (254, 1.50000000000000000000e+03) (255, 1.50000000000000000000e+03) (256, 1.50000000000000000000e+03) (257, 1.50000000000000000000e+03) (258, 1.50000000000000000000e+03) (259, 1.50000000000000000000e+03) (260, 1.50000000000000000000e+03) (261, 1.50000000000000000000e+03) (262, 1.50000000000000000000e+03) (263, 1.50000000000000000000e+03) (264, 1.50000000000000000000e+03) (265, 1.50000000000000000000e+03) (266, 1.50000000000000000000e+03) (267, 1.50000000000000000000e+03) (268, 1.50000000000000000000e+03) (269, 1.50000000000000000000e+03) (270, 1.50000000000000000000e+03) (271, 1.50000000000000000000e+03) (272, 1.50000000000000000000e+03) (273, 1.50000000000000000000e+03) (274, 1.50000000000000000000e+03) (275, 1.50000000000000000000e+03) (276, 1.50000000000000000000e+03) (277, 1.50000000000000000000e+03) (278, 1.50000000000000000000e+03) (279, 1.50000000000000000000e+03) (280, 1.48133759555053666190e+03) (281, 1.50000000000000000000e+03) (282, 1.50000000000000000000e+03) (283, 1.50000000000000000000e+03) (284, 1.50000000000000000000e+03) (285, 1.50000000000000000000e+03) (286, 1.50000000000000000000e+03) (287, 1.50000000000000000000e+03) (288, 1.50000000000000000000e+03) (289, 1.50000000000000000000e+03) (290, 1.50000000000000000000e+03) (291, 1.50000000000000000000e+03) (292, 1.50000000000000000000e+03) (293, 1.50000000000000000000e+03) (294, 1.50000000000000000000e+03) (295, 1.50000000000000000000e+03) (296, 1.89070052192487736420e+01) (297, 2.36421795132701495490e+00) (298, 6.35498880222685702535e+00) (299, 1.50000000000000000000e+03) (300, 1.50000000000000000000e+03) (301, 1.50000000000000000000e+03) (302, 1.50000000000000000000e+03) (303, 1.50000000000000000000e+03) (304, 1.50000000000000000000e+03) (305, 1.50000000000000000000e+03) (306, 1.50000000000000000000e+03) (307, 5.90799990797042710255e+02) (308, 1.48065081599132668089e+03) (309, 1.50000000000000000000e+03) (310, 1.50000000000000000000e+03) (311, 1.50000000000000000000e+03) (312, 1.50000000000000000000e+03) (313, 1.50000000000000000000e+03) (314, 1.50000000000000000000e+03) (315, 1.50000000000000000000e+03) (316, 1.50000000000000000000e+03) (317, 1.50000000000000000000e+03) (318, 1.41718979140519945759e+03) (319, 1.45892043478333471285e+03) (320, 1.98736035603194409305e+02) (321, 1.02930504870352379498e+01) (322, 6.84279081291450438584e+02) (323, -1.34470699093860639550e+03) (324, -1.42412266432927117421e+03) (325, -1.50000000000000000000e+03) (326, 1.43421033410452924972e-01) (327, 1.50000000000000000000e+03) (328, 1.50000000000000000000e+03) (329, 1.50000000000000000000e+03) (330, 1.50000000000000000000e+03) (331, 1.50000000000000000000e+03) (332, 1.50000000000000000000e+03) (333, 1.50000000000000000000e+03) (334, -1.50000000000000000000e+03) (335, -1.50000000000000000000e+03) (336, 1.50000000000000000000e+03) (337, 1.50000000000000000000e+03) (338, 1.50000000000000000000e+03) (339, 1.50000000000000000000e+03) (340, 1.50000000000000000000e+03) (341, 1.50000000000000000000e+03) (342, 1.50000000000000000000e+03) (343, 1.50000000000000000000e+03) (344, 1.50000000000000000000e+03) (345, 1.50000000000000000000e+03) (346, 1.17263149690037653272e+03) (347, -9.81876127823199340128e+02) (348, -1.50000000000000000000e+03) (349, -1.50000000000000000000e+03) (350, -1.49781381040916903657e+03) (351, -1.50000000000000000000e+03) (352, -1.50000000000000000000e+03) (353, -1.50000000000000000000e+03) (354, -1.67596453859141547582e+01) (355, 1.27500000000000022737e+03) (356, 1.50000000000000000000e+03) (357, 1.50000000000000000000e+03) (358, 1.50000000000000000000e+03) (359, 1.50000000000000000000e+03) (360, 1.50000000000000000000e+03) (361, 1.50000000000000000000e+03) (362, 1.50000000000000000000e+03) (363, -1.50000000000000000000e+03) (364, 1.50000000000000000000e+03) (365, 1.50000000000000000000e+03) (366, 1.50000000000000000000e+03) (367, 1.50000000000000000000e+03) (368, 1.50000000000000000000e+03) (369, 1.50000000000000000000e+03) (370, 1.50000000000000000000e+03) (371, 1.50000000000000000000e+03) (372, 1.50000000000000000000e+03) (373, 1.35690394248980646807e+03) (374, 9.93420133623041238025e+02) (375, 7.19374066310047410866e-01) (376, -1.32641661638138566559e+03) (377, -1.43906937808041175231e+03) (378, -1.50000000000000000000e+03) (379, -1.50000000000000000000e+03) (380, -1.50000000000000000000e+03) (381, -2.38528722244073740910e+01) (382, 1.03950529998843421708e+03) (383, 1.50000000000000000000e+03) (384, 1.50000000000000000000e+03) (385, 1.50000000000000000000e+03) (386, 1.50000000000000000000e+03) (387, 1.50000000000000000000e+03) (388, 1.50000000000000000000e+03) (389, 1.50000000000000000000e+03) (390, 1.50000000000000000000e+03) (391, -5.49385824541501506246e+01) (392, 1.50000000000000000000e+03) (393, 1.50000000000000000000e+03) (394, 1.50000000000000000000e+03) (395, 1.50000000000000000000e+03) (396, 1.50000000000000000000e+03) (397, 1.50000000000000000000e+03) (398, 1.50000000000000000000e+03) (399, 1.50000000000000000000e+03) (400, 1.50000000000000000000e+03) (401, 1.50000000000000000000e+03) (402, 1.49868000164985687661e+03) (403, -4.28843623958563739507e+02) (404, -1.22976550958525763235e+03) (405, -1.48356284877492225860e+03) (406, -1.50000000000000000000e+03) (407, -1.50000000000000000000e+03) (408, -1.50000000000000000000e+03) (409, 3.29865070926764587966e+02) (410, 1.50000000000000000000e+03) (411, 1.50000000000000000000e+03) (412, 1.50000000000000000000e+03) (413, 1.50000000000000000000e+03) (414, 1.50000000000000000000e+03) (415, 1.50000000000000000000e+03) (416, 1.50000000000000000000e+03) (417, 1.50000000000000000000e+03) (418, 1.50000000000000000000e+03) (419, 1.50000000000000000000e+03) (420, 1.50000000000000000000e+03) (421, -9.30956680237059913452e+02) (422, 1.50000000000000000000e+03) (423, 1.50000000000000000000e+03) (424, 1.50000000000000000000e+03) (425, 1.50000000000000000000e+03) (426, 1.50000000000000000000e+03) (427, 1.50000000000000000000e+03) (428, 1.50000000000000000000e+03) (429, 1.50000000000000000000e+03) (430, 1.50000000000000000000e+03) (431, 1.50000000000000000000e+03) (432, -1.44675469211422591798e+03) (433, -1.50000000000000000000e+03) (434, -1.50000000000000000000e+03) (435, -1.50000000000000000000e+03) (436, -1.50000000000000000000e+03) (437, 9.01192420137924614210e+02) (438, 1.50000000000000000000e+03) (439, 1.50000000000000000000e+03) (440, 1.50000000000000000000e+03) (441, 1.50000000000000000000e+03) (442, 1.50000000000000000000e+03) (443, 1.50000000000000000000e+03) (444, 1.50000000000000000000e+03) (445, 1.50000000000000000000e+03) (446, 1.50000000000000000000e+03) (447, 1.34426156799756631699e+03) (448, 1.50000000000000000000e+03) (449, -1.50000000000000000000e+03) (450, 1.15090827900029512421e+03) (451, 1.50000000000000000000e+03) (452, 1.50000000000000000000e+03) (453, 1.50000000000000000000e+03) (454, 1.50000000000000000000e+03) (455, 1.50000000000000000000e+03) (456, 1.50000000000000000000e+03) (457, 1.50000000000000000000e+03) (458, -4.76368804703959824565e+02) (459, -1.50000000000000000000e+03) (460, -1.50000000000000000000e+03) (461, -1.50000000000000000000e+03) (462, -1.50000000000000000000e+03) (463, -1.50000000000000000000e+03) (464, -1.50000000000000000000e+03) (465, 1.42900426499782088285e+03) (466, 1.50000000000000000000e+03) (467, 1.50000000000000000000e+03) (468, 1.50000000000000000000e+03) (469, 1.50000000000000000000e+03) (470, 1.50000000000000000000e+03) (471, 1.50000000000000000000e+03) (472, 1.50000000000000000000e+03) (473, 1.50000000000000000000e+03) (474, 1.50000000000000000000e+03) (475, 1.50000000000000000000e+03) (476, 1.50000000000000000000e+03) (477, -1.47500000000000000000e+03) (478, 1.50000000000000000000e+03) (479, 1.50000000000000000000e+03) (480, 1.50000000000000000000e+03) (481, 1.50000000000000000000e+03) (482, 