FANN_FLO_2.1
num_layers=3
learning_rate=0.700000
connection_rate=1.000000
network_type=0
learning_momentum=0.000000
training_algorithm=2
train_error_function=1
train_stop_function=0
cascade_output_change_fraction=0.010000
quickprop_decay=-0.000100
quickprop_mu=1.750000
rprop_increase_factor=1.200000
rprop_decrease_factor=0.500000
rprop_delta_min=0.000000
rprop_delta_max=50.000000
rprop_delta_zero=0.100000
cascade_output_stagnation_epochs=12
cascade_candidate_change_fraction=0.010000
cascade_candidate_stagnation_epochs=12
cascade_max_out_epochs=150
cascade_min_out_epochs=50
cascade_max_cand_epochs=150
cascade_min_cand_epochs=50
cascade_num_candidate_groups=2
bit_fail_limit=3.49999999999999977796e-01
cascade_candidate_limit=1.00000000000000000000e+03
cascade_weight_multiplier=4.00000000000000022204e-01
cascade_activation_functions_count=10
cascade_activation_functions=3 5 7 8 10 11 14 15 16 17 
cascade_activation_steepnesses_count=4
cascade_activation_steepnesses=2.50000000000000000000e-01 5.00000000000000000000e-01 7.50000000000000000000e-01 1.00000000000000000000e+00 
layer_sizes=785 16 11 
scale_included=0
neurons (num_inputs, activation_function, activation_steepness)=(0, 0, 0.00000000000000000000e+00) (0, 0, 0.00000000000000000000e+00) (0, 0, 0.00000000000000000000e+00) (0, 0, 0.00000000000000000000e+00) (0, 0, 0.00000000000000000000e+00) (0, 0, 0.00000000000000000000e+00) (0, 0, 0.00000000000000000000e+00) (0, 0, 0.00000000000000000000e+00) (0, 0, 0.00000000000000000000e+00) (0, 0, 0.00000000000000000000e+00) (0, 0, 0.00000000000000000000e+00) (0, 0, 0.00000000000000000000e+00) (0, 0, 0.00000000000000000000e+00) (0, 0, 0.00000000000000000000e+00) (0, 0, 0.00000000000000000000e+00) (0, 0, 0.00000000000000000000e+00) (0, 0, 0.00000000000000000000e+00) (0, 0, 0.00000000000000000000e+00) (0, 0, 0.00000000000000000000e+00) (0, 0, 0.00000000000000000000e+00) (0, 0, 0.00000000000000000000e+00) (0, 0, 0.00000000000000000000e+00) (0, 0, 0.00000000000000000000e+00) (0, 0, 0.00000000000000000000e+00) (0, 0, 0.00000000000000000000e+00) (0, 0, 0.00000000000000000000e+00) (0, 0, 0.00000000000000000000e+00) (0, 0, 0.00000000000000000000e+00) (0, 0, 0.00000000000000000000e+00) (0, 0, 0.00000000000000000000e+00) (0, 0, 0.00000000000000000000e+00) (0, 0, 0.00000000000000000000e+00) (0, 0, 0.00000000000000000000e+00) (0, 0, 0.00000000000000000000e+00) (0, 0, 0.00000000000000000000e+00) (0, 0, 0.00000000000000000000e+00) (0, 0, 0.00000000000000000000e+00) (0, 0, 0.00000000000000000000e+00) (0, 0, 0.00000000000000000000e+00) (0, 0, 0.00000000000000000000e+00) (0, 0, 0.00000000000000000000e+00) (0, 0, 0.00000000000000000000e+00) (0, 0, 0.00000000000000000000e+00) (0, 0, 0.00000000000000000000e+00) (0, 0, 0.00000000000000000000e+00) (0, 0, 0.00000000000000000000e+00) (0, 0, 0.00000000000000000000e+00) (0, 0, 0.00000000000000000000e+00) (0, 0, 0.00000000000000000000e+00) (0, 0, 0.00000000000000000000e+00) (0, 0, 0.00000000000000000000e+00) (0, 0, 0.00000000000000000000e+00) (0, 0, 0.00000000000000000000e+00) (0, 0, 0.00000000000000000000e+00) (0, 0, 0.00000000000000000000e+00) (0, 0, 0.00000000000000000000e+00) (0, 0, 0.00000000000000000000e+00) (0, 0, 0.00000000000000000000e+00) (0, 0, 0.00000000000000000000e+00) (0, 0, 0.00000000000000000000e+00) (0, 0, 0.00000000000000000000e+00) (0, 0, 0.00000000000000000000e+00) (0, 0, 0.00000000000000000000e+00) (0, 0, 0.00000000000000000000e+00) (0, 0, 0.00000000000000000000e+00) (0, 0, 0.00000000000000000000e+00) (0, 0, 0.00000000000000000000e+00) (0, 0, 0.00000000000000000000e+00) (0, 0, 0.00000000000000000000e+00) (0, 0, 0.00000000000000000000e+00) (0, 0, 0.00000000000000000000e+00) (0, 0, 0.00000000000000000000e+00) (0, 0, 0.00000000000000000000e+00) (0, 0, 0.00000000000000000000e+00) (0, 0, 0.00000000000000000000e+00) (0, 0, 0.00000000000000000000e+00) (0, 0, 0.00000000000000000000e+00) (0, 0, 0.00000000000000000000e+00) (0, 0, 0.00000000000000000000e+00) (0, 0, 0.00000000000000000000e+00) (0, 0, 0.00000000000000000000e+00) (0, 0, 0.00000000000000000000e+00) (0, 0, 0.00000000000000000000e+00) (0, 0, 0.00000000000000000000e+00) (0, 0, 0.00000000000000000000e+00) (0, 0, 0.00000000000000000000e+00) (0, 0, 0.00000000000000000000e+00) (0, 0, 0.00000000000000000000e+00) (0, 0, 0.00000000000000000000e+00) (0, 0, 0.00000000000000000000e+00) (0, 0, 0.00000000000000000000e+00) (0, 0, 0.00000000000000000000e+00) (0, 0, 0.00000000000000000000e+00) (0, 0, 0.00000000000000000000e+00) (0, 0, 0.00000000000000000000e+00) (0, 0, 0.00000000000000000000e+00) (0, 0, 0.00000000000000000000e+00) (0, 0, 0.00000000000000000000e+00) (0, 0, 0.00000000000000000000e+00) (0, 0, 0.00000000000000000000e+00) (0, 0, 0.00000000000000000000e+00) (0, 0, 0.00000000000000000000e+00) (0, 0, 0.00000000000000000000e+00) (0, 0, 0.00000000000000000000e+00) (0, 0, 0.00000000000000000000e+00) (0, 0, 0.00000000000000000000e+00) (0, 0, 0.00000000000000000000e+00) (0, 0, 0.00000000000000000000e+00) (0, 0, 0.00000000000000000000e+00) (0, 0, 0.00000000000000000000e+00) (0, 0, 0.00000000000000000000e+00) (0, 0, 0.00000000000000000000e+00) (0, 0, 0.00000000000000000000e+00) (0, 0, 0.00000000000000000000e+00) (0, 0, 0.00000000000000000000e+00) (0, 0, 0.00000000000000000000e+00) (0, 0, 0.00000000000000000000e+00) (0, 0, 0.00000000000000000000e+00) (0, 0, 0.00000000000000000000e+00) (0, 0, 0.00000000000000000000e+00) (0, 0, 0.00000000000000000000e+00) (0, 0, 0.00000000000000000000e+00) (0, 0, 0.00000000000000000000e+00) (0, 0, 0.00000000000000000000e+00) (0, 0, 0.00000000000000000000e+00) (0, 0, 0.00000000000000000000e+00) (0, 0, 0.00000000000000000000e+00) (0, 0, 0.00000000000000000000e+00) (0, 0, 0.00000000000000000000e+00) (0, 0, 0.00000000000000000000e+00) (0, 0, 0.00000000000000000000e+00) (0, 0, 0.00000000000000000000e+00) (0, 0, 0.00000000000000000000e+00) (0, 0, 0.00000000000000000000e+00) (0, 0, 0.00000000000000000000e+00) (0, 0, 0.00000000000000000000e+00) (0, 0, 0.00000000000000000000e+00) (0, 0, 0.00000000000000000000e+00) (0, 0, 0.00000000000000000000e+00) (0, 0, 0.00000000000000000000e+00) (0, 0, 0.00000000000000000000e+00) (0, 0, 0.00000000000000000000e+00) (0, 0, 0.00000000000000000000e+00) (0, 0, 0.00000000000000000000e+00) (0, 0, 0.00000000000000000000e+00) (0, 0, 0.00000000000000000000e+00) (0, 0, 0.00000000000000000000e+00) (0, 0, 0.00000000000000000000e+00) (0, 0, 0.00000000000000000000e+00) (0, 0, 0.00000000000000000000e+00) (0, 0, 0.00000000000000000000e+00) (0, 0, 0.00000000000000000000e+00) (0, 0, 0.00000000000000000000e+00) (0, 0, 0.00000000000000000000e+00) (0, 0, 0.00000000000000000000e+00) (0, 0, 0.00000000000000000000e+00) (0, 0, 0.00000000000000000000e+00) (0, 0, 0.00000000000000000000e+00) (0, 0, 0.00000000000000000000e+00) (0, 0, 0.00000000000000000000e+00) (0, 0, 0.00000000000000000000e+00) (0, 0, 0.00000000000000000000e+00) (0, 0, 0.00000000000000000000e+00) (0, 0, 0.00000000000000000000e+00) (0, 0, 0.00000000000000000000e+00) (0, 0, 0.00000000000000000000e+00) (0, 0, 0.00000000000000000000e+00) (0, 0, 0.00000000000000000000e+00) (0, 0, 0.00000000000000000000e+00) (0, 0, 0.00000000000000000000e+00) (0, 0, 0.00000000000000000000e+00) (0, 0, 0.00000000000000000000e+00) (0, 0, 0.00000000000000000000e+00) (0, 0, 0.00000000000000000000e+00) (0, 0, 0.00000000000000000000e+00) (0, 0, 0.00000000000000000000e+00) (0, 0, 0.00000000000000000000e+00) (0, 0, 0.00000000000000000000e+00) (0, 0, 0.00000000000000000000e+00) (0, 0, 0.00000000000000000000e+00) (0, 0, 0.00000000000000000000e+00) (0, 0, 0.00000000000000000000e+00) (0, 0, 0.00000000000000000000e+00) (0, 0, 0.00000000000000000000e+00) (0, 0, 0.00000000000000000000e+00) (0, 0, 0.00000000000000000000e+00) (0, 0, 0.00000000000000000000e+00) (0, 0, 0.00000000000000000000e+00) (0, 0, 0.00000000000000000000e+00) (0, 0, 0.00000000000000000000e+00) (0, 0, 0.00000000000000000000e+00) (0, 0, 0.00000000000000000000e+00) (0, 0, 0.00000000000000000000e+00) (0, 0, 0.00000000000000000000e+00) (0, 0, 0.00000000000000000000e+00) (0, 0, 0.00000000000000000000e+00) (0, 0, 0.00000000000000000000e+00) (0, 0, 0.00000000000000000000e+00) (0, 0, 0.00000000000000000000e+00) (0, 0, 0.00000000000000000000e+00) (0, 0, 0.00000000000000000000e+00) (0, 0, 0.00000000000000000000e+00) (0, 0, 0.00000000000000000000e+00) (0, 0, 0.00000000000000000000e+00) (0, 0, 0.00000000000000000000e+00) (0, 0, 0.00000000000000000000e+00) (0, 0, 0.00000000000000000000e+00) (0, 0, 0.00000000000000000000e+00) (0, 0, 0.00000000000000000000e+00) (0, 0, 0.00000000000000000000e+00) (0, 0, 0.00000000000000000000e+00) (0, 0, 0.00000000000000000000e+00) (0, 0, 0.00000000000000000000e+00) (0, 0, 0.00000000000000000000e+00) (0, 0, 0.00000000000000000000e+00) (0, 0, 0.00000000000000000000e+00) (0, 0, 0.00000000000000000000e+00) (0, 0, 0.00000000000000000000e+00) (0, 0, 0.00000000000000000000e+00) (0, 0, 0.00000000000000000000e+00) (0, 0, 0.00000000000000000000e+00) (0, 0, 0.00000000000000000000e+00) (0, 0, 0.00000000000000000000e+00) (0, 0, 0.00000000000000000000e+00) (0, 0, 0.00000000000000000000e+00) (0, 0, 0.00000000000000000000e+00) (0, 0, 0.00000000000000000000e+00) (0, 0, 0.00000000000000000000e+00) (0, 0, 0.00000000000000000000e+00) (0, 0, 0.00000000000000000000e+00) (0, 0, 0.00000000000000000000e+00) (0, 0, 0.00000000000000000000e+00) (0, 0, 0.00000000000000000000e+00) (0, 0, 0.00000000000000000000e+00) (0, 0, 0.00000000000000000000e+00) (0, 0, 0.00000000000000000000e+00) (0, 0, 0.00000000000000000000e+00) (0, 0, 0.00000000000000000000e+00) (0, 0, 0.00000000000000000000e+00) (0, 0, 0.00000000000000000000e+00) (0, 0, 0.00000000000000000000e+00) (0, 0, 0.00000000000000000000e+00) (0, 0, 0.00000000000000000000e+00) (0, 0, 0.00000000000000000000e+00) (0, 0, 0.00000000000000000000e+00) (0, 0, 0.00000000000000000000e+00) (0, 0, 0.00000000000000000000e+00) (0, 0, 0.00000000000000000000e+00) (0, 0, 0.00000000000000000000e+00) (0, 0, 0.00000000000000000000e+00) (0, 0, 0.00000000000000000000e+00) (0, 0, 0.00000000000000000000e+00) (0, 0, 0.00000000000000000000e+00) (0, 0, 0.00000000000000000000e+00) (0, 0, 0.00000000000000000000e+00) (0, 0, 0.00000000000000000000e+00) (0, 0, 0.00000000000000000000e+00) (0, 0, 0.00000000000000000000e+00) (0, 0, 0.00000000000000000000e+00) (0, 0, 0.00000000000000000000e+00) (0, 0, 0.00000000000000000000e+00) (0, 0, 0.00000000000000000000e+00) (0, 0, 0.00000000000000000000e+00) (0, 0, 0.00000000000000000000e+00) (0, 0, 0.00000000000000000000e+00) (0, 0, 0.00000000000000000000e+00) (0, 0, 0.00000000000000000000e+00) (0, 0, 0.00000000000000000000e+00) (0, 0, 0.00000000000000000000e+00) (0, 0, 0.00000000000000000000e+00) (0, 0, 0.00000000000000000000e+00) (0, 0, 0.00000000000000000000e+00) (0, 0, 0.00000000000000000000e+00) (0, 0, 0.00000000000000000000e+00) (0, 0, 0.00000000000000000000e+00) (0, 0, 0.00000000000000000000e+00) (0, 0, 0.00000000000000000000e+00) (0, 0, 0.00000000000000000000e+00) (0, 0, 0.00000000000000000000e+00) (0, 0, 0.00000000000000000000e+00) (0, 0, 0.00000000000000000000e+00) (0, 0, 0.00000000000000000000e+00) (0, 0, 0.00000000000000000000e+00) (0, 0, 0.00000000000000000000e+00) (0, 0, 0.00000000000000000000e+00) (0, 0, 0.00000000000000000000e+00) (0, 0, 0.00000000000000000000e+00) (0, 0, 0.00000000000000000000e+00) (0, 0, 0.00000000000000000000e+00) (0, 0, 0.00000000000000000000e+00) (0, 0, 0.00000000000000000000e+00) (0, 0, 0.00000000000000000000e+00) (0, 0, 0.00000000000000000000e+00) (0, 0, 0.00000000000000000000e+00) (0, 0, 0.00000000000000000000e+00) (0, 0, 0.00000000000000000000e+00) (0, 0, 0.00000000000000000000e+00) (0, 0, 0.00000000000000000000e+00) (0, 0, 0.00000000000000000000e+00) (0, 0, 0.00000000000000000000e+00) (0, 0, 0.00000000000000000000e+00) (0, 0, 0.00000000000000000000e+00) (0, 0, 0.00000000000000000000e+00) (0, 0, 0.00000000000000000000e+00) (0, 0, 0.00000000000000000000e+00) (0, 0, 0.00000000000000000000e+00) (0, 0, 0.00000000000000000000e+00) (0, 0, 0.00000000000000000000e+00) (0, 0, 0.00000000000000000000e+00) (0, 0, 0.00000000000000000000e+00) (0, 0, 0.00000000000000000000e+00) (0, 0, 0.00000000000000000000e+00) (0, 0, 0.00000000000000000000e+00) (0, 0, 0.00000000000000000000e+00) (0, 0, 0.00000000000000000000e+00) (0, 0, 0.00000000000000000000e+00) (0, 0, 0.00000000000000000000e+00) (0, 0, 0.00000000000000000000e+00) (0, 0, 0.00000000000000000000e+00) (0, 0, 0.00000000000000000000e+00) (0, 0, 0.00000000000000000000e+00) (0, 0, 0.00000000000000000000e+00) (0, 0, 0.00000000000000000000e+00) (0, 0, 0.00000000000000000000e+00) (0, 0, 0.00000000000000000000e+00) (0, 0, 0.00000000000000000000e+00) (0, 0, 0.00000000000000000000e+00) (0, 0, 0.00000000000000000000e+00) (0, 0, 0.00000000000000000000e+00) (0, 0, 0.00000000000000000000e+00) (0, 0, 0.00000000000000000000e+00) (0, 0, 0.00000000000000000000e+00) (0, 0, 0.00000000000000000000e+00) (0, 0, 0.00000000000000000000e+00) (0, 0, 0.00000000000000000000e+00) (0, 0, 0.00000000000000000000e+00) (0, 0, 0.00000000000000000000e+00) (0, 0, 0.00000000000000000000e+00) (0, 0, 0.00000000000000000000e+00) (0, 0, 0.00000000000000000000e+00) (0, 0, 0.00000000000000000000e+00) (0, 0, 0.00000000000000000000e+00) (0, 0, 0.00000000000000000000e+00) (0, 0, 0.00000000000000000000e+00) (0, 0, 0.00000000000000000000e+00) (0, 0, 0.00000000000000000000e+00) (0, 0, 0.00000000000000000000e+00) (0, 0, 0.00000000000000000000e+00) (0, 0, 0.00000000000000000000e+00) (0, 0, 0.00000000000000000000e+00) (0, 0, 0.00000000000000000000e+00) (0, 0, 0.00000000000000000000e+00) (0, 0, 0.00000000000000000000e+00) (0, 0, 0.00000000000000000000e+00) (0, 0, 0.00000000000000000000e+00) (0, 0, 0.00000000000000000000e+00) (0, 0, 0.00000000000000000000e+00) (0, 0, 0.00000000000000000000e+00) (0, 0, 0.00000000000000000000e+00) (0, 0, 0.00000000000000000000e+00) (0, 0, 0.00000000000000000000e+00) (0, 0, 0.00000000000000000000e+00) (0, 0, 0.00000000000000000000e+00) (0, 0, 0.00000000000000000000e+00) (0, 0, 0.00000000000000000000e+00) (0, 0, 0.00000000000000000000e+00) (0, 0, 0.00000000000000000000e+00) (0, 0, 0.00000000000000000000e+00) (0, 0, 0.00000000000000000000e+00) (0, 0, 0.00000000000000000000e+00) (0, 0, 0.00000000000000000000e+00) (0, 0, 0.00000000000000000000e+00) (0, 0, 0.00000000000000000000e+00) (0, 0, 0.00000000000000000000e+00) (0, 0, 0.00000000000000000000e+00) (0, 0, 0.00000000000000000000e+00) (0, 0, 0.00000000000000000000e+00) (0, 0, 0.00000000000000000000e+00) (0, 0, 0.00000000000000000000e+00) (0, 0, 0.00000000000000000000e+00) (0, 0, 0.00000000000000000000e+00) (0, 0, 0.00000000000000000000e+00) (0, 0, 0.00000000000000000000e+00) (0, 0, 0.00000000000000000000e+00) (0, 0, 0.00000000000000000000e+00) (0, 0, 0.00000000000000000000e+00) (0, 0, 0.00000000000000000000e+00) (0, 0, 0.00000000000000000000e+00) (0, 0, 0.00000000000000000000e+00) (0, 0, 0.00000000000000000000e+00) (0, 0, 0.00000000000000000000e+00) (0, 0, 0.00000000000000000000e+00) (0, 0, 0.00000000000000000000e+00) (0, 0, 0.00000000000000000000e+00) (0, 0, 0.00000000000000000000e+00) (0, 0, 0.00000000000000000000e+00) (0, 0, 0.00000000000000000000e+00) (0, 0, 0.00000000000000000000e+00) (0, 0, 0.00000000000000000000e+00) (0, 0, 0.00000000000000000000e+00) (0, 0, 0.00000000000000000000e+00) (0, 0, 0.00000000000000000000e+00) (0, 0, 0.00000000000000000000e+00) (0, 0, 0.00000000000000000000e+00) (0, 0, 0.00000000000000000000e+00) (0, 0, 0.00000000000000000000e+00) (0, 0, 0.00000000000000000000e+00) (0, 0, 0.00000000000000000000e+00) (0, 0, 0.00000000000000000000e+00) (0, 0, 0.00000000000000000000e+00) (0, 0, 0.00000000000000000000e+00) (0, 0, 0.00000000000000000000e+00) (0, 0, 0.00000000000000000000e+00) (0, 0, 0.00000000000000000000e+00) (0, 0, 0.00000000000000000000e+00) (0, 0, 0.00000000000000000000e+00) (0, 0, 0.00000000000000000000e+00) (0, 0, 0.00000000000000000000e+00) (0, 0, 0.00000000000000000000e+00) (0, 0, 0.00000000000000000000e+00) (0, 0, 0.00000000000000000000e+00) (0, 0, 0.00000000000000000000e+00) (0, 0, 0.00000000000000000000e+00) (0, 0, 0.00000000000000000000e+00) (0, 0, 0.00000000000000000000e+00) (0, 0, 0.00000000000000000000e+00) (0, 0, 0.00000000000000000000e+00) (0, 0, 0.00000000000000000000e+00) (0, 0, 0.00000000000000000000e+00) (0, 0, 0.00000000000000000000e+00) (0, 0, 0.00000000000000000000e+00) (0, 0, 0.00000000000000000000e+00) (0, 0, 0.00000000000000000000e+00) (0, 0, 0.00000000000000000000e+00) (0, 0, 0.00000000000000000000e+00) (0, 0, 0.00000000000000000000e+00) (0, 0, 0.00000000000000000000e+00) (0, 0, 0.00000000000000000000e+00) (0, 0, 0.00000000000000000000e+00) (0, 0, 0.00000000000000000000e+00) (0, 0, 0.00000000000000000000e+00) (0, 0, 0.00000000000000000000e+00) (0, 0, 0.00000000000000000000e+00) (0, 0, 0.00000000000000000000e+00) (0, 0, 0.00000000000000000000e+00) (0, 0, 0.00000000000000000000e+00) (0, 0, 0.00000000000000000000e+00) (0, 0, 0.00000000000000000000e+00) (0, 0, 0.00000000000000000000e+00) (0, 0, 0.00000000000000000000e+00) (0, 0, 0.00000000000000000000e+00) (0, 0, 0.00000000000000000000e+00) (0, 0, 0.00000000000000000000e+00) (0, 0, 0.00000000000000000000e+00) (0, 0, 0.00000000000000000000e+00) (0, 0, 0.00000000000000000000e+00) (0, 0, 0.00000000000000000000e+00) (0, 0, 0.00000000000000000000e+00) (0, 0, 0.00000000000000000000e+00) (0, 0, 0.00000000000000000000e+00) (0, 0, 0.00000000000000000000e+00) (0, 0, 0.00000000000000000000e+00) (0, 0, 0.00000000000000000000e+00) (0, 0, 0.00000000000000000000e+00) (0, 0, 0.00000000000000000000e+00) (0, 0, 0.00000000000000000000e+00) (0, 0, 0.00000000000000000000e+00) (0, 0, 0.00000000000000000000e+00) (0, 0, 0.00000000000000000000e+00) (0, 0, 0.00000000000000000000e+00) (0, 0, 0.00000000000000000000e+00) (0, 0, 0.00000000000000000000e+00) (0, 0, 0.00000000000000000000e+00) (0, 0, 0.00000000000000000000e+00) (0, 0, 0.00000000000000000000e+00) (0, 0, 0.00000000000000000000e+00) (0, 0, 0.00000000000000000000e+00) (0, 0, 0.00000000000000000000e+00) (0, 0, 0.00000000000000000000e+00) (0, 0, 0.00000000000000000000e+00) (0, 0, 0.00000000000000000000e+00) (0, 0, 0.00000000000000000000e+00) (0, 0, 0.00000000000000000000e+00) (0, 0, 0.00000000000000000000e+00) (0, 0, 0.00000000000000000000e+00) (0, 0, 0.00000000000000000000e+00) (0, 0, 0.00000000000000000000e+00) (0, 0, 0.00000000000000000000e+00) (0, 0, 0.00000000000000000000e+00) (0, 0, 0.00000000000000000000e+00) (0, 0, 0.00000000000000000000e+00) (0, 0, 0.00000000000000000000e+00) (0, 0, 0.00000000000000000000e+00) (0, 0, 0.00000000000000000000e+00) (0, 0, 0.00000000000000000000e+00) (0, 0, 0.00000000000000000000e+00) (0, 0, 0.00000000000000000000e+00) (0, 0, 0.00000000000000000000e+00) (0, 0, 0.00000000000000000000e+00) (0, 0, 0.00000000000000000000e+00) (0, 0, 0.00000000000000000000e+00) (0, 0, 0.00000000000000000000e+00) (0, 0, 0.00000000000000000000e+00) (0, 0, 0.00000000000000000000e+00) (0, 0, 0.00000000000000000000e+00) (0, 0, 0.00000000000000000000e+00) (0, 0, 0.00000000000000000000e+00) (0, 0, 0.00000000000000000000e+00) (0, 0, 0.00000000000000000000e+00) (0, 0, 0.00000000000000000000e+00) (0, 0, 0.00000000000000000000e+00) (0, 0, 0.00000000000000000000e+00) (0, 0, 0.00000000000000000000e+00) (0, 0, 0.00000000000000000000e+00) (0, 0, 0.00000000000000000000e+00) (0, 0, 0.00000000000000000000e+00) (0, 0, 0.00000000000000000000e+00) (0, 0, 0.00000000000000000000e+00) (0, 0, 0.00000000000000000000e+00) (0, 0, 0.00000000000000000000e+00) (0, 0, 0.00000000000000000000e+00) (0, 0, 0.00000000000000000000e+00) (0, 0, 0.00000000000000000000e+00) (0, 0, 0.00000000000000000000e+00) (0, 0, 0.00000000000000000000e+00) (0, 0, 0.00000000000000000000e+00) (0, 0, 0.00000000000000000000e+00) (0, 0, 0.00000000000000000000e+00) (0, 0, 0.00000000000000000000e+00) (0, 0, 0.00000000000000000000e+00) (0, 0, 0.00000000000000000000e+00) (0, 0, 0.00000000000000000000e+00) (0, 0, 0.00000000000000000000e+00) (0, 0, 0.00000000000000000000e+00) (0, 0, 0.00000000000000000000e+00) (0, 0, 0.00000000000000000000e+00) (0, 0, 0.00000000000000000000e+00) (0, 0, 0.00000000000000000000e+00) (0, 0, 0.00000000000000000000e+00) (0, 0, 0.00000000000000000000e+00) (0, 0, 0.00000000000000000000e+00) (0, 0, 0.00000000000000000000e+00) (0, 0, 0.00000000000000000000e+00) (0, 0, 0.00000000000000000000e+00) (0, 0, 0.00000000000000000000e+00) (0, 0, 0.00000000000000000000e+00) (0, 0, 0.00000000000000000000e+00) (0, 0, 0.00000000000000000000e+00) (0, 0, 0.00000000000000000000e+00) (0, 0, 0.00000000000000000000e+00) (0, 0, 0.00000000000000000000e+00) (0, 0, 0.00000000000000000000e+00) (0, 0, 0.00000000000000000000e+00) (0, 0, 0.00000000000000000000e+00) (0, 0, 0.00000000000000000000e+00) (0, 0, 0.00000000000000000000e+00) (0, 0, 0.00000000000000000000e+00) (0, 0, 0.00000000000000000000e+00) (0, 0, 0.00000000000000000000e+00) (0, 0, 0.00000000000000000000e+00) (0, 0, 0.00000000000000000000e+00) (0, 0, 0.00000000000000000000e+00) (0, 0, 0.00000000000000000000e+00) (0, 0, 0.00000000000000000000e+00) (0, 0, 0.00000000000000000000e+00) (0, 0, 0.00000000000000000000e+00) (0, 0, 0.00000000000000000000e+00) (0, 0, 0.00000000000000000000e+00) (0, 0, 0.00000000000000000000e+00) (0, 0, 0.00000000000000000000e+00) (0, 0, 0.00000000000000000000e+00) (0, 0, 0.00000000000000000000e+00) (0, 0, 0.00000000000000000000e+00) (0, 0, 0.00000000000000000000e+00) (0, 0, 0.00000000000000000000e+00) (0, 0, 0.00000000000000000000e+00) (0, 0, 0.00000000000000000000e+00) (0, 0, 0.00000000000000000000e+00) (0, 0, 0.00000000000000000000e+00) (0, 0, 0.00000000000000000000e+00) (0, 0, 0.00000000000000000000e+00) (0, 0, 0.00000000000000000000e+00) (0, 0, 0.00000000000000000000e+00) (0, 0, 0.00000000000000000000e+00) (0, 0, 0.00000000000000000000e+00) (0, 0, 0.00000000000000000000e+00) (0, 0, 0.00000000000000000000e+00) (0, 0, 0.00000000000000000000e+00) (0, 0, 0.00000000000000000000e+00) (0, 0, 0.00000000000000000000e+00) (0, 0, 0.00000000000000000000e+00) (0, 0, 0.00000000000000000000e+00) (0, 0, 0.00000000000000000000e+00) (0, 0, 0.00000000000000000000e+00) (0, 0, 0.00000000000000000000e+00) (0, 0, 0.00000000000000000000e+00) (0, 0, 0.00000000000000000000e+00) (0, 0, 0.00000000000000000000e+00) (0, 0, 0.00000000000000000000e+00) (0, 0, 0.00000000000000000000e+00) (0, 0, 0.00000000000000000000e+00) (0, 0, 0.00000000000000000000e+00) (0, 0, 0.00000000000000000000e+00) (0, 0, 0.00000000000000000000e+00) (0, 0, 0.00000000000000000000e+00) (0, 0, 0.00000000000000000000e+00) (0, 0, 0.00000000000000000000e+00) (0, 0, 0.00000000000000000000e+00) (0, 0, 0.00000000000000000000e+00) (0, 0, 0.00000000000000000000e+00) (0, 0, 0.00000000000000000000e+00) (0, 0, 0.00000000000000000000e+00) (0, 0, 0.00000000000000000000e+00) (0, 0, 0.00000000000000000000e+00) (0, 0, 0.00000000000000000000e+00) (0, 0, 0.00000000000000000000e+00) (0, 0, 0.00000000000000000000e+00) (0, 0, 0.00000000000000000000e+00) (0, 0, 0.00000000000000000000e+00) (0, 0, 0.00000000000000000000e+00) (0, 0, 0.00000000000000000000e+00) (0, 0, 0.00000000000000000000e+00) (0, 0, 0.00000000000000000000e+00) (0, 0, 0.00000000000000000000e+00) (0, 0, 0.00000000000000000000e+00) (0, 0, 0.00000000000000000000e+00) (0, 0, 0.00000000000000000000e+00) (0, 0, 0.00000000000000000000e+00) (0, 0, 0.00000000000000000000e+00) (0, 0, 0.00000000000000000000e+00) (0, 0, 0.00000000000000000000e+00) (0, 0, 0.00000000000000000000e+00) (0, 0, 0.00000000000000000000e+00) (0, 0, 0.00000000000000000000e+00) (0, 0, 0.00000000000000000000e+00) (0, 0, 0.00000000000000000000e+00) (0, 0, 0.00000000000000000000e+00) (0, 0, 0.00000000000000000000e+00) (0, 0, 0.00000000000000000000e+00) (0, 0, 0.00000000000000000000e+00) (0, 0, 0.00000000000000000000e+00) (0, 0, 0.00000000000000000000e+00) (0, 0, 0.00000000000000000000e+00) (0, 0, 0.00000000000000000000e+00) (0, 0, 0.00000000000000000000e+00) (0, 0, 0.00000000000000000000e+00) (0, 0, 0.00000000000000000000e+00) (0, 0, 0.00000000000000000000e+00) (0, 0, 0.00000000000000000000e+00) (0, 0, 0.00000000000000000000e+00) (0, 0, 0.00000000000000000000e+00) (0, 0, 0.00000000000000000000e+00) (0, 0, 0.00000000000000000000e+00) (0, 0, 0.00000000000000000000e+00) (0, 0, 0.00000000000000000000e+00) (0, 0, 0.00000000000000000000e+00) (0, 0, 0.00000000000000000000e+00) (0, 0, 0.00000000000000000000e+00) (0, 0, 0.00000000000000000000e+00) (0, 0, 0.00000000000000000000e+00) (0, 0, 0.00000000000000000000e+00) (0, 0, 0.00000000000000000000e+00) (0, 0, 0.00000000000000000000e+00) (0, 0, 0.00000000000000000000e+00) (0, 0, 0.00000000000000000000e+00) (0, 0, 0.00000000000000000000e+00) (0, 0, 0.00000000000000000000e+00) (0, 0, 0.00000000000000000000e+00) (0, 0, 0.00000000000000000000e+00) (0, 0, 0.00000000000000000000e+00) (0, 0, 0.00000000000000000000e+00) (0, 0, 0.00000000000000000000e+00) (0, 0, 0.00000000000000000000e+00) (0, 0, 0.00000000000000000000e+00) (0, 0, 0.00000000000000000000e+00) (0, 0, 0.00000000000000000000e+00) (0, 0, 0.00000000000000000000e+00) (0, 0, 0.00000000000000000000e+00) (0, 0, 0.00000000000000000000e+00) (0, 0, 0.00000000000000000000e+00) (0, 0, 0.00000000000000000000e+00) (0, 0, 0.00000000000000000000e+00) (0, 0, 0.00000000000000000000e+00) (0, 0, 0.00000000000000000000e+00) (0, 0, 0.00000000000000000000e+00) (0, 0, 0.00000000000000000000e+00) (0, 0, 0.00000000000000000000e+00) (0, 0, 0.00000000000000000000e+00) (0, 0, 0.00000000000000000000e+00) (0, 0, 0.00000000000000000000e+00) (0, 0, 0.00000000000000000000e+00) (0, 0, 0.00000000000000000000e+00) (0, 0, 0.00000000000000000000e+00) (0, 0, 0.00000000000000000000e+00) (0, 0, 0.00000000000000000000e+00) (0, 0, 0.00000000000000000000e+00) (0, 0, 0.00000000000000000000e+00) (0, 0, 0.00000000000000000000e+00) (0, 0, 0.00000000000000000000e+00) (0, 0, 0.00000000000000000000e+00) (0, 0, 0.00000000000000000000e+00) (0, 0, 0.00000000000000000000e+00) (0, 0, 0.00000000000000000000e+00) (0, 0, 0.00000000000000000000e+00) (0, 0, 0.00000000000000000000e+00) (0, 0, 0.00000000000000000000e+00) (0, 0, 0.00000000000000000000e+00) (0, 0, 0.00000000000000000000e+00) (0, 0, 0.00000000000000000000e+00) (0, 0, 0.00000000000000000000e+00) (0, 0, 0.00000000000000000000e+00) (0, 0, 0.00000000000000000000e+00) (0, 0, 0.00000000000000000000e+00) (0, 0, 0.00000000000000000000e+00) (0, 0, 0.00000000000000000000e+00) (0, 0, 0.00000000000000000000e+00) (0, 0, 0.00000000000000000000e+00) (0, 0, 0.00000000000000000000e+00) (0, 0, 0.00000000000000000000e+00) (0, 0, 0.00000000000000000000e+00) (0, 0, 0.00000000000000000000e+00) (0, 0, 0.00000000000000000000e+00) (0, 0, 0.00000000000000000000e+00) (0, 0, 0.00000000000000000000e+00) (0, 0, 0.00000000000000000000e+00) (0, 0, 0.00000000000000000000e+00) (0, 0, 0.00000000000000000000e+00) (0, 0, 0.00000000000000000000e+00) (0, 0, 0.00000000000000000000e+00) (0, 0, 0.00000000000000000000e+00) (0, 0, 0.00000000000000000000e+00) (0, 0, 0.00000000000000000000e+00) (0, 0, 0.00000000000000000000e+00) (0, 0, 0.00000000000000000000e+00) (0, 0, 0.00000000000000000000e+00) (0, 0, 0.00000000000000000000e+00) (0, 0, 0.00000000000000000000e+00) (0, 0, 0.00000000000000000000e+00) (0, 0, 0.00000000000000000000e+00) (0, 0, 0.00000000000000000000e+00) (0, 0, 0.00000000000000000000e+00) (0, 0, 0.00000000000000000000e+00) (0, 0, 0.00000000000000000000e+00) (0, 0, 0.00000000000000000000e+00) (0, 0, 0.00000000000000000000e+00) (0, 0, 0.00000000000000000000e+00) (0, 0, 0.00000000000000000000e+00) (0, 0, 0.00000000000000000000e+00) (0, 0, 0.00000000000000000000e+00) (0, 0, 0.00000000000000000000e+00) (0, 0, 0.00000000000000000000e+00) (0, 0, 0.00000000000000000000e+00) (0, 0, 0.00000000000000000000e+00) (0, 0, 0.00000000000000000000e+00) (0, 0, 0.00000000000000000000e+00) (0, 0, 0.00000000000000000000e+00) (0, 0, 0.00000000000000000000e+00) (0, 0, 0.00000000000000000000e+00) (0, 0, 0.00000000000000000000e+00) (0, 0, 0.00000000000000000000e+00) (0, 0, 0.00000000000000000000e+00) (0, 0, 0.00000000000000000000e+00) (0, 0, 0.00000000000000000000e+00) (0, 0, 0.00000000000000000000e+00) (0, 0, 0.00000000000000000000e+00) (0, 0, 0.00000000000000000000e+00) (0, 0, 0.00000000000000000000e+00) (0, 0, 0.00000000000000000000e+00) (0, 0, 0.00000000000000000000e+00) (0, 0, 0.00000000000000000000e+00) (0, 0, 0.00000000000000000000e+00) (0, 0, 0.00000000000000000000e+00) (0, 0, 0.00000000000000000000e+00) (0, 0, 0.00000000000000000000e+00) (0, 0, 0.00000000000000000000e+00) (0, 0, 0.00000000000000000000e+00) (0, 0, 0.00000000000000000000e+00) (0, 0, 0.00000000000000000000e+00) (0, 0, 0.00000000000000000000e+00) (0, 0, 0.00000000000000000000e+00) (0, 0, 0.00000000000000000000e+00) (0, 0, 0.00000000000000000000e+00) (0, 0, 0.00000000000000000000e+00) (0, 0, 0.00000000000000000000e+00) (0, 0, 0.00000000000000000000e+00) (785, 3, 5.00000000000000000000e-01) (785, 3, 5.00000000000000000000e-01) (785, 3, 5.00000000000000000000e-01) (785, 3, 5.00000000000000000000e-01) (785, 3, 5.00000000000000000000e-01) (785, 3, 5.00000000000000000000e-01) (785, 3, 5.00000000000000000000e-01) (785, 3, 5.00000000000000000000e-01) (785, 3, 5.00000000000000000000e-01) (785, 3, 5.00000000000000000000e-01) (785, 3, 5.00000000000000000000e-01) (785, 3, 5.00000000000000000000e-01) (785, 3, 5.00000000000000000000e-01) (785, 3, 5.00000000000000000000e-01) (785, 3, 5.00000000000000000000e-01) (0, 3, 0.00000000000000000000e+00) (16, 3, 5.00000000000000000000e-01) (16, 3, 5.00000000000000000000e-01) (16, 3, 5.00000000000000000000e-01) (16, 3, 5.00000000000000000000e-01) (16, 3, 5.00000000000000000000e-01) (16, 3, 5.00000000000000000000e-01) (16, 3, 5.00000000000000000000e-01) (16, 3, 5.00000000000000000000e-01) (16, 3, 5.00000000000000000000e-01) (16, 3, 5.00000000000000000000e-01) (0, 3, 0.00000000000000000000e+00) 
connections (connected_to_neuron, weight)=(0, 2.23666854464419806447e+01) (1, 2.23458602503844225851e+01) (2, 2.24378524460800612417e+01) (3, 2.24451217242487395254e+01) (4, 2.23582259715505564657e+01) (5, 2.23601607867487395254e+01) (6, 2.23926314898737395254e+01) (7, 2.24943954088695967641e+01) (8, 2.23497054652281725851e+01) (9, 2.23276412599690878835e+01) (10, 2.23851668947347128835e+01) (11, 2.24697433152206862417e+01) (12, 4.36174449339557582239e-02) (13, -1.62413321458267256858e-01) (14, -3.64394690535798204678e+00) (15, -3.64329993419184816617e+00) (16, 2.24840987809904540029e+01) (17, 2.24238692858227217641e+01) (18, 2.23083968722232306447e+01) (19, 2.23338119127758467641e+01) (20, 2.23489913531549895254e+01) (21, 2.23439193331607306447e+01) (22, 2.23935287111409628835e+01) (23, 2.23742782213695967641e+01) (24, 2.24451278337248290029e+01) (25, 2.24876754322060072866e+01) (26, 2.24114547335513556447e+01) (27, 2.23357772418268645254e+01) (28, 2.24261031710513556447e+01) (29, 2.24143783190258467641e+01) (30, 2.24244247042544806447e+01) (31, 2.23117721118935072866e+01) (32, 3.46975160838457821755e-02) (33, -2.41085769634379443183e-01) (34, -6.16377906989763052481e-02) (35, -2.57430167984674523884e-02) (36, -1.90896523589618227756e-01) (37, -6.35736037028550582395e-02) (38, -7.32224001845672156641e-02) (39, 1.79634668457544499631e-02) (40, 2.00294809629028569553e-01) (41, 3.63176491871524745325e-02) (42, 2.21784480222029234397e-02) (43, -1.39276199666495625884e-01) (44, -2.35996060216343783722e-01) (45, -1.93813760784394439884e-01) (46, 1.22404387760953997644e-01) (47, 2.15395658556951752338e-01) (48, 3.63510533466737895125e-01) (49, 9.17010551586801975210e-02) (50, 1.45503552843635780567e-01) (51, -2.53417835847155770157e-01) (52, 2.23524337374576056447e+01) (53, 2.23077010699518645254e+01) (54, 2.23204635196336234060e+01) (55, 2.23167281710513556447e+01) (56, 2.23136397936352217641e+01) (57, 2.23977035098679984060e+01) (58, -2.24221752982272204413e-01) (59, 2.31293115404871629792e+00) (60, 2.20799069003569693737e-02) (61, -4.51834656155821259849e-02) (62, -1.05923199570332089714e-02) (63, -3.84853863632832124408e-02) (64, -3.63430613196049287494e-02) (65, -8.18325588023816052896e-02) (66, -7.71145382440243665201e-02) (67, -5.71189512035888899422e-02) (68, -4.89612443395959842651e-02) (69, 7.39412136335994840675e-02) (70, -9.49829377707636923756e-02) (71, 8.24602273121524675936e-02) (72, 5.97734478130985194544e-02) (73, 6.11284402027774745325e-02) (74, 2.23202063982023468647e-01) (75, 1.53249665443433991108e-01) (76, 4.37131535393124659450e-01) (77, 4.89823188763981953731e-01) (78, 3.09207949918633595576e-01) (79, 2.48719067278713110158e-02) (80, -8.63144208961747483322e-02) (81, -7.54712198470781636672e-01) (82, 2.23397017979033911672e+01) (83, 2.23984298297174895254e+01) (84, 2.23108199649461234060e+01) (85, 2.24976791032560790029e+01) (86, -2.25930633025085064736e-01) (87, -7.93410386051537630525e-02) (88, -1.69423727785039418547e-01) (89, -5.26800661733306196943e-01) (90, -3.54699827184832949811e-01) (91, -4.03296015610850711042e-01) (92, -5.82315933514296224516e-01) (93, -3.81500370254672427350e-01) (94, -3.88446159114993472272e-01) (95, -4.14398319473422427350e-01) (96, -3.20716497149037382819e-01) (97, -2.35096384431885740973e-01) (98, -3.12922310676144621588e-01) (99, -1.01220468388640919000e-01) (100, -8.35100507150734056028e-02) (101, -2.50305466827547909436e-02) (102, -7.69775704023039908375e-02) (103, -5.83158753852222669356e-02) (104, 2.26717327185580408422e-01) (105, 2.82460730918356994756e-01) (106, 5.89108240926972670515e-01) (107, 8.49966515315286663679e-01) (108, 7.32968215358964947370e-01) (109, 3.06463721463514138232e-01) (110, 7.40262560511990352907e-01) (111, 2.24837508835800612417e+01) (112, 2.24097274356492484060e+01) (113, -2.94389985583561608617e-01) (114, -1.41450432788396474049e-01) (115, 1.18749376105405410331e-01) (116, -5.19263882172671803472e-02) (117, -5.55963323322395064352e-01) (118, -4.83648802539266065015e-01) (119, -6.70047148788034507838e-01) (120, -8.15234712279761186693e-01) (121, -5.53048848831712902552e-01) (122, -5.44569946609692268069e-01) (123, -4.33351680420593965426e-01) (124, -5.17775505565361671145e-01) (125, -2.44513497807816226892e-01) (126, -1.72650703348950107507e-01) (127, -1.53894596853092868738e-01) (128, -7.69841979525839881227e-02) (129, -6.72026853144423036435e-02) (130, 9.89019763505224747124e-02) (131, -1.15438150058284044047e-02) (132, 3.13987335690231295082e-01) (133, 2.53910428413124056313e-01) (134, 5.26777706743827067726e-01) (135, 1.61202726592764156166e+00) (136, 1.54397916873440044228e+00) (137, 1.29301146541476086327e+00) (138, -9.81516921827237792675e-02) (139, 1.10242742553370987046e+00) (140, 2.23826278262742484060e+01) (141, 2.24203170352586234060e+01) (142, -6.06904765929220046949e-01) (143, -2.68303705943459591676e-01) (144, -7.77001954840919384360e-01) (145, -3.75222101315791700671e-01) (146, -2.97908871874148939440e-01) (147, -3.30190360054309461901e-01) (148, -6.33560329401552380091e-01) (149, -1.36342875888180670163e-01) (150, -2.01796986391377386472e-01) (151, -3.02859001090359680752e-01) (152, -1.55550651480984625241e-01) (153, -2.44206288425974943346e-01) (154, -2.24205070703082182115e-01) (155, -1.75700427560858823961e-01) (156, -1.46446281640582182115e-01) (157, -1.59379632740073301500e-01) (158, -2.30588464806208315316e-01) (159, -1.70038499207976562255e-01) (160, -1.84811832037240081350e-02) (161, 7.65299154629216077383e-02) (162, 1.71912742752883349745e-03) (163, 9.58094232296909709135e-01) (164, 1.47748135854944506740e+00) (165, 8.94252110291140711595e-01) (166, 1.33312053980841227485e-01) (167, 8.76259484063583893310e-01) (168, 2.24738326706894362417e+01) (169, -1.66462549238904977678e+00) (170, -3.39152936024075035704e-01) (171, -1.57675317346557641862e+00) (172, -1.60042261003955865739e+00) (173, -8.01196292268535503744e-01) (174, -4.23250667259032764544e-01) (175, -3.73720634236867521594e-01) (176, -2.77675897111725744626e-01) (177, -1.81307487418484625241e-01) (178, -2.35335804750752386472e-01) (179, -2.00466417004895147702e-01) (180, -1.57497667004895147702e-01) (181, -8.56796741176176906984e-02) (182, -1.62913562326483823961e-01) (183, -1.54917956857733823961e-01) (184, -2.68443354933314393129e-01) (185, -7.73300617623854658067e-02) (186, -2.48088122873358823961e-01) (187, -1.06132560937457168238e-01) (188, -1.74678768145471757789e-01) (189, -1.22976964110403277908e-01) (190, 8.75772787441715938606e-02) (191, 4.02789959994646007413e-01) (192, 6.89093696095630647847e-01) (193, 2.46775210819458357125e-01) (194, 1.77159704270376749946e-01) (195, 2.39206933943968025336e-01) (196, 2.24825973101862395254e+01) (197, -2.53323487385086254520e-01) (198, 1.09194452177732204134e+00) (199, -1.18009378329498315630e+00) (200, -1.53056776256069149156e+00) (201, -6.68994032680293226889e-01) (202, -2.45485767230327223132e-01) (203, -4.19533624753291645160e-01) (204, -1.29629008700680670163e-01) (205, -2.76418566932511267087e-01) (206, -1.39681510855984625241e-01) (207, -2.49443107812457182115e-01) (208, -1.19419911472849929468e-01) (209, 1.49648936199643280837e-02) (210, 5.86416499423482104336e-02) (211, -9.29047896390179130111e-03) (212, 5.86172343897320910489e-02) (213, -3.88660379753800813707e-02) (214, -3.14807803438397829088e-02) (215, 8.85509638978747015692e-02) (216, -5.25034807396440109106e-02) (217, -9.41611892754137397299e-02) (218, -1.73434724802046053016e-01) (219, 4.04574818247646794678e-01) (220, 5.29669749369307885090e-01) (221, 7.07141788818523409077e-01) (222, 2.04032287917351118356e-01) (223, 2.29245984523039070258e-01) (224, 2.23057540469773734060e+01) (225, 1.01136797448402528943e+01) (226, 3.39341695530947751180e+00) (227, -9.31397183218065194410e-01) (228, -2.28620433398645106493e+00) (229, -7.14758195816775465659e-01) (230, -1.74294248339468882403e-01) (231, -1.37764707323843882403e-01) (232, -2.32812398098223363729e-02) (233, -1.29909665229152926358e-01) (234, -1.03786618354152926358e-01) (235, 1.32463671426723189617e-01) (236, 1.37010790567348189617e-01) (237, 1.46826818814861675966e-01) (238, 1.98181793323147198427e-01) (239, 7.20900181156156061313e-02) (240, -1.00528295993235372574e-01) (241, 6.29589199020174350441e-02) (242, 1.05067068238427985261e-01) (243, -5.06519251571389619859e-02) (244, 4.55822138978747362636e-02) (245, -1.10441530327848827508e-01) (246, -3.45262971143079147596e-02) (247, 2.99630961650700078369e-01) (248, 5.24732114889308931538e-01) (249, 5.30377763142272362629e-01) (250, 1.64945372364734998971e-01) (251, -9.18275697348321373603e-02) (252, 2.23088790514477217641e+01) (253, 2.23538863734312975851e+01) (254, 2.23267989718326056447e+01) (255, 2.60154731492471480436e-01) (256, -7.30370791123368157116e+00) (257, 2.22281924084707260825e-01) (258, -1.94814272341067240557e-01) (259, -2.76894353446299423815e-01) (260, -1.82824664734118173814e-02) (261, -6.44128405473940734982e-02) (262, 1.51077086744176563443e-02) (263, 3.36329661327175510888e-01) (264, 3.09639794314078620197e-01) (265, 2.65305285947937397051e-01) (266, 6.22448600451224742791e-02) (267, 1.86163659009221993390e-01) (268, 2.13833265906308023219e-02) (269, -1.57771083308475390528e-01) (270, -6.05518282459470216783e-02) (271, 3.19591551019457395522e-02) (272, 5.72521327926424419830e-02) (273, 2.56546640586334181999e-02) (274, 2.20707185111525650001e-01) (275, 3.92305488635085741755e-01) (276, 5.54144958176300050923e-01) (277, 5.74738102783843407551e-01) (278, 2.38799957151130504140e-01) (279, -5.76195484650079345346e-02) (280, 2.23947433047898734060e+01) (281, 1.02227597256932849490e+01) (282, 2.23951034137018645254e+01) (283, 2.10437107406360279782e+00) (284, -1.26554908133318544383e-01) (285, 1.77689632967992783286e-01) (286, 1.58848083213850022055e-01) (287, 5.96700350984632366114e-01) (288, 9.03470923155079708167e-01) (289, 1.00798774977181393453e+00) (290, 1.14452740019994747556e+00) (291, 6.71608141650310463966e-01) (292, 4.79664771844497517250e-01) (293, 3.40458398576946874581e-01) (294, 4.02783058206313618332e-02) (295, -9.92491503214923687093e-02) (296, -2.79658286614435092066e-01) (297, -2.61597982389943972681e-01) (298, -2.46631563709470216783e-02) (299, -8.99280519293042535089e-02) (300, 2.98391582178570910489e-02) (301, -3.48739048648399468933e-02) (302, 3.08762609503749008155e-01) (303, 1.25692970836923967326e+00) (304, 5.10319658326359393286e-01) (305, 2.18271777186872906196e-01) (306, 1.27731928385961174266e-01) (307, -1.72216101290777190425e-01) (308, 2.23377425783284628835e+01) (309, 2.24212386720784628835e+01) (310, 2.24964706041820967641e+01) (311, 2.24638289996393645254e+01) (312, 4.82929478872264228428e-01) (313, 4.59772742826188407506e-01) (314, 5.29615271378005347813e-01) (315, 8.82944797127972469397e-01) (316, 1.10698261540449260920e+00) (317, 1.53117099865608397025e+00) (318, 2.66658030467800566399e-01) (319, 6.70741430510631508888e-01) (320, 3.72520169135304113350e-01) (321, 3.40769154625553516436e-01) (322, -2.23764071314720064398e-01) (323, -2.49930230982314427468e-01) (324, -1.22688072515743165636e-01) (325, 3.46386074020174558608e-02) (326, 1.05311208863427985261e-01) (327, 2.08364726709820910489e-02) (328, -2.81015111399195438580e-02) (329, -5.87176604831677259599e-02) (330, 8.38473331788100573192e-01) (331, 1.45722996555127948248e+00) (332, 2.15739402201074970122e+00) (333, -9.39108195768697251449e-02) (334, -1.70495679898380325668e-02) (335, -2.42646538828669766641e-01) (336, 2.24531295337685072866e+01) (337, 2.24218673297174895254e+01) (338, 2.23054122515924895254e+01) (339, 9.53686133987617346008e+00) (340, 4.35920333006671878451e+00) (341, 9.67343020271352660444e-01) (342, 2.08318741424959164021e+00) (343, 1.44030185877614202994e+00) (344, 9.59232640414963477760e-01) (345, 1.04651439317231220727e+00) (346, 1.50282293575577236000e-01) (347, 3.09153465446205755196e-01) (348, 6.63965549570538771107e-02) (349, -3.11434620561887968992e-02) (350, -2.83407734172730130240e-01) (351, -3.11594786114014588030e-01) (352, -2.29250783721223871936e-01) (353, 8.35623072194554838976e-02) (354, 7.34609888600804422643e-02) (355, 1.11015923480937681034e-01) (356, 1.23802788715312667156e-01) (357, 2.46402552970895411324e-03) (358, 9.69247256079234453807e-01) (359, 2.03443259026903522368e+00) (360, 2.12409933682579410430e+00) (361, -3.47796325684119500554e-01) (362, -1.57018332909973939993e-01) (363, -8.69209999733430993540e-02) (364, 1.07731174384422767609e+00) (365, 9.52506935066890569885e+00) (366, 2.01228955974876164703e+01) (367, 9.43515845603656799767e+00) (368, 4.35159834363750430697e+00) (369, 2.21463888909716022368e+00) (370, 2.11631125237841022368e+00) (371, 9.70175002375163408885e-01) (372, 9.29410872011910305091e-01) (373, 2.14323421273354408623e-01) (374, 9.15202632238379942820e-02) (375, -1.15258342932275451020e-01) (376, -5.68965220556771136828e-02) (377, -1.78813301658882678469e-01) (378, -3.06305336804574446230e-01) (379, -3.47483457989014588030e-01) (380, -2.09116853547601233565e-02) (381, -3.33261190248034244732e-02) (382, -1.14328114581606719163e-02) (383, 1.50888160438703622379e-01) (384, 7.07978239371052781026e-02) (385, 3.58548330172880680422e-01) (386, 1.85727173169019232901e+00) (387, 2.14435690667528522368e+00) (388, 1.09580371437578549809e+00) (389, -2.86904230222041645160e-01) (390, -9.74078713870966561572e-01) (391, -9.30768432105493381812e+00) (392, 6.49571086707406153415e-01) (393, -2.89291070447798281950e-01) (394, 4.88062437091184531113e+00) (395, 1.07155711703662914758e+00) (396, 2.17477072801489246245e+00) (397, 1.29683045254775675126e+00) (398, 5.92829115614182944327e-01) (399, 4.64924107778514228428e-01) (400, 1.02579221399875608611e+00) (401, 1.26353480909686621825e-01) (402, -4.83541162500872589991e-02) (403, 7.34297244686732495517e-03) (404, -1.18462235366484897048e-01) (405, -1.60388591737931796022e-01) (406, -3.13090147442139588030e-01) (407, -2.53936988354938719681e-01) (408, 1.02739550332973189617e-01) (409, 4.85525430845715616490e-02) (410, 1.50460914344953622379e-01) (411, 8.61169328438678022275e-02) (412, 3.94272106333785413157e-02) (413, 7.33803472617123309085e-01) (414, 6.25462476866694094824e-01) (415, 1.38003720689554887358e+00) (416, -1.39674871562609742570e-01) (417, -3.62435236081416700671e-01) (418, -1.91824070310230787584e+00) (419, -9.31702880198669269873e+00) (420, 1.58404575749569120902e+00) (421, -4.88815114830371100219e-01) (422, -1.42217542708620037217e+00) (423, -5.57092168270846510580e-01) (424, 4.17145784485782100681e-01) (425, 5.57270299184764228428e-01) (426, 3.06841246260764144438e-01) (427, 1.59940614000841141440e-01) (428, 7.28872643517949198033e-02) (429, 2.44592172550597494740e-02) (430, 2.68601602443428011391e-01) (431, -7.84311001272919583460e-02) (432, -1.40967355229691226892e-01) (433, -3.60162575782554783554e-01) (434, -1.63396934620223227563e-01) (435, -1.22735309056124869409e-01) (436, -5.10957076077679043374e-03) (437, 4.62759287762143298184e-02) (438, 1.03923641304919905926e-01) (439, 4.64257752048411673207e-02) (440, 6.25407717813960678521e-02) (441, 2.77659894838682697049e-01) (442, 3.16442032177158966144e-02) (443, 5.78940851332457387390e-02) (444, -2.59273503091866364123e-01) (445, -3.85042655721242521594e-01) (446, -3.10875179870173079522e+00) (447, -9.36395873511743381812e+00) (448, 2.24193526842602217641e+01) (449, -1.55088647126659417985e+00) (450, -1.64605249508723283647e+00) (451, -5.41137584387560988120e-01) (452, 1.48551455334707260825e-01) (453, 1.66526308850332260825e-01) (454, 2.38108343080564499594e-01) (455, -5.02490946160050813707e-02) (456, 7.40869050371089354901e-02) (457, 6.40186087637023559793e-02) (458, 1.07968357681900190004e-01) (459, -3.64083950491669375293e-02) (460, -1.40651989885190703555e-01) (461, -2.11987024746022406640e-01) (462, -2.45196255496821585718e-01) (463, 1.06996018014526156348e-01) (464, -7.60295309132481833547e-02) (465, 7.54873530673482034947e-02) (466, 9.79971216725804838976e-02) (467, 6.55297791110911742596e-02) (468, 1.80038745149188536554e-02) (469, -4.99257420472112509180e-02) (470, -4.13890945184808636825e-02) (471, -1.39571353909308359942e-01) (472, -1.58711969968611643633e-01) (473, -9.59064065433466561572e-01) (474, -3.93456620707321791386e+00) (475, -2.56128247770854988730e+00) (476, 2.23179122545727217641e+01) (477, -8.57162728730425982349e-01) (478, -1.57652734636768365739e+00) (479, -6.91748045610687145590e-01) (480, -1.70851871487433359942e-01) (481, 1.33103458777948324698e-01) (482, -8.76733371041529263579e-02) (483, -3.96310536456606632427e-02) (484, -8.57921577816880658041e-03) (485, 9.93623969253599192974e-02) (486, -1.23456739363265288745e-01) (487, -6.25734556919028406252e-02) (488, -2.05254844031415167871e-01) (489, -8.33737427509643608259e-02) (490, -5.92454340833666395771e-02) (491, -1.16104464888003133805e-01) (492, 5.39509437972163219399e-02) (493, 4.61991036128478957390e-02) (494, 2.18765938472228957390e-02) (495, -1.71879472039490090174e-02) (496, 6.10422703155073312353e-02) (497, -2.30738573883830344613e-01) (498, -2.28406318583325107507e-01) (499, -3.87715998545224760363e-01) (500, -3.78438654795224760363e-01) (501, -1.81880599249748597934e+00) (502, -3.47959753565325868863e+00) (503, -3.52889123912250579629e-01) (504, 2.24195479937799895254e+01) (505, -8.58224741939292101733e-01) (506, -7.37561039852401623129e-01) (507, -4.18099298581416645160e-01) (508, -2.88381278023059406390e-01) (509, -3.23146901532943342517e-01) (510, -1.96718856921029028317e-01) (511, -7.57370531249571821153e-02) (512, -9.41968198764908531961e-02) (513, 2.03909273175475400097e-02) (514, -7.35841993695189600100e-02) (515, -1.71775843697192509563e-01) (516, -1.20440396121821585718e-01) (517, -1.01561222042466092752e-01) (518, 1.12116876564597872656e-01) (519, 4.19447529536244798076e-02) (520, 8.46869277268527953506e-02) (521, 3.42850291919189406609e-02) (522, -2.98446064997238275085e-02) (523, 9.33183563725659311061e-03) (524, -2.04896290962754495935e-01) (525, -6.97759400389945105836e-02) (526, -2.47518420448136267087e-01) (527, -2.39638596281344984362e-01) (528, -8.48779640115225664232e-01) (529, -1.78803206969646821811e+00) (530, -1.87568530029545144089e+00) (531, -5.09040312999965305352e+00) (532, 1.26521588403397755584e+00) (533, 2.56901606157176054523e-01) (534, -8.02081302034160503744e-01) (535, -9.25183451689207791979e-01) (536, -2.69094168648059406390e-01) (537, -2.80098989834618505856e-01) (538, -2.69045520802569326779e-01) (539, -2.63981679050974971101e-01) (540, -1.70630441167191226892e-01) (541, -2.01801096209124286585e-01) (542, -1.74667571955941410000e-02) (543, -8.36105604940675095627e-02) (544, -1.31611855865582272340e-01) (545, 1.35501895131544730644e-01) (546, 5.39503726583478379619e-02) (547, -6.28037866729738714078e-02) (548, 1.04630196284728940043e-02) (549, 4.49844950627761794304e-02) (550, -3.64933626554756404547e-02) (551, -7.46099363349234656617e-02) (552, -1.69452459671333988123e-01) (553, -1.95758615740374286585e-01) (554, -3.61007011935050581286e-01) (555, -9.54754984892332680957e-01) (556, -9.03113140679324022386e-01) (557, -4.29126986703467672157e+00) (558, -1.92485538930702948512e+00) (559, -2.30240836418438199473e+00) (560, 2.24160628878482306447e+01) (561, 3.33299437431010675548e-02) (562, -8.11291508602401623129e-01) (563, -1.94740924665625159129e+00) (564, -2.73598566159541645160e-01) (565, -2.81667590370011267087e-01) (566, -2.24148057629895147702e-01) (567, -1.03978016941599929468e-01) (568, -2.06187488107733823961e-01) (569, -2.71818594603590979464e-01) (570, -1.28180489995316226892e-01) (571, -1.04423548775317509563e-01) (572, -8.10734210152670720095e-02) (573, 1.79491881642814682385e-01) (574, 1.24859307322975149335e-01) (575, 6.76537980782428161053e-02) (576, -6.13048689830881163298e-02) (577, -3.72936370242219830673e-02) (578, 4.38953248392957781632e-02) (579, -1.39825993337467868738e-01) (580, -1.97990471093707182115e-01) (581, -1.15822859337162936688e-01) (582, -2.47579276069934406390e-01) (583, -8.67163426197493425462e-01) (584, -9.20184670902216672594e-01) (585, -1.78114730109123597934e+00) (586, -1.80321216172466591843e+00) (587, 1.17863343151344368565e+00) (588, 1.31307354855948665850e+00) (589, -2.37583297774593305007e+00) (590, -9.43344480506168370226e-01) (591, -1.79562091508801047191e+00) (592, -3.78933038070733640978e-01) (593, -1.66152455141377386472e-01) (594, -1.18081160118412936688e-01) (595, -1.74733989169430670163e-01) (596, -1.22874507277064407007e-01) (597, -8.72910111833144070070e-02) (598, -2.66038568286948273744e-01) (599, -7.69508022797671803472e-02) (600, 9.43161259039455024400e-02) (601, 1.68656953667026043853e-01) (602, 8.09128070815616218248e-02) (603, 4.02917420017161673207e-02) (604, -3.70922254789453412216e-02) (605, -9.92651092327918871394e-02) (606, -1.01450170806774125909e-01) (607, -1.56380720665287908933e-01) (608, -3.11007194449734680752e-01) (609, -3.34066092476184461901e-01) (610, -3.86318291976983640978e-01) (611, -8.30298191822493425462e-01) (612, -1.80093489576725374057e+00) (613, -2.72924779714965648481e+00) (614, -2.31713074128544527230e-01) (615, 9.50124122417879135583e+00) (616, 1.25946636784487919769e+00) (617, -5.90195558471524162059e-01) (618, -1.54696192264064813493e+00) (619, -1.92865924963648383006e+00) (620, -3.53243343040282820056e-01) (621, -1.92086294522118505856e-01) (622, -1.86269633700680670163e-01) (623, -1.54470317294430670163e-01) (624, -2.05129504432511267087e-01) (625, -1.66295347599814236084e-01) (626, -2.00795287774303797546e-02) (627, -1.62119783235101233565e-02) (628, -1.05456702786810435635e-01) (629, 1.20500703397739716838e-01) (630, 1.30602021757114689082e-01) (631, 5.59472968362484043836e-02) (632, -1.17069065055974946832e-01) (633, -1.16400467075438551756e-01) (634, -1.60146483125519045743e-01) (635, -2.55678821583819326779e-01) (636, -2.66152452906203207394e-01) (637, -3.03664475187594984362e-01) (638, -3.90047538533742521594e-01) (639, -6.54036577558203990890e-01) (640, -1.93439437438396821811e+00) (641, -9.42430266607984901128e-01) (642, -2.19673108919628934377e-01) (643, 9.58631812996578069885e+00) (644, 2.23496200145193064657e+01) (645, 2.23760299273737395254e+01) (646, -1.62108301043018365739e+00) (647, -1.66281274750336671708e+00) (648, -7.47698977815410503744e-01) (649, -2.03090928723645147702e-01) (650, -2.13564560046029028317e-01) (651, -1.84172546355555327713e-01) (652, -1.18767274408171474853e-01) (653, -5.88978881524303624073e-02) (654, -1.97874938933680299957e-01) (655, -1.05274728330956995892e-03) (656, 4.16719732424326513853e-02) (657, -3.43264917210055128804e-02) (658, -1.32403885789246611449e-01) (659, -5.89631295952326023313e-03) (660, -3.80891359600549900266e-03) (661, -1.18581541719269045743e-01) (662, -1.13472894670795687588e-01) (663, -1.84237056317161806973e-01) (664, -1.73946350929076121172e-01) (665, -2.75234196451241364123e-01) (666, -7.90334179764672573043e-01) (667, -6.82063918327971752120e-01) (668, -4.32379909211930257840e-01) (669, -8.43705887279096122811e-01) (670, -1.52413667895279852926e-01) (671, 2.23277694323070967641e+01) (672, 2.23740340807445967641e+01) (673, 2.24086349123128378835e+01) (674, -1.86981221021253973813e-01) (675, -9.07773188463436131457e-01) (676, -8.56030099809154232382e-01) (677, -3.74196077273586460987e-02) (678, -1.36650575189421474853e-01) (679, -1.19054136662314236084e-01) (680, -1.35960874943564236084e-01) (681, 4.26952480270174974941e-02) (682, 1.77867948009279783217e-02) (683, 7.95787959291247015692e-02) (684, -2.29541719959470216783e-02) (685, -6.60647729710054920638e-02) (686, -1.08649002231688551756e-01) (687, -1.34118580244295786119e-02) (688, 5.18299577622362672713e-01) (689, 3.50190443782755433944e-01) (690, 3.87055674432465135482e-01) (691, 1.68522155479475022055e-01) (692, 1.83817571596189499594e-01) (693, -8.77743209084544395715e-01) (694, -4.22510378137535003162e-01) (695, -1.08607701863335992520e+00) (696, -2.97397457613041638069e+00) (697, -1.29825984894204049525e+00) (698, -9.26938476050805881812e+00) (699, 2.24228072726138556447e+01) (700, 2.24767928757675612417e+01) (701, 2.24425948747404540029e+01) (702, -3.96377162805781446675e-01) (703, 4.91107951604334580509e+00) (704, 4.66534977374877879441e+00) (705, 2.24599959888466322866e+01) (706, 2.24682113268383467641e+01) (707, 2.24544906207331145254e+01) (708, 2.23725753390201056447e+01) (709, 2.23585189432807887044e+01) (710, 9.45293189800691635583e+00) (711, 9.46691505081367523644e+00) (712, 9.38891212112617523644e+00) (713, 9.58176490134906622131e+00) (714, 9.47463599807930023644e+00) (715, 9.43785621068787605736e+00) (716, 9.55421973235320898254e+00) (717, 9.49243995017719299767e+00) (718, 4.24428022542289706820e+00) (719, 4.30493086465887042635e+00) (720, 2.21284446146387470122e+00) (721, 1.19416459997874735421e+00) (722, 3.29541140211715077868e+00) (723, 2.19939841356176746245e+00) (724, 2.86333518289296540260e+00) (725, -8.71076292105005950406e-02) (726, -6.49624118510172099406e+00) (727, 2.23686996065982306447e+01) (728, 2.23061812930711234060e+01) (729, 2.24403487780102217641e+01) (730, 2.23396834918268645254e+01) (731, 4.42858214778646708254e+00) (732, 2.23638595194526637044e+01) (733, 2.24786422290810072866e+01) (734, 2.24927779772289717641e+01) (735, 2.24420150407560790029e+01) (736, 2.23181075640924895254e+01) (737, 2.23221969195612395254e+01) (738, 2.25014205613144362417e+01) (739, 2.24235641100414717641e+01) (740, 2.24748275318153822866e+01) (741, 2.23764693849690878835e+01) (742, 2.24797835984238112417e+01) (743, 2.23215560504206145254e+01) (744, 9.39753638423395187829e+00) (745, 9.46891699946832687829e+00) (746, 9.46472388721418411706e+00) (747, 9.54110939271163793762e+00) (748, 9.53958960838031622131e+00) (749, 9.50410987652254135583e+00) (750, 9.50205298728656799767e+00) (751, 4.35116515410885096315e+00) (752, 4.40731139583334208254e+00) (753, 2.24683089890488112417e+01) (754, 2.23745040484674895254e+01) (755, 2.24841476120956862417e+01) (756, 2.24114486315258467641e+01) (757, 2.23380904757388556447e+01) (758, 2.25008041002758467641e+01) (759, 2.24799422808893645254e+01) (760, 2.23550216258474314657e+01) (761, 2.23492477015562975851e+01) (762, 2.24373702594049895254e+01) (763, 2.24729781785019362417e+01) (764, 2.24290267565258467641e+01) (765, 2.23839156740315878835e+01) (766, 2.23152755313523734060e+01) (767, 2.24377120622404540029e+01) (768, 2.23070479967602217641e+01) (769, 2.23304244616039717641e+01) (770, 2.24422347583778822866e+01) (771, 2.24327315875299895254e+01) (772, 2.23681258746393645254e+01) (773, 2.24872848131664717641e+01) (774, 2.23158248477586234060e+01) (775, 9.57193824119281622131e+00) (776, 9.55148536927413793762e+00) (777, 2.23815169894107306447e+01) (778, 9.47916480369281799767e+00) (779, 2.24108382799633467641e+01) (780, 2.23060103991039717641e+01) (781, 2.23577865214057887044e+01) (782, 2.23494857401557887044e+01) (783, 2.23566756808169806447e+01) (784, 7.43834999798470841714e-02) (0, 2.23943954073794806447e+01) (1, 2.24533370622404540029e+01) (2, 2.24044417926081145254e+01) (3, 2.23957748004206145254e+01) (4, 2.23025802188523734060e+01) (5, 2.23955367618211234060e+01) (6, 2.24092391543992484060e+01) (7, 2.23922774904378378835e+01) (8, 2.23651595675357306447e+01) (9, 2.23972396441706145254e+01) (10, 2.23987105899461234060e+01) (11, 2.23514449671812975851e+01) (12, 1.17470564813467270859e+00) (13, 3.66891387384510103686e-01) (14, 3.28540039522727311816e-01) (15, 3.49316404475053132739e-01) (16, 2.25011459031113112417e+01) (17, 2.24912826159008467641e+01) (18, 2.23300887682445967641e+01) (19, 2.23581893519469225851e+01) (20, 2.24238265567429984060e+01) (21, 2.23266341798909628835e+01) (22, 2.23704940416820967641e+01) (23, 2.23276839815982306447e+01) (24, 2.24530013688810790029e+01) (25, 2.23968307116039717641e+01) (26, 2.23746261187799895254e+01) (27, 2.24074386172898734060e+01) (28, 2.23283065372117484060e+01) (29, 2.24541549273737395254e+01) (30, 2.24720687457331145254e+01) (31, 2.23494185992487395254e+01) (32, 7.28581318263839650129e-01) (33, 7.56224149470161366438e-01) (34, 4.38948592947671190068e-01) (35, 5.34810415314385778629e-01) (36, 3.48362824550344118979e-01) (37, 4.14589463578412309452e-01) (38, 7.34056821167085482571e-01) (39, 9.79066745238995284062e-01) (40, 1.03571957429001293427e+00) (41, 1.00735654016087017304e+00) (42, 3.75783257039629503549e-01) (43, 3.62319082595447483630e-01) (44, 4.90062773999360823396e-01) (45, 9.33868578681460670410e-01) (46, 2.01503583913695161201e-01) (47, 2.05177897339712922431e-01) (48, 8.54626632341853431640e-01) (49, 9.50697601633763156315e-01) (50, 7.51890653376411366438e-01) (51, 6.13884051893781701459e-01) (52, 2.25002120622404540029e+01) (53, 2.24198775851138556447e+01) (54, 2.25017196276195967641e+01) (55, 2.23667769991763556447e+01) (56, 2.24405501970060790029e+01) (57, 2.23103377857216322866e+01) (58, 3.59252474356424378321e-01) (59, 8.05018663516400390101e-01) (60, 6.71177753810714650129e-01) (61, 2.72780508376697483630e-01) (62, 1.07845166309598353149e-01) (63, 3.25218296280576413260e-01) (64, 2.09629906943513633077e-01) (65, 2.15614938719990933969e-01) (66, 1.67537549122098172738e-01) (67, 7.85604953606160033575e-02) (68, 4.23186548825887687286e-01) (69, 5.17003686007646345857e-01) (70, 4.55254421409753584626e-01) (71, 4.67720515879236520274e-01) (72, 6.65733420853446888898e-01) (73, 2.61598804717909638740e-01) (74, 9.81701835104933806520e-01) (75, 1.44720204890517734064e+00) (76, 1.47811635554580234064e+00) (77, 1.60961660713700771552e+00) (78, 1.18287399246930857721e+00) (79, 1.52571157336978457941e+00) (80, 5.34518784755949161180e-01) (81, 4.69806306824479102957e-01) (82, 2.24380050339706862417e+01) (83, 2.24827010669716322866e+01) (84, 2.24117965289362395254e+01) (85, 2.23594710902281725851e+01) (86, 3.63494417715799378321e-01) (87, 5.06328625623230443864e-01) (88, 6.83479333552025503096e-01) (89, 6.87731454258339480745e-01) (90, 6.83428475742714480745e-01) (91, 5.94829844420330711152e-01) (92, 7.58031757657902316438e-01) (93, 6.97594741468803958284e-01) (94, 7.78128981822899801202e-01) (95, 6.36466376716069426323e-01) (96, 7.85088573290899649493e-01) (97, 7.88870105607078264676e-01) (98, 6.50559492665916616616e-01) (99, 5.33629671510843062165e-01) (100, 7.67175479114132752301e-01) (101, 6.68719670057374093730e-01) (102, 5.28715430785371642841e-01) (103, 4.77744973291112762226e-01) (104, 6.38358979512406943257e-01) (105, 6.12626566578103659566e-01) (106, 5.83891212035371420797e-01) (107, 5.00681980539514404072e-01) (108, 5.04696015716673551665e-01) (109, 3.51735804678084296171e-01) (110, 7.62734778073341002091e-01) (111, 2.23426070773013556447e+01) (112, 2.23715499454148734060e+01) (113, 5.57825390679657417969e-01) (114, 4.44527887706335222973e-01) (115, 5.00367598665285573389e-01) (116, 4.40610560009948026838e-01) (117, 5.19453123481551481966e-01) (118, 7.22369808569857219105e-01) (119, 7.36816827073999980335e-01) (120, 6.95599786803433040028e-01) (121, 6.85828056052633860951e-01) (122, 7.96564150467821474599e-01) (123, 8.41420882723358354305e-01) (124, 8.94649640998867234920e-01) (125, 9.63387430987384774106e-01) (126, 1.12680433185052408795e+00) (127, 1.74799577316469045840e+00) (128, 1.75110856613344045840e+00) (129, 1.72241594067043179983e+00) (130, 9.87567199497662806529e-01) (131, 7.69287109430022542078e-01) (132, 6.73432653274271597610e-01) (133, 8.06288310573552768901e-01) (134, 4.34864845812483691301e-01) (135, 3.68232761264010333147e-01) (136, 5.18730080712987762226e-01) (137, 7.61558361917950343845e-01) (138, 1.97030801737732486068e+00) (139, 3.72101916732423632084e+00) (140, 2.23315475099690878835e+01) (141, 2.23557113260932887044e+01) (142, 3.15475841585460492489e-01) (143, 5.59486280425007698192e-01) (144, 3.51797780109123492398e-01) (145, 4.83129574529704231001e-01) (146, 7.10498466953941920643e-01) (147, 7.72497977927633638906e-01) (148, 7.81689870968767519521e-01) (149, 6.68054621532866099720e-01) (150, 8.33388650200393876766e-01) (151, 9.48342264971759774106e-01) (152, 8.66726053289201936458e-01) (153, 1.81503679773038717471e+00) (154, 1.77481462231105657779e+00) (155, 1.88177889481529536653e+00) (156, 1.84047029808506312776e+00) (157, 1.87799471512779536653e+00) (158, 1.83544710919603648591e+00) (159, 1.65871965309804791922e+00) (160, 6.61674184621440897303e-01) (161, 5.82310167969333658533e-01) (162, 5.78130516501082714065e-01) (163, 4.98963963926001563554e-01) (164, 5.22053566515608746812e-01) (165, 6.30198494166352207735e-01) (166, 8.73145093431400898254e-01) (167, 1.46403067016225985064e+00) (168, 2.23773238771565878835e+01) (169, 1.04920177178590012801e+00) (170, 2.40391594787425499913e-01) (171, 4.74885896670793228314e-01) (172, 5.04298732507203695263e-01) (173, 5.68457629042097400962e-01) (174, 6.89282651856848338490e-01) (175, 8.28882265702196474599e-01) (176, 8.08954287186571474599e-01) (177, 8.37947980842617234920e-01) (178, 9.28756081841018654721e-01) (179, 1.01559080310824190185e+00) (180, 9.48317856869724251645e-01) (181, 1.69020158222144956106e+00) (182, 1.67971574684804791922e+00) (183, 1.90514925763353626387e+00) (184, 1.96822298214182178633e+00) (185, 1.86479891360148730683e+00) (186, 1.87385042652830424714e+00) (187, 1.06726360802933961658e+00) (188, 5.40087992552188311812e-01) (189, 5.86619248510467539148e-01) (190, 6.06052843750583658533e-01) (191, 4.93859271796359244888e-01) (192, 4.05110167402405796366e-01) (193, 8.85162909736561420715e-01) (194, 9.14185126533436420715e-01) (195, 1.23190540802225112493e+00) (196, -7.54935423209224909513e-01) (197, 2.71043462177104454991e-01) (198, -6.77927362098251551359e-01) (199, 3.06486574431247105199e-01) (200, 2.99301436258034014859e-01) (201, 3.67734057915882373013e-01) (202, 5.58862905459829861776e-01) (203, 4.23097093144698066514e-01) (204, 4.65638600776238364976e-01) (205, 6.71702263773548247094e-01) (206, 6.31480095804798136072e-01) (207, 6.34861437500583658533e-01) (208, 1.01494382449152742431e+00) (209, 1.18125379325103296857e+00) (210, 1.74798967113918157779e+00) (211, 1.78893204948133321963e+00) (212, 1.97382601246580402510e+00) (213, 1.94112948224291126387e+00) (214, 8.22034353733522404895e-01) (215, 6.65905861410764132735e-01) (216, 5.07788187119630141098e-01) (217, 6.93951515707639132735e-01) (218, 5.81992780686485300379e-01) (219, 6.27097768605815897303e-01) (220, 8.72638498654293659484e-01) (221, 8.90808661689686420715e-01) (222, 8.96735181322025898254e-01) (223, 1.41762180523270253651e+00) (224, 6.03018099710818100689e-01) (225, -6.83383906557117670744e-01) (226, -6.93546260072742670744e-01) (227, 1.31138672550506096837e-01) (228, 2.98051518817729454991e-01) (229, 2.10983534258195826183e-01) (230, 2.94398799257365617610e-01) (231, 4.94179100620721456494e-01) (232, 4.15235783203060870861e-01) (233, 4.56867848078055305283e-01) (234, 5.96879256785976419764e-01) (235, 5.56119983912574777918e-01) (236, 6.70097036183941008325e-01) (237, 5.18229355932342428126e-01) (238, 9.42745344123867012875e-01) (239, 1.13733289630364908795e+00) (240, 8.44061706081339235830e-01) (241, 4.46009692291064185898e-01) (242, 5.34980613120949466399e-01) (243, 5.22284013273497604857e-01) (244, 5.18249614390996260482e-01) (245, 6.22631943080094729659e-01) (246, 5.17639262828496260482e-01) (247, 5.54569689453708658533e-01) (248, 9.67928455553081490415e-01) (249, 8.16669260373043881529e-01) (250, 8.64746657421517017639e-01) (251, 1.94837808275646762191e+00) (252, -2.75428333103601463705e+00) (253, -6.67594107164894312589e-01) (254, -6.37583116366420954435e-01) (255, 3.87762001801263855860e-01) (256, 1.10752922912425486035e-01) (257, 1.37272705753631096837e-01) (258, 3.75673211829749498225e-01) (259, 4.77345578091231625972e-01) (260, 4.59016272855329976466e-01) (261, 3.64399576616812215235e-01) (262, 9.32004654189067083259e-01) (263, 1.00093776114793309162e+00) (264, 9.78618464222414496945e-01) (265, 5.06269695294428334620e-01) (266, 6.28654939323744721413e-01) (267, 5.57028395511642737681e-01) (268, 3.95154822312151043917e-01) (269, 5.50617817171967005585e-01) (270, 3.80586083361065530273e-01) (271, 5.27838212492247604857e-01) (272, 4.35577464344283127318e-01) (273, 6.14135844859746371505e-01) (274, 7.23872963493512711075e-01) (275, 6.66335117226289463943e-01) (276, 2.02890176737732463863e+00) (277, 9.55391825518634774106e-01) (278, 1.99305582085675792037e+00) (279, 1.93694010043568209944e+00) (280, -2.59450549602453195419e+00) (281, -7.09629023744617670744e-01) (282, -6.64365353359733790128e-01) (283, -7.42276730312858790128e-01) (284, 3.27807157386076020167e-01) (285, 8.24655897774276724910e-01) (286, 4.43483270423499498225e-01) (287, 4.62861932532874498225e-01) (288, 4.35236977470446095850e-01) (289, 9.82323295226557258175e-01) (290, 9.70848685851557258175e-01) (291, 1.26886829605147521960e+00) (292, 9.24298663844990375793e-01) (293, 1.09846612117864772529e+00) (294, 7.13235703073715088252e-01) (295, 6.92111400343910276867e-01) (296, 5.35782059111133857066e-01) (297, 6.40837547570548005105e-01) (298, 4.21046282478726052734e-01) (299, 4.39374427568845815628e-01) (300, 4.55230784656783127318e-01) (301, 7.92818243597308347503e-01) (302, 1.05347575729176790027e+00) (303, 9.91580006828759019655e-01) (304, 2.30580835429457353669e+00) (305, 2.08237467372841411617e+00) (306, 2.10998087788052135494e+00) (307, 5.72674430928035160804e+00) (308, -1.54330222701463459778e-01) (309, -1.89803859984311845688e-01) (310, -6.76285514905010431974e-01) (311, -6.70981558336769312589e-01) (312, 6.84523026662933409270e-01) (313, 4.36110220568267259456e-01) (314, 2.93623648302642259456e-01) (315, 5.42518468630838746058e-01) (316, 4.41602939796972737696e-01) (317, 3.72975016069937215235e-01) (318, 5.54749946339543220653e-01) (319, 9.81649146757152535336e-01) (320, 1.65843888541883344168e+00) (321, 1.45880606972795656695e+00) (322, 6.83346782587741730097e-01) (323, 5.81965369608137828017e-01) (324, 7.25489960298989933207e-01) (325, 6.50871736198744721413e-01) (326, 5.18391254671967116607e-01) (327, 4.64411760994351052734e-01) (328, 4.86773756387015366087e-01) (329, 6.73006231878558458526e-01) (330, 1.00898721440609984157e+00) (331, 9.40701071162787005875e-01) (332, 1.09129314606473259985e+00) (333, 1.94326944315857486068e+00) (334, 5.69648918158216854835e+00) (335, 4.42159972442135096315e+00) (336, -6.07523301913295954435e-01) (337, -2.12661525999936845688e-01) (338, -6.87845574988876551359e-01) (339, -2.99355863427552937317e-01) (340, 3.45731480482671049703e-01) (341, 3.85150710390152140050e-01) (342, 4.66059710213101052734e-01) (343, 5.04914717805910573389e-01) (344, 5.08668379915285684412e-01) (345, 4.22645421755838857081e-01) (346, 5.65343651266707714065e-01) (347, 1.29495008529376498529e+00) (348, 1.78221818229383321963e+00) (349, 1.80348283967202993594e+00) (350, 9.83518600982210222661e-01) (351, 8.89807691087650898254e-01) (352, 7.38002167330239933207e-01) (353, 6.50106927822784452786e-01) (354, 3.02627828818151478618e-01) (355, 3.23871413515152140050e-01) (356, 3.92744283505833291503e-01) (357, 6.93608238670876731113e-01) (358, 8.79042100271342330409e-01) (359, 7.05033382146712184202e-01) (360, 7.40726740776654124510e-01) (361, 2.05604410583204799678e+00) (362, 5.76607536173267742896e+00) (363, 4.38714537871822596315e+00) (364, 3.81298021904882711297e-01) (365, -2.38046048974427965073e-01) (366, -7.59690055920635431974e-01) (367, 2.15361078699416619298e-01) (368, 3.48688310281576319127e-01) (369, 3.15116179125462136934e-01) (370, 3.11154999720011316011e-01) (371, 2.67374500325249120358e-01) (372, 4.93995519412088857081e-01) (373, 4.32014318240213857081e-01) (374, 5.78187446339543220653e-01) (375, 9.62014139971759774106e-01) (376, 1.25703504921149722406e+00) (377, 1.07001152686454936713e+00) (378, 9.44458564033436420715e-01) (379, 8.09833322873043881529e-01) (380, 6.42031981121257810941e-01) (381, 2.09532221277541619298e-01) (382, 2.98570317645854454991e-01) (383, 3.10969844179240617610e-01) (384, 4.07716206588900231811e-01) (385, 6.32841638598492961520e-01) (386, 7.87942490433481301793e-01) (387, 7.54624450325127482664e-01) (388, 7.74759942411538005125e-01) (389, 6.03446638108360300379e-01) (390, 1.25855335575088478350e+00) (391, 5.86274895333015577670e-01) (392, 3.90082451978788269376e-01) (393, 6.82261428518937118604e-02) (394, -7.58768426551376551359e-01) (395, -1.77889793013963487534e-01) (396, 1.43835145675648978791e-01) (397, 1.72362006871116330009e-01) (398, 1.96611273704183270317e-01) (399, 4.32334214141891770566e-01) (400, 3.60432291460562215235e-01) (401, 4.74946456087160573389e-01) (402, 7.67128148363088291362e-01) (403, 8.51825510373043659484e-01) (404, 9.55123276791599251645e-01) (405, 8.39630690624642239683e-01) (406, 8.94934644212650898254e-01) (407, 8.26422681322026120299e-01) (408, 5.51493748117639182027e-01) (409, 2.24021968861407738682e-01) (410, 2.95756590982264977452e-01) (411, 3.83943506407712631390e-01) (412, 4.59168887926752811168e-01) (413, 6.60374603543332328037e-01) (414, 7.85355857346292207666e-01) (415, 6.78563897026801976509e-01) (416, 8.34867374717350840818e-01) (417, 4.22212534053476806761e-01) (418, 6.26099914459864681504e-01) (419, 5.33637758491913860581e-01) (420, 2.01013562513329996362e-01) (421, 4.16559564672700000099e-01) (422, 2.72268940609285359233e-01) (423, 2.82145751138514977452e-01) (424, 1.24461616991174431335e-01) (425, 3.18828079519880014381e-01) (426, 3.18156692801130014381e-01) (427, 1.60692084251058325828e-01) (428, 4.68867348564196095850e-01) (429, 4.51478431058454976466e-01) (430, 4.61775089843685870861e-01) (431, 8.99133865942883137024e-01) (432, 9.23816477169918659484e-01) (433, 8.96686350216793659484e-01) (434, 8.34107008984017239683e-01) (435, 4.61991793502523284687e-01) (436, 4.12874498046974069965e-01) (437, 1.48063716908282738682e-01) (438, 2.22392333169764977452e-01) (439, 4.96168400390560870861e-01) (440, 4.12959168894703632091e-01) (441, 6.86821163182197103048e-01) (442, 9.32291886542077619104e-01) (443, 6.03038993192935857124e-01) (444, 6.79003347171569737739e-01) (445, 1.80838247820846065306e-01) (446, 5.48325097368592251357e-01) (447, 5.39838932602088039658e-01) (448, -2.69310168892089851767e+00) (449, 9.16781485393348916091e-01) (450, 4.54218205494701710023e-01) (451, 3.85528257660445405897e-01) (452, 1.61688905209712102673e-01) (453, 4.95871253980943282880e-01) (454, 1.80894720969808270317e-01) (455, 2.77883173932447269383e-01) (456, 4.90217435487663888427e-01) (457, 3.71015767880833291503e-01) (458, 7.24806369529222171977e-01) (459, 9.30231278052258137024e-01) (460, 8.32459059765267239683e-01) (461, 5.25802301874592870057e-01) (462, 5.84653730719519204584e-01) (463, 4.75108950124810303084e-01) (464, 1.50206053127831917759e-01) (465, 1.80693109949416619298e-01) (466, 5.06355614292596456494e-01) (467, 5.57325626953060981883e-01) (468, 5.29261645416064241410e-01) (469, 8.24675165598330983663e-01) (470, 6.58787712936339864278e-01) (471, 8.86002857183339931346e-01) (472, 6.78197616070873254834e-01) (473, 4.72614842238046561906e-01) (474, 6.04108952133338039658e-01) (475, 5.28944157211463039658e-01) (476, 2.23244124987133467641e+01) (477, 4.35006939387916180539e-01) (478, 4.81183540506183948793e-01) (479, 5.56557725955474591473e-01) (480, 4.01357571284550573854e-01) (481, 5.91812417580434346753e-01) (482, 5.60177893115827107984e-01) (483, 6.08877978716931944625e-01) (484, 4.32865556985120469857e-01) (485, 6.06577744604217539148e-01) (486, 9.44606916389492012875e-01) (487, 2.73372076539446817733e+00) (488, 1.79797811149686581622e+00) (489, 6.33761289229824997804e-01) (490, 3.58857368269466625588e-01) (491, 3.50551501490215022816e-01) (492, 2.53805802118370060771e-01) (493, 3.85274044888106736995e-01) (494, 6.01319756845278718949e-01) (495, 5.83405938485903718949e-01) (496, 5.58854354442226419764e-01) (497, 6.99778929834304341817e-01) (498, 6.31218135838447214070e-01) (499, 6.14054558695423136072e-01) (500, 3.89497863296449420289e-01) (501, 4.82946310331668793303e-01) (502, 5.42658757565896099351e-01) (503, 1.11658795116859077545e+00) (504, 3.06217174141144132804e-01) (505, 5.75183783156692940430e-01) (506, 5.80298532230675179200e-01) (507, 5.84188338209617352703e-01) (508, 4.12405537507352981663e-01) (509, 7.01683090789958385791e-01) (510, 6.96657385831521591690e-01) (511, 9.12484546354268011292e-01) (512, 9.43247727995040752269e-01) (513, 1.67901994457668179983e+00) (514, 1.24191053451251498529e+00) (515, 2.65299566550304399826e+00) (516, 6.45767439864848968867e-01) (517, 5.44663864283531418131e-01) (518, 4.35206246712707633950e-01) (519, 4.96917190244253625941e-01) (520, 3.90778968167829976466e-01) (521, 5.94184738138957002640e-01) (522, 6.75150750101673247094e-01) (523, 4.91264020920860244868e-01) (524, 6.32932720602619180994e-01) (525, 4.90507183493244125483e-01) (526, 6.12138045848476419764e-01) (527, 6.49633897695210849044e-01) (528, 7.79780999211060255050e-01) (529, 5.28614565877596920274e-01) (530, 6.42323061971346920274e-01) (531, 5.97305949984963557853e-01) (532, 9.24541916496742111065e-01) (533, 7.92219866045867471271e-01) (534, 5.96790228469192940430e-01) (535, 5.62036816460907417969e-01) (536, 5.78601751906692940430e-01) (537, 7.38673988884137711075e-01) (538, 8.15376866763280472306e-01) (539, 1.07675457482621461658e+00) (540, 1.90209749982103626387e+00) (541, 1.84729387780851217471e+00) (542, 1.67009660771316403860e+00) (543, 1.13683850557755961042e+00) (544, 7.09976424239848968867e-01) (545, 4.94292300045770516270e-01) (546, 3.82811587155145793826e-01) (547, 3.81861729604530797388e-01) (548, 4.42335392578060870861e-01) (549, 6.45359484375583658533e-01) (550, 5.02366317332851308741e-01) (551, 6.39603866160976419764e-01) (552, 6.35038433493244180994e-01) (553, 5.31522812218534479456e-01) (554, 5.92779642197755252120e-01) (555, 5.64862167689469729659e-01) (556, 6.73775136855828127302e-01) (557, 6.09986640660445278428e-01) (558, 6.60841137318293636582e-01) (559, 4.95596967845137792441e-01) (560, 2.24655440934904540029e+01) (561, 1.09903466994076493002e+00) (562, 5.08887399418175068178e-01) (563, 4.30841740650951710023e-01) (564, 5.00257026834308948793e-01) (565, 5.98693950328496371505e-01) (566, 6.85933511858628830460e-01) (567, 7.53652017718003830460e-01) (568, 1.96641635045751850264e+00) (569, 1.91762484506115238325e+00) (570, 1.74889299443191381656e+00) (571, 1.71128923243111485952e+00) (572, 7.05748543971850605949e-01) (573, 5.19259837843910498911e-01) (574, 6.35710594445548005105e-01) (575, 4.16108588917668109630e-01) (576, 5.40892969163073833450e-01) (577, 4.87327253342735244868e-01) (578, 4.88914167405235244868e-01) (579, 6.03098740697967539148e-01) (580, 5.93467390061485300379e-01) (581, 6.66082872304585849044e-01) (582, 5.95031840953496371505e-01) (583, 9.00884785704151425101e-01) (584, 5.23591376988570278428e-01) (585, 5.45539613960663860581e-01) (586, 6.25825256256739681504e-01) (587, 4.86079293532784229015e-01) (588, 8.84521160073268752910e-01) (589, 4.88733586354076710023e-01) (590, 5.09436715824425068178e-01) (591, 5.80860052687942940430e-01) (592, 5.19794378859817829408e-01) (593, 5.57409772876170550582e-01) (594, 5.18487652990487379867e-01) (595, 8.00783369844602188614e-01) (596, 1.83700960770592036653e+00) (597, 1.98980501935228626387e+00) (598, 1.88249300316318812776e+00) (599, 1.71001359617537374014e+00) (600, 1.12704847247552408795e+00) (601, 9.54346259345936420715e-01) (602, 8.49683177878784778869e-01) (603, 5.98082918019904430373e-01) (604, 6.84165639699565897303e-01) (605, 6.35068951071369180994e-01) (606, 5.28965437681543360071e-01) (607, 4.99924911082851364252e-01) (608, 6.51682732523548136072e-01) (609, 6.46545512828496371505e-01) (610, 9.35711448095575382133e-01) (611, 9.48608179591432620903e-01) (612, 3.63652375701239982675e-01) (613, 5.66246928006774785658e-01) (614, 7.60444806154873198523e-01) (615, 5.39158224354028825509e-01) (616, 9.39611490614402633526e-01) (617, 1.12602441677957298971e+00) (618, 8.56551442491519710032e-01) (619, 4.63190377188742008485e-01) (620, 5.14740672392666187562e-01) (621, 6.29205433878568087813e-01) (622, 5.85962018224862490889e-01) (623, 6.30798442515996371505e-01) (624, 1.37903538243168477528e+00) (625, 1.91334017262205402510e+00) (626, 1.90944002464756290571e+00) (627, 1.98384188756689350264e+00) (628, 1.96854037687525074141e+00) (629, 1.74098283222144933902e+00) (630, 1.83735124191469045840e+00) (631, 4.92039171875583603022e-01) (632, 5.68748151780235300379e-01) (633, 5.83903184057342539148e-01) (634, 6.83713970602619180994e-01) (635, 6.04978626490699777918e-01) (636, 5.09476913035976308741e-01) (637, 5.11682233068612379867e-01) (638, 6.01519881043103610274e-01) (639, 5.27948102209237379867e-01) (640, 2.28375883505563315179e-01) (641, 6.39232763380176427503e-01) (642, 6.35471700916528825509e-01) (643, 5.44810078332662706124e-01) (644, 2.23998153322347128835e+01) (645, 2.23282088824518645254e+01) (646, 8.65731138932216426340e-01) (647, 7.27736745225894932076e-01) (648, 7.48629082190502170846e-01) (649, 7.20227476075598338490e-01) (650, 9.25115746460691723563e-01) (651, 1.00354592224194161254e+00) (652, 1.30969943748110417836e+00) (653, 1.86523836747154536653e+00) (654, 1.82484529808506312776e+00) (655, 1.91614168778404514448e+00) (656, 1.96067904577001850264e+00) (657, 1.88536776498302760530e+00) (658, 1.99566439435228626387e+00) (659, 6.04826038600074777918e-01) (660, 5.16489853979217428126e-01) (661, 5.02262560547458547511e-01) (662, 5.84092391551601419764e-01) (663, 4.48121507207198066514e-01) (664, 4.85065292077490273215e-01) (665, 4.67633652942606392600e-01) (666, 5.65296004968115384237e-01) (667, 3.89027489119261049577e-01) (668, 2.88227928572385994066e-01) (669, 4.86843220224148887088e-01) (670, -7.14394412776644532892e-02) (671, 2.24503768571623290029e+01) (672, 2.23383407183893645254e+01) (673, 2.24031905719049895254e+01) (674, 8.65596849667537471262e-01) (675, 1.16690576369076470797e+00) (676, 7.99251634823787471262e-01) (677, 6.56489716158365155252e-01) (678, 7.15515557542749980335e-01) (679, 9.65627418241527535336e-01) (680, 8.70562520824209484793e-01) (681, 2.04738785480479323908e+00) (682, 2.14284683917979323908e+00) (683, 2.03244034354905211970e+00) (684, 2.07236344521264159724e+00) (685, 2.01660172050217711970e+00) (686, 1.25117421021506469714e+00) (687, 1.17169846826111645477e+00) (688, 9.62397834766786308691e-01) (689, 2.78171660814139631857e-01) (690, 3.04300813439938810934e-01) (691, 1.39354003091639977452e-01) (692, 3.02073729654139977452e-01) (693, 3.03086919208354454991e-01) (694, 3.56427132378116628963e-01) (695, 3.19921999464527151424e-01) (696, 4.89179032192768259435e-01) (697, 1.41508539636916619298e-01) (698, 5.19788009918894400307e-01) (699, 2.23172042407997572866e+01) (700, 2.23568221629568064657e+01) (701, 2.23482955546089137044e+01) (702, 5.74294533421028097209e-01) (703, 5.80610911337281376809e-01) (704, 3.15578356958965300372e-01) (705, 2.96941681850683258936e-01) (706, 2.61468052018415497706e-01) (707, 4.12365264344942139552e-01) (708, 2.65978547830116318629e-01) (709, 3.66991735149156617091e-01) (710, 2.36132352698576020167e-01) (711, 3.39007108557951020167e-01) (712, 3.18914338100683258936e-01) (713, 3.55334020305406617091e-01) (714, 2.92547150600683258936e-01) (715, 3.16772005606424378321e-01) (716, 3.10619658876192139552e-01) (717, 3.07183384049665497706e-01) (718, 3.50231475282442139552e-01) (719, 3.21569367397558258936e-01) (720, 4.09942171622049378321e-01) (721, 3.26256870377790497706e-01) (722, 2.49552977701014977452e-01) (723, 4.27475899134616366126e-01) (724, 5.32190542178579639732e-01) (725, 3.89473048740118288347e-01) (726, 6.14104448258537716221e-01) (727, 2.24911727496393645254e+01) (728, 2.23370406740315878835e+01) (729, 2.24149520509847128835e+01) (730, 2.23283065372117484060e+01) (731, 9.44585084575734423851e-01) (732, -2.71110706001464851767e+00) (733, -2.65864734321777307358e+00) (734, -7.50296751334224909513e-01) (735, -5.87717393710170954435e-01) (736, -7.02280389442001551359e-01) (737, -6.95804560853992670744e-01) (738, -7.50571409537349909513e-01) (739, -6.39322625770126551359e-01) (740, -6.36692012025867670744e-01) (741, -6.85428584291492670744e-01) (742, -6.21451536490474909513e-01) (743, -6.52359733655010431974e-01) (744, 3.06377715516817139552e-01) (745, 4.14214632559549378321e-01) (746, 2.80224151063692139552e-01) (747, 3.76403353262674378321e-01) (748, 3.16857456315290497706e-01) (749, 3.73638457704317139552e-01) (750, 3.73443148184549378321e-01) (751, 3.49846958268415497706e-01) (752, 3.34527134049665497706e-01) (753, -2.58431873440687143173e+00) (754, 2.23169539981492484060e+01) (755, 2.24132003375299895254e+01) (756, 2.23338668459065878835e+01) (757, 2.24056502916820967641e+01) (758, 2.24029403292544806447e+01) (759, 2.23312423341878378835e+01) (760, -6.55179562344108790128e-01) (761, -6.68473014905010431974e-01) (762, -6.79856071545635431974e-01) (763, -6.85416372789894312589e-01) (764, -6.69235954358135431974e-01) (765, -6.57382929994617670744e-01) (766, -7.50778923108135431974e-01) (767, -5.67087510897670954435e-01) (768, -7.18619501515184611051e-01) (769, -6.92789422645126551359e-01) (770, -6.93436393811260431974e-01) (771, -5.93631709291492670744e-01) (772, -6.71909297182117670744e-01) (773, -7.44693721010242670744e-01) (774, -1.09798981642160300987e-01) (775, -2.96316309666070698547e-01) (776, 1.65513669570273858067e-01) (777, 1.70249996205157738682e-01) (778, -2.57595608776244877625e-01) (779, -2.63253568505677937317e-01) (780, 2.23555831500299895254e+01) (781, 2.24802535661467040029e+01) (782, 2.24559493699081862417e+01) (783, 2.24534408190258467641e+01) (784, 5.70051457031185981883e-01) (0, 2.23765060045727217641e+01) (1, 2.24095443301804984060e+01) (2, 2.24894332476862395254e+01) (3, 2.23962813951977217641e+01) (4, 2.24857040085800612417e+01) (5, 2.23389632814534628835e+01) (6, 2.24602462389477217641e+01) (7, 2.24164229967602217641e+01) (8, 2.23982467242487395254e+01) (9, 2.23703536578424895254e+01) (10, 2.23953170367487395254e+01) (11, 2.23144454547174895254e+01) (12, 6.41299953005752154667e-01) (13, 2.07688954512320211876e+00) (14, 2.04995472768984487999e+00) (15, 2.03633168379507711876e+00) (16, 2.23092757799633467641e+01) (17, 2.23711288087972128835e+01) (18, 2.24828048386581862417e+01) (19, 2.23083480411179984060e+01) (20, 2.24932784625299895254e+01) (21, 2.24240157716878378835e+01) (22, 2.24645675309904540029e+01) (23, 2.24765182175644362417e+01) (24, 2.24440719225414717641e+01) (25, 2.24186141603597128835e+01) (26, 2.25011825152643645254e+01) (27, 2.24215072208054984060e+01) (28, 2.24965682663925612417e+01) (29, 2.24428756275185072866e+01) (30, 2.23507186473318064657e+01) (31, 2.23031722643383467641e+01) (32, 3.65826932356000666946e-01) (33, 4.35473797801308126765e-01) (34, 5.09059017242282418891e-01) (35, 4.84779229105800124611e-01) (36, 4.31035680098544426997e-01) (37, 3.50523555880267678742e-01) (38, 4.75402320468971295586e-01) (39, 8.00789523759655730295e-01) (40, 9.41982146242432261118e-01) (41, 5.08537111561607524379e-01) (42, 6.39152345936607524379e-01) (43, 4.79727818691551677333e-01) (44, 9.19907397745577615211e-01) (45, 5.15286902957975856410e-01) (46, 3.83208970567960216513e-01) (47, 4.29781455994726835357e-01) (48, 5.20202378771085216513e-01) (49, 3.50537527747343535811e-01) (50, 3.18591830894590199996e-01) (51, 7.93190778862388312653e-01) (52, 2.23809127398737395254e+01) (53, 2.24222579562076056447e+01) (54, 2.23520370089419806447e+01) (55, 2.23707015627034628835e+01) (56, 2.24824020006664717641e+01) (57, 2.23691085391648734060e+01) (58, 3.55346849146656484919e-01) (59, 1.22093647729102250388e+00) (60, 3.68829866513849025100e-01) (61, 4.54462921175897038850e-01) (62, 3.82990520072127915707e-01) (63, 4.94277578174920073639e-01) (64, 3.74807354390473412842e-01) (65, 4.96621391967674796764e-01) (66, 5.33779545363645913092e-01) (67, 4.38192388650637032477e-01) (68, 4.95162604984503151861e-01) (69, 4.40078376468878151861e-01) (70, 4.25414781114835216513e-01) (71, 5.29150138637799694052e-01) (72, 5.46886946103352977744e-01) (73, 4.50494128308076224876e-01) (74, 5.38256580970067455283e-01) (75, 3.72100572130460272025e-01) (76, 4.00597888073701335898e-01) (77, 3.48486747987459655196e-01) (78, 5.23071710415075719069e-01) (79, 3.56036793835352416426e-01) (80, 5.19287530727575719069e-01) (81, 5.46088073797414974564e-01) (82, 2.24611373581894362417e+01) (83, 2.23821090274461234060e+01) (84, 2.23269332461961234060e+01) (85, 2.23144759722956145254e+01) (86, 2.08907997665492450867e-01) (87, 8.48007040646794219008e-01) (88, 1.19722928948777251890e+00) (89, 4.67693623294677673918e-01) (90, 5.27392108132686554534e-01) (91, 5.29816962926070278428e-01) (92, 6.27320617584864681504e-01) (93, 6.76386788634936397813e-01) (94, 5.40687319038788860581e-01) (95, 5.04603333918730800889e-01) (96, 6.68482735900561397813e-01) (97, 5.31727358846346920274e-01) (98, 6.00310616012693087917e-01) (99, 6.45385086353898684841e-01) (100, 6.04474144926510192910e-01) (101, 4.76379815883825774581e-01) (102, 5.47827575750539974564e-01) (103, 3.96246757753084655196e-01) (104, 4.35638849086950663558e-01) (105, 9.95763379505208878761e-01) (106, 9.43523380330137273475e-01) (107, 9.05931826105646154090e-01) (108, 8.10497257283262273475e-01) (109, 1.10524753889878435409e+00) (110, 1.86759580723047680095e+00) (111, 2.23333114200242484060e+01) (112, 2.23410811983951056447e+01) (113, 3.93449360703938078032e+00) (114, 4.96820333352528009652e-01) (115, 1.09256716092138161933e+00) (116, 1.47455938590802504429e+00) (117, 1.50072515813745810398e+00) (118, 1.48842046840228392490e+00) (119, 1.57120245380439116367e+00) (120, 1.55194586200751616367e+00) (121, 1.52231939567365004429e+00) (122, 1.57365606410540892490e+00) (123, 1.53139532042779280552e+00) (124, 1.62557257397212340244e+00) (125, 6.22112568607177673918e-01) (126, 4.53997332742061554534e-01) (127, 5.25097187747802673918e-01) (128, 5.25091085722293793303e-01) (129, 4.44518577446784912688e-01) (130, 1.12483229540714257944e+00) (131, 1.04969801806339280148e+00) (132, 1.13758669068126549995e+00) (133, 1.11771364529638161933e+00) (134, 1.13626834024696221626e+00) (135, 2.49841392938425155279e+00) (136, 3.84825703328363966094e+00) (137, 3.98580586736910369439e+00) (138, 3.82279926365130018340e+00) (139, 1.38283847702243389843e-01) (140, 2.24270919376023734060e+01) (141, 2.24728377946623290029e+01) (142, 4.71710626430700774581e-01) (143, 4.01253926580660369439e+00) (144, 3.93783222710602354155e+00) (145, 3.95760151570551421685e+00) (146, 2.43654259074856849310e+00) (147, 1.60907476825751616367e+00) (148, 1.58848151249923064121e+00) (149, 1.57753790600337340244e+00) (150, 1.46790045185126616367e+00) (151, 1.60613897128142668613e+00) (152, 1.51763189269341780552e+00) (153, 1.64193609042205168613e+00) (154, 1.04428419523366944333e+00) (155, 1.03111891501077646005e+00) (156, 1.05367751099595086117e+00) (157, 4.91747580607976852995e-01) (158, 1.19814162753948205697e+00) (159, 1.15940871142276757944e+00) (160, 1.10748000495561593759e+00) (161, 1.16440139018424981820e+00) (162, 1.63602178974189116367e+00) (163, 2.41550377164413543341e+00) (164, 3.84857441311590742217e+00) (165, 4.02035176580660369439e+00) (166, 3.94201313530914854155e+00) (167, 1.81606746295812859771e+00) (168, 2.24022323229320967641e+01) (169, 9.54339210159492346008e+00) (170, -1.91299221312436845688e-01) (171, 4.00006978040449645562e+00) (172, 3.97383686726801421685e+00) (173, 3.88152729546539854155e+00) (174, 1.55212896747626616367e+00) (175, 1.44847906066216780552e+00) (176, 1.56095464957990004429e+00) (177, 1.63448980135955168613e+00) (178, 1.63442876620330168613e+00) (179, 6.83594005262406545498e-01) (180, 5.13567645242061554534e-01) (181, 5.96618186821784912688e-01) (182, 5.19787129154052673918e-01) (183, 5.52764427056159912688e-01) (184, 5.88073264946784912688e-01) (185, 5.54314721515026032073e-01) (186, 5.14403831353034912688e-01) (187, 5.31804952909793793303e-01) (188, 1.03893141501077668210e+00) (189, 1.15471511386760705697e+00) (190, 1.60287969989814116367e+00) (191, 2.42614219863345237371e+00) (192, 3.90918842529766630278e+00) (193, 3.88239399542920660124e+00) (194, 3.85976826226227354155e+00) (195, 5.79324210828943542140e+00) (196, -3.86363355392983987002e+00) (197, 2.08063387975911728844e-01) (198, -1.60545801043018365739e+00) (199, 3.85199615464429434564e-01) (200, 5.17448765400222221444e-01) (201, 4.21055947604945579599e-01) (202, 4.82964620133485733611e-01) (203, 4.91686545451726852995e-01) (204, 5.53338866876432855513e-01) (205, 4.61541991876432911024e-01) (206, 5.56018311725923974898e-01) (207, 4.87860351996490970716e-01) (208, 5.28863769220182855513e-01) (209, 5.49310546563932855513e-01) (210, 5.98504889952013452437e-01) (211, 6.01452168216552673918e-01) (212, 4.38549336185302673918e-01) (213, 5.28527367999401032073e-01) (214, 4.69121847441043793303e-01) (215, 4.72667988529052673918e-01) (216, 5.15270527591552673918e-01) (217, 5.40172871341552673918e-01) (218, 1.14479079150089257944e+00) (219, 1.58879278285540892490e+00) (220, 3.91175801133625578032e+00) (221, 3.85381733452789854155e+00) (222, 3.84983784532063078032e+00) (223, 3.93651997124664854155e+00) (224, -1.59935449480518365739e+00) (225, -4.00544873575142457156e+00) (226, -1.54463036775096917985e+00) (227, -8.12910026487744130641e-01) (228, -2.83065578734311817932e-01) (229, 1.29039416065529044531e-01) (230, 3.17840972950340583392e-01) (231, 2.36548239400268867083e-01) (232, 3.33378250004567444620e-01) (233, 4.31962238849915802774e-01) (234, 5.00700028838433564005e-01) (235, 3.81388506145991623697e-01) (236, 4.37516438068665802774e-01) (237, 3.97898519636906922159e-01) (238, 3.60398514421500504312e-01) (239, 3.90202676120570579599e-01) (240, 4.47764930489829460214e-01) (241, 4.68223911884597221444e-01) (242, 4.55809359613231102060e-01) (243, 3.60948522749713340829e-01) (244, 4.97575727465918937753e-01) (245, 4.64262728753856102060e-01) (246, 5.24691697985898986012e-01) (247, 1.03911257182268990107e+00) (248, 2.51934288595249222809e+00) (249, 3.96410786932222869439e+00) (250, 3.90102802788727354155e+00) (251, 3.83081913094713311096e+00) (252, -1.66411890133723283647e+00) (253, -3.91878491217664315371e+00) (254, -4.03680249626210763125e+00) (255, -1.53249659060939813493e+00) (256, -7.15388058301842488795e-01) (257, -1.41933991407785176087e-01) (258, -2.38992093896302965073e-01) (259, 2.52528565554498485302e-01) (260, 2.56300541190980724071e-01) (261, 1.56239504544614604686e-01) (262, 2.68226804761766246532e-01) (263, 2.21289999787824043231e-01) (264, 1.73133261506574043231e-01) (265, 3.78324540557183564005e-01) (266, 4.16886555256165802774e-01) (267, 4.58305698993972221444e-01) (268, 4.38188512984088340829e-01) (269, 3.90489538374713340829e-01) (270, 3.75212435785106102060e-01) (271, 4.32009805769693444599e-01) (272, 4.15847693414461205830e-01) (273, 4.24368207187425683369e-01) (274, 4.34603799910318444599e-01) (275, 4.48733438582193444599e-01) (276, 1.58783108086553093052e+00) (277, 3.67345828663303519690e+00) (278, 3.79574222963049034973e+00) (279, 1.10819718359676744335e+00) (280, -1.53258814334377313493e+00) (281, -3.89716626281312539248e+00) (282, -4.05225049281886651187e+00) (283, -1.52848047434791589616e+00) (284, -7.17975942966378011256e-01) (285, -7.76307246264851369411e-01) (286, -2.66659325754079579163e-01) (287, 2.04011718361257365917e-01) (288, 2.72535892753480724071e-01) (289, 2.66890140800355724071e-01) (290, 2.04993609343783744769e-01) (291, 4.89542799295701325235e-01) (292, 4.70090897979058564005e-01) (293, 5.89868415342638452437e-01) (294, 5.53808126737918793303e-01) (295, 5.26427757134284912688e-01) (296, 5.57110127200927673918e-01) (297, 5.47307160857490093697e-01) (298, 4.90572139567255871562e-01) (299, 4.02352821857702325214e-01) (300, 3.52432166070711205830e-01) (301, 4.99490273029577325214e-01) (302, 4.71383583576452325214e-01) (303, 4.01595988155376504292e-01) (304, 9.66775352683785338392e-01) (305, 2.37968980186717571357e+00) (306, 2.36695176773803295234e+00) (307, 7.74680929008476071296e-01) (308, -4.02740918422511651187e+00) (309, -3.99564649114779069095e+00) (310, -4.02510816181472375064e+00) (311, -1.51792748689159417985e+00) (312, -6.86933456537163422695e-01) (313, -1.07095121240053062217e-01) (314, 4.47703984405179722383e-01) (315, 3.95109993244786961153e-01) (316, 4.03319221760411961153e-01) (317, 5.05772056283273152566e-01) (318, 4.33536941410817444620e-01) (319, 5.61737302886316736128e-01) (320, 5.50805907892057855513e-01) (321, 4.56060324003543793303e-01) (322, 4.99334249784793793303e-01) (323, 5.94805445661392151457e-01) (324, 5.57024676492061554534e-01) (325, 4.03849656789272704049e-01) (326, 1.96595946876882365917e-01) (327, 2.05676661839367169726e-01) (328, 5.18411171467077269703e-01) (329, 4.69259564609300683369e-01) (330, 3.82009808749925683369e-01) (331, 5.40768352181684508473e-01) (332, 4.94814989001524041523e-01) (333, 7.37565444532386593757e-01) (334, 7.59021254336388784267e-01) (335, 6.64625716593172377600e-01) (336, -3.96528759921363427310e+00) (337, -4.00160962293318345218e+00) (338, -3.93782788837722375064e+00) (339, -1.61956323354944253801e+00) (340, -7.67719595310128011256e-01) (341, 3.69609494532724125460e-01) (342, 3.40990115727563602999e-01) (343, 5.01682700814523152566e-01) (344, 4.41947588922299683389e-01) (345, 3.67948563994683564005e-01) (346, 5.73926035510370691206e-01) (347, 4.35254153059790149793e-01) (348, 1.01253370993265168210e+00) (349, 1.51779220569344408531e+00) (350, 7.75258288172470777511e-01) (351, 5.03673847904052673918e-01) (352, 4.50445804940531269178e-01) (353, 2.01350587038873485302e-01) (354, 8.62443843768822965279e-02) (355, 1.94372946431518783816e-01) (356, 4.49319374592077325214e-01) (357, 3.75796426863443444599e-01) (358, 3.93917762518894265522e-01) (359, 8.99310549942484827035e-01) (360, 8.37445309607020349496e-01) (361, 2.94144369120234006054e-01) (362, 6.72015635376723485805e-01) (363, 3.08606900279538520770e-01) (364, 1.35036572532721077522e+00) (365, -1.61729272871717477678e+00) (366, -3.90507031554750039248e+00) (367, -7.67682975706494130641e-01) (368, 1.78431602134121125580e-01) (369, 4.25705648417109006054e-01) (370, 3.46884068877470086445e-01) (371, 4.70950235457193444599e-01) (372, 3.93142619014751504292e-01) (373, 4.26107709140550683369e-01) (374, 4.65539794610807911024e-01) (375, 1.16701369785198205697e+00) (376, 2.48317345384885879156e+00) (377, 6.24794423965203127302e-01) (378, 6.01311784376945435149e-01) (379, 5.48559818612406213667e-01) (380, 5.48918026595085373209e-01) (381, 1.12098882524846829578e-01) (382, 1.47377199112056544994e-01) (383, 3.30363889063974125460e-01) (384, 4.58553996712934563984e-01) (385, 3.91689979315769265522e-01) (386, 7.99679400947811980238e-01) (387, 9.79061732617142577162e-01) (388, 9.96624997107020349496e-01) (389, 3.70059122175943444599e-01) (390, 6.04847476033846920274e-01) (391, 1.16039729958091042405e+00) (392, 3.85875507270805906401e+00) (393, 3.33759182796697195794e-01) (394, -4.00721875528267457156e+00) (395, -6.81684433099663422695e-01) (396, 4.60764251107805722363e-01) (397, 5.26180949837934508473e-01) (398, 4.81686320931684563984e-01) (399, 4.08883583576452325214e-01) (400, 4.53494180769693444599e-01) (401, 5.19100871712934508473e-01) (402, 4.74988039778540149793e-01) (403, 5.62182862507173974898e-01) (404, 6.00292500247802673918e-01) (405, 5.36370385577526032073e-01) (406, 5.55304203378031213667e-01) (407, 4.58642839392862655679e-01) (408, 5.39966244645307957839e-01) (409, 2.62654306917070201610e-01) (410, 4.25651979471822483614e-01) (411, 5.41567918689023986012e-01) (412, 4.59146034748327325214e-01) (413, 8.78390344408276457777e-01) (414, 9.08053430345776457777e-01) (415, 9.61294392672303099623e-01) (416, 9.75930626121285338392e-01) (417, 4.57052533359300683369e-01) (418, 6.13966533180381968116e-01) (419, 7.21907207008507079138e-01) (420, 3.88645893907063078032e+00) (421, 9.43747168994855911706e+00) (422, 3.74298944737555927542e-01) (423, 4.77062575307521663515e-01) (424, 5.44829142454436810006e-01) (425, 4.51848183933070579599e-01) (426, 3.82805210712722221444e-01) (427, 4.27566443414461205830e-01) (428, 3.94082558185827325214e-01) (429, 5.35159227282774097034e-01) (430, 6.30163822518655991622e-01) (431, 5.36206301497290094282e-01) (432, 6.05835203276941736128e-01) (433, 5.49225103305647333052e-01) (434, 6.04651140919170715371e-01) (435, 4.82757989711950774581e-01) (436, 9.93181193159806546822e-02) (437, 3.23157126119018867083e-01) (438, 4.45138466388952325214e-01) (439, 3.83438025445711205830e-01) (440, 8.09573198285820860853e-01) (441, 8.75057818916561980238e-01) (442, 8.60366659787419219008e-01) (443, 9.33260942426445860853e-01) (444, 8.33868650940886468881e-01) (445, 4.44731478753856102060e-01) (446, 7.81276107963230437292e-01) (447, 6.58937239285614317907e-01) (448, -1.54298852800830865739e+00) (449, 9.53623878426265569885e+00) (450, 3.98162495916597869439e+00) (451, 3.90288119378856102060e-01) (452, 5.24284702900222221444e-01) (453, 5.47752720478347332467e-01) (454, 4.71611363056472221444e-01) (455, 4.05443151655963340829e-01) (456, 5.11459273130666747242e-01) (457, 3.94283973456394265522e-01) (458, 4.42071777032682911024e-01) (459, 4.63543947981665149793e-01) (460, 5.42096194075415094282e-01) (461, 5.52337917437992431680e-01) (462, 4.87872738785933013350e-01) (463, 1.58308597831605724071e-01) (464, 2.67738523511766246532e-01) (465, 3.61917808110350125439e-01) (466, 5.27006876829436698983e-01) (467, 1.14685793985633721626e+00) (468, 1.01461306233911385810e+00) (469, 9.91830284324410338392e-01) (470, 8.07345415082695860853e-01) (471, 8.37582236704352278700e-01) (472, 5.08726847532561698983e-01) (473, 5.34248110054413860581e-01) (474, 7.86866934236194914831e-01) (475, 6.31538556154873198523e-01) (476, 2.23619002887018645254e+01) (477, 1.46886031645747072716e+00) (478, 3.83127094631903242217e+00) (479, 1.56977422965802504429e+00) (480, 9.76605465857020349496e-01) (481, 9.47619876114359827035e-01) (482, 8.28094726649752588266e-01) (483, 4.87071571114829460214e-01) (484, 4.68850624592077325214e-01) (485, 5.05538862974416747242e-01) (486, 5.87304938780138452437e-01) (487, 4.60740531890362181588e-01) (488, 4.19944631962746062204e-01) (489, 4.13769949622343535811e-01) (490, 3.51881137046754444153e-01) (491, 9.76152369664895352974e-02) (492, 1.83479497759221843456e-01) (493, 